0.14386272
0.08341871
0.18621348
0.09101741
-0.0394012
-0.09478755
-0.16555199
-0.12135184
0.11487908
0.04584297
-0.05020136
-0.10930655
-0.09780496
0.18785176
-0.030533638
-0.099840075
-0.1441412
0.030275626
0.13925052
-0.105459616
0.0039772573
0.0062122475
0.15177459
0.115811385
0.15318808
-0.14061952
0.18424529
0.050114263
0.11424432
0.1308187
0.11318061
-0.12316116
-0.19213702
-0.0027979475
0.0047442615
-0.21790615
-0.14289126
0.15807953
0.10575368
0.13808961
-0.06995054
0.105465524
-0.14064495
0.13981757
-0.13305233
0.012992515
0.17421882
-0.21026732
0.11071768
0.021135258
0.16722967
-0.013690864
0.092544444
-0.12719092
0.064774714
0.17326616
-0.20714147
0.0230762
-0.12213586
-0.049335416
-0.09482736
0.008349439
0.0446486
0.067222856
-0.011955494
-0.09571091
-0.06498964
-0.15860274
-0.16928285
0.08575083
0.054198258
-0.09234264
-0.18888938
0.1314417
0.024528623
-0.07758769
0.05977111
0.13908131
0.18789542
0.0914925
-0.1494127
0.0842341
-0.22993883
-0.123347916
0.014645953
0.1590929
0.10192025
-0.1314122
0.074799545
-0.0963182
-0.16969715
0.06445767
0.044496052
-0.00236391
-0.13204277
-0.072305955
-0.07545461
-0.0983343
-0.017829614
0.12136316
-0.01520593
0.14071026
0.16286223
0.07790499
0.17553067
0.12890768
0.03334145
0.039409786
-0.012441674
-0.11375731
0.041547813
0.056318533
0.16498542
0.09103793
0.09547764
0.16876058
-0.1462254
-0.12327722
-0.10624215
0.13852842
-0.028761698
0.11508659
0.15770394
0.060678866
-0.117007166
-0.16384207
0.038433637
-0.06497659
-0.07677848
0.13681164
-0.07726961
-0.1996291
0.07520986
0.06798469
-0.113657266
0.14811063
-0.02628562
-0.18783975
-0.05087753
0.07787227
-0.20257477
-0.045117088
0.10929533
0.0632375
-0.06676921
0.17805436
0.20409451
-0.14423499
0.08443888
0.22261962
0.12108139
0.078342766
-0.013227788
0.081433594
0.15163273
-0.106954806
-0.087642714
-0.30101615
0.16214071
-0.0064409925
-0.043708913
0.11466797
0.12761745
0.055089816
0.1410599
-0.17262988
0.09853296
-0.021748034
