-0.08459778
-0.0561313
-0.00029067363
0.06326891
-0.18081053
0.122328155
0.08411203
0.020403268
-0.053168982
-0.084502846
0.044702947
-0.051351774
-0.07080078
-0.01608647
0.084861115
0.0046575484
-0.16553731
-0.14820892
-0.14321193
-0.048189566
-0.059996825
0.012982241
0.069897115
0.20886184
0.0065015866
0.104273275
0.10825614
0.10164022
-0.10620194
-0.09075694
-0.11064755
-0.10382749
0.08440487
-0.018953545
0.12915397
0.19235554
0.03918549
0.185731
-0.0056320108
-0.052053902
0.1185561
0.16952388
-0.13408548
-0.064211875
0.020867089
-0.03910056
-0.08316224
-0.10086715
-0.12392583
0.025317065
-0.053540796
-0.041306265
0.035140917
-0.002600304
0.043185566
-0.0007517107
-0.07327998
0.3511774
-0.11996512
-0.09022066
0.15997154
0.05567502
-0.07027038
-0.02824599
0.023777634
0.23680009
0.039043017
-0.049875155
-0.034685787
-0.08125914
-0.14200145
0.104261994
0.051358644
0.096589826
-0.17103274
-0.05255181
-0.10714825
-0.046136986
0.11014968
-0.015934817
-0.06171692
-0.051866166
0.007283772
-0.06549449
-0.08103225
0.08527636
-0.05813575
0.0466941
0.115269475
-0.1705018
0.09557211
0.0859808
0.12107029
-0.10561106
0.04062707
0.13054563
0.13858068
0.007872146
0.05844464
0.14314112
-0.02734838
0.21112633
-0.025772855
0.063851595
0.008628773
0.010028459
0.0955441
0.18281272
-0.041277878
-0.18391868
-0.11301425
-0.11267789
0.040841863
0.06216229
-0.11551923
-0.20171359
-0.06004965
-0.15387961
0.16327175
0.008071706
0.11678603
0.095561475
-0.015584432
0.071206346
0.0144456625
0.075188264
0.0026740984
-0.04466285
0.12739734
0.03946709
0.027882535
0.10921209
-0.02520659
-0.070307665
-0.007953898
-0.060490314
0.08260918
-0.06685873
0.03596673
-0.036492623
-0.09293012
-0.1264141
-0.027344013
0.068726376
-0.09808033
0.007320363
-0.0142327
-0.12588954
0.0127245765
-0.003363415
0.041368082
0.020372512
-0.033531886
-0.11032073
-0.04779338
-0.014936811
0.052306283
0.22939128
-0.055150174
-0.011607659
-0.09679886
-0.069532365
-0.18175344
-0.07615566
0.06367767
-0.031605247
-0.052317474
-0.05368583
