-0.15744503
-0.18952622
0.09866745
0.19037539
0.106118396
-0.05631534
-0.1914873
-0.17442852
-0.14329526
0.23838483
0.060409036
-0.17927855
0.12548147
0.014303451
-0.13940178
0.011158472
0.15495092
-0.15467288
0.025273062
-0.14380912
0.11107874
-0.04777178
-0.031648334
-0.11240864
-0.22407253
0.14246713
-0.12331433
0.17464285
-0.008732704
0.32856935
0.050359502
-0.024356931
-0.1687192
-0.14781338
0.28278813
-0.18643308
-0.069019385
0.084291235
-0.011291532
-0.094974354
0.12155845
0.14368622
0.099876545
0.21532838
-0.093148485
-0.14169788
0.03328818
0.039551113
0.16587964
-0.13232309
-0.19267078
-0.058907468
0.16195448
0.3240648
-0.05963239
0.14907004
-0.016557312
0.049976647
-0.1767594
0.007967762
0.05111432
-0.09846679
0.14060135
0.2700413
0.16217072
-0.044237603
-0.011786319
0.10812062
-0.09386277
-0.16100276
-0.10313088
0.069655746
0.13050005
-0.053787258
0.03913365
0.12472108
-0.12941645
0.14169873
0.10916939
0.10923382
-0.016443893
-0.026833765
-0.10585395
-0.07133665
0.042341262
0.034352608
-0.0069640297
-0.045883935
0.12505111
-0.09314537
0.19721864
0.022659449
-0.19084764
0.13416903
0.15077138
-0.10763558
-0.20070475
-0.0083574215
-0.14708777
0.1194525
0.08046345
0.072813414
0.23572509
0.03690499
-0.12510262
0.09102028
0.014269245
-0.051640347
-0.0049066376
0.22396074
0.115849786
-0.17114292
-0.018024711
-0.10530387
-0.029262194
0.051449183
0.17000438
0.035857067
0.015656358
0.028192364
0.07380601
-0.04359643
0.056582287
-0.16796608
0.19153766
0.20879906
-0.058707047
0.09610349
0.15420827
-0.032979697
0.03902739
-0.1694028
-0.001953705
-0.07652565
0.0069618914
0.0340532
0.21519513
0.21780059
0.09130974
-0.016278844
0.07766932
-0.12389969
0.103004895
-0.10405516
0.06317342
0.24647981
-0.17566863
0.12321457
0.19704175
-0.09359968
0.16694398
0.032072134
0.17359771
0.05661886
-0.019245751
0.13119195
-0.027358795
-0.23045626
-0.18396361
-0.14543785
0.028801164
0.08513021
-0.038407624
0.008049452
0.070494
-0.084386274
-0.07225002
0.03569686
