-0.088219985
-0.17289864
0.11527752
-0.14755487
0.052882217
0.1593053
0.09475169
-0.1925093
-0.00512742
-0.08518123
0.15414858
0.018537674
-0.16286904
-0.048565716
-0.08176897
0.08532279
0.14447676
-0.08140956
-0.14511886
-0.019189093
0.1781971
-0.17427883
-0.033874575
0.09444684
-0.038427107
-0.07841951
0.35719466
0.00817473
-0.18887624
-0.14305879
-0.045676313
0.02005819
0.092228636
-0.11676097
-0.08805552
-0.0052265865
0.16882466
0.06385384
0.063581266
-0.19451559
0.052168634
0.10051935
0.47979844
0.03179575
-0.030663738
-0.020736048
-0.07400434
-0.021603864
-0.08225243
0.008279038
-0.07894507
-0.032670718
-0.11861082
-0.06718174
0.09862482
0.12704277
-0.08797718
-0.07105008
-0.013257945
0.02508354
0.044120695
0.14856662
-0.031844668
0.025119426
0.044537432
-0.010121112
0.086937375
-0.11810402
0.18426666
-0.1845392
-0.0071581327
0.0009870678
0.09269991
0.025752084
0.107331865
-0.04719697
-0.119445965
0.02228051
0.03359745
0.050514005
0.06821602
-0.02897858
0.16865249
-0.16799216
-0.0050745993
-0.022833277
-0.18412746
0.28474978
0.009192191
-0.056084383
0.17195313
-0.023350978
-0.15979597
-0.10693852
-0.035310455
-0.06754099
-0.08229627
0.30986726
-0.022782534
0.031833354
0.073984265
-0.045475084
0.08062008
-0.056629654
0.22130798
-0.046158098
0.068918526
-0.019772705
0.101235904
-0.038816288
-0.112075
0.20301794
-0.07451219
-0.04693279
0.02415631
0.12739427
0.026686143
-0.0471059
0.1279856
0.03691434
0.030154815
-0.05018624
0.012830881
0.16623013
0.048400253
-0.0916823
-3.1769305e-05
-0.46782428
-0.08647998
-0.15080981
-0.08156674
-0.03252478
-0.095772564
-0.10109456
0.09179105
0.104480535
0.11072864
-0.08426429
-0.1428928
0.013155213
-0.09645457
0.061537277
-0.024253441
-0.02593853
0.16213909
0.030147795
0.38212729
-0.011443511
0.06810628
0.012642074
0.15958463
-0.069500394
0.048221093
-0.07571481
-0.032462098
0.080353566
0.10561579
-0.056836527
-0.18307266
-0.06002312
-0.15063979
-0.04171961
-0.06928509
0.12724122
0.032906696
-0.04514471
-0.040694535
0.072910346
