-0.07995604
-0.15928179
0.16914046
-0.10933498
-0.13176359
0.13995622
-0.08386524
0.17937826
0.14108634
-0.073401
-0.18332982
-0.13865307
0.0038919293
0.12076737
-0.1552651
0.12378621
0.37484026
-0.13305752
-0.16964418
0.1710847
0.022327134
0.30663478
0.21358952
0.39745414
-0.002989723
-0.091722496
0.13411437
0.01645496
-0.04526699
-0.123544194
0.11441813
-0.11959772
0.31761074
-0.25427225
0.19985299
-0.06280292
0.09417979
0.13533044
0.1633718
0.18365327
-0.21482144
0.13659793
0.09007566
-0.10975839
0.108421765
-0.108093485
-0.2731142
-0.08008963
-0.34041354
0.07065278
-0.07820827
-0.1523509
-0.13948473
0.049059328
0.16461346
0.14670679
0.22377409
-0.11314921
0.28720486
-0.072460935
-0.17474928
-0.14325249
0.089416295
-0.1528727
0.1089183
-0.28793958
-0.08182915
0.07573538
-0.1265075
-0.11642465
-0.030113257
-0.16610251
0.3025945
0.3252922
0.13813408
0.15214135
-0.2855887
-0.19369924
0.1521967
0.1458364
-0.0876197
0.013734653
-0.08829108
-0.2192746
0.10598992
0.07861179
-0.14346077
0.11544307
-0.04460483
0.03816691
0.15310127
-0.019549001
0.04586655
0.32931548
0.13033438
-0.12249309
0.33036837
0.11667541
0.008052726
-0.09083995
-0.11743819
0.10934683
-0.024952134
0.3064725
-0.0442957
-0.015612284
-0.1303987
0.17953591
-0.10144721
-0.12025001
0.1941967
0.17126101
0.09730855
-0.12049625
0.07740992
-0.09255907
0.10923739
-0.0597327
-0.14112358
0.010890194
-0.50757134
0.1413348
-0.024211735
-0.2761592
0.49317312
-0.2430297
-0.10911516
-0.115803234
0.042418487
0.15226948
-0.22312118
-0.27797222
-0.0647265
-0.6350946
0.108711526
-0.1143926
0.037433334
-0.12703882
-0.1728788
0.000450585
-0.23648334
0.24859738
-0.13439135
0.09894506
-0.39745945
0.08639869
-0.15870441
-0.44349524
0.12599267
0.16148679
0.18220365
-0.011703809
-0.2948656
0.19406343
-0.319587
-0.15177183
0.09388269
-0.23113333
0.15810403
-0.12646542
-0.11523273
0.012839157
-0.1314933
-0.076416165
0.13063957
-0.11722667
-0.062180087
0.006843557
