0.12266338 0.102028765 0.023068476 -0.008060586 -0.021275545 0.015951032 0.019321492 0.012891259 0.02280712 -0.059948537 -0.03546559 0.0035281784 0.048855867 0.10995492 0.12767987 0.07437884 0.049980775 0.02962323 0.065071516 -0.02061844 0.03441178 0.046654496 0.009820255 0.018002447 0.15495445 0.13040257 0.12728705 0.11983127 0.21158433 0.14045386 0.10170432 0.09889392 0.08309395 0.052029382 0.042481527 0.059835672 -0.07168257 -0.02654001 0.020966014 -0.04720601 0.000443774 0.104160056 0.04216257 0.030975109 0.1002415 0.08906814 0.071257435 0.06250102 0.11005778 0.10034834 0.0044010505 0.02033688 0.07389405 0.09973459 0.1592911 0.10108829 0.12685707 0.09541404 0.042498577 0.02593073 0.05473804 0.030625626 0.031824198 0.039731145 0.030240664 -0.0014447026 0.12252735 -0.03143163 0.05516856 0.049466886 -0.057632297 -0.033125143 0.039331924 0.064505175 0.06893684 -0.014937871 0.0174711 -0.035810757 0.07031776 0.05760943 0.013006111 0.057274483 0.016918464 0.026165714 -0.00055723067 0.08004796 0.022074422 -0.012069189 0.071066804 0.088617414 -0.03404423 0.013633102 0.067044 0.10822499 0.004913389 0.06844366 0.068342775 0.07029143 -0.019345608 0.030519443 0.0074370457 0.08060285 0.08280322 0.05408371 0.041634887 0.02023359 0.08924275 -0.004778043 -0.037399616 0.04097251 0.0036997613 -0.044468682 0.021504223 0.029420827 0.04978915 0.07299109 -0.02532705 -0.035092223 0.036933113 -0.027432093 -0.066693075 0.002166196 -0.04754704 0.048171677 0.10557893 0.051021416 0.017688842 0.069051996 0.06570498 0.038246427 -0.07376325 0.0244832 -0.0074875583 -0.06466822 0.04239169 -0.080253504 0.039514083 0.04209403 0.08284015 0.10404862 0.0027149688 -0.03184261 0.026162114 0.0589672 0.04089353 0.09948737 0.104398005 0.00031242825 0.052901164 -0.030030182 -0.031091541 0.034960296 0.033024933 -0.07092579 -0.0115545485 -0.06007484 0.04353472 0.0057115178 0.116123475 -0.110781804 0.08017969 -0.07235304 -0.044310555 -0.07001092 -0.03121499 -0.0048335856 0.024109561 0.058086302
-0.038453657 -0.0055235387 -0.053162403 -0.0800655 -0.104869805 -0.093469314 0.03279055 -0.073283374 -0.10250367 -0.055059575 -0.17236447 -0.17025073 -0.059000768 -0.09890664 -0.029245898 -0.06071416 0.013967163 0.076791905 0.16585161 0.108809605 0.13352843 0.13734719 0.25116047 0.13977565 0.10358941 0.2026523 0.080193534 0.20746134 0.10001505 0.04737375 0.17487012 0.1404825 0.049124382 0.15836579 0.159019 0.114487104 0.17208497 0.21482226 0.115715936 0.08981116 0.104959905 0.15450017 0.13886815 0.054330952 0.11522801 0.118090875 0.10728394 0.06805993 0.2192054 0.11531601 0.15437883 0.24649633 0.1835285 0.15198551 0.17669132 0.093244255 0.12645233 0.1447859 0.19790277 0.10072754 0.10862734 0.14858958 0.13384007 0.15331374 0.13828512 -0.0038510915 0.13490105 0.02679628 0.084340066 0.14543684 0.15857534 0.108643375 0.027109053 0.104393326 0.09272747 0.029410716 0.006763477 0.10712258 0.04086804 0.065781265 0.1426573 0.02050702 0.02709031 0.15844136 0.1115869 0.11091767 0.0605671 -0.03772953 0.026512446 0.07136592 -0.031319432 0.10407503 0.0167713 -0.04011772 -0.06155204 0.053393077 0.10699602 0.015972888 -0.034201678 0.078457035 -0.011935299 0.10265038 -0.03078373 0.018332781 -0.055349216 -0.037607674 -0.05072051 -0.015703581 0.0040572532 -0.0011182171 -0.083847225 0.069824465 -0.0032861824 -0.06649412 -0.035625536 0.017580254 0.018867077 -0.03742755 -0.022776444 0.011458571 0.07868572 -0.038135022 -0.009244596 0.028041916 0.11960827 -0.021460751 0.087092794 0.061072823 -0.005513867 0.09202733 0.0649834 0.016659198 0.10513875 0.062202264 0.021812016 0.118372835 0.06778821 -0.029328588 -0.043663837 0.05022285 0.03163884 0.08827316 0.07230304 0.015313203 0.096935004 0.09068135 0.07390955 0.14058338 0.08710636 0.061479177 0.035137948 0.032645594 0.093274005 0.1513458 0.14660715 0.04653087 0.14187682 0.17840506 0.021006122 0.01854959 0.18625359 0.06601663 0.15467001 0.104662105 0.09166401 0.10794049 0.10089271 0.050740205
0.114873365 0.16500218 0.015005082 -0.019572176 0.08606361 -0.036435828 0.06625566 0.026582131 -0.03766786 -0.06648781 -0.09462199 -0.020753924 -0.044044152 0.009005911 -0.028727025 -0.067789055 -0.1382664 -0.00631536 0.0039850143 0.045031782 -0.011688029 -0.011513731 0.043836627 -0.10155812 0.0032281135 -0.052326277 -0.10576381 -0.09080161 -0.051004115 -0.17002231 -0.10721595 0.042369843 -0.05268569 0.040436156 -0.0031158733 -0.012736049 0.012140829 0.0033193093 0.019394532 0.09306985 0.060094826 0.0022982666 -0.029740263 0.026318487 0.009923674 0.056806307 0.03322815 0.03220875 0.011165676 -0.05913563 -0.011844945 0.009888975 0.03613452 -0.025675245 -0.010871034 -0.015513424 -0.10094999 -0.037012614 0.027495012 -0.05963206 -0.025653005 -0.05674833 -0.02690667 0.0018009747 -0.024086755 -0.10972108 -0.087657325 -0.08549143 -0.10034449 -0.09266791 -0.079030894 -0.06739586 -0.1332274 0.012232715 -0.05036296 -0.063804895 -0.06720062 -0.033520885 0.040432308 0.052461874 -0.040665083 0.011825825 -0.016977932 0.0145735005 -0.050513435 -0.102752194 -0.020645788 -0.059117343 -0.04955216 -0.0021218623 0.018148702 -0.068408385 0.0067463536 -0.016109224 -0.020785578 0.037619583 -0.01747969 -0.06406367 -0.028289529 -0.007787209 0.014847531 -0.007295509 0.016489858 -0.054295927 -0.07545834 0.035780292 -0.05048894 -0.01071895 -0.09803169 0.0019234447 0.04052016 -0.09130509 -0.017637147 -0.039038174 0.041260142 -0.03761386 -0.08838308 0.015492575 0.034181394 0.040493462 0.0034641358 -0.006507565 -0.021343132 -0.11010422 -0.024645597 -0.03666152 0.02801477 -0.12607859 0.010476222 -0.01837672 -0.049622323 -0.101409025 0.018021911 -0.059498675 -0.04387016 -0.013015726 0.002392527 0.0464267 -0.07572079 0.013125933 -0.045218248 0.02356556 -0.09931564 -0.10892697 -0.088487506 -0.031054148 -0.04530697 -0.062965065 -0.004866684 -0.075573795 -0.10140556 -0.07227258 -0.08883727 -0.043936003 -0.031546876 -0.0031672956 0.007912999 -0.07784595 -0.07558118 -0.027084133 -0.09217772 -0.08940799 -0.011036328 -0.09250427 0.012587221 -0.059207667 -0.05722582 -0.08656465
0.07796727 0.06370137 0.06266559 0.0983614 0.032987677 0.012559568 0.11742218 -0.06507503 0.0065678726 0.07811691 0.08026235 -0.028446455 0.06240193 -0.12706345 -0.037941594 -0.13518564 -0.059997268 -0.120104566 -0.036191605 -0.18077004 -0.090982676 -0.112176664 -0.09920692 -0.20790428 -0.2184441 -0.099959366 -0.15703487 -0.031343058 -0.11931818 -0.11708459 -0.08465284 -0.030554125 0.0034766097 -0.028351361 -0.101338595 -0.069363 0.026836965 -0.052987184 0.012861313 0.032206386 -0.067383274 0.0055723083 -0.09720185 -0.10021214 -0.016956761 -0.047628734 -0.022183686 -0.04015388 -0.022984259 -0.033917353 -0.10417231 -0.020940538 0.034392435 0.0049655456 -0.13893819 -0.07522442 -0.030532759 -0.080589965 -0.015777443 -0.16505764 0.027624302 0.005841856 0.087991305 -0.012485082 0.003970108 -0.07134431 -0.008262178 -0.10184045 -0.057766765 -0.060006224 -0.09140814 0.030773304 -0.033019274 -0.053992234 -0.0650661 0.016126106 0.06877471 -0.09217966 -0.056641392 -0.035723917 0.010711237 -0.0099738855 -0.1275181 -0.07779206 0.032557327 0.057077408 -0.014435534 -0.037337806 -0.048719775 0.039289296 -0.0056484966 -0.020254524 -0.004737024 -0.025837256 -0.0059643197 0.020636367 0.073277555 0.090789214 -0.014708214 0.08206655 0.017492084 -0.09658522 -0.031575803 0.031778585 -0.0553657 -0.042109597 -0.05538628 -0.022764785 0.047053467 -0.05890915 -0.041117962 0.083195515 0.059696306 0.051215623 0.021230169 -0.009890008 -0.007514626 0.0012716152 0.07926027 -0.058690127 0.034191012 0.039573785 0.11771558 -0.034329753 0.10467742 0.009215061 0.020626238 0.040849216 -0.010245354 0.11784232 0.12653989 -0.0063140444 0.07470307 0.035676103 -0.0949638 0.0011530457 -0.048912745 -0.09019286 -0.022642149 -0.08669518 0.0059617762 0.004387753 0.034320902 -0.024588909 -0.039947502 -0.04128859 0.038255848 -0.10033233 -0.047696933 -0.14077334 -0.041365847 0.01681405 -0.034790587 -0.011788069 -0.16184396 -0.12975119 -0.14441733 -0.10486457 -0.19786315 -0.15113805 -0.17645055 -0.12363741 -0.24954808 -0.18861315 -0.2523679 -0.20120357 -0.31292903 -0.39981115
0.035114724 -0.0023517066 -0.019349225 -0.12004037 -0.046388786 -0.052067813 -0.008329222 -0.06265319 -0.020464726 -0.10191853 -0.071009606 -0.042079728 -0.09486889 0.008443883 -0.05127223 -0.027254893 -0.11071953 -0.16304629 -0.09656517 -0.10479417 -0.09071256 -0.14690353 -0.09996098 -0.057638995 -0.03695634 -0.09220004 -0.007187012 -0.100364625 -0.041882124 -0.18098314 -0.054331448 -0.21503106 -0.17839396 -0.17503709 -0.20586929 -0.12783934 -0.1464327 -0.19766234 -0.14527123 -0.15335737 -0.16864488 -0.14643256 -0.1295744 -0.13204949 -0.10622623 -0.09179282 -0.076609656 -0.10187309 -0.069788784 -0.05352883 -0.09603876 -0.07461249 -0.11925151 -0.050845042 -0.07050973 -0.08317496 0.05435154 -0.03636051 -0.103756115 -0.083122924 -0.08122134 -0.05052386 -0.006548891 0.028366689 -0.0001610567 -0.03602143 0.034875784 -0.03677869 0.05016654 -0.031001154 -0.050194353 -0.014592558 -0.0674237 0.014390227 0.042740934 0.003784155 0.06416697 0.015171644 0.056658287 0.013818938 -0.058208022 0.013135435 -0.0075760027 0.037717056 0.071911246 0.0789258 0.032741986 0.06941373 0.070064254 0.02170869 0.036924582 0.07022947 0.053180184 0.03627527 0.026112678 0.067119844 0.026513608 -0.027501322 0.057794187 0.04938864 0.057826288 0.08762719 0.09942983 0.13854493 0.06201226 0.08234865 0.04781326 0.0869284 0.01021066 0.08981155 0.081494346 0.021002779 0.047483772 -0.04129282 0.123394385 0.065760285 -0.0070107677 0.007342288 0.0033306363 0.015321532 0.0018643728 0.10014499 0.0005626832 -0.0024271626 -0.025971767 0.053924356 0.07399921 -0.03319157 0.008985146 -0.0008448207 -0.09425353 0.0061956397 -0.011342919 -0.07803137 -0.061580863 -0.059002765 -0.06419301 -0.016158441 -0.017458456 -0.010796369 -0.01613876 -0.0036847577 -0.07583753 -0.14034206 -0.12705202 -0.043905575 -0.041478172 -0.02479093 -0.09400006 -0.08099867 -0.09190998 -0.1318911 -0.118197486 -0.12677848 -0.09210727 -0.14916286 -0.10320127 -0.010159765 -0.020830492 -0.091637455 -0.06526526 -0.09866256 -0.12433524 -0.17559679 -0.13557222 -0.17788035 -0.18706985 -0.13896768
-0.049965203 -0.049329836 0.07237283 0.007194517 0.13056467 -0.08197892 0.11013747 0.08420354 0.09223582 -0.05046155 -0.028080149 -0.00020620941 -0.041765813 0.007869363 0.026403058 0.014543063 -0.014921808 0.023096621 0.08629332 0.030509956 0.07701859 -0.0021625704 0.18835647 0.120357186 0.032960493 0.08726766 0.053905986 0.02203966 -0.0850955 0.008135899 0.15609673 0.13308096 0.12643495 0.15950218 0.039810378 0.13073955 -0.01821635 0.055021092 0.068511635 0.07334786 0.13972224 0.062745355 -0.10214255 0.0032869508 -0.0279874 -0.0097033605 -0.11251262 -0.07549945 -0.11051814 -0.055175498 0.03501467 0.015172226 -0.015436077 0.020541761 -0.009528769 0.06678154 -0.0034687098 0.024173034 0.055783074 0.040664595 -0.0034335286 0.027558839 -0.01357552 -0.0817799 0.009018685 -0.10475447 0.057273712 -0.0064766323 -0.017848946 0.089415565 0.037887074 -0.018025845 0.10084009 0.078767665 -0.0051362966 0.073860675 0.01617181 0.050342605 0.011418792 0.10913527 0.10461574 0.02714093 0.08708801 0.047664262 -0.020211391 0.04591722 0.07011033 0.06403077 0.04485984 -0.019133577 0.03743072 0.12676196 0.042272862 0.09116739 -0.011190743 -0.05343776 0.070034035 -0.05173927 -0.034893796 0.021561882 -0.05125682 -0.009608387 0.07373042 0.00014923955 0.034893963 0.05739839 0.0659819 0.01740616 -0.047509473 0.072036594 0.011973229 0.08699405 -0.020379793 0.059567202 0.073609255 -0.07731328 -0.0036652305 0.09891126 -0.04984171 -0.068448745 0.055379044 -0.040823642 0.030678317 -0.044805124 0.086344056 -0.029067742 -0.00015712892 0.06572311 0.07366129 -0.041640375 0.02798392 0.041762795 -0.002890909 0.10666511 0.027556803 0.13486405 0.13586187 0.14205956 0.04760233 0.10350782 0.034098882 0.07124421 0.08742226 0.07093192 -0.021408344 0.11582063 0.03507956 0.10285016 0.07658773 0.06474261 0.060476717 0.06193293 0.042204052 0.14261052 0.15208663 0.07733076 0.05072365 0.08933886 0.027378662 0.04355641 0.09064714 0.03562093 0.107966304 0.10916672 0.032669205 0.029481301 -0.04915391 0.011457168
-0.018515393 -0.02035243 -0.051873617 -0.07010052 -0.12731639 -0.06629383 -0.14772148 -0.08636745 -0.08389902 -0.023050237 0.0042272494 0.04948361 0.11965751 0.12375761 0.07711557 0.07339018 0.020453915 0.012578414 -0.009356631 -0.040004488 -0.026416311 -0.045702312 -0.10805203 -0.09842461 -0.014072958 -0.010795094 -0.092744015 -0.1186001 -0.10033897 -0.07854874 -0.1254275 -0.05032166 -0.03419099 -0.028761402 -0.07990055 -0.15662386 -0.070422225 -0.084845304 -0.11683813 -0.06825407 -0.12519416 -0.0990929 -0.10130446 -0.118737236 -0.15271409 -0.15822545 -0.16552415 -0.10867271 -0.12410831 -0.17297758 -0.12437159 -0.13367745 -0.16445874 -0.22629298 -0.137353 -0.15495037 -0.21394734 -0.22420362 -0.22884639 -0.2757366 -0.16406065 -0.25782692 -0.22854707 -0.21348651 -0.2047405 -0.13405803 -0.24371314 -0.19620277 -0.2048147 -0.18842727 -0.14170614 -0.17894578 -0.16235249 -0.19233921 -0.20545962 -0.12642244 -0.16114701 -0.16508178 -0.19007646 -0.15715046 -0.1266646 -0.09969665 -0.12750395 -0.2044609 -0.12207991 -0.08842592 -0.13015299 -0.12249833 -0.15089998 -0.13003506 -0.09879139 -0.16057116 -0.116934165 -0.09875421 -0.05610858 -0.13696572 -0.13969262 -0.052484043 -0.024157248 -0.09616155 -0.05606165 -0.13539812 -0.107299805 -0.07755465 -0.077625826 -0.08785224 -0.0809122 -0.030276302 -0.01493891 -0.071576245 -0.09165581 -0.0651725 -0.08410593 -0.036744498 -0.08485006 -0.10281016 -0.13035409 -0.06854707 -0.10170557 -0.08976775 -0.07207409 -0.07924822 -0.08716365 -0.13206176 -0.16400604 -0.11852674 -0.09114858 -0.13458921 -0.13901004 -0.1129549 -0.08524488 -0.12866074 -0.08215825 -0.08799829 -0.12518413 -0.072454214 -0.10728977 -0.07685997 -0.09826356 -0.14334565 -0.048994847 -0.101104 -0.09470232 -0.0657872 -0.06454715 -0.08496767 -0.07475831 -0.06590696 -0.08909863 -0.058139447 0.04230735 0.0045318548 0.001463991 0.023493407 0.0028608234 0.02995494 0.0748249 0.072450615 0.07260291 0.16348764 0.113162726 0.23223692 0.27569675 0.301992 0.35214758 0.3778314 0.38709715 0.46194205
-0.22062358 -0.15944928 -0.15405867 -0.051555246 -0.04429441 -0.022897761 0.09173372 0.08555449 0.17257367 0.21470533 0.16221233 0.078562796 0.17730546 0.10168262 0.13001956 0.119150184 0.15493056 0.20307475 0.22891223 0.15511586 0.18005973 0.18864167 0.31183958 0.28009045 0.10896984 0.15079261 0.13929863 0.058015835 0.007941589 0.05917704 0.06408451 0.054088235 -0.04275882 0.048483163 -0.07101081 -0.008819152 -0.027351428 -0.01626362 0.0027955812 0.011124896 0.018706463 -0.048118576 -0.07680558 0.0063470327 0.013892338 -0.04969661 0.027372269 -0.019167257 -0.042742174 0.011352212 -0.017336853 -0.004346868 0.005172863 -0.0024663142 0.041986544 0.043189775 0.091660365 0.041184887 0.037702944 0.096885726 0.107130334 0.047539577 0.007047482 0.06486329 -0.007861333 0.050603807 0.0018651258 -0.0011877023 -0.055284925 0.029186778 -0.05765501 -0.010896881 -0.0072655273 0.004318355 -0.02661357 -0.016047549 0.024275288 -0.025096389 -0.021886142 -0.009406284 0.013633484 0.03241559 -0.009441432 0.052039895 -0.019787667 -0.00085991656 0.022263784 0.06514762 -0.02205629 -0.01880491 0.039228827 0.017296338 -0.05828168 -0.00066800846 -0.074895345 -0.022252914 0.020900093 0.014099169 -0.011133747 0.021791711 -0.015545677 0.015747705 -0.0030547164 -0.003550219 -0.024434317 -0.01495619 0.068490416 0.024785178 0.006772289 0.026798166 0.06948878 0.05628937 0.037537932 0.06885298 0.03696281 0.084669605 0.07746368 0.122867845 0.019443871 0.07994619 0.011118607 0.053793505 0.080627784 0.07797427 0.084452175 0.1099355 0.115763076 0.123041235 0.10219253 0.09304271 0.09552099 0.075722314 0.105627045 0.088466145 0.053054005 0.10785231 0.06793916 0.076678135 0.026318783 0.07223673 0.041035827 0.078361236 0.06248878 0.08285532 -0.012693131 0.04993873 0.042723756 0.06459067 0.12573797 0.057698313 0.0076998556 0.08928292 0.08805793 0.13088432 0.040286075 0.1439644 0.10202001 0.15536141 0.15349092 0.14209805 0.23768766 0.14823921 0.27641347 0.2689415 0.32871392 0.36539656 0.2322625 0.35636285
0.0066001047 -0.0108101675 0.016736062 0.049391527 0.06564865 0.030435132 0.087851115 -0.035648763 -0.008376606 0.05617261 -0.0009217325 0.018759402 0.020191088 -0.0596825 -0.058589734 0.0464826 0.010593051 0.062367804 0.03475866 0.024625689 0.0058757635 0.06373611 0.09269293 0.18163253 0.05445006 0.08602383 0.061928038 0.03152975 0.009240753 0.010520994 0.02013681 0.06748525 0.08644113 0.12756805 0.045244172 0.12522501 0.025738236 0.07395291 0.020837236 0.041004702 0.07190166 -0.0038267302 -0.026522437 -0.048068978 0.03807443 -0.013164592 -0.021942098 0.05924726 0.07643667 0.058701225 -0.052503422 0.07428387 0.07598523 0.097616844 0.006871461 0.052894432 0.047773305 0.030264905 0.04264383 0.12904319 0.08689857 0.027183361 0.052276567 0.04326853 0.05692816 0.010047526 0.053523663 -0.013494366 -0.031313203 -0.034548163 -0.047112953 0.02922965 -0.043788083 0.06448316 -0.009938098 0.011602408 -0.049578305 -0.03432997 0.06644107 0.038126357 0.091372915 0.015569924 0.012538711 0.048346557 -0.025599018 -0.03133598 0.059512533 0.004675046 -0.03528518 0.018405268 0.06943426 -0.015750472 0.039105196 -0.0563347 -0.032796204 0.03215627 -0.0079395035 -0.047195062 0.060599905 -0.031566005 -0.043308284 -0.0067918925 0.1095875 -0.01542575 0.03819642 0.027251646 0.13949364 0.09276381 0.05733035 0.12480761 0.123596884 0.101277895 0.017267747 0.071811765 0.06108027 0.065661065 0.16850726 0.04718718 0.06779429 0.17577654 0.12065401 0.11498424 0.14092909 0.03897667 0.1277037 0.057020996 0.12503982 -0.0052229473 0.1435835 0.045646366 0.07271832 0.029655846 0.099962056 0.06313942 0.092435434 0.08420936 0.18156455 0.08375779 0.14887768 0.04578811 0.16087054 0.032356843 0.1207247 0.020108981 0.130794 0.06688873 0.102988645 0.0698881 0.07446966 0.08542677 0.12031008 0.13027957 0.022252277 0.10248295 0.03193051 0.007927592 -0.012661574 0.10137578 -0.041257966 0.10037761 -0.0029666882 0.04382779 0.15214722 0.16510582 0.0679916 0.057973426 -0.025728634 0.07186537
-0.9811186 -0.90593904 -0.8592433 -0.8200904 -0.74458754 -0.6501248 -0.6106476 -0.52787226 -0.4744676 -0.40588894 -0.32652938 -0.25381765 -0.202514 -0.14632398 -0.08193921 -0.04917041 -0.041704316 -0.02311278 -0.027080672 -0.032206487 -0.07298193 -0.08730959 -0.11084746 -0.11470428 -0.07350375 -0.051966965 -0.040237725 -0.03145919 -0.0031044208 -0.015527624 -0.039268892 -0.033892367 -0.038406823 -0.060117483 -0.044502355 -0.042237613 -0.02118935 -0.009462652 -0.020034246 -0.024624731 -0.0050245146 -0.009881988 -0.009727759 -0.01240095 -0.026001547 0.0102120545 0.014062679 0.020740815 0.024595452 0.00789152 0.0007226959 8.78345e-05 0.009542071 -0.013804864 -0.00990145 -0.02826216 -0.045837663 -0.027444415 -0.016666317 -0.015664157 -0.02066599 -0.053279366 -0.051184565 -0.039519187 -0.03756223 -0.04719078 -0.043263983 -0.05534793 -0.02921418 -0.054035276 -0.07854316 -0.064149305 -0.055854645 -0.049611524 -0.055459656 -0.04977068 -0.060807504 -0.06718375 -0.065578945 -0.054269753 -0.04986771 -0.035010982 -0.052359395 -0.07547272 -0.06123636 -0.06346356 -0.042755462 -0.06744695 -0.06898502 -0.03194663 -0.0449981 -0.037327792 -0.028172128 -0.03784509 -0.032902747 -0.04229373 -0.042083807 -0.03701853 -0.009880887 -0.02367738 -0.025994483 -0.02076595 -0.02473786 -0.029558443 -0.035468645 -0.026206162 -0.020437004 -0.033473413 -0.036938835 -0.018668467 -0.020261537 -0.04463093 -0.02813973 -0.03522264 -0.01989704 -0.010831379 -0.013516154 -0.042746805 -0.022330655 -0.010796054 -0.011790856 -0.0077701192 -0.005542451 -0.015176148 -0.012072224 -0.013445633 -0.007787081 -0.0143690845 -0.025610011 -0.016267372 -0.019705912 -0.032966536 -0.042371873 -0.037840717 -0.039513666 -0.049754787 -0.042403728 -0.027458189 -0.042021252 -0.049507834 -0.046643686 -0.05258087 -0.069194555 -0.07957091 -0.06927109 -0.06528332 -0.07301994 -0.0990666 -0.083946005 -0.09801765 -0.09272398 -0.1140178 -0.09969019 -0.11387475 -0.118618496 -0.13042624 -0.12878813 -0.1398792 -0.1438015 -0.15378383 -0.14807467 -0.15120023 -0.17055215 -0.16377741 -0.14965448 -0.18091384 -0.15369871 -0.14750382
-0.19390446 -0.11766607 -0.18053335 -0.03777816 0.03805885 0.016187416 0.06560733 0.08713117 0.04743616 -0.006130067 -0.054845322 -0.010619727 0.045336846 0.08230778 -0.009425171 -0.0073736203 -0.016222352 0.08600074 0.052276194 0.022070324 0.023938578 -0.048466407 -0.023454882 -0.14693734 -0.12921469 -0.16273884 -0.11439387 -0.13363199 -0.080287024 -0.12799285 -0.10578472 -0.14102714 -0.17336999 -0.09379875 -0.15424779 -0.01609666 -0.11663023 -0.15258771 -0.11703363 -0.11252702 -0.09974375 -0.11757332 -0.06899118 -0.06367804 0.008991248 -0.038799062 -0.08869583 -0.04075363 -0.06011785 -0.08453937 0.058478653 0.1353801 0.03928104 -0.06375556 0.016688162 0.03960586 0.051503785 -0.0011930921 0.06818715 0.047409806 0.06229876 0.13908291 -0.05323606 0.018319534 0.05939621 -0.029604392 0.018307764 0.042192545 -0.15206614 0.020052884 0.02715029 -0.06300762 0.08051976 0.028183127 0.038866244 0.014436705 0.011056974 -0.07190431 0.045587156 -0.024350354 0.039062794 0.025657542 0.0123110125 -0.0807615 -0.045576394 -0.06575458 -0.02815293 0.0069132675 -0.084125936 -0.06483385 -0.12930891 -0.11142007 -0.11985904 -0.034439154 -0.09370584 -0.09951843 -0.052408546 -0.1174992 -0.118683234 -0.20256798 -0.07329775 -0.09096983 -0.16781132 -0.115890004 -0.15562397 -0.04118171 -0.059179015 -0.073664606 -0.15231133 -0.05983357 -0.094818234 -0.15633817 -0.10569882 -0.10400122 -0.086721435 -0.17534254 -0.15765868 -0.09032073 -0.17667203 -0.08746205 -0.1250826 -0.09554855 -0.15250683 -0.13150343 -0.02528568 -0.029926611 0.017681485 -0.05493013 0.014428497 -0.04256466 -0.054867372 0.028155537 -0.032512624 -0.062290158 -0.08233623 -0.015040577 0.07565057 0.024420079 -0.015009552 -0.046477642 -0.052608278 0.063170046 -0.03812234 -0.043444425 -0.07427559 0.013904299 0.005437841 0.00062169135 0.00783997 -0.004657699 -0.029546632 0.06331651 -0.058702633 0.005935438 0.061594058 0.011927955 -0.008334787 -0.041751236 -0.0015288877 -0.010316607 -0.079306595 0.0020058856 0.08834692 0.036157288 0.12740543 0.12866169 -0.023231957 0.06024537
0.32961208 0.23811409 0.15788265 0.106403425 -0.043249764 0.017724298 -0.023145711 -0.07836032 -0.061032027 -0.15727593 -0.09499836 -0.06948136 -0.033380803 0.09172615 0.027363768 0.0855157 0.048532415 0.073739566 0.020248573 0.036832046 0.0069290795 -0.046595715 -0.09610228 -0.17191586 -0.08816232 -0.012223057 -0.06729936 0.009489249 0.074834645 0.05042582 0.079393916 0.03262405 0.016864397 0.120855674 -0.0030220274 0.0031873991 0.078324065 0.058320854 -0.019150496 0.068418704 -0.0054707606 0.011982344 0.055475708 0.09116176 -0.037073214 -0.012669761 0.025770713 0.06337576 0.06415615 0.050288286 0.024911156 0.052008927 0.04003719 -0.018609693 0.05155657 0.032742422 0.043391053 -0.0060200333 0.08959649 0.047780883 0.02416939 -0.020475434 0.014844884 0.07692464 0.025899235 0.089230634 0.015458655 0.07263133 0.119542815 0.054694638 0.075441234 0.06995262 -0.016432276 0.043754436 0.03304575 0.079752065 0.034393497 0.01862463 0.039131075 0.02624344 -0.034363206 0.008593112 0.018936966 0.009214914 9.4077586e-05 0.014171273 -0.0002700318 -0.00078766356 -0.014381896 0.0022435156 0.10344552 0.031261455 0.0014865665 0.03768047 0.014831335 0.04038928 0.028617324 0.044672526 0.1421949 -0.009450242 0.08193573 0.031736832 0.11404868 0.09598991 0.07627475 0.09813594 0.080879875 0.096415564 0.089674674 0.13544598 0.06398937 0.09923208 0.008019788 0.047045063 0.107613936 0.108117364 0.017554201 0.04672393 0.047752723 0.1315347 0.13413037 0.038427334 0.042742074 0.008654311 -0.016342865 0.07341779 0.15488273 -0.02651692 0.038342465 0.07517132 0.12505572 0.04088773 0.09812248 0.06431318 0.022801535 0.11477024 0.04906781 0.0878959 0.041565668 -0.0049822205 0.11422445 0.06250181 0.041056536 0.018337045 0.021547493 0.043389447 0.068307914 0.10617598 0.07288071 0.112661585 0.11204001 0.0202635 0.03252828 0.09043132 0.08834112 0.052400444 0.0123313395 0.09719735 0.0344994 0.11788185 0.006889199 0.0779233 0.13808896 0.008852593 0.038855176 -0.059435617 -0.0014617075 -0.06446197
0.11337709 0.034696113 -0.049973432 -0.11902962 -0.124040246 -0.20031118 -0.16596243 -0.1894348 -0.16704714 -0.18387929 -0.13559458 -0.11676467 -0.084903985 -0.006367605 0.020170277 0.08141774 0.03359927 0.032946914 0.10918903 -0.03724067 0.033313993 -0.12263938 -0.0628102 -0.16502433 0.0007011174 -0.029439613 -0.0005375161 0.024897158 -0.009562593 -0.031616233 0.011564537 0.008323734 0.013051501 -0.012829809 0.0196374 0.011838971 -0.024774628 -0.03406967 -0.008442493 0.027922357 0.006633229 0.0033706778 -0.0028810124 0.0024209474 0.006444862 0.005240341 0.01551362 0.009601015 0.01993187 0.02012841 0.015321099 0.014163365 0.05763068 -0.027344372 -0.020952502 -0.0012387987 -0.00019530742 0.016052395 0.0074388697 -0.04830292 -0.04221738 -0.0334052 -0.06800305 -0.063185595 -0.043000806 -0.07736957 -0.047021933 -0.073443905 -0.053914007 -0.023791332 -0.036130577 -0.08264393 -0.043306347 -0.066380896 -0.00035683197 -0.04948483 -0.030812707 -0.0584784 -0.04005498 -0.028747814 -0.06250182 -0.086569056 -0.08566054 -0.10549425 -0.046700105 -0.06980465 -0.10714338 -0.06308474 -0.06303395 -0.06316021 -0.016523946 -0.029655281 -0.036100052 -0.06435361 -0.027676247 -0.011832113 -0.07098803 -0.05144902 -0.01306807 -0.076274715 -0.0696837 0.002856451 -0.022773871 -0.030904943 -0.047027398 -0.04036209 -0.054369926 0.015846984 -0.05387734 -0.04711431 0.0028177584 -0.06746116 -0.08031064 -0.06842261 -0.06785416 -0.041117713 -0.08788251 -0.06797402 -0.09512507 -0.06514801 -0.062282417 -0.08248482 -0.074181005 -0.06739514 -0.051730495 -0.08983747 -0.05045121 -0.096723594 -0.07253074 -0.05762565 -0.09002013 -0.08321803 -0.1070361 -0.12593296 -0.082301594 -0.07870352 -0.08140811 -0.06832268 -0.094719306 -0.089187555 -0.10976685 -0.041181672 -0.09087239 -0.10361481 -0.09579292 -0.06937342 -0.11466521 -0.10071878 -0.114672005 -0.12947007 -0.17559157 -0.15194806 -0.10318682 -0.16917825 -0.16663286 -0.18999146 -0.2133566 -0.18302913 -0.18454883 -0.19810347 -0.18327793 -0.24265684 -0.24035658 -0.22793154 -0.29134613 -0.26798525 -0.3506934 -0.29506382
-0.086998 -0.073831275 0.008662367 -0.10540559 0.009678358 -0.033410106 -0.10343967 -0.033447746 -0.07678221 -0.02689445 -0.076612614 0.02611378 -0.0769208 -0.039282396 0.013289431 -0.04867056 -0.054971848 -0.011629151 -0.09049352 -0.079016276 -0.0418098 -0.06089828 -0.008511868 -0.047813028 -0.101481505 -0.109916076 -0.1026657 -0.08049893 -0.177274 -0.1345011 -0.14777824 -0.072528176 -0.058026515 -0.052715316 -0.026342988 -0.001718576 -0.058784883 -0.08739013 -0.054038662 -0.011520519 -0.018051056 -0.058604572 -0.15969037 -0.03013948 -0.109473765 -0.059053693 -0.12531433 -0.069244675 -0.06654361 -0.08718467 -0.09992372 -0.10082981 -0.04253495 -0.068406716 -0.11628638 0.01436006 -0.105399214 -0.06980598 -0.02211417 -0.07253766 -0.05456099 -0.021481548 -0.0058867135 -0.015711226 -0.013424579 -0.08888582 -0.008555286 0.015639042 0.0043512587 0.009451061 0.014514575 -0.07045707 0.048828427 0.032977365 0.122486725 0.08890746 0.015288413 -0.027545454 -0.0049447045 0.011740602 -0.029966278 -0.011421829 0.0017251256 -0.006840862 0.003971617 0.0083942 -0.06308078 -0.08368861 0.034124047 -0.051558103 0.04317962 -0.011743297 0.001745213 -0.09177991 -0.08965991 -0.025243564 -0.07320267 -0.056173626 -0.09085286 -0.057090603 -0.043275837 0.0014618897 -0.040308386 -0.12157121 0.01718885 -0.030448524 0.006026122 0.026563272 -0.007695725 0.011922752 -0.017442094 -0.03649131 -0.041322894 -0.006810812 0.012047859 0.016736865 -0.060356565 -0.0053936937 -0.027357586 0.0036416335 -0.045788392 -0.11498416 -0.057006545 -0.06891097 0.0039081457 -0.08911868 -0.13401622 -0.06393552 -0.0598679 -0.093064725 -0.021754459 -0.104298405 -0.17258258 0.005417626 -0.10661552 -0.049619637 -0.13830078 -0.039460387 -0.09435349 -0.11710102 -0.15435192 -0.11059709 -0.10128075 -0.15811019 -0.09407264 -0.13345322 -0.04792763 0.002975219 -0.0047782473 -0.0057542115 -0.09930643 -0.087408915 -0.17174335 -0.0011674768 0.032275636 -0.11389001 -0.0537308 -0.078476906 -0.062185936 0.028153079 -0.122471206 0.027913624 -0.036863286 0.01792442 0.009553345 -0.052966774 -0.092509516 -0.04435094
-0.11250067 -0.11350552 -0.082363196 0.00040447697 -0.0452893 0.01627457 0.028442798 0.04638469 0.017612854 0.027223542 -0.022140201 0.04676465 0.04447761 0.06968269 0.043579906 0.09030341 0.1339364 0.13526534 0.10012737 0.03960739 0.15404892 0.15171677 0.041835394 0.09647071 0.033871364 -0.027090156 -0.043363057 -0.050536133 0.010506772 -0.0103541985 -0.010773601 0.033921752 0.068784446 0.048780046 0.05477825 0.062394455 -0.076888986 -0.04368579 -0.036389846 -0.021883396 -0.035969898 0.021950666 0.045726042 0.03718967 0.08049309 0.06587792 -0.0133290645 0.02572958 0.0024678598 0.06280061 0.040617388 0.06444656 0.04506883 0.100172505 0.07828844 0.09146951 0.16777737 0.08680657 0.02242642 0.001626728 0.04845584 0.08801923 0.03579332 0.045706857 0.063379794 -0.0335381 0.0546015 0.06948315 0.008549442 0.011881052 0.05509801 -0.01025606 0.09975965 0.04250609 0.14753166 0.028261475 -0.005497412 0.030804582 0.06013539 0.044907372 0.02819094 0.0413505 0.093777254 0.07382422 0.03595074 0.094668 0.064790614 0.06953518 0.119148456 0.068918146 0.030059507 0.059479345 0.067377366 0.14913097 0.06792324 0.07237538 0.040247966 0.070685625 0.03631177 0.047099985 0.099487595 0.0702161 0.11250936 0.06481324 0.117676556 0.01777439 0.011490156 0.04619461 0.08989366 -0.0050492 0.06937017 0.011813133 0.045699358 0.075421 0.09175806 0.11098973 0.024887407 0.055009354 0.1408135 0.055365264 0.051622685 0.08622983 0.011089167 0.120553985 0.15164137 0.104581125 0.02424934 0.14488125 0.12570405 0.09042428 0.09110908 0.109572046 0.10627584 0.054332826 0.10353248 0.060043626 0.16255109 0.04213396 0.10316474 0.13704436 0.041812483 0.09802958 0.16087519 0.091735065 0.12755324 0.18227251 0.15459988 0.19566016 0.07177317 0.055473067 0.06469041 0.1293562 0.0680564 0.032274123 0.08790055 0.04998183 0.082268886 0.098777585 0.116324276 0.09489917 0.06764479 0.025807863 0.068964094 0.08314242 0.006764004 0.14481692 0.07703696 0.100738734
0.013481398 0.10060889 -0.0154028125 0.010405531 0.025689438 0.03985309 -0.11317383 -0.100738086 -0.058347348 -0.07333315 -0.14176556 -0.05919921 -0.076741174 0.03357791 -0.08607723 -0.084977075 0.037850965 -0.015704304 -0.01669792 -0.056752812 -0.020635866 -0.031260863 -0.12704627 -0.12880464 -0.012468254 -0.006722394 -0.03174807 0.12547468 0.1060722 0.05823243 0.057053138 0.021228239 -0.0896147 -0.08430738 0.08556122 -0.017567888 0.07215677 -0.0446728 0.10286032 -0.0054084826 0.029402418 0.073291026 0.052272826 0.036516473 -0.12086268 -0.011731787 0.012690419 -0.02401352 -0.057892427 -0.06520481 -0.07627841 0.024940068 -0.0716334 -0.13633612 -0.058963023 -0.119500466 -0.08711757 -0.05536683 -0.027703209 0.00044675297 -0.096125185 -0.025956359 -0.07756072 -0.13603972 -0.06431127 -0.084510386 0.014100656 -0.022157699 -0.041429233 -0.063188 0.01749047 -0.08070985 -0.04089981 -0.13534175 -0.045103297 -0.0547255 -0.020848995 -0.082010806 -0.010889468 -0.12975901 -0.06755613 -0.13817386 -0.070636146 -0.09219823 -0.14101446 -0.009557274 -0.020981623 -0.06657482 -0.027964512 -0.05849284 -0.08852224 -0.05629769 -0.07512268 -0.04058015 -0.047592584 -0.1472323 -0.010513426 -0.04490894 -0.06691882 0.026197385 0.047504537 0.048357975 -0.07824812 -0.060731452 0.05517086 -0.04410609 -0.063919224 -0.039495014 0.007586744 0.070800595 -0.12911591 -0.10266887 -0.039002918 -0.08471035 -0.0842369 -0.025551178 -0.022816474 -0.031718597 0.024443852 -0.048040476 -0.07231078 -0.10878247 -0.06919271 -0.014393241 -0.054208342 -0.08475786 -0.11065425 0.030355778 -0.02879116 -0.05563623 -0.0036556146 0.007055946 0.023951633 -0.00089935533 -0.0014006448 -0.024282072 -0.08810784 0.08481822 -0.028427051 0.085812315 -0.024971042 -0.041450717 -0.070143245 0.0038025593 -0.002319935 -0.028294096 0.074885406 0.0139844855 0.1115373 0.040490884 0.11064479 -0.072362125 0.042584483 0.10313759 0.08680189 0.12262226 0.045320906 0.024394503 0.044882778 -0.13197109 -0.060333163 -0.058698125 -0.099668756 -0.15847684 -0.07700571 -0.1401234 -0.11412044 -0.08833529
-0.3434202 -0.378165 -0.35349035 -0.36240074 -0.26083133 -0.2717387 -0.15816365 -0.12201465 -0.20614652 -0.19661793 -0.12752876 -0.13774987 -0.18268602 -0.09820481 -0.13846475 -0.12982547 -0.15189978 -0.103550434 -0.11369781 -0.05781213 -0.03567185 -0.042514745 0.08043433 -0.04008561 -0.0073699015 -0.1235938 -0.025064843 -0.013946521 -0.07077245 0.015307229 0.026818672 -0.039905712 0.031611294 0.06273063 0.06870837 0.028297696 -0.056610122 0.053890787 -0.022076389 0.038257536 -0.046264607 -0.05703476 -0.009783747 -0.055846367 -0.05810613 -0.08827017 -0.12471617 -0.07716057 -0.065180585 0.030318756 0.069548406 -0.05262736 -0.11141859 -0.119780414 -0.083232805 -0.13066746 0.020898758 0.0015466199 0.06608693 -0.04581169 0.051449776 -0.04970149 0.033821557 -0.06935803 -0.0119150905 0.025728323 -0.041725136 0.058881644 -0.005518907 0.06904196 -0.063430846 -0.08539735 -0.07605594 -0.0090928655 0.048320174 -0.016227366 -0.058917344 -0.0047743213 -0.032674402 -0.028021999 -0.12937744 -0.04917037 -0.069675446 -0.014235401 -0.05759591 -0.019334424 -0.1250084 -0.05573532 -0.0026003947 0.04177775 0.04496994 0.050533105 0.075808935 -0.075521044 -0.08117324 -0.011156399 -0.059756435 0.020832574 0.07883413 -0.0736199 -0.11876769 -0.051110487 0.020132242 -0.05294176 -0.04102034 -0.06605574 -0.13179998 0.01819077 -0.048737906 -0.037606914 -0.042793874 -0.063675195 -0.028427526 -0.037957847 -0.10972053 -0.0881762 -0.14420308 -0.10687983 -0.01850632 -0.040622097 -0.054926638 0.036598366 -0.05918998 -0.0078969505 -0.1568518 -0.07937713 -0.084261656 -0.13923538 -0.09644063 -0.03800479 0.04304632 -0.13161404 -0.12496444 -0.047930863 -0.012321185 -0.07530684 -0.03780598 -0.014735709 -0.15718964 0.049873333 -0.09063789 -0.022620661 -0.031166906 -0.048690286 -0.026498869 -0.11476533 -0.088682435 -0.106445484 -0.07689239 0.017155794 -0.13285452 -0.025205662 -0.07233136 -0.10147648 -0.07920424 -0.16632468 -0.16962014 -0.18675534 -0.09965079 -0.17391962 -0.08326501 -0.14608535 -0.08750794 -0.032743257 -0.093451485 -0.12310395 -0.16200836 -0.12925783
0.16470797 0.057981826 -0.0010547 -0.0020436149 0.062748246 -0.008831508 -0.036892213 -0.05497658 0.018756833 0.045145933 0.054572526 0.13965227 0.15822463 0.14649335 0.17485431 0.20172305 0.16803667 0.18267642 0.17414266 0.056467164 0.10093528 -0.045519352 0.013417806 0.03468248 -0.025349101 -0.055837914 0.060161073 0.078966215 0.022218224 0.11782718 0.06105881 -0.041694168 0.055184927 0.13190922 -0.016147641 -0.008751157 0.105963096 0.07305138 0.12919855 0.08277154 0.16669655 0.13767502 0.01908781 0.0008520822 0.1746496 0.020837681 -0.004527705 0.04130752 0.0443051 0.001267142 0.032454323 0.061990395 0.127091 0.12516531 0.16014794 0.120192505 0.13860227 0.058938317 0.18987043 0.08405089 0.120558694 0.09282388 0.03028125 0.0068497076 0.11242965 0.054277383 0.04239107 0.05370704 0.08392984 0.1417749 0.13240302 0.11611349 0.14107275 0.08416417 0.024257062 0.06409356 0.12953456 -0.006559008 0.10567499 0.043484833 0.07145342 0.14803804 0.047681145 0.02252098 0.12225098 0.18907346 0.06819096 0.14042592 0.025790548 0.06802579 0.111442775 -0.016129233 0.082121536 0.07244422 0.1136848 0.13570419 0.13279651 0.037975997 0.05616313 -0.00083135907 0.0138347335 -0.042536084 0.05895573 0.05794057 0.08278894 0.06954971 0.10719688 0.05511776 0.029864252 0.014820879 -0.0071152733 0.04804755 0.039937925 0.007900113 0.015503091 0.0236519 0.0144625595 0.11121972 0.046461742 0.06882632 0.066278204 0.18211417 0.076850265 -0.029660208 0.0011800674 0.13373351 0.044084672 0.110438384 -0.022893194 0.10887721 0.012644967 0.08150945 -0.05244595 0.12700823 0.058313884 0.12909853 0.043491647 0.14291035 0.16253226 0.17019795 0.1493998 0.08990362 0.04157606 0.07236236 0.013487268 0.08663158 0.10155461 -0.0037501873 0.054201633 0.04602292 -0.0024792813 0.021120703 -0.0010341061 -0.04867818 -0.06898776 -0.12488025 -0.048156388 -0.06565017 -0.04083019 0.03164982 0.014629165 0.024060147 0.0049348082 -0.015776005 0.027545542 -0.09204596 -0.010860411 -0.044452854
0.095350444 0.043638434 0.00083979906 0.05529213 -0.033655882 0.01660784 -0.042174123 -0.039080773 -0.025747525 -0.017361302 -0.021447724 -0.040277563 -0.1132392 -0.009994594 0.037903085 -0.048795186 -0.02808449 0.11114583 0.04084509 -0.04674766 -0.045266725 -0.039313998 -0.08416498 -0.14476095 -0.14505604 -0.180876 -0.13979523 -0.10252351 -0.03529716 0.083363645 -0.023951964 -0.033641953 0.014254329 0.0048369644 -0.052949585 0.07047242 0.060919248 0.010205206 0.074091725 0.0410923 -0.024940187 -0.0094925035 -0.008844972 0.0036513119 0.027608693 0.0018788106 -0.059639983 0.020454556 -0.066254154 -0.10693588 0.027800158 -0.026761018 -0.044602 -0.038482822 0.052584447 0.07506934 -0.032952633 -0.056955133 -0.042426746 0.07625714 0.045078333 0.012862596 -0.15424743 0.0015218596 -0.026530653 0.017044157 -0.059565723 -0.06698616 -0.08641153 -0.030746251 0.041216046 -0.08862189 0.045071863 0.032685477 -0.14260572 0.009837801 -0.056905642 -0.11664255 -0.027569259 -0.032872632 -0.045031264 0.027965678 -0.115247786 -0.062868506 -0.019822543 -0.13145217 -0.080979876 -0.115556255 -0.13925624 -0.14974087 -0.0908693 0.04075807 -0.08505463 -0.11484717 -0.08319624 -0.07865946 -0.01663798 0.03890894 -0.07973814 -0.14051513 -0.11166707 0.009586614 -0.05642188 -0.08746632 -0.09282854 -0.0015819927 0.031437088 -0.044367794 -0.09564538 -0.036025077 0.060243648 -0.028050913 0.041361235 -0.022457423 -0.0037262195 0.03828787 -0.0066232583 0.025416592 0.003575599 -0.06588523 -0.07465676 -0.079323985 -0.008384009 0.022372471 0.00525015 0.050447132 0.09229377 0.014631532 0.09085025 -0.062219057 -0.07503168 0.086690135 -0.08477794 0.06891119 -0.09408709 0.013228994 0.06618036 0.04448348 0.02392009 0.011261393 -0.09524866 -0.030316062 -0.061372958 -0.011684679 -0.0665115 -0.08807477 -0.097375974 -0.014687218 -0.028642744 -0.05723745 -0.11643105 -0.0054685096 -0.03872715 -0.07022767 -0.1064587 -0.003361944 -0.14697649 -0.009971645 -0.07923153 0.0033760283 -0.011533374 -0.089284696 -0.07802456 -0.038485184 0.036310732 -0.08589778 -0.004990031 0.053541914
0.070445366 -0.0030748395 0.03617847 0.06624423 0.10126234 0.07715443 0.0038364243 0.038062785 -0.013623123 -0.0709297 0.098711334 0.010781707 0.001703416 0.054831605 0.023945669 0.028834935 0.13001424 0.15766178 0.08819056 0.20097677 0.15867473 0.11890873 0.11544368 0.081953004 0.13077009 0.14435227 0.043222696 0.0762387 0.14163181 0.071011096 -0.04002801 0.070528865 0.017397506 0.009540263 -0.08681136 -0.07292241 0.080900304 0.0032895901 -0.0450586 0.044420686 -0.0068894443 0.030798893 0.09799329 0.0427608 0.010914572 0.0121437935 0.023487296 0.10249754 0.018948091 0.025657045 0.097654775 0.07418919 0.030600607 0.07186722 -0.06326778 -0.033633787 0.093504325 -0.044982273 0.02537074 0.04334049 0.02887252 0.0679585 -0.05396194 0.07075366 0.03542188 0.14511943 0.014057715 0.11275246 -0.0069801207 -0.045326967 -0.07450422 -0.025786247 0.070801675 -0.034064624 0.03291014 0.01000061 -0.018787235 0.046948418 0.07475175 -0.051728714 -0.0042568548 0.046623334 0.107314706 0.01379984 -0.06496165 0.045727227 0.068241395 0.12570983 1.5206834e-05 0.031057367 -0.0022177408 0.03560744 0.10024227 0.0003608663 0.09397837 -0.016171131 0.11139089 -0.04602446 0.09977533 0.082746044 0.11365861 0.092965186 0.037033815 0.14418836 0.07296167 0.13364185 0.086177565 -0.0061198915 0.040204063 0.08639415 0.0839999 0.1566159 0.06710007 0.10760149 -0.0063403123 -0.04805025 0.08646551 0.033922356 0.11140963 0.09902373 0.10744738 0.06949569 -0.01253104 0.041612044 -0.008125697 -0.00965727 0.119071595 -0.0076905424 0.009377439 0.093809165 0.142189 0.14052464 -0.018277755 0.07279453 0.01548698 0.10729098 0.022494502 0.012369945 0.06551558 0.11143836 0.01927792 0.06500723 0.023067 -0.0006155608 -0.038662042 0.074708536 0.07018151 -0.04397199 0.09229922 0.026547017 -0.0507411 7.5380136e-05 -0.068200305 0.08072114 0.015878275 0.07533387 -0.008211245 -0.034548953 -0.044296835 -0.047409926 -0.039370015 -0.12729096 0.011999881 -0.0012062229 -0.09250515 -0.07950116 0.008324703 -0.106057554
-0.12598853 -0.17047952 -0.08575651 -0.054800276 -0.017593121 0.01335626 -0.005434341 -0.06694925 -0.0059023774 0.01625547 -0.11731336 -0.07290086 -0.041177586 -0.06477223 -0.09192756 -0.046546552 -0.09900025 -0.08862206 -0.11833219 -0.13304819 -0.12958881 -0.049473014 -0.005794159 -0.0071739145 -0.019077359 -0.016974151 -0.011825623 0.12956573 0.06945216 0.07480693 0.1251058 0.06858256 -0.10701845 -0.028829068 -0.115810394 -0.15967306 -0.11619818 0.07198352 -0.056179 -0.025161918 -0.050619584 0.02753368 -0.023026051 -0.067878015 -0.06479208 -0.06791061 -0.028635114 -0.1304155 0.016306285 0.075923435 -0.043422457 -0.034318335 0.009590874 -0.090119444 -0.031610876 -0.07516557 -0.14383182 -0.07887607 -0.06713582 -0.07480804 -0.072950855 -0.048565183 -0.07383968 -0.15513226 0.007874323 -0.12498987 -0.038866144 -0.04818424 -0.05050455 -0.0064853034 -0.116389655 -0.03200777 0.019258656 0.0034639628 0.08872823 -0.036056537 -0.1351585 -0.023922298 -0.0257862 -0.05362648 0.046786856 -0.013477193 -0.09191339 0.010650835 0.009013734 -0.082823016 0.02330155 -0.12411435 -0.13367455 -0.09516916 -0.11115787 -0.06983337 -0.051486555 -0.1676608 -0.030569887 0.06484227 -0.012801853 -0.118280634 0.004808931 -0.03415683 0.08348437 0.059545707 -0.014177459 -0.15626785 0.030459786 -0.10382196 -0.09464714 0.039235402 0.060599025 -0.063412644 -0.094905235 0.068936065 -0.0639311 -0.015053787 -0.04837284 0.02382969 -0.007113324 -0.03932992 -0.00022829777 0.09326944 0.053074624 -0.054899383 0.09258855 0.009977287 0.084986106 0.02359941 0.050876576 0.13795185 -0.018846745 0.0584583 0.11327398 -0.09284515 0.015995612 0.008341251 0.07909006 0.0014814798 0.020300167 -0.09446968 -0.11434659 -0.0442121 -0.015981026 0.041186873 0.0040780273 -0.05396384 0.09080197 -0.011225262 -0.010528372 -0.0056568687 -0.019104194 0.04980827 -0.10216428 -0.0822401 0.047857895 0.027364925 -0.044725485 -0.10577238 -0.11151807 -0.013863026 -0.13161565 -0.019435138 0.010001773 -0.13711435 -0.103089415 0.05167323 -0.028225936 0.020496652 0.04610247 0.013620181
0.13555723 0.13277417 0.12203379 0.098031476 0.09451061 0.1132195 0.0954423 0.072503984 0.022533184 0.19559899 0.12917747 0.05867888 0.09533819 0.07802373 0.09754728 0.019960824 0.04455498 -0.0039161136 -0.053242136 -0.012083585 0.046850994 0.050111722 -0.025405489 -0.0016696453 0.027083213 0.048623197 0.0693026 0.011399509 0.043389443 -0.043426894 -0.010252183 0.0515989 0.046784516 -0.009898081 0.1136965 -0.020643095 0.0925782 0.021756684 -0.0012560284 0.09459851 -0.026954057 0.013465358 0.035562348 0.057051618 0.025451217 0.037879642 0.10295908 0.10047792 0.139752 0.023445534 0.09416663 0.15124281 0.11794844 -0.023694089 0.095050745 0.08905928 0.11466981 0.13089788 0.08134801 0.046431318 0.15277964 0.060831174 0.005368201 0.08455064 0.08010568 0.08644873 0.03780271 0.055943873 -0.018707637 0.093150735 0.11387655 0.0073191817 0.021445315 0.05903305 0.109734744 0.08875929 0.08178883 0.13579102 0.13734096 0.023119235 0.12582186 0.12998436 0.08288537 0.07054737 0.16871671 0.039813265 0.02335573 0.08942759 0.058997713 0.040248312 0.12884703 0.051502697 0.034562446 0.03279081 0.065418705 0.070789486 0.016674848 0.08986662 0.103744455 0.06484393 0.14155805 0.111486316 -0.027080813 0.04942406 0.0489337 0.056479912 -0.007974847 0.13394533 0.19984432 0.11338769 0.059794188 0.15110055 0.13026224 0.09391442 0.11807156 0.16894269 0.09363874 0.06757972 0.13863973 0.15061432 0.099381424 0.04705388 0.091018684 0.16697204 0.030351393 0.050727535 0.11465404 0.063900925 0.09881807 0.04879368 0.16294007 0.08653692 0.12678894 0.0751404 0.15357716 0.14912537 0.04011285 0.057500824 0.047090523 0.110188425 0.12034979 0.16710472 0.11959535 0.12039265 0.17094731 0.05495352 0.15889676 0.14568877 0.04081115 0.17227127 0.07230768 0.10667379 0.11205106 0.16842464 0.1639817 0.09579615 0.038923163 0.13941534 0.094664104 0.17990376 0.016156323 0.059500236 0.12532414 0.16366704 0.20074259 0.146326 0.07173408 0.08724728
0.39771333 0.2863714 0.22439775 0.13046739 0.07154963 0.10299105 -0.030707803 -0.048027188 -0.14017126 -0.2229692 -0.27822003 -0.30034468 -0.34072703 -0.33829 -0.30886137 -0.26737714 -0.2761709 -0.2749556 -0.23336442 -0.13759705 -0.13041063 -0.07777947 -0.03848813 0.041078668 0.073446035 0.11255732 0.1559634 0.16380526 0.10569402 0.05641919 0.07138728 0.0032294844 0.04412639 0.0033828546 -0.03562098 -0.03988099 -0.061929032 -0.044997443 -0.037004642 -0.06858496 -0.085504994 -0.024827886 -0.029419674 -0.08816493 -0.058162533 -0.07848081 -0.08822707 -0.034335077 -0.04879678 -0.01843081 -0.0090559805 -0.029910132 -0.033800777 -0.08111111 -0.038105126 -0.08347689 -0.09458983 -0.10345767 -0.07740909 -0.052785523 -0.060573667 -0.09804041 -0.07949041 -0.12803884 -0.049922112 -0.10105074 -0.08920934 -0.06960601 -0.07476098 -0.11628977 -0.106683545 -0.06726386 -0.07831398 -0.0952544 -0.076974355 -0.044327755 -0.079747625 -0.08116665 -0.07423252 -0.097056635 -0.01046251 -0.059869938 -0.0833155 -0.043305077 -0.08316151 -0.08351508 -0.09853887 -0.04664783 -0.12583967 -0.09514598 -0.09274821 -0.048310768 -0.07283828 -0.04524922 -0.07117133 -0.10683914 -0.07533836 -0.11012902 -0.039301775 -0.027028164 -0.03428297 -0.03881896 -0.08012247 -0.03585186 -0.028940316 -0.090750575 -0.040009633 -0.11408182 -0.09297377 -0.0670379 -0.12815963 -0.054721814 -0.05156207 -0.084693834 -0.017220732 -0.041668758 -0.09687237 -0.0786004 -0.06211305 -0.06153368 -0.08694556 -0.054084543 -0.07434458 -0.05624014 -0.09007322 -0.12197512 -0.06061214 -0.095926225 -0.11707496 -0.14583546 -0.08265476 -0.1390248 -0.09270837 -0.1251623 -0.1294028 -0.066582136 -0.14810197 -0.12684669 -0.11308133 -0.08692916 -0.10841325 -0.120532446 -0.14040355 -0.16488278 -0.17197822 -0.15682971 -0.15147915 -0.17127302 -0.14435448 -0.110296845 -0.15681878 -0.19277447 -0.20441991 -0.14320849 -0.16585943 -0.22858126 -0.20207477 -0.14487255 -0.22011916 -0.20771256 -0.17012538 -0.20882027 -0.22800215 -0.15643579 -0.14458255 -0.18518592 -0.15805414 -0.23026645
-0.28369856 -0.16756187 -0.26523167 -0.25711936 -0.18212803 -0.18254408 -0.17168565 -0.14434882 -0.12388464 -0.11161753 -0.042500906 0.0035432184 0.04071474 0.13947584 0.060654826 0.09356483 0.018810423 0.030265706 -0.025545247 -0.054983128 -0.17007357 -0.1360964 -0.21190208 -0.22830784 -0.15042584 -0.11398006 -0.07985665 -0.03089286 -0.014125713 -0.011915231 0.014474709 0.022959517 -0.02319313 -0.034279943 0.011060651 -0.0051374035 0.042496882 0.05648494 0.06988964 0.050843332 0.06536887 0.0972808 0.07969276 0.085845195 0.10169696 0.07190317 0.099969074 0.113355815 0.117076814 0.13181499 0.091688976 0.077753745 0.037413683 0.0949554 0.13625409 0.053555336 0.08713592 0.09650775 0.05698519 0.0498196 0.02853455 0.057354555 0.06763554 0.08188144 0.073587544 0.07752859 0.04939903 0.09520217 0.12069361 0.028638653 0.036708035 0.053349864 0.012772021 0.06494792 0.037349448 0.09067583 0.03694886 0.121714614 0.07059198 0.084888615 0.03903255 0.052097812 0.044397727 0.07245327 0.04503152 0.08632391 0.078764014 0.024582496 0.07485332 0.11314914 0.04642355 0.09077184 0.053509694 0.13011743 0.020683361 0.11738923 0.13041566 0.1173692 0.11507649 0.10522625 0.104930624 0.12695345 0.17243224 0.16336195 0.075070634 0.064291015 0.10001654 0.13822187 0.07878789 0.10107619 0.10519132 0.06480322 0.12273275 0.13481143 0.057678074 0.08857851 0.1441515 0.13040002 0.14169505 0.14870499 0.08773007 0.10752684 0.053256236 0.08601831 0.08288285 0.0645235 0.074352585 0.038253844 0.0028148429 0.11656462 0.033681266 0.018863501 0.08100236 0.057570525 0.060116116 0.0067959195 -0.0040055877 0.0287961 -0.025846997 0.03323023 -0.029968359 0.0029318486 -0.029816484 -0.07352057 -0.07623676 -0.016862933 -0.0118322475 -0.04853249 -0.01663605 -0.0952586 0.0041414537 -0.046335325 -0.0026418543 -0.094325826 -0.09406758 -0.047305815 -0.025779666 -0.062254436 -0.0016511469 -0.07633687 0.044409662 -0.02443413 -0.008208043 0.015378425 0.054451134 0.03586098 0.056908734 0.054644562
-0.019191427 0.071344875 0.10280922 0.022000702 0.005425852 -0.03206092 0.04395054 0.11405959 -0.083343744 -0.006081772 -0.0021563189 -0.066327885 -0.042970933 0.07500183 -0.043018065 0.045542676 0.08873533 0.042194214 -0.018564552 0.023857657 0.0898717 0.1296611 0.0039418167 0.029486068 0.0049077696 0.05704753 0.08176426 0.00045886525 -0.001760436 -0.054317318 0.082949124 0.040388968 -0.00822859 -0.052540608 0.03289583 -0.07421736 -0.029702514 -0.017535204 -0.06416964 -0.032514844 0.100749046 0.031194665 -0.03304586 0.060820118 -0.07915149 -0.010113798 -0.034669947 0.08801337 0.11116362 -0.0044047544 -0.023910178 -0.09371522 0.048916683 0.05055762 0.14678141 -0.017419925 -0.02481621 0.07000544 -0.0370004 -0.019080954 0.057781223 -0.011261924 -0.034277827 0.06534525 0.060657293 0.010974416 0.101678185 0.09948062 0.122077465 0.11055381 -0.021268196 -0.0003791536 0.07131855 0.05874085 0.12581028 0.02757375 -0.03356846 0.056245487 -0.004635427 0.071781866 0.09354859 0.15501803 -0.020665914 -0.021176936 -0.04247687 0.006457863 0.035712138 0.018143643 0.0015716603 0.06936523 0.14679235 0.051740963 -0.0017278253 0.11326838 0.06035191 0.020460818 0.058810394 0.062174954 0.02156453 0.05061906 0.09190672 0.090446815 0.00039261638 0.05304935 0.09472896 0.046154972 -0.03828049 0.11020657 0.081482865 0.10620732 0.06521597 -0.040188223 0.091524936 -0.04431294 0.05741031 0.058007095 0.11586098 0.012170713 -0.04768491 0.083965845 0.03468949 -0.0127407145 0.008435709 0.06217497 0.12732781 0.006018153 0.11600003 0.004843164 -0.030915897 0.11744837 0.008924779 0.074888945 0.15279047 0.15165626 0.05188845 0.07579726 0.16154815 0.07607532 0.105446 0.12199502 0.1917638 0.11659399 0.089062765 0.14653395 0.14884686 0.05024751 0.15795611 0.14700776 0.094593324 0.02056942 0.06959303 0.20306464 0.12710914 0.20787027 0.086023696 0.12806849 0.20847276 0.076419964 0.06405966 0.056707405 0.051757514 0.09546206 0.09389482 -0.020719416 0.089702606 -0.04799519 0.04532286 0.13976358
-0.3036074 -0.2793064 -0.35368034 -0.3592515 -0.40514496 -0.41294596 -0.4245393 -0.4216044 -0.4429329 -0.3713355 -0.33990586 -0.26131344 -0.25583547 -0.21819821 -0.12152119 -0.11445174 -0.08818156 -0.116222925 -0.049834196 -0.056347374 -0.075910166 0.06252808 0.023358464 0.07845806 0.11188456 0.13030933 0.12590255 0.12892441 0.093426764 0.11249613 0.07745151 0.04138082 0.09144182 -0.0024850636 0.007098315 0.031222751 0.02512815 0.053691868 0.013395652 0.06402483 0.016663395 0.071283214 0.013898921 0.017226346 -0.013260914 0.03506581 0.030538265 -0.022923466 0.037879888 -0.007886534 -0.05536354 0.02958665 0.0022259369 -0.0068385266 -0.026621567 -0.018801857 -0.038756166 -0.008198716 -0.012595818 -0.03608135 0.022491602 0.019828666 -0.01066707 0.020189548 0.03353249 0.04602211 0.008199502 -0.032595683 0.017565785 0.018159246 -0.029098773 -0.021537514 -0.03309795 0.08796817 0.009273998 0.051617723 0.051939562 0.006093306 0.014763839 0.07567532 0.12404824 0.11783535 0.041900914 0.04811801 0.02945379 0.09162157 0.07098286 0.044256136 0.039133765 0.12324607 0.07675684 0.1590475 0.12628329 0.07896502 0.030449051 0.098898694 0.09628798 0.04651652 0.14247029 0.09815943 0.105237655 0.1495654 0.10259267 0.14555086 0.054610178 0.097730145 0.08181504 0.03732373 0.08014824 0.13492738 0.07064116 0.113943264 0.122287594 0.10009278 0.08023552 0.09205229 0.14839073 0.037009872 0.073153846 0.019507498 0.008381028 0.05105649 0.03847244 0.0724984 0.01804501 0.031899393 0.047884125 0.065948665 -0.024056787 0.021774624 0.016779598 -0.075002186 -0.019304682 0.007341597 0.055581726 0.053086855 -0.02675444 -0.006800644 -0.012392792 0.03309199 0.007734157 -0.021436183 -0.059467692 -0.067646995 0.011022069 -0.037815217 0.06888272 0.021365663 -0.009830509 0.034461286 -0.0052934 -0.065191105 0.053333994 0.048972234 0.024203423 -0.023623612 -0.07172321 0.038530037 -0.051488657 -0.046576526 0.054906074 -0.03427765 -0.046742357 0.051262107 0.05706359 0.0042130915 -0.016749104 0.07541823
0.17287855 0.22235212 0.07604372 0.059129946 0.025588274 0.07222775 0.071007304 0.08343883 0.02479122 0.018734315 0.058625918 0.15423578 0.20731108 0.15230453 0.17733023 0.17508805 0.058045812 0.116745025 0.19141032 0.12196486 0.18041939 0.123056285 0.08640391 0.039265193 0.21167076 0.04939621 0.062274538 -0.01201645 0.08677851 -0.033885736 -0.107124336 -0.016460296 -0.06766596 -0.07395601 -0.099065326 -0.0727716 0.0027999368 -0.05269875 -0.014670532 -0.0012578561 0.009604745 -0.07553412 -0.0013009635 -0.019836225 0.0068504517 0.04401985 0.005661645 0.09302844 -0.038762253 -0.028366659 -0.013898355 -0.0020319778 -0.0021623753 -0.06545133 -0.0034927921 0.0021004435 -0.11160289 -0.015538275 -0.022645514 -0.1720244 -0.049380023 -0.15468891 -0.060220204 -0.030272996 -0.042672966 0.001853099 -0.11804209 -0.088321544 -0.06953251 -0.15764154 -0.057554323 -0.099447116 -0.107766114 -0.08754216 -0.1386405 -0.09709578 -0.07870445 -0.083437584 -0.033133935 -0.011234885 -0.07915694 0.078654036 -0.0064326786 -0.073431104 0.04940389 -0.07366519 -0.036260128 -0.09252452 -0.043814283 -0.027739594 -0.0067548733 -0.087267846 0.008166063 0.027645612 0.015112308 0.0243095 -0.10565728 -0.025464732 -0.0060054353 -0.12323586 -0.00930217 -0.084958486 0.020363534 -0.0067173326 -0.041908253 -0.041115236 -0.06896077 -0.05392683 -0.01117164 -0.048005052 0.01668171 -0.04824241 -0.042000506 -0.04401164 -0.014131472 -0.08724851 -0.09841439 -0.11339952 -0.16519268 -0.087580435 -0.056976262 0.0017325488 -0.07055418 -0.079929255 -0.1336262 -0.058042046 0.03231167 -0.030088542 -0.0024503695 -0.0038038136 -0.088564366 -0.027495531 0.023932265 -0.14812906 -0.011259141 -0.11849969 -0.006870472 -0.016678916 -0.004740332 -0.04637079 0.002846429 -0.005617893 -0.12111021 -0.018805765 -0.03905678 0.0059718196 -0.10244398 -0.020988204 -0.06754643 -0.08253999 0.030632744 -0.014308021 0.02880354 -0.12441572 -0.010072369 0.029995589 -0.023555988 -0.08994752 0.023599772 -0.060141377 -0.11054221 -0.068995215 -0.048062004 -0.12828174 -0.09222184 -0.10556513 -0.07404195 -0.006988231
-0.34102967 -0.2328793 -0.2538298 -0.19810534 -0.15948994 -0.1515564 -0.13979784 -0.16813272 -0.13726096 -0.13532218 -0.114262156 -0.13417663 -0.12747975 -0.13521636 -0.12197928 -0.16187613 -0.11511629 -0.10703189 -0.077134274 -0.01438241 0.007515954 0.084118016 0.058012016 0.10069879 0.13294132 0.1662493 0.15185599 0.14274035 0.14684068 0.13586126 0.09170251 0.07385081 0.020290636 0.012619413 0.04257168 0.018915394 0.048588835 0.023420312 0.026620323 0.0005021786 0.0072719725 0.020107549 0.0114024235 0.014144431 0.024329687 0.032790996 0.029237276 0.01060232 0.026317315 -0.007694626 -0.0013959226 -0.008119833 0.00010919175 -0.01590492 -0.041327197 -0.03310318 -0.021438368 -0.027458182 -0.02274873 -0.042720623 -0.02404558 -0.023871923 -0.053804435 0.0029765973 -0.009324451 -0.01735362 -0.0092421565 -0.007750646 -0.029322159 -0.024094017 -0.02655013 -0.015704857 -0.018873338 -0.01100327 -0.030380668 -0.029522205 -0.037317872 0.006617083 0.007125834 -0.021999408 -0.015801413 -0.042097095 -0.0349698 -0.019589903 -0.043355253 -0.032354437 -0.024086485 -0.038123004 -0.035045918 -0.0175107 -0.024576629 -0.0044552865 -0.022263888 -0.020174071 -0.02668371 -0.037223093 -0.0076347776 -0.017012179 -0.017440313 -0.017676337 0.00485903 0.010438774 -0.02104712 -0.0008633283 -0.022463059 -0.013472437 -0.017417809 -0.027413415 -0.0047773886 0.009148824 -0.015193926 -0.0027031715 0.010427753 0.031731524 -0.015631853 -0.012536407 0.043723784 0.007309578 0.015310393 0.020538848 0.011433968 -0.018862592 0.020643461 0.042102892 0.05650515 0.047404032 0.061445612 0.038479794 0.06361682 0.05720465 0.025670981 0.059479874 0.083782025 0.03327351 0.07404571 0.05946707 0.08759944 0.06997728 0.06854348 0.095070995 0.09715824 0.08751741 0.09298411 0.12032945 0.14592856 0.10447637 0.11349589 0.11002941 0.13217036 0.15157744 0.14170823 0.17148216 0.1839386 0.20725541 0.20481335 0.21108931 0.19659811 0.17112046 0.21077028 0.17031439 0.17749996 0.17859928 0.19650997 0.1598415 0.16963524 0.18846573 0.17809829 0.18846053
-0.04796758 -0.026720937 -0.18338867 -0.08673841 -0.14712974 -0.055060092 -0.117660746 -0.042988777 -0.0003151123 -0.121527694 0.04190118 0.03414532 -0.024555696 0.1158712 0.07672523 0.060960256 0.09785325 0.10336063 0.086807035 0.02847073 0.0043327096 -0.05813892 -0.17067839 -0.16328692 -0.11595095 -0.1095728 -0.10834125 -0.07160196 -0.045490034 -0.0071818433 -0.022202592 -0.001955707 -0.07702072 -0.005489676 -0.042094633 -0.14732477 0.0039448394 -0.11149393 -0.06139646 -0.1283492 -0.05771664 -0.058817443 -0.085409164 -0.11981251 -0.029338898 -0.0734224 0.002839937 0.0011778593 -0.06962614 -0.053627737 -0.033361312 -0.07803905 -0.0794397 -0.031006964 0.009489613 0.006391135 -0.084833264 -0.06521463 -0.049293205 -0.028205145 -0.027320722 -0.11609771 -0.15391703 -0.008277829 -0.12122435 -0.0022645525 -0.044520814 -0.110026166 -0.10281233 -0.05702772 -0.10756971 -0.08867703 -0.039982397 -0.08764551 -0.049619265 -0.13119647 -0.016730417 -0.032395367 0.058913637 -0.1118779 -0.04930643 -0.09739125 -0.10849758 -0.02181849 -0.026099054 -0.02817402 -0.13851151 -0.07395614 -0.109371565 -0.039463192 -0.06564923 -0.06787877 -0.03641684 -0.14081521 -0.13475168 -0.07791161 -0.08109502 -0.045840513 -0.015726704 -0.103854015 -0.013941043 0.00066589337 -0.07166793 0.0010565593 -0.040373944 -0.07628994 -0.036273234 -0.02818152 -0.09430647 0.023689743 0.0311522 0.000707816 -0.0026890598 0.06288516 -0.11333443 0.048852894 0.043403737 0.017030427 -0.031123184 0.06619545 0.0083251335 -0.014263541 -0.06727206 0.047622897 -0.064524084 0.033912163 0.02440016 -0.032344647 -0.0057002385 0.073016524 -0.11311452 1.4416522e-05 -0.081596114 -0.038162645 -0.094244994 -0.04512491 -0.09359675 -0.004054078 0.06279325 -0.036797427 -0.026020762 -0.002947933 -0.042003874 0.010046628 0.029663067 0.016508214 -0.02910651 -0.09722725 -0.0020991378 0.04801162 -0.07206377 -0.010902296 -0.06752965 -0.05015599 -0.057654824 -0.014247822 0.0053366325 -0.09809221 0.006311212 -0.09615863 0.024338452 0.006503841 -0.03360754 0.023485439 -0.04338188 0.049030013 0.01520043 0.03652979
-0.008715766 -0.08917378 -0.0896103 -0.007406458 -0.25193864 -0.22009598 -0.2672847 -0.20081829 -0.17180079 -0.25341254 -0.22861177 -0.2470077 -0.09342073 -0.21299943 -0.08051624 -0.114927314 -0.035232373 -0.08314322 -0.107740805 -0.1813282 0.040175445 -0.13735014 -0.15284991 -0.19573703 -0.15389669 -0.074660435 -0.046823498 -0.21786334 -0.095301546 -0.14227341 -0.17252508 -0.021018839 -0.17781265 -0.13654983 -0.15531152 -0.210314 0.030675476 -0.15738623 -0.14213033 -0.20937744 -0.06759921 -0.018917102 -0.071254365 -0.00053049094 -0.021720737 -0.080533415 0.032083087 0.0669906 0.041918967 -0.009635825 -0.033149183 0.000692385 0.09474149 -0.03581875 0.04638965 0.06082964 0.07213325 -0.03161653 0.056841455 0.01285076 -0.07757291 0.017045697 -0.024472361 0.061673466 0.08348343 -0.022801299 0.06786024 -0.004637919 -0.023308212 0.00077027245 0.11408643 0.0168039 0.10995359 -0.025915077 0.046969716 -0.085631795 -0.06258998 0.09231186 0.04175268 -0.046441983 0.018931903 -0.062368236 0.081729375 -0.04963036 0.011717927 0.015771294 0.051852122 -0.06490349 -0.09786354 -0.11050614 0.032424174 -0.09067578 -0.022112032 -0.0073826183 0.034814358 -0.014379139 0.021114156 -0.02775113 -0.059538778 -0.10584355 -0.037200224 -0.020623932 0.008636598 0.059847467 0.058813993 0.06358684 0.006845514 -0.12697367 -0.097801 -0.026191927 -0.051311914 0.073026314 -0.14028731 -0.11795274 -0.06871985 0.029547153 0.0085858805 -0.0933751 -0.013889912 0.03213477 0.004350328 -0.15057349 -0.00089980004 -0.07600084 -0.0124192685 -0.093568906 0.04146611 -0.11921802 -0.09107744 0.00705273 -0.13742852 0.10036846 -0.008035476 -0.10783899 -0.189755 -0.10541655 -0.13995244 -0.1488751 -0.104159184 -0.1255204 -0.03647728 -0.13275807 -0.11586608 -0.07958708 -0.0536792 -0.0042826138 -0.17846787 -0.025875429 -0.15899794 -0.20164979 -0.17828228 -0.16008121 0.0043693986 0.030599415 -0.15046315 0.036151897 -0.052598666 -0.006216035 0.0054930514 0.07148391 0.052440196 0.084334746 0.04152509 -0.026014397 -0.089156345 0.013060521 0.20019637 -0.029059552
-0.23729604 -0.1049177 -0.23254114 -0.03527539 -0.1354659 -0.09774303 -0.029120982 0.07979876 0.026779937 0.06993002 0.06803795 0.040911984 0.06973926 0.08396829 0.05911691 0.012196544 0.037475605 0.047514196 0.057500772 0.04073865 -0.0049474607 0.0121239275 0.05676115 0.06760341 0.07123073 0.09888901 0.106146544 0.11800837 0.107917115 0.066485755 -0.020188022 -0.07613145 -0.08279977 -0.04868011 -0.09856737 -0.034965698 -0.040427215 -0.0024542473 -0.030264309 0.022088645 -0.051686477 -0.13477916 -0.025882449 -0.036352538 -0.0883206 -0.052351348 -0.06894975 -0.02363335 -0.14452279 -0.0457087 -0.007305436 -0.0948554 -0.0760517 -0.05795365 -0.036084734 -0.016130121 -0.05273255 -0.006547214 0.011471483 -0.010994661 -0.002553786 -0.042013448 -0.04435398 -0.014440816 -0.010007923 0.014636417 -0.010631044 -0.039777745 -0.0291735 -0.035693623 0.06997667 0.011776478 -0.0009917165 0.0038987 -0.005066699 0.015188429 -0.057840265 -0.042045936 0.002343141 -0.016365072 -0.05035545 -0.004086381 -0.043383885 -0.03645515 -0.058988463 0.004130435 -0.12036945 -0.02086694 -0.094938695 -0.007430894 -0.006359129 -0.008345932 -0.061318744 -0.070624664 0.008459001 -0.07689906 -0.08854086 -0.07854638 -0.025102511 -0.14350483 -0.012289217 -0.11138975 -0.007253701 -0.091468096 -0.07659606 -0.12978734 -0.046247922 -0.098904 -0.102336764 -0.047067042 -0.06134923 -0.022840383 -0.0218881 -0.016012024 -0.113439895 -0.074183 -0.023822423 0.038024705 0.012352524 -0.008557856 -0.041859157 -0.113167986 -0.025412973 -0.06379079 0.028255103 -0.072380885 -0.0080751395 -0.08363933 -0.012434665 -0.0030602915 -0.11271598 -0.050252743 -0.08480277 -0.14794914 -0.05072361 0.012892398 -0.013457102 -0.12590447 -0.09200365 -0.061116423 -0.124434 -0.14074926 -0.10146386 -0.10003738 -0.11792688 -0.08890804 -0.18683119 -0.07413807 -0.18125008 -0.20604739 -0.1986617 -0.13182175 -0.17228414 -0.20747828 -0.17970134 -0.08329409 -0.17136866 -0.19401146 -0.19572233 -0.16781797 -0.12995797 -0.21503304 -0.15852574 -0.17915843 -0.20052841 -0.11617544 -0.18031837 -0.1131693
0.07196103 0.03903846 0.06923927 0.06804638 0.006285443 0.008677891 0.004800106 0.08678799 0.10729166 0.08277825 0.14499539 0.007455386 -0.016175084 0.097525805 0.067081936 0.034018338 0.18286158 0.1558092 0.19972081 0.15788879 0.11187277 0.13206202 0.026156083 -0.043732733 -0.01112078 0.10632936 0.044982266 0.14682685 0.18683003 0.1310652 0.1396825 0.07702463 0.14148997 0.020315688 0.11925698 0.046360962 0.051140714 -0.003317642 0.0124407625 0.10488285 0.11821862 0.070949264 -0.021719212 0.07388986 -0.023756545 0.05697179 0.08491807 -0.019367272 0.05693263 0.05155128 0.02370687 0.014943557 0.044897534 0.10540912 -0.0024166019 0.026775757 0.018757192 0.13090532 0.11760457 0.10621898 0.059280086 0.10818777 0.09532082 0.00578691 -0.095050216 0.040611766 0.097118326 -0.00013422032 0.047484834 0.096227825 -0.0054693553 -0.05434953 0.038286276 0.073376365 0.05371783 0.043288033 0.065429255 -0.004304981 0.033327103 0.059750833 0.024343897 -0.0070533226 0.09000115 -0.005234019 0.058957778 0.07776654 -0.0018077281 0.13899495 0.110021345 0.09873708 0.11756906 0.044408534 0.013941111 0.046079047 0.0678799 0.04135085 0.02987832 0.10575381 0.017874422 0.13845296 0.12546268 0.09699802 0.031821307 0.036340382 0.111880444 0.118794955 0.033406515 0.10879214 0.11093621 0.090090595 0.083674416 0.10359546 0.006760748 0.11954528 0.17099409 0.102991894 0.12244946 0.11228756 0.06264694 0.05726894 0.1036222 -0.00861428 0.0892545 0.13497303 0.066198595 0.04569554 -0.027743945 0.08417532 0.11732737 0.047021616 0.14201921 0.10095951 0.01604858 0.037531182 0.1636257 0.14746743 -0.054264415 0.057957336 0.021939648 -0.0068353396 0.04856101 -0.043182522 -0.024533926 0.048922077 0.1226558 0.031828016 0.09310549 -0.007378181 0.024276022 0.102306254 -0.0009854155 -0.052359 -0.058574248 -0.03640801 0.05799322 0.034046575 -0.0034124586 -0.052072067 0.07739194 0.036659528 -0.029997468 0.053494167 0.055576332 -0.001508289 0.029355869 -0.023522373 0.016536694 0.040170383
-0.05076553 -0.13854986 -0.010118294 -0.039218977 -0.020017091 0.0008632536 0.077310875 0.06668416 0.045241904 0.09428353 0.06203706 0.020950286 0.06320492 -0.012605186 0.035944585 0.041321136 0.089921094 0.045797575 0.009483052 0.096617356 0.035531178 -0.06753484 0.019216117 0.09180738 -0.07376008 -0.098140344 -0.004827693 -0.037184753 -0.1308006 0.0034445326 0.008177175 -0.07110829 0.009148457 0.020576777 -0.073703855 0.052076705 -0.042910006 -0.049341317 -0.027611282 -0.03737433 -0.011491508 -0.021697143 0.004561773 -0.113875024 0.05610594 -0.06550293 -0.051432338 -0.04772811 -0.08863672 -0.04013682 -0.04565004 -0.041492093 -0.019915575 0.027266962 -0.05400294 0.019875562 0.010006336 -0.0906295 -0.035246707 0.0018834005 -0.02937957 -0.052109186 -0.09233965 -0.006419201 0.012033227 -0.03684775 -0.021884957 -0.026220614 -0.011113804 -0.059254956 -0.0786212 0.034619786 0.055219706 -0.06364252 -0.016205588 -0.09425523 -0.0142993275 -0.096784525 -0.013499208 -0.038835887 0.044794995 -0.009837243 0.0058472003 0.022394443 0.026517654 -0.09181343 -0.02617245 0.0064615137 -0.06459234 0.00072423305 -0.03629588 -0.0073899734 -0.0674175 -0.025348492 -0.04084999 -0.10086812 -0.030287698 -0.042021543 -0.059954915 -0.041862156 -0.08268992 -0.1006638 -0.10390559 -0.12571181 -0.066662535 -0.012524329 0.03135934 -0.03997343 -0.11272536 -0.029367805 -0.054597475 0.004556925 0.05589046 -0.0538127 -0.07988884 -0.04282661 -0.006241517 0.028570825 -0.0681709 -0.048768617 -0.06136581 0.008350045 -0.08363551 -0.09787855 -0.019439626 -0.03432084 -0.0039851884 0.053875174 -0.020321403 -0.124172986 -0.069312535 -0.020235058 -0.07510582 -0.024171717 -0.09405487 -0.043825172 0.004567445 -0.084319144 -0.01612769 -0.074652195 -0.02393503 -0.03106635 -0.029291952 -0.039363995 -0.12628134 -0.10121124 -0.12160269 -0.070344076 -0.06616165 -0.08519649 -0.09535212 -0.00057560304 -0.10144262 -0.06912413 -0.04391777 -0.11569545 -0.03055875 -0.07507044 -0.16330181 -0.115968436 -0.095560126 -0.03843659 -0.075057454 -0.056014463 -0.17415823 -0.042729914 -0.13562539 -0.10278492
0.11747149 0.08280481 -0.025517542 0.065830156 0.014483891 0.040015522 0.08898488 0.10117833 0.106780864 0.066807404 0.06944333 -0.030721895 0.09665285 0.011912097 0.036378477 -0.018898768 0.002987596 0.05657128 0.09321807 0.002461396 0.14134137 0.047727402 0.16355188 0.0829462 0.16111767 0.04683647 0.061651725 0.12674002 0.077492855 0.077794485 0.086347945 0.14186391 0.03050867 0.108954325 -0.011248781 0.01971979 0.024265539 0.0155766215 -0.01631123 -0.03842588 -0.019867187 -0.03533594 -0.0044626947 0.0123069445 0.11322442 -0.002135869 0.046500307 0.015795121 0.04770119 0.021831041 0.11279716 0.024451043 0.08160065 0.065495625 0.06608213 0.018176977 -0.017280927 0.0012562288 0.06780742 0.006438466 0.04451053 0.08154149 0.018129924 0.09675961 -0.06476912 0.104656585 0.0019528265 -0.01911743 0.05704122 0.020284738 0.07051571 0.08455696 -0.022723049 0.010960287 0.04199589 0.07642349 0.085937224 0.1113914 0.052723136 0.105619386 0.028929925 0.06719742 0.028551526 0.15962827 0.07473075 0.0608545 0.033109285 0.076005735 0.090834044 -0.008465586 0.1235376 0.05099889 0.05251642 0.053266417 0.03736555 0.18080784 0.046615403 0.1382283 0.07835157 0.035713807 0.062116005 0.006852609 0.028806735 0.07655984 0.033081107 0.068195336 0.03999679 0.075673886 -0.023982925 -0.029318795 0.0008718399 0.13119948 0.0065808394 0.07961764 0.049661137 -0.011079497 -0.027461467 0.092619486 -0.09439078 0.02392032 0.06870561 0.011069678 0.06005552 0.05240297 0.0052996567 0.029426083 0.09589684 0.001134549 0.03325797 0.033765454 -0.023921896 0.10237682 0.08685488 0.029028228 0.02632339 0.048156884 0.07582188 -0.022601414 -0.0055846684 0.001747748 0.03908683 0.04144641 0.008660152 0.11302195 0.0753829 -0.0033010552 -0.03220007 -0.017567482 0.089113146 0.05331658 0.004886818 0.09388224 0.008770252 0.02297792 -0.0056911632 0.098102964 0.09662851 0.03504169 0.038321286 0.09251993 0.044548687 0.040051978 0.11742063 -0.033403773 -0.03887909 0.03317927 0.0019812875 0.0097098
-0.029275274 -0.16478683 -0.1675412 -0.22716565 -0.10173601 -0.1776861 -0.1295433 -0.12961522 -0.0943423 -0.17695576 -0.23431353 -0.21611622 -0.23868614 -0.08302663 -0.21033025 -0.15216006 -0.123244725 0.03455544 -0.0379008 -0.031225372 -0.013588149 -0.035026636 -0.0773048 -0.024519842 -0.10644248 -0.11407777 -0.16338634 -0.1907128 -0.1970913 -0.2044333 -0.15034355 -0.09482524 -0.10399396 -0.023540644 -0.031840898 -0.08023096 -0.14885266 -0.008580747 -0.015259551 -0.014368161 -0.05507273 0.085544206 -0.012310208 -0.07656638 0.0223042 0.014142849 -0.018293353 0.074576944 -0.070544064 0.05504491 -0.009109839 0.08171789 0.0043701935 0.06642275 0.11647534 0.070418626 0.07422536 0.12109462 0.03578774 0.060717586 0.04601312 0.083660424 0.013828188 -0.0111287795 -0.05407604 0.0049483757 -0.013793505 -0.06203338 -0.049504496 0.008417659 -0.07526172 0.002159438 -0.0049777846 0.0005989172 -0.018594753 -0.0006717727 0.0016639535 0.04250099 -0.09664392 -0.10394329 -0.062881015 -0.019037353 -0.1034688 0.009837412 -0.088325016 0.024315448 -0.028404469 -0.03758368 -0.021979135 -0.042212322 -0.07504261 -0.10415266 -0.07254598 -0.08095105 -0.12658909 -0.102547675 -0.12019665 0.029260065 -0.06320968 -0.05980215 -0.065658934 -0.13148223 -0.056710716 -0.07717581 -0.019844197 -0.122423865 -0.12403808 -0.034226824 -0.11309328 -0.10104948 -0.08661621 -0.12523252 -0.07027935 -0.04885467 -0.0507096 -0.08911097 -0.091910176 -0.011112907 0.010958124 -0.03740647 -0.06671703 -0.06875994 -0.051746562 0.025857171 -0.14291081 -0.05025432 -0.027246622 -0.018648008 -0.09985906 -0.025463313 0.067525595 -0.07847995 0.06936713 0.02444246 -0.07212337 -0.058547135 -0.031530604 -0.06970146 0.018535448 -0.06408182 0.120412484 0.09406729 0.07972355 0.046167426 -0.044147782 0.028782582 0.02252474 -0.055535205 0.058025118 0.012339301 0.08258311 0.020140987 0.09649602 -0.0103034405 0.06623112 -0.0032019783 0.13435441 0.09730451 0.1395318 0.06375079 0.083266035 0.10476781 0.14549483 0.093780994 0.1889735 0.10545461 0.11443097 0.02194272
0.16126303 0.018264862 -0.0001404743 -0.06202992 -0.060505185 -0.04690109 -0.054795366 -0.11747603 -0.039147843 -0.080701254 -0.03745879 -0.0123308245 0.01835181 0.07059414 0.114487916 0.110860206 0.11965155 -0.0068886904 0.06953616 0.01575099 0.03236867 -0.075026534 0.01877628 -0.043651655 0.021018187 -0.0008509276 0.06219099 0.05856502 0.07873377 0.026402198 0.11072816 -0.008533031 0.020319736 0.058885634 0.022500489 0.13068445 0.032884117 0.05068812 0.09685279 0.027067916 0.047061108 0.059988905 0.03223054 0.055224128 0.11295649 0.032227308 0.051565047 0.021104828 -0.011065774 0.004473017 0.104898185 -0.04357276 0.027812349 0.07743192 0.041019224 0.053250257 0.02311562 0.041573703 -0.028383402 0.034497228 -0.05141517 -0.04871275 0.0070621213 0.035816092 -0.00808912 -0.042484507 0.06722366 -0.011518471 0.039146516 0.030150564 -0.015650421 -0.0386536 -0.0041979323 -0.012224459 -0.026083939 0.010629902 0.033712465 0.0049592475 0.051867742 -0.00040548947 0.025691776 0.02605877 -0.056822192 0.049221035 0.10092824 0.0030440195 -0.04988525 0.08951743 0.024602871 -0.0003784347 0.0064184587 0.027229637 0.0330488 -0.005480563 0.010752448 0.04175046 -0.06972974 -0.009053079 0.026427599 0.04601854 -0.041848693 0.03835353 0.014058469 0.031170586 -0.0101626795 0.06518934 0.016629457 0.028693814 0.0060654837 0.031048084 0.034020916 0.04041192 0.011174291 0.060877893 0.048897047 0.12887451 0.038619272 0.016623273 0.018370759 -0.020976145 0.055036686 0.06805355 0.07386238 0.10360188 0.09405206 0.130279 0.044558477 0.1381256 0.12964435 0.095649846 0.10021889 0.13907516 -0.0022154127 0.116522454 0.1638458 0.10126195 0.18492505 0.18078572 0.19165611 0.23198186 0.11369849 0.20975168 0.25075853 0.20230643 0.2698844 0.2013583 0.20794357 0.19372135 0.20485342 0.26959518 0.19530441 0.26289654 0.1865937 0.17880256 0.233017 0.21194431 0.24448176 0.25124618 0.25397155 0.15709098 0.24294657 0.21356553 0.16471212 0.16068865 0.12605165 0.104551084 0.11757424 0.16893594
-0.28865063 -0.2305405 -0.15717144 -0.10190736 -0.09301605 -0.046769228 -0.03815049 0.039674778 0.007206734 -0.006998436 0.1398281 0.08479568 -0.06415428 -0.0028320365 -0.008433555 -0.09695211 -0.015474476 -0.11892744 -0.11622362 -0.04060134 -0.105806336 -0.027175326 -0.059472248 -0.013196642 0.010142876 0.045948092 0.094728805 0.07205781 0.15312411 0.1424662 0.031285826 0.043875504 0.088463046 0.05054559 0.07191915 0.057953008 0.069882296 -0.052785054 0.07335299 -0.022220772 -0.09764744 -0.105425335 0.031128475 -0.07763899 -0.061927043 0.0019932783 -0.0047949394 -0.07347753 -0.12201174 -0.07349406 0.028431013 -0.1323881 -0.06465702 -0.07521297 -0.06269048 0.011220709 -0.03998686 -0.0673776 -0.0661756 -0.010938313 0.01976046 -0.032913856 0.0008944653 0.016892724 0.04746152 0.07450972 0.00447111 -0.02141415 0.019209195 -0.086475775 0.004548803 0.017100591 -0.00825494 -0.008955907 -0.030484797 -0.019790487 0.021965215 -0.013699351 0.00017539457 0.015369324 -0.05916517 -0.045103855 -0.058591146 -0.06553121 -0.0072547183 -0.054428693 -0.068967536 -0.085108526 -0.011574109 -0.01773761 -0.07813117 0.00821681 -0.018582921 -0.11171228 -0.056069754 -0.056989923 -0.07801183 -0.012572978 -0.08380946 -0.06823516 -0.07778352 -0.050677333 -0.07607085 -0.019818312 -0.088479266 -0.10936496 -0.052653987 -0.10326888 -0.09540214 -0.07852114 -0.013143088 -0.034880403 0.005588118 0.029729638 -0.0039177993 -0.072827116 -0.09287773 -0.041317005 -0.02265201 -0.033390254 -0.059826214 0.0014692928 -0.028418524 -0.050858144 -0.06694871 -0.022524271 -0.035095144 -0.0954807 0.05464371 0.021269673 -0.10856158 0.05787582 -0.037263986 -0.064468905 -0.08047473 -0.019118287 -0.047470693 -0.042802803 0.07897392 0.03903805 -0.035906337 -0.014059991 -0.105000034 -0.044673584 0.04702705 0.01410857 -0.07833516 -0.0032118892 -0.059123058 -0.012345677 0.06308383 0.060414657 -0.021608347 -0.071875684 -0.039127104 0.054144733 -0.040341634 -0.073027834 -0.02956014 -0.074039176 -0.046704028 0.03171119 -0.09834153 -0.06843967 -0.14749494 -0.05034891 -0.029639406 -0.114216655
0.33773237 0.2220823 0.14760752 0.078420654 0.059959028 0.012576288 -0.04951467 -0.07242105 -0.10516368 -0.130117 -0.24826588 -0.24101652 -0.22163439 -0.14208877 -0.09719309 -0.08822192 -0.094865814 0.032668356 0.031807363 0.014428401 0.018403467 -0.012040732 0.00742056 -0.08392616 -0.019480716 -0.0062400377 0.0031987748 0.030736405 0.047988817 0.0645762 -0.03130497 -0.002877875 0.025393762 -0.013136742 0.024309702 0.036692675 -0.048388973 -0.07032883 -0.0427381 0.0007165082 -0.05766075 -0.035633814 -0.011039723 -0.0021228534 0.0118316 0.029018156 -0.02443665 0.03165524 0.029380566 0.063348696 0.048113443 0.06373122 0.055927217 -0.008126164 0.06985812 0.1056334 0.08143007 0.104706176 0.10449484 0.06281045 0.09161433 0.0668809 -0.0076872357 0.011022328 -0.009842334 0.0152481515 -0.050954774 -0.006139112 -0.032482594 0.044762135 -0.022041628 -0.046168562 -0.005796743 -0.0199498 0.004325829 -0.043065816 -0.038711127 -0.020346412 -0.07691493 -0.08032631 -0.048627473 -0.07996715 -0.08156305 -0.083891 -0.11582032 -0.10157307 -0.05802179 -0.10433449 -0.066938765 -0.08148746 -0.11940537 -0.10758306 -0.10161191 -0.09370133 -0.107593395 -0.07425161 -0.08857518 -0.06433952 -0.13455471 -0.09880683 -0.114540845 -0.09078554 -0.1360079 -0.14741842 -0.10278713 -0.08124412 -0.038123578 -0.058834944 -0.09440926 -0.056516916 -0.06673158 -0.1531085 -0.09691182 -0.048456836 -0.056897655 -0.09725246 -0.06580166 -0.10336593 -0.04323988 -0.06164145 -0.104122266 -0.08606251 -0.08281906 -0.05649309 -0.039329797 -0.03783556 -0.0493991 -0.041555595 -0.021307582 -0.051068664 0.0029853876 -0.04256436 -0.039146535 -0.023600971 -0.0439 -0.036968637 -0.02948074 -0.012099038 -0.0714383 -0.053608615 -0.09733818 -0.052563846 -0.013004292 -0.08733776 -0.04626375 -0.0061480165 -0.014907537 -0.043583553 -0.0050353464 -0.08896221 -0.049947236 -0.07853155 -0.050315313 -0.10191717 -0.07331124 -0.10459781 -0.07806768 -0.0881268 -0.038872976 -0.016303046 -0.043410797 0.001675391 0.058283765 0.09400008 0.11537713 0.11157401 0.06912079 0.10804055
-0.00010899712 -0.051725645 0.0039794925 0.00045923918 -0.08988625 -0.14400777 -0.09388792 -0.084806114 -0.1152565 -0.112292804 -0.12601295 -0.041678973 -0.08514485 -0.057565 -0.008822248 0.009696126 0.0029353495 -0.00048676383 -0.00536564 0.047761977 0.017305505 0.09927969 0.13214391 0.16788933 0.07206259 0.10444631 0.04832586 -0.017873658 -0.022703448 -0.071529806 0.007916934 0.10418832 0.08333202 0.103289455 0.12529397 0.031565957 0.045328323 0.12679325 0.134398 0.067943275 0.068644285 0.11540417 0.060383815 0.04267363 0.0018456542 0.09913293 0.10443197 0.07571777 0.060764384 0.042161025 0.03140535 0.055690996 0.084942095 0.013156284 0.10226378 0.13024329 0.033466313 0.0338691 -0.008901678 0.094843715 0.10716644 0.046390597 0.014850108 0.06916903 0.09436177 0.005698634 0.0790671 0.0038120486 0.0565159 0.0814392 0.044505123 0.041554816 0.056600902 0.10176512 0.106217936 0.05713989 0.071880944 0.034938283 0.060534514 0.091694124 0.12790884 0.08361638 0.04019555 0.014056945 0.014775939 0.07536077 0.11307337 0.020009313 0.018333966 0.07720661 0.010582167 0.04141266 0.057502355 -0.04596361 0.02006305 0.0013077069 0.04228836 0.03000682 0.06448311 0.09570896 0.079084486 0.02590053 0.0030301455 -0.009475276 0.07712027 -0.010314815 0.10617383 0.08074997 0.088211134 0.10147104 0.10756509 0.013604314 0.046033803 0.061448198 0.05172521 0.092888646 -0.0042140936 0.056119654 0.077619575 0.15377878 0.07304376 0.026385736 0.04833842 -0.02443198 0.06278056 0.03251266 -0.037976466 0.025678117 0.023481466 0.0618762 0.042098157 -0.0018754216 0.035617158 0.054370087 -0.0019287094 0.03910944 0.040546104 0.056736484 0.08098512 0.034638092 0.07176787 0.10253452 0.013932127 0.028141158 0.08424707 0.056655895 0.10781114 0.027115611 0.029231386 0.076917686 0.096058995 0.086602926 0.028838765 0.07139228 0.047204297 0.05326053 0.09345021 0.07234204 -0.019925151 0.10658477 0.0057398765 0.10077605 0.0700742 0.14680676 0.09691499 0.13987398 0.12367451 0.09092596
0.19053563 0.15612964 0.1737615 0.083364405 0.0510964 -0.034318738 -0.06813505 0.031767022 -0.056188695 -0.106029235 0.0017072932 -0.031406667 -0.029858997 -0.084037 -0.09818777 -0.0144501 -0.0016019258 0.08295991 0.05880228 0.057191566 0.04697547 0.027513742 -0.020829353 -0.030340854 -0.09861524 0.023423564 -0.07975129 -0.07381336 -0.10141256 -0.08007769 -0.13651742 -0.1364423 -0.03496246 -0.015138603 -0.05229774 -0.048100356 -0.04599155 0.059581384 -0.037899956 0.0044555687 0.035243433 0.05086383 -0.012456092 0.0022907343 -0.064714916 -0.016256895 -0.08514887 -0.06612301 -0.019998793 -0.060788874 -0.059250955 -0.065616615 -0.0044691963 -0.007431016 -0.07120782 0.0055953837 -0.04324329 0.003490762 0.011245165 -0.02708199 -0.05390145 -0.043159783 -0.006599946 -0.1081817 -0.120408274 -0.10327345 -0.133151 -0.15546389 -0.0879364 -0.07305109 -0.1582172 -0.074163415 -0.051014848 -0.06446682 -0.052602194 -0.07077791 -0.053976744 -0.087114275 -0.14563158 -0.07554523 -0.053838488 -0.08319081 0.012050551 -0.14549771 -0.1287062 -0.021755753 -0.111709744 -0.05034141 -0.041484203 -0.12966247 -0.05651882 -0.11117996 -0.115729526 -0.08832154 -0.122644484 -0.07862059 -0.022989905 -0.078109264 -0.12892379 -0.08590982 -0.13573474 -0.13046266 -0.07681851 -0.1297988 -0.10724967 -0.05417908 -0.105122425 -0.12400053 -0.11316676 -0.12159779 -0.09873856 -0.014239228 -0.08987739 -0.08638891 0.0010093675 -0.085661225 -0.011153629 -0.023530113 -0.08752384 0.01453061 -0.03558797 -0.087240994 -0.034102257 -0.07983638 -0.08676272 -0.11533865 -0.024418706 -0.028096694 -0.13014834 -0.059037976 -0.029900651 -0.15375736 -0.14772928 -0.07248037 -0.07438527 0.0520306 -0.12994246 -0.065660596 -0.05025147 -0.15687285 -0.019453451 -0.11320929 -0.08076975 -0.014965663 -0.12099521 -0.11872632 -0.06272746 -0.05422917 -0.089042895 -0.045549955 -0.10756805 -0.10538813 -0.09431677 -0.08661306 -0.08430197 -0.16035916 -0.06666679 -0.034018174 -0.12314352 0.029623864 -0.024966842 0.026017802 0.04075818 0.020571044 0.019468244 -0.021845935 -0.00037893342 -0.09015718
0.36995327 0.34140497 0.3131061 0.2444152 0.20147908 0.12449334 0.136327 0.13125439 0.122557245 0.09795924 0.062339183 0.11693012 0.10439702 0.080827884 0.05981069 0.08501503 0.010980212 0.057551883 0.055550724 0.029962912 0.054831658 0.10846883 0.14690608 0.10057017 0.19110216 0.21858612 0.17227954 0.18027665 0.13955607 0.09527852 0.049478132 0.0063862884 -0.023495853 0.034019765 -0.011031592 -0.10727713 -0.09577747 -0.06560993 -0.12383345 -0.121207066 -0.10121336 -0.15996508 -0.12177534 -0.0933611 -0.12661874 -0.15729035 -0.15286316 -0.17280045 -0.13299705 -0.1706695 -0.13642858 -0.15767647 -0.14925759 -0.12594654 -0.15383789 -0.19628179 -0.13840711 -0.16577068 -0.087595865 -0.1281212 -0.105585404 -0.16137598 -0.10587133 -0.12025349 -0.12787992 -0.14214543 -0.105947636 -0.10215046 -0.1411942 -0.05199141 -0.06960056 -0.08045267 -0.09278071 -0.09180098 -0.10989602 -0.09936077 -0.06486103 -0.09103825 -0.1026503 -0.0600823 -0.067931786 -0.05182836 -0.023358889 -0.038182463 -0.09960608 -0.056121107 -0.024386168 -0.042429987 -0.019050848 -0.01698504 -0.06520522 -0.0069736578 -0.02353316 -0.020520553 -0.036169343 -0.050527982 0.0320819 -0.0026104734 0.009870467 0.0055258097 -0.01735002 -0.04748717 -0.008142837 -0.02484177 -0.061925083 0.030593678 -0.008217389 -0.021131573 -0.00301617 0.017817475 -0.051358823 0.00013520366 -0.010879894 -0.020640578 0.003479906 -0.023229973 -0.034392163 -0.011047742 0.020289375 0.0115987845 0.01610913 -0.041409813 -0.02196586 -0.07640105 0.014907477 0.01306458 -0.059052426 -0.030993503 -0.045203153 -0.039707318 0.009274323 -0.07412507 -0.074744925 -0.04400913 -0.09213562 -0.0032811735 -0.060245875 -0.040192485 -0.10289183 -0.058917027 -0.059663773 -0.06253 -0.047786962 -0.075303614 -0.084185615 -0.09555222 -0.05484856 -0.07108812 0.009014326 -0.06612973 -0.105340905 -0.09126742 -0.14884162 -0.08424926 -0.14635739 -0.15813078 -0.1079742 -0.15157361 -0.19941853 -0.16049111 -0.12036295 -0.15317729 -0.132626 -0.13744046 -0.14024553 -0.15896861 -0.14947052 -0.20339192
0.58728725 0.45971772 0.38144758 0.2831329 0.18611825 0.11484286 0.1265657 0.0074614724 0.0009540978 -0.025475292 -0.080142625 -0.109561995 -0.06052539 -0.007493887 -0.0051642847 0.09698133 0.09907601 0.09841526 0.16877092 0.11263382 0.13476267 0.077214904 0.1082553 -0.073914215 -0.09006506 -0.120227344 -0.18672432 -0.2365281 -0.26815096 -0.31283602 -0.2989923 -0.23488992 -0.29030842 -0.18505608 -0.1708489 -0.21063602 -0.2011845 -0.19046569 -0.09247716 -0.08803418 -0.06678541 -0.093018174 -0.08875577 -0.049587127 -0.048713386 -0.12620011 0.03574722 -0.00024253358 -0.00025053154 0.037085555 -0.023414591 0.03996069 0.05499271 0.049519137 0.08096417 0.08055635 0.09016677 0.10988771 0.099808246 0.10424693 0.01602282 0.0369596 0.049383897 0.08619584 0.08590606 0.058972847 0.07501414 0.05784409 0.016097225 0.11769107 0.008135422 0.039135467 -0.03353393 0.017224664 0.07945873 -0.00052796205 0.039305832 0.009989336 0.014742501 0.008902985 -0.061588716 0.01101721 -0.04417831 0.006435465 -0.0037440108 -0.016511964 -0.07407555 -0.04672015 0.0054415977 -0.0025946698 -0.009961094 -0.09375199 -0.0849715 -0.09822503 -0.104509436 -0.004861746 -0.0056907767 0.031555757 -0.044913333 0.019703038 -0.06962467 -0.032734238 -0.06245646 -0.122671805 -0.10685495 -0.1409855 -0.070079334 0.0032811833 -0.006996318 -0.1125183 -0.077793606 -0.09968622 -0.10123827 -0.09107057 -0.08997632 -0.057610482 -0.12799707 -0.10337843 -0.1455737 -0.104631424 -0.10256593 -0.09993409 -0.14613757 -0.13168289 -0.14388907 -0.12846427 -0.1698324 -0.07905863 -0.107210025 -0.0664856 -0.014108178 -0.11788088 -0.10523021 -0.04980662 -0.111130685 -0.1407289 -0.14375858 -0.11613866 -0.07036219 -0.13420783 -0.13305233 -0.015731584 -0.08553567 -0.06625659 -0.07653252 -0.033290353 -0.0749539 -0.009491738 -0.0016709116 0.033971537 0.04010624 0.004889661 -0.015068805 -0.054329697 -0.017333318 0.023180842 0.036760107 -0.0003975395 0.06482047 0.012363303 0.003577245 0.14154838 0.10256318 0.13798529 0.11065176 0.12190922 0.050442547 0.13423927
-0.058587737 0.044078235 -0.034485057 -0.030048033 0.08945469 -0.05516662 0.12290041 0.06294329 0.0131797185 0.02443249 -0.04872609 -0.050521877 0.0079933265 -0.029318018 0.0030648964 -0.0957672 -0.11754362 -0.09261271 -0.02347039 -0.0098826755 -0.032516547 -0.051706422 0.027496764 0.0500798 -0.03674947 -0.029002488 0.004513991 0.046115953 0.058883272 0.04178148 -0.008095306 -0.0913662 -0.10216799 -0.14761448 -0.15589714 -0.042832684 -0.06423098 -0.016033377 -0.09071185 0.010144156 0.0009988471 -0.08357445 -0.13130662 -0.042330317 -0.040756647 -0.021939425 -0.11113166 -0.061873727 -0.030613104 -0.03586756 -0.060453307 -0.06351728 -0.016714457 0.033333592 -0.0029197282 0.019644642 -0.12149077 0.03585094 0.063664526 -0.0014780748 0.038023245 -0.0906215 -0.029016007 -0.0569078 -0.09476935 -0.10391447 -0.032365944 -0.07489752 -0.034902807 -0.047580853 -0.08321313 0.024281142 -0.019616412 0.007260916 -0.04888033 -0.08158197 -0.10102497 -0.03642758 0.00691621 0.045195278 0.03016226 -0.004454836 -0.006028438 -0.030311076 -0.044448018 0.005689404 -0.06714852 -0.09171307 -0.04895084 -0.11265587 0.028982496 0.0006370496 -0.0425689 0.001211952 -0.0071940436 -0.0253085 0.041549597 -0.08996257 -0.10738331 -0.07839308 -0.083060764 -0.0946067 -0.024523987 -0.07883582 -0.071783565 -0.022396894 -0.04905632 -0.09060234 -0.16404882 0.011382152 -0.11189102 -0.005121504 0.0036197603 -0.046485923 0.014485626 -0.13668646 0.040077735 0.06356056 -0.14116439 -0.09693402 -0.059555925 -0.035882015 0.0046415455 -0.08585152 0.029386258 -0.056557212 0.058500595 -0.0060313484 0.0020540487 -0.056572292 -0.121907525 -0.017245932 0.008016103 0.009274522 -0.038583055 -0.023045743 0.021513203 0.017534457 -0.05242972 0.058751456 -0.01099572 -0.09293319 -0.085223906 0.00430763 -0.12564959 -0.066259354 -0.008521301 -0.02462056 0.007523033 -0.07412386 -0.10243991 -0.02475495 0.027952755 0.0024271 0.021756867 0.04332522 -0.034833748 -0.023641845 -0.04565089 -0.041282084 0.009488008 -0.108292855 0.017246908 0.011551366 -0.07559588 -0.08218958 -0.085748605 0.060814098
-0.08776864 -0.0296519 0.021356763 0.010671251 0.023685636 0.095803626 -0.05558587 0.060566198 -0.002747376 0.011616422 0.015850259 0.09671639 -0.008057464 0.042049415 0.02457253 0.074578606 0.11156051 0.11869295 0.1165097 0.058376282 0.048646875 0.06581974 0.020342803 0.040838614 -0.06561096 -0.019441016 -0.062388748 -0.049866498 -0.07106614 0.0072548166 -0.13886797 -0.17095536 -0.1089341 -0.0823748 -0.10880944 -0.062128328 -0.01139619 -0.09855305 -0.11413377 -0.039227605 -0.13112211 -0.037240542 -0.07492456 -0.06719562 -0.013961836 -0.0155452965 -0.13304989 -0.06919535 -0.016255407 -0.08293694 -0.0785982 -0.042612493 0.0072561754 -0.016168563 0.028518882 -0.07227343 -0.07361289 -0.020343019 -0.02831959 -0.043676317 0.0060712774 0.059118345 -0.0498961 -0.02859147 -0.010975535 0.0587238 -0.017066557 -0.06531322 -0.024904555 -0.012910822 0.017351396 -0.03333143 -0.11716511 -0.073872805 -0.05040318 -0.027193228 -0.010714772 -0.020109264 -0.13196692 -0.05882054 -0.060488805 -0.03756366 -0.052110244 -0.011941274 -0.14138918 0.004804285 -0.059677787 -0.055673476 -0.009406015 -0.074668065 -0.061978128 -0.021902835 -0.054477766 -0.10524738 -0.040043388 -0.11307055 -0.0058908174 -0.037827473 -0.10300266 -0.044762366 -0.089250915 0.020291613 -0.1537735 -0.06792509 -0.081576206 -0.11758058 -0.09316907 -0.1695197 -0.078221366 -0.033681285 -0.08319376 -0.08209729 -0.10154518 -0.044894166 0.008505328 -0.083818845 -0.009133061 -0.11988929 0.04370321 -0.09149241 -0.03576597 0.03705622 -0.037390806 -0.13260432 -0.049914945 -0.07926688 -0.060388234 0.0003034958 0.010054445 -0.08644019 -0.062486287 0.079535514 -0.026175968 0.026955321 -0.059962492 0.061005436 0.025908897 0.056446157 0.013926065 0.057557732 -0.02689707 -0.047809474 0.04445587 -0.09888199 0.053733706 0.060671154 0.06226077 0.07300324 -0.058737077 -0.07105398 0.023499059 -0.048713848 -0.006950962 0.015303206 -0.017222824 -0.03946018 0.044303168 0.0070779603 -0.11206914 0.052383307 -0.004358172 0.0023017754 -0.052478254 0.03942489 -0.09796774 -0.017626472 -0.06061343 -0.03407627
0.051233742 0.099744596 0.05214612 0.11520534 0.02068583 -0.018826205 0.014129571 0.041938476 0.026996132 -0.04996428 -0.043927647 -0.0039404975 -0.030049654 -0.08136311 -0.06489319 -0.14214706 -0.12691057 -0.04170954 -0.07898106 -0.12826723 -0.018739495 0.015272784 -0.037875522 -0.085641734 -0.042118993 -0.041651823 -0.051670164 0.030876454 -0.039235145 -0.0733135 0.010669085 0.11218038 0.010977808 -0.0062275953 0.059999328 -0.1055323 0.040105306 -0.055749144 0.04177344 -0.03952167 0.0065352335 -0.0017462722 -0.02822816 0.00021403213 -0.02070844 0.0030913118 0.042087477 0.0114281755 -0.036167573 -0.014188178 -0.0032359276 0.02120334 0.03908914 -0.035827637 -0.026209831 -0.07991274 -0.0926936 -0.015959295 0.03506978 -0.027094513 0.007989098 0.051567387 -0.087335125 -0.07196641 -0.087989 0.018453868 -0.07700077 -0.037484262 -0.03807182 -0.05169127 0.036519606 -0.059037477 -0.039887734 0.004607527 0.005922771 -0.025339358 0.011332884 0.057527773 -0.1092765 -0.061362192 -0.056535073 -0.01838739 -0.02794302 0.016529642 -0.1178654 -0.09579007 0.008783192 -0.08420023 -0.026501302 -0.10363597 -0.068394 -0.05636438 0.0075465622 0.019955821 -0.10454397 -0.057568483 0.026068067 -0.0033445868 -0.042736974 -0.14096892 -0.022863567 -0.11654403 -0.15339436 -0.14726493 -0.08658279 -0.039204605 -0.08092763 -0.10763729 -0.020184763 -0.0980268 -0.09606152 0.023388237 -0.04829076 -0.100551136 -0.15802571 -0.12490234 -0.107521914 -0.06370079 -0.07620275 -0.043901347 -0.0066817394 -0.19147003 -0.04690188 -0.16416937 -0.14214234 -0.13946925 -0.14479397 -0.06901792 -0.072092295 -0.04128663 0.0012858617 -0.07041389 -0.027724199 -0.10287027 -0.08598959 -0.0028018793 -0.17725645 -0.077301905 -0.15135401 -0.14920138 -0.119692974 -0.07228585 -0.15076342 -0.012698443 -0.10681363 -0.14421897 -0.14240612 -0.19569813 -0.0072207926 -0.111847185 -0.05420799 -0.1116136 -0.14108193 -0.063643865 -0.08459357 -0.013386069 -0.064045236 -0.13340427 -0.062653095 -0.012833264 -0.12322727 0.008592598 -0.08146187 -0.09979975 -0.038267743 -0.07818999 0.0599991 -0.021949688
0.000882888 0.03728024 -0.007995752 0.039983697 0.027835738 0.088437505 0.06369824 0.10900569 0.11464441 0.1003619 0.15268707 0.16301686 0.2359707 0.21177837 0.22323808 0.30127504 0.29550532 0.28090617 0.31325817 0.28519866 0.2949332 0.19552457 0.23952535 0.19923747 0.15991153 0.19587338 0.120648086 0.16314876 0.10412116 0.115760155 0.056113724 0.042466003 0.10277124 0.05738259 -0.051093236 0.050622743 0.039296214 0.032037336 -0.005223182 -0.00048703782 -0.03161574 0.006782612 -0.007168407 -0.0016811591 0.029379295 -0.024292892 -0.048938856 -0.0009112457 -0.02451932 0.0062687667 0.047849704 -0.0152393775 0.020849632 -0.017891558 0.009543836 -0.013187576 -0.040914956 -0.05184377 -0.025316825 -0.003705853 -0.053449083 -0.033937354 -0.009083473 0.027840568 -0.056420837 0.045742396 -0.089809455 -0.01752962 0.029978376 -0.060531117 -0.048284248 0.0033870232 -0.06819191 -0.00012820718 -0.050043285 0.03459555 0.01668136 -0.005056034 0.007855842 0.035845198 0.034283906 -0.017019331 -0.03708933 0.031605415 0.00051762146 -0.025451157 -0.011565383 0.029347679 0.029356832 -0.03930997 0.05878585 0.047459435 0.021073716 0.038388234 0.048356052 0.099046424 0.014304332 0.016285826 0.02899259 0.047514647 -0.00053387746 0.064057 0.10061175 0.09104298 0.046683464 0.03858891 0.023977289 -0.017474478 0.03154002 0.006830698 0.09609126 0.050870623 0.04427676 0.044730447 0.07310893 0.06894134 0.04278953 0.036307566 0.03646331 0.03642419 0.07580386 0.08612293 0.069484636 -0.0023045684 0.044217966 -0.017574355 0.09721277 0.016319497 0.041590966 0.072272874 0.023227835 -0.004077794 0.03129526 0.03711498 0.02316051 0.016457208 0.07272737 0.03922477 0.044607274 0.03575727 -0.0346253 -0.036145817 0.041023523 -0.020205505 -0.014873837 -0.032162104 -0.014404276 -0.043566864 -0.102080256 -0.060389884 0.013917272 0.0061986214 -0.039823513 -0.0012932107 -0.120935775 -0.042971462 -0.093642816 0.029518459 -0.13102143 -0.040232897 -0.06701317 -0.077039264 -0.053422492 -0.027997244 -0.058403347 -0.09374517 -0.09760867 -0.09266854
0.09450085 0.022511523 0.16591333 0.09464012 0.14938147 0.022240072 0.05571192 0.06778858 0.04346295 0.029874073 -0.024135109 0.058839455 -0.023332328 0.0011303436 0.031401422 0.020953769 0.06901297 0.040695697 -0.005675061 0.08612391 0.034073852 0.11496555 0.06203947 0.12681852 -0.038878977 -0.046237726 -0.06741476 -0.14601785 -0.08323366 -0.030109093 -0.00030830756 0.03294154 0.027882118 -0.008218626 0.040310327 -0.016430685 -0.043444674 0.01965094 -0.08024558 -0.07190296 -0.07201452 -0.044691373 -0.09776257 -0.09458453 -0.085741006 -0.047859687 -0.09302129 -0.11021478 -0.08154977 -0.11972814 -0.11609003 -0.11886466 -0.113888994 -0.048381563 -0.048994303 -0.03272283 -0.10549534 -0.06065765 -0.11516409 -0.074343 -0.07000818 -0.0470705 -0.10063028 -0.06479663 -0.13730253 -0.12411381 -0.0734032 -0.11244884 -0.08771443 -0.08176144 -0.11001421 -0.10279832 -0.11382393 -0.07033485 -0.10635146 -0.11178968 -0.122521855 -0.08974343 -0.09179631 -0.09597493 -0.073284574 -0.12976506 -0.106365174 -0.10795581 -0.12564813 -0.10158983 -0.089075 -0.12386543 -0.08590705 -0.09246038 -0.113072634 -0.11183082 -0.12398631 -0.13163002 -0.13175458 -0.111596175 -0.15183519 -0.15798968 -0.15611094 -0.08461217 -0.13714516 -0.136965 -0.08923686 -0.058715407 -0.068807624 -0.09988223 -0.15306835 -0.12254763 -0.07930492 -0.051483657 -0.06344155 -0.0805364 -0.09968493 -0.0762406 -0.08974835 -0.11290558 -0.068399034 -0.11719992 -0.049943764 -0.114985764 -0.091264606 -0.10396254 -0.14254017 -0.092750646 -0.13488878 -0.13187328 -0.16994527 -0.12125834 -0.18380903 -0.12975857 -0.1674377 -0.15651608 -0.10720124 -0.062152255 -0.11807509 -0.16814369 -0.112527624 -0.09850042 -0.10749212 -0.081213 -0.071997665 -0.09239532 -0.06925289 -0.1179339 -0.07101138 -0.11283364 0.0052903187 -0.08037247 -0.10435652 -0.102538094 -0.056721605 -0.047704086 0.00033919702 -0.020801805 -0.027378356 -0.04926883 -0.01420856 0.039247394 -0.012529239 0.02519439 0.03429079 0.009548869 0.047104828 0.09345584 0.077357665 0.073196866 0.1118774 0.04492721
0.08015461 0.11864049 0.055213567 0.04091557 0.031858213 0.09743309 0.04709159 -0.026822655 -0.011143128 0.04693592 0.049530264 0.0016670267 0.06579212 0.07727789 0.07108336 0.041812036 0.06466793 0.030232135 0.038459927 0.09710344 -0.0029729444 -0.0019696339 -0.00129721 -0.101311296 0.0077631455 0.012324139 -0.029959904 0.026240801 0.004170233 0.015892847 -0.013360449 -0.016113479 -0.059583224 0.035889123 -0.08617997 -0.036206882 -0.057883844 -0.023203567 -0.021095403 0.06271742 -0.026316522 0.0022474006 -0.019562682 -0.0086080115 -0.028803693 -0.0600627 -0.040180765 -0.036976803 -0.0070525673 -0.0021121467 0.0067421095 -0.10055257 0.0048737708 -0.07632669 -0.02520381 -0.053056397 -0.07061842 -0.17387745 -0.07204342 -0.10231601 -0.09069014 -0.15833107 -0.10614302 -0.035616107 -0.0110180285 -0.0018048153 -0.08318594 0.013865999 0.019285591 0.026793873 -0.041592702 -0.012851135 0.011304185 -0.04646915 0.0012806732 -0.046796475 -0.07443715 -0.07433991 -0.018161975 -0.014493357 -0.044746634 -0.063377306 -0.1384726 -0.09687141 -0.0438883 -0.033209596 -0.094117485 -0.12331495 -0.16011591 -0.0717103 -0.03089291 -0.04211563 -0.12520276 -0.15172882 -0.039708428 -0.0084312055 -0.015705846 -0.056368344 -0.054264378 -0.043539073 -0.035518035 -0.046585802 -0.04753315 -0.16698296 -0.079537354 -0.17218989 -0.033525 -0.028695354 -0.10925159 -0.1612922 -0.1339926 -0.14439268 -0.14642547 6.8937086e-05 -0.17632209 -0.0806191 -0.1348076 -0.08766116 -0.097949386 -0.040259916 -0.100496136 -0.1405763 -0.120225996 -0.123617366 -0.046421085 -0.097576104 -0.06377539 -0.05572016 -0.078970045 -0.1044966 -0.055837348 -0.13491601 -0.155551 -0.08576207 -0.14261444 -0.13210534 -0.049020298 -0.08614021 -0.07042619 -0.055974726 -0.09242945 -0.08297165 -0.054073885 -0.049949262 0.009910449 -0.088082135 -5.9115027e-06 -0.066939816 0.015724374 0.011324561 -0.042332176 0.08166434 0.05632668 0.081601545 0.060173225 0.059188213 -0.012092358 -0.031037001 -0.02216888 0.043422244 -0.028431883 -0.05991477 0.024258617 0.06990138 -0.024052287 -0.04098314 -0.035850383 0.058262106
0.111891605 0.15218803 0.18707311 0.20522489 0.18877672 0.17142479 0.13835128 0.24080016 0.17766938 0.15914154 0.15249304 0.16798475 0.112671286 0.10394845 0.077902146 0.12633179 0.11238068 0.1039439 0.11601104 0.11856312 0.09441412 0.07106669 0.0726144 0.07435882 -0.02658106 0.060311016 -0.014450133 -0.006987464 0.023227917 -0.0128834145 0.013284035 -0.049222566 -0.011229768 -0.0032174322 0.045303527 -0.04527934 0.04357158 0.0504624 -0.03575869 -0.047240473 -0.012732264 -0.07707389 -0.049365472 -0.04920448 -0.12350488 -0.02450818 -0.047004998 -0.08367515 -0.07281789 -0.06501322 -0.13335796 -0.04836125 -0.10275731 -0.05866359 -0.08160189 -0.10344004 -0.061915882 -0.030305834 -0.07217792 -0.026328497 -0.05895692 -0.060576588 -0.080795154 -0.023125134 -0.10229446 -0.048095256 -0.03920726 -0.10464335 -0.1327041 -0.11265966 -0.12922777 -0.088756956 -0.123559706 -0.06907886 -0.07485483 -0.112875484 -0.053620204 -0.06319466 -0.10403635 -0.109515436 -0.08467766 -0.13399613 -0.025214171 -0.08394784 -0.16190872 -0.08108027 -0.09276573 -0.055593584 -0.023149857 -0.06691888 -0.06947277 -0.06282565 -0.029868677 -0.08827157 -0.10584949 -0.14834839 -0.10060668 -0.094139464 -0.11214106 -0.08740421 -0.11754903 -0.04106624 -0.09372951 -0.067612566 -0.056629907 -0.10082535 -0.113567576 -0.10537575 -0.028343298 0.026987009 -0.020841664 -0.059748087 -0.07571718 -0.085927896 -0.08128301 -0.01642463 0.01039774 -0.047340374 -0.07530706 0.010335838 0.04164906 -0.01074499 -0.06097576 -0.060482662 -0.09775996 -0.05290296 -0.059701625 -0.05934123 -0.018070873 0.023698023 0.019898927 -0.04917007 0.021331254 0.029007204 -0.031040316 0.034674507 -0.04470718 -0.02405413 0.028425485 -0.04397078 0.06611622 0.019528776 0.0078831585 -0.0038332618 -0.04377634 -0.007872467 -0.032349948 0.016626766 -0.04726216 0.01833184 -0.002654307 -0.09151133 -0.13219747 -0.0710887 -0.08008191 -0.08075996 -0.05530171 -0.10310994 -0.09587381 -0.11602965 -0.13733006 -0.10874054 -0.13186654 -0.11071704 -0.15138243 -0.1583693 -0.21441019 -0.2486534
