0.07728463 0.05148378 -0.11278918 0.08610686 0.12219123 -0.30145988 0.077809304 0.04825468 0.05968295 -0.049861543 -0.072955705 -0.029982386 -0.106665894 -0.108794495 0.008379 -0.12704715 -0.088301316 0.14846316 -0.1250799 -0.08889961 0.07038028 0.119377114 -0.081347756 -0.01760474 -0.07330293 0.020664515 -0.03565673 0.13448684 0.031097645 0.007485816 0.038648427 0.07878213 -0.02197391 0.07525297 0.12083819 -0.040174764 -0.06038077 -0.015749378 -0.11117275 0.04563921 0.049170367 0.06459832 -0.049291853 -0.100558974 -0.13707839 -0.031149838 -0.07289705 -0.10962849 0.02520608 0.010650105 0.1218925 0.056367036 0.059818093 -0.008299616 -0.15608156 -0.086743094 -0.06487444 0.01711615 0.09035773 0.10816496 0.06277169 0.12976098 -0.068603374 0.1108478 -0.10720967 0.057072617 0.085087426 -0.0055332226 -0.034819644 0.105579965 -0.011233127 -0.068462834 0.089536525 -0.032232314 0.007231781 0.096431024 0.13064729 -0.1006802 -0.027527384 -0.10609673 0.103515744 0.10434917 -0.0701048 -0.15746318 -0.017160896 -0.026986195 -0.07926126 0.046984114 0.075858384 -0.09533925 -0.10044859 0.0969328 -0.027560255 0.10675884 0.16127001 -0.03724139 0.010709933 0.09602535 -0.08049529 0.11682667 -0.102871284 -0.111134954 -0.02935633 0.023768023 0.018752046 0.093510255 0.049251843 0.07103535 0.09566083 -0.03262805 -0.020158755 -0.016805999 0.040408015 0.1107184 -0.10743297 -0.021999747 -0.0817369 -0.089186706 -0.20337778 0.02973199 -0.10628559 -0.025842555 0.096848786 0.09514357 -0.102819175 -0.12608959 0.13632542 0.15133029 0.0027237975 0.15015917 0.054139767 -0.052713294 -0.099966824 -0.29724973 0.08248864 -0.01658709 -0.07244444 0.05210016 0.07342459 -0.1264918 0.01839456 0.09632116 0.07476104 0.04590529 0.09713716 -0.07229078 0.0020803278 -0.063620254 -0.05093283 0.072634906 -0.09398298 -0.030641485 0.019482503 0.09789087 -0.10036068 0.20638895 0.03245462 -0.0014188122 -0.014861457 -0.113616854 0.0030978385 -0.0024566783 -0.13521732 0.16193727 -0.09152315 -0.03799007 -0.09079273 0.08787717
0.029822122 0.081849985 -0.062664166 0.03729309 0.11409916 0.0630401 0.081597835 -0.044473015 0.054814063 0.057780277 -0.0675827 0.05963038 -0.06176041 -0.054420292 0.112354316 -0.1056353 0.046364248 -0.05207961 -0.054616187 0.009655465 -0.12730311 -0.014345983 -0.008184319 0.055907242 0.0037132667 0.013076656 -0.08610881 -0.09259422 0.0062562916 -0.05994349 0.09102051 0.04358572 0.0410576 -0.14927623 0.009637255 -0.10375647 0.016367717 0.09771465 -0.07598566 -0.10219012 -0.059685517 -0.0843076 0.04743557 -0.030519662 0.11230578 0.043487407 0.009461265 -0.089562714 0.07555698 -0.05099019 0.010329318 -0.12859453 -0.0819777 0.0051366 -0.0747834 0.079737045 -0.10801909 0.043363307 0.09982175 0.030764487 -0.066917874 -0.02570792 0.076388486 -0.06671546 0.10960084 -0.1105791 0.11224381 0.0029885299 -0.021057721 -0.027244303 0.020150784 -0.03133959 -0.04786461 -0.06437498 -0.057141528 -0.010633975 -0.014062295 0.09648038 0.113893956 0.06586936 -0.10218421 0.10497126 0.104214914 -0.124164596 0.069668174 -0.03109205 -0.06323785 0.08002525 0.051188145 0.012590665 -0.058439292 0.06397479 0.087788075 -0.0031104842 -0.06799028 -0.031065987 0.11612323 0.040129747 -0.055503488 -0.07648647 0.12123208 -0.057931576 0.044842735 0.10644964 0.01031749 -0.0020230056 0.020480612 -0.10501558 0.022918079 0.034788486 -0.012789298 -0.1256641 0.030862642 0.08270804 -0.11740035 0.062560186 0.027281221 -0.10304535 0.007828303 -0.14643532 0.08498077 0.015462424 -0.097689755 -0.09553653 0.11066755 0.12039919 -0.12759404 -0.003211734 -0.11095402 -0.05774679 -0.11052346 -0.0042211 0.08398929 0.11913148 0.0010004352 0.072094865 -0.20441298 0.063112654 -0.069100186 -0.06022745 -0.012232479 0.035023324 -0.007057299 0.010597504 0.07746957 0.07201242 0.0511985 -0.0678428 0.063814685 0.0022860572 -0.12512708 -0.120974995 -0.07098552 0.032778997 -0.024639957 -0.06375747 0.12980828 0.021346504 -0.022661462 0.11638206 0.0166405 0.10330169 0.026763638 -0.0761098 0.11257904 -0.01910086 0.031989537 0.02313416
-0.08109213 0.07291451 0.052726284 -0.03759026 0.124591194 0.13258314 -0.025742302 0.04526886 -0.093369186 0.15782766 0.11045867 -0.029746775 0.09337526 -0.0221821 0.06293351 0.12940653 -0.020556882 0.017224696 -0.012098229 -0.11300905 0.07406089 -0.0068166447 0.0704841 0.026118679 -0.034058206 0.058913726 -0.1050773 -0.07389496 -0.112437144 -0.08835809 0.08827553 0.106639646 -0.06255358 -0.1351056 0.12653898 0.14015245 0.026760418 0.06594112 0.09105656 -0.060446773 0.18967722 0.11119419 -0.0076501803 0.10634537 -0.20079425 0.013070191 -0.037929192 0.037154246 -0.07774447 -0.036684286 -0.07812679 0.036517363 -0.0035539488 -0.046475794 -0.10931642 0.068430424 0.07836648 -0.029312126 -0.108117364 -0.12663879 -0.0011375757 -0.09249532 0.023478517 -0.18859887 -0.029753214 -0.12835947 -0.10428292 -0.026391085 -0.11101108 -0.123371065 0.12171076 -0.0031340318 -0.0028820413 -0.066821754 0.010184634 -0.010137906 0.03801615 -0.019997628 -0.03565178 -0.072673604 0.109314695 0.08897374 -0.051874634 -0.06450167 -0.0063486146 0.081505425 0.10355629 -0.04100679 -0.018008145 0.12076271 -0.087954305 -0.05999094 0.02765052 0.010484313 -0.03137552 0.08179887 -0.068540975 0.017188955 -0.069465585 0.22874661 -0.039600294 -0.08634653 0.04312072 -0.018925536 -0.07081867 0.056651823 0.06670805 0.0037293073 0.022769267 -0.066726446 -0.076704 0.050736543 -0.056895874 -0.026820995 0.16132803 -0.008294945 -0.0033073272 -0.035110317 0.0535135 0.03335833 -0.023496477 -0.04406034 0.092680454 0.020117348 0.12481543 0.0015264257 0.07969848 -0.1398023 -0.07926666 0.12247153 -0.08315757 -0.11496599 0.14045286 0.021318126 -0.10209543 -0.058744144 0.10084012 -0.12826635 0.0022580011 0.042987715 0.061593384 -0.13937747 0.04363883 -0.0076403203 -0.040354643 0.10838158 -0.19169204 0.046813335 -0.034810573 0.19618705 0.06719802 -0.045955367 0.04194655 0.15190308 0.0128303915 -0.07290212 0.037638787 -0.028018763 0.012809498 -0.12902617 -0.0724511 -0.16141021 0.029586079 -0.011019059 0.08519313 0.050006505 0.01860192 -0.127522
-0.073942125 0.08381116 0.023752477 0.1163106 -0.056339465 -0.0025747158 -0.1538083 0.05950949 0.070364736 0.051972073 -0.10039803 0.096468315 -0.068961225 -0.12149059 -0.06630169 -0.010040417 0.090590745 0.10363281 -0.0007314812 0.04390669 -0.056084678 -0.081534274 -0.120596215 -0.06253461 -0.009785919 0.07343441 -0.033488207 0.17649114 0.017284274 0.09962924 0.019845886 -0.023274591 0.06440886 0.11684044 -0.11412755 -0.11916828 -0.12901595 0.093785994 0.12896033 -0.021430206 0.0035133967 0.14356224 0.08191977 -0.09180946 0.037187174 -0.06676585 0.032983363 0.120014444 -0.025052039 0.06924831 0.14574596 -0.09192102 -0.048204046 0.051179484 -0.07883841 0.07676656 -0.039336763 0.11751056 -0.043708764 -0.07087282 0.070277214 0.13178577 -0.11249275 0.06427609 -0.09182721 -0.16292104 -0.14050809 0.091513984 0.057130873 0.053185735 0.032839805 0.0855417 0.17710821 0.026234908 -0.10724518 0.07124987 0.0004893997 -0.14454564 0.122817695 0.0990012 0.15770121 0.048501898 -0.009063312 0.10979816 0.06822431 0.1346206 0.12590376 -0.10544232 0.09765609 -0.080534704 -0.1136568 -0.039372824 0.07726838 -0.038753834 0.052345477 -0.09892753 -0.06969474 -0.035907537 -0.10863488 0.11516929 -0.118465774 0.022833278 0.023674883 0.11706931 -0.17313567 0.18840684 0.14928569 -0.0058174473 0.081235446 -0.10858873 -0.09428189 0.037743434 -0.12691419 -0.0902385 0.10129844 -0.045426007 0.12785952 -0.1285133 0.012898719 -0.011020816 0.012821683 0.07734444 -0.03929352 -0.09797928 -0.05635659 0.0798248 -0.11626581 -0.045545537 0.0678563 -0.0029410748 0.086768135 -0.087893836 -0.075917915 0.055466272 0.037091743 0.018985609 0.14369811 -0.14149335 0.04007412 -0.10485691 0.09718752 -0.14824152 -0.037777558 0.009934018 0.05360646 -0.08537784 -0.030995892 -0.07293229 0.073969655 -0.109448716 0.052260436 0.087401316 0.056271907 -0.13185494 -0.021258749 0.05005748 0.02075455 0.013594232 -0.114179246 -0.12953928 -0.14610636 0.112379774 0.09244022 0.05899032 0.06719726 -0.093186595 -0.09519286 -0.06723354
0.043717425 0.027481856 0.04940367 0.052740265 0.018262696 -0.16825862 -0.038393263 0.07362316 0.079968624 0.04050745 0.022497851 -0.0153523395 0.003105377 4.0217532e-05 0.0040582367 0.026798448 -0.048136666 -0.12986985 0.014511458 -0.071395494 -0.09246074 0.050776787 0.005416547 -0.059019398 0.013286454 0.08871009 0.04590628 0.087030694 0.03718925 0.117454596 0.00800809 -0.06262765 0.08214537 0.047772076 -0.019422732 -0.07542401 0.029573606 -0.019884748 0.019689495 -0.11667513 0.034077227 0.06979005 0.13759637 -0.10402306 0.12874922 -0.09385604 0.095335044 -0.00077215215 -0.0030052625 0.027484972 -0.0053963666 0.025900787 0.008347664 -0.056788377 -0.0073766788 0.09288377 0.0068148207 0.13835703 0.002665639 0.11430411 -0.08416076 0.011669133 0.018808236 0.10097304 -0.001984113 0.014013178 0.030829782 -0.01957859 -0.12238468 -0.10683652 -0.04506247 -0.03738452 0.009261794 -0.03191291 0.083162144 -0.088013686 -0.022653677 -0.0104565015 0.093549185 0.06100708 0.015819397 -0.009770505 -0.14636827 -0.10564616 0.16594538 0.099823505 0.023451436 -0.09418233 0.08659977 -0.060267612 -0.024106296 -0.10040238 -0.06697561 0.04112692 0.005526295 -0.039425824 0.06536252 0.07683134 -0.01534508 -0.08074946 0.12055679 0.040738292 -0.012836333 -0.07013252 0.053850573 -0.05391475 -0.116464116 0.026566332 0.043166798 0.08773124 0.025400164 0.097835094 -0.039074987 -0.072428204 0.044876177 -0.039498992 0.035078984 0.008545107 -0.029691368 0.062345136 0.07763381 0.11078486 -0.030789562 0.095566936 -0.05341798 -0.07162529 9.353164e-05 0.096559554 -0.014603159 0.12153331 0.04591976 0.05229611 0.06522082 0.005075145 0.12850772 0.117375605 0.019035203 0.058297347 0.055966828 0.09871865 0.10054708 -0.0997672 -0.060916003 -0.069985144 -0.13054077 -0.09148947 0.0799996 0.056393668 0.080081105 -0.08332442 0.016163604 0.07383043 -0.036611564 -0.11435008 0.14009759 0.05805267 0.06295419 -0.055363063 -0.06597419 0.14467882 -0.015182483 0.026248107 -0.0010191432 0.0061863335 0.11115278 -0.010099199 0.027597694 0.0061157215
0.00445218 0.10763306 -0.10397117 0.06561475 0.05453992 0.032732453 0.09532301 -0.107452124 0.044176012 -0.15910055 0.003994377 -0.00071071734 0.07824368 -0.12543957 0.15040095 -0.019356035 -0.09908728 -0.12263987 -0.0053544096 0.0029087143 -0.043743078 -0.08126013 0.09955144 0.035492167 0.15646487 -0.13055928 0.06914682 0.09445748 -0.120095834 -0.04981311 0.0633789 -0.11733256 -0.018567596 -0.081891984 -0.083618455 0.11403043 0.07777279 -0.13551351 -0.12588784 -0.15950449 -0.022459349 0.15102045 -0.011277979 -0.07183721 0.0037319765 -0.11893032 -0.065760076 0.0054314774 -0.007275957 -0.108439736 -0.04045604 -0.00026917574 -0.103949286 0.009717144 0.012616062 -0.0606352 -0.043187935 -0.09469487 -0.108941816 0.059628326 0.0007177438 -0.042568415 0.022705624 0.0009912581 -0.023062894 0.06446595 -0.013010105 -0.114495836 0.24478188 0.018132888 0.097848505 0.044533204 -0.011579901 -0.09135761 -0.09359672 -0.082201265 0.093676366 -0.0742478 0.11570005 0.064587176 0.06759733 0.058895666 0.05852005 -0.042027574 -0.03787922 -0.022037135 0.109648414 -0.124723695 -0.0880758 -0.03671166 0.03672558 -0.09406989 -0.061096795 -0.12472797 0.017831948 0.107835166 -0.14753896 0.09573392 0.087500185 -0.03491727 0.045215078 -0.09759265 0.13359022 -0.07026234 0.056848876 -0.026822736 0.040390857 0.14128402 0.092254676 0.11169918 0.019835506 0.1311368 0.09907036 0.0014272332 0.02819912 0.08597222 -0.12026531 -0.13123287 0.069721155 0.1055593 0.111463964 0.1013319 -0.103140175 0.09530517 0.11984487 -0.17851028 -0.048266098 -0.32554364 -0.004527151 -0.21587703 -0.059770487 -0.13692039 -0.041445747 -0.31349367 -0.04793936 0.14538826 0.08328172 0.050140526 0.009002118 0.032155853 0.0036786245 -0.1053674 -0.008599025 -0.012607534 0.0372398 0.05112988 0.013843259 -0.108351134 -0.012589301 0.09066039 0.13321768 0.13489093 -0.05010621 -0.06519307 0.012922886 0.02263455 -0.05426716 -0.072609015 -0.117125124 0.045925524 -0.07642715 -0.07489565 0.10381746 0.12552762 0.11183444 -0.0056839255 -0.004043556 -0.09579067
-0.12903395 0.025417237 0.07786896 -0.08120079 0.037114337 -0.03102042 -0.00095648156 -0.09148361 0.07630909 0.017538263 0.006752662 0.024857651 -0.028835572 -0.10300244 -0.12132534 0.058970757 -0.08881201 0.019970397 -0.020312684 -0.13676602 0.0047936244 0.12045496 0.028989727 0.058510087 -0.07394551 -0.059254505 0.096507594 -0.13844143 0.027616959 0.115877114 0.06919274 0.00023260787 -0.15346725 -0.04759259 -0.007764018 0.04381252 0.12913975 0.0062831263 -0.13561045 -0.09830287 -0.05236263 -0.12028586 -0.040770814 -0.009015049 -0.043090068 0.046184666 0.08670671 0.12677982 -0.0043389793 0.00094729435 0.0010700084 -0.005983081 -0.13034755 0.1240298 0.12844488 0.07809191 -0.0013650245 0.03955329 0.113198176 -0.0041149613 -0.12979259 -0.08243351 0.010522845 -0.10024213 0.014617067 0.096693695 0.11864279 -0.0069955597 0.022274386 0.0275405 -0.0069559617 -0.13556322 0.017297447 -0.12501165 0.049728554 -0.026738854 0.046782445 -0.0036001797 -0.004521374 0.07317773 0.0032319913 -0.11960334 0.07143844 0.018446147 0.041117597 0.09003245 -0.07759881 0.026776293 0.05227668 0.08354719 0.11987156 -0.07314837 0.02078659 0.021807322 -0.06268042 0.07664976 0.06275847 0.0024352728 0.0062365965 0.14683694 -0.0006465382 -0.10421927 0.011571816 0.117337115 0.030651413 -0.004987642 -0.1077142 0.08929325 -0.059136227 -0.10115624 0.11742196 0.025829228 0.09480487 0.011089615 0.121434316 -0.10474188 -0.09136749 0.0689084 -0.14159445 -0.04529611 -0.08183429 0.038279247 -0.06505976 -0.08191577 -0.0848562 -0.11586216 0.09563963 0.14236403 -0.05330976 0.031442683 0.110945985 -0.084542565 -0.04424798 -0.0495509 -0.108976044 0.09638343 0.10226686 0.061314214 0.08958524 -0.07213973 0.0015202424 -0.11061267 -0.028443353 0.06992901 0.09060474 -0.008032798 -0.029192947 0.112210505 0.12845871 -0.011002703 -0.020072572 0.035651807 0.0726015 -0.014749402 0.112494074 -0.017641598 -0.10224548 0.12102132 0.10030449 0.025811477 -0.053412355 0.0046362174 0.10016211 -0.055030055 -0.02261884 -0.040641017 0.01658958 -0.000670108
0.026888466 -0.049563058 -0.11348981 0.03104093 -0.037742153 0.03108366 -0.07571558 -0.06763313 -0.047069803 0.0041034236 0.098793596 0.25765374 -0.06479219 -0.01565206 -0.02012922 -0.011252896 0.07221686 -0.08777552 -0.07060118 -0.021789962 -0.15612544 0.052201655 -0.027976377 0.08550097 -0.10030586 0.06844479 -0.11789572 -0.08755677 0.058772378 0.04621448 -0.0253166 -0.012190062 0.081295215 0.1328266 -0.027069133 0.032955058 -0.041295186 -0.1148774 0.094243705 0.025774712 0.10485123 0.077017695 0.13728869 -0.017465713 0.046305694 -0.022124922 0.13178 0.080962844 0.07577682 -0.009872187 -0.0100003425 0.07667468 -0.120013654 0.13051215 -0.09484371 0.10447364 -0.071258344 -0.06447265 0.16185573 0.031651177 -0.06273655 0.06210297 -0.03842797 -0.036376756 0.022443058 -0.08760501 0.11487759 -0.0053115673 -0.0062541356 0.051390734 -0.08277515 0.0577013 0.06328427 -0.05255522 -0.073268265 -0.020372126 -0.037061475 0.061256316 -0.13424027 0.098165095 -0.019764056 -0.054164257 0.096266866 0.03950007 0.036291566 -0.02514163 -0.056254037 -0.013336175 -0.03441467 -0.053051967 0.118981 -0.02661846 0.06699952 0.005585328 -0.08992473 0.06397947 -0.009416 0.07022493 0.0658707 0.06170881 0.041096896 0.15356904 0.003511085 -0.12275728 0.030786872 0.053733148 -0.021283034 0.07373876 0.052239597 0.05669699 -0.039909415 -0.008770626 -0.12614135 0.09949086 -0.005629637 -0.07358631 0.12226847 0.06743237 0.13312061 0.14262979 -0.09730597 -0.055215687 0.11399969 0.062149957 0.046332255 0.085899994 -0.08083021 0.20493996 0.015416802 0.09712812 0.03998532 -0.03327549 -0.08189401 0.11737129 0.13480598 -0.11080296 -0.12831815 -0.11906623 -0.08422496 -0.033750948 -0.04107349 0.09433514 0.11732733 -0.1614825 -0.03240758 0.04686563 -0.08142212 0.025874209 0.036332402 -2.907693e-05 0.10380719 0.08199501 0.04873088 0.031174058 -0.087357625 0.07713084 0.053582333 -0.12915176 -0.04091193 -0.041464627 -0.13587843 -0.011057884 -0.13944063 0.021504657 0.06974633 -0.049502913 -0.050686862 0.015897011
-0.0053494773 -0.006888269 -0.035748053 -0.085102804 -0.037749946 -0.062245704 -0.01828229 0.03765952 -0.025166124 -0.018117113 0.10529349 -0.077463076 -0.066354096 0.0070872405 -0.015616602 0.122412905 0.07353474 -0.032449726 -0.104349665 -0.0816296 0.13989134 0.07202711 0.010397883 -0.006817315 -0.008610441 0.057841968 0.17474826 -0.086885355 0.015381283 0.12071815 -0.007946971 -0.0022029441 -0.14385845 0.053378113 -0.014801006 -0.012322148 0.06694828 0.00787561 0.09898811 0.042775877 -0.05083337 0.014349663 0.008683061 0.08096099 0.009421667 -0.067847446 -0.074219055 -0.0823071 -0.03277083 0.038033187 -0.007511167 -0.09627789 -0.11341035 -0.09867036 0.06593787 -0.048406415 -0.14538486 -0.1345251 0.019818585 0.12148839 0.049451265 0.046207346 -0.26629508 0.047337428 0.060868572 -0.068039134 0.05062118 -0.10822345 -0.04517095 0.067611925 0.020867974 0.06318889 0.047024075 0.029856946 0.09568674 0.06068616 -0.04557881 0.03222666 0.082177706 -0.033749815 0.041471638 -0.05383288 -0.098507725 -0.10498987 -0.014504297 -0.08401147 0.12193735 -0.06060984 -0.084070824 -0.08392507 0.14330706 -0.085859925 -0.13041015 0.031708777 -0.08964403 0.10784314 0.007097453 0.13615055 0.018860703 -0.3286097 0.02578069 0.045396872 -0.12504579 0.072252706 -0.043239214 -0.07981934 0.08274328 -0.12558925 0.020711577 0.14905883 0.025956675 -0.050031677 0.019071044 -0.093230754 0.1849018 0.10327211 0.055147063 -0.012967469 -0.10528193 -0.11926043 -0.07348235 -0.13108729 0.03992925 -0.11097014 0.005357232 0.077733494 0.100851 0.059810285 0.004471577 0.07157222 0.014126268 0.123079926 0.012617391 0.20142972 0.052349504 -0.06350291 -0.04530927 -0.09864017 -0.2445656 -0.0908017 -0.057397842 0.11944272 0.050714396 -0.008179733 0.15862538 0.061877504 0.10147739 0.056522008 0.092577755 0.03657419 -0.012114012 -0.019601706 -4.8530273e-05 0.06718213 -0.0400125 0.1324839 0.13121212 -0.012872461 -0.017434455 0.036509734 -0.18597253 0.0017486324 -0.0507287 0.09898683 -0.0029368137 -0.060795493 -0.048901666 0.028763162
0.08179869 -0.17989998 -0.09697019 0.028916618 0.122545056 0.007301487 0.21955492 0.07143672 0.08224873 -0.15602078 -0.07941586 -0.009011725 0.2088503 0.11709375 0.16716625 -0.17332914 0.01965761 -0.054552395 0.16953644 0.15065616 -0.09735049 0.15931486 0.10486025 -0.06353611 0.18093032 0.012761998 0.13575117 0.15512213 0.17064992 0.078399025 -0.0070675258 0.026583524 0.10786495 0.009636611 0.030777266 0.058615968 -0.1879293 -0.13620971 -0.08850709 0.020030113 0.12081136 0.10057308 0.0071104835 0.09775396 0.12561359 -0.053293545 0.011573257 -0.026515806 0.060228743 0.12597096 0.098633505 -0.0190882 0.20419517 0.1715937 0.04427871 -0.12430418 0.11951651 -0.18190782 -0.10206351 -0.015035868 0.007013034 0.15821391 0.24710514 0.029227972 0.04533245 -0.13942829 0.04964339 0.028019972 -0.018125903 0.08784424 0.07133704 0.105553634 -0.00971467 0.014049509 -0.035287987 0.101996094 -0.06807527 -0.02092137 0.11453926 0.048506387 0.011578673 0.042348992 0.105922736 0.13122055 0.21861297 -0.08671923 0.19246665 0.038050056 -0.05847109 0.00831961 -0.039114974 0.09102351 0.085752554 0.0031451168 0.35439456 0.102550626 -0.04986124 0.07649217 0.059842274 0.033512663 -0.0478816 -0.07930879 0.033359632 0.008403465 -0.09061434 0.13216268 -0.06151537 0.01862453 -0.08093199 -0.038081884 0.13132536 -0.14807315 0.045419183 -0.0618388 -0.18270148 -0.31695533 0.0058078947 0.058882922 -0.09230991 0.15420489 -0.045063406 0.038904298 0.007263688 0.11341634 -0.14313947 -0.023341846 0.1662708 -0.2224051 0.080088794 0.07912971 0.09498348 0.0108151855 0.050241683 -0.3766347 -0.36624715 0.1251356 0.09660423 0.07626009 0.25460252 -0.015233982 -0.020426093 0.10011931 0.004769232 0.176962 0.07112735 0.09611544 -0.04347819 -0.12107457 0.043796618 0.09984876 -0.17411937 0.095555 0.042448718 -0.30747977 0.11853343 -0.090911075 -0.1459091 0.018213421 -0.08742445 -0.13551365 0.13579947 0.05040487 0.038571615 0.052007183 -0.080151945 0.15660407 0.108401224 0.06820221
0.0019227997 0.0038910885 0.11448368 0.036067333 -0.10533408 -0.032416806 0.074811205 -0.11412374 -0.13060097 -0.01945439 0.12833986 -0.06287128 -0.056722764 0.032595154 -0.09849013 -0.0753911 -0.17523779 -0.075410254 -0.041763805 -0.063424684 -0.06988051 0.0569748 -0.10829399 0.022989264 0.04772669 -0.09599161 0.25772208 -0.029323628 -0.017710084 0.10234121 0.058532994 -0.12501793 0.13906662 -0.0956265 0.085665934 0.041961268 -0.22241396 0.11498364 -0.05079776 0.05171895 0.046986144 0.13109267 0.04879156 0.007216873 0.16536033 -0.014844904 -0.019739412 -0.09317687 0.075129546 0.0522187 0.0014164358 -0.05582011 -0.0016101181 0.11811195 -0.05470697 0.08298302 -0.069010146 -0.015695525 0.10723806 -0.13037986 -0.013528316 0.09244455 -0.16675693 -0.10471042 0.063004814 -0.029839866 -0.07253382 0.08941597 -0.015983097 -0.034981836 -0.07033809 -0.03947093 0.0813284 -0.17394124 -0.035894588 -0.04016986 -0.04103084 -0.111383356 0.09896444 0.13928752 0.1419065 0.17535827 0.019850602 0.12345967 -0.014276292 0.06991544 0.12909365 0.21443993 0.024167208 -0.034954894 0.10138751 -0.13432753 0.100205645 -0.029351128 0.044787243 -0.010534649 -0.031140557 0.035598494 -0.12762652 0.12693977 0.047646936 -0.09509993 0.087762 0.0122274505 -0.15243176 0.070520714 0.09584036 -0.041441422 0.079890296 0.18444635 -0.15383604 -0.025211299 0.06169739 0.12237337 -0.12824629 0.06938972 0.04223656 0.009047905 0.16041256 -0.14442143 0.09999307 -3.402175e-06 0.015501284 0.034929425 -0.13693641 -0.14283684 -0.015631314 0.12738289 -0.115194015 0.042547386 0.030450236 0.062059723 -0.023347903 0.0447651 0.15199094 -0.030938871 -0.17037426 -0.078775264 -0.14019994 -0.08508091 0.007953949 -0.09580681 -0.06437312 -0.2796128 -0.085127085 0.10263623 0.25417915 0.11110329 -0.104919165 0.08519689 -0.09407235 0.020032253 -0.026800696 -0.0030301008 0.11951257 0.16251521 0.07592734 -0.15894647 -0.018530829 -0.08057669 -0.097710796 -0.14738303 -0.08463187 0.103027664 0.061891384 0.27197096 0.056430817 0.12083466
0.043459143 -0.053512607 -0.074938856 -0.08113827 -0.11153623 0.106175184 -0.06478605 -0.0042242864 -0.0051584262 0.03564646 -0.10649966 -0.008728224 -0.07447468 -0.10807276 0.03567325 -0.16361529 -0.08438792 0.088837355 0.118997164 -0.099587716 -0.073960915 0.045526143 -0.02907089 -0.091535084 0.007677175 -0.04200856 0.06780472 -0.05256749 -0.070473045 -0.104984775 -0.036704767 0.00951996 0.13448943 0.014742805 -0.013253442 0.010608462 -0.13294129 -0.09575821 0.07702814 0.035869986 0.16119657 0.009849545 0.027759504 0.06942106 -0.13308784 0.1119105 -0.029410373 -0.0132071 -0.005386144 0.14843257 0.023457706 0.05562495 0.020267162 0.015405646 0.06065419 -0.06451474 -0.14850171 -0.15126987 -0.08800313 -0.05966013 -0.027481925 0.041903745 0.073847815 0.037550073 0.07188059 -0.09503395 0.12696046 -0.073652215 0.08496217 -0.0031506794 0.023346066 0.04272513 0.091888316 0.10179416 0.029072197 -0.12706941 -0.001648009 -0.10808783 0.045592904 -0.009137281 0.059560698 0.054667424 0.045894414 0.07365247 0.04542625 -0.0042036017 0.086231 0.113845706 0.014188866 0.016932923 -0.044008918 0.082965665 -0.080980614 -0.086798556 -0.00466577 0.060838915 -0.039075222 0.12952614 0.03312179 -0.06302936 0.076211676 0.053693242 -0.02065833 0.0029704922 -0.072007574 0.03671498 -0.08596641 0.08959293 0.040316273 -0.00012741132 -0.057464376 -0.011777478 -0.017595397 -0.10974972 0.20491266 0.0065898485 -0.07662283 0.032112118 -0.058199216 0.012093387 0.071359 -0.039014485 -0.053965166 0.13208827 -0.04898033 0.02260214 0.025097467 0.006221189 -0.076649085 -0.023836367 0.054089185 -0.03973634 0.074227914 0.004436566 -0.0792265 0.06141198 0.023803115 0.046937004 0.1088727 0.06049638 -0.13476735 -0.12284454 0.09611212 -0.14489314 -0.024665408 0.048714206 0.010054165 -0.08472613 0.073134795 -0.02109184 -0.0060447687 -0.016751867 0.1423419 -0.100877374 -0.07281524 -0.06634211 0.06376352 -0.1011047 -0.05030599 -0.12121588 -0.05267661 0.055447962 -0.0058499277 0.006892138 0.019092187 -0.060429137 -0.043780863 -0.08375655
-0.009382154 -0.043399714 0.021456212 -0.062212437 0.008611479 0.0014242645 0.011383167 0.10291337 0.093761675 0.019555999 0.09044424 0.05332759 -0.07876316 -0.0075698667 -0.027628228 0.0244709 -0.051999964 0.08696698 0.062125757 -0.010795746 0.067157716 0.06897408 0.19126828 -0.06989374 0.07074402 -0.041407328 0.21413004 -0.0074623567 0.046808783 -0.079552405 0.033738814 -0.05258624 -0.09057392 0.07046887 0.15123497 -0.025689831 -0.12870666 -0.0051284963 -0.10607168 0.031367578 0.051900264 0.059682976 -0.10386713 -0.06969033 -0.0044733393 -0.11271759 0.060259286 -0.032649387 0.08759651 -0.057244346 0.031087128 -0.04028218 0.043315243 -0.14010376 -0.11409141 -0.06004226 0.13626845 0.17159599 -0.13910086 -0.05378958 -0.07542275 -0.16996232 -0.059536226 0.06443341 -0.007489099 0.024338996 0.0051364074 -0.03246649 0.047690045 0.07894147 0.041832034 0.10688412 0.043734446 -0.07740053 0.042695437 -0.076867715 -0.011952021 0.14909592 0.032503504 -0.17138088 0.031198144 -0.0468696 0.05434031 0.0129829915 0.18027379 0.16061051 0.044682562 -0.12984821 -0.10999841 0.017074656 -0.04106638 0.050329216 -0.06643307 0.12713079 -0.01723289 0.024872344 -0.031083766 0.028519621 -0.017719157 0.08848015 0.039830014 -0.0571526 0.1323037 0.021788329 0.0011892758 0.13082045 -0.09205431 -0.111735106 -0.110142015 0.070108786 0.10856708 0.0011232072 0.087685846 -0.0006044894 -0.01485457 -0.09729239 0.048660174 0.025172537 0.02513719 0.09082253 -0.06883536 0.035234656 0.086300105 0.12977165 -0.030856626 -0.11804805 0.12179032 -0.12474422 -0.073598154 -0.10732476 0.034723878 -0.11606349 0.021068051 -0.21114825 -0.058619946 0.07215254 0.04457224 -0.010746722 0.17330784 0.13376606 -0.04806392 -0.022913672 -0.09545229 0.13826448 0.08105165 -0.12194864 -0.02035042 -0.07596986 0.007739411 -0.005686572 0.043980543 0.13935037 -0.08179722 -0.094417274 -0.095664226 0.020270003 -0.074854374 0.12094295 0.0074976645 0.108041525 0.058104016 0.13347873 0.072847776 -0.066789016 0.079925746 -0.0841652 0.15876298 0.10784565
0.082870275 0.0502528 0.09655193 0.06285188 0.101332195 0.07424909 -0.0571478 0.074587464 -0.028638722 0.054032695 -0.01947034 0.13091181 0.15380518 0.046438817 -0.035986736 -0.09764586 -0.102333404 -0.12284543 0.14006446 -0.053339858 -0.0648635 -0.08313523 -0.115521125 -0.043504406 -0.0014485131 -0.01947298 0.14661008 0.06948421 0.08649754 -0.10291983 0.1471697 -0.13261002 -0.052191284 0.17706233 -0.17976108 -0.096821226 0.06190303 -0.001688252 0.005342461 -0.08946909 -0.0065064966 -0.023953686 0.041961614 0.03480875 0.16239138 0.11146251 -0.01698465 0.03888961 -0.14559099 0.13205403 -0.014237589 -0.06683992 -0.038150102 0.013946783 -0.027587624 0.032960318 -0.020544643 0.07326756 -0.05938831 0.061829515 0.09987587 0.22433363 0.035651974 0.006546218 -0.086068206 0.036697175 0.039341703 0.034399763 0.12473363 -0.08962692 -0.15052637 -0.07375735 0.077479005 0.004269172 -0.069040805 0.045729842 -0.13130729 -0.013653444 0.011139945 0.041340098 0.056657024 0.059117746 -0.039501965 0.08817871 0.13188468 0.08489173 0.17606378 -0.025512474 -0.019232776 -0.1319869 0.116441034 -0.042881265 0.17744863 0.093976535 0.19049987 0.10594449 -0.043534484 0.012553587 -0.024166865 0.07086917 0.0402807 -0.12679844 -0.0006747463 0.04296945 0.024812708 0.16270648 -0.10537199 -0.034746908 -0.0390907 -0.0010805413 -0.045922417 0.09228899 0.040540885 -0.12677886 0.08646798 -0.0010255371 0.1049537 0.014195738 -0.025372997 0.03951579 0.11003806 -0.027770637 -0.15553698 0.06304375 -0.22595614 -0.13931423 -0.06432379 0.11874715 0.08538189 -0.01211934 0.07917193 -0.032543488 0.015918102 -0.17137632 -0.15864503 -0.013682875 -0.03326849 -0.02829451 0.08404443 0.005046071 0.12122954 -0.0127793895 -0.10588761 0.068619326 0.12039699 -0.1035743 0.049548037 0.06383799 0.071613155 0.039612547 -0.059980005 0.013535165 0.13286194 -0.2166998 -0.0010523477 0.13925742 -0.07643991 -0.023462763 -0.15663275 0.110501826 0.07479203 0.01876881 -0.07544825 0.11099949 -0.018190432 0.00016547414 0.09242315 -0.11736795
-0.03427852 -0.10790519 -0.14688846 -0.08313882 -0.0499893 -0.12512738 0.03403305 0.020500066 0.01404383 0.053683378 0.07487066 0.0022868146 0.07658568 0.12254817 0.010972679 -0.030763673 -0.07316715 -0.07644612 -0.049928028 -0.074640766 -0.067236215 0.017553916 -0.14392132 0.054521915 -0.092044786 -0.0055970154 -0.14372042 -0.1502338 -0.112189785 -0.1021141 0.05175971 -0.1087803 -0.008117758 -0.10134141 -0.054178648 -0.0769979 -0.0033599816 0.029591748 0.09732552 0.049607083 0.023032932 0.023687385 0.080695815 -0.023680072 0.015471186 -0.06652023 -0.080053605 -0.0064462125 -0.0874735 -0.029561352 0.004480871 0.08997993 0.103194974 -0.104257986 -0.046415117 -0.034845382 0.013287965 0.085932925 0.025680186 0.03378392 0.006919864 -0.10231941 -0.06565322 -0.016521541 -0.10196143 0.061237194 0.039081294 0.10551781 0.044277295 -0.027198652 0.13061026 0.0942361 -0.10067043 -0.063451745 0.12616828 -0.05313299 -0.0075178007 0.086020805 -0.05836807 0.039299786 0.08506359 -0.09762059 0.06943583 0.02787972 0.04000631 -0.044182543 -0.15163733 0.10780204 -0.06302592 -0.073470116 -0.049160883 0.07881214 0.09568384 -0.089941055 -0.09439066 -0.031869616 0.10503992 -0.088231854 0.047870032 0.004435333 0.087068975 0.021684129 -0.013222657 -0.03618988 0.029019114 -0.072671644 -0.109993905 -0.062905654 -0.0105427895 0.07728827 0.06388817 -0.11357979 -0.032073736 0.1417594 0.090624675 0.019147404 -0.13460565 -0.023278479 -0.0103725735 0.11504067 -0.14131849 0.015254515 0.047526207 -0.009090666 -0.09115599 -0.12046245 -0.108949415 0.039186157 -0.013940577 0.12563646 0.078143366 -0.049571957 0.07943468 -0.00836354 0.064598836 0.021460688 -0.055823352 0.043888986 -0.030338617 0.10303983 -0.0314597 -0.10448602 0.054484963 -0.11896271 0.11668096 -0.0053113927 -0.16046356 -0.021199672 -0.091730155 -0.08907948 0.05012301 0.029433057 0.038732443 0.015551394 -0.09106368 -0.14564067 -0.009370134 -0.06048525 0.08116071 0.1129376 0.063738905 0.17364386 0.110081114 -0.117845 -0.08731335 -0.02369587 -0.08873901 -0.054372933
-0.061856914 -0.10004771 0.08884552 -0.09417483 0.09646558 0.032144953 0.09311301 0.116001144 -0.06826415 -0.049810916 0.034229867 0.03914682 -0.12643467 -0.13537824 -0.077408224 0.034013033 0.05925556 0.091593295 0.08959134 0.0017344566 0.019528111 0.08510236 0.05762503 -0.12812412 -0.003777768 -0.0062450706 0.07492074 0.014109974 0.07703586 -0.10988605 -0.02572683 -0.0060574515 0.08558419 -0.041222177 0.050528254 -0.0734002 0.025214767 -0.056974873 -0.12537336 -0.010455293 0.06516302 -0.080820784 -0.09662607 0.120081864 0.028350526 0.0669944 0.048840657 -0.12533346 0.09789456 -0.007551145 0.0001229118 -0.026097594 0.07289656 -0.0055746664 0.12595929 -0.09597608 0.014394326 0.11367813 0.014350719 -0.0755528 -0.09791941 -0.02011674 0.112638995 0.040483348 0.024574513 -0.07473082 0.039331913 -0.06810677 -0.09963165 0.095263235 0.025690114 0.013497206 0.13197778 0.016792212 -0.12308047 -0.012796089 0.05235177 -0.010189212 0.079063 -0.062715165 0.11256137 -0.109327205 -0.042115614 -0.051501367 -0.04729504 0.06349112 0.08846302 -0.102723144 -0.08324023 0.13264394 0.024378829 -0.020539256 0.12199868 -0.10938502 -0.08537493 -0.075324185 -0.04988448 -0.019992588 -0.12621644 -0.043130573 -0.0048661632 0.09746236 0.06511764 0.057654575 -0.03927726 0.020261103 0.017183488 -0.06717714 0.047740176 0.1301558 -0.10942324 -0.12998287 0.09510079 -0.031274483 -0.012424831 -0.080680266 -0.05483714 0.008540106 0.04194307 -0.045058686 0.08324831 -0.119942345 -0.022606345 -0.042849496 0.016839013 -0.06220166 -0.13467129 0.040342648 -0.11003691 -0.08009836 -0.12868594 -0.03606716 -0.08708879 0.051020395 -0.12212977 -0.12384188 -0.09254213 -0.13305618 0.09103452 -0.123337984 0.13644771 0.062413488 -0.036263753 -0.013946894 -0.018250367 -0.057142925 -0.050792675 -0.096357435 0.042183273 -0.02803858 -0.08737442 -0.08893578 -0.10061518 -0.006662331 -0.1250429 -0.0154321045 -0.0056383098 -0.09987065 0.050572105 -0.023255626 0.007957438 0.12917392 -0.088057585 0.020425785 0.107480094 0.027533535 0.08870896 -0.052220084
0.13125058 0.06766819 0.030688511 0.1745987 0.2778228 -0.30427703 0.051571492 -0.07026926 -0.17570452 0.047461573 0.1508757 -0.15392786 0.00093492336 -0.06813452 -0.0925646 -0.08099019 -0.103153996 -0.16753812 -0.10345036 0.05288065 -0.17691894 0.043817826 -0.052067492 -0.24415614 0.13156761 -0.037439287 0.3224095 -0.14913787 0.20338325 0.19524977 0.049397137 -0.18791133 -0.09744415 -0.0018095244 -0.15473163 -0.069432005 -0.08969994 -0.03733042 0.17035471 0.042546865 -0.11512093 0.08303356 0.029436048 0.2060603 0.1195572 -0.07633802 -0.04323089 -0.02116613 -0.025152246 0.17441124 0.009124368 -0.15225755 -0.006031728 0.015441197 -0.012368949 0.11442159 0.01612996 0.05647291 -0.14894702 0.10739332 -0.03285803 0.016190086 0.03761042 -0.12893675 0.120712906 0.08241616 -0.031521518 -0.2518269 0.22034784 0.025489448 -0.026280912 0.13204381 0.065969996 -0.042389266 -0.18209162 0.10416982 -0.07010007 -0.15261267 0.06986403 -0.022517351 0.17220052 -0.26134762 -0.03374718 0.09424941 0.041123327 -0.054829255 -0.06290219 0.14536302 0.0062473915 -0.100804985 0.018462101 -0.16284777 0.008290088 0.00025441826 0.02292443 0.023754852 0.09019247 0.045716017 -0.096349545 -0.0681246 0.023056857 -0.052470416 -0.007013221 0.33357754 -0.11180157 -0.12308389 -0.08374897 0.08840837 0.30859005 -0.03885297 0.047583118 0.032959197 -0.05956451 0.0015277311 -0.06978799 0.019531835 0.042214822 0.06154607 0.173734 -0.16734746 0.005456483 0.1302383 0.10398462 0.049854975 -0.015571079 -0.03523879 0.12069276 -0.2306 0.09504179 -0.045044865 0.11361106 -0.07628412 -0.16036548 -0.40068498 0.024010606 0.17405362 -0.10197496 0.030148992 0.0007521511 -0.09510661 -0.05705564 -0.07545033 0.13545497 -0.014433853 0.11856141 -0.08883759 0.17315805 0.116380416 0.08155519 -0.118732676 0.1499334 -0.0118147135 0.11394647 -0.17050405 -0.1505153 -0.024211498 -0.011418144 0.014942112 0.10069549 -0.0366709 -0.005820173 -0.0026862386 0.12144498 0.028847188 0.03483149 0.19132102 -0.13138603 0.13867915
0.039815243 0.17841631 -0.13090123 -0.10729625 0.1439734 -0.1749552 0.011051902 -0.13990262 0.08164812 0.23193707 -0.06977963 0.13224602 -0.021090258 0.04389389 0.060937047 -0.058141094 0.07446475 -0.04465241 -0.09534245 -0.03377688 0.074639805 0.015289613 -0.14276262 -0.06080714 0.010571269 0.018059505 -0.12065778 0.04135042 -0.099077575 0.04962663 -0.018512892 0.06339979 -0.13075313 -0.05633823 -0.10329887 0.02381874 0.042631973 0.16989964 0.0064401138 0.03802799 -0.018753894 -0.11835203 0.038243487 -0.07019358 -0.008155779 -0.10956128 0.029301293 0.11103245 -0.08129146 -0.031170854 0.0780396 0.010590705 -0.21412867 0.03540133 0.033650957 -0.005514235 0.005087495 0.036887635 0.017942091 0.006039145 -0.011646386 0.07223135 -0.20576333 -0.16221474 0.13170455 0.14127626 -0.085192926 -0.064068764 0.15158372 -0.043286987 0.076852456 0.04786708 -0.062422436 0.0639668 0.14031416 0.034129243 -0.12085408 -0.08914876 -0.03171969 -0.0580073 -0.111945756 -0.072770774 -0.098198175 -0.05349455 -0.08234528 -0.15527521 -0.09574511 0.08064721 0.13716629 0.052488577 -0.07612442 0.08841068 0.042835753 -0.14337638 -0.13607623 -0.08433243 0.079738766 -0.052566897 0.024726877 -0.018105514 -0.003511961 -0.067627735 0.060874287 0.18223494 -0.0264979 -0.22121109 0.11209499 -0.12819533 -0.066217326 0.040175203 -0.07100577 -0.08247698 -0.057976287 -0.0020738114 0.0941813 0.11918747 -0.034907725 0.009888614 -0.102423444 -0.037583586 -0.066230625 0.08434345 -0.057027023 -0.07531864 0.19323035 0.09986913 -0.015844012 0.055680487 -0.027347276 0.0041441415 -0.074915074 -0.008929145 -0.1721412 -0.047842592 0.17991649 -0.1601788 0.07721358 0.09730942 -0.08618651 -0.057835765 -0.05277952 0.15025938 0.11465476 -0.11695071 -0.023193298 -0.03576646 0.25530347 -0.017269617 -0.0043456806 0.076818444 0.13946988 -0.042387124 0.089463815 -0.07380433 -0.11719266 -0.12066138 0.13106182 -0.02887032 0.091752395 -0.015409826 -0.109007314 -0.06768311 -0.01695596 0.09985941 -0.070009515 0.004750453 0.08207014 -0.009915251
-0.13955313 0.024047514 0.09294462 0.040633794 0.1224498 -0.11479428 0.0010130942 -0.11955204 -0.0500113 -0.0076844296 0.049571604 -0.020888269 -0.017944612 -0.1411382 -0.059731524 0.13203107 -0.022634871 0.108488016 0.0035886436 0.094139904 0.108692214 0.031534415 -0.024759116 0.02294643 -0.052899804 -0.06712319 -0.02784613 -0.12165412 -0.13171627 -0.06466048 0.06393572 -0.08984424 -0.013591439 0.008141226 0.11829842 0.15016672 0.099292554 0.033956934 0.055641446 0.11007391 0.061762273 -0.046535727 0.072243586 0.014095104 0.09125372 -0.014243296 0.04799825 -0.116355754 -0.1370725 -0.051157877 0.12778665 -0.047120716 -0.020805709 0.099301144 0.012913112 -0.084024124 -0.009137773 -0.13258469 0.136268 -0.03797066 0.024116008 -0.035866313 0.1565162 -0.084985055 -0.060612936 -0.022143444 0.083101526 -0.057332005 -0.14778912 0.07834027 0.019307304 -0.035455305 -0.09346008 0.15353288 0.0012390175 0.053850986 0.0959457 -0.003232128 -0.02082775 -0.11126217 -0.08754674 0.044440493 -0.04220512 -0.024190363 -0.0005492929 0.029791426 0.12695293 0.051382754 -0.06630143 -0.014905004 0.04176035 0.06582727 0.057736754 0.017473698 -0.10046004 -0.014057127 -0.026298624 -0.09744202 -0.04351888 0.08267088 -0.010930294 0.0051029366 0.020027153 -0.0072804443 -0.021096675 -0.10949332 -0.050062682 0.028498225 -0.05997035 -0.06344871 0.04035642 0.056298688 -0.075999245 -0.026594197 -0.059198983 0.077954896 0.12905489 -0.13451895 -0.059708387 0.015151732 -0.017286818 -0.12774572 0.07567568 0.0742247 0.10257889 0.07668996 -0.03054195 0.10712479 -0.017903455 -0.038359784 0.055433616 0.013905445 0.029432422 -0.089063 0.13538398 0.099341266 0.13142756 -0.037141383 -0.015316746 -0.06390303 0.015145156 0.12367599 -0.120625176 0.01017085 0.089014456 -0.023257498 -0.07350125 0.06803523 -0.09016974 -0.064515255 0.05977887 -0.013803364 0.087988555 -0.07419212 0.074365534 0.05842232 -0.08749703 0.08916331 0.12138495 0.038705915 0.077272095 -0.062862515 0.10190605 -0.09208407 0.021078452 0.04550518 0.10244642 -0.043727778
-0.029452844 -0.058543384 0.065720454 -0.032669272 -0.07844767 0.015970962 -0.019068582 -0.06104282 -0.028330572 0.007872855 -0.07875561 -0.09666921 -0.042534783 0.013022035 -0.093169756 -0.07942519 0.15882635 -0.00037753 -0.13175152 0.07347629 0.09190037 0.0014156402 0.045463882 0.01076812 -0.027784089 0.03912403 -0.09311787 0.010470677 0.05720126 -0.14204177 0.060179178 0.089917146 -0.11404703 0.10137681 -0.010741775 -0.07802356 -0.0755949 0.07675186 0.11263306 0.03505111 0.052464236 -0.08114956 0.02537574 -0.16268338 -0.04880466 -0.09739991 -0.13501915 -0.11212143 -0.056924574 0.020407612 -0.066005364 0.13400178 0.0866226 -0.01362255 0.07480601 -0.10665885 0.07310716 -0.08657838 -0.037610214 0.077633716 -0.06215012 -0.025082314 -0.05756822 -0.04811118 -0.0015905616 0.0554795 0.015180122 -0.07095291 -0.059195004 -0.065919444 0.016983038 0.10346577 0.07224468 0.04210538 -0.014954035 0.032802865 0.0051901103 -0.0838519 -0.10527327 -0.0043120217 -0.004544128 0.01357168 -0.018828845 0.113348216 0.040585827 -0.10461401 -0.10336636 -0.048519038 -0.04662111 -0.07138728 -0.09799389 -0.067223944 -0.039693456 -0.06878367 0.19062285 -0.100594 -0.062363338 0.0865929 -0.07758058 -0.068994515 -0.111376785 -0.012515112 -0.11218277 -0.098241694 -0.018020814 0.07938219 0.03558649 0.117935605 0.08606935 -0.11526399 -0.08274087 0.022507714 -0.026491353 0.054785248 0.047192134 0.078565046 0.048199724 -0.09317302 0.005111512 0.024383882 -0.09233777 0.06351613 -0.11840303 -0.09284355 -0.088645875 -0.10399757 -0.061296817 0.26307324 0.098391905 0.09851373 0.023612257 -0.0102491975 -0.11680025 -0.15944658 -0.051199056 -0.06932032 -0.073511414 0.10543045 0.06377042 -0.07647145 0.12520255 0.057288703 -0.03838892 0.0033841375 -0.0793049 0.06844241 -0.06706996 -0.01965929 -0.06255324 0.11776029 -0.17518649 0.06601679 -0.015968341 0.060835857 0.18513747 -0.13141134 -0.05530662 0.0054074707 0.063977726 -0.03912463 -0.069646314 0.049476538 0.035073925 0.066615015 -0.081210576 -0.0932527 0.06396348 -0.09714209
-0.020193815 0.12551177 -0.009668583 0.079426825 0.07784424 0.0008125535 -0.068667255 0.018449266 -0.037962884 0.018310409 -0.07091429 -0.12105718 -0.09967536 0.07455164 -0.01875637 0.0102520855 -0.029738072 0.10891338 -0.15759662 -0.0017405911 0.10265288 -0.1620252 0.026280303 0.011689892 0.06221306 -0.05309583 0.32285985 -0.017065004 0.08823706 0.056187678 0.08941094 0.009665085 0.11040467 -0.027433347 -0.014888108 0.062250115 -0.017379792 0.04651393 -0.047405034 -0.05990004 0.009738719 0.010753779 0.21645738 0.001770436 -0.00095893926 0.07734747 -0.017418765 0.016544025 -0.008958323 0.14900924 0.01334908 0.07521049 0.009292489 0.087434016 0.012183837 0.04929869 0.05013675 0.03511366 -0.08259409 0.09437871 -0.042788815 0.1817266 -0.013186253 0.007398333 -0.1008589 0.015196087 0.08128879 -0.06906314 -0.11860042 0.10317161 0.015906679 -0.072884366 0.094661556 -0.110972956 0.0015818018 0.112071976 0.12615299 -0.09890254 0.14494029 0.1179611 -0.009824537 0.029124865 -0.04277561 -0.09764848 -0.039593764 0.0054075704 0.06798207 0.18298681 -0.08689793 -0.06578131 0.026377704 -0.16280551 0.046828296 -0.007010096 -0.032824315 -0.02299343 -0.020574281 0.1035969 -0.08198707 -0.119661346 0.16875866 0.063810885 -0.057750348 0.030900065 0.08508977 0.02174293 -0.07812162 -0.010526619 0.09817758 -0.08479202 -0.12720706 -0.033626016 -0.048378445 -0.13820376 -0.077259794 0.024407553 -0.07645268 -0.03914785 0.28646135 -0.07726252 0.027460871 0.11521947 0.05707678 0.04783503 0.09117737 -0.12457696 0.00045031024 -0.048339304 -0.033277337 -0.015275679 0.08622565 -0.051917575 0.12250265 -0.10827807 -0.0022776353 0.118065275 0.104567744 -0.10508849 0.013093744 -0.087559186 0.073003024 -0.052278228 -0.028557183 -0.04061052 0.13908088 -0.010352049 0.035832774 -0.012133869 -0.069838725 -0.05330057 -0.12784684 -0.040924523 0.12483897 0.06340428 0.072445616 -0.12363023 0.067662574 -0.070088476 -0.13598742 -0.009397037 0.11231707 0.018245576 0.012933874 -0.0822899 0.12641993 0.19648494 0.041587297 -0.08576164
-0.0055234362 0.025798865 0.13949507 -0.12794618 0.052291375 0.0912543 0.06450152 -0.08840738 0.050830815 -0.068666466 -0.06921536 0.024569774 -0.067001164 -0.113593854 0.0011484447 -0.061153684 -0.029711617 -0.07202083 -0.016133025 0.01929045 -0.029458286 -0.039939858 -0.11169929 0.04412636 -0.12893915 -0.112469934 0.07338222 0.011326238 0.007760635 0.022190418 0.05050703 -0.09845647 0.09493232 -0.12622674 -0.09706932 -0.027652053 0.05975887 -0.034422763 0.055782624 -0.0089142155 -0.003802971 0.10510348 0.050778847 0.07498279 0.023775697 0.11077936 -0.08275555 -0.12349661 -0.12197441 -0.1031043 -0.12226303 -0.04205517 -0.04422021 -0.099421464 0.054700203 0.040915497 -0.051185656 0.09777293 -0.07772878 -0.019500792 0.071988404 0.07481255 0.052210763 0.02492406 0.06605987 -0.12873253 -0.018593851 0.06833795 -0.07507521 -0.08770983 -0.11957651 0.13623779 0.002436059 -0.105853744 0.007451881 0.11225086 0.013647053 0.07786157 -0.0012670552 -0.1190199 0.12722473 -0.106599495 0.0131792035 -0.024561863 0.10798113 -0.0739975 -0.07836765 -0.11220175 0.07477046 0.0007726856 -0.11707415 -0.1352941 -0.092351526 0.087562315 0.11295645 -0.042179007 0.08209971 0.07179579 -0.10647894 0.059307087 -0.0074131256 0.015427189 -0.10505401 0.08418237 -0.122525685 0.106640615 0.012787004 0.10853184 0.02619575 0.12265648 0.0002153145 -0.08250555 -0.067999795 -0.014199163 0.05227527 -0.049542423 0.08250962 0.04469251 0.14185381 0.10801367 0.1252802 -0.07711281 -0.052451182 0.0010960354 -0.004823338 0.07391142 -0.09321182 -0.050234243 0.02516472 -0.0084599275 -0.075960405 -0.12915239 0.1034504 -0.0011069081 0.074251644 0.06562336 -0.008037348 -0.12865895 0.01073441 -0.032040074 0.106103346 0.023418361 0.10872249 0.07908922 0.043134652 0.026196314 0.03678209 0.10966159 -0.0382601 0.014870501 0.089417696 0.032076146 0.030883025 -0.014609773 0.020288207 0.06731136 0.1132798 -0.0074911104 0.11396961 -0.116047 0.075000376 0.032127857 0.058644786 0.07141498 -0.09425517 -0.10931681 -0.0071322285 0.018431418
0.077820145 -0.121655256 0.076051295 -0.08266426 0.020656524 -0.23291014 0.008620982 -0.05039408 0.2164945 0.0816768 0.022201104 -0.038412414 0.016764633 0.020219466 -0.007854884 -0.026724163 0.09534374 -0.008151085 0.042497523 -0.07322813 -0.027916374 0.100193106 0.04810488 0.123616695 0.14581655 -0.010393341 0.019278381 -0.109545425 0.12819153 -0.12848756 0.09509229 -0.13471112 0.009616216 0.1325062 0.17163949 -0.2548728 0.13815111 -0.051662955 -0.008699468 -0.08255749 0.20015667 -0.04723744 0.016302666 -0.10599873 0.07584244 -0.13076067 0.0019117045 -0.00434916 -0.07885294 0.09207711 0.02658178 0.00036914807 0.010699244 0.037762985 -0.105035946 -0.0936698 -0.1611772 -0.083381325 0.043067373 -0.19794868 0.0025823903 0.044169772 -0.095701516 0.070862494 -0.0753157 -0.03424333 0.15855074 -0.054110494 0.0042916103 -0.029436912 0.061089516 -0.22997333 -0.10691977 -0.12901776 0.06509774 -0.008483141 -0.029772187 0.047311008 -0.06116396 -0.0022627846 0.21725248 0.009927161 0.11431944 0.070114635 0.037780534 0.035962105 -0.10424054 -0.14328043 0.021128308 -0.026915716 0.067564204 0.0986999 0.14066847 0.012154619 0.020442128 0.051699135 0.04535973 -0.10920228 0.14305219 -0.13763765 0.0093175 0.028154539 0.14537832 -0.035056688 -0.114967555 0.05398159 0.16133559 -0.12386443 0.06174809 -0.042718463 0.043584466 -0.04485661 0.0821677 0.011066879 0.055799417 -0.05949841 0.11029407 0.08062585 0.009047474 0.10322492 -0.0062729586 -0.066852614 -0.0039668325 0.100441255 -0.0005882961 0.028943693 -0.0054447087 -0.02210657 -0.07744349 -0.022208637 -0.052082106 0.08694237 0.10233252 0.12153618 -0.089188546 0.03465319 0.0090569 -0.067670606 -0.17076406 -0.0611678 -0.011435193 0.044215366 -0.054266367 -0.10569356 -0.03790645 0.00027979756 -0.11233939 -0.021612056 0.054745615 0.22153424 -0.11550744 0.09076758 -0.062250514 -0.05070977 0.09555121 -0.026765516 0.06851229 -0.10145674 0.13934131 -0.06973071 0.07310313 -0.037929606 -0.001535189 0.0853687 0.10653912 0.096275605 0.13382903 -0.13298431
0.06896694 -0.12889697 0.12298685 -0.09738855 -0.048734926 -0.046269234 -0.037467264 -0.030769756 -0.009572251 0.025329752 0.07392052 -0.076032 -0.08032922 0.023948831 0.051928416 -0.1393422 -0.0884316 0.017782213 -0.05812533 0.103808075 0.1267764 0.044564426 -0.12657459 0.02750196 0.12673481 0.07934095 0.020159068 0.0041682688 0.1273957 -0.034922145 0.034787945 -0.045369513 0.0325568 0.08827479 -0.12759924 -0.05081503 -0.12145947 0.02872633 -0.07969051 -0.012588495 0.12200762 0.03158095 0.19286838 0.0817082 0.014608102 -0.032326028 0.00023554104 -0.10763346 -0.046611555 0.011776964 -0.076406136 -0.019676672 0.05417242 0.03102184 -0.03212879 0.0010317744 0.08376517 0.102960296 0.075820915 0.052456345 -0.03122552 -0.03342423 -0.02955425 -0.053791665 -0.024701117 -0.11522308 -0.030995186 0.079794064 0.022545246 -0.060642544 0.10539499 -0.026444878 0.07576068 -0.06080176 -0.09783601 -0.0045498386 0.0043956814 0.018524291 -0.038044244 0.027842086 -0.09058133 0.1482811 -0.07661903 0.031967685 0.06315616 0.056404795 0.08120131 0.04527887 -0.0855923 0.08973933 0.10862127 -0.0010056661 0.067529894 -0.0057220445 -0.022463521 0.11588229 0.07215796 0.11325934 -0.07979798 0.054849662 0.045053117 0.071585216 -0.07731776 -0.015195768 -0.04708464 -0.032137 0.03440977 -0.12778988 0.025714878 0.022719013 0.12887456 0.06490236 0.0639531 0.08948137 0.023975901 -0.045259032 -0.019777777 0.06697764 0.14752226 -0.07908396 0.112236306 -0.021053916 0.07631059 -0.009240897 -0.030020772 -0.09942574 -0.08348101 -0.022024944 -0.09323031 0.060669012 -0.024504667 -0.0033149044 -0.0021319052 0.1123285 0.07503344 -0.0029687393 -0.09238131 0.060883578 0.025375862 -0.14156203 0.11686201 0.06604543 -0.072194785 -0.11470678 -0.058358956 0.09586865 0.15476668 0.10769796 -0.07472305 -0.030979717 0.080459915 -0.10837415 -0.08852758 0.10095101 -0.069549814 0.05060209 -0.053255647 -0.015335384 0.04150931 0.10628066 -0.14332347 0.02726708 -0.0049638753 0.075544536 0.015974622 0.07316892 0.027956862 -0.013925987
-0.048795305 0.0673233 -0.025767796 0.013524467 -0.11200947 0.0056111836 -0.07604188 -0.008853631 0.21041317 -0.017383808 -0.060510963 0.12924829 0.07198192 0.11341707 -0.12599069 0.02153949 -0.041362364 0.01857173 -0.11606457 0.10588193 0.0585053 -0.16942784 -0.06483574 -0.12456678 0.09940085 -0.07100501 0.32444707 0.05772861 0.011440898 -0.03376269 -0.03953675 0.05206904 -0.14524664 -0.09083922 0.0652076 0.05700266 0.008261623 -0.041372687 0.07167605 0.023963705 -0.013028743 -0.035904437 0.036876183 0.10654878 0.014944197 -0.13862523 -0.031707983 -0.016857438 0.02531521 -0.07097503 0.051426142 -0.023557251 0.09464278 -0.022906816 -0.13361533 0.12889181 -0.09890372 -0.04432926 -0.04603117 -0.008146007 -0.019088639 0.07815372 -0.010161113 -0.30767715 0.13954608 -0.07383046 0.10705341 0.0036902658 0.010890199 -0.00432601 0.07762744 0.041817244 -0.11923872 -0.0023685533 -0.18038398 -0.061484817 -0.04239866 0.116965316 0.010759574 0.0066177305 0.008767066 0.036320824 0.09008406 0.08147669 -0.1287116 -0.004422678 0.1295953 -0.07975966 -0.017943712 -0.009704626 0.12418188 -0.052350517 -0.1407488 -0.06927387 0.07913205 0.03918284 0.105020255 -0.06327948 -0.025583833 -0.052969046 0.060654175 0.10458156 -0.0026042636 -0.021494418 0.014471706 -0.02630598 0.07707801 0.025984308 -0.030605296 0.09634591 -0.060506716 -0.03366282 -0.04189369 0.070984095 -0.1830887 0.013669855 0.023449007 0.023175212 0.042150613 -0.02314284 -0.098783426 0.026805857 0.068356946 -0.05140682 -0.04470771 0.03285481 -0.021490691 0.13077232 -0.08829038 0.08376382 0.092179425 0.055474468 0.14046367 -0.0883777 -0.11136935 0.09468565 -0.26091498 -0.064425424 -0.003823228 -0.10166684 -0.047182098 0.06576838 -0.028547954 -0.03825423 0.09765515 0.074303456 -0.042234965 0.05438513 -0.14799249 0.06703411 0.108300045 -0.05711942 -0.07081675 -0.0067505273 0.06992116 -0.0887503 -0.020032333 0.035791196 0.091433436 0.15222524 0.028182996 0.11473416 0.06757155 -0.008219197 0.05356319 0.24170254 -0.11357601 0.0844014
0.088000566 -0.116617195 -0.12872389 0.11008484 0.049005035 -0.09058786 -0.08468042 0.01925339 0.044980787 0.0006001472 -0.056089524 0.007911557 0.0715474 0.0017613429 -0.10794503 0.022874258 -0.04800746 -0.08739685 0.039442837 -0.099322826 -0.093051516 0.0680972 -0.13223907 -0.088926725 0.028604778 0.10365979 -0.0061519006 0.043999642 -0.0869149 -0.010395628 0.09232364 0.059293095 -0.048458055 -0.04497765 0.13222368 0.054382462 -0.008692168 -0.019446665 0.0114355525 0.033773158 0.089821704 0.09528588 -0.02936086 0.08547488 -0.021046743 -0.03300862 -0.068493076 -0.14199528 0.04153495 0.035836976 0.05151826 -0.019173212 0.09108768 0.1011879 -0.025820127 -0.060973566 -0.004018768 -0.15323435 0.14366958 0.061837614 0.019324707 -0.098581746 -0.028868513 -0.0019744167 0.113053195 -0.11547233 -0.012694075 0.09859395 0.012249458 0.13717273 0.09531671 -0.042106368 -0.058092035 0.030419135 0.017645568 -0.1478015 0.06709669 0.08910787 0.0714222 -0.10520172 0.049271166 -0.029465325 -0.02166586 -0.031730596 -0.0024843602 -0.0010441195 -0.020153765 0.041146506 -0.07660834 -0.0025961215 0.079277776 -0.012463841 -0.09657071 0.016652565 -0.07678582 0.106647514 -0.0033334838 0.14915408 -0.009542314 0.065239765 -0.09527486 0.0060408534 0.06158471 0.13022757 0.013833795 -0.06819436 -0.04489718 -0.1311679 0.09646717 0.04675379 0.13296667 -0.065939955 -0.024236955 -0.090860695 -0.002883851 -0.050206635 0.025388472 0.04296496 0.048704147 0.11044376 -0.101207614 -0.032160882 0.090948895 -0.034170758 -0.022069681 -0.06575098 0.13288178 -0.22540103 0.03547764 0.048246503 0.08436958 0.045179438 -0.12534702 0.02096123 -0.036286443 -0.04600607 -0.07220748 0.015312565 -0.08138185 0.04980426 -0.12782875 -0.061620716 0.0009447922 -0.07251406 -0.008580255 -0.032543506 0.25007755 -0.03712977 -0.08610687 -0.07598182 0.058003172 0.046661355 0.081957474 -0.045599174 0.036266066 -0.050913043 0.047721613 0.08778216 -0.032488097 -0.03880146 -0.16342428 -0.11547094 -0.123509884 0.06570233 -0.022769853 0.0068551213 -0.025973722 0.10774298
0.052635416 0.085061036 -0.080957815 -0.049708895 0.020619588 -0.08965067 -0.07623968 -0.10780397 0.03273739 -0.1570481 0.0043565934 -0.14982167 -0.122718826 0.14769569 0.021772847 0.14105606 0.13036887 -0.2142551 -0.093658045 0.008428129 -0.13261765 0.03728412 -0.0018705017 -0.05909414 0.16225176 0.099346414 0.0042656963 -0.12586342 0.012966093 0.11536173 -0.051228125 -0.16599219 -0.042377472 0.16385353 0.15114947 -0.08496904 -0.035808757 -0.1053084 0.102062784 -0.047089133 -0.049925525 -0.0979804 0.040727217 0.059776634 0.045016583 0.21178478 0.015947703 -0.13118733 -0.053883296 0.022299392 -0.0433398 -0.03957233 0.08231111 -0.021301057 0.1849823 -0.10020873 -0.08089783 0.03572204 0.0053019724 0.09621876 -0.020940304 0.013382926 -0.0032267934 0.016561 -0.027449956 0.093796134 0.10058036 0.07542352 -0.2331805 0.05844043 0.0049185907 -0.04303881 0.04791019 0.060181297 0.04586405 0.09761839 -0.1324003 -0.06371205 0.00078693 -0.071835175 -0.06828192 0.19631997 -0.12275839 0.0685589 -0.10502735 -0.04304406 0.14015853 0.10516476 -0.024910947 0.028097447 0.11856971 -0.10547635 -0.18648516 -0.12904657 0.11676468 -0.02897786 0.11654008 0.0021184392 -0.11457551 -0.21041492 0.17855382 0.062372524 -0.010084409 -0.049462285 -0.06853473 -0.082045205 0.042070687 -0.032215968 -0.2758806 0.11997934 0.118968666 0.0597072 0.0018703738 -0.037495665 -0.027911853 0.12340593 0.05557287 0.04214657 -0.06077522 0.062283266 0.04861843 -0.109926246 -0.13482778 -0.15061188 0.049262863 -0.17744246 -0.015149054 -0.22588749 0.021718875 -0.07068642 0.011247584 0.08318846 -0.15091662 -0.23669784 0.19290696 -0.13952422 0.0863046 -0.0978932 0.0038140027 0.02842473 -0.15427189 0.031209111 0.14255433 -0.09562143 -0.14508305 -0.09736603 -0.009908296 -0.051177375 0.09872117 0.043908987 0.17611475 -0.05367105 0.046049684 -0.18084788 -0.046530798 -0.06314767 -0.018752359 -0.06743515 -0.11969351 -0.11102948 0.15284324 -0.12380447 -0.097422786 -0.14438255 0.041329518 0.14917341 -0.10411884 -0.09334632
-0.055457406 -0.114196785 0.11305463 -0.10255637 -0.025457934 -0.039585546 -0.05247289 0.0073485035 -0.053422835 -0.14240754 -0.10561469 0.18027459 -0.11629756 -0.070073746 0.03715665 0.021337265 0.14988197 -0.09349341 0.16995633 0.14141285 -0.017864104 -0.13207054 0.06389201 0.12629779 0.11924975 0.034257647 0.2039789 -0.02378556 -0.094488226 0.09354918 -0.098114185 0.09693777 0.015620423 0.13009217 -0.01850303 -0.057947695 0.037710838 -0.10918981 0.0706403 -0.084344774 0.109653056 0.030631294 0.11392721 -0.030355154 -0.056328125 -0.13825612 -0.03833494 -8.031295e-05 -0.039384555 0.09307912 -0.06318209 -0.06836908 0.013109398 0.011457804 0.12984143 0.09835885 -0.10685389 -0.10031958 -0.050356463 0.14157878 -0.070162795 0.15013936 0.11904174 0.018883875 -0.047108877 0.043173447 0.0038293367 0.043138076 0.104202956 -0.1253342 -0.04270738 0.07822067 0.13234232 -0.034320775 -0.0035600136 0.047951993 -0.120288245 -0.03539049 -0.10289183 0.09310621 0.14370891 0.013653258 0.10737657 -0.005907626 -0.12720278 0.0670204 0.11379529 -0.037788436 0.056169234 -0.099062115 0.009073035 -0.030462379 0.07981141 0.044938356 0.027597178 -0.056162436 -0.04284984 -0.062723555 0.05377731 -0.0055752923 0.04834589 -0.06322557 -0.05238547 0.08999245 0.0103698 -0.13984056 0.11422142 -0.124342345 -0.15011741 -0.051188633 0.023917675 0.025836242 0.019834995 0.08178024 -0.15777346 -0.099772915 -0.0019932152 0.07495397 0.07979995 0.0780051 0.08933926 -0.111360505 0.11673063 -0.04999354 0.11628366 0.036068026 0.12749907 -0.035050068 -0.0067650364 -0.10867418 -0.028341506 0.12291355 -0.13928515 0.18293676 -0.08335778 0.104767606 0.28421775 0.020385373 -0.08824285 0.10855952 0.008307566 -0.0202848 -0.121817544 0.09766537 -0.10551805 0.084999114 -0.10832083 -0.04744541 0.13016231 -0.01240726 0.013876738 0.0677154 0.17922765 0.024106108 0.046566963 0.076879494 -0.08232762 -0.12509996 0.089091495 -0.025434665 0.13310222 -0.055084962 -0.09298995 -0.10656507 0.032526553 -0.064341314 -0.102201074 -0.07270371
-0.05297526 -0.19423544 -0.15674439 0.026094664 -0.11992237 0.1922398 -0.10724678 0.016294582 -0.011610476 0.10514712 0.022376364 -0.024627924 0.12284784 -0.06639202 -0.059236377 -0.028238142 0.043652616 0.03958346 -0.03220083 -0.06126148 -0.04841971 0.011377819 0.012015032 0.10697655 0.06330982 0.02516724 -0.27944878 0.06767306 -0.09884991 -0.14535204 -0.04246006 0.005979796 -0.069888644 0.042740144 0.07281078 0.050231177 -0.103467375 -0.02518426 0.07741592 0.0502906 0.23197864 -0.10287143 -0.17792636 0.07163769 -0.060394 -0.028486827 -0.17819612 0.0258646 -0.014860488 -0.08206971 0.14565946 0.02904517 0.032563504 -0.04546546 0.08946381 0.045954812 -0.09860827 -0.082655124 0.124647185 -0.026872708 -0.08164733 -0.050191056 -0.21843024 -0.029427666 -0.00865921 -0.080815755 -0.006989865 0.019956103 0.059943117 -0.14005071 -0.03428956 0.009036019 -0.010967656 -0.02948209 0.02800308 -0.021096678 -0.027710501 -0.15442462 -0.16909279 -0.019126704 -0.10229908 -0.0067719324 0.19361608 -0.06482468 -0.063842416 -0.058913648 0.0055578668 -0.12702535 -0.04093791 0.020654038 0.050306384 0.038602896 -0.115726374 0.06507452 -0.04563228 -0.16223054 0.009101715 -0.055721167 0.098526165 0.13501821 -0.14267519 -0.094548106 -0.08901525 0.0063792537 0.17258924 -0.21125767 0.072318815 -0.04230769 0.0055924235 0.033651732 -0.09946968 -0.059544235 -0.020560503 -0.05326052 0.06826595 0.0344404 0.07132481 0.06802592 -0.41373914 -0.008050526 0.13101219 -0.041691747 -0.018427951 0.10533628 -0.12655798 0.016684227 -0.019242536 -0.0046034143 -0.00303683 0.15121113 0.0071895565 0.08271736 -0.07137211 0.074834764 -0.09162034 0.14883962 -0.041497886 0.038442362 -0.1343461 0.07123492 0.105835564 -0.027686667 -0.15383248 0.12480488 0.12731881 0.08909769 -0.09451352 -0.10891476 0.094244085 0.050183877 0.093789525 0.08507444 0.014155253 0.16474582 0.08404577 -0.04369439 0.08191242 -0.13216776 0.009757892 0.13881055 0.16595753 0.32747832 0.0360734 -0.072810635 -0.024949234 -0.037807226 0.08716655 0.07227616
-0.009418889 -0.16496065 0.088372014 0.024375185 -0.06770375 0.25848734 -0.02258203 -0.041557383 0.20501935 0.20079008 0.20261347 0.22471201 0.014006697 0.013647232 -0.11103557 0.09649535 0.18671285 -0.026092237 0.14615557 0.2821413 0.0061011044 -0.24858642 -0.29734984 0.0419846 -0.18087241 0.21423957 -0.31960848 0.004402006 -0.031316597 -0.02994017 0.10373433 0.007967783 0.06342628 -0.051172692 0.025163881 0.12107041 -0.077830315 0.016544534 -0.023336023 0.19489044 0.19270879 -0.0014245088 -0.05624813 0.0390985 0.048436295 0.020619027 0.03226392 0.059093192 -0.043211527 -0.0856907 -0.20262821 0.04304731 -0.28330868 -0.14780685 -0.018032521 0.1248296 0.029368628 -0.14847603 0.2740822 0.092228726 -0.13649496 -0.115715824 -0.29891607 -0.2506312 -0.20562069 0.15934004 -0.06818367 0.19062082 -0.0753367 -0.030852396 -0.10043077 0.074958324 0.09908607 0.11695499 0.08871851 -0.01258141 0.11214158 0.17732374 -0.14828618 -0.02995005 -0.017194014 0.033887442 -0.07900775 -0.0008674256 -0.21036915 -0.11341123 -0.08000766 -0.10403242 0.02399259 0.05726033 -0.008856977 0.06704615 -0.25721455 0.054329753 -0.13302715 -0.12072596 0.0961822 -0.034553368 -0.14039797 -0.17629136 0.05605588 -0.02491459 -0.14507107 -0.04686666 0.05843515 -0.03188969 -0.0065977303 0.04395451 -0.019110834 -0.12061264 0.017087143 0.00011755741 0.016821219 0.21221748 0.010801243 0.061843086 0.025134593 0.075438015 0.060207274 0.103616826 0.035632286 -0.016124673 0.083501086 -0.045310423 0.042536344 0.046943422 -0.10421599 0.14928813 0.008755101 -0.12662907 -0.00658259 -0.09013119 -0.09386224 0.2808384 0.4936612 -0.16486077 -0.09962131 -0.16252074 0.045891583 0.06147755 -0.08889797 0.13066384 -0.076297134 -0.3971612 -0.10754337 0.14275199 -0.31148943 -0.03138793 0.03580209 -0.031245582 0.051430557 0.13504001 -0.13753624 0.11583456 -0.21181768 -0.034234747 0.018766789 -0.051528163 0.068378076 0.052503496 0.044257946 0.32032967 -0.057534676 0.032206986 -0.054573566 -0.016309265 -0.029760523 0.27332577
0.013904159 0.21468465 0.12340453 -0.018612115 0.06496083 0.12752804 0.028508535 0.014107144 -0.16819362 0.09940399 0.07699152 -0.065033294 0.03803718 -0.07054442 0.11349204 -0.013440738 0.00020009423 0.024239223 -0.0032679418 -0.022903832 0.056692597 0.013361456 -0.10924084 0.032022 -0.109441474 -0.056658477 0.018868089 -0.02539628 -0.08991639 0.013064665 0.01800437 -0.11342123 0.028545123 0.10150379 0.079089746 0.007455113 0.14845027 -0.031843673 0.043698505 -0.16565499 -0.06015395 -0.109289326 0.11994572 0.1258691 -0.05269349 0.00643201 -0.038159892 0.0010813549 -0.07861964 -0.1595047 0.005313412 0.104973145 -0.005171333 0.016734065 -0.00831975 -0.02307348 0.05553173 -0.07164026 0.0009108887 -0.031541586 -0.10177267 0.15863648 -0.20109795 0.03247271 0.01925069 0.08501379 -0.071080014 0.021284133 0.17232797 -0.022394527 0.0029163775 0.056767713 -0.074268125 -0.05394089 -0.049589623 0.046325848 0.062713005 -0.09224266 0.06901378 -0.11916111 0.06585237 -0.013112125 -0.0075437874 0.059460375 0.016793776 0.044885278 0.09675474 -0.09939635 -0.024228115 -0.01803604 -0.07071979 0.10829668 -0.038787868 0.09292777 -0.24052258 -0.10503648 -0.06944959 0.05606112 -0.07674162 0.03989742 -0.15366402 0.016085887 -0.016546592 0.07036402 0.09543205 0.05536229 -0.007732491 -0.070895635 0.033235535 -0.11409558 0.05744599 0.13677736 0.09875085 -0.04930616 0.13416013 0.11900407 0.078291684 -0.14762159 -0.09453748 0.09402113 -0.08167523 0.0073408363 -0.00012125162 0.11939531 0.08548615 0.0876889 -0.042933844 -0.1693252 -0.14993139 -0.06703856 0.041818626 -0.025322309 0.061949816 0.25028104 0.074434966 0.017889513 -0.07088241 0.0685915 0.08933348 0.02602309 0.03255917 -0.0944404 -0.07544204 0.09418671 0.064399235 -0.03931857 -0.09157353 0.044050645 0.080664106 -0.057198327 0.01854771 -0.15653706 -0.06440637 0.15945706 0.04763472 0.013832205 -0.1091553 0.031140579 -0.07074106 -0.083352 -0.18437278 -0.036099937 -0.20388949 0.10420904 0.12553844 -0.057841446 -0.132292 -0.147826
0.002035811 0.072198704 0.0575572 0.09134699 0.014570844 -0.13193266 -0.007483576 -0.07126584 0.036291648 0.1231739 -0.1845177 -0.0039056863 0.0069548488 0.032346655 0.082049906 -0.022106368 -0.01821374 0.06800866 0.0032763013 -0.05349441 0.030420512 -0.09571014 0.13603328 0.08325304 -0.11795513 0.121512435 -0.07172987 -0.016260495 0.07743716 0.02661426 0.07292361 0.048682045 -0.12557806 0.0330273 -0.14931181 0.08401716 0.012925759 -0.025492359 -0.07377454 0.015542287 0.040046148 -0.0127807 -0.047380816 -0.007636232 0.12974292 0.02514348 -0.034080315 -0.09288087 0.15754801 0.0069930847 0.006612408 0.035126295 0.07562711 -0.07157756 -0.029519431 -0.08683937 -0.06267589 -0.0065656137 0.029869722 0.029037144 -0.05856685 -0.101012625 -0.08704232 -0.026651021 0.09475221 -0.07808902 0.05164159 0.06685776 0.062274087 -0.021489099 0.12707536 0.11218703 -0.12931293 -0.06131292 0.08850673 0.06803919 0.113962136 0.079127595 -0.046312496 -0.055276908 -0.13152844 0.07228832 -0.060284793 -0.052155185 -0.102508 0.06252125 -0.12513782 0.07695959 -0.08081696 0.12721315 -0.036078688 0.08231805 -0.12357639 -0.121187955 -0.05193213 -0.08200377 0.11460928 -0.12543377 -0.10492276 0.143217 -0.085614964 -0.13841711 -0.018368829 -0.08022718 -0.10355527 0.013885878 0.05047427 -0.060816772 -0.018739771 -0.13140884 -0.05003407 -0.047848098 0.11289087 0.108880855 -0.001482168 -0.029617805 0.02100268 0.02233833 0.11192159 0.119199604 0.09275963 0.09091819 0.061931226 0.009524976 0.13270791 0.046673845 0.006459338 0.057507258 -0.027696531 0.11387531 -0.078413375 -0.09793974 0.09512368 0.048612826 -0.08576577 -0.038190816 0.06463122 -0.041197862 -0.0330477 -0.0846512 -0.052857123 -0.09204663 0.020450782 -0.061669692 0.009738301 0.031143567 -0.13880657 0.067229405 0.007674489 -0.045114364 -0.12182661 0.102716714 0.06676527 0.07708442 -0.14659968 -0.05017376 -0.09989712 0.14051159 -0.07838815 -0.1079821 0.022417286 0.015142853 0.014109009 0.042527914 0.00553664 -0.094073 -9.012385e-05 -0.03299551
0.008549074 0.052783493 -0.046504993 0.009405616 0.10500615 -0.18625148 0.05620059 0.0028583193 -0.04792927 -0.00064387155 0.0017057172 0.12183374 -0.08532839 0.05166801 0.025960406 0.028145492 -0.0165572 0.024243794 -0.11207472 0.08280049 -0.10529947 -0.013347963 -0.023301098 0.013787792 0.0022021828 -0.0013140767 0.058627766 0.010717099 0.052717235 -0.09015771 0.048465177 0.12605861 0.015998328 -0.04573923 -0.05466003 -0.045330614 0.12756243 -0.026632402 0.117980234 0.10017592 0.01269244 0.070001654 0.030214058 -0.12729712 -0.043034017 -0.058666024 -0.06323419 0.04670937 0.15305108 -0.051491976 -0.0802697 -0.09241611 0.040484246 -0.061173785 -0.065237775 -0.1753217 -0.055906683 -0.065420896 -0.014096004 -0.089388885 -0.04429648 0.08119325 -0.075117365 -0.12508866 -0.12041219 -0.015024182 -0.0400092 0.0393281 0.058210634 0.07659226 0.17082691 -0.06667994 -0.10040689 0.015266649 -0.07405999 0.0151618635 0.019922905 -0.0027142952 0.020696497 0.08356245 0.031745225 0.04031899 0.07548457 -0.10557749 0.015391651 0.0032473798 0.022975454 -0.10248123 0.1414562 -0.013726821 0.100232966 -0.032975826 -0.079778135 -0.035209823 -0.09977269 0.11968933 0.045292817 0.099789895 0.0096473675 -0.045112386 0.032090176 0.060199212 -0.032222703 -0.049469408 0.11016615 -0.0047448482 0.07585648 0.019523125 -0.093877204 -0.058485273 0.027150968 -0.019523535 -0.08098479 0.01903768 -0.025167806 -0.07193978 -0.0022008084 0.07747238 -0.050943285 -0.06808523 -0.076873645 0.043117583 0.022531364 -0.09177724 -0.09543772 -0.080040276 -0.032583073 0.09685207 0.008964565 0.13623954 0.095129706 0.08152047 0.03905504 -0.07415319 0.05241615 -0.024002636 0.12543716 -0.07521744 -0.12420937 -0.055480015 -0.11627239 -0.09465305 0.06744774 0.091661915 0.029055722 -0.08006043 0.07117815 0.105462395 0.056971338 0.096741386 -0.0772784 -0.035074808 0.050165936 -0.11957309 0.1670679 -0.043030687 0.016700465 0.047203444 0.00035192532 -0.087991856 -0.019785704 0.060156446 0.0057047033 -0.07625281 0.039028004 -0.005883754 -0.092287496 -0.05294157
-0.1058438 -0.10293098 -0.067080565 0.06183518 0.11467757 -0.15479241 0.033150207 -0.0918729 0.08848192 -0.02635765 -0.16142136 0.110236585 0.14783065 0.107513145 0.12561768 0.08435097 -0.16122286 -0.12787747 0.17676586 -0.091543816 -0.14721653 -0.098050416 -0.029775959 -0.028111283 -0.030084666 0.096169055 0.30303246 -0.10236487 -0.055519365 0.007583542 -0.07734817 -0.0059062634 -0.029417504 0.06407944 0.058048762 0.08606975 -0.14474817 0.07630613 -0.027753336 0.104767404 0.13452682 -0.07905058 -0.0696366 -0.028221983 -0.012287108 -0.015742652 -0.025246134 -0.09898406 -0.071359076 -0.07745688 -0.09965638 -0.05861378 -0.057982415 0.085976124 0.072032474 0.050701372 -0.135733 -0.025976017 -0.14884964 -0.040192056 0.0935174 -0.03154499 0.06554296 -0.07831553 0.060629286 0.0027801762 0.022709938 -0.054617953 0.08005481 -0.028836956 0.02103829 -0.08296922 0.09070968 -0.14176899 -0.080824316 0.043697834 -0.052269805 -0.049605183 0.14492229 0.069906436 -0.08341084 -0.049983874 -0.09257294 -0.064999536 -0.035707325 -0.08847756 -0.075297974 0.045155466 -0.03592513 -0.03453316 0.038904805 -0.07487705 -0.07624349 -0.06967024 -0.12437947 0.03587146 0.108380735 -0.13176683 0.024206053 -0.09683396 0.14308137 -0.080756456 0.034908626 0.12645516 -0.06621462 0.00881701 0.091848776 0.055629242 -0.120036624 0.041996785 0.016606227 -0.06067921 0.022340534 -0.11190397 -0.07872445 0.091703236 0.14278677 0.011825957 0.041305307 0.09865236 0.07911641 0.051265992 -0.13499242 0.051588386 0.092936255 0.11055235 0.007705706 -0.18720327 0.07889992 0.0021696498 -0.035512924 -0.10368149 -0.04575801 0.14870678 -0.08267871 -0.1319921 0.0659978 -0.018231379 0.008662659 0.024322461 -0.010449282 0.07909507 -0.027020752 0.035336435 0.0954616 0.005249345 0.14509866 -0.03535444 -0.04149198 0.04472293 0.043171145 0.13203198 -0.06302023 -0.08879731 -0.09072382 0.011191056 0.08658831 0.050526787 -0.0030510188 0.030397685 0.058070786 0.17690063 0.031323798 0.06930586 -0.043986894 0.08901503 0.12967934 -0.099007614
0.06822166 -0.010764293 0.030605111 0.11671194 0.09846124 0.025223052 0.15115194 0.026437119 0.10901035 -0.06876589 0.12059694 -0.06690009 -0.0483172 -0.107746735 -0.02124382 0.0006954561 -0.02816022 -0.06585958 -0.10432525 -0.12834477 0.09849711 -0.03369559 0.08295472 -0.032409087 0.0020370833 -0.06714331 0.19120872 0.037160523 -0.056450617 0.10131564 -0.07584639 0.11469788 0.047084503 -0.077980205 -0.052815534 0.06468005 -0.01566405 0.060808025 -0.1019641 0.11045566 -0.058171984 0.098848715 -0.09438666 -0.045882568 -0.079515226 -0.10380133 -0.028565176 -0.11659253 0.10741761 0.026758527 0.030840317 0.12288666 0.061486647 0.12968142 0.07073839 0.0786947 0.00066283415 -0.033364892 0.15056698 0.06382236 0.12831359 -0.042495772 0.025873281 -0.052224476 -0.0031544133 -0.025252944 -0.10576233 -0.2077707 0.21577945 0.09097831 0.01376589 0.18139452 0.061310697 -0.041774426 0.024633307 -0.020054622 0.038820412 -0.1474017 0.0014746828 0.054074734 0.0028201907 -0.059108857 -0.083204634 0.08117308 -0.022610033 0.13093409 -0.042149585 -0.032536816 -0.056612816 0.124629416 -0.12643684 -0.018897776 0.07971808 -0.10328614 -0.11224272 -0.081527025 0.13522875 -0.008693324 0.037779525 0.1579157 -0.071637005 -0.10754337 0.010501645 0.1103781 -0.016046284 0.061089505 0.091974065 -0.041391544 -0.05814172 0.06632499 0.023630826 0.02953032 0.12673578 -0.034398258 -0.033578552 0.13813259 -0.09994621 -0.038916666 -0.062120836 0.024415191 -0.020944653 -0.03837089 -0.074301556 -0.0070090396 0.00994322 -0.035552137 0.032534488 0.1193067 0.14924856 -0.15617445 -0.06857047 -0.13666682 0.16303414 -0.21731745 0.01617658 0.099356234 -0.07057603 -0.16854563 -0.030048717 -0.027247537 0.084235564 -0.056720782 -0.12906778 0.19467461 -0.042357225 0.082526855 0.021141447 0.114609964 -0.13706091 -0.081860624 -0.1217934 -0.015402276 0.08193752 0.057420913 -0.10556629 0.09555359 -0.086709574 0.03463855 0.009411516 -0.019462263 -0.008428618 0.3232179 0.06642948 0.0896052 0.087149695 0.031472567 0.12679407 -0.016686678
0.037713524 -0.026010767 0.0018993148 -0.08274757 0.100670695 0.06146127 -0.1022085 -0.05251087 -0.14010362 0.07810686 0.13846885 -0.10253919 0.107817575 0.08510325 0.05794181 0.078856185 0.06983967 0.08828413 0.103914954 0.09155328 0.055672172 0.021198167 0.070699885 0.15077007 0.0072047515 -0.07138622 -0.055238456 0.06385637 -0.10328152 -0.12835403 -0.116192855 0.025838714 0.12385175 0.056974784 -0.09963078 0.059833873 0.024138283 0.022881625 -0.07248944 -0.06387573 0.011076899 0.02009214 0.09552132 0.07689183 0.08197024 0.0248685 0.07338494 0.08063926 -0.11010247 -0.030588472 -0.041328285 0.08968164 -0.022453118 0.092704184 -0.023751097 0.059516866 -0.10023257 -0.08760077 -0.0274081 0.06361742 -0.06207416 0.042584438 -0.11858612 0.0014210916 -0.01992666 0.013147799 0.08060742 0.05885955 -0.11057993 0.09045719 -0.011109976 -0.0925087 0.049588684 0.105398506 0.15393585 -0.0899108 0.005788613 -0.11215292 0.00010399183 -0.13955313 0.08671606 0.11591714 -0.020606259 0.113462485 0.1011691 0.019785875 0.12179997 0.07254075 -0.08795712 0.060895424 -0.112161286 0.08722398 0.06683626 0.012147192 -0.047746945 -0.13453433 -0.009139586 -0.03578595 0.042769153 -0.10645273 -0.0051264963 -0.096615516 7.7041084e-05 -0.013803911 0.089984804 -0.09681675 0.024017638 0.12502454 -0.082870066 -0.008581609 0.07602652 0.014959442 -0.07987152 0.0372976 0.043766707 -0.05680746 0.09805523 0.04718146 -0.15398508 -0.040643014 0.07339241 0.00015293762 0.025565874 0.089750424 -0.10655918 -0.018428216 -0.037926495 0.016112283 0.04442886 0.03140462 -0.04048634 -0.118602194 -0.010366525 0.08766553 -0.07560752 -0.11508388 -0.027965976 0.05253307 0.13335471 -0.081068754 -0.11342564 -0.07702274 0.022293469 0.0681061 -0.08746892 0.0910637 0.022663748 -0.04783764 -0.012549873 0.08277717 0.060702085 -0.120483525 0.036531363 -0.08337519 0.005915268 -0.07350242 0.06510156 -0.1494476 0.12897927 -0.006849475 0.10888935 -0.08339023 -0.093591906 -0.11241386 0.087039806 0.016406039 0.06728948 0.0065910215
-0.057984658 0.057825867 -0.10772112 -0.04180798 0.10656983 -0.022193823 -0.00805861 -0.11353101 -0.08801249 -0.08804728 0.063949935 0.02335012 -0.05725099 -0.12079197 -0.1294032 0.10146734 0.0008577642 -0.09967777 0.013089735 -0.087685116 -0.040800653 0.005584972 -0.055609725 0.050771117 -0.007254544 -0.117934585 0.12112749 0.03357159 -0.0986224 -0.080557816 -0.11008302 0.08198335 0.12489073 -0.13447757 0.08819271 0.11521656 0.06914087 -0.023936711 0.039386187 -0.005282222 -0.026123594 -0.0055779703 0.10164745 -0.0012679475 0.05609794 -0.006113509 0.032008976 -0.12962009 -0.10679462 -0.12099133 -0.09334956 0.12294792 -0.06551293 -0.09667752 0.010792457 -0.011384948 -0.027112767 0.10358576 -0.032787766 -0.03647595 -0.10843404 0.047716044 0.1281231 -0.058134876 0.09061388 -0.069989756 -0.07767041 -0.0041408925 -0.10591193 0.114010535 -0.065558985 0.03079162 0.13225608 0.097161934 0.06352807 -0.00054210675 -0.10094409 0.122734986 0.06608655 0.07023479 0.022722298 -0.049810503 -0.08890185 0.10296002 0.1812559 -0.07951502 0.030617751 0.02615421 0.12689467 -0.05516461 0.046690743 -0.04446778 -0.025843777 -0.031372815 -0.06348595 0.03743272 0.08234492 0.044764046 0.046867914 0.12435321 -0.11879462 0.008610504 0.042531013 0.10388218 -0.042281132 -0.08158596 -0.04674755 -0.08068947 -0.06909316 -0.007670182 -0.05467779 0.032539885 -0.095676586 -0.121030964 -0.07282837 -0.031914562 -0.0057672923 0.0022897678 -0.070563205 0.019476106 0.054360718 0.0720047 -0.05099257 0.1217094 -0.06688573 -0.046862606 0.06966301 0.0042824373 0.061260805 -0.08762029 0.012945196 -0.038527973 -0.013623635 0.060302366 0.061276175 -0.043872707 -0.1158992 -0.12947026 -0.062060114 0.10347481 0.060186714 0.07038884 0.046983566 -0.014784674 -0.123337135 -0.077810675 -0.05718718 0.067480765 -0.00055172807 -0.08680055 -0.018775897 -0.11765711 -0.055528108 0.017028622 0.085137844 -0.06636511 0.14495803 0.027782675 0.11556538 0.102102995 -0.15422475 0.10248302 0.0065093436 -0.038635843 -0.002300476 0.051408373 0.12045845 0.052326277
-0.012023855 0.020785823 -0.15051654 0.006122596 -0.016912002 -0.014420958 0.08605314 -0.0054475213 -0.040939543 -0.03397525 0.00077806646 -0.0038670101 -0.009371838 -0.13153641 -0.07818566 -0.018022869 -0.047355086 0.13296823 -0.16047463 0.06978753 0.075467795 0.020476991 0.037383124 0.135932 -0.13364525 0.07588691 0.10874282 -0.17756474 -0.07443413 -0.11536071 -0.109606095 -0.05101131 -0.16085096 -0.09867733 -0.035506874 -0.041852657 -0.14153369 -0.0011463334 0.075602576 -0.037307233 -0.07779099 -0.034988496 -0.006908056 -0.0915303 0.194217 0.030017713 -0.09976126 -0.113550425 -0.13443285 0.1720565 0.025354678 0.07968404 -0.034165267 -0.009332154 0.06097049 0.00038116763 0.13519078 0.13050227 0.11083703 0.11255554 -0.06853894 0.03640337 0.13324156 -0.044296276 0.07034614 0.10683643 -0.036565635 -0.094609365 0.09808265 0.028755002 0.0040458515 0.17085919 -0.06452482 0.11870942 -0.14868554 0.003186592 -0.028241318 -0.024660993 0.031093113 0.08730202 -0.081476025 -0.057135444 -0.012433444 -0.0416654 -0.021494225 0.04235869 -0.080629796 0.044441856 0.10278315 0.024649112 -0.07507284 -0.026029792 0.101231866 0.0092939995 0.08670391 0.1302327 0.13871679 0.04066887 -0.18304026 -0.14656468 0.025892943 0.09356745 -0.09412999 -0.11477315 -0.011935533 0.0022763857 -0.08159136 0.08504347 -0.07582228 -0.08920981 -0.1232153 -0.0064784824 -0.10050729 -0.034071486 -0.02709342 0.12409039 -0.032909323 0.10243824 0.016337765 -0.037727326 0.06455046 -0.04898199 -0.10780452 0.010783781 0.02491862 0.17739908 0.013613303 0.28273255 -0.007641332 0.10444008 -0.13196836 -0.06821555 0.001371525 0.3802795 0.26677313 -0.26953584 -0.1181152 0.16174802 -0.15527277 -0.08457803 -0.01326058 0.10731889 0.13143331 0.13340694 -0.06636731 0.0587326 0.14252381 -0.11524315 0.051194265 0.16110098 0.11484333 -0.11198266 0.120856315 0.022607813 0.10568371 -0.17199616 -0.046763897 -0.14495383 0.03618966 0.019183848 0.1075949 0.057057504 -0.015351334 -0.02795956 -0.10257755 -0.0592831 0.12934546 0.089396045
0.016450752 -0.12665214 0.0039697974 -0.12343481 -0.020091305 0.023015905 0.04831018 0.042761672 0.010428124 -0.038238853 0.10281367 -0.06757366 -0.19681546 -0.087977335 -0.016630853 0.0841598 0.15964076 0.090865865 -0.08217857 -0.21151167 0.028014768 0.021100378 0.15974802 0.13650554 -0.0146293985 -0.13955772 0.046145253 -0.09171745 -0.076381065 -0.19442675 -0.012072696 0.08820164 -0.056074973 0.08072193 -0.1416104 -0.10469842 0.14916453 -0.057721827 0.115642615 -0.14150274 0.03277309 0.06363134 0.034059778 -0.16288996 -0.17130668 -0.06687631 0.14162417 -0.0010717759 -0.06331294 -0.0076051382 0.014350658 0.07477351 0.047404114 0.06755736 0.10072925 -0.0256126 -0.11047664 -0.27766865 -0.055187963 0.098884866 -0.01862158 0.22490779 -0.13154814 -0.10145705 0.05266344 -0.043046888 -0.009708862 0.0073578977 0.09729606 0.04849307 -0.09898243 -0.10172749 0.15387046 -0.049503483 0.003755754 -0.1336855 0.03063935 -0.0038830487 0.0380023 -0.011783637 0.022063084 -0.16504535 0.09993119 0.0069580837 -0.15620619 -0.072877906 0.103312634 -0.00967548 0.09926829 0.1341372 0.072353035 0.07049424 0.02151728 -0.15014558 0.21849827 -0.10740819 -0.12947336 0.032107163 0.07445461 -0.1739542 0.029895836 0.038192254 0.042175494 -0.058946878 0.23467395 0.00919825 -0.07803874 -0.14482714 0.07720299 0.02333257 -0.15310666 -0.03755062 -0.15889323 -0.08809553 0.10163405 0.038196206 -0.092260085 0.12672953 0.111876965 0.10457783 -0.059038546 0.055214755 -0.19160725 0.08909644 0.109730855 -0.0530252 0.02433787 -0.009220826 0.04224953 0.0815628 -0.055720717 -0.063263185 -0.10882066 0.071296096 0.040920965 0.08743596 -0.001962838 0.0070318836 -0.30803922 0.0011827569 -0.0025626887 -0.11413642 0.09461353 0.10345022 -0.01220144 0.13945138 0.1962953 0.032323923 0.108106 0.0012139251 -0.060296975 -0.05494923 0.13710482 -0.018746383 0.113903485 0.11410678 -0.05969577 -0.033702753 0.052546613 -0.0851985 0.038376555 -0.017579187 -0.07883368 -0.064305045 0.0151702445 -0.051151104 -0.10252325 -0.05522035
-0.06560899 -0.09477477 -0.12503399 -0.11369858 -0.03512477 -0.019970573 0.12042897 0.0690464 0.028633753 0.07605606 -0.031246541 -0.012850487 -0.0542398 -0.09290558 -0.053680826 0.16043375 0.07136571 0.053175744 -0.097626135 -0.044322077 0.09985971 0.04255478 -0.086677164 0.10540191 -0.01690491 -0.103384115 -0.10185075 -0.121690065 0.12133902 0.046576906 0.10059692 0.08964657 0.084781796 0.10740628 0.046490982 -0.13335156 0.3376978 0.025068756 -0.11766443 -0.013683319 -0.048153795 0.025417078 -0.01915138 0.029103557 0.20794362 -0.08938614 0.11325235 -0.05909274 -0.03684108 0.07370095 -0.1624558 0.12997837 0.0052783587 0.13813955 -0.033722308 0.06649483 0.07545994 -0.08884809 -0.042791247 -0.072081216 -0.036897108 -0.0018594117 0.019336404 0.0017850095 0.027317254 0.004308486 0.13703355 -0.13670902 -0.37078372 0.07122995 0.029487379 0.037829526 0.045185156 -0.11359059 -0.09462485 0.07400059 0.0331155 -0.081920676 0.063858576 0.0717841 -0.030325111 -0.06490684 0.08417354 -0.03900312 0.020261252 -0.049441576 -0.14752884 0.07354484 -0.121618055 0.08585384 -0.08762909 -0.07677356 -0.08068559 -0.033403214 0.16249503 -0.10628154 0.1329182 -0.056176912 -0.018302113 0.23635334 0.04191048 0.15527813 -0.07225122 -0.073922485 -0.0758291 0.086263776 -0.018192912 0.012308578 -0.0015118546 0.15962574 0.0019584484 -0.034241598 -0.02277172 0.115742564 0.15302144 0.2344057 -0.059982542 0.026151273 -0.13416775 -0.16837747 -0.021733332 0.13346457 0.035726342 -0.09698472 -0.0064941677 -0.002894764 -0.096318014 -0.066412665 -0.09743351 0.06257925 -0.08521648 -0.10269826 -0.09959246 -0.008136368 0.12544595 -0.28419206 0.009799349 0.06252911 -0.119795114 -0.110253334 0.029218407 -0.0762075 -0.0004903143 -0.002001829 0.04523012 -0.069494456 -0.16286026 0.13330881 -0.02426199 -0.04160818 0.05730165 -0.046014912 0.054485068 -0.08323001 0.14568302 0.11210369 -0.04813573 -0.066022985 -0.11165096 -0.08928945 -0.03172586 -0.076677464 -0.09901473 -0.12195227 0.08302302 0.12984064 -0.06157147 0.010424709
-0.0029928638 0.027085636 0.0670956 0.105247796 -0.09991485 0.026569106 -0.026911957 -0.19177228 -0.008765779 -0.024715511 0.17758593 0.16687936 -0.099976875 -0.13244987 -0.008988977 0.21122202 0.081881434 0.016363908 -0.18163468 -0.039158363 -0.002464763 -0.09303958 -0.15056986 0.07233182 -0.012264591 -0.10638799 -0.16840307 0.012235383 -0.27314228 -0.18870603 0.09834653 -0.10000223 -0.020222317 -0.048083927 -0.083440036 -0.06343897 0.0985032 -0.011489924 0.06296287 0.092017084 -0.031783067 -0.0069526844 0.046826996 0.0007660408 -0.09839384 -0.12956713 0.06478689 0.0007261795 -0.0018106921 -0.1346351 -0.090393156 -0.007120465 -0.036252417 -0.076198846 0.007306695 0.102773756 0.022168115 -0.09742291 -0.14429854 -0.009685007 -0.013054714 -0.10424026 -0.17699817 0.1207221 -0.04222482 -0.12683997 -0.0013781696 -0.02469602 -0.11825237 -0.095058896 -0.08363881 0.11628882 -0.02469493 0.07530365 0.17223717 -0.103989296 0.004449734 0.11385612 -0.05673061 0.06813606 -0.06360043 -0.11419627 0.09375872 0.00011129522 -0.03739301 0.057846896 -0.00012239449 -0.14752205 -0.0077046216 -0.085729115 0.1097142 0.004682238 -0.085257135 -0.10629573 0.060143527 0.019606667 0.08497592 -0.09714207 -0.055582743 0.048792515 0.016073503 -0.010658406 0.10697236 -0.17415711 0.21390356 -0.14049724 0.08088784 0.0835638 0.06895385 -0.011787898 -0.1495022 0.109908946 0.026830066 -0.007379781 0.008534736 0.21090236 -0.01944719 -0.0060760025 -0.030287707 -0.001140508 -0.06239566 -0.06396346 -0.090177946 0.080445565 0.055397045 0.030611515 -0.002981888 -0.18359423 0.027123546 -0.10879202 -0.11271071 0.06266318 -0.12747116 0.17660066 0.16010682 0.13014834 -0.047403254 -0.013560504 -0.26354805 0.023045702 -0.14657415 0.089160465 0.050232958 -0.2584307 0.0065285233 0.09593277 -0.08928702 0.054127224 0.02429465 0.12110679 0.20885329 0.107310146 -0.073720776 0.036382284 -0.028874367 0.110394605 0.16398717 0.060707644 -0.020337107 0.08140014 -0.06422134 -0.11536125 -0.09803095 0.09766946 -0.055329368 0.061950937 -0.13758354 0.16482623
-0.044448536 -0.11815374 -0.1051451 0.038786963 -0.12527646 -0.11269398 0.01871843 -0.097115256 0.14991818 0.055826202 0.009420596 0.05501079 -0.12073959 -0.034496862 -0.06968038 0.056682598 -0.115522735 0.060895495 -0.094138406 0.14236586 0.017053515 -0.027634684 0.031334147 -0.013903309 0.067656204 -0.0954457 -0.04263732 0.031978883 -0.006850061 -0.13219881 -0.11461952 -0.13666047 -0.037239965 -0.09671416 0.10153765 -0.08766685 -0.014166792 -0.11835808 -0.0847542 0.04481461 -0.044938084 0.0448831 0.109822996 -0.057347197 0.13473852 0.08563273 -0.108215876 -0.08389656 0.085378736 -0.12298698 -0.056614634 0.085515074 -0.028803159 -0.08820292 0.0727931 -0.14959832 0.060437843 -0.07967748 -0.09707073 -0.104922116 0.003026465 -0.053900003 0.18024229 0.015576908 -0.06712417 -0.084740415 -0.12476224 0.03269001 -0.06219346 -0.06822358 -0.020486798 -0.03343795 -0.0067242254 0.10107247 -0.0035947924 0.044254396 0.042710226 0.035270974 -0.008412672 -0.07125162 0.039617185 -0.054629672 -0.12125303 -0.12498802 0.05782329 0.04106669 -0.052936483 0.0975089 0.12732424 -0.005433524 -0.030686377 -0.12911238 0.13347355 0.115119584 -0.07702303 -0.026072452 -0.048092492 -0.061897375 0.037085965 -0.012531407 -0.07818398 -0.09976929 0.048758347 0.007904138 -0.047989022 -0.07732506 0.0030793513 0.1082685 -0.07226069 -0.06498974 0.09377359 -0.07291139 0.08822542 -0.04493738 -0.00923116 0.019234195 -0.07289497 -0.12711903 0.012635446 0.13565603 0.033660565 0.12966771 -0.10567934 -0.014382142 0.094296426 0.1199334 -0.043257415 0.06500663 0.016688637 -0.07552566 -0.10455596 -0.027292676 0.032437563 0.2002962 -0.094944306 0.05249167 -0.025707722 -0.020461377 0.017125038 -0.100947276 -0.03547975 0.110864505 0.05230346 0.09219242 0.09950278 0.088229045 -0.012969086 0.1035179 -0.009454914 0.08509368 -0.077474706 -0.017748527 -0.037259407 0.05052331 0.096532226 -0.085378364 0.02708057 0.15738235 0.071496755 -0.06544862 0.009315469 -0.006976033 -0.035104558 -0.0794984 -0.13074213 0.062810324 -0.034002006 -0.06573058
0.016921626 -0.09068736 -0.048471343 0.09432553 -0.041794803 -0.01752841 0.11545101 -0.06900829 -0.07966747 -0.02175632 0.03855007 -0.04417308 -0.12787138 0.0064670313 0.15770438 0.11295639 -0.015499738 0.046298906 -0.025533807 -0.0040828167 0.007503965 -0.15285161 -0.09440459 0.034508996 -0.08358783 0.06351085 -0.1964391 0.08111017 0.14618617 -0.025927177 -0.14615993 0.01769209 0.086314514 0.063718244 0.075137384 0.06864982 -0.122703575 0.06738196 0.08441352 0.10953283 -0.015497549 0.038176425 -0.004446898 0.0053449017 0.05097456 0.018779377 -0.11277624 0.033755198 0.055672992 -0.055858985 -0.04359852 0.023442611 -0.1304643 0.059473764 0.047065448 -0.09402547 -0.122950494 0.0044345786 0.026382688 -0.022446092 0.13878222 -0.17154324 0.04417264 0.032221716 -0.067380436 -0.017339494 0.0026675696 -0.031324048 0.14002387 0.021514747 -0.10062835 0.09441317 0.10930305 0.023999674 -0.007571477 -0.019584065 -0.087385416 -0.017672615 0.05114015 -0.0032771027 -0.0032454764 0.09765987 0.064718544 -0.102298655 0.09529277 0.12806508 0.17923789 0.06350312 -0.027879823 0.11835519 -0.090741 0.04292327 0.18809274 0.008926264 0.0067021046 -0.025228754 0.09323237 0.054928727 0.052929793 -0.028461516 -0.1867182 -0.05932792 0.12789398 -0.043554515 0.11786634 0.122648284 -0.11530241 -0.098024786 0.11841153 -0.01500964 0.018847765 0.029607588 -0.030601485 -0.17242646 -0.100382455 0.11377098 -0.043905325 -0.020059064 -0.03123627 -0.040345345 -0.030117959 -0.15918961 -0.035328954 0.04449884 -0.03220434 -0.046953227 -0.09169472 0.14840671 0.12415018 -0.015931083 0.00867093 -0.032800753 -0.08024812 0.017071255 -0.033306293 0.12780079 0.022480523 0.05059698 -0.10537255 -0.067824826 0.046469215 0.06406649 -0.13329309 0.17073104 -0.01878731 -0.06379883 -0.21124794 -0.13388269 0.14240034 0.028367605 0.07346066 -0.015867228 -0.083191365 0.10081792 0.05824576 -0.07878042 -0.11506411 -0.04826853 0.05486769 0.008787735 0.13423687 0.13332552 0.11596767 -0.021882571 -0.07493634 -0.10042514 -0.021194771 -0.009233829
-0.0032893086 -0.09533592 -0.055078126 0.11239234 -0.055848002 -0.08071771 0.0029577804 0.11009342 0.028394386 0.036760688 0.0070293513 -0.0011412228 0.16115217 0.11389376 0.062247857 0.057122048 0.026997058 0.15940322 -0.026155042 -0.12056235 0.022279015 0.122728646 -0.03959287 -0.10391063 -0.13042244 0.01866747 -0.1409595 0.02297372 0.043894544 -0.0976971 0.10025314 -0.052817494 0.12877744 0.06306765 0.05882967 -0.24526991 -0.13549982 0.048304364 -0.11384012 0.15496069 0.08513198 0.06254872 -0.047260296 0.019321566 0.091197304 -0.010279953 0.07735001 -0.09557384 -0.11152094 0.029287402 0.040910024 0.0034957041 0.14331716 0.06899845 -0.098753445 -0.061756097 -0.021642474 0.010369137 0.015282271 -0.06826362 0.033269186 -0.07459344 0.08959166 0.122287765 -0.012791002 0.046127338 0.11149486 0.05345656 0.094983876 0.22951205 0.056750916 0.010937905 -0.085845105 -0.112124205 -0.024637923 -0.07362813 -0.041737694 -0.041923884 0.03477932 -0.08436999 -0.08595629 0.13161457 -0.009904381 -0.095193505 0.029767608 -0.08170324 -0.11053253 -0.13825691 -0.034353767 -0.09074825 -0.11691051 0.06851134 0.055411603 -0.011524859 0.082313366 0.08146547 -0.06755857 0.09424462 0.023657508 0.2259117 -0.017717492 0.05083051 -0.106871895 -0.120742016 -0.06531308 -0.016258249 0.09187011 0.057127755 -0.08650751 -0.07348746 0.13100988 0.060317338 0.02196852 0.041464 0.15364674 -0.18695651 -0.05644275 -0.13055983 -0.022800883 0.045982 -0.016091174 -0.10419933 -0.077399716 0.0104444465 -0.16510707 -0.08489517 0.046394303 -0.35304406 0.10993961 -0.07783362 0.09132524 -0.093379706 -0.011932219 -0.15409137 -0.06829281 -0.014884207 -0.0590279 -0.14063154 0.017372634 -0.04114814 -0.023186896 -0.12548596 -0.044095997 0.26110992 -0.08917366 -0.10592645 0.016478935 0.045812007 -0.03857806 -0.00535034 -0.037604976 0.04145029 0.13284154 0.008921943 -0.04717013 0.05572647 0.0457414 0.1341658 0.036878668 -0.13846657 0.009028382 0.09058282 0.044942223 0.058779042 0.05450756 -0.15823212 0.015937926 0.13363889
0.053504016 0.027987016 0.032656096 -0.116422266 0.048288874 -0.0995652 0.08309237 -0.11117624 0.02467973 -0.00967828 0.010951032 -0.082128964 0.122482225 0.0014843857 -0.09958652 0.018032733 0.054251432 0.10790433 -0.05356914 0.09868546 0.059281055 0.101762384 -0.08063922 -0.11813272 -0.13014576 0.07510068 0.047527682 -0.06709431 0.049406696 -0.018271072 -0.061149154 0.080506705 -0.12388711 0.016478458 -0.0028214718 -0.0379133 -0.10564277 -0.10570683 -0.07949373 -0.12510103 -0.05099215 -0.06783987 -0.025231853 -0.07645202 0.0077871433 -0.076060385 0.1032686 0.015048485 0.036709428 -0.024164552 -0.020783447 0.10461351 0.080716014 0.03345531 -0.15213509 0.016937194 0.082541496 -0.1258691 0.003527493 0.03509726 -0.04022666 -0.03493793 0.13889879 -0.11727732 -0.09639691 0.06600609 -0.0951767 -0.0067333253 0.024333661 -0.04488011 0.054913547 0.051432073 -0.097251646 0.10721208 -0.016262831 0.11897188 0.018940344 -0.12674215 0.10621816 0.006113276 -0.14483248 -0.13613291 -0.021739755 -0.019625282 0.058334816 -0.025175547 -0.110877536 0.02269782 -0.10233556 -0.08716682 -0.11743432 -0.048844915 -0.010214 0.079561345 0.0576694 0.108177245 0.08737588 0.076005355 0.07851581 0.07583834 -0.08062758 -0.069984026 0.092011586 0.03667323 0.005886978 -0.092414886 0.04412185 0.09809516 -0.044834856 -0.05528955 0.09686144 0.0972781 0.14488861 -0.065234765 0.119947135 0.046394885 0.059072327 -0.12084825 0.0911625 -0.05040801 0.113249965 0.031694137 -0.13746966 -0.14157887 0.009791017 0.09562994 -0.08951033 -0.07906048 -0.1134404 -0.011149054 0.018855201 0.0019320693 -0.00037073833 -0.16206662 0.02744648 -0.121917896 -0.03439398 0.13573289 0.11182684 0.14383848 0.0820172 0.022180798 0.11434782 0.010078155 0.050274912 -0.09882781 -0.040977146 0.11359025 -0.13393195 -0.0058479407 -0.07616119 0.100462474 0.08348764 -0.10001197 -0.09622154 0.116118684 0.08364946 0.12762487 0.070111655 -0.089874275 0.111572266 -0.06088929 0.090618804 0.10040211 -0.04285165 -0.114015914 -0.066250525 -0.094988525
-0.111786254 0.028169936 0.0048916815 -0.0629215 0.004812588 -0.18501794 0.062274158 0.008241477 -0.019842364 0.06704477 -0.11305738 -0.045561485 0.10946697 -0.0055437814 -0.012632501 0.03212355 0.06436602 -0.08272312 0.083568014 -0.092212036 -0.08478598 -0.13952795 0.015100324 0.18571374 -0.03618464 0.0033449025 -0.20439297 -0.1880406 0.03065036 -0.050644178 0.0979148 0.040810645 -0.0353996 -0.06561448 0.13910322 0.15163364 0.024443123 0.08033635 -0.09836443 -0.1125449 0.109207444 -0.06708128 -0.009232331 -0.08423024 -0.042118687 -0.08916186 0.030920172 -0.096924186 0.11008113 0.045055162 0.10819349 0.018520715 -0.0074557327 0.12148864 0.01840738 0.051639233 0.03754701 -0.029657103 0.09526882 0.10288691 -0.030208755 -0.100500874 -0.10151403 -0.12900732 -0.01912887 0.12983227 0.039053246 -0.035925362 -0.11343848 0.034941524 0.06263897 -0.0029205722 0.0056820503 0.017090756 0.04831171 0.12201667 -0.14861166 -0.0034816233 -0.07773492 0.10572287 0.010473696 0.031971846 -0.077619284 0.08437954 -0.108141996 -0.06998712 -0.17732657 0.05292172 0.020971457 -0.07960826 0.11317259 0.10714084 0.11089907 0.13907856 -0.09693724 0.11403514 0.09181562 0.12098233 0.034989923 0.036122683 -0.06788378 -0.10228632 -0.19457988 0.006299703 -0.025990006 0.074656695 -0.0748324 0.005970159 -0.015554062 -0.09356717 0.06478158 -0.0044550025 0.023458607 0.049157396 0.113363594 0.088948414 -0.03769873 -0.015388447 -0.013652795 0.13272773 0.044739395 0.11084359 -0.054144107 0.05077672 0.13011414 0.09463052 0.08328402 0.038535096 0.14236118 0.17179011 -0.04702645 0.13853638 -0.08077821 0.2062229 0.07045182 -0.13454288 -0.060176592 -0.08819062 -0.03415038 -0.08389032 0.09820465 0.0019146894 0.08647232 -0.031272747 -0.044827763 0.058943663 -0.056814324 0.033059325 -0.07552121 0.14429566 0.05105896 0.048119754 -0.045777187 0.114699304 -0.086595416 -0.20309792 0.08456475 -0.032233216 -0.03494129 0.04124268 0.11704129 0.025252936 0.1205549 0.083115354 -0.047290638 -0.05611445 -0.02022738 -0.121045366
-0.014374483 0.07937768 -0.08947008 -0.068002924 -0.09215612 -0.0023547593 -0.018308235 -0.1262348 -0.1400608 0.1183392 0.08868913 0.05133322 0.07004039 0.0609153 0.036197077 0.09060723 -0.0020413839 0.117613696 0.0155583415 -0.10515934 -0.0093930755 0.052633334 -0.0070532975 -0.050687484 -0.0008811796 -0.09861811 -0.107539356 0.15139638 0.1455704 -0.01488399 0.03473118 0.040876806 0.0710909 -0.115678646 -0.09148424 -0.16508453 0.010598633 -0.060114507 -0.06638249 -0.07359428 0.046842318 -0.09175162 -0.0016043256 0.024985481 0.09901737 -0.022693453 -0.09544533 -0.12042816 0.078996986 -0.14656435 -0.05535952 0.10843853 0.078956634 0.016706888 -0.010439018 0.12894022 0.097973995 -0.09391893 0.04052468 -0.12603346 0.038047925 -0.05979377 0.035576507 0.0692036 -0.08671635 -0.018036291 0.001558979 -0.057743765 -0.020790828 0.054958213 -0.13324921 0.0312598 0.10619612 -0.05004325 0.206244 -0.065782554 0.06418704 -0.10284688 0.07817589 -0.0011772062 0.13319163 -0.07498556 -0.08465342 -0.14271398 0.08723622 0.07865931 -0.088739984 -0.04307944 0.082552016 -0.07710671 0.038233936 -0.083865866 0.064901225 -0.059909005 -0.09410595 -0.07830229 0.13109183 0.03708657 -0.1481746 0.05506004 -0.05561297 0.072657585 -0.06309545 -0.080931894 -0.036893856 0.020950707 -0.006446372 -0.013478789 0.099215575 0.039965548 0.014256498 0.07497716 -0.12060912 -0.019790206 -0.039992988 -0.08191878 -0.087764785 -0.099023506 0.052568644 -0.0030152625 0.17843707 0.028320424 0.12571788 -0.05243988 -0.10996433 -0.10194611 -0.089595884 0.0091566015 0.06554461 -0.158177 -0.12959981 0.03474977 -0.07024496 -0.06956002 0.07986983 0.06819665 0.113294326 0.07814576 0.002564982 -0.095618084 -0.06681911 0.039322745 -0.06998974 -0.010659232 0.025012884 -0.04767952 0.007850668 -0.0488577 -0.14777595 -0.1521263 0.07320678 -0.060198296 -0.078117765 -0.014739816 0.09319435 0.070036314 0.08037599 -0.13140096 -0.077387 -0.0046964725 -0.030429767 -0.15197065 0.067463085 0.09132288 0.15792127 -0.13672489 0.03480916 -0.11704989
0.050731458 0.005722575 -0.07114805 -0.045425296 -0.056402225 -0.062028207 -0.06286417 -0.048267677 0.07553021 -0.023739291 -0.07146704 -0.01905524 -0.061535835 0.114422865 0.12564318 0.044017237 0.026862586 -0.04898285 -0.11881772 0.008741869 0.12929781 -0.07473438 0.1045037 0.06783411 0.07509848 -0.06901455 -0.08495492 0.0824424 0.029950988 0.018541737 -0.059723403 -0.13994038 0.1144951 0.00805615 0.028315112 0.07032183 -0.05508603 0.11629986 0.02608477 0.022591965 0.051162787 0.14788254 -0.09683832 0.11988779 -0.063903034 0.01198081 0.040675145 0.05563461 0.10401827 -0.0010202101 -0.081541605 -0.06308911 0.066150025 -0.0560518 -0.018179959 0.041244917 0.039949775 0.108982675 -0.15448971 0.016655676 -0.006046861 -0.079710625 -0.050172642 0.053453665 0.038139164 -0.119542666 -0.08099278 -0.121161975 -0.024796015 -0.1351985 0.021850877 -0.03486357 -0.1234493 -0.07309683 -0.05970268 0.06794917 0.062523864 0.06306909 0.12826844 -0.06392566 0.115164205 0.05719882 -0.015178808 0.08758743 -0.042505726 -0.050157044 -0.08391636 0.08598322 -0.102396525 0.00013671683 0.07236518 -0.14707632 0.09480318 0.05932822 0.02927002 -0.079490475 -0.036687296 0.04698593 -0.082730815 0.06242214 -0.09717682 0.091061085 0.018952398 -0.13247588 -0.090298 0.05115417 -0.04230518 0.06917174 0.008737423 0.13900967 -0.10149063 0.043869205 0.10481642 -0.04842433 0.023298543 0.14070633 0.11418209 0.1301161 0.033308655 -0.031840906 0.13926655 -0.12081742 0.06518776 -0.009868199 0.061307598 0.010242846 0.09711252 -0.0155902775 -0.0032613706 -0.028957272 -0.02047733 -0.07874005 -0.049934067 -0.018280078 0.020813936 0.097786866 -0.082007915 -0.07251494 -0.1240645 0.10023371 -0.03424101 -0.095941946 0.059277605 0.018091733 0.114954434 -0.114695996 -0.02243399 -0.07611359 0.098583154 -0.07104409 -0.018441023 -0.069364324 0.013233752 0.012183266 -0.005751923 -0.10673166 0.09873153 -0.038233124 0.031135 -0.004906602 0.0050031687 0.003349727 -0.009071299 0.06959094 0.059870463 -0.0351808 0.013568878 0.08521838
0.1293934 -0.090444066 0.07483327 -0.12630597 0.09654463 -0.05433411 -0.10029847 -0.10109257 0.11725402 -0.07172923 -0.09029291 -0.026105484 0.07686588 -0.021601336 0.117805935 0.025565196 -0.059371773 0.09196151 0.11512961 -0.03381093 0.017992899 -0.025683545 0.025667667 -0.0856208 0.05516218 -0.11942183 0.18660198 -0.00899244 0.025462912 -0.14435995 0.006558547 0.11505149 -0.10201346 0.05605182 -0.14268243 -0.10417465 0.12216055 -0.09682853 0.082034566 -0.011488667 0.061726153 -0.01701897 -0.025017975 0.09113343 0.057024945 0.10235501 0.042942222 0.06102155 0.068576194 0.088453405 -0.12079429 -0.07778629 -0.051695213 -0.06605308 0.12596238 -0.06960086 -0.032365683 0.020475775 0.11244951 0.013569224 -0.0642663 -0.015295709 -0.009817658 -0.14211538 -0.0927164 -0.10443498 -0.06859062 -0.032388646 0.05147338 0.03268755 -0.053790998 -0.118787184 -0.040984742 0.051955927 -0.005943132 0.070056565 -0.077280276 -0.04967205 0.009797596 -0.017966077 -0.07804784 -0.011597896 0.0433686 -0.054676104 -0.022288261 -0.005895681 0.053524602 -0.04702628 0.055130307 0.11203814 0.14295772 0.077508666 0.029440131 0.084257685 -0.081096746 -0.00040114313 -0.11861022 0.059800547 0.033189304 -0.10937885 0.015464977 0.020645684 0.0060549118 -0.10299114 0.10573507 0.055581164 0.060228772 0.120335706 0.13738057 0.060605317 -0.07422379 -0.04975474 -0.022078723 0.008794578 -0.10014804 0.053951025 -0.114046395 0.075418904 0.117180735 -0.031267557 -0.10822526 -0.056109305 0.017163629 -0.06603505 -0.0670404 -0.10747616 -0.10384744 -0.0017666997 -0.046820264 -0.035506714 -0.12331548 0.08934443 -0.12629513 0.0731398 0.057464078 0.12549761 0.046322502 0.14567028 -0.012600377 0.08503556 0.037364975 0.098441936 0.010480466 -0.066962115 0.07535259 -0.05521923 0.17521256 -0.0536398 -0.039206788 0.043748207 -0.1442914 0.015666084 0.07918427 0.017845549 -0.114415795 -0.12775843 0.067375846 -0.13146241 -0.03413237 0.016346667 0.032317102 0.0895206 -0.01843846 -0.01980576 -0.07399309 0.1162522 0.0802642 -0.018094309
