-0.04858313 0.13270864 0.002305181 -0.01990239 -0.05767625 0.07117058 -0.13872427 0.075697646 0.06712637 0.024717685 0.06627048 0.007367088 0.099033944 -0.092074886 -0.14364368 0.0064349193 -0.026276765 -0.11809114 0.14487104 0.09178114 0.053846896 -0.023570139 0.045709964 -0.11309409 -0.070884965 -0.020101545 0.020398188 0.033552546 -0.075166576 0.08319209 -0.07046386 0.13972445 0.028067471 0.115250416 -0.050777476 -0.051461212 0.08292446 0.11267218 0.09516368 0.05830105 0.07166312 0.093902595 -0.07380317 0.009894444 -0.017082823 -0.037992567 0.117085494 -0.10774589 0.103153154 0.11778223 0.10090055 -0.121682145 0.009037826 -0.033736527 -0.015450231 -0.044850037 0.09475375 0.03917286 0.06340583 -0.064792186 -0.039419897 0.008184215 0.09043825 0.07852369 -0.13497108 -0.09210653 0.111876085 0.039777327 -0.0066235675 0.017066156 0.14624047 0.07988211 -0.10314444 0.0065918863 -0.011368493 -0.0027269542 0.11614902 -0.11131931 -0.018732412 0.11536325 0.10955516 0.09463148 -0.11731796 -0.06958038 -0.057768423 -0.07444619 -0.0073790085 0.11958264 -0.13581729 0.06015063 0.15555419 0.061339103 -0.074236296 0.13000323 -0.10941029 -0.10958974 0.0972274 0.104818724 -0.07760233 -0.06266918 0.08392436 0.089014076 0.13973436 0.104093425 0.019740373 0.121636555 0.1100232 -0.03982668 0.047049876 -0.09778125 -0.09715141 0.03945537 -0.03696995 0.099444516 -0.030369619 0.015707124 0.086012214 0.019513594 0.05114943 -0.022095095 0.053174783 -0.13221559 0.057849508 0.123920046 -0.112979025 -0.12075057 0.03524275 -0.0794807 0.1326079 0.0026575723 -0.03063562 0.0016533601 0.08781696 0.114736274 0.08686727 -0.11779043 -0.071877025 -0.06608631 0.049304035 0.07616098 0.016334483 -0.032361556 0.008485098 0.0012641776 -0.076107666 0.12453354 -0.10556001 -0.08773692 -0.07239943 0.075284705 -0.051566724 0.0054458757 0.018342651 -0.13678356 -0.14084302 -0.10006327 0.10726772 -0.09811483 0.094709575 0.041220594 -0.0030602475 -0.005272467 -0.10223488 0.09213489 -0.012198866 0.10367472 -0.056974582 0.13509053
0.11959996 0.0044661886 -0.02455877 -0.12608421 0.08220861 -0.06036143 -0.043565914 -0.14509718 0.033936396 0.14522198 -0.050298717 0.097448274 -0.081315555 -0.031318065 0.04074215 0.055652387 -0.07534471 -0.022172445 0.04301113 -0.07264364 0.12520044 -0.13363184 -0.10408316 0.0094028935 -0.058502052 0.099104665 0.08607139 0.107493244 0.024426179 0.09782759 0.0025878039 0.13743757 -0.15226416 -0.047500562 -0.06730724 0.042425033 -0.060605936 -0.14546698 0.06067053 0.086320676 -0.058303062 0.114236504 -0.034270506 0.124034934 -0.10018829 0.08545639 0.0028439087 0.022266133 0.057414852 -0.06970272 0.015535983 0.030851157 -0.09829673 -0.057718217 -0.11762465 0.12515618 0.14468957 -0.18402338 -0.078291625 0.08066034 -0.07018022 -0.18723488 -0.01622869 0.045805335 -0.4468218 -0.055493996 0.05815786 -0.12731451 0.11434737 0.07284133 0.14376102 0.07663553 -0.080732055 -0.027234824 0.10971174 0.010696288 -0.07747624 -0.0076560774 -0.04465674 -0.2150225 0.050125033 0.055622216 -0.051837686 0.1341302 -0.012858793 -0.012795492 0.08098373 -0.07686287 -0.014635976 -0.110821255 -0.0046584043 -0.09785495 -0.07046724 0.0029072578 -0.06021599 -0.21729247 -0.0025445675 0.14720552 0.03463515 -0.12059247 -0.03941518 0.23107387 0.046224087 -0.069178365 -0.11664662 -0.18514664 0.022148846 -0.04321304 -0.13549373 0.026376117 0.10014523 0.104532376 -0.07452567 -0.0579561 -0.015733344 -0.059135456 0.06228639 -0.12781517 0.11777339 -0.058480527 -0.009392598 0.10007199 -0.06566816 -0.08900145 -0.15799356 -0.06176827 0.022224521 -0.01457529 0.080300026 -0.053847745 -0.023672137 0.117366835 0.055821665 0.11213019 -0.03530285 -0.07067369 -0.047886897 0.019281711 -0.07022484 -0.0993296 -0.025365379 -0.07266698 0.13042717 -0.050176132 0.14781745 0.1595187 -0.020450737 -0.08597386 0.018110327 -0.050095458 -0.02724328 -0.052970365 0.01012919 0.09647098 -0.097641364 0.07100925 0.03291339 0.032096945 0.06410992 -0.094389684 0.05042372 -0.082324035 0.093525335 0.100817665 0.06463656 -0.06121059 0.06533083 -0.084713936
-0.11329328 -0.05887747 -0.14672773 0.10700886 0.18472028 0.03967648 -0.10074793 0.07084619 0.025365146 -0.07338073 -0.1441395 -0.035723485 -0.06469832 -0.13919605 0.1409355 0.0069826865 -0.023020793 -0.07177626 -0.26510987 0.0006465057 0.05854103 -0.010917246 0.08768177 -0.004617879 0.05740371 0.0628422 0.09280451 -0.09079888 0.04413364 -0.08454047 0.037248064 0.10715291 0.1299274 -0.027242796 0.13906597 0.084350236 0.14862296 -0.056186415 0.12724468 0.12989765 0.11265891 0.049054876 -0.05944879 0.024328215 0.021676697 0.10149498 -0.10513664 0.10031697 -0.098365515 -0.08903244 -0.069564894 -0.14726676 0.12713596 -0.08791967 -0.028898777 0.09737974 -0.13188444 -0.020505773 0.10055188 -0.1543388 0.09261677 -0.06754077 0.0021728135 0.049429014 -0.0533772 0.078379594 0.0032788864 -0.10097273 0.047214914 -0.048524223 -0.19899276 0.09427639 -0.042978704 0.23116544 -0.064858496 -0.07321419 -0.013623387 0.06626829 -0.034057654 -0.09426231 0.074668385 0.038682003 0.13431647 -0.03255533 0.09944595 -0.06549982 0.04216962 -0.08133349 0.0026648478 -0.24950622 -0.023135956 -0.079928726 0.038423903 -0.08221993 0.054558527 0.03659502 -0.016088266 0.12259601 -0.056841914 -0.038980767 0.059265032 0.008503088 -0.10446475 0.017997736 -0.02121853 -0.044449147 -0.04885572 0.14012726 0.079077415 -0.2286012 -0.06594253 0.016547864 0.1221864 0.024807215 -0.17247939 0.037666544 -0.033543617 -0.027562326 0.088157624 0.13368346 0.08684961 0.1528634 0.048123658 0.031177383 -0.11813678 -0.0016264082 0.022049064 0.055724334 -0.015808392 -0.00841109 0.095056176 -0.031202465 0.061046023 -0.19419125 0.12540457 0.056387965 0.08211887 0.034511715 0.21397221 0.016057178 -0.15241127 -0.029898282 0.042052373 0.017247325 -0.106079 -0.07860839 -0.08404098 0.08564281 -0.07782012 0.08114844 0.10407658 -0.04639802 0.09640577 -0.15094988 -0.025879186 0.020042004 -0.14337486 9.959466e-05 -0.09113643 -0.10944714 0.0475825 -0.09859096 -0.05063719 -0.1340673 -0.092796385 0.0026457075 0.093483984 -0.031614833
-0.024121057 -0.04843389 -0.10348186 0.04897533 -0.121209964 0.010308564 0.015311703 -0.04893449 -0.09010284 0.023149382 0.027713211 0.04015874 -0.15172306 0.033252098 0.089743726 0.020820305 -0.057448607 -0.06953197 0.04023494 0.16198252 0.067321755 -0.055281587 -0.14770387 -0.09488149 0.13082187 -0.11575201 0.104290105 -0.098932445 -0.109527975 0.00619399 -0.13638858 0.22633614 -0.07357507 -0.13703695 -0.11646898 0.025619555 -0.08761372 0.029565835 0.07841441 0.11325624 -0.04178598 0.06927914 0.040686615 -0.04271882 -0.101592645 -0.070885725 0.13392465 -0.044235177 0.10619084 0.035009533 -0.06452975 -0.16023646 -0.12731633 -0.07590225 0.0821804 -0.02628971 -0.11301345 -0.025197472 -0.0698448 0.117437445 0.09876475 0.08236456 -0.054505605 -0.031367015 -0.07131905 0.12618452 -0.0572302 0.03282664 0.080895595 -0.020710437 0.08808703 0.1264987 0.12525986 0.15005332 0.083470404 0.06682476 0.0033163035 -0.083946496 -0.08611921 0.018834652 0.12268729 0.15130681 0.075114965 -0.0317215 -0.056076467 -0.05116054 0.10728759 -0.08435464 0.07396811 -0.051143605 0.076339535 0.027786013 0.1371934 -0.0036989741 -0.078310564 0.11186035 0.027877135 0.07080111 0.051722694 -0.0029718152 -0.063440554 -0.017915018 -0.008796971 -0.09958351 0.039747715 -0.12638254 0.09724212 -0.098803915 -0.10364982 0.016818924 -0.0565726 0.121908374 0.08568181 0.12276691 -0.04900231 -0.08020749 -0.10321452 -0.05987751 -0.1432282 -0.05283506 0.011924877 -0.052616503 -0.080543734 -0.054517344 -0.11677478 -0.11126419 -0.061321683 -0.041044388 0.1323983 -0.120883495 0.07587727 0.10731434 0.029973252 -0.00028253338 0.07487982 -0.050013755 -0.055663418 -0.10933583 -0.10581461 -0.06285428 -0.10788272 0.028397685 0.022257479 -0.028212082 -0.054505493 0.12934408 0.10090084 0.022608493 0.10442648 -0.08180547 -0.07237194 -0.046864428 -0.009588376 0.008214894 0.03732431 -0.073306456 -0.034938473 0.016381152 0.084318265 -0.017299902 -0.10608216 0.1035826 0.050532393 -0.029522115 0.026728114 -0.006799644 -0.0148250135 0.11698608
-0.03868426 0.12134126 -0.044888657 -0.112704 -0.086030915 -0.036504414 0.05512952 0.047274277 -0.120068096 -0.01998111 0.0788017 -0.06510832 -0.031987727 0.109290585 0.061557733 -0.08536765 -0.07383646 -0.113173716 0.028733267 0.0117670335 0.031310663 0.10414905 0.07528262 0.0047904546 0.13348661 -0.10628104 -0.03596886 -0.13094606 0.018994287 -0.048632655 -0.02461584 -0.101564564 0.009546926 0.029216785 0.025950056 0.022133686 -0.08662864 -0.11979506 0.054130156 0.010784398 -0.047454786 0.02263618 0.02042321 -0.076994635 -0.12660784 0.120698005 0.1151952 -0.1334537 0.01545347 -0.049295355 -0.018954612 -0.030003784 -0.04609677 -0.13015907 0.043328192 -0.11943693 0.063314945 0.1169308 -0.030729752 0.050637376 -0.0032233864 -0.025007898 -0.011064777 5.9038462e-05 0.13645253 -0.022826403 0.051093098 0.028248133 0.08348601 0.0146485185 0.12238856 -0.06565038 0.1056742 -0.09186049 -0.11984302 0.11459242 -0.04520373 -0.07130549 0.0003578172 -0.07004241 -0.04357919 -0.111168325 0.053900193 0.051072583 0.0006917764 0.06856245 0.050470117 -0.03408676 -0.13254738 -0.037042204 -0.045712713 0.0055375383 -0.10087437 0.108302526 -0.05588476 0.0798498 -0.010920256 0.14067733 0.097004704 0.07551618 -0.017263649 -0.036750358 0.10367564 -0.007045403 -0.106598035 0.001503651 0.12657982 0.010345813 0.08180719 0.0029741712 0.07598968 -0.07438296 0.039540436 -0.013043665 -0.059653945 0.12645394 0.031510398 -0.030410063 -0.05633472 0.025769295 0.1206616 -0.009882861 -0.041584052 0.07018435 0.09121221 -0.07972381 0.04558735 0.067542754 -0.01791939 0.019761177 0.07277461 0.112078466 0.11242599 0.0058843833 0.12582028 -0.064216964 -0.082362875 0.005584896 -0.056876637 0.07532255 0.1261292 -0.0034750123 0.07833957 -0.06307843 -0.113671616 -0.019583428 -0.030511552 -0.044143483 -0.1029516 0.05897504 -0.02403875 0.101729475 0.08935956 0.07411242 -0.09167446 -0.08553929 0.034528106 -0.084419236 -0.011970522 0.08973042 0.0221331 0.114246815 -0.038262915 0.08040387 0.0796358 0.040552106 0.010043267 0.089752816
0.0009793824 -0.080764286 -0.036022432 -0.043293096 -0.0371464 0.112392664 0.06450508 0.026367327 0.079113126 -0.017300848 0.050213628 -0.0062609 0.053382646 -0.118162245 0.07032041 -0.07223462 -0.13113782 -0.018077832 -0.084295854 -0.0044074673 -0.050935674 0.08999546 -0.15209325 0.0682224 0.102111705 0.063196585 0.1284689 -0.03934301 0.05212722 -0.01875466 -0.02417267 0.051388446 0.0011613237 0.10573067 0.02525617 0.09042289 0.07320201 -0.02095619 0.07306841 -0.12352707 0.04288867 -0.035158686 -0.01218962 0.092659205 0.01725841 -0.09074145 -0.023190178 0.12015681 0.05504512 0.12509526 -0.122231096 -0.11422639 0.010574355 0.00095180364 -0.02664236 0.11416237 0.0320129 0.058183912 0.078367166 -0.13525543 0.110029586 -0.11828294 -0.09134603 0.041216727 0.052453324 0.002834581 0.050939724 0.049701545 0.0049363677 0.030461172 -0.1374728 0.10710323 0.048851054 0.084182575 0.08244713 0.04666716 -0.048879042 -0.010610495 0.14250973 -0.06527602 -0.12982324 0.094844475 -0.032171648 -0.008757784 0.09379774 0.10479231 -0.057557948 -0.09185981 -0.115438774 0.028385874 -0.031216633 -0.039914645 0.017253352 0.013909554 -0.068781234 -0.020575382 0.029252307 0.027100872 0.0030492335 0.038044978 0.07906145 0.060635235 0.046508223 0.0963763 0.12250725 -0.06919157 -0.113132074 -0.055527497 0.108549505 -0.09077427 -0.051558543 -0.09052518 -0.09483541 0.05031023 -0.034180347 -0.06709212 -0.025526697 0.093231134 -0.001660358 -0.07494429 0.12460899 0.10145562 -0.10222486 0.07858159 0.14021651 0.032133605 0.09571875 0.15501694 -0.07629993 0.0065245833 0.07041089 0.06212194 0.11243237 -0.06028878 0.021107292 0.10129477 0.093376264 0.10740417 0.06605181 -0.07558786 -0.0011517745 -0.03932983 -0.034543335 0.0989002 -0.13434026 0.08111863 0.12534824 0.0914698 -0.048939306 -0.05141529 -0.027209511 0.035345186 -0.0815116 -0.05234591 0.0328424 0.041093364 -0.07768672 0.09614597 0.044694938 -0.015835296 -0.101233505 0.04250199 -0.10229518 -0.10786593 0.087921955 0.05623471 -0.10616212 0.0059557417
-0.08994571 -0.090342306 0.086169 -0.14857341 0.066646576 0.056762904 0.106301606 0.014365002 0.033461925 -0.1498867 -0.13011882 -0.07860968 0.013983074 0.05951872 -0.038517278 -0.09814089 -0.09020808 0.066363476 0.023908863 0.053150855 -0.00028643923 -0.0042504347 0.08405249 -0.07497693 -0.10577967 -0.09971636 0.005095982 0.055228952 0.058516208 0.017475849 0.02644889 0.055407427 0.105796896 0.068549074 -0.023594785 -0.06748832 0.095397525 -0.08391812 -0.009428802 0.025908899 -0.041794993 0.025712334 -0.123546004 0.100689836 0.012093663 -0.00637477 -0.050010204 -0.096964814 0.09430147 -0.13396727 -0.032587647 0.076535195 -0.07978354 -0.07973478 -0.04593081 0.10209011 -0.021495102 0.07956764 -0.106555656 -0.0077731544 0.040528756 0.052753273 -0.045013554 0.026591355 -0.05939006 0.0605565 0.12453277 -0.08140519 0.0062229615 0.029469302 0.028112737 0.010640317 0.09455966 -0.046207055 -0.0362381 0.06681997 0.004706183 -0.014496107 -0.11557077 -0.040395774 0.07540098 -0.026100649 0.10932206 0.047733713 0.09237941 -0.12977183 0.10889575 0.013815967 0.10726718 0.16124447 -0.042376693 -0.021294622 0.116427466 0.004615884 0.09792367 -0.04120169 -0.06512444 -0.08593608 -0.10219124 -0.09379428 0.11039924 -0.33561516 0.05939963 -0.11953814 0.15489733 -0.045707658 -0.09768761 -0.07156912 -0.0006240932 0.14631091 0.1610008 -0.09746874 -0.057566397 0.035398018 -0.013121669 0.038209558 0.03673809 -0.019109659 -0.0036653948 -0.0558753 -0.03793058 0.101166055 -0.15477233 0.074157275 0.10864266 0.13232799 -0.068217784 -0.005012158 -0.06822542 -0.10354122 0.12377832 -0.008744556 -0.06884414 0.07179327 -0.09771269 0.0490587 0.121172495 -0.0642498 -0.07471522 -0.1039426 0.14161436 -0.11656005 -0.047499243 -0.039588112 0.17991365 0.05479833 0.059496287 0.095223375 -0.04978717 0.1227536 0.01075572 -0.058888476 -0.1184845 0.0018055707 -0.07906078 0.012304781 0.07745787 -0.14891836 0.02010506 -0.122195646 0.114734665 -0.20796059 0.08657253 -0.08430353 -0.005510574 -0.1620063 0.06221116 0.03945647
0.057106104 0.058558412 -0.019721897 0.094744004 -0.12586692 -0.059503667 -0.06726005 -0.07420401 0.02890978 -0.14370826 -0.028406031 -0.047477745 -0.006315986 0.07490766 -0.044937674 0.018604571 -0.06787441 -0.14694706 0.16314735 -0.011167504 0.04820776 -0.09457278 0.115841426 0.039709724 -0.02481639 -0.09670578 -0.09421478 0.07749391 0.013396936 0.04406287 -0.097502254 0.006726087 0.0043377597 -0.058284894 0.016874414 0.1970519 0.039647177 0.1504578 -0.012504154 -0.06429715 -0.09867405 0.0078951875 -0.14906679 -0.021372462 0.010693878 0.094288416 0.0034866324 -0.22577237 -0.0048152767 -0.02190061 -0.003945145 -0.0821823 0.061642125 0.0010297633 0.042290244 0.0004095948 0.048760395 0.21026255 -0.018664235 -0.1383896 0.022169935 0.10939344 -0.11454281 -0.09729867 0.3680441 -0.039081227 -0.068256535 -0.08551338 -0.11139447 -0.12023279 -0.08367365 0.034353003 -0.057717804 -0.13151754 -0.049585793 0.10307927 0.093177706 0.10401777 0.118323125 -0.048297465 0.01977591 -0.17322336 0.022917474 -0.09163408 -0.025165798 0.14131805 -0.066730775 0.07272474 0.2562932 -0.051717564 0.0032614872 -0.09321538 0.07150733 -0.12340301 0.033392664 0.22620872 -0.08896931 -0.14985411 -0.07077142 0.033155154 -0.05577335 -0.022113904 0.08859939 0.015207998 0.037634112 -0.08901154 -0.08887994 0.03659491 0.022873482 -0.11484834 -0.15365559 -0.007923132 -0.019276343 0.13255244 0.1660216 -0.031039255 0.048990384 -0.022939831 0.08668349 -0.07125836 -0.022653451 0.08106346 0.08774035 0.084385715 0.16153514 0.03112705 0.11697619 -0.13051607 0.06940565 0.027511872 0.13201551 0.04579421 0.0033665593 -0.09985607 0.06628812 0.029402928 0.042043444 -0.19427326 -0.023583062 -0.0948933 -0.070897914 0.010209615 -0.047664482 -0.08922266 -0.05574865 0.025134668 -0.021091344 -0.13058622 -0.0076742657 0.09767441 -0.03205808 -0.13061222 0.092123814 0.011799562 -0.08990121 -0.063239515 0.07914859 0.15014733 -0.015188619 0.083857425 -0.010630188 -0.043267854 0.11637963 -0.035895944 0.036814105 0.15437762 0.02089519 -0.016386224
-0.05544652 -0.06424658 -0.039210647 -0.13853626 -0.033524375 0.121695906 -0.09978479 -0.092940874 -0.10540852 -0.019461071 -0.09781576 0.08664189 -0.022462282 0.07829134 0.07985061 0.027928524 0.06596948 0.11354295 -0.054326262 0.009572665 -0.0057884585 -0.13138576 -0.121136345 0.08624279 0.051580846 -0.089663275 0.001720975 0.06537574 -0.11074501 -0.030102756 -0.12027041 -0.07205914 -0.06848501 -0.03201226 0.04068069 -0.11919449 -0.09459074 -0.07696993 -0.0805263 -0.018637782 0.1004748 -0.0357434 -0.008984061 -0.010909214 0.027041107 -0.08022126 -0.025996752 -0.105264716 0.0965578 0.08083903 -0.077739365 0.059452355 0.11883103 -0.030651158 -0.048357833 0.11545065 -0.06434169 0.022329362 -0.026992433 -0.09665384 0.046757165 -0.09735596 0.057351302 -0.11847829 -0.13042615 -0.011238525 0.06067745 -0.025057787 -0.019858219 -0.047080185 -0.10480958 -0.0367411 -0.12964317 -0.09587093 -0.116201006 0.114973605 -0.14097032 -0.008682934 0.049776867 -0.015056031 0.0104991775 -0.02901132 0.055957314 0.066916525 0.06855826 -0.09764255 0.093695685 0.10587599 -0.044257734 -0.00027597052 -0.13520285 -0.050147172 -0.059547246 0.0072614225 -0.059804615 -0.07836469 0.13142504 0.0036523566 -0.013036918 -0.031553548 -0.061938755 -0.05519089 0.062338382 -0.099035844 0.042217944 0.13087983 -0.07802992 -0.044345725 -0.124440216 0.008044575 -0.12128325 0.06684049 -0.04526914 -0.109377176 0.115554735 -0.003056494 0.024126966 -0.03345815 0.06112704 -0.02863009 -0.07706396 -0.031120494 0.031964008 -0.023175523 0.051186588 0.04925718 -0.0758752 -0.11718075 0.122407176 -0.10551437 -0.08933886 0.125287 -0.09366577 0.070066124 -0.08039021 -0.12905653 0.07080372 0.1182383 -0.077841125 0.05797225 -0.01988237 0.06487044 -0.024881989 0.112143904 -0.016889408 -0.016487967 -0.12884665 0.051110584 0.07132125 0.07653886 0.079792455 -0.0021254253 -0.060174983 -0.0018715332 -0.020663036 -0.01501391 0.004643795 -0.008704486 -0.055282492 0.099165544 -0.09965268 0.09832601 -0.0491854 0.06411637 0.03324163 -0.15351509 -0.09768975 -0.004610928
-0.12897608 -0.040750574 0.026862215 -0.0006764165 -0.00043558344 -0.00061622926 0.093958676 0.10552374 0.06597402 0.025141265 0.064993605 -0.014555178 -0.14960958 0.054023724 0.08443424 -0.05304169 0.084162846 -0.00031135025 -0.09115141 0.019297687 -0.07525321 -0.11041912 -0.019532382 -0.060866505 -0.09016366 -0.014699756 -0.097298466 -0.07183999 -0.04053006 0.09785755 -0.09511803 -0.011236044 0.02430673 0.027714172 -0.12952271 0.1280164 -0.083756894 0.032918163 -0.016636925 -0.035844054 0.1131949 -0.007649976 -0.1027808 0.10199832 0.073760696 -0.082729876 -0.06449626 -0.02783426 0.044156704 0.10180989 0.10770086 0.06285976 0.039933287 -0.022643626 -0.0146859 0.117374636 0.0674021 -0.012084563 0.1083405 -0.043377373 0.096146256 -0.09738834 0.11522674 -0.04858036 -0.056758985 0.11972476 -0.10740891 0.11919723 -0.08443235 -0.048875593 0.10187519 -0.066680804 -0.08073639 -0.08716867 -0.08884801 -0.14234272 0.039438523 0.13600886 0.058856178 -0.03347705 0.028179636 0.10198584 -0.0016408955 0.007050637 -0.04323129 0.08082913 -0.0876437 -0.099848 -0.072321646 -0.033473812 0.022781858 0.10346059 -0.115918025 0.04191099 -0.094214104 0.108172886 0.12263532 -0.050469756 0.05896136 0.06732433 0.020101491 0.052659437 0.06717063 -0.12076758 -0.07519727 -0.07686044 0.0075886836 -0.12964873 0.09573019 0.117516145 -0.02741023 -0.018024094 0.014961202 0.07750495 0.09977121 -0.11419456 -0.1292679 0.05931397 0.109696075 -0.069254726 -0.010022149 -0.1414129 0.033343818 -0.05968912 0.07121183 -0.024751155 0.08812293 0.1252327 0.07365747 -0.05654386 -0.11258343 0.077393815 -0.096408986 -0.037410684 0.0029075954 -0.120947614 0.0077104843 0.051854476 0.072490744 -0.02300719 0.1302746 0.058296926 0.10818805 0.032913633 0.04262883 -0.0054642926 0.059500735 -0.111877404 0.065566875 -0.079450615 -0.00876494 0.10877376 -0.0943573 0.057361133 0.10950446 0.03760176 0.096302114 -0.048193436 0.06709979 -0.081342116 0.10103957 0.10071708 -0.019825526 0.10870628 -0.09697062 0.09477511 0.07155682 0.054482095
-0.009276692 0.034328394 0.123006426 -0.06508986 0.003097224 0.05280356 0.06376401 0.029443689 -0.10987744 0.010888699 0.09186024 0.09871123 -0.111306496 0.041104287 -0.0638941 0.08398447 -0.007529547 0.11740052 0.34553796 -0.009206591 -0.046775937 -0.089413546 0.05074338 -0.19453245 0.106391944 0.0533969 0.001198658 -0.104099065 -0.083400294 0.096894145 -0.00040981613 0.07584242 -0.12134178 0.011169606 -0.1356358 -0.012274518 -0.05714792 -0.15944073 0.07272063 -0.015137957 0.017040508 0.007465775 0.034863394 0.08599697 -0.10117963 0.16105211 -0.061071172 -0.025404291 0.11808999 0.0072680493 0.10010541 0.0035856494 0.09221501 0.09714811 0.072668925 0.042996746 0.116897814 -0.033399835 0.23817095 0.076389976 -0.052957173 -0.2157553 0.09146461 0.08249618 -0.16102093 -0.17914009 0.03193777 0.053527843 0.06738355 0.14072132 0.16603039 -0.009063733 -0.03177745 -0.052104633 -0.039015647 -0.04385043 -0.018488966 0.0373512 -0.0130848 -0.01694413 0.09757234 0.101142175 0.07491306 0.033035833 0.044463787 -0.09292941 -0.014567433 0.03252321 -0.16817279 0.06571652 0.008153949 -0.14532045 0.042559493 0.13773769 0.11306925 -0.11777956 -0.09452875 0.061168585 -0.033504196 -0.020168288 0.109670214 -0.17086008 -0.02804085 0.041146234 -0.059436116 -0.068928614 -0.111024074 -0.11079507 0.08675965 0.05002983 0.041860532 -0.053547524 -0.08984776 0.09231054 -0.052192725 0.09051075 0.06069607 -0.14716314 0.104525656 -0.020399638 -0.043080747 0.031748 -0.057164628 -0.04712103 -0.028391864 0.02916164 -0.10915413 0.087094836 -0.113266945 0.008538566 -0.08394538 -0.004704985 -0.101793915 0.12225089 0.052765403 0.11006759 0.04977598 -0.011788591 0.0043771616 -0.035907667 -0.042374726 -0.074175306 -0.003501618 -0.15617666 0.07468082 -0.061345767 0.013920904 0.0532711 -0.054227207 0.08106784 -0.062044133 0.03705263 -0.052096363 0.13124035 -0.1507859 0.002174922 -0.134156 -0.027251644 -0.06627841 -0.07824567 0.08131871 0.011402313 0.16558614 0.12716348 -0.022993037 -0.01566626 0.0013381608 0.09372056
-0.091912866 -0.08216272 0.095804796 0.0007617439 -0.054416116 0.060691375 -0.15154171 -0.123683155 0.1197062 0.11951719 0.095897675 -0.11376025 0.036966488 0.05345368 -0.06835421 0.043495104 -0.052843567 0.04413944 -0.111381635 0.024377659 0.007764389 -0.054297924 -0.12627496 -0.13176844 -0.11448478 -0.11187049 0.03067339 0.06673271 -0.07618932 -0.028867658 0.0981081 0.13473246 0.06139574 -0.038828682 0.09811285 -0.04869622 0.045544043 0.090273626 0.09330269 0.08076004 0.10326608 0.010511163 0.11063698 0.08249496 -0.09003093 0.09752225 0.052538488 0.037785254 -0.039382223 -0.12702551 -0.10770973 -0.056975327 0.12178086 -0.048844565 -0.008860864 -0.01711457 0.022998009 -0.08894862 0.08249353 0.02767053 0.03381554 0.07942259 -0.11498414 -0.07434437 0.041248996 0.031259134 0.09120124 -0.12400829 0.08487209 0.09474505 0.115386 -0.023496093 -0.07016694 -0.10420294 -0.088075496 0.07225897 -0.012157262 -0.009825755 -0.100395866 0.07924056 0.113234915 -0.12409299 0.056326948 0.035274286 0.103383854 0.08027161 -0.06566053 0.12938093 0.034831785 0.044630043 0.07033185 0.026244124 -0.086915486 0.07230212 -0.108047195 -0.093274325 0.11643708 0.02137275 -0.0359821 -0.005079599 -0.09197329 -0.08544548 -0.13320646 0.024212908 0.031884782 0.050285712 -0.0937756 0.13249294 -0.038247943 -0.05762433 -0.02443652 0.011584484 -0.05397145 -0.023579232 0.11506384 -0.09461281 0.05382906 -0.07074439 -0.1176129 0.09599582 -0.090994984 -0.020996347 -0.021912392 0.089499526 0.10231651 -0.09130331 -0.10480755 -0.019734586 0.084533036 -0.029858308 -0.09616363 -0.028682208 -0.08832036 0.08680218 -0.08348984 -0.098676376 0.004511782 -0.12312522 -0.12904675 0.074812256 0.10604298 0.11284482 0.12870125 -0.07198437 0.1267432 -0.14731805 0.12383613 -0.02153412 -0.075957865 0.14006862 -0.00454051 -0.09342474 -0.0675917 -0.072503366 0.08955926 0.016564868 -0.084330656 -0.03370507 -0.09904123 -0.10607536 0.13036811 0.022686196 0.042966623 0.0023644941 -0.012408913 0.14856938 0.054328218 -0.07080769
-0.019750217 -0.07834973 -0.057836697 -0.104982786 0.14951205 0.028503988 -0.080730975 0.11716571 0.13417919 0.045601133 0.12403471 -0.0055180034 -0.005420261 0.044874225 -0.12943327 -0.06256197 -0.013401999 0.02926718 -0.101218306 -0.21522275 0.010045418 0.06237799 0.18818104 0.18059559 -0.007458728 0.13557011 0.0866476 -0.026412956 0.005689564 -0.07147871 -0.011939668 0.05112351 -0.00063513644 0.004330167 -0.17033896 -0.025609683 0.06295193 -0.13844131 -0.10420555 0.012002306 0.057374127 -0.11305182 0.019166252 0.05018497 -0.0084376335 0.0456905 -0.086466156 0.030801225 -0.0042335023 -0.092552885 0.019011244 -0.060539883 0.11042905 -0.07700779 0.007410181 -0.0059559103 0.19638333 -0.05464563 -0.09248846 0.08879067 0.025129938 -0.055129714 0.07367693 -0.01509277 0.01261858 -0.024724262 0.13534448 -0.06933792 0.10195744 -0.2552786 0.059458315 -0.05689568 -0.002962326 -0.12803525 0.22808026 0.13350122 0.011472303 0.014566459 0.024111208 0.010793866 0.088547714 -0.008447328 -0.012532258 -0.0067619793 0.04206265 -0.05977842 0.04213084 -0.031240262 -0.02304762 -0.028809477 -0.007184278 0.025142033 0.11355711 -0.10309614 0.058870535 0.039563116 0.08450539 -0.07484437 0.02776833 0.08635319 -0.018212982 0.056366675 0.19700384 0.047212522 0.17821515 -0.008554469 0.032170337 0.19748665 0.06563763 -0.07255617 -0.04280983 -0.052021053 -0.003811804 -0.16292444 -0.105006374 0.07741424 0.12980418 -0.07881847 0.044597797 -0.050949518 -0.058365006 0.097597875 -0.047310274 -0.046422333 -0.13695557 -0.07510911 0.030813465 0.029686853 0.01926787 0.05203401 0.0795095 -0.045874454 -0.054158043 -0.009164234 0.11452316 0.08576037 -0.07662458 0.12879977 0.04815346 -0.13411082 -0.07179996 0.076123856 0.04068666 -0.068124145 0.0753189 0.04334615 -0.112511046 0.026379857 0.09915404 -0.1041201 -0.02412967 -0.03239925 0.08097114 0.051743906 0.14301418 0.08328175 -0.00934101 -0.040505856 0.11233525 -0.06399683 0.12247889 -0.15180299 0.13215244 0.051124867 0.20786707 0.0035515574 -0.018800696 -0.069813415
-0.068429746 0.011145948 0.031305753 0.073495075 -0.09979883 0.092213534 0.10758702 0.046369437 -0.010170007 -0.11513208 0.10381877 0.08848557 -0.06700157 -0.015846638 -0.1275331 -0.040235575 0.0465393 0.032940652 -0.08501508 -0.13237111 -0.10099339 -0.02971541 -0.09230585 -0.011106681 0.008978197 -0.044762682 -0.08152121 0.12781039 0.07730953 -0.08409333 0.11772676 0.034428455 -0.100234345 -0.043767113 0.031419862 -0.088214196 0.043627627 0.14036597 -0.083087966 0.045281444 0.07427561 0.05381802 -0.074018404 -0.072755866 0.122259416 -0.06534718 -0.038891073 -0.05513122 -0.1288568 -0.07335691 -0.024884503 -0.015570634 0.13347715 0.07071482 0.040367585 0.13305667 0.114961565 -0.09546977 0.10982708 0.0944023 -0.11977103 -0.009087024 -0.079600304 0.0844328 0.054943234 -0.047687013 -0.06260171 -0.006229904 -0.054252304 0.042559415 -0.104771204 0.08314136 0.11979262 0.13915524 -0.1249006 -0.0070433277 0.0041282135 -0.08521595 0.06455272 0.0777208 -0.058835037 0.13153681 -0.0941715 0.079742275 0.11296236 0.014932509 -0.08223813 -0.00059091736 0.03514892 -0.108433306 -0.08490247 0.10344866 0.03184644 0.09726797 0.008754099 0.13492888 -0.10288455 -0.06434942 -0.014135003 0.050845128 0.00841662 -0.013182635 0.07397749 -0.046861153 -0.07087927 -0.028010825 -0.06014583 0.098224826 0.07657707 0.0055358135 0.011748284 -0.07063476 0.1374914 0.045622084 0.108173616 -0.032781456 -0.011276844 -0.111269005 -0.07035909 -0.02068518 0.05060291 -0.04140454 0.07867163 0.009835974 -0.017164124 0.1299321 -0.05429128 0.07389343 0.089503095 -0.05609167 0.09627544 0.032650806 0.10764123 -0.100014664 -0.07685858 -0.020298341 0.008122142 -0.037255097 -0.020242324 -0.10786764 -0.052874546 0.048493795 -0.08309605 0.07857594 -0.009582902 0.13308534 0.1091127 -0.008573128 0.108689845 -0.024890983 -0.04577336 -0.06053117 -0.09168875 -0.08384477 0.11517326 -0.10159771 0.120066576 -0.07989851 -0.03807614 -0.085833125 -0.004120666 -0.00644124 -0.03150755 -0.013676933 0.105787694 -0.07731703 -0.017195955 0.0055593583
-0.017626591 0.012867803 0.07579432 0.06043719 0.07928316 -0.007844606 -0.028877487 0.13190503 -0.12850288 0.07064718 -0.0864004 -0.06491385 0.009524764 0.06120436 -0.08063021 0.06122453 0.006876146 -0.020999214 -0.07715175 -0.014698327 -0.11172409 -0.021903466 -0.1287754 -0.05900002 -0.009971501 -0.030310731 0.028513169 0.11155628 -0.09774236 0.026121998 -0.01033272 -0.036595162 -0.041156724 0.06334627 -0.0119859995 0.005140932 -0.001104592 0.020919979 -0.11822653 0.024110815 -0.12944834 -0.0058771013 -0.08513556 -0.06388754 0.09474987 0.067279875 -0.11713733 -0.07371208 -0.04696782 -0.13011765 0.066094086 -0.10171529 -0.08999757 0.0934189 -0.1059179 -0.10798377 0.101067305 0.03322366 -0.00417237 0.015369448 -0.03276989 0.033693403 0.06363229 0.040620435 -0.08624657 -0.0683023 -0.05073459 0.03827522 -0.06917591 -0.075931646 0.14037637 0.0015518345 0.101774916 0.08208101 0.1347692 -0.102037996 0.07193873 -0.033120718 0.03529643 0.01071868 0.13255739 -0.057400666 -0.019370947 -0.059520636 -0.11120702 -0.035039663 0.015974764 -0.017747492 0.06469972 -0.004507071 -0.021983795 -0.12134196 -0.08630764 0.12484265 -0.024780788 -0.031694114 0.08298988 0.12867396 0.042950254 -0.09596364 0.022282686 -0.055182118 -0.058468256 -0.115521945 -0.09299637 0.07668598 -0.0024546385 -0.09872686 -0.03685915 0.11455646 -0.039136663 -0.005795774 0.068159245 0.015206061 -0.05030828 -0.016112966 0.109776795 0.041213576 -0.0005505438 -0.035158504 0.062762864 0.11407774 0.114137106 -0.055157606 -0.036452886 0.068396136 -0.04981763 -0.03923761 0.13532111 0.009211524 -0.069074735 -0.04336709 0.11706598 -0.056598146 0.13422823 -0.032395285 -0.054985337 -0.12131319 0.05725016 0.023518668 -0.05619121 0.037835434 0.016195733 -0.034146577 -0.112327 -0.0743793 0.0070802267 -0.13821986 0.11276029 -0.088485725 -0.068891674 -0.055932626 -0.12607116 0.034332603 0.069185704 0.041851472 -0.03591457 0.0782671 0.045109767 -0.11951195 -0.10078873 0.116744965 0.03459614 0.07573229 -0.030130312 0.10417078 0.1235995 0.04398569
0.062024012 0.109108195 0.10070945 0.00724077 -0.091833144 -0.061984025 0.10154709 -0.08548838 0.05450426 0.039192818 -0.12270499 -0.06573553 -0.028267026 -0.08185755 -0.009523152 0.04358843 -0.016813306 -0.11084518 -0.09839692 0.08265582 -0.061429746 0.0066154706 0.14939556 0.1341341 -0.11141282 -0.084843464 0.06493489 0.13933697 0.094800346 0.17121059 0.024921868 0.019874971 0.032732297 0.075894095 0.06229884 0.023194628 0.061841592 -0.10867097 0.059229918 -0.13358139 -0.04032184 0.11664889 -0.0669516 0.03873887 0.0826202 -0.07278376 0.014657953 -0.012116021 -0.02627081 0.09731258 -0.12378162 -0.009644554 -0.00824724 -0.10281669 -0.13784902 0.11184822 -0.03311088 -0.094957925 0.054093055 -0.00032627163 0.09295902 -0.0024393175 -0.09406592 0.07681388 -0.089386135 -0.008531208 0.09541187 -0.09482202 -0.02632053 0.030584862 -0.13003464 0.041922025 0.11189185 0.13698971 -0.08129316 0.043116685 -0.059798855 0.020994063 0.080339625 -0.07219918 -0.009580237 0.11453113 0.07515255 0.085003965 -0.11139489 0.06494448 -0.0705038 0.043252405 -0.0037934177 0.05613173 0.020567749 0.12631305 -0.12751977 0.028514352 0.07796309 0.07526495 -0.016642515 -0.010942881 -0.058743376 -0.014712508 -0.050630424 -0.061548643 -0.0279519 -0.13117479 -0.023322605 -0.09559456 -0.009867738 -0.100387864 -0.07201874 0.13501139 0.030261174 -0.13095544 -0.13078187 0.015402689 -0.042648207 -0.07869865 0.13309564 0.09559843 0.11541761 -0.122826606 0.06965043 0.075202085 -0.025120435 -0.043887265 0.032351084 0.10630896 0.0016483924 0.03610191 -0.0406017 -0.08882216 -0.06218931 0.041932177 -0.10386483 0.04723244 0.05280159 -0.050932303 -0.004212773 0.017842168 -0.012570804 -0.09149962 -0.0047056065 0.0008886624 -0.027205324 0.13091525 0.06449058 0.0013283262 0.0021690782 -0.08056469 0.056779094 -0.038127463 -0.02711021 -0.05797993 -0.06082867 0.124004476 0.07967421 0.08657628 -0.057708878 -0.042321764 -0.02009585 0.0711504 -0.124856405 -0.073209494 -0.023130773 0.08167708 -0.08494825 -0.034460183 0.080390275 0.025765883
-0.045480907 0.031775076 -0.07329305 -0.072028175 -0.068677746 -0.058810648 0.07182471 0.12673213 0.005153107 -0.18822317 0.08300035 -0.01897138 0.18887566 0.044276457 -0.05581425 -0.09597584 0.038284983 -0.0011640319 -0.16004518 -0.123445176 0.039798137 -0.07150233 -0.0672973 0.2039721 0.016967136 0.0990967 0.08809843 0.05553254 -0.047075517 -0.008711464 0.06901552 0.0028148533 0.092344634 -0.01813383 -0.13057336 -0.14430939 -0.012364073 0.07938117 0.012462238 -0.119251825 -0.001986082 0.20229425 0.06380023 -0.07125663 0.092162594 -0.046145603 -0.03182012 0.113514796 0.078523375 0.116577916 0.069739364 -0.016188513 -0.026524335 0.075097956 -0.059496496 -0.035046782 -0.042585224 0.12133965 0.011285992 0.08368339 -0.03434606 -0.06338646 0.06666341 0.085592024 0.00991774 -0.05206643 0.041559063 -0.042661596 -0.1316363 0.071138516 -0.06725148 0.035772894 -0.040418122 -0.1180465 -0.09137343 -0.09482928 -0.111854196 -0.14197531 -0.075150385 0.12738265 -0.08418471 -0.026577167 0.03646007 -0.019221254 -0.032495044 0.055889208 -0.040583227 -0.026921067 0.28011137 -0.16964735 -0.038610976 -0.14241095 -0.029775308 0.13009419 -0.0788715 0.107831575 -0.024114521 -0.0016715066 -0.121798456 -0.13569936 0.07007319 0.041220535 -0.09149571 -0.027233118 0.13652673 0.020776985 -0.00528798 0.0091294125 0.0064123613 0.021634132 -0.033636402 -0.16234256 0.04607987 0.011876088 0.089783244 -0.032656614 0.029234767 -0.09195937 0.09168129 0.020403313 -0.07105386 -0.05341579 0.06836002 0.1241584 0.107859746 0.121314034 -0.06613133 -0.09936654 0.056514043 0.0045204903 -0.09081424 0.07958019 0.10543501 -0.12932365 -0.10341224 0.098350234 0.0138800945 -0.129368 0.12048098 0.09509721 -0.119002394 -0.12075132 0.07553589 0.043909766 0.06794995 0.2085912 0.025771273 0.034965515 0.1849672 -0.05417027 0.026545703 -0.07955957 0.09245331 0.0015993237 0.12843812 0.0021553403 0.07630932 -0.12498499 -0.06311258 0.06547375 0.10047951 -0.41430506 -0.04068854 -0.010626709 0.062184103 0.109002 0.09924698 -0.061394
0.043035775 -0.10296668 -0.06894238 0.08113116 0.07181908 0.0924235 -0.046059 -0.0009385288 0.011364112 0.08434419 -0.1422058 -0.08057196 -0.08547732 -0.001896703 0.054686476 -0.042014983 0.083284274 0.030615563 -0.09581975 0.0025887485 -0.012545881 0.13939369 -0.012574706 0.03477334 -0.089944795 -0.121428266 0.070686 0.051690396 0.13524653 -0.0252557 -0.07201386 0.098611124 0.14371943 0.01973233 -0.06385601 0.057465177 0.08514944 -0.15016462 0.038477052 0.07166069 0.03621477 0.035927344 0.14765987 0.06666329 -0.095710166 0.09981807 -0.09235319 0.22405408 0.0671685 -0.115225 0.19681986 -0.03069966 -0.04401771 -0.14828135 0.02330887 0.04691936 0.1379564 -0.17703211 0.02588582 0.06637461 -0.031721503 0.1343092 0.06806503 -0.1307922 0.014496892 0.08541011 -0.09899985 0.005459731 0.11117218 -0.01951691 0.2013047 0.024517663 0.01827608 -0.17702933 -0.021421708 -0.08102066 0.028047208 -0.10584253 0.0036278993 0.03325001 -0.059338085 0.039955568 -0.08919038 0.047271717 0.1463762 -0.12539795 0.081516266 -0.14167628 0.09114763 0.07610901 0.12608366 -0.04423552 0.059388038 -0.084893115 0.095250934 -0.05598262 -0.07230911 0.11396157 0.015948474 -0.12836054 0.019364512 0.17515297 0.055849236 0.12186258 0.1282344 -0.10882158 0.09791542 0.05773021 0.063856654 0.08018249 -0.012409018 -0.0078042424 -0.00072190294 -0.028281478 -0.01661585 0.097383745 0.07162248 0.16086322 -0.09388503 -0.06582187 -0.0014013742 -0.06061471 0.07084891 -0.0727062 0.028529057 -0.10613411 -0.087234266 -0.05513138 -0.040268146 -0.11390946 0.0032062284 -0.13741468 -0.058914933 0.10062226 -0.026267856 0.06839106 -0.103883535 0.23457725 0.1490048 -0.09737206 -0.057676166 0.10478281 0.072777905 -0.12853998 0.09370543 0.11138248 -0.06261298 -0.055597395 -0.14699619 0.074900515 0.03783636 -0.08962403 -0.17162687 -0.009753898 0.100636065 0.010275847 0.123861976 0.011350048 -0.055948406 -0.06635633 -0.024081377 0.1315033 0.064392835 -0.09597058 0.08518275 -0.19955239 0.08788849 -0.09394917
0.09529388 -0.045860317 0.021852765 -0.09637753 0.027573857 -0.007656004 -0.08733824 -0.01677315 -0.0033262814 0.15167604 -0.086766675 0.073545 0.02057861 0.018639602 -0.01633335 0.06399703 0.027821623 0.0883641 0.07361286 -0.09249266 0.102780685 0.12956536 0.02522094 0.039288085 -0.031856626 -0.053360913 0.13734938 -0.10546017 0.023376383 0.12110245 0.04732981 -0.023921818 -0.118893504 0.16793525 0.0131747145 0.037940115 0.057821926 0.13188273 0.1072271 0.1429265 0.038967434 -0.010870209 -0.00080490566 -0.11389422 -0.13849916 0.049956836 -0.0014091021 -0.039604273 0.10184686 -0.13294835 -0.07477051 -0.06649039 -0.06551323 -0.04305462 -0.04513937 0.09305373 0.12975904 0.105545804 -0.039164994 -0.11584415 -0.122258335 0.048109535 0.10221124 0.12796918 -0.08975174 0.05658767 0.03946699 -0.083453014 0.034361593 0.07008404 0.14927915 0.037073467 -0.09041965 -0.109073594 -0.047570262 -0.1119051 -0.07774817 0.072728075 0.13932812 0.0368908 -0.06818329 -0.11172429 -0.0016574296 -0.06468218 0.015068348 0.09499821 -0.06526394 -0.050036196 -0.111844994 -0.089398175 -0.06920475 0.056667477 -0.09664894 0.019679362 0.029045662 -0.07280578 -0.088431895 0.09507935 0.14032272 0.11208517 0.014760752 0.0073962975 -0.09600877 -0.068916425 -0.021508368 -0.10313302 0.12856868 -0.053266484 0.04523865 0.1204411 0.09157703 -0.05052098 0.036077436 0.09197016 0.13972001 -0.0066359057 0.0029192464 0.10058901 0.09902473 -0.010950805 0.045543175 0.07159824 0.0471454 -0.10366779 -0.13975777 0.034311365 -0.009796886 -0.07640451 0.011104756 -0.12206593 -0.06897014 -0.08276754 -0.11754067 0.13399342 0.11779366 0.051299322 -0.024586951 -0.08748397 -0.10026846 -0.043306537 0.13656428 -0.036342967 0.07662665 0.06881126 0.08403568 -0.07320631 0.10679283 0.096283264 0.062071025 -0.038531374 -0.03571298 0.03442398 -0.042086806 -0.007128387 -0.02085993 -0.0015806719 -0.07978119 0.082579724 0.028787756 0.065873355 0.14541169 -0.04664656 -0.038059372 0.0661111 -0.13386966 0.09343609 -0.0066149514 -0.11181571
-0.119856164 -0.02449945 0.1060368 -0.07446291 -0.066518344 -0.015146076 -0.032562383 0.109819606 -0.064435676 -0.09669631 -0.061366238 -0.016652616 0.010484588 -0.08864933 -0.07920159 0.058020577 0.089473605 0.118367106 -0.111579284 -0.0650585 0.027180025 -0.1299517 0.086281195 0.023558311 -0.0056966064 0.06968637 -0.08982701 0.0636362 -0.14103775 -0.12721525 -0.013162723 0.1529132 0.10355037 -0.059096612 0.09232376 0.017502733 0.121057674 -0.041015174 -0.082426466 -0.025519747 0.109090835 -0.060478445 0.04860108 -0.058695216 0.011215248 -0.045718733 -0.0880073 -0.04448006 -0.014642788 0.06316969 0.010840345 0.06437544 0.07464769 -0.06511649 0.06872486 -0.05977072 0.025286488 -0.09866659 -0.0044354144 -0.035609525 0.014744132 0.13140361 0.018294886 0.08874224 0.06887809 -0.01778366 0.11692583 0.10802854 0.08441542 0.029631253 -0.15496807 -0.090393156 0.0136253955 -0.029097158 -0.09258183 -0.13116564 0.11255173 -0.009522342 -0.09675615 -0.08176853 0.0030494905 0.095418 0.001770827 0.124980055 0.13445161 -0.05170378 -0.09410151 -0.075804554 -0.05857972 -0.07697888 0.06475102 0.14106871 0.08283497 -0.07255145 0.072852455 0.08815592 -0.020366099 0.09456447 -0.15166932 0.04542522 0.092875585 -0.06618527 0.07223114 0.037362136 0.09487962 -0.09797931 -0.038861223 0.057106398 -0.052386142 -0.052058667 0.0014318331 0.039017692 0.07144798 -0.0736832 0.013678056 0.025333462 0.0012825595 -0.07269092 -0.04384597 0.04540105 0.07350323 -0.064322636 0.0443991 -0.05752814 0.058333986 0.10305971 -0.09014487 -0.004636501 -0.016521674 -0.0010120595 0.117669724 0.019470714 -0.06307476 -0.14359291 -0.079140104 -0.14736731 -0.0059876726 -0.015834114 0.0017906667 -0.005852524 -0.1555685 0.000985167 -0.030800529 0.05108733 -0.06279419 0.048580635 -0.009247555 -0.08345298 0.11458658 0.00853823 -0.09918538 -0.013227915 -0.035924636 -0.070585206 -0.033042595 -0.018369924 9.860943e-06 -0.07870826 -0.094677165 -0.10813172 0.10341918 -0.10748772 0.11643877 -0.12322532 0.021203998 0.07266407 -0.07200022 -0.0530277
-0.042720985 0.1584809 -0.03365539 0.051086318 -0.06879171 0.1252475 0.06892766 0.07946545 -0.17717332 0.01999799 -0.06695508 0.043490347 -0.10407857 0.08164924 -0.034815535 0.023252767 -0.025469802 -0.138767 0.21059167 -0.10175201 0.12853496 0.07618033 0.026978225 0.06428671 -0.071614616 0.06599424 -0.033796493 -0.027081147 -0.030289836 0.06696137 0.1130002 -0.0030246659 -0.029560626 0.059747074 -0.022499915 0.13432883 0.074624225 -0.018930878 -0.007902816 0.043476306 -0.030119743 -0.15721436 0.07824853 0.14720918 -0.13607262 -0.10021306 -0.018752271 -0.027689265 -0.088927545 -0.105500616 -0.19807653 0.19546962 0.018138565 0.1325721 -0.038038664 -0.07421585 -0.07693061 -0.13887006 0.070140675 -0.20313506 -0.037491545 0.09041155 0.12470539 0.10816923 -0.095313646 -0.01783214 0.016360858 -0.025927437 -0.06456096 0.036802154 0.08422247 0.0008757635 0.038266983 -0.023597373 -0.014349506 0.0139375115 0.011242697 -0.075838484 -0.084241234 -0.08153585 -0.036305737 0.17070459 -0.09986094 0.06688736 -0.1789379 -0.104180664 0.010607081 0.14359914 -0.11620734 0.052821252 -0.039843746 0.1623834 -0.053867698 -0.06076485 0.006921441 0.021294996 -0.06301674 -0.00061109435 0.0875806 -0.101319686 0.05915341 -0.09696027 0.0940624 -0.059634555 0.02707481 0.10344669 -0.114852495 0.12271138 -0.007613973 0.08926867 -0.1570966 0.042969525 0.015520279 -0.07459305 0.06444562 -0.02850135 -0.19444184 0.091279045 0.17900428 0.10834964 0.1357256 0.07193242 0.0114612365 -0.0724074 0.10921244 0.14807205 0.08474976 -0.046281602 0.07154311 -0.068189174 0.035591256 0.029710872 0.040451963 -0.017223332 0.004625573 0.03961213 -0.1356078 0.03261539 0.09295247 0.10047226 -0.02804972 -0.050746057 0.15108828 -0.018338893 -0.00023787086 0.03976893 -0.107632376 -0.12585497 0.136209 0.0061649806 0.15592198 0.086147346 0.11335801 -0.063721485 0.044205707 0.11023892 0.024093103 -0.0030273544 -0.14096248 -0.16473804 0.058744542 0.30689836 0.09176254 0.15239742 -0.10951894 0.061989967 0.06490216 0.13107291
0.053645644 -0.01834747 -0.059835218 0.08266915 0.04412095 -0.08716805 0.036688913 0.077868566 0.05918039 0.097542 0.019886106 -0.06753313 0.025581898 -0.0647312 0.06594045 0.031049408 -0.05432209 -0.090530165 0.029505145 -0.114679724 0.034434956 0.12411761 -0.0046278574 0.03869099 -0.069528 0.13394836 -0.07180373 -0.10053943 0.12751347 0.07235216 -0.006964801 0.00026063176 -0.060056183 0.07947378 -0.1324324 -0.12029083 -0.04702442 -0.10045451 -0.021857997 -0.13269329 0.07948316 -0.08339862 0.037444673 -0.069750376 0.05492559 -0.10182682 0.017762218 0.0009635968 0.018807063 0.06409065 -0.0025644111 -0.057679255 0.036095895 0.03825099 -0.12913066 0.0697796 -0.034443267 -0.1386183 0.032196756 -0.09922481 -0.12927411 0.11447686 0.13439642 0.035028696 -0.030813068 -0.025218224 0.0763438 0.07887893 -0.0389116 -0.030546213 -0.08862421 -0.11875577 -0.060642466 0.081968315 -0.07166804 0.012202568 0.12846442 -0.036741737 0.10351318 0.08001155 -0.1337988 -0.060015958 -0.039851982 0.022528766 -0.035701185 -0.06349737 -0.054772776 -0.030171216 0.07650116 -0.015383492 -0.12226786 0.020900493 0.08934955 -0.08233319 -0.020705981 0.0060574124 0.111854985 -0.11854828 0.021718347 0.0065333736 -0.09491298 0.12575588 0.031518105 -0.13095684 -0.034878984 0.10058802 0.03737581 0.106430575 0.077905156 -0.05030642 0.02314014 -0.0135911275 -0.020548858 0.046221115 0.12006176 0.055722963 0.0029925406 -0.06495908 -0.1317583 0.108431526 -0.09728482 0.1096564 -0.062346548 0.07538404 -0.120797895 0.028257059 0.034297835 0.005695257 -0.1255524 -0.015324844 -0.10854702 -0.071741246 -0.09905418 -0.13317929 -0.12066141 0.039961845 0.07663856 -0.079874314 -0.07006829 0.10738434 -0.007868211 -0.09208243 -0.048686307 0.061581105 0.123344846 -0.08745066 0.13826767 -0.021652225 -0.01758883 -0.119633235 -0.06890408 0.03606712 -0.0045469296 0.13374235 0.13127495 -0.08121283 -0.039739143 -0.102485746 0.009315645 0.059605133 -0.039273474 -0.1274654 0.048339423 -0.00051406573 0.009408433 -0.108448856 -0.014960865 -0.06875501
-0.018247422 0.08723238 -0.077909395 0.10151732 -0.1441097 0.14660044 0.000890945 0.12002589 -0.035462286 -0.032796197 0.07871442 -0.0092806 -0.07885487 -0.09039801 0.036931757 -0.10214684 0.05912998 -0.08030625 -0.042321555 0.11088589 -0.009829464 -0.024679864 0.02863422 0.07099904 0.028191004 0.19486427 -0.036442697 -0.06514422 -0.106029324 -0.08349766 -0.010458923 0.017567204 -0.09563997 0.028079141 0.08904905 0.07606258 0.060125086 0.025948176 -0.014030595 0.052383877 -0.124537274 -0.058824793 0.04619076 0.025330968 0.006221766 -0.038158376 0.06035194 -0.0037132292 -0.13104287 0.017963806 -0.12718847 -0.020524265 -0.06172999 0.048547216 0.11978972 -0.053375393 -0.08986547 -0.050730385 -0.039422076 -0.13902885 0.08784607 0.116729096 0.041775424 0.031359177 0.1192753 -0.015132826 -0.010272708 -0.06364209 -0.10855586 0.060433377 0.015332616 0.07198324 -0.045263957 0.21531701 0.019124711 -0.11980273 0.022350714 0.056427345 0.041415222 -0.019815825 0.08903778 -0.13663653 -0.018405205 -0.042388882 0.027347887 0.044460952 -0.082046606 -0.09944967 0.08835965 -0.1998124 -0.10145834 0.043078367 -0.052203692 -0.092290506 -0.089892395 -0.06713244 0.14315669 -0.08402203 -0.041395307 0.14282176 -0.06910655 -0.05576793 0.06481641 -0.0025963495 0.073089056 0.004683304 0.13103051 0.07883682 -0.11354476 -0.10732998 -0.074836865 0.04887471 -0.05086736 -0.02527696 0.016112912 -0.026326729 -0.14163177 0.15470524 0.064643644 0.042361956 0.12377114 0.088678725 0.028650165 0.098774135 -0.08020911 -0.017300013 -0.06684025 -0.03513777 0.16143064 -0.02044731 0.07142276 0.16143249 0.10854455 -0.07454145 -0.10931604 0.034396637 0.00017638132 0.03912076 0.115466766 -0.12675641 -0.13892142 -0.13558654 -0.08396123 -0.019644922 -0.10055334 0.0029072815 9.571602e-05 -0.048628975 0.039701313 0.059586696 0.11130397 0.021426378 -0.027748285 0.048999235 -0.082272 0.0896746 0.094073296 0.092519894 0.040224817 3.3592893e-05 -0.16394122 0.20383956 -0.04712159 -0.072116844 -0.08137672 0.104565464 -0.0943214 -0.12573639
0.054044157 -0.08141074 0.06828664 -0.16520582 -0.13021648 0.061836146 0.14295961 -0.09312802 -0.09761668 -0.041380756 -0.045857515 -0.02856511 -0.069931515 -0.12593737 -0.100941606 -0.03499062 -0.13430326 0.08086024 0.038280133 -0.017525848 0.08899797 0.0921368 -0.029347038 0.066473074 -0.119606555 0.13977537 0.012448459 -0.110707805 0.054749075 0.05038158 0.13644049 0.07883081 -0.014779985 -0.08255029 -0.09114329 -0.109281935 0.10321029 -0.018843956 0.015429473 0.03543232 -0.08010621 0.051503744 0.011880418 0.113828875 0.061073784 -0.037265696 -0.009499003 -0.05679225 -0.124323696 0.04126927 0.030532548 -0.0039312025 -0.090108976 0.06541896 -0.09059809 -0.12404715 -0.0708325 -0.15718798 -0.09128717 0.06878941 0.10510203 -0.0765552 -0.02734786 0.10611732 -0.08098404 0.036566883 0.05729557 -0.10025042 -0.12613867 0.032841656 -0.09619454 0.11055152 -0.06735221 -0.046166055 0.095348544 0.031350993 -0.07607049 -0.04821861 -0.06386916 -0.016959175 -0.13074383 0.042811107 0.059452515 -0.1173575 -0.070242025 -0.024189403 0.10587645 0.06346436 0.025446648 0.07602446 -0.010547447 0.05425277 -0.035913978 -0.044317294 0.06633286 0.025818333 0.06328418 -0.15714438 -0.09294029 -0.015013111 0.11473875 0.11048755 -0.031204132 -0.0530438 0.092560165 -0.08795978 0.113728136 -0.04834244 0.05225994 0.101812504 -0.015630841 -0.032303426 -0.14014332 -0.06174566 0.021394314 -0.0062597846 -0.11281175 -0.066871345 0.07237417 -0.022176664 -0.065002576 0.12665002 0.10432357 -0.10963289 -0.017373635 0.108807966 0.047779426 -0.06529469 -0.011632988 0.0198583 0.10472037 -0.026526248 0.009199399 0.0036359846 -0.12971343 0.012331241 -0.0697331 0.027790874 -0.03945445 -0.12374776 -0.12006471 -0.04800303 0.013903562 0.09989129 0.019503333 0.03545188 -0.1137008 -0.071311586 0.010588339 -0.015086806 -0.010167625 -0.1429597 -0.1316497 0.07537396 -0.11739021 0.017162988 0.08640187 0.09190778 -0.090202145 -0.06228023 0.09847199 -0.1130991 -0.09762442 -0.0055629346 0.08607671 -0.014183865 -0.030257227 -0.07375631
-0.048492186 -0.041598324 -0.049660537 0.0068633943 0.091732696 0.008816221 0.01098633 -0.073667504 0.18042122 0.046796665 -0.029798225 -0.10133718 -0.20769486 -0.08673022 0.1063015 0.018973812 0.05018004 0.010859284 0.19268976 0.12740381 -0.038680665 0.061810885 0.00013111556 -0.23250662 -0.018146543 0.014106422 -0.10212318 0.033619713 -0.044472337 -0.13378723 -0.15775992 -0.046686985 -0.17657082 -0.04249933 0.06183144 0.008164148 0.010108135 0.01554513 0.044575047 -0.0045238934 0.059356563 0.0030069451 0.09473216 0.041812003 0.015842544 -0.057701133 0.12216711 -0.045586716 -0.124527894 0.037625384 -0.037628483 -0.054336697 -0.060698047 0.1318584 0.09129477 -0.14227065 -0.08340063 -0.24362907 -0.043602575 0.029899117 0.04072281 0.04756019 0.058198795 0.113324925 -0.07551445 0.020059984 0.16340558 -0.078815445 -0.0792273 -0.024939526 0.06451366 -0.03226052 0.033948556 0.014704241 0.030640248 0.0034833539 0.0042112605 -0.07775375 0.13047002 -0.0023109796 0.051121697 -0.019116288 0.01827614 -0.16913058 -0.056347508 0.03845375 0.008134296 -0.13357884 -0.05259936 -0.048523102 0.05639819 -0.06912782 -0.012034711 -0.020913975 -0.05220921 0.11599657 0.14232422 0.032836586 -0.00050446315 -0.023464901 -0.21840517 -0.02394389 0.103369065 0.011233568 -0.12807134 -0.15785287 0.11546986 0.13187249 -0.04098096 0.012883091 -0.066212684 -0.076583624 0.17709842 -0.026619904 0.030448413 0.082771875 0.05738976 0.06550738 0.09897203 -0.0835486 -0.09461808 0.1801789 -0.02803515 0.07469902 0.04903227 -0.015587174 -0.087700024 0.10458007 -0.08631629 0.017004633 -0.052076366 -0.03039913 -0.06425809 -0.018398626 -0.12417065 -0.0361067 0.06914653 -0.17870942 0.08035003 -0.18910582 0.008513272 0.08278024 -0.017537557 0.08415018 -0.032569576 -0.14033008 0.0008393551 -0.14443913 0.17247541 0.033437032 -0.05900318 0.120949805 0.13419096 -0.031252157 -0.025841007 0.027906349 0.010407146 0.10130447 0.043739993 0.060094714 -0.070082486 0.32027903 0.12453229 -0.091521375 0.05028755 -0.059287407 -0.075921394 -0.011711236
0.12042914 -0.07265275 -0.03787088 0.035123352 0.042046793 0.05577761 0.035093572 -0.09205002 0.10832429 0.15181723 -0.0644473 0.07230683 0.0031020122 0.00609915 0.010111311 0.12230812 -0.021702217 -0.021582056 0.028918233 0.08953636 -0.040077366 -0.10087938 0.079729415 -0.06722855 0.038989585 -0.1276752 0.02066407 0.033205017 0.0019019801 0.075018644 -0.0034196128 0.014807936 -0.02255148 -0.023498844 -0.07842089 0.06285741 -0.08308192 0.08801064 0.06615263 0.11616914 0.09451696 -0.03146466 -0.06421009 0.08463661 -0.025495695 -0.044329196 0.08589461 0.06628865 -0.13284306 0.062794805 0.025696998 -0.085938595 -0.04927265 0.039044 0.07659613 -0.017224442 0.14324903 -0.055255115 0.01717693 -0.053699702 -0.07417479 -0.019275013 -0.13277723 -0.04602821 0.028010728 -0.07571615 0.016699754 -0.016240014 -0.089022264 0.11032386 0.064398475 0.013404122 -0.06461619 0.11857914 -0.028867766 -0.09678972 -0.042164534 0.1175016 -0.027175875 0.120475285 0.0748277 0.1022934 -0.09184832 -0.05679256 -0.10172593 -0.039530557 0.117091365 0.0869197 -0.049626224 -0.056789726 -0.026209056 0.05723103 0.057554938 0.07843844 0.037499595 -0.061270386 0.089299284 0.12732162 0.05424278 0.014429118 0.100282595 0.12276703 0.09102378 -0.0394484 0.010506747 0.08898677 -0.051071662 -0.13177055 0.016008003 -0.046892367 -0.075999066 -0.074514724 -0.0019818225 -0.031467028 -0.08382779 -0.03931713 -0.15002955 0.08234063 -0.06994012 0.019149316 -0.11418658 0.0944878 0.069980405 0.030841812 0.0054388368 -0.040404994 -0.08033129 0.055411424 0.0640339 -0.04710643 -0.043631893 -0.02600222 0.109244145 0.040064402 0.048587043 0.10171977 0.0678067 -0.07073588 0.05775743 0.019709842 0.13801312 -0.02500895 0.085858084 -0.13030332 -0.06658828 0.07350584 -0.056269616 0.09677961 -0.04052289 0.12940033 0.07719987 0.118309975 0.01194755 -0.015356584 -0.11440938 0.06778564 -0.04991669 0.1217602 -0.0767626 0.09989048 0.07355219 -0.06264549 0.07952776 -0.100567386 0.029647933 -0.0014286282 0.1183104 0.112283826
-0.064642236 -0.117089145 -0.05806226 0.06788394 0.019571582 -0.010405044 0.06973506 0.12078804 -0.12135203 0.12616225 -0.102401264 0.04196177 -0.012879487 -0.0013993845 -0.022961583 -0.12448062 -0.13867635 -0.03212012 0.055810977 -0.026348852 0.07264027 -0.010616204 0.083020754 0.07264199 0.10153735 0.13217546 -0.10263495 -0.037248053 0.021673933 0.22310913 0.03519255 0.107900456 0.037991513 -0.07968982 0.00044609528 0.11259841 -0.00091677613 0.03473009 -0.055659678 0.06908796 0.09154027 0.12251339 -0.07068919 -0.10942373 0.035886448 0.09482427 -0.05051305 -0.009260555 -0.07894873 0.13341583 0.088258944 -0.06726215 -0.09664823 0.120443545 -0.0879452 0.07507917 0.12559065 -0.07228002 0.086819336 -0.13989237 -0.023797553 -0.116291314 0.07512644 -0.037078496 -0.1671174 0.1040157 0.043212026 -0.09963645 0.12077238 0.06118988 -0.053683367 0.122128166 -0.03616838 0.15107471 0.12830037 -0.12370935 -0.014651478 0.06660817 0.08075963 0.013694596 -0.14539565 0.0015900917 -0.023677573 0.009227036 0.045621324 -0.049065754 -0.07528312 0.113187775 -0.095711336 -0.00652529 -0.09857113 -0.033226695 0.17079216 0.10277259 -0.11868721 -0.08755152 0.12800889 0.048045773 0.099075876 -0.010221823 0.099665046 -0.07054511 -0.004228251 -0.0944724 -0.05644452 0.038900353 -0.08966596 0.05608628 0.13926888 -0.012070032 -0.065616176 0.073194556 0.019389816 -0.039040565 -0.15692787 0.13335383 0.034374423 -0.0924472 0.06519799 -0.09267027 -0.10633717 0.06766031 -0.114008754 0.013554975 0.051428862 -0.109391674 0.05279634 0.1085753 0.099009015 -0.026066879 0.095389366 0.1146549 -0.10093934 -0.10993669 -0.059929695 -0.023102522 0.08532095 0.08983081 -0.00039032643 -0.06741576 0.053900294 0.10200507 -0.057384383 -0.08124406 -0.04905912 -0.0237669 -0.11414731 -0.0695635 0.09745494 -0.08607363 0.0043399176 -0.11736699 -0.09999289 -0.047126412 -0.0861314 -0.03298975 0.013904245 -0.030116886 -0.119573504 -0.024426509 -0.0025847133 -0.0100654075 0.004757365 0.08661576 0.14317258 -0.10787052 -0.11881079 0.085109405
0.04356781 -0.17450552 0.08220136 0.1044968 -0.08972039 0.011416933 0.14295143 0.08923204 0.073831365 -0.11513975 -0.041884072 -0.11022823 0.15218882 0.07990581 0.045285337 0.004893259 0.20837592 -0.005325176 0.19988482 0.028598074 -0.039383598 -0.07282613 0.16445802 -0.35767537 0.093119495 0.12106014 -0.06280294 -0.16441484 0.013195705 -0.013631945 0.07896173 0.094355494 0.030623792 -0.0651475 0.0016295058 -0.04630104 0.04713775 -0.10098536 -0.042702895 0.116522916 -0.036664315 -0.056971334 -0.07821624 0.014061605 -0.036340263 0.09410706 0.008368983 -0.10337799 -0.115894035 -0.04445731 -0.09848201 0.13748243 -0.10477031 0.05064179 -0.046946652 -0.11278436 0.081774056 -0.24407598 0.021037543 -0.01931659 -0.00564753 0.07267104 -0.007999227 0.036914945 -0.06388673 -0.028415399 0.013417864 0.03377111 -0.1021992 -0.061110854 -0.0019972126 -0.08152842 0.018251957 -0.063661784 0.097258486 0.062223624 -0.03379417 -0.002198199 0.03822869 0.010729948 0.10823321 0.031923946 0.054289367 -0.07139493 -0.021907367 -0.038140703 -0.033943366 0.09146879 0.13093743 0.083492845 -0.063097015 0.046956714 0.13440856 0.03393357 -0.04236994 -0.011235115 0.03501296 0.08743847 0.010497191 0.12184212 0.039735273 -0.10779201 0.20978457 -0.11055097 -0.06968616 0.17694177 0.020703113 0.20775402 -0.011802909 -0.19776805 0.09202358 -0.10260947 0.039169252 0.010540041 0.012831278 0.08029524 -0.09489724 0.04167646 -0.021810273 -0.071495585 0.10351898 -0.0193667 0.085301965 0.08726052 0.10184335 0.0346809 0.097102255 0.13080698 -0.022555893 -0.05860886 -0.006453065 0.056592464 0.012078249 0.03541735 0.043008357 -0.03370569 0.111377805 0.061120097 0.16868977 -0.04197736 -0.04369685 -0.050400846 -0.0049382127 0.10258445 0.04903101 0.14231668 0.04335975 0.06124789 0.009038197 -0.040227108 0.08498219 0.14240143 0.112228185 -0.062152788 -0.09682884 0.059076164 0.15946148 0.006273322 0.01451888 -0.031838316 -0.0011420088 0.014613654 -0.093228355 -0.0004076393 -0.04203584 0.047014687 -0.055787418 -0.10638479
0.0046798093 -0.11874815 -0.026179107 -0.07254049 0.05669457 -0.09208846 0.1234196 -0.09636109 -0.12859425 -0.084905446 -0.17750333 0.07011632 -0.089255 -0.08425741 -0.124529555 0.058387768 -0.06472247 -0.1442214 -0.059174307 -0.012166731 -0.10884426 -0.07935787 -0.06917222 -0.03023593 0.07574266 -0.07959344 -0.037448224 0.08782602 0.113673314 -0.036276307 0.0074392697 -0.06495078 0.0416266 0.10788353 0.0531955 -0.07673694 -0.05513375 -0.016260069 -0.13387778 0.03474319 0.017076131 0.035295885 -0.024049321 -0.07571807 -0.060580436 0.051673364 -0.043147836 -0.15214093 0.0536176 0.052275486 -0.039536227 -0.021399923 0.03478051 -0.03598899 0.044999156 -0.095253095 -0.09634472 0.21779668 0.0041432404 -0.10236209 0.054307174 -0.04820666 -0.028142773 0.118762076 0.039030384 -0.089087196 0.063196056 -0.13988128 -0.065864846 0.055819694 0.019293189 -0.17151468 -0.031829152 -0.110168636 -0.061270118 -0.04054286 0.12892137 -0.006872111 -0.034332845 -0.018734105 0.05235648 0.03483436 -0.045892585 -0.021248529 -0.07200571 0.05463106 0.09353862 0.078826755 -0.050279733 -0.17993005 0.07697382 -0.06107363 -0.0949333 -0.04921477 0.0955691 -0.016737953 0.07982898 0.11700362 -0.1514699 0.10865873 0.08646879 -0.018858328 -0.04438134 -0.13459013 -0.15061721 0.087310866 0.06347908 -0.05260472 -0.08593832 -0.00177711 0.110798895 -0.010913261 -0.0037772416 0.022741284 -0.11822827 -0.06431976 0.11321061 0.09854296 0.0518044 -0.094172366 0.041778587 -0.051524896 -0.052144058 -0.074163675 -0.10403997 -0.082265235 0.022209877 -0.01498644 -0.0711902 0.037016727 -0.02164779 -0.016988946 0.007708523 0.104651496 -0.024352426 -0.0707731 -0.011873315 0.023035182 -0.15102042 0.14638515 0.0015847964 -0.07377148 0.07595786 -0.017456718 0.009052369 -0.17443876 0.08569728 0.042312 0.10791266 0.10240161 0.15870814 -0.07807844 -0.12245264 -0.07446722 -0.009829223 -0.07011452 0.023610177 0.02918255 -0.09846313 0.043344684 -0.05933174 -0.105831854 0.07211145 -0.06361125 -0.014658321 -0.07436362 -0.107047945 0.009228455
0.14483489 -0.13413838 0.106377445 -0.04339847 0.08744374 -0.09298819 -0.058274575 -0.048432708 0.09413305 -0.07750847 0.01496168 -0.0543438 0.16717516 0.0026813347 -0.052522358 0.12402904 -0.06496304 0.123339996 0.015405528 -0.079531685 -0.108562805 0.025200594 -0.0069878926 0.037881438 -0.11440958 0.03161205 -0.051278107 0.07322694 -0.093255155 -0.100599095 -0.09878056 -0.17584527 -0.07877589 0.014925872 -0.032421663 -0.17638281 0.07332818 -0.040901903 0.02431523 0.006457284 0.071652494 -0.009424226 0.12322607 0.012360069 0.04804832 0.022565415 0.122705005 -0.1262761 -0.06718414 -0.02834161 0.06600523 -0.0118157845 0.06867562 0.093195036 -0.07044738 -0.115190305 -0.1281803 -0.013087914 0.09685605 0.20490274 0.01592855 0.01905804 -0.06612568 0.086787514 0.13504966 -0.15901218 -0.045599945 0.049615636 0.046962745 0.013647475 0.0887844 -0.13348894 -0.08555238 -0.0364708 0.10818008 0.1451617 -0.08706489 0.06310549 -0.15209751 -0.04208562 0.036691103 -0.043947455 -0.009878475 -0.14933911 0.09504316 -0.10702097 -0.026820004 -0.12914766 0.005586121 0.050170824 0.040280074 -0.036224816 -0.10042953 0.04418799 -0.054381624 0.069791876 -0.1598693 -0.15031096 0.03467374 -0.06843696 -0.10295154 -0.014356305 -0.032790456 -0.10032362 0.16949748 0.0677763 -0.14459106 -0.10907909 0.038461704 -0.07423712 -0.05729828 -0.06497523 -0.11389941 -0.000295127 0.14802481 -0.016883053 -0.07125586 -0.11321348 -0.14269546 0.078644484 -0.09733837 -0.08686342 0.0039783525 -0.12509358 -0.07102309 -0.039868977 -0.12958731 -0.19567616 0.031572085 0.007316822 -0.068442196 -0.0030440136 0.10119187 0.09588342 -0.14995314 -0.04360719 -0.10996702 -0.07752899 -0.035481848 -0.10965981 0.00079982716 -0.06991748 0.05046825 0.047889628 0.13679203 -0.053414818 0.016590672 0.13317469 0.002876286 -0.013767675 0.022868441 -0.060230404 0.07164082 0.15461211 -0.051033597 -0.035851013 -0.13678561 -0.09295648 0.059564922 0.002520146 0.08018508 -0.15169944 0.00963176 -0.10206905 0.03105253 -0.034796216 -0.0473782 -0.081080906
-0.08069667 -0.04152812 -0.09170125 0.13981082 0.007081833 -0.08688375 -0.096809335 -0.012242794 -0.09234053 0.0024398793 -0.13170661 0.030811025 -0.058134113 0.10587026 0.08008903 0.048916508 0.05005194 -0.08735351 -0.1016107 -0.012403894 -0.06677582 -0.07899054 0.09527182 0.12484876 0.062574 -0.014907285 0.037949964 0.102572784 0.027235806 -0.13204397 0.11488993 -0.058297724 -0.048093453 -0.10177529 -0.120372705 -0.073908135 -0.008101011 -0.006366251 -0.09056199 -0.09660936 -0.07559881 -0.08585937 0.0037324347 0.084393606 0.05492769 -0.044104002 0.090941384 -0.0197388 -0.08702306 -0.082623675 -0.11263551 -0.037255157 0.07574055 -0.039034277 0.11611697 0.063195795 -0.034194116 0.04819661 0.071643054 0.09343614 0.063703954 0.0023281781 0.117885046 0.066504516 -0.105648205 -0.124885164 0.090986334 0.06545568 -0.07674941 -0.013021377 0.048082605 -0.040324926 0.03637375 0.09314101 0.10159866 0.12489372 0.0038386276 -0.1392287 0.048245866 0.0951119 0.063878134 0.003844047 0.049640212 -0.06705786 0.12882924 0.07923532 0.046318933 0.01319573 0.010232491 0.04495087 0.056948632 0.14904465 0.04315924 0.12352276 0.12470893 0.11593148 0.07630329 -0.13330427 -0.00893045 -0.022497838 0.1029477 0.13355447 0.018706087 -0.026706956 -0.103066705 0.106233716 0.08032299 0.09239235 0.07744343 0.034227986 -0.046464242 -0.068900906 0.049854614 -0.09472356 -0.085608274 0.089837775 0.1224736 0.043487936 0.13150746 0.06806868 -0.004980111 0.13695732 -0.11022208 0.11398791 -0.0084127495 0.0013141984 -0.060505494 -0.088375814 0.10114993 -0.07897496 0.001718491 0.0706161 -0.045414507 -0.11558186 -0.062429454 -0.03076239 -0.08435916 -0.10121969 -0.062127043 -0.06470253 0.09665293 -0.12663364 -0.006261549 0.050987743 0.062185477 0.051672164 -6.151906e-05 -0.12530014 -0.06646104 0.038435854 0.06437929 -0.09677594 -0.14735089 -0.087108836 -0.13546135 0.12043085 -0.0049174046 -0.1191566 0.05587066 -0.0966202 -0.07906869 0.113689005 -0.092287526 0.13155389 -0.046998534 0.008951357 -0.011915803 0.053191688
0.14166284 -0.1135992 -0.08045965 0.083915845 0.11806148 -0.08595985 -0.08165884 -0.059642717 0.076888666 -0.14645289 0.071556896 -0.023712218 -0.11948198 -0.020707684 0.02925204 0.025510814 0.0640659 0.09150284 0.19929813 -0.07961046 0.051506195 0.08663379 -0.08846834 -0.12725309 -0.038536336 0.085392386 0.0062089884 0.06483684 0.11571846 -0.0890116 0.11561291 0.15167105 0.03118062 0.019784508 0.050134588 0.06856784 -0.14438698 0.050940104 -0.02058066 -0.07591605 -0.03910762 -0.046197318 0.01958456 0.04081073 -0.009097487 -0.10474176 0.080042034 0.10295374 0.06333183 0.025670145 -0.07287841 0.089773625 -0.0015269276 0.08917745 0.05904683 -0.03604094 0.06254946 -0.005067322 0.08831378 -0.07612681 0.02528443 -0.012413876 -0.012605459 -0.060988616 -0.070545085 -0.086171746 0.08248438 0.14033242 0.080950975 -0.10185299 -0.05598697 -0.15477395 0.019730423 0.013321412 0.053429436 0.021538012 -0.0420795 -0.1092608 0.050763622 -0.059444938 0.0025821894 -0.0573962 -0.08324799 -0.08565624 -0.13287437 -0.064961016 0.031144457 -0.04444334 0.12883413 0.13811569 -0.028925562 -0.10600246 -0.004590321 -0.12277867 -0.067183204 0.066029824 -0.06345885 -0.08419278 0.09333588 0.102085315 -0.07776961 -0.2095943 0.09093872 0.032926697 -0.06696883 0.0063916803 -0.036648657 0.014312876 0.07420579 -0.0069550104 0.15530813 0.113499776 0.060517985 0.096223705 0.035666205 0.14136711 -0.07059537 -0.07905641 -0.07959215 -0.058468632 -0.06979007 -0.036198348 -0.08046577 0.08095037 0.14811581 -0.101705775 -0.06720285 0.106009886 0.003086483 0.016242273 0.08678972 -0.10815224 0.037374068 -0.056952767 0.10788094 -0.04310077 -0.021588419 -0.08907494 0.10938625 -0.0948327 0.07267924 0.07879944 0.06356888 -0.014235417 0.13163137 0.08451816 -0.051695343 -0.011128184 0.027264422 0.05079655 0.071007274 -0.0021697592 0.09136823 0.093285516 0.07378981 0.03920614 -0.03653127 0.012797494 -0.04394016 0.13265556 -0.039621852 0.0030306666 0.051746894 0.043723334 -0.1380238 0.064699136 0.04551346 0.052856073
0.105783656 -0.12925199 0.14246012 -0.15736178 -0.039951056 0.05466168 0.054398045 0.074609496 -0.028379861 0.03288589 0.088701926 -0.03981325 -0.016912833 0.08785636 -0.032098003 -0.025812564 -0.020214055 -0.003978642 -0.1358839 0.022499371 -0.0612195 0.10349206 0.031247027 -0.07651208 0.10714717 0.015554093 -0.00644595 -0.100599684 -0.118206345 -0.1326349 0.11666683 -0.12630521 0.10238238 0.0050921477 0.021551326 -0.1241686 0.07995145 -0.08576785 0.06975224 0.019584697 0.09173769 -0.04816375 0.10407554 0.0077613667 0.12427893 0.06711913 0.1019635 -0.08175467 0.0667267 0.064838685 -0.08687592 -0.06249868 0.08250197 0.03557594 0.046008695 -0.019299857 -0.11628609 0.009708738 -0.09104903 0.13176404 0.12277957 -0.04716003 -0.107995085 0.07197681 -0.033652 -0.11456403 0.03529798 0.042673454 0.07112586 -0.13515131 -0.059857123 0.10650388 -0.03228922 0.11629908 0.02369409 0.11298608 -0.11947911 -0.11656774 0.046471212 0.012358849 0.06918778 -0.002684241 0.10985897 0.03817084 0.14414458 -0.092044406 0.022439523 0.047962703 -0.09210635 0.005535447 -0.07625801 -0.0020197134 -0.053401757 -0.08902036 0.028258275 -0.14472099 0.027515184 -0.097150624 0.009085327 -0.096980475 -0.07921572 0.13710803 0.033216238 0.0069387434 0.13409524 0.0970181 -0.031781957 0.05308977 0.09515526 0.0376851 -0.10074232 0.05361536 0.011260512 0.06737958 -0.10205208 -0.09539665 -0.029368922 -0.05181898 -0.02295547 -0.06636952 0.01830808 0.0911283 -0.09716329 0.06868347 0.076371826 0.04283645 0.019215377 -0.14985053 -0.020186033 0.08139136 -0.12999715 0.086662404 -0.05071345 0.08681365 -0.12650712 0.13571133 -0.049102087 0.07991794 -0.07412184 0.118389204 0.028870026 -0.022304658 -0.13424847 -0.08141719 -0.027385894 0.082768515 -0.13477722 0.07110127 -0.037151463 -0.07664932 -0.045312427 0.08361644 0.0631204 -0.07395052 -0.051260233 0.03291557 -0.14137535 0.0010772521 -0.027992604 -0.027326625 -0.089535 0.0183011 0.10047684 -0.11207781 -0.015799126 -0.063601926 -0.11529331 -0.09521891
-0.026074113 0.06009962 0.11393676 0.08870588 0.113874 -0.13885209 -0.00965433 0.066779725 -0.011928639 0.14850573 0.0522292 0.104791276 0.030016242 0.10273162 0.048035856 -0.05765707 0.04002747 0.007435112 0.11715088 -0.10650203 0.055952743 -0.10722025 0.07288919 0.045599952 0.06917725 0.057896562 0.013043642 -0.14682518 0.048548386 -0.15418991 0.07980989 0.06293444 0.047603335 -0.10320219 0.10100297 0.06328708 -0.120381005 0.013064631 0.08280655 -0.013641603 -0.06995111 -0.08057893 -0.061474297 -0.11149387 -0.101099744 0.07906266 0.104346834 -0.00057419244 -0.103349224 -0.06474608 0.07416696 0.055947084 -0.01702389 -0.053606655 0.023963077 0.019496396 0.0314878 0.10328516 0.16894262 -0.09666284 -0.09170161 -0.02897979 -0.10244094 -0.0450127 0.12817244 -0.09567233 0.08054516 0.12019745 0.08461456 -0.068559304 0.16897915 0.10138119 0.12121733 0.08644013 -0.07258913 0.07179726 -0.008797832 0.034409277 0.07021076 -0.02682487 -0.06699313 -0.10793663 0.08904197 0.10975221 -0.07815863 0.01687766 -0.03983747 0.063159615 -0.018524384 -0.028367119 -0.10986858 0.10805192 0.001978894 -0.015577184 0.13576452 0.08600699 0.007728966 0.024562992 0.010444629 0.03404594 -0.07864466 -0.041098207 0.036560003 0.1105888 0.115708806 -0.04619321 -0.10926514 -0.118596725 0.07156717 -0.095725104 -0.02589536 0.05068817 -0.14924851 -0.058603548 0.13429646 0.02299972 0.04654973 0.0049347864 -0.11698076 0.01919825 0.07343887 0.082297064 0.019267838 -0.11875292 -0.039083105 0.045505695 0.028045312 0.11247914 -0.12206541 -0.05088522 -0.09470999 -0.11198222 0.0017920039 -0.11876456 -0.12588601 0.09239837 0.07986681 -0.013992946 -0.06770773 0.004593455 -0.07087784 0.11165109 -0.024752056 0.11156798 0.08273846 0.022764713 -0.048815317 -0.011552846 -0.05693266 0.010004288 -0.01026365 0.07567887 0.10731291 0.041490946 0.023434352 0.0034640713 0.08016678 0.038588725 -0.0749937 -0.08890873 -0.08302648 -0.0742469 0.10096335 -0.08896842 -0.059175037 0.059922326 0.058624264 -0.08188006
0.08893944 -0.09147972 -0.058260296 -0.063343234 -0.11013534 -0.07335349 0.00028641525 -0.043437388 -0.010258278 -0.07740016 -0.011019671 0.03880325 0.11746507 -0.07844933 -0.00016692861 0.006307665 0.10958439 0.008904328 0.012060274 -0.09600173 0.11458589 -0.021042202 0.115498126 -0.04714077 0.11261583 -0.06550116 -0.017300442 -0.06524994 0.007485843 -0.086250484 -0.014465086 0.066957064 -0.0023901837 0.091637745 -0.08302296 -0.07456589 0.0073707625 0.07536815 -0.0104905395 -0.13709746 0.11566609 0.09598969 0.1298493 0.11404986 -0.06971231 -0.104285054 0.013615798 -0.007183448 -0.04724508 0.0014877404 0.09585671 0.10849617 -0.021610718 0.046862178 -0.05214776 -0.091228336 -0.16302922 0.013971512 -0.017837044 0.013119904 -0.10491705 0.049107898 -0.13251564 -0.05270884 -0.07111439 -0.03502978 -0.037555844 -0.11021093 -0.08642611 -0.1130158 -0.18110639 -0.028350413 0.023848971 0.026494034 0.057199165 -0.096774906 0.056721523 -0.02270031 0.010238938 0.12909827 -0.13843843 0.0136329755 -0.013434117 0.07545417 0.025004175 0.01810416 0.09566575 -0.10989123 -0.017933514 -0.04863899 -0.114819095 0.010511742 -0.07094206 0.0009409664 0.06672726 0.11389877 0.03683178 -0.03127321 0.015266867 0.04875637 0.023609431 0.11408298 0.09602257 0.090375096 -0.026570272 0.0028599165 0.12798409 -0.114747085 0.0037901443 -0.032282908 0.08026077 -0.051448457 0.045056228 -0.05303703 -0.024761548 0.11257194 -0.08305878 0.1310366 -0.039403982 0.011301252 0.10658989 0.111570284 -0.08302983 -0.009970059 0.036547612 -0.101565465 0.12654233 0.019649386 0.07713021 0.081172764 0.070992105 0.12553893 0.068760574 0.027791366 -0.019647496 -0.08013664 0.0346652 0.11709802 -0.07382354 -0.08454853 0.056583967 0.084475875 0.06184577 0.12960786 0.035999965 -0.010805832 -0.08371345 -0.03389781 -0.039153833 -0.1329867 0.132741 0.068351574 0.07070843 -0.12134885 0.013426943 -0.08676708 0.077801585 0.101230405 -0.12344551 0.055262312 0.075640544 0.042293563 -0.045820102 0.023421807 0.0045057824 0.0822523 -0.09680748 -0.006957457
0.106419235 0.08726268 -0.0951204 -0.15017676 0.13528332 0.035719518 0.01131597 -0.10977077 -0.06963455 0.011917527 -0.033154182 -0.063777976 -0.12618226 0.10724523 0.100777216 0.1141332 0.046700545 -0.13325354 -0.10028352 0.09385319 -0.00032875617 -0.09732801 0.027262647 -0.0354888 0.060920026 -0.0040558213 -0.10833124 0.012456096 0.035718143 -0.09294764 -0.009081458 -0.09592874 0.10752273 -0.0282466 -0.013381885 0.07694634 0.020812064 0.04679825 0.032461666 -0.10450701 -0.112250164 0.12713446 -0.09483007 -0.0978044 -0.040659048 -0.059870984 -0.056950264 -0.07492956 -0.03706796 0.0769986 0.012357604 -0.012658459 0.016886184 -0.10286383 -0.10069966 -0.13688023 0.11671009 0.0101465015 -0.088359766 -0.11680463 -0.024811383 0.12444656 -0.10446174 -0.0441535 0.06999075 -0.011865921 -0.118764624 0.10243681 0.008949994 0.06523405 0.044547718 0.080585055 -0.014130271 0.012835736 0.08869077 -0.0041077263 0.12763035 -0.091826595 -0.04034747 -0.0973952 0.021461502 -0.0014713205 -0.07998636 -0.09208174 0.11037623 0.053755283 0.04543824 0.06742893 0.12120335 -0.0807072 0.040549498 0.109056555 -0.031876605 0.12917458 0.09395311 0.13453521 -0.07555688 -0.07887446 -0.08978039 0.05856578 0.05490872 -0.096335374 -0.049108375 0.09595616 -0.02261007 -0.14663641 -0.053627998 0.12200989 0.0024985205 -0.0546918 0.13924539 0.09190593 -0.01889624 -0.123694606 0.023556879 0.019622685 -0.06322998 -0.066014275 -0.12864032 0.040499363 -0.11939292 -0.11880309 0.023027811 0.10401592 0.11866435 0.06331428 -0.07565644 0.06356331 -0.014317663 -0.030772297 -0.05053103 0.0125241345 -0.123342134 -0.030618533 0.08048264 -0.014989523 0.0594746 -0.05547808 0.025586912 -0.10914603 0.011071363 0.07686082 -0.022799244 0.11137895 -0.022209035 -0.03285489 0.12408416 0.11498102 -0.10279616 0.072731696 0.09587556 0.095131904 0.025219318 -0.10426122 0.08199298 -0.1115447 0.082149915 0.091519356 -0.030171704 -0.03430748 0.07852158 -0.07048581 0.06698236 0.040067803 -0.12851699 -0.10568458 0.12645158 -0.061565693
-0.0054172473 -0.10978585 -0.0031282504 -0.117382996 0.0444479 -0.08506591 -0.0070313485 0.14195041 0.040168542 -0.14803919 0.115678936 0.08576689 0.10850539 0.0051290146 0.08917824 0.09466355 -0.031950638 0.005719875 0.068546884 0.10292338 -0.07730847 -0.029766902 0.07074016 0.051422216 0.06298236 -0.14575371 -0.13713998 0.07677713 -0.048302606 -0.029242875 -0.14993224 0.055774484 -0.04907795 0.06774993 -0.07579788 0.12791246 -0.037492458 -0.06485956 0.040469345 0.07026007 0.050244752 -0.07119626 -0.109039925 0.08513906 0.045161214 -0.10594036 -0.08210325 -0.023596233 -0.0938003 -0.0107322605 0.055985484 0.0054504476 -0.11936389 -0.017410794 -0.09426663 -0.08991142 -0.11244834 -0.0229513 -0.054586824 0.13921171 0.109332636 0.028859163 -0.12807591 -0.041255165 -0.082699366 -0.020052051 -0.028712343 0.07349815 -0.11107952 0.07190757 -0.11869607 0.025867127 -0.07490484 0.039905556 0.10015279 -0.023512814 -0.055005908 0.12036862 -0.031160345 0.013495642 -0.006716705 -0.097161755 0.00051342347 0.07234172 -0.0054884716 0.057590183 -0.034002785 0.017154688 -0.03481511 0.013309646 0.15401874 -0.081082985 0.015989693 0.15428881 -0.06300975 0.043521874 0.033571042 0.029054329 -0.0836936 0.113057405 0.01005283 -0.2576461 -0.0033530614 -0.13010842 -0.062850416 -0.015540363 -0.0952666 -0.03954287 0.042803887 -0.03647938 -0.053785395 0.10539823 -0.11064249 -0.050991725 -0.037661895 0.09971221 0.10563614 -0.18950269 -0.09933651 0.009262766 -0.040722437 0.109482326 0.060263705 0.042674 0.022636933 0.11007913 0.08877047 -0.051923286 0.08943362 0.038093444 -0.108029194 0.028507583 -0.014258788 -0.010448305 0.019147517 -0.11666684 -0.06503665 -0.12022687 -0.097391784 -0.031310238 0.0048487447 0.0502504 -0.008212045 0.06488983 0.10554569 0.0077507766 0.059926227 -0.102265365 0.02181308 -0.10152267 0.07724042 0.00562422 -0.049338575 0.13502546 0.09458217 -0.016637592 -0.11821786 0.047797322 -0.07871834 0.10180038 -0.02850847 0.016198125 -0.034742028 -0.059661213 0.090505965 -0.022195948 -0.103010856 -0.11499329
0.093796365 0.027221143 -0.06739281 -0.061243996 -0.003236229 0.0899301 -0.07777081 0.08069733 0.063441314 -0.0075074467 0.05952434 0.044940274 0.04967953 -0.033781663 -0.000856209 0.16374959 0.09468505 0.058459472 -0.04632167 0.047068235 -0.0675435 0.005893352 0.023272213 -0.08255477 -0.10925599 0.09445896 -0.08534349 0.010371945 0.030504242 -0.1485154 -0.06990778 -0.06359762 -0.13393745 -0.106224716 -0.021417227 -0.016320467 0.00091038796 0.09477771 0.036750957 -0.15188147 0.083004095 -0.0962332 0.020361833 0.08205437 -0.10490111 0.06399818 0.021935938 0.001123549 0.09030134 0.025234183 0.049366646 -0.12688218 -0.035502892 -0.07508768 -0.015596031 -0.07418686 0.06325691 -0.15214248 0.01059593 -0.0133779505 0.1306165 0.03503011 0.0009777225 -0.0976846 -0.11125244 -0.009202228 0.101261646 -0.038003936 0.08645918 0.040356454 -0.13215004 -0.1461897 -0.018551627 -0.011993328 -0.16051424 0.0005978571 -0.118561484 -0.08348594 -0.004802749 0.08385278 -0.11471103 -0.06652901 0.07215767 -0.06411595 -0.0712737 -0.028885378 0.015369679 0.08736672 0.10251876 -0.1357542 0.0085710455 0.16304836 -0.07085296 -0.08872043 0.1275648 0.13185802 0.13363267 -0.023212804 0.03869198 -0.039249018 0.055211816 -0.062409207 0.12104607 0.097406425 0.05977618 -0.07526693 0.06406169 0.04565641 0.030931823 0.03493917 -0.029379364 -0.13163568 -0.09529498 -0.015090694 0.031558223 -0.071967326 0.069712125 0.06901112 -0.076383494 -0.029662292 0.054942444 0.06610496 0.071914986 -0.06318962 -0.08686671 -0.0822741 0.071931824 -0.1400665 0.050929602 -0.0012182902 0.14002806 0.026411647 -0.036583804 -0.06782993 -0.00381172 0.08045836 -0.023370493 -0.0235429 -0.045402527 0.12075383 -0.034642078 0.026643554 0.003675185 0.13613787 0.006165707 0.10932412 -0.1024136 0.061641075 -0.071770914 -0.12454597 0.0022842793 -0.06700398 0.058818195 0.097626045 0.09968849 -0.14036654 0.12245723 0.05092076 -0.072363086 0.064908445 -0.10346428 -0.055454165 0.036223337 -0.095152624 0.006326798 -0.022262571 0.07615688 -0.121093035
-0.13575704 0.030565148 -0.037504695 -0.028317427 -0.122582056 0.042360045 0.13135384 0.08133148 -0.079496354 0.017295098 0.05280089 -0.011288662 -0.11235699 0.037678774 -0.108427234 0.014088191 -0.15068449 -0.06519827 -0.05752238 -0.118834265 -0.034680482 -0.100033514 0.08438033 0.039202265 -0.0004976174 0.02724391 -0.086948775 0.039577115 0.08304106 -0.060501836 -0.04671341 -0.043852404 0.03203539 0.13380246 -0.043507308 -0.13235103 0.09765509 0.06817167 0.017932849 0.010215029 -0.077214524 0.030581716 -0.034462012 -0.12619409 -0.12866929 -0.07944492 -0.05412908 -0.11298468 0.026637606 -0.016421381 -0.015471497 -0.097289294 0.07538641 0.0012851178 -0.0921707 -0.056404065 -0.10121377 0.29249316 -0.04943454 0.087776914 0.003951592 0.02273653 0.011798979 0.10964171 0.13598563 0.100737214 -0.076453805 0.03220034 -0.091763444 0.01456541 -0.029076485 0.050188486 -0.01209176 0.00810431 -0.090026274 0.020641306 -0.12380993 0.05060211 -7.810907e-06 -0.02075465 -0.09900378 -0.040099837 0.013107165 -0.06369343 0.09427231 -0.044754926 0.0011202937 -0.07498958 0.025684752 -0.100844465 0.028487435 0.058010023 0.07311336 -0.019024685 -0.085524134 0.049797803 -0.10166127 -0.094110824 0.052941382 0.15117705 0.054590683 0.1855887 -0.019312333 -0.0099309925 0.0031965026 0.12535366 -0.01252322 -0.019375656 -0.089366466 -0.13357013 -0.13618672 -0.046887506 0.0048521743 0.052622586 -0.028754089 -0.090274975 -0.108791046 0.015096561 -0.05658684 0.08223819 0.10939476 -0.05969851 -0.122435674 -0.033078298 0.019910175 0.05640892 0.024212595 -0.009562857 0.015810171 0.030649463 -0.11576588 0.12884383 -0.11638997 0.061677434 -0.021145737 -0.05263966 0.036564387 -0.09119785 -0.02931524 0.027882703 -0.114797674 0.030023195 -0.05440728 -0.09321543 -0.028635258 0.09328598 0.01007254 -0.020638363 0.07573201 -0.04782488 -0.06937362 0.02484491 -0.09105377 -0.056684684 0.028427891 0.0051436056 -0.033587724 0.03557097 0.013952379 0.012556851 0.0066828122 -0.029742582 -0.033698756 0.08551322 0.033999242 -0.020271817 -0.11048608 0.09477657
0.0034419042 0.09313386 -0.10147207 0.15988335 -0.10441066 0.09383053 -0.0024470275 0.15422045 -0.043503746 0.07292812 -0.102400586 0.113904715 0.12727526 0.051901326 0.06326919 0.019287243 0.0670165 0.10796396 -0.10181374 0.09481618 -0.049479537 -0.08580593 -0.06423475 -0.08488271 -0.036166314 0.0617113 0.00015215809 0.061124936 0.09976965 -0.1461794 -0.076262854 0.067683116 -0.07914866 0.024501344 -0.12916085 -0.08800054 -0.07794771 -0.021826997 -0.08227868 -0.08829154 -0.10903953 -0.018152684 -0.09262839 -0.09471942 0.08288041 0.050377328 -0.08359391 0.105675645 -0.14749831 -0.036223873 0.050181717 0.060503345 -0.0915142 0.060705125 0.07634323 -0.12581523 -0.11229245 -0.105950646 0.059825365 -0.025497919 0.06366903 0.080408394 -0.118664615 0.09944505 0.12039669 0.026758183 -0.0021777009 0.010727652 0.13570406 -0.06373795 -0.15018113 0.0033952266 -0.023863496 0.13500665 -0.09684899 -0.076533906 -0.071442366 -0.0854255 0.15928973 0.043109387 0.101355456 -0.07690368 -0.011766906 0.036908884 0.0029111514 -0.0018557472 -0.0711344 0.05605607 0.06746122 -0.06597813 0.11944166 0.100219406 0.029999493 0.05557138 -0.0044680308 -0.06233431 -0.041170985 0.031309973 0.13135014 -0.033352982 -0.007545573 -0.18403198 -0.011328637 0.0424433 -0.02783833 -0.10870813 0.062240932 0.16807024 -0.080411375 -0.13280134 -0.0180649 -0.022651607 0.15564938 0.012706751 -0.081362195 0.053049095 -0.03446325 0.039299376 0.05590833 0.12293076 -0.09571892 -0.00325621 -0.06504442 0.043525964 0.041686147 -0.06018575 -0.109970696 -0.13084415 0.11304456 -0.023670757 -0.10905391 0.15255032 0.0034639412 -0.0013776683 0.06521435 -0.018577542 0.10719401 -0.04748096 0.09256026 -0.069568835 0.08182472 0.04041375 0.02140596 -0.0074072974 -0.13257512 0.11624344 -0.12201594 -0.13003986 0.06334411 -0.029307786 0.07813259 -0.07059207 0.079761855 -0.10103518 0.0073877433 -0.006247734 -0.02959824 -0.09315671 -0.015367332 -0.04906462 -0.09120239 -0.003308533 0.073467806 -0.10318932 0.11106412 -0.073192745 -0.07242436 -0.107569315
-0.08170132 0.11413104 -0.0848552 0.03920972 0.10615848 0.0391615 0.06745982 -0.114176326 -0.04461854 0.016618805 0.04078073 0.090031266 0.016680753 -0.08238033 0.065261446 -0.118111685 0.02858763 -0.039234266 0.31154683 0.058817204 0.042389285 0.006209373 -0.16305447 0.07368267 0.045572784 0.009495642 0.10977755 0.0024478983 -0.11930349 0.10696685 0.061100464 0.21338978 -0.0686055 0.0070578544 0.03720971 -0.03851003 -0.10407113 -0.095088385 -0.11169645 0.050964944 -0.19322148 0.15283522 -0.06206275 -0.09510388 0.00022173657 0.10680359 -0.007954754 -0.05761139 -0.022458464 -0.051974863 0.1031018 0.0039452803 -0.17381212 0.12941255 0.048477277 -0.09337153 0.039783187 0.13232467 0.06689186 -0.057447072 -0.06748119 0.07133022 0.006776325 0.007149804 -0.008933361 -0.09753063 0.0871511 0.067269556 -0.009910029 -0.005117221 0.094187 -0.0035129678 0.057635088 -0.103520766 0.13543274 -0.1218289 -0.026536625 -0.01936315 -0.0046564625 0.0025420631 -0.06278409 -0.011530652 -0.068126954 0.10369642 -0.07056883 0.24672174 -0.13507546 -0.031331085 0.021108564 0.08698536 0.009229841 -0.012594722 0.11213983 -0.023237363 0.054414026 -0.0901563 0.043470457 -0.015265522 -0.045839127 0.09368376 -0.04394184 -0.17990828 0.00855998 -0.07578307 0.003440804 -0.10812416 -0.019961178 -0.19445835 0.11862606 0.049073815 0.13590539 0.03350465 0.012558873 0.08237228 -0.07100758 0.016432445 -0.12093825 0.1734983 0.022215506 -0.03277236 -0.04933249 -0.10894119 -0.027252652 -0.10187934 -0.057098024 0.09942612 0.07415003 0.02039906 -0.02481792 0.11715241 0.012355493 0.07953796 -0.11356896 0.020659793 0.047688697 -0.029609587 -0.13998806 0.00024684847 0.009077317 0.050108034 0.061438866 0.12327354 -0.09049103 -0.06120726 -0.11799194 0.029344147 -0.05945247 -0.033453036 -0.019911734 0.035464942 -0.111497484 -0.0896685 0.036951832 0.15383358 -0.12570024 -0.06443947 0.05529907 0.008953551 -0.036886003 0.02706888 0.12338181 -0.021561002 0.11772846 0.04160148 -0.1551806 0.084044546 0.023031257 0.020412168
0.003779719 0.031323288 0.0009778307 0.12146601 -0.14017364 0.04337567 0.1359837 0.08875246 -0.09823057 -0.01603234 0.1042151 0.112535335 -0.01619689 0.026558172 -0.06741546 0.13567522 -0.0807466 -0.06102888 -0.058377586 -0.08711516 -0.06994435 -0.016974263 0.046952736 0.10600439 -0.044373732 0.009307956 0.056871556 -0.00900723 0.0051286607 0.004298032 -0.12591535 -0.10834959 -0.11960926 -0.013892812 0.039676584 0.04253489 0.11385281 0.058641326 0.06507723 0.039889455 0.10477162 0.12089428 0.045409065 0.051762708 -0.06649286 -0.042090334 -0.026101446 -0.087169394 0.045610804 0.009775813 -0.03892699 0.00071835244 -0.04302464 -0.10887882 0.03811059 0.08110791 -0.0034630762 0.13425438 -0.14509983 -0.07497923 -0.07347666 -0.07956763 -0.016564662 -0.02076655 0.09287161 0.09234439 -0.06551589 -0.014070479 0.046075616 -0.064053126 -0.14191017 0.07782105 0.07489016 0.022347132 -0.11093407 -0.015325526 0.088135496 -0.017100248 0.06614585 0.08429812 -0.111977346 -0.039095696 -0.018564409 -0.029185368 -0.03872105 0.0067123477 -0.093650535 -0.03050706 -0.0011501793 -0.13109076 0.014575518 -0.07485758 -0.08403776 -0.01570818 -0.027685622 -0.07979146 0.131233 0.09186724 0.12995367 0.01737314 0.020067893 0.10368216 0.061450932 0.008397706 -0.09067689 0.0007906045 -0.10513911 -0.05313747 0.028116642 -0.059344374 0.015541893 0.02029186 0.1222537 0.06392996 0.043861058 0.013709337 0.05773178 0.159217 -0.10980317 -0.110028684 -0.063798 0.15448569 0.094829515 0.08624007 -0.115336485 -0.07924876 0.041602384 -0.02944709 0.11903924 -0.060436986 -0.041808613 0.12370652 -0.0877105 -0.08012265 -0.12630351 0.076196134 -0.13551575 0.13464096 -0.10320905 0.12453874 0.071901366 -0.07833506 -0.08344868 -0.077631846 -0.112118214 0.11318601 0.13645229 -0.10546321 0.08795593 -0.036193244 -0.066775344 -0.043348525 -0.1255158 0.057776906 0.033730473 0.09236392 -0.06456061 0.086263195 0.035688713 0.042618763 -0.07797049 0.024219891 -0.05573142 -0.069531724 -0.015333782 0.093032405 -0.08701381 -0.113632925
-0.032845896 0.032629542 -0.02869178 0.04067292 0.093271434 0.0005640368 0.0019256807 -0.032746203 0.013488538 -0.072710566 -0.090475395 0.06089995 0.06522415 -0.02913524 -0.019207658 0.03821744 0.007930216 0.06021632 0.11057412 0.026246727 -0.05922179 0.08022151 0.019760339 0.06980207 -0.11414316 0.09992692 0.08447045 -0.05588629 0.11023429 -0.06133274 -0.10270466 -0.025337659 0.0016530611 -0.11019368 0.07793397 -0.0817775 -0.06837242 0.052095793 0.07180394 -0.074416816 -0.016701035 0.0484761 -0.061229948 0.04536439 -0.086435236 -0.12604108 0.013636183 -0.045477305 -0.12192525 0.11313201 0.059292093 0.11708247 0.10982425 0.11573874 -0.094229326 0.09593695 -0.040211428 0.034744993 -0.063699916 0.07281297 0.10593147 -0.00017534879 -0.03418693 0.10702289 0.08374129 -0.06562841 -0.12227406 0.018969359 0.1019293 -0.014842188 -0.029350046 -0.10967367 -0.10068602 0.014212571 0.11895508 0.07608188 -0.1112886 0.09813372 0.06646341 0.098137595 0.0523617 0.10147869 0.101801395 0.045200467 -0.019337455 -0.1539608 0.043556742 0.063533105 0.1622644 0.05245855 -0.029719105 0.09137422 -0.059234243 -0.008285367 0.05208172 0.07041484 -0.057889245 0.08540564 0.08214724 -0.07403969 0.020043356 0.10292288 -0.053611625 0.049247097 0.112832084 0.08921655 0.032838024 0.11265751 0.023886451 0.108064175 0.05307006 0.08865236 0.06334058 -0.06766775 0.014357298 -0.10523288 0.038426623 -0.048572198 -0.041843258 -0.11206212 -0.05404848 0.14395413 0.097924 0.086264744 0.02994869 0.04235482 -0.06623076 -0.12282886 0.076384686 -0.10146665 0.088125944 -0.04775625 -0.006835585 -0.105697565 0.017802978 0.018658957 -0.015288803 -0.07147441 -0.016726967 -0.02707607 -0.08200215 0.0013455834 -0.11862357 0.024673441 0.038692847 -0.009856484 -0.08183701 -0.042914715 -0.04450731 0.09050257 -0.01659013 -0.10574032 0.02338318 0.06834399 -0.018881205 -0.015854161 -0.08560538 -0.050451115 0.0026890717 -0.03019157 -0.08740007 -0.07507932 -0.07646049 0.045462888 -0.027484262 0.04060434 0.08743677 0.12517887
-0.057905473 -0.09068969 -0.04528216 0.057185903 -0.03588705 0.01780428 -0.079556026 -0.10661112 -0.08408268 0.07431113 0.043700263 -0.027044728 -0.032691564 0.07436705 0.023119358 -0.07241461 -0.09705973 0.006493996 -0.062079687 0.10038103 -0.09594588 -0.04519013 -0.15788151 0.021250892 -0.0977837 0.1002457 -0.029616447 -0.04723485 -0.0016136167 -0.01780533 0.09800575 0.075912625 0.0865432 0.07380787 -0.09238516 0.04974107 -0.030709822 -0.121454954 0.0559315 0.119660296 -0.10897484 0.012175503 -0.09384271 0.09000163 0.09842612 0.082301185 -0.08783856 0.026987005 -0.07999701 -0.13591942 0.10512704 0.03174163 0.044713542 0.076505534 -0.07666209 0.13193308 -0.121208236 -0.08916001 -0.12230244 -0.05075003 -0.09463867 -0.04072093 0.031788275 -0.13012579 -0.09132505 -0.0143146105 -0.015519661 0.09358036 -0.080330506 0.05178192 0.11264911 -0.08678467 0.04231371 -0.07794358 -0.0039314437 -0.022082714 0.15724324 -0.074734464 0.023993474 0.08713695 -0.1005753 0.09459556 -0.04866335 -0.071381256 0.047128405 0.107336864 -0.06427086 -0.08699596 -0.09312043 -0.07055788 -0.11731453 -0.1410899 0.12564111 0.05248575 -0.10569007 -0.053322364 0.09489218 0.009862318 0.1088903 0.13856238 -0.08164421 -0.124076754 0.09872062 -0.07370994 -0.106760025 -0.06404866 -0.073338345 0.044331368 0.012851714 0.038904652 -0.121902764 0.08813464 0.012970625 -0.08643169 -0.015117914 0.024426796 0.0665131 -0.07275901 -0.07295346 0.056951974 -0.033515442 -0.0075791506 -0.11143187 -0.04473832 -0.08558789 0.049282048 -0.045686048 -0.11445439 -0.10275231 0.01653091 -0.09838317 -0.016439129 0.08075383 -0.083043754 0.034535505 -0.06549283 -0.05999084 0.075217254 -0.164808 0.07033758 0.058931135 0.017844515 0.024257267 0.069814056 0.10448291 -0.09516598 0.12521337 0.11793002 0.06711809 -0.039960172 0.043363243 0.058017798 0.026814474 -0.040363077 -0.12778017 0.09382027 -0.04216003 0.10863128 -0.016834468 -0.016316324 0.047937226 -0.014798775 -0.055133518 0.0804006 -0.089732945 0.02896528 -0.051736407 0.012387522
0.041866988 0.008349143 -0.07783903 0.007223825 -0.09053601 0.039218735 0.056991775 -0.13192728 0.058750108 0.14013983 0.005215681 -0.07375129 -0.044181686 -0.07131673 0.0010709204 0.024908168 -0.024258526 0.052291617 0.06450796 0.13955352 0.022536509 0.078721516 -0.0704923 -0.068879604 -0.029099653 -0.05460821 0.1081137 -0.06972035 -0.017349517 -0.062134698 -0.09874989 -0.069337085 0.032466862 0.012610423 -0.05486993 0.025105717 -0.04110321 -0.039744563 -0.13073726 -0.0011860614 -0.053309828 0.1253169 0.08963855 -0.11709498 0.12223415 -0.11375913 0.033458386 -0.008259304 -0.11911659 0.0542622 0.021238178 -0.019308291 -0.03208193 -0.11110935 -0.036149908 0.09102145 0.09259386 0.018717488 -0.044902258 -0.014945364 0.00808921 0.07313525 0.0018681086 -0.07307466 0.090586394 -0.058813117 0.03371787 -0.029212566 -0.069197625 -0.05110238 0.09294568 -0.027250303 0.04890972 -0.10163276 -0.019413857 0.089881934 -0.04414189 -0.031646863 -0.12406208 0.023316696 0.015460513 0.06831226 -0.058483995 -0.10648675 -0.009315835 -0.07652235 -0.08653043 0.02933094 0.018714823 -0.019683784 -0.1293615 -0.06929182 -0.015909951 -0.06468294 -0.026015773 -0.0593209 -0.021204472 0.057914555 0.13721989 -0.06045158 0.043835737 0.040907513 0.08787299 0.10623673 0.023823673 0.0014088594 -0.10658309 0.12516779 -0.04943489 -0.0880268 0.022700913 0.075541995 0.003463087 0.10598488 0.076457426 -0.0028493246 -0.13146599 -0.035970118 0.019733576 0.08921833 0.0008871426 0.085318506 -0.06738754 0.12136879 0.06433458 0.11764047 0.10149258 0.0053704386 0.09486236 -0.11698885 0.07552854 0.076363735 -0.07454904 -0.11900083 0.008969707 0.051238943 0.03298873 0.036031313 -0.04469445 0.11824699 -0.08977958 0.08916352 -0.12080607 0.1246957 -0.024832483 0.12056002 0.02315543 0.07607706 -0.07832193 0.036745057 -0.08170819 0.010841928 -0.11985736 -0.07782868 0.01702648 -0.037438046 0.0880385 0.02968209 -0.0022998096 -0.004375064 -0.12803411 0.1112757 0.12667035 0.04198724 0.118450515 -0.12840797 -0.109109186 -0.01521165
0.06002947 -0.1312328 -0.0057744845 0.027261335 0.06804017 -0.0009198392 -0.1334046 -0.09452223 -0.09307707 -0.036693398 -0.06597493 -0.0531674 -0.025141682 0.067711905 -0.06589344 0.10016713 -0.14102435 0.0015070365 -0.14201285 0.013987029 0.021361487 -0.05538398 -0.12506208 -0.004252276 0.07660121 -0.092179015 -0.040382955 -0.1082353 -0.037457842 -0.008846194 -0.13354552 0.1558526 -0.07758412 -0.036223594 -0.108384065 -0.032038443 0.039066114 0.030679302 -0.11566664 -0.12646234 0.071595654 -0.03953706 0.11011359 -0.11189179 -0.015371563 0.11504966 0.085150845 0.07533556 -0.059241805 -0.01361269 -0.122002155 -0.17946926 0.20575026 0.13708492 -0.05590937 0.009177327 0.036542878 0.0016762266 0.07049279 0.0526167 -0.05169859 0.0777545 0.041488644 0.054006394 0.009343404 -0.11076174 -0.12159118 0.090129845 0.04387698 0.0028697203 0.008442992 -0.02601433 -0.101262026 -0.13642414 0.08105119 -0.11898044 -0.03262396 -0.078133926 -0.1232696 -0.108968146 0.026222033 0.05017225 -0.05920745 -0.07129745 -0.051998556 -0.085770205 -0.039361823 -0.07879973 -0.028049355 0.058337767 0.082096264 -0.15001029 0.08635718 0.1396699 0.033692773 -0.1404406 -0.14330862 0.1577965 -0.07607437 0.05543836 0.09298303 0.23998037 0.12746234 -0.05093094 0.028511817 -0.08970398 -0.07335933 0.07298908 0.112361714 -0.021530306 0.087340884 0.0990701 0.08732037 0.03160968 -0.043861773 -0.056494616 -0.025760926 -0.089674786 -0.09575081 0.05116509 0.010205822 0.122540556 -0.099911615 0.10137939 -0.0009541603 -0.03269816 0.052065305 -0.020889355 -0.019099785 -0.120216526 -0.039334748 -0.01620941 -0.010585152 0.07880907 -0.06501859 0.078906894 0.094438925 -0.009130443 -0.030432716 0.005056235 0.1401477 0.07938798 -0.0020582022 -0.030939236 0.0114474315 0.20929627 -0.13650507 0.051467564 -0.10176136 -0.11745323 -0.09027415 -0.06187273 -0.04252248 0.15482974 0.11681683 -0.105460286 0.15284891 0.017381718 -0.01151869 -0.0036196278 -0.048780125 -0.15403105 0.029417563 0.053074 0.10386905 0.10172492 0.07707066 -0.004089997
-0.14321904 0.015345204 -0.10702777 0.0455454 0.074379146 0.023910671 0.0038354974 -0.019876633 0.111221015 0.041199133 -0.030621236 0.06466719 0.036275413 0.047667757 -0.08688529 0.06504643 -0.0502587 0.13451889 -0.114707366 -0.15863937 -0.030285079 -0.04588548 0.059759784 -0.050169196 0.017648816 0.039294284 0.1017464 -0.097340606 6.584271e-05 -0.08025444 -0.05233958 -0.09841719 0.1367978 0.019283645 -0.028291043 0.08753926 0.050484423 -0.11155981 0.107164554 0.008411494 -0.050415818 -0.03623358 0.028592875 -0.035648353 -0.009155676 -0.059001934 0.08541525 0.0065124696 0.031814266 -0.11607325 0.1103187 -0.055167448 0.09244536 0.035186853 -0.07096652 0.102674045 -0.070252776 -0.17669941 -0.040068828 -0.08775465 0.022795392 -0.00033371535 0.13303258 -0.060360566 0.08834719 -0.087588854 0.015198541 0.064221844 -0.106952235 0.0652178 -0.0061675212 0.06266469 0.03088782 -0.016130269 -0.124179386 -0.1485602 -0.07542995 -0.021038132 0.030645337 -0.11467467 -0.049415644 0.019351669 -0.014027162 -0.050048366 -0.05992573 -0.21501037 0.11540247 -0.060432006 -0.22899513 -0.1475764 0.08655262 0.13283098 -0.107717805 -0.062884964 -0.14147224 0.00031522862 -0.09432942 0.10651787 -0.018053029 0.031208243 -0.16126515 0.14649406 0.018056642 0.028852494 0.15397178 0.052536678 -0.036557857 -0.15927283 0.077859476 -0.100738764 -0.052698307 0.044398032 0.09983837 0.075010166 0.002748742 0.00041867179 -0.049920086 0.09692714 -0.058360174 -0.09487806 0.10112427 0.020710988 0.07628203 -0.0554293 -0.015890982 -0.08820808 0.10706247 0.08373287 0.0032700575 -0.10251233 0.120203294 -0.009638115 0.05101248 -0.018179726 0.08829794 0.06959533 -0.0587978 -0.048137717 -0.07631503 -0.0053967214 -0.059939872 -0.060459677 -0.028962623 0.1236116 0.06285989 0.026975632 -0.15859026 0.07746616 -0.040034257 -0.1051668 0.00037941142 -0.015716664 -0.007433421 -0.03865814 0.08960996 -0.05508235 -0.06178015 0.013097518 0.08995196 -0.03692416 -0.11405345 0.16654514 0.051325213 0.075194396 -0.009456526 -0.07988374 0.039812602 0.0125657935
0.055584423 0.00044180627 0.01284759 0.09131509 0.027422406 0.028735839 -0.14958823 0.035911106 -0.0723313 0.17131686 0.11018248 -0.11128949 -0.06314758 0.10433559 0.104511864 -0.075201586 -0.105880246 0.046217028 0.055314727 -0.03209242 -0.07450619 -0.069408506 -0.08875335 0.031601727 -0.029864226 -0.12547876 0.10594364 0.051616475 -0.06455526 0.020585572 -0.021014167 0.09543211 0.015262935 0.11342043 0.0719056 -0.0892658 0.050726753 0.07153876 0.025561595 -0.025768412 -0.13944034 0.102901414 -0.12305346 0.088450424 -0.07088103 0.004321998 0.056421567 -0.118984625 0.10658805 -0.09834509 -0.060069796 -0.04419761 -0.06250515 0.055036664 0.044532802 0.12272231 0.1403259 0.08968997 -0.0077384776 0.052537058 0.05388855 -0.08020392 0.11563622 0.048246402 -0.020842507 0.12678845 0.07552132 0.09988614 -0.12608777 -0.114307515 0.054445982 0.004610725 0.114827506 0.097538374 0.07553633 0.019357419 0.056225937 -0.017495725 0.045401745 -0.07698939 0.06263382 0.06354392 -0.06638306 -0.042830735 0.008588897 -0.091121465 -0.01882757 0.11085798 -0.11307913 -0.06400042 -0.05125656 -0.114388086 0.10087268 -0.13608453 -0.16855495 0.05603846 0.039295916 0.13049826 -0.037933026 0.03349166 -0.12668902 -0.06329861 -0.06488991 0.039519317 0.066268 -0.07688199 -0.11270106 0.077618286 0.101147845 -0.066705756 -0.1277088 -0.002974365 0.013941436 -0.097394526 -0.005733206 -0.072167955 -0.044304162 0.14011571 0.058907334 0.117855474 -0.07868314 0.041324936 -0.07694016 0.043121632 -0.035345346 0.06328111 -0.0964854 -0.048673682 0.045680862 0.11423857 -0.084231555 -0.07756022 -0.09766844 -0.042757493 0.08198373 0.07956036 0.028329715 0.064287186 -0.017752709 0.104358576 0.10307016 0.0250097 -0.0016979664 -0.08652519 -0.10107252 0.03469312 0.102444135 -0.07385914 -0.074399926 -0.027534317 -0.08636932 0.13393347 0.071974866 0.00013312147 0.026466416 0.09516768 0.02614988 -0.013106457 0.07065544 -0.042988047 0.04991671 0.0038534128 0.1182524 -0.0068524857 -0.02608473 -0.052848667 0.063712455 0.1206513
0.10202249 -0.018251056 0.018313354 0.11354445 0.12614994 0.028121898 0.03745364 -0.0065806694 -0.08309336 -0.042456176 0.09794961 0.082206674 0.101693206 -0.10945799 0.08957223 -0.014126917 -0.036853574 0.083833046 0.08628973 0.00022692076 0.11014798 0.078909256 0.046189927 -0.09633922 -0.11577182 -0.05255248 -0.07869033 -0.10842283 0.11118069 -0.01299111 0.108806334 0.13242804 0.06812781 0.10381113 0.101274334 0.055152044 0.015443039 -0.09294381 0.07997366 -0.078404605 -0.06419126 -0.10078599 -0.031437464 0.10183337 -0.10410028 0.04920699 -0.043952435 0.017057106 -0.079050116 -0.089279056 -0.075974755 -0.01712377 0.008344333 0.0886402 -0.068548605 0.0017600525 0.1285494 -0.062166348 -0.011250183 -0.13805656 0.0407059 -0.14276859 0.11286397 -0.10001253 0.040829588 -0.029595677 0.12047647 -0.012966504 0.051916644 -0.0037962275 0.053970784 -0.08396627 0.1235666 0.007308912 -0.096153855 0.042754415 0.035977293 -0.024829037 -0.070927344 -0.020389711 0.12310933 -0.10763357 -0.07958235 -0.0989414 -0.064459756 0.013208289 -0.092555836 -0.09189802 0.074380055 -0.0035374602 -0.09323775 -0.0854415 -0.0506474 0.11827427 0.055602532 -0.056483805 0.055884898 0.15729961 0.0071572186 -0.08038523 0.0892009 -0.0021129576 -0.060012564 -0.09094202 -0.060918845 0.10939126 -0.061186764 0.10903581 -0.12473385 -0.08928093 0.0748641 -0.13956335 -0.112600125 0.0997165 0.026247818 -0.061978664 -0.115923524 0.010191741 0.047623303 -0.117918946 -0.025236942 0.038458277 0.09980555 0.07225519 -0.094462745 -0.09126595 -0.057792556 0.061798222 -0.027507005 -0.114729196 0.043519676 -0.017124655 -0.11642811 -0.018061977 0.099571496 -0.015449123 -0.04753938 -0.092634045 -0.04465653 0.11089736 -0.08208942 -0.07079494 -0.051813778 -0.08955421 0.01473124 -0.00978011 0.11830971 -0.11740809 -0.10424687 -0.061746985 -0.020767055 -0.0061667208 0.13016377 -0.029919948 0.0298117 0.03992805 0.098050706 0.13191009 0.023989659 -0.052506723 0.016339682 0.08095438 -0.08696848 0.027457116 -0.15018827 0.09434095 0.124200016 0.09545887
