-0.030376097 -0.00035920885 0.012980708 0.07299265 0.07453584 0.06530338 0.06815593 -0.036325507 -0.015676038 0.06430672 -0.056133937 0.10549489 -0.048250727 0.0841367 -0.11792044 0.046704073 0.10589775 -0.13994963 -0.09812211 0.095220596 -0.041918702 -0.06436937 -0.068132244 0.0020377496 0.0031002373 0.015128275 0.026970377 -0.006126495 -0.008981394 -0.113050304 0.08413779 0.16774116 -0.0022212437 -0.0470575 0.0074392934 0.082828484 -0.09404386 0.119800635 -0.017968224 -0.049115345 0.06313176 -0.13879757 -0.11887204 0.009214778 0.094579175 0.043007545 -0.19368194 0.10753804 0.05413557 0.032940652 0.111744046 -0.09646364 -0.08761357 0.010801378 0.056466155 0.20622733 -0.07762521 0.09149728 -0.03423813 0.091092795 0.014421351 0.06877221 -0.04474302 -0.11129463 0.12316912 0.110945284 0.051868673 -0.059160337 -0.004270386 -0.012656055 0.06923518 -0.092606254 -0.07920639 -0.059253693 -0.13665739 -0.076292686 -0.0716555 -0.02351391 0.10811389 0.014309012 -0.11234903 -0.044961963 0.052694175 0.009527199 -0.113603614 -0.10708858 -0.021622285 0.076621406 -0.106997155 -0.12166204 0.01721202 -0.050780926 0.030192042 0.046760406 0.036950193 0.061958026 -0.015095947 -0.12831396 -0.13228187 0.0013266952 0.0024817144 0.058457892 0.07830276 0.07849544 -0.0075159594 -0.14473557 0.0038725527 -0.11691747 -0.005879686 0.08771455 -0.12060695 -0.05381461 0.04778979 0.0080454955 0.09026064 0.0013288326 -0.026264759 -0.005290529 0.008622209 0.010751502 0.05506628 -0.12056142 -0.08265735 -0.04738642 -0.07285407 0.022773001 -0.116419226 -0.11558345 -0.13186201 -0.0370903 -0.03261912 -0.11985464 0.08891788 -0.21839233 0.0026057938 -0.086683996 0.111971855 0.04629192 0.04969635 0.11216917 -0.033914134 0.07687652 0.059838437 0.025969248 -0.07790178 -0.07149242 0.10728725 -0.042196233 -0.078496516 -0.061915405 0.10628016 -0.057136156 -0.021363685 -0.06854256 -0.12047477 0.07592082 -0.019993098 -0.050040763 -0.005958121 -0.01828335 -0.058745105 0.069137625 -0.033919483 -0.07471995 0.09784387 -0.025878156 -0.04941591 -0.062103078
-0.07943242 -0.13659988 0.0111231785 -0.015042265 -0.106862746 -0.11856957 -0.017449444 0.049318194 -0.09104673 -0.11209202 0.10555536 -0.06890252 0.015565969 -0.028550625 -0.094442435 0.049157426 -0.07283483 0.055172876 0.060604878 0.10517528 -0.13029468 0.14613487 -0.032111317 0.07396533 -0.009213659 -0.11242671 -0.029620683 0.0839459 0.08506008 -0.057645507 -0.058760695 -0.063508935 -0.11465716 0.057106357 0.09352493 -0.092240795 0.09215042 -0.12495144 0.013873121 -0.009709029 0.08665488 -0.008125973 0.11251357 0.11966139 -0.14120221 0.016477661 0.003799041 -0.11153878 0.049411196 -0.01349767 -0.0632289 -0.060274754 0.090851754 -0.011958077 -0.14196955 0.107721195 0.08597857 0.109714195 -0.07304155 -0.009403409 -0.032625727 0.08524973 -0.09669197 -0.022376511 0.019592611 0.0488635 -0.0115891285 0.06715716 -0.0174988 0.023128886 -0.056985963 0.008200544 -0.039911516 -0.10294623 0.016565356 0.04279407 -0.028949631 -0.060714167 -0.039222404 -0.06349362 0.04558518 -0.03755818 0.018786531 -0.022245483 -0.030651892 0.12776585 -0.13466263 0.10149272 -0.10122596 0.07525204 0.098824754 -0.06898546 -0.07505907 0.026264653 -0.07485505 0.007097626 -0.11210095 0.09383258 0.050823394 0.11722962 -0.04850906 0.09198457 -0.08292563 -0.0663133 -0.13745123 0.009722379 -0.026995571 -0.038939144 0.11530937 -0.027944498 -0.01588205 0.101206906 -0.038620528 0.029080562 -0.14931768 -0.004455724 0.033870418 -0.018972605 0.0619887 -0.0809548 0.042424347 0.0018448497 0.030487044 0.030218886 0.034792554 0.0017035544 0.08616783 -0.07626351 -0.12063339 -0.022703627 -0.07356442 -0.10363622 0.14545618 -0.22023007 -0.019200932 0.091086656 0.112614006 0.038831353 -0.10712077 -0.009345285 0.10013895 0.0339538 -0.06746976 -0.09552216 0.0056585814 -0.03894215 0.08437955 -0.013089072 -0.08025417 0.07098588 0.096942306 0.0442134 0.06639527 0.078217626 0.08043571 -0.0667446 0.12888642 0.1399314 0.024565116 -0.041517626 -0.0111139715 -0.0891338 -0.09121995 0.027061392 -0.0023276373 0.06542252 0.12691721 0.00306978
0.05217855 -0.12517935 -0.014935372 -0.06747717 0.094360135 -0.12426685 0.12053314 -0.031195773 -9.2264825e-05 -0.083085865 -0.054853477 -0.037544955 -0.031261187 0.02723807 0.104847394 -0.05239162 0.104997136 0.08268316 0.10726972 -0.0044089854 -0.10120197 -0.028511032 -0.0050216727 -0.04129244 0.06580383 -0.06800268 0.03592008 0.05082479 -0.118989676 0.05154494 -0.06373829 0.1632044 -0.014869766 0.13065885 -0.09204444 -0.15612988 -0.030590644 -0.07620356 -0.07667073 -0.0035975985 0.09805505 0.03713342 0.10476158 -0.038935147 0.03401153 -0.0042234114 -0.14690727 -0.030671183 -0.09696737 0.13984312 -0.07147778 0.1033701 0.09904283 -0.010329153 0.10559818 0.037129253 0.062382013 -0.03368988 0.09427933 -0.04934841 -0.12628102 -0.017259164 -0.050144132 -0.08641997 0.16482818 -0.024614405 0.09839338 0.029067531 0.15264478 -0.11762778 0.02784483 0.05555989 -0.09097346 -0.06467273 0.109944746 0.086520955 -0.11721297 -0.1459466 -0.096496336 -0.06899946 -0.114932075 0.043132205 0.11913044 -0.043256998 0.05398721 -0.077362075 -0.05570223 -0.07077439 -0.093036704 0.042478222 -0.055111542 -0.014105604 0.1452283 0.043198284 -0.044293568 -0.038517814 -0.119101085 -0.024124783 0.059955824 0.049487077 0.1345507 0.028350195 0.09798968 0.021963373 0.009254645 -0.08284591 0.023283904 0.096823595 0.0984337 0.05055373 -0.046366163 0.0038528205 -0.050738774 -0.10363413 0.076450735 0.094159305 0.091523565 -0.008967694 0.12762757 0.12540182 -0.066238426 0.10821038 0.05959531 -0.1120773 -0.05668312 0.024195205 0.04351693 0.047438163 0.03447994 -0.07045947 -0.14186658 -0.07682812 0.1283001 -0.027783027 0.09354694 -0.056825124 -0.14747082 -0.05345823 0.073920906 0.05465796 0.07628815 -0.07863226 -0.08726239 -0.02745496 0.05052652 -0.0055700736 -0.1054118 -0.11591832 -0.13132717 -0.08906057 -0.14715278 0.14955942 0.030763505 -0.055242956 0.10168707 -0.03404732 -0.051267467 0.14995144 -0.0578694 -0.019309 0.07086018 0.033032782 0.03586385 0.031645592 -0.109966315 0.07335973 -0.0016800896 0.0634341
-0.056578323 0.032001242 -0.05907488 -0.1193488 -0.09101693 0.0901329 -0.076543696 -0.010087826 0.12560181 0.025977159 -0.049422354 0.05748782 -0.024645273 0.05063265 0.0051238737 0.11878564 0.13726664 -0.121307425 -0.071277164 -0.038795732 0.05652688 0.08191662 0.025170304 -0.08679697 0.005985256 -0.06929456 0.059868906 0.03664662 -0.13194424 0.04248741 -0.09537547 -0.06778799 -0.097119376 -0.081044436 0.03771764 -0.047764175 -0.103480265 -0.13515076 0.1039344 -0.029215349 0.0023815974 -0.004854747 -0.11614474 -0.06683459 -0.038028922 -0.057516925 0.03381811 -0.034934774 0.078036346 0.12840335 -0.10363423 -0.022971548 -0.01753945 -0.07673421 0.072490446 0.031154139 -0.03354064 0.027885102 -0.025437294 -0.120598495 0.1275696 -0.08378917 0.09637343 -0.08392811 -0.013519949 0.035588037 -0.008851512 0.03998268 -0.06972028 -0.0746274 0.04875669 -0.08630224 -0.039989337 0.027115952 -0.0731938 0.006581241 0.06053841 0.02473431 0.03530937 0.12173187 -0.08606522 -0.13329884 0.0090887705 0.042382643 0.0911039 -0.022307137 -0.051067695 0.08266707 -0.08014671 0.08848127 -0.11342622 -0.0029879927 -0.069040395 -0.07711431 -0.036856633 0.07562057 0.054776706 -0.08623099 0.06512896 0.100545034 0.11116864 -0.054119505 -0.11431546 0.051287927 0.015776193 -0.093933865 0.05944499 -0.108179145 0.14356713 0.12147749 -0.061677273 -0.10077241 -0.044425204 -0.047232594 0.053226218 -0.030767044 0.13422081 -0.102421984 0.0012823471 0.04664214 0.016644835 0.047319077 0.0062982263 -0.12327257 0.07304333 0.14832942 0.033240397 -0.05401743 -0.0484797 -0.06702487 0.049505517 -0.04921435 0.08564545 -0.18548498 0.09239669 0.032264613 0.02782574 0.061589792 -0.04232349 -0.111660905 0.035300437 0.046876263 -0.055313896 -0.05081566 0.08425385 -0.08295224 0.05763151 0.006929913 0.007069407 0.06348007 -0.15351695 -0.11294848 0.028535478 -0.024771014 -0.09359181 0.04410484 -0.0005751246 -0.091687545 0.01237614 -0.11297455 -0.022633057 0.014858931 -0.026036588 0.028591257 0.051048994 0.13269421 -0.09572245 -0.11722535
0.11286519 -0.12029623 0.08327249 0.08691991 0.03378427 0.024019262 0.06016795 0.0659996 -0.055451676 0.09815081 -0.028635161 -0.11308574 0.07698876 -0.032869183 0.008102792 0.031438883 0.117978826 -0.04770258 -0.01315313 0.094669215 0.07865098 0.10749346 0.032835755 0.10547894 0.0066490844 -0.0326396 -0.12338306 -0.03255049 0.07472565 0.09045521 -0.060701862 0.0460645 0.11148867 0.12351525 -0.010490388 -0.111093454 0.10060546 0.064703755 -0.03768224 0.008675241 0.018946271 0.08378839 0.12677339 0.09500673 0.082083866 0.00015662386 -0.17147593 -0.1137943 0.025872525 0.02399869 0.05907464 0.035550363 -0.011443534 -0.06541941 0.020748815 0.14760734 0.11800961 0.062437177 0.020146618 -0.11753971 -0.02802672 0.053920798 0.09020751 -0.035381738 0.12325744 0.04826283 -0.030864622 0.09327258 0.0030996783 0.043731995 -0.09381057 0.04832335 0.09250871 -0.05042561 -0.05427413 -0.07602966 -0.055406563 -0.0020453501 0.09400013 0.05788918 -0.055509526 -0.07721817 -0.03711157 0.04901945 0.009589529 0.11496091 -0.05475989 -0.041960683 0.12406273 -0.11497121 -0.044513896 0.043284304 0.08466526 -0.013855949 -0.06269553 -0.020742722 0.0023610548 0.007063509 0.026302414 0.10203387 -0.08565367 0.0839395 -0.10938829 -0.036629576 0.1332086 -0.10748023 -0.013031015 0.121140406 0.11256774 0.10075063 -0.011287793 0.024502309 -0.08254785 0.098949715 0.107706524 -0.0642661 0.08737822 -0.030025417 0.008393558 0.09443659 -0.078990445 -0.15206933 0.12267028 0.08633597 -0.13985927 -0.09089006 -0.12260379 -0.09571806 0.009441002 0.0797573 0.085784726 -0.091516584 0.06699877 -0.08883926 -0.014111538 0.05957111 -0.13830537 -0.09599446 -0.021996452 0.051686574 -0.0063093225 0.025593784 -0.021001967 -0.046610497 0.091183074 0.022595067 0.060908485 0.10809645 -0.04415022 -0.0068950346 -0.057445273 -0.0416446 -0.100722164 0.026220366 0.006679756 -0.03482882 -0.09180248 -0.074787386 -0.08874856 -0.040626198 0.110684395 -0.078710295 -0.11958098 -0.046375353 0.118663885 -0.01751421 0.12512344 -0.009616277
0.016310459 -0.069364615 -0.040581375 0.07189864 -0.088854566 0.05289817 0.12505384 0.07791792 0.08144632 0.07808822 -0.087455936 0.026802761 -0.00114037 0.08974736 -0.08690111 -0.036902953 0.08204781 0.10322711 0.0769448 -0.10021645 -0.069619395 -0.0037469894 -0.114940606 0.0673582 -0.10927586 0.07151609 -0.012983657 0.071898706 0.052553754 0.1217744 0.09723505 0.16336419 0.057810828 0.10653018 0.08915876 0.08828048 -0.059728164 0.04969119 0.06425952 0.02705713 0.08987879 0.038508315 -0.07518865 -0.0022636545 -0.07098211 -0.06204457 0.034647826 0.13150495 0.07761539 0.1341142 -0.052585356 -0.06712408 -0.045409955 0.101597354 0.107024446 0.12897123 0.08335403 0.016302403 -0.1196262 -0.025900792 -0.10789271 -0.07736325 -0.09368735 0.0075613377 0.028547423 0.02027902 -0.13361585 0.06425345 -0.07801098 -0.108820565 -0.07643331 0.02388498 -0.08874536 -0.079973824 0.03960585 0.0012442056 0.10740492 0.017361585 -0.05216014 0.07988937 0.03504243 -0.069430396 -0.08461651 -0.0008285524 -0.066108294 0.051987465 -0.08127445 -0.024120001 0.054872196 0.09958263 0.0853114 -0.09831786 0.030194176 -0.08341957 0.014768168 0.08533183 -0.025521826 0.06031069 -0.041138865 0.065031655 0.11683188 0.038643416 0.10921886 0.038201388 0.11190493 -0.14322285 0.0058875633 0.005542162 0.03224356 0.09068416 -0.08447801 0.054864086 -0.10825858 0.09630509 -0.06422375 0.039230693 0.09776588 -0.08474396 -0.06096403 -0.07495039 -0.13575767 0.11659976 -0.091034725 -0.017243918 -0.09814183 0.119542815 0.11605266 0.023510767 -0.008500993 0.08324853 0.0162247 -0.13891208 -0.10788577 -0.090691976 -0.07239891 -0.006363093 0.11787039 0.008021193 -0.042590998 -0.038561016 0.0044592824 0.0890728 0.05747154 -0.08760261 0.09682392 0.025714086 0.113539904 0.11709398 -0.11603548 -0.031332422 0.014431804 -0.0665138 -0.059593827 0.058480937 -0.07852429 0.06732084 0.12602328 0.027518412 -0.0076671005 0.112014055 -0.101863235 -0.13422613 0.08404529 -0.06647091 0.028692931 -0.08775064 0.04417036 0.07423311
-0.06120975 -0.07683092 0.009311112 0.026300985 -0.07967932 -0.07965972 -0.036195785 -0.025842326 -0.07595452 -0.052887473 -0.08953835 -0.08963651 0.028692154 0.019674242 0.07619783 -0.10951461 -0.08091354 -0.0152966725 -0.101994894 0.040128797 0.080483675 -0.028733807 0.04124863 -0.09726197 0.023887165 -0.088095896 -0.0076907263 0.051832974 0.067330025 -0.01933835 -0.026309034 -0.09495807 0.05581236 -0.14159775 0.032472383 0.09698067 0.14868939 -0.059789814 -0.09145394 0.041263558 -0.11042431 -0.096605964 -0.018100996 -0.09293548 -0.019301312 -0.08120548 -0.14608379 -0.053810842 -0.032645393 0.057526004 -0.11192128 0.12483172 -0.028101848 0.033570006 0.08339903 0.054234993 -0.05429991 0.082534544 0.012183573 0.11124272 -0.012048066 -0.10851836 -0.052620467 0.028822668 0.0012075342 -0.110266134 0.012179958 0.045940284 0.0048217434 -0.019165924 -0.03693618 -0.10767698 -0.07035929 0.14748888 -0.10620335 -0.06326509 -0.042957842 0.124958254 0.14299697 -0.09455111 0.03564821 0.12390705 -0.101326525 -0.09390504 -0.065486744 -0.005990701 0.040950518 -0.03955767 0.14379965 -0.033575412 -0.12798133 -0.0649326 0.11875181 0.020265147 0.15277146 -0.07683042 0.10645702 0.0703718 0.10849329 -0.053836092 0.054198515 -0.13691749 0.0741805 -0.047428224 0.028303638 -0.011130693 -0.0919095 0.1134593 0.023055477 0.0031904543 0.09017328 -0.09624019 -0.13378935 0.06935623 -0.053307686 -0.08332787 -0.05784068 0.09083999 -0.08239848 0.024024844 0.051427886 -0.046529163 0.053200204 0.07016985 -0.045619477 0.091435514 -0.016330102 -0.10264363 -0.017361086 0.092584856 -0.07283665 -0.08522379 0.04566944 0.03397544 0.05075461 0.035813928 0.08162877 0.07035335 0.07165695 0.12507005 -0.113846704 -0.03436067 -0.13290435 -0.060021594 0.14041886 0.0232944 -0.114316255 -0.07610437 -0.0815051 -0.053850252 -0.12436222 -0.10613569 7.7324476e-05 -0.0899945 0.03122979 -0.08818399 -0.12888664 -0.062531166 -0.1091418 -0.028617626 -0.112511985 0.040631328 -0.06797059 -0.022669712 0.027102368 -0.041082148 0.006096128 0.040108092
-0.029729884 0.042444605 -0.014644537 0.0658317 0.1307904 0.112109445 -0.014158084 0.14263932 0.12650603 0.07712237 -0.045477938 0.1403902 -0.029579477 -0.09078221 -0.065537676 -0.014148378 -0.1223422 -0.09248453 0.073598266 -0.008020129 -0.052143622 0.061202697 -0.06351475 -0.04833076 -0.06799484 0.10743252 0.010600579 0.03898743 0.10622201 0.049669694 0.09597778 -0.0065053725 -0.10853883 0.021897476 -0.06957641 0.08650773 -0.03853023 -0.021836847 -0.039927196 -0.12106728 0.03252655 0.00066926185 0.08259364 0.022781143 0.12058522 0.011944949 -0.0057980223 0.110224806 0.051057216 -0.0369097 0.004403295 0.10554144 0.11085732 0.11670805 -0.06379968 0.011724756 0.04976736 -0.0956414 0.10161485 -0.011568546 -0.002926562 0.07279314 -0.06381383 -0.09538625 -0.07249947 0.07395256 0.08859271 -0.08823093 -0.030796757 -0.09600277 -0.050588977 -0.047840957 0.10418928 -0.017651148 -0.0280928 -0.13676181 0.11422384 0.06179562 -0.068007745 0.070457876 0.0130368285 0.006875209 -0.005317802 0.09542149 0.04688348 0.019616619 -0.08253645 -0.03124401 0.007534286 0.0760423 0.12120244 0.12193591 -0.023742048 -0.08183638 -0.106452435 0.04643381 0.031312793 0.07353694 0.041161656 0.056125406 -0.06611059 -0.018371055 -0.05783771 0.0063398536 0.06697409 -0.027076975 -0.10444374 -0.039418314 0.08379404 -0.027338333 0.07956721 0.13223241 -0.10528766 -0.06146533 0.0086606955 0.055737317 0.059759416 -0.12520352 0.010734698 -0.12359056 0.10456679 0.108866885 -0.14809045 0.10156458 0.044345073 -0.05919882 -0.0853363 0.0239416 0.026151115 -0.045812476 -0.12307451 -0.1001473 0.12426081 0.10870673 0.00034791956 -0.015760005 0.046550523 0.09128633 -0.10482056 -0.03487216 0.0860565 0.07135061 0.08622573 0.1026288 0.03072572 -0.029235408 0.12684135 0.024941124 0.11404702 0.12419697 -0.02043202 -0.09327186 -0.106759325 0.01985308 -0.110362604 -0.08958611 0.055932354 0.02650698 0.06428567 -0.11450798 -0.006469226 0.105464056 0.09043126 0.12702745 -0.13586776 -0.01982529 -0.10859001 0.0750059
-0.0020472552 0.012056568 0.04556562 -0.033892833 0.0047718636 0.06923183 0.0011232039 0.01681093 0.12388568 0.09668147 0.085849196 0.03474542 -0.09707101 -0.123099044 -0.11729442 0.004521998 0.041528486 -0.087685175 0.045085005 0.069976404 0.06058907 -0.0056785345 -0.002640238 -0.1256128 0.102843225 -0.01539118 -0.031192062 -0.095774375 0.118157245 0.09722541 -0.08118513 0.0010395861 -0.06256976 -0.10546344 0.10819501 -0.090987206 0.107515804 0.019438984 0.10490378 -0.06313715 0.058008946 0.10773733 0.11034217 0.056704402 -0.013409588 0.05793406 -0.09540268 0.071399085 0.0038065275 -0.097888865 0.11603427 -0.0013760416 0.053996094 0.07122383 -0.07837787 0.1605778 -0.041541975 -0.084255606 0.012569855 -0.121899575 0.073185176 0.00981722 0.06308885 0.14619435 -0.048767783 0.10319182 0.08825343 -0.13480559 -0.08242491 -0.032429237 0.11073798 -0.045514565 0.034073576 0.08523565 0.025052128 -0.112473406 0.05349652 -0.01141213 -0.020463273 -0.10336234 0.12012195 0.019386597 -0.112007394 0.025961816 -0.047071196 -0.10299982 0.034805086 -0.007883537 -0.08335736 -0.07837587 -0.03691959 0.024047717 0.12443225 -0.08654296 0.05443873 0.07099585 0.119726405 -0.11142003 -0.0075714206 0.09459782 -0.05687155 0.070301846 0.0018044115 -0.0016166029 -0.10480454 0.0015374342 0.046126477 0.12134319 0.15759674 0.14270078 0.109813735 0.041345842 -0.08016274 -0.0754817 0.027270937 0.034917746 0.15495054 0.074383035 -0.13373429 -0.12073711 -0.0008736418 0.01036767 0.10037043 0.12196202 -0.12957805 -0.043478474 -0.08588435 0.06891073 0.0815398 -0.0831031 -0.10238359 -0.01302828 0.08696091 0.05605232 -0.08139322 0.120856486 0.06629513 0.09160377 0.031012386 -0.064504966 0.09945052 -0.01576038 -0.037615657 0.11406681 0.13408431 0.049414635 0.026598517 -0.041023735 0.06012237 0.03415114 0.07764063 -0.11720996 -0.08372284 0.008954405 -0.061058424 -0.08899231 0.12880363 0.037917003 -0.017261919 0.10181598 -0.081699625 -0.12579338 -0.03051332 -0.028794901 -0.110756405 0.0064751282 0.09005589 -0.12519899
-0.11132539 0.089459024 -0.08822393 -0.084663235 0.0005932613 -0.042445887 -0.06772029 0.08986886 -0.013616513 0.10902323 0.021265807 -0.10699411 -0.01149827 -0.12081171 -0.092725255 -0.06987377 0.093466446 0.06542119 -0.061692767 -0.15230455 -0.082236804 -0.088493295 -0.09453437 -0.109002866 -0.12004916 -0.02555836 -0.10222918 -0.04570732 0.10399898 -0.064408764 -0.07359406 0.0480514 0.03548178 0.026709693 -0.08490343 -0.058783174 -0.099315345 -0.032907154 0.14294891 0.10670835 -0.05639524 0.08476539 -0.032614615 -0.051872157 -0.043957863 -0.10215896 -0.0131906895 -0.11781333 0.05274678 -0.006937527 0.009486135 -0.05988403 0.025217857 -0.010460403 -0.037150063 -0.03108381 0.10660404 0.13476205 0.06963617 0.01095996 0.048767142 0.034652643 0.04837503 -0.045146927 0.09048746 0.052186925 0.0020075822 -0.056662478 -0.021769542 -0.068676084 -0.04015256 -0.07061509 -0.06995039 -0.063440196 -7.13962e-05 -0.061817322 0.030656625 0.038858384 0.10252787 0.052966073 -0.044017043 0.031994272 0.105250925 0.08187849 0.09400023 -0.055722732 0.03742414 -0.060743816 0.121808104 -0.032799937 -0.0500419 -0.07474362 0.107628085 0.026325412 -0.003273137 -0.061550327 -0.03732151 -0.0021003026 0.066056535 -0.022229915 -0.08900615 -0.07482949 -0.09604849 0.050159145 0.08606346 -0.13407712 -0.016583063 -0.06097762 0.052664053 -0.09548978 0.05482114 -0.014242588 0.03776456 -0.08677406 -0.0034918943 0.10698184 0.15986118 -0.09727329 0.09477792 -0.022695798 -0.11416844 0.04152094 0.110529326 0.105970584 -0.04097739 0.008964126 0.111284256 0.05017053 0.10443952 -0.0414821 0.10450622 0.093651384 -0.07487031 -0.16323575 0.01304784 0.022910843 -0.05775851 0.10604548 -0.043130077 -0.08246735 0.056675866 0.105779506 -0.06470444 -0.09869121 0.071526945 -0.0054122917 -0.07676023 0.13101812 0.066918895 -0.095966086 0.08957962 -0.08755325 0.021472946 -0.048916567 0.098926045 0.13401638 0.09111261 0.018685225 0.09921376 0.07619476 -0.040671084 0.0458113 -0.102864265 -0.10204565 -0.040305827 0.031743072 -0.055560164 0.018401004
0.06242226 -0.054705866 0.06300326 -0.121706724 -0.074114315 0.066845156 -0.08203404 -0.0615972 -0.047915287 -0.047661215 -0.10486672 -0.051218692 -0.10991366 0.0162884 -0.06160415 -0.040414188 0.03182095 -0.10452067 0.028211808 0.10311771 -0.08642957 -0.047956496 -0.07304788 0.062488064 -0.12545884 0.14379767 0.017604774 -0.07640242 0.038115453 0.016549377 -0.050247334 -0.05767415 0.015615146 0.059123904 0.08076253 -0.02976542 -0.062250555 -0.033230335 0.061944425 -0.11874222 -0.13279685 -0.024817582 0.04630524 0.0927015 0.007955446 0.027579464 -0.17645043 -0.013837529 0.047502026 -0.07908372 0.117231615 0.009254917 -0.044349827 0.12717254 -0.0068093278 0.06613059 -0.03560244 -0.07319861 0.073268846 0.071189635 0.1289277 0.008933416 -0.10556068 -0.080353074 -0.055383857 -0.033711262 0.03505868 -0.088281 0.04733579 -0.117025 0.08238924 0.10283108 -0.046174504 -0.0439713 0.109511755 -0.05153811 -0.089841254 0.09729736 -0.05089817 0.014392576 0.067486584 -0.07366848 0.03803445 0.06663726 0.033428013 -0.079664834 0.11738183 -0.09418251 -0.042918563 -0.08712086 0.08207396 0.096832804 0.07448286 -0.13225608 0.13727681 -0.038878758 -0.030881744 -0.018830515 -0.0038685703 0.088836804 -0.086850055 -0.11190808 -0.0939167 0.09329691 -0.021836808 -0.0037476788 0.04116518 0.09869449 -0.08256241 -0.09862494 -0.018128926 -0.11778386 -0.07575018 0.0007531671 -0.027534427 0.0005275136 0.12696062 0.069401294 0.12725367 -0.11480476 -0.05764726 0.019893683 -0.069096304 0.11917015 -0.012366585 0.10945059 -0.07008119 0.05231393 -0.009745679 -0.0837412 0.08008765 -0.014658478 0.098330915 -0.11000868 0.09306582 -0.022235336 -0.0055426583 0.13068219 -0.10805742 -0.077527665 0.067957275 -0.058725707 -0.087603986 0.104605 0.113929495 -0.052685473 0.13037387 0.029616218 0.030885173 -0.0113138445 0.014245388 0.10202597 -0.036887128 -0.022042824 0.094829544 -0.02786185 0.13726594 0.012421592 -0.07731006 0.0031485786 0.0199992 0.02147564 0.11661781 0.017688623 -0.020657817 -0.08291846 -0.07206469 -0.11770704
-0.11858066 -0.023482796 -0.14695963 0.117207326 0.013919844 0.105461195 0.021788532 0.042234067 -0.007167044 -0.08734688 -0.011284129 0.05470639 -0.13234699 0.0007348858 -0.023270188 -0.12583083 0.13186489 0.069941364 -0.013857897 0.008895879 -0.021496138 -0.022441855 0.00016322077 -0.14733255 0.056625623 0.13819762 -0.1100231 -0.07426543 0.073948294 0.059507925 0.08985929 -0.034259055 0.033185143 -0.048894476 0.0336383 -0.124828495 -0.077764854 -0.0048316135 -0.018639103 0.10483093 -0.050844558 0.13536298 0.09840071 -0.057222717 -0.10387176 -0.07234496 -0.13566817 0.03543027 -0.013382855 0.056410927 0.049149275 0.078560635 -0.046381816 -0.08030761 0.03498005 0.10748237 -0.09927722 0.13693047 -0.14827013 -0.078777276 0.041974314 0.1188945 0.034726515 -0.08802749 -0.009505759 -0.11766053 0.009249263 -0.10965731 -0.06745566 -0.009603405 -0.009929845 -0.07984592 -0.045848843 -0.08784838 -0.13720393 0.093851276 -0.011975002 -0.034206342 -0.06880769 0.09163918 -0.026302861 0.007984034 -0.066949315 -0.035936836 0.00730248 0.026123723 0.064049914 0.11592463 -0.011018182 -0.042248495 -0.06420309 -0.08508653 -0.028213069 -0.119606145 0.044070184 -0.10925142 0.115974486 -0.01848652 -0.07084451 0.06359931 -0.06300162 0.08667276 0.054032866 0.051769134 0.13372809 0.11285936 0.12527548 -0.09749082 0.054263927 -0.022710681 -0.12365603 0.0769443 0.039695304 0.11116971 0.12741642 0.121864565 0.069224894 0.010761591 0.0040789135 -0.10334029 -0.08561977 0.06322201 -0.11927495 -0.05646369 -0.06659496 -0.048373573 -0.055317357 0.029396392 0.14269474 -0.048734985 -0.13723375 -0.11393944 -0.11219292 -0.13589635 0.04220614 0.03949078 -0.15974647 0.009990332 -0.052516453 -0.0926911 -0.10216322 0.025410097 -0.1269958 -0.013640923 -0.08415858 0.14706974 -0.10996594 -0.04107762 0.116834156 0.13316555 -0.012272749 -0.06397769 0.030778013 0.022838656 0.010727292 -0.021731777 -0.059742745 -0.017204048 -0.028313119 -0.09738946 0.15002972 -0.06888033 0.14300868 0.12413635 0.0074669598 0.049104057 0.024387477 -0.05524906
0.12715681 -0.07656947 0.10008571 -0.105661795 0.07851959 0.054839622 -0.08281183 -0.13087384 -0.048319466 -0.0896233 0.080362886 -0.032770593 0.065762684 -0.06334908 0.0072000925 0.12558678 -0.07555414 0.11814933 0.03315244 -0.06480378 -0.028274441 -0.022548974 -0.05008017 -0.02098986 0.12851942 0.031251356 0.0907581 0.069784954 0.031736877 0.009661318 0.11721133 -0.09659475 -0.022191685 0.011093917 0.017375398 -0.09993937 0.13373771 -0.11022003 0.12754907 -0.11645888 0.060411908 -0.07510007 0.0016773643 -0.051543046 0.09470232 0.07995292 -0.09151351 -0.062180404 0.098360404 -0.055194356 -0.033189677 0.025572274 -0.098777235 0.073374614 0.070634715 -0.023700578 0.11079934 -0.11000669 0.07811631 0.077085145 -0.054624107 -0.07204155 0.11964793 -0.10892477 -0.12129123 -0.09467848 -0.008364358 0.01503383 -0.043543346 0.008148876 -0.116186105 0.071844585 -0.019223752 -0.043389495 0.006018267 -0.059660815 0.0068176268 -0.072076485 -0.05010832 -0.13158296 0.102293625 -0.07987813 -0.117700316 -0.04840648 0.07402979 0.006404772 0.0069026556 0.043973133 -0.09885171 0.10707213 -0.02627042 -0.0037919201 0.11990136 0.016635658 -0.1325034 -0.11306839 -0.008573488 -0.030781986 0.022593271 0.00079052075 0.07074219 -0.024144394 -0.058515776 -0.091812216 -0.07767912 0.06529089 0.0063113966 0.0032584136 0.10393272 -0.115442276 0.014049709 0.04847982 -0.11437031 0.057608813 0.07565421 -0.13411129 -0.07389805 0.15099163 0.068290755 -0.12971461 0.11012962 -0.056967974 0.10267581 -0.07983332 0.06601345 0.040848795 -0.044452686 0.021965187 -0.0060233595 -3.9688857e-05 -0.05309693 0.06879664 -0.07515182 0.03726353 -0.0089982515 0.030791761 -0.120434664 0.05171952 0.102710865 0.10774784 -0.12934698 0.12953669 -0.101891354 -0.04827302 -0.10623779 0.119627535 -0.06885389 -0.06461309 0.09596696 0.00018155314 0.004721733 -0.10230406 -0.01582868 -0.09185563 0.011052383 -0.073027596 -0.080000475 -0.023173118 0.09890678 0.07222121 -0.05318335 -0.13382536 0.013626677 0.0664415 0.06395625 -0.09819711 0.009546561 -0.09492507
0.033238243 -0.059862994 -0.028139364 -0.07072113 0.10658496 -0.013522297 0.111496575 0.06608904 0.11023121 0.075805806 0.054806203 -0.07516861 -0.058860943 0.10856437 -0.010408175 -0.05684463 0.033946753 0.016891478 3.798113e-05 -9.601621e-06 -0.14297792 0.11611114 0.0732066 -0.115005136 -0.07686259 0.0027629954 0.06815905 -0.10276635 -0.13115513 -0.020798786 0.057486918 -0.11789868 0.021128029 -0.011630775 0.10609288 -0.11273337 -0.0030841974 -0.11244793 -0.11173887 -0.066164926 0.09254845 0.047102332 -0.08032573 0.12433194 -0.1261033 0.029315442 -0.0026056506 0.0012543624 -0.019683935 -0.03714763 -0.067019306 0.053243943 -0.0015577739 -0.06589228 -0.043492682 0.015965037 -0.14742447 -0.07382688 -0.1460402 0.037452962 0.05204174 0.04642518 -0.123499274 -0.04711408 0.12119036 0.057914086 -0.11059777 0.024092173 -0.047577724 -0.09259138 -0.15134345 0.035238005 0.02536409 -0.089300394 0.05675087 -0.040676374 -0.031664386 0.008525794 -0.045322906 -0.08228904 0.006900492 0.11397527 0.075998604 0.13476312 -0.08225598 -0.08230315 0.013066578 -0.062647685 -0.11222426 0.019488418 0.09370503 -0.060098853 -0.045854658 0.22199966 -0.06925775 0.04613584 0.102642246 0.0985485 0.09919386 0.12438498 -0.09905016 0.048161946 -0.06381435 0.014460841 -0.016774423 0.008892017 0.010470357 0.035814844 0.011928642 0.10386343 -0.07298269 -0.10111968 -0.09397719 -0.05032859 -0.02941683 -0.02983594 0.08170766 -0.03179343 0.027935576 0.13231455 -0.1248666 -0.07328803 0.01948778 -0.021045545 -0.13721247 -0.092930645 -0.012648619 0.12888971 0.10782165 0.11652681 -0.114383906 -0.14934541 0.052466553 -0.123907335 0.081144586 0.07509105 0.08767683 0.014793901 0.04110316 -0.0017107252 0.10360509 -0.03089738 0.069917284 0.01653695 -0.09572807 0.008772197 -0.026140857 -0.03148488 0.015311565 -0.010914186 -0.060083974 -0.10440203 -0.036473926 -0.059347235 0.11264974 0.018742591 0.08647852 0.08998714 0.09952221 0.122735515 0.024756314 -0.03616161 0.08203056 -0.02891948 0.0867113 0.0075645493 -0.105260484 -0.08598108
0.14217289 0.08483449 0.086499214 0.13031988 0.036782797 0.09843322 -0.036120567 -0.15128177 -0.05881295 -0.019428197 0.019514106 0.059409 0.016702931 -0.04131174 -0.027945578 -0.007965078 0.037990417 -0.11200157 0.013287652 0.01620134 0.02709034 0.13001442 0.00037078655 0.08367754 0.03923785 -0.09877432 0.14725877 -0.054081712 0.11984893 -0.002241845 -0.0017689229 -0.05883986 0.11154035 0.10460985 0.08012629 0.11347295 -0.068502806 -0.014100872 0.12638108 -0.13318634 0.106678136 0.10604937 0.11952624 0.03701242 0.05507838 0.068793856 -0.082044646 0.07691696 0.02264695 -0.031300876 0.088239945 -0.07073686 0.1071042 0.059582245 0.10673165 -0.0104145855 -0.09999937 -0.120225415 0.08202601 0.13585111 -0.038881376 0.009148927 0.09419895 0.07285102 0.039921 -0.039180372 -0.05655026 0.09843404 -0.07157558 0.108591065 0.05513958 0.12687853 0.09663223 -0.012379581 0.15409735 -0.1167007 0.01843257 -0.06684638 -0.09681568 -0.009006243 -0.059989654 0.08254621 0.060277622 0.026202139 0.10209297 -0.0028414964 0.04605965 -0.07206771 0.09404556 0.086509876 0.09830672 0.10977687 -0.11471315 0.16333008 -0.03131631 -0.047922425 -0.008486075 0.09692442 0.105400436 0.12064046 -0.06366037 -0.08458892 0.03768819 0.029715586 0.11239387 -0.010635004 -0.048929505 -0.115779735 0.07059522 0.107072815 -0.053045884 0.11002965 0.054591924 0.114126325 -0.041813087 0.009615537 -0.010078504 0.07259404 -0.032342196 0.123897396 0.06576475 -0.04488566 -0.08759675 0.05394624 0.025079211 0.12513952 0.03711082 -0.0227055 0.1319207 0.09050474 0.048916016 -0.072470166 -0.055210274 -0.09562935 -0.17603931 -0.11124532 -0.12778294 0.0011251082 0.13278566 0.020514093 -0.0059926664 0.1159515 -0.0058420473 -0.09012063 -0.030667907 0.12320565 -0.09881279 -0.06976832 0.083931684 0.016760722 -0.09355097 0.08542543 0.009907428 -0.088310614 0.13172211 0.034127884 0.041270003 -0.10721873 -0.052510567 -0.12803243 0.116134465 0.04206881 -0.10803276 0.11427143 0.0821026 -0.10482085 0.08458382 -0.12060936
-0.11135893 -0.11030152 0.009374139 0.11884879 0.054386385 -0.07229947 -0.07661836 -0.0254361 -0.025661394 0.011781729 0.022830438 0.094469056 0.039343584 -0.006264399 0.105615824 -0.016888846 -0.102045104 0.04309573 0.028072959 0.08600563 0.03858939 -0.065215595 -0.023977995 0.07406441 0.1316788 0.053368695 -0.016560318 -0.070284165 0.0006821736 -0.11558123 -0.10031723 -0.040149987 0.023072913 -0.07793471 0.036441952 -0.10992391 -0.024275647 0.12225794 0.019082766 0.035046607 -0.0075705326 -0.07077207 -0.1393865 -0.087621756 -0.11613339 -0.079385825 0.07521347 0.10814316 0.09321613 -0.06045009 -0.13902935 -0.11347671 0.0073820553 0.02873852 0.07965099 -0.11090971 -0.00408036 -0.041078024 0.10773374 -0.071681686 0.0001460414 -0.074946105 0.054786384 0.08312205 -0.06185976 0.051904283 -0.11808192 0.09265965 0.13929048 0.013980697 -0.06728098 -0.05177871 0.0493015 -0.079561494 -0.067965694 0.070865735 -0.010791096 -0.10934157 -0.009867931 -0.12426104 0.14269981 0.046994824 -0.100370124 -0.09339083 -0.07004082 0.09940703 -0.030065468 0.10613589 0.10905865 0.05576009 0.08741696 0.022826292 0.057729844 0.017605238 -0.070731476 0.13468154 0.061357826 0.015956981 -0.110669635 0.09672324 -0.016194128 0.10216599 -0.10769982 0.043424662 -0.06322162 0.08788061 0.04385747 -0.008639113 -0.054217603 -0.11370357 0.027140614 -0.09679792 0.083406605 -0.07842453 -0.081652276 0.031888753 0.078585036 0.09910199 0.118407585 0.08452054 -0.007104043 0.019215662 -0.030851534 0.12198345 -0.13899231 0.08764211 -0.10297721 0.109842815 -0.095980614 0.08475498 0.06912972 -0.14772128 -0.010620176 0.048313297 -0.016771944 -0.05094216 -0.11810767 0.064228594 -0.03507478 -0.052240465 0.112471335 0.08314788 -0.0048177633 0.06886404 -0.09495286 -0.05278697 0.007816069 -0.052628275 -0.06398836 -0.07826621 0.123352714 -0.003539561 0.108194575 0.09045107 0.053637575 -0.11161511 0.14356677 -0.12682782 0.086668976 0.048335034 -0.105965756 0.0681228 0.06916103 -0.10856918 -0.12569079 -0.006120334 -0.067573905 -0.064150125
0.13396198 0.104907684 0.09717845 0.095027484 -0.12081041 0.12564966 -0.1014158 0.10987307 -0.044285737 -0.03856471 0.12944523 0.0064275544 -0.1307105 -0.099929586 0.032886606 0.010909029 0.066457696 0.038592666 0.0011722713 0.01668832 -0.023227902 0.04110543 -0.0068830797 0.024074515 -0.10733394 0.08165885 0.018099872 -0.043496966 0.11097015 -0.047751658 0.11037293 -0.06644201 -0.049834978 0.12592529 -0.105918236 -0.11262614 0.009031324 0.085572034 -0.10794622 0.06359679 0.08846374 -0.003217933 0.09685343 -0.09398167 0.12549788 0.06028297 0.087508656 -0.07027242 -0.027364882 0.10934709 0.029066682 -0.05663505 0.04413315 -0.080469735 -0.09954371 -0.13015318 -0.06135602 -0.09874159 0.0075517097 0.04125001 0.073209085 -0.018910974 0.0072590397 -0.015492712 0.06591431 -0.0016138954 0.029385183 -0.04972691 0.023064509 0.038932115 -0.13383073 -0.055063643 -0.07045607 0.07042645 0.1417237 0.043284338 0.11191119 0.1002473 -0.06762428 -0.007194458 -0.011240222 -0.09317936 0.07205483 0.05444823 -0.045611583 -0.041214764 0.039195467 0.09795022 0.06752761 -0.12181402 -0.073002696 0.052351627 -0.09962017 -0.02714207 -0.10616808 0.00970704 0.13452439 0.018186824 0.039678067 0.11835831 0.08972244 0.031221349 0.08770504 -0.045711476 0.05954223 -0.037366096 -0.11446696 0.030416667 -0.101160005 -0.09891706 0.11284519 -0.02335215 -0.11698302 -0.0065983394 0.09652238 -0.04400228 0.07610381 0.1551605 0.06398529 0.079753764 -0.12092402 0.12891376 0.10917048 0.06998734 -0.013243967 -0.11186471 0.11427532 -0.10430977 0.04886548 0.0832504 -0.00037538307 0.057775363 0.03761449 0.04331131 -0.16730182 -0.08704765 0.038920682 -0.06630876 0.11667246 -0.00052337366 -0.061875194 0.08153402 -0.13142455 0.097478814 0.09365811 -0.076592304 0.011252119 -0.092933185 -0.0032064423 0.0147071825 0.09982804 -0.04082575 0.0023923633 -0.053601258 0.06300562 -0.13013217 0.04469073 -0.119001985 -0.07759316 0.022604648 -0.12957457 0.08312451 -0.10637027 0.09292192 -0.0676959 0.05209391 -0.06362374 0.11584938
-0.114469565 0.11225555 -0.05829392 0.04681283 -0.118046455 -0.09954368 0.12929532 0.07250554 0.031924326 -0.11860874 0.0753262 -0.0023241 -0.042474464 0.04590055 0.03417829 0.07972561 0.037903428 0.11295506 -0.13015765 0.065475814 -0.019768167 -0.081199065 -0.04509201 -0.041585725 0.13768868 -0.005362718 0.08395017 0.006937714 0.05929651 0.05560489 -0.059144113 0.013609286 -0.09968462 0.107985415 0.138419 -0.08828324 -0.10563018 0.10519267 -0.05602148 -0.10927702 -0.14146018 -0.06973383 -0.027827268 -0.094194 0.06584339 0.08911404 0.116819836 -0.037557527 0.07878761 0.07879835 0.021810552 0.08913012 0.05307725 0.14234728 -0.111819685 0.09557792 0.059365556 -0.025199473 -0.066959254 0.02844838 -0.0047797905 0.12743956 -0.02570281 0.11777527 -0.09827256 -0.03432744 0.020622715 -0.116143174 0.10109071 -0.13109799 -0.029474925 -0.12094531 -0.011909164 -0.07488363 0.14783956 0.114764065 -0.09076461 0.09321809 0.09571468 -0.042627655 0.042494643 0.007572881 -0.113931574 0.09201438 -0.086096324 -0.07761916 0.12777399 0.009135399 -0.10155529 0.03585271 0.10270505 0.1141513 0.122657634 0.13647197 0.10129409 -0.028542142 -0.120400056 0.15279604 -0.10026601 -0.021473167 -0.03516772 0.011379413 -0.04817679 -0.014411087 -3.5317316e-05 0.108427875 0.012837347 0.121161304 -0.1122283 0.13454019 0.026451396 0.05621108 -0.002622398 0.045464225 -0.12773445 0.11305802 -0.05065481 -0.10573034 -0.12194692 -0.1351823 -0.13090235 0.035845578 0.11943994 -0.00032585303 0.0593496 0.011646594 -0.038724516 0.03181778 0.043274295 -0.047716044 -0.011678033 0.073797986 0.017801192 -0.0060864654 -0.021626547 0.05449307 -0.09750827 -0.0018866918 -0.059117585 0.12575702 -0.04193901 0.027220452 0.05274788 0.0037645116 0.018028429 0.1355015 -0.010674141 -0.092888154 -0.080338694 -0.032359634 -0.10717885 0.07336622 -0.022261208 0.050580077 -0.0811042 0.0873042 0.019215768 -0.008037151 -0.06752633 -0.14372906 -0.059129342 -0.13069871 0.11035793 -0.017036831 -0.104718514 -0.12065029 -0.09459423 0.099925876
-0.07000126 0.11961011 -0.1359481 0.06103531 0.07395797 0.070461676 -0.009190882 -0.123812966 0.13487893 -0.02110061 0.005631531 -0.1357999 0.10495399 -0.028380442 -0.048815 0.11592257 0.011186901 0.048491046 -0.089473374 -0.006244596 -0.11924504 0.034192678 0.06637006 0.054707624 -0.0010769253 0.04504679 -0.014422138 -0.07492798 -0.053888477 -0.08866784 0.05325674 0.0068969857 0.09089849 -0.00804765 -0.1191564 -0.010472435 0.13860106 0.037098546 -0.099589124 0.072387464 0.07755517 0.13552034 0.13300763 -0.09474617 0.015163092 0.066095516 -0.099793024 -0.06262106 0.024664128 -0.057836596 0.00770159 0.1235454 -0.012436426 0.051375143 0.070870504 -0.07451443 0.010485778 0.12169119 -0.1471896 0.13157873 -0.06268343 -0.10799992 -0.091863535 -0.012012114 -0.008866418 -0.042932928 0.026497206 -0.051688097 0.044944964 0.022924015 -0.11128574 0.004999679 -0.0687633 0.10300873 -0.07468268 0.11982545 0.14271744 0.030459858 0.085585855 -0.14708106 0.1205562 0.1179491 0.12923306 0.10695311 -0.059210487 -0.06738969 -0.011525501 0.13148096 -0.11498227 -0.12647039 -0.11906886 -0.03190143 0.047387443 0.15167744 -0.04869121 -0.06534923 -0.008180043 0.15413043 0.03630682 -0.01238456 0.04642693 -0.065358736 -0.047090348 0.029162405 0.0035869398 0.0862236 0.06299356 -0.05818093 0.07035857 -0.08759778 -0.0863018 0.033678178 -0.030098014 0.021608053 0.04787157 0.119880974 -0.1601599 0.12563488 -0.05633317 0.10990729 0.056668755 0.029828547 -0.0582175 -0.013938262 -0.006656947 0.09830647 0.07112286 -0.10180494 0.09222142 0.04025977 0.09295427 -0.03812678 -0.019752074 0.17540394 0.071827084 -0.114776224 0.10807996 -0.073353685 -0.10906184 0.029247599 0.059184413 0.06686541 0.0145455375 -0.033492286 -0.059228826 -0.09504869 -0.022801815 0.063142955 0.055567585 -0.05015229 -0.08248953 0.043604564 0.058289863 -0.05307076 0.071460195 -0.038316403 -0.1321528 0.10860858 0.1035445 -0.09482713 0.071304575 -0.078015134 -0.035540093 -0.018093862 -0.11894479 0.046167366 -0.02076923 0.012815883
0.03158195 0.02584085 0.10741373 0.10560394 0.08238901 -0.06475295 -0.048125006 -0.063488476 -0.11911757 -0.08006552 0.110654905 -0.12415733 0.08418693 0.10893146 0.092715256 -0.009559474 -0.020009883 -0.10717125 0.07790698 -0.11030077 -0.07039449 0.012173688 0.11333468 -0.05321019 -0.124050416 -0.0611538 0.0409842 -0.003312037 0.08149126 0.07874729 0.024947332 -0.08916095 -0.004871783 0.06076489 0.034913126 0.1120646 0.10097789 0.09017626 0.13931341 0.12043577 -0.04178549 -0.10716541 0.033021484 -0.1169764 0.061935797 -0.041848786 0.011281816 0.104696035 -0.12166426 -0.05334689 0.04846163 0.086621426 0.031973112 -0.011983643 0.04801146 -0.12282252 -0.027060566 -0.010691675 -0.14665933 0.046859246 0.10386974 -0.13103627 0.07938229 -0.056582496 -0.022922812 0.0049277586 0.073520005 -0.060429066 -0.09171985 0.011068922 0.122784734 -0.12581925 0.084707364 0.077802666 0.009453074 -0.0051570237 -0.107528046 0.04541941 -0.120376274 0.103858456 0.070761845 -0.04193957 -0.023438036 -0.08828645 -0.09047691 -0.095155045 0.10038353 0.108527645 0.12871467 -0.0486068 -0.050553143 0.090177394 -0.033946697 0.1630748 -0.02161126 0.099360876 0.03664892 0.08823468 0.030706497 0.114898875 0.103513695 0.07371308 -0.10168397 -0.031708736 -0.12896109 0.015363515 -0.023982773 -0.12170548 -0.084552355 -0.041657217 0.065636694 0.071478285 -0.08310071 0.087606266 -0.017158521 -0.101376615 -0.052077286 0.029991804 0.006800259 0.12061018 -0.05807726 -0.12452253 0.11834109 0.067763306 -0.10540299 -0.026480645 0.0759873 -0.10065766 0.090613164 0.015628764 -0.049413666 0.08032381 -0.088364 -0.050881956 -0.070189714 0.11637877 -0.0583586 0.029215343 -0.09801724 0.04195691 -0.086987555 -0.06374513 -0.011484325 0.05965814 -0.052763388 0.09023988 0.16182986 -0.017820397 0.118348494 0.04436307 -0.11101381 0.048356164 0.06483912 0.040419705 -0.031315535 0.044996057 0.060413808 -0.034693606 0.11358492 0.05694218 -0.069686 -0.015579013 -0.11965256 0.042402167 0.13024406 -0.05582164 -0.04663064 0.0556139
0.008177387 -0.044061985 0.11265321 -0.021639451 0.0020000455 0.022681674 0.12520221 -0.12974931 0.010121799 -0.04330913 0.07489795 0.12638667 0.068498954 0.11260976 -0.049820844 0.03631866 0.13689506 0.13591802 -0.06068236 0.007580546 -0.034713093 -0.07373402 0.08335172 0.053551696 0.09866714 0.02934739 0.037213244 0.09061524 0.09097279 0.0068131485 -0.04610078 0.048328847 -0.006334098 0.09641063 -0.058580343 -0.11560701 -0.046243373 -0.104933806 0.06912693 0.07156672 0.052142777 -0.017679961 0.082403086 0.033001073 -0.015948774 -0.04178781 0.012606176 0.024508867 -0.12547457 0.04602494 -0.061824515 -0.12920673 0.12124074 -0.06310992 0.10272534 -0.12504242 -0.03543499 -0.032539777 -0.122343086 -0.062286798 -0.077014215 -0.11361216 0.018619465 0.071274884 -0.10693021 0.05705118 0.10609377 0.09303058 0.03939697 -0.0901588 0.08132318 -0.015484528 -0.03207979 0.051585604 0.0027287954 0.07021623 0.04202107 -0.0043220213 -0.050292045 -0.011053229 0.0039831577 -0.030334024 0.0640553 -0.020012992 -0.031279862 -0.036325462 0.020015253 -0.12192997 -0.09275259 -0.018060166 0.0028485763 0.077886865 -0.027917689 0.024324883 -0.05339878 0.0546973 0.14591108 -0.020897767 -0.09667382 0.018384803 0.05937435 -0.028141633 0.08643709 0.07729651 -0.07843133 0.029534096 0.08719709 0.03785518 0.052535452 -0.11163597 0.022987738 0.050693274 0.07650851 0.091064535 0.0719606 -0.018523628 -0.018688627 -0.024686724 -0.0912792 -0.06767932 -0.07965675 0.032803353 -0.1284164 0.0072631063 0.12332986 0.09424214 -0.13313225 0.06156953 0.13407709 -0.04445263 0.06897701 -0.10972452 -0.13298935 -0.03211381 -0.095517226 0.057884477 -0.07271854 -0.0014230266 0.0017645607 -0.07154968 0.13990171 -0.05922885 -0.069748566 0.021425093 0.023018196 -0.018881733 -0.10649221 -0.11485483 0.047399987 0.08786258 -0.000116235955 0.029941766 -0.047748584 -0.06565859 0.12680978 -0.11494659 0.094663195 0.083941706 0.016097173 -0.13483842 -0.13222405 -0.11871526 -0.11401342 -0.06442369 0.13289422 -0.08709471 -0.0813528 -0.07348043
0.08739667 0.048511624 0.118533395 -0.04983221 -0.10879116 0.073631234 -0.08944275 0.07236101 -0.010460174 0.06302075 -0.10945983 0.006681197 0.09743678 -0.024761332 -0.07685811 -0.063930884 -0.0065864287 0.04005692 -0.09368469 0.018655736 0.116386555 -0.0833784 -0.018216535 -0.087383725 0.13651545 0.054168783 -0.074474305 -0.003910928 -0.00032143886 0.09882276 -0.003516232 -0.08588721 -0.03838171 0.018641707 -0.103912845 -0.102809384 0.038117785 -0.05751547 0.059393607 0.10416151 0.0003748436 0.06885358 0.14373975 0.09634531 0.056439146 0.004907365 -0.12828667 0.07600389 -0.042488262 -0.10447083 0.0842766 0.024475364 -0.09880965 -0.1237919 0.06505125 -0.14078827 0.0006901552 0.014604104 -0.14279863 0.05244771 -0.08848389 -0.044919014 0.07287728 -0.11440241 0.062957704 0.10767035 -0.13128285 -0.01481083 0.018405383 0.13031085 0.0068914206 -0.05471415 -0.0685603 0.103850424 0.008546372 0.011733591 -0.026054515 -0.11399424 0.08808759 -0.13135214 -0.06640513 0.09708081 0.073048696 0.012136531 -0.1191738 0.097232096 0.004328884 0.025301473 0.020775642 0.12161402 0.07177042 0.1391598 -0.016709693 -0.12380251 0.062004093 -0.07107254 -0.03550131 -0.08477481 0.06879943 -0.006911649 -0.097478494 -0.08395794 -0.0404534 -0.11241882 -0.11806628 0.0069778915 0.034792095 0.073093235 0.039071973 -0.026972929 0.0139605105 -0.11689505 0.059387773 -0.08637896 0.0579134 0.11007897 -0.18317829 -0.0778552 0.09132393 -0.12270279 -0.047057766 0.03902058 -0.06830359 0.08285104 0.14417134 -0.05807509 -0.026138127 0.03044523 0.09805554 -0.04382643 -0.063674614 0.09440171 -0.0317126 -0.036972653 0.035291262 0.10542078 0.027341057 -0.029622281 -0.05257485 -0.13575295 0.06968001 -0.018140016 -0.10794452 0.0899574 -0.082407676 -0.054243546 0.12247484 -0.01845859 0.06890482 -0.05353434 -0.0673379 0.05020413 -0.07063138 0.12211447 0.1371504 -0.109140925 0.06889465 -0.054492895 0.0030835704 0.08982297 0.058039445 0.12022927 -0.09582132 0.124001876 0.02457744 0.048444916 -0.056949075 0.015263692
0.09635199 0.068880744 0.08493544 0.13374971 0.006731417 0.029582202 0.077372566 -0.03161767 0.10604623 0.0019362596 0.010807278 -0.14424938 -0.053843297 0.04617091 -0.076224804 -0.10077564 -0.08735959 0.05894462 -0.037043847 0.092154585 0.07616605 -0.09137272 0.09866313 -0.014029654 0.018367363 -0.05144571 -0.03397385 0.10188747 -0.05108212 -0.09916131 0.099414974 -0.01703704 0.1051252 -0.01886423 -0.05680559 0.1275524 -0.06040184 0.10119375 -0.06877505 -0.0015630533 0.070347436 0.08075016 0.06123984 0.04969694 -0.10385804 0.02211739 -0.034136206 -0.055505127 0.082578085 0.06674948 -0.020547748 0.0834796 0.02410726 -0.029815981 -0.08560659 -0.080716394 0.11547889 0.10820625 0.10157292 0.011722738 0.029747074 -0.070788965 0.06865709 0.047503226 0.05326646 -0.06995588 -0.00023775813 0.10938453 -0.12053134 -0.026977804 -0.04637276 0.055588428 -0.031941045 0.08318059 -0.080774374 0.02496842 0.14032546 -0.12187594 -0.11402583 -0.10370941 -0.07220169 0.05120031 -0.08225624 0.11018192 0.08781988 0.061106242 -0.106419176 0.022649258 0.08890573 0.115762755 -0.034360383 0.029774118 0.033780906 0.07381734 0.03333241 0.08528183 0.036168285 -0.0516589 -0.085287064 0.083259515 -0.11539712 0.06899513 -0.0868614 -0.095869236 0.1166581 0.06015752 0.119937025 -0.085286275 0.120265596 -0.013649351 -0.112518154 0.018356673 -0.096160755 -0.10914616 0.1309229 0.04945793 0.016697315 0.11827557 -0.111050956 0.07088608 -0.016020885 -0.10885364 -0.12382572 -0.035194866 0.09108413 -0.092269056 -0.07131917 0.021798126 0.09877413 0.08674518 -0.09355172 0.11531843 0.11245822 -0.04294513 0.08890446 -0.13171622 0.097108245 0.019745504 -0.06025982 -0.036266107 -0.04117188 0.07513962 0.027456025 0.10703332 -0.0035361152 0.029818933 0.03652595 0.003903496 0.119096205 -0.07946039 -0.09699099 0.041512713 -0.0058557 -0.04508716 -0.12327776 0.003941008 -0.089359716 -0.1266541 0.0033371449 -0.12282638 -0.047830522 0.10758023 -0.009139723 0.091959715 -0.061859366 -0.009995462 -0.0637652 -0.10438268
-0.02834502 -0.14769885 -0.010042662 -0.09618557 0.06828816 -0.027117196 -0.097586304 -0.09490757 0.020850478 0.07048371 -0.06675591 -0.028390976 0.092450954 -0.043615196 -0.084019996 0.11529908 0.1344614 0.041451473 0.04998014 0.031862054 0.044792723 -0.108211316 0.04032491 -0.10690262 -0.08337406 0.08658503 0.14916267 0.110541515 -0.038496673 -0.122741416 0.12864201 -0.024913458 -0.10375704 -0.10088674 -0.046674907 -0.13285294 -0.14072002 -0.017326817 -0.0764571 0.044896483 -0.029493013 -0.12165679 0.04403909 -0.07746284 -0.11640854 -0.043283284 0.028584529 -0.06991575 -0.030958397 0.03778163 -0.1012405 -0.021931278 0.11052025 -0.035225376 -0.09036238 -0.05574962 0.10965335 0.06890913 0.061503377 0.072041206 -0.10646563 -0.14471504 -0.04533822 0.06304559 0.0044901827 0.06299911 -0.03176021 0.047758874 -0.12359736 -0.02415137 0.0948579 0.010893014 -0.08535392 -0.055512372 -0.012767677 0.0536656 -0.0059759743 0.07623413 -0.017521786 -0.11669031 0.05963712 0.11423954 -0.09841844 0.05329939 0.081681654 0.015721865 0.13224536 -0.12139335 0.01627388 -0.12428888 0.10647389 0.013263775 -0.016901832 -0.005919733 0.088371076 0.069001704 0.0039585247 -0.090053916 0.026663503 0.03360562 -0.058406316 -0.1330728 -0.039759506 -0.0896372 -0.094869524 0.06479359 -0.0028712468 0.07553273 0.092586935 0.08088996 0.10376593 -0.12663744 0.06500073 0.13268709 -0.08378533 -0.13377763 -0.08417937 -0.13310188 -0.120337985 0.11643435 -0.14336282 -0.03886465 0.025099307 0.020139407 0.0866817 0.019724853 0.122195594 0.10625629 0.08447323 0.15047544 -0.09240607 -0.009197962 0.12498802 -0.006704403 -0.07710131 0.070689104 0.11059293 -0.01569842 0.054459374 -0.103432745 -0.031903394 0.12402725 0.054732263 -0.002369003 -0.053146478 0.07819546 0.11273532 -0.13614486 -0.12559494 0.062755466 -0.016564947 0.11202276 0.101482734 0.11114711 -0.01702144 0.04784328 -0.09859016 -0.12555557 0.1251227 0.11066544 -0.016672296 -0.023724344 -0.028679393 -0.04221018 -0.010837067 -0.025883824 0.04705042 0.006574446
0.0726847 -0.05389951 0.034448996 0.13719611 -0.051187493 -0.11664237 -0.07674956 0.09825059 0.010397656 0.0030466714 0.1259417 -0.025342116 0.09870863 -0.045692768 -0.12578182 -0.12391214 -0.052750256 0.10463878 -0.024324333 -0.02826007 -0.0029849187 0.009789855 0.023189392 -0.13979949 0.08286373 -0.08383996 0.10029185 -0.002310865 -0.08694591 -0.03318157 -0.0033001744 0.0629441 -0.029872004 0.036818698 0.10702414 -0.041211013 -0.038603082 -0.011247355 -0.058398157 0.117110066 -0.1308992 -0.12439249 -0.06251842 0.09834103 -0.09291369 -0.09227778 -0.06892384 0.1254875 -0.0037798823 0.015517326 0.02569496 -0.09563138 -0.074532375 -0.08597897 0.1057318 0.0520145 -0.013350363 0.05001012 -0.11467995 0.0758471 0.018730342 -0.07862317 -0.033037946 -0.053747177 -0.10277899 0.10176041 0.08803294 0.086510375 -0.1007975 0.01131 -0.01811399 0.020961273 0.07041368 -0.011236695 0.059337266 -0.0352449 0.116053686 0.087344 0.06803794 -0.04992948 -0.054193616 -0.04516217 0.045176174 -0.08878803 0.0070028184 0.10276346 0.018670943 -0.02860197 -0.07622097 0.0860296 -0.12514122 -0.036908194 0.060074765 0.059850533 -0.10364436 0.07565758 0.11689693 -0.098338336 -0.04854548 -0.116888486 0.017837811 -0.027463196 0.102759205 -0.021978803 -0.0215692 0.032226916 -0.026702503 -0.057363983 -0.06344002 7.210518e-05 0.022546913 0.017156746 0.005551887 -0.12634069 -0.05054956 -0.10982097 0.018269876 -0.10420966 -0.12861346 0.08095287 -0.114453964 0.057063323 0.030011844 0.03958033 0.019996416 -0.1014692 0.09170683 -0.049283724 0.014576175 0.013410765 -0.025729807 -0.051839683 -0.10624047 0.05580923 -0.036808964 -0.08260727 0.018182103 -0.13299292 0.058262378 -0.12689394 -0.090093896 0.00403014 -0.09564179 0.11522061 -0.022475757 -0.030735424 -0.059868418 -0.140474 0.011819524 0.00023968372 0.04569064 -0.009557018 -0.040407304 0.104716256 0.119989306 -0.08206177 -0.11384042 0.11867162 0.056727774 -0.05356254 0.003686166 -0.04315602 -0.090496846 -0.050129864 -0.030027809 -0.10499038 0.1209185 0.09973156
0.027930567 0.08423588 0.0057515097 0.029218577 -0.045371935 -0.0039711515 -0.038501922 -0.08339788 0.09253969 0.008823055 0.019792287 -0.13226588 -0.1181287 0.053341832 0.031067528 0.04912968 0.06392917 0.0475109 0.013602131 0.05246897 -0.027810665 -0.029612424 0.070877604 -0.07174488 0.12666136 0.07397693 -0.09838303 0.10659654 0.10710856 0.016621752 -0.13771094 0.018445143 -0.05145414 0.016137768 0.027142828 -0.012472923 0.07961978 -0.14040218 -0.024995523 0.0948121 -0.071123615 -0.07507377 -0.005717423 -0.12902968 -0.085218295 0.069451995 -0.06544539 0.038132824 -0.11008102 0.048447136 0.037111524 -0.12716974 0.09127756 -0.030948082 0.096515305 0.08492221 -0.068772316 0.05504823 -0.019396683 -0.033783883 -0.10728839 0.04884806 0.11618265 0.08138873 -0.07543934 -0.09636368 0.05857659 0.12564422 -0.080107495 0.008653443 0.10038824 -0.13443755 -0.03276888 0.10582252 -0.093083374 -0.054626506 -0.10862968 -0.118089445 -0.0030346268 0.065770335 0.02126183 0.12644841 -0.045233276 -0.10428371 0.06453924 0.0024992696 0.11214396 -0.090913735 0.11580708 -0.13065861 0.01784655 -0.06144079 -0.05930732 -0.061802506 0.10379492 0.04852471 -0.056363907 0.09873555 -0.04854933 -0.09683234 -0.10806691 0.025932118 -0.023723952 -0.1285837 -0.01413614 0.10865179 -0.054872215 -0.07950493 0.040927973 0.05662519 0.12614255 0.021890378 0.11264185 -0.108635545 -0.13239832 -0.0815492 -0.050865784 -0.115418375 0.0012039288 -0.14233065 -0.09771995 0.1260153 -0.04086814 -0.027413165 -0.11420114 -0.023207188 -0.060253974 -0.041921306 -0.113521025 -0.060925823 0.02038812 -0.0103990445 -0.04225729 0.03167648 0.0698093 0.016156472 0.060823996 -0.13185245 -0.054292083 -0.016643606 0.08273776 -0.028840687 -0.125651 0.020250542 0.13433841 0.07045748 0.15133172 -0.02816085 -0.0019479052 0.116463564 0.08193642 -0.033142973 0.05136597 0.12072541 -0.062673405 -0.08651907 0.100389354 0.076285794 0.12043183 -0.0707424 0.11775104 -0.025679596 0.08141117 -0.07707607 0.103613555 -0.04910494 -0.117286995 0.09612884
-0.073600434 0.004715589 -0.11629535 -0.019839467 -0.09984839 -0.1260682 -0.13006993 0.14482333 0.0010690474 0.041438483 -0.115944706 -0.070101626 -0.1127809 -0.016783774 -0.03386803 -0.069534004 0.019999865 -0.03493523 0.07521794 -0.0024851868 0.13279393 -0.11450477 -0.054976992 -0.011963617 -0.009434147 -0.07836799 0.0005320814 0.02396993 0.041433893 -0.08662684 -0.13188459 0.05351291 -0.023881838 -0.07443894 0.11387225 -0.084017925 0.061057977 0.0075194295 0.0019649602 0.06690954 -0.040368523 -0.012065455 -0.056532823 0.09431304 0.046984907 -0.14477383 -0.09434353 0.026070125 -0.09546859 0.012152658 0.034865417 0.01643847 0.048912205 0.05958659 0.0259102 0.06229471 -0.019477114 -0.089751385 -0.11673552 0.085592456 0.11019507 -0.016573468 -0.04022756 -0.04361257 -0.04924245 0.10495815 -0.11656511 0.0140282 -0.10844633 0.005386157 0.12277779 -0.054386698 -0.055683937 -0.06506377 0.11228513 0.05674942 0.09821413 -0.073097885 0.011980554 -0.13266642 0.0890561 0.12033353 -0.0492232 0.11366387 -0.11848856 -0.047509883 -0.048854392 -0.014179226 -0.031814754 -0.022371275 0.12832934 -0.05848173 0.06576505 0.025167244 -0.050149947 0.08615763 0.058488376 0.12035336 0.06755976 0.082673274 0.020982701 0.06101411 8.123662e-05 0.012667903 0.08426381 -0.11904778 0.049702298 0.11133729 -0.08183033 0.09879474 0.0761287 0.116937384 -0.13574402 0.11312366 -0.11920651 -0.082849264 -0.05051595 -0.00035205187 -0.13246919 -0.13710001 -0.020936213 0.119400516 0.1367587 0.044903453 0.085485265 -0.031578355 0.03428876 0.028142858 -0.13197958 0.11671697 -0.11240058 0.06104988 -0.07620172 -0.064746514 -0.01493814 0.1057694 0.07699854 -0.036039427 -0.09907395 0.05233711 -0.0634472 -0.093661 -0.025331218 -0.0213536 0.05214917 0.047719877 -0.045299936 -0.05163847 -0.094419174 0.093483806 0.048042707 0.0821323 0.104356214 -0.04862488 0.0012285298 -0.037517868 -0.066229284 -0.012213804 0.047617618 -0.0645328 0.005777896 0.12911497 -0.09534266 -0.096627556 -0.107947074 -0.04181303 -0.008521174 -0.13120341
0.06820201 0.08992933 -0.0325345 -0.07682953 0.073228896 0.013512073 -0.09282116 -0.077467315 0.09827386 0.025676701 -0.10703931 0.029432938 -0.06718983 0.07105073 -0.08661634 -0.020815603 -0.042421374 -0.09194495 -0.0738603 0.005434789 0.050273016 0.10001389 0.1073731 -0.041235212 -0.0806431 -0.06431624 0.13852704 -0.088494584 -0.06764279 -0.012017393 0.06279671 -0.097709805 -0.05700468 -0.006875479 0.054861486 0.084743954 -0.09048689 -0.105485715 0.03720146 -0.12110218 0.113858275 0.059575662 -0.06852189 0.11300937 -0.11394009 0.03360539 0.085733056 -0.042616665 0.09121488 -0.065386206 0.018264875 0.04310267 -0.09418628 0.1398102 0.05356597 -0.05627687 -0.0023961146 0.060551718 0.023941644 0.017354777 -0.039035436 0.11904967 0.0037153158 -0.06876357 0.090226345 0.08391274 0.070316285 0.14832316 -0.022465397 0.106578834 0.06251011 -0.023380121 -0.08840031 -0.068779476 -0.0038239076 -0.1109077 0.05525195 -0.09670965 -0.03187113 0.0004482673 -0.026587019 -0.11858314 -0.08649201 -0.022092665 -0.06092667 -0.1061663 0.047046363 -0.114731856 0.0046369163 -0.11746432 -0.09228541 0.07545562 0.0045608194 -0.110824764 0.0029847638 -0.024134742 -0.10215427 0.033837035 0.07774777 0.09899472 0.05460583 0.044391584 -0.04025584 0.07046136 -0.021716 0.10303038 -0.03845949 -0.0139971115 -0.023872325 -0.06407734 0.09695687 -0.0025582667 0.023640878 -0.0027551686 -0.07991959 0.04116553 -0.113383256 0.10766205 0.043615166 -0.043417808 -0.16255614 0.07388379 -0.1085077 0.021132564 -0.019393329 0.00783382 0.0535504 -0.11512617 0.066990666 -0.11410562 -0.0415708 -0.11013733 0.05281507 0.070280835 0.11162118 0.124845296 0.0015077832 0.11625072 -0.05615748 -0.06192536 0.008617265 0.018529356 -0.06900482 -0.022967665 0.09219211 -8.6359934e-05 0.11731178 -0.0884506 -0.004978149 -0.10547916 -0.077737726 -0.1114445 0.013893252 0.098770894 0.039096624 0.0044898936 0.083468035 0.08919842 -0.111232035 0.13444671 -0.097192444 0.11111935 0.115602836 -0.05014134 -0.03645669 -0.06936115 0.048893925 0.013455196
-0.08025084 0.036071375 -0.07962571 0.059765093 0.13017412 0.09760666 0.12002087 -0.028443707 0.11518724 0.11822426 -0.103197634 -0.029152827 -0.13702299 -0.009869027 -0.098137155 -0.07226081 0.036560137 0.0036809286 0.06107322 -0.016779287 0.062555134 -0.14580834 0.10683762 -0.0024707012 -0.11893453 0.1576474 0.056075525 -0.029241093 0.10750285 -0.15820518 -0.048392374 0.042453755 -0.07745286 -0.028508691 0.027812444 -0.07831632 -0.13876031 0.012563186 0.010918979 0.118051566 -0.09884973 -0.068938576 -0.05688937 -0.09426564 0.08187186 -0.024712272 -0.025216019 0.15607128 0.13173772 0.03901554 0.00023583096 -0.08316079 0.14545147 0.04241862 0.07293943 -0.13899845 0.062115002 0.15989065 0.016640771 -0.11831376 0.040217627 0.048407987 -0.11521514 -0.08704494 0.018849937 0.12146277 -0.013218928 0.10624073 -0.0687248 0.014454816 0.015096553 0.0027270427 -0.014232075 0.037306447 0.04416264 -0.06789339 0.018690499 -0.080029644 -0.13104562 -0.07300818 0.05792522 -0.113927476 0.10785648 -0.06207211 0.07636851 0.11626222 0.14716877 0.11833953 -0.14769563 -0.055075537 -0.0030664997 -0.019443972 0.06361321 0.067118555 -0.13728641 -0.055777784 0.03377555 -0.011908127 -0.08123929 -0.09827189 -0.10466468 -0.06557975 0.13278727 0.111407466 0.017351946 0.12294748 -0.004549366 -0.10023838 -0.043846987 0.12677495 -0.073955335 0.052417345 0.12589873 0.101926036 -0.119002365 0.0052970457 0.059857268 0.068586215 -0.0031418 0.08580081 0.07147549 -0.034075733 -0.013721025 -0.011849748 -0.09260734 -0.0029646663 -0.06401195 -0.012177723 -0.039313193 0.13355686 -0.008794017 -0.109333344 -0.08039716 -0.17152363 0.0007988914 0.08126698 0.11449402 0.09085482 0.09329757 0.030534774 0.043738764 -0.1074783 -0.04020994 -0.08358247 -0.004605221 0.015411778 -0.051069677 0.13307211 0.030881753 0.132495 0.10316553 0.0135396505 0.099413045 -0.101182975 0.13844143 -0.11415738 0.0073256544 -0.10419944 -0.06305132 -0.02366349 0.00793396 0.084859885 0.07830038 -0.023416298 0.038942512 0.05775037 0.03222609 -0.022609986
0.106695086 -0.10231022 0.089882284 -0.0067125056 -0.08089277 0.04674366 0.030583188 0.034153547 0.022242501 0.059843205 0.032363694 0.06899785 0.0994839 0.06838444 -0.040016502 -0.002434374 -0.034828905 -0.078598835 -0.05683175 -0.09323503 0.12102111 -0.05426396 -0.0641861 -0.0029915522 -0.06287181 -0.047832746 0.00840237 0.027639216 0.00426943 -0.16722459 0.03080706 -0.07414086 -0.057833284 0.013045434 0.0014437977 -0.1024299 -0.057928495 -0.16732395 0.02197958 0.06311703 -0.00160827 -0.03817687 -0.027123595 -0.026978508 -0.112450436 -0.12931757 -0.028290275 0.025937576 0.041416418 -0.1045227 -0.08752934 0.1424591 -0.09704762 -0.09120456 0.0017626084 -0.023031129 0.025153276 -0.02468145 -0.08731399 -0.08024044 -0.08579132 -0.044137992 -0.08936021 0.06984179 0.072942674 0.06392052 -0.055290602 0.12372911 -0.045643248 0.044876605 0.104164824 0.08195924 -0.053567212 -0.0804663 -0.12055196 0.10756658 -0.004109808 0.08431759 0.06283261 0.111966915 0.017627504 0.077376984 0.056432437 0.024316136 -0.17950228 0.13482611 0.13809913 -0.017767191 -0.14550243 0.07199589 -0.090260275 0.110137604 0.11618603 -0.11516336 0.07507498 0.14415503 0.025804367 0.08656826 -0.027612325 0.02765892 0.0137807205 -0.07028354 0.08751674 0.1219262 0.1654968 0.060332328 0.09254641 0.14316182 -0.035676368 0.090523675 0.04240029 0.079393394 -0.05644121 -0.0009988318 0.021477073 0.033260785 -0.00089156465 0.06745309 -0.11168002 -0.12752612 0.08332491 -0.10699186 0.15969893 0.05598363 0.1081896 0.10680587 0.0525822 0.07796687 0.013951138 0.072298735 0.065517716 0.088227354 0.025313085 -0.13844474 -0.092839874 0.106622934 -0.022335138 -0.01676814 -0.06364058 0.083379306 0.021071937 -0.103474975 0.066967376 -0.07092786 0.12780611 -0.016511364 0.15355507 -0.12168432 -0.06393904 -0.08580467 0.10240494 0.019895742 0.12417408 0.0736574 0.02970264 0.14330523 0.112837724 0.15624551 -0.08867416 0.07766335 -0.061615296 -0.074417606 -0.117153406 0.0327818 -0.035621777 0.12946247 -0.17009804 0.02537611
-0.05605112 -0.11135114 0.062507525 -0.02932179 -0.045049768 0.07137642 -0.16404176 0.1628236 -0.10584805 0.013226237 0.1164748 0.109953076 0.04827958 0.09630758 0.03449181 0.020313136 -0.13092834 -0.15846881 -0.08485494 -0.1490814 0.16655767 0.08219577 0.007809123 -0.12644057 0.07496653 0.0025572882 0.12938178 0.12793028 -0.02761169 -0.14233178 -0.053763233 -0.034116123 -0.12972194 -0.08135293 -0.0039072274 -0.07171428 -0.10349733 -0.059387624 -0.06300221 -0.108312584 0.025461968 0.10772282 0.034932997 0.11188051 0.087144926 -0.16151094 0.15336388 -0.018322237 -0.093702756 0.010544784 -0.13598563 0.14183383 -0.033443864 0.006484285 0.0059849583 -0.14081943 0.1019475 -0.019837402 0.06960678 -0.07840691 0.14490394 -0.09488384 -0.14229767 0.13259102 0.032266814 -0.093983635 -0.0013642898 -0.032483585 -0.09119993 0.115022816 0.15885435 0.077127695 -0.13673364 0.0442658 0.06383342 -0.031377386 0.04779001 -0.10971592 -0.148949 0.049898755 0.13427405 -0.120834865 -0.108596325 0.09632189 -0.18314205 0.0431855 0.024303362 -0.0015646273 -0.14259076 -0.040617168 -0.10826167 0.071114585 -0.06364946 -0.054631863 0.09018757 -0.010789899 -0.08549167 0.1061457 -0.0077445228 -0.0829981 0.056935303 -0.052617107 -0.0072180657 0.070422515 0.14544721 -0.06757684 0.04234627 0.10123127 -0.0026520963 -0.017188143 0.13790275 0.111794 0.0067518237 -0.036596324 -0.008222299 0.061903365 -0.10717879 0.12111894 -0.034312554 -0.05444518 0.041903783 -0.055695113 0.10135301 -0.10076181 -0.012110062 0.1192548 -0.009662759 -0.08032494 -0.13565962 0.040427327 0.04065642 -0.06285871 -0.03202947 -0.09050469 -0.14144592 -0.0022502022 0.0020006252 -0.038560685 -0.08512326 -0.021886066 0.018420966 0.019491902 0.007766616 -0.04397495 -0.09954185 0.13356063 -0.055106387 0.035738878 0.00543292 -0.08972576 -0.085882045 0.10624596 0.119119585 0.027329067 0.10712935 -0.080314554 -0.069509774 -0.06608562 0.095276296 0.015199168 -0.082821615 -0.028328067 -0.043958697 0.1267989 0.028391037 0.03274129 -0.10493416 0.022952165
0.15724833 -0.0035416607 0.12020911 0.021592844 0.1801302 0.019654036 -0.025427802 -0.053270806 -0.12984854 -0.062209766 -0.07712725 0.10394317 -0.09406817 0.05863564 0.13610774 0.10349132 0.02128429 -0.037356477 0.14164294 0.081422016 0.10572843 -0.04594583 0.17049861 0.048816163 0.031595606 0.12069469 0.0039882245 -0.00056327396 0.08749529 -0.059438143 -0.06335269 -0.07951726 0.09453509 -0.026588384 -0.052984122 -0.01171959 -0.10685547 0.06087589 -0.021332398 0.047866713 0.02262932 0.000463277 -0.016318949 0.13114312 0.08370082 -0.082546055 0.13004081 0.1986358 -0.090764605 0.14116396 -0.102480486 0.15668939 0.13135912 0.023668038 0.08874807 -0.13132226 0.06536506 0.09120823 -0.09490137 0.026587518 0.06519409 -0.026572421 -0.06838948 0.0982928 0.033762377 -0.1032306 -0.079384424 0.0075734495 0.11852643 0.05976562 -0.080592796 -0.029124731 -0.097713076 0.09221589 -0.08444011 0.01417972 -0.015102632 -0.1293517 -0.079869546 0.0135543775 8.358555e-05 -0.084861286 -0.012450042 0.13276196 0.06986245 -0.011103713 -0.0472005 0.00030576487 -0.018016148 0.05122272 -0.062232286 -0.06305077 0.039950058 -0.13662377 0.0608016 0.09254414 -0.052107878 -0.062018927 0.13396738 0.0018224925 -0.067110285 0.057668082 -0.05830427 0.07213876 0.04035621 0.117862016 -0.017518334 0.1744884 0.024512472 0.05976281 0.061420355 -0.088648155 0.06899914 0.00047143706 -0.12321596 0.097121485 -0.11449968 0.11572256 -0.031660732 -0.0059620165 0.104240045 -0.058483906 0.07959101 -0.08558745 -0.08275776 -0.10433508 0.04132391 0.08870292 -0.18092479 0.028571868 -0.12355352 -0.07608621 0.05526072 0.10851344 0.01834423 -0.09012818 -0.15241677 0.19998941 -0.08621055 0.006174088 -0.08605669 -0.03952673 -0.022022694 -0.113863446 -0.08628122 0.06307269 0.00727453 0.11561191 0.1400494 0.084193885 -0.13778436 0.074999064 0.07341966 0.0503375 0.09500618 0.14507483 0.13648538 0.058776885 -0.0004769488 0.050528467 -0.056434296 -0.08325426 -0.08771632 0.044690344 0.09777942 0.05540875 -0.044799473 -0.10082313
-0.11654751 0.092106335 -0.015043067 -0.096636586 -0.14519112 0.01121263 0.052391715 -0.03581308 -0.048168752 0.081101246 0.13986869 -0.10891114 -0.10503386 0.01966009 0.022090517 0.04799769 -0.05402295 -0.023673106 0.008178633 0.13210158 0.046599884 0.07023087 -0.06702327 -0.10932717 0.06763806 -0.003326804 -0.07699162 -0.08596515 0.10869347 -0.08993963 -0.043307208 0.05842677 -0.055107176 -0.150919 -0.09055565 -0.08703848 0.0149284825 0.070552394 -0.06391 -0.122527264 -0.14212647 -0.014778115 0.067680456 -0.07105369 -0.047711574 0.005408284 0.08531611 -0.04041039 -0.05169621 -0.100313894 -0.0054620807 -0.13382253 0.0009029826 0.057127055 -0.09349505 0.0013389831 0.0016676018 -0.122392505 0.018900612 0.020690752 -0.14122811 -0.023327207 0.025654987 -0.11993457 -0.10581883 -0.044137068 -0.0890797 -0.09741208 -0.017944893 -0.092391334 -0.02283095 0.0005010868 0.04382439 0.02725827 0.07182498 0.12995633 -0.09266606 0.12644376 -0.008503268 -0.13643523 0.01588049 0.054931853 0.13298991 -0.15696388 -0.0920392 -0.057253335 -0.011508125 -0.0052704997 0.056738183 -0.054545343 -0.0077260514 0.054213572 -0.10589904 -0.10839445 -0.019443855 -0.06552515 0.1558121 -0.0434066 -0.0027710653 0.0853376 0.10223444 -0.03974405 0.066817686 -0.124907605 -0.092503615 -0.014727128 -0.1584673 0.050475016 -0.037401013 -0.06904595 -0.018815078 0.12032774 -0.07090166 -0.08970279 0.0020022062 -0.0012062275 0.049781114 -0.039366428 -0.01793077 0.115934335 0.07479523 0.0968774 0.07356938 0.045812227 0.12611921 -0.09031151 -0.1283691 0.017617024 -0.06639243 -0.10734318 -0.03416739 -0.027334869 0.023297377 -0.024555484 0.17073116 -0.05307648 0.13212027 -0.14388867 0.08142597 0.12985146 0.028361738 -0.008306941 -0.024826914 -0.11392733 0.029145127 -0.081067 -0.026747374 0.042701412 -0.022617754 -0.06593264 0.13530464 0.08061529 0.035727274 -0.08510273 -0.021820553 0.10622332 -0.019393079 -0.15049416 0.026814178 -0.09379853 -0.090222284 -0.00068990246 -0.044729237 -0.18678702 -0.10143547 -0.073762156 -0.0623151 0.006815308
-0.08933451 -0.07062637 0.054912332 -0.11537617 0.05271255 -0.118078284 0.03732903 -0.14953029 0.008237197 -0.13432346 0.03260113 0.09881805 0.049388204 -0.026442252 0.10301782 -0.088506624 -0.044598386 0.02913714 -0.13753422 0.14391677 -0.043767534 -0.055620313 0.095565066 -0.01804906 0.047913957 -0.14038204 -0.075051226 0.05116844 0.073031396 0.14076932 0.07073484 0.042455185 0.11324296 -0.084989965 -0.013443503 0.05167441 0.13660458 -0.0041364785 -0.12677124 0.103694074 -0.109805144 -0.051150415 -0.066567026 -0.095039435 -0.06906718 0.10591002 0.10652347 -0.06608123 0.010369082 0.064783074 0.027467964 -0.14943686 0.047346216 0.005181778 0.15428557 -0.115563035 -0.10260192 -0.086186476 0.13678975 -0.024144122 -0.088813394 -0.032877624 -0.09617196 0.12926513 0.0033673597 -0.0969909 0.008453695 0.05105619 0.024903093 -0.095769815 0.02244105 -0.048302945 0.11649679 -0.010825397 0.1050644 0.14051022 -0.029584816 -0.030125016 0.035187263 -0.13706146 0.07799435 -0.05481629 -0.07067161 -0.00860096 0.1291031 -0.1020087 0.028160935 0.123069905 0.05146127 -0.071203016 0.019735793 -0.0027890587 -0.025663897 -0.008821129 -0.10445672 0.025406292 0.14619488 0.0068261856 -0.021860834 0.11583373 0.099549115 0.06755992 0.038723186 -0.024478272 0.035985496 0.053085424 -0.06071894 -0.059234843 0.053410623 0.04576373 0.08895777 0.0026229036 -0.04560368 -0.00044625832 -0.035843395 -0.03547898 0.015668193 -0.14600842 -0.123813935 -0.07582312 -0.15457284 -0.1048538 0.07883608 0.12598431 -0.06831334 -0.06776524 -0.018937642 -0.11293947 -0.038457155 -0.0050341715 0.09464177 0.07223945 0.023945983 0.097792536 0.07994147 0.068835974 0.063864134 0.084912725 -0.010976354 0.12011532 0.06340854 -0.04703498 0.09416326 0.09948424 0.071436055 0.009975176 -0.03864956 -0.026639268 -0.10520806 0.02591718 0.03062371 -0.12334708 -0.13471285 0.09437476 0.08150486 0.13760377 -0.097603254 -0.1481828 0.08213591 0.09015031 -0.050028592 0.02040468 0.091128446 -0.09426951 -0.08442305 0.114221916 0.07944713 0.0011073452
0.018014358 0.0002701681 0.057991136 -0.036721453 -0.16296278 -0.11754611 -0.0047871456 -0.1371918 -0.05731644 0.04171393 0.05088361 0.038334157 0.111634426 0.08824698 0.06305072 -0.07158229 0.12864536 0.015325256 0.06539723 -0.09634077 -0.049593974 0.041908007 -0.026361834 -0.032151386 -0.03961679 -0.13965264 0.09069525 0.09756997 -0.026151171 -0.021414328 0.06549409 -0.0073818183 -0.08613189 0.04244774 0.11376387 0.073628105 0.0074053043 0.14213091 0.009835025 -0.097784616 0.014691158 -0.0405018 0.018609986 -0.085326485 -0.09306854 -0.08917476 -0.09805144 -0.16704911 0.047710758 -0.01325448 0.037655827 -0.018258214 0.11038032 -0.009357758 0.11515617 -0.11841039 -0.12888308 -0.006809252 -0.082525745 0.11467663 -0.07420878 0.04655544 -0.0053665694 0.07605247 -0.069279894 0.023737023 0.044744853 0.004452872 -0.029950082 -0.033433624 -0.018259158 -0.043915585 -0.020746332 -0.041952774 -0.04224649 0.06390964 0.03914486 0.100876756 -0.048534032 0.090721786 0.06917231 -0.05842832 -0.048664656 0.100789785 0.118787535 0.05349922 -0.116883144 0.086415075 0.10679679 -0.08399085 0.12375641 -0.15458189 -0.12152994 -0.07575594 0.08061481 -0.10294661 0.076158814 0.098216884 0.025728658 0.0032821414 -0.09224719 0.061977435 0.00093231094 -0.11107804 0.086815685 0.12161972 -0.10227967 -0.008107866 0.07477419 -0.024297683 0.028783813 0.10796241 -0.005094631 -0.07781504 0.1255649 -0.078933254 0.0062086903 0.03058333 0.050212476 -0.11338941 0.0030022918 0.0028922409 -0.049672183 0.099034645 0.05648664 -0.031738 0.09396774 -0.08182715 -0.08493144 -0.05549897 -0.04429414 0.062130067 0.008386904 0.028474474 0.01259261 -0.036313005 -0.0022811107 -0.14018212 0.064901225 0.045882285 -0.04475524 -0.07282844 0.10761843 0.0639129 -0.13779913 -0.1597116 0.075058825 0.12008259 -0.076612845 -0.043469254 0.10015649 -0.033912025 -0.13059728 0.13563034 0.02867148 -0.016221989 -0.034548666 -0.004317653 0.05963889 -0.1167128 -0.13925064 -0.016306166 -0.093307085 -0.16463862 -0.049533997 -0.11585903 0.0389125 -0.09217799
0.022190094 0.06392762 -0.022823803 0.11386857 0.033547796 -0.06415717 0.14783482 -0.08192958 0.10045895 0.08995344 -0.08831193 0.030667009 0.13960208 -0.12753439 0.10901609 -0.025512986 -0.09262057 0.09331699 -0.12136192 0.06623519 -0.119735904 -0.01057308 -0.07279705 -0.0026633055 -0.12931807 -0.13829476 -0.076878406 -0.047139425 -0.13291009 0.10831962 0.088077925 0.057920817 -0.07393649 -0.13215204 -0.07645061 0.10236369 -0.118047796 0.14028984 0.0045000263 -0.14045386 -0.092714794 0.088866346 0.0041825254 -0.06975994 0.037254136 0.005920636 0.11348035 0.044621855 0.023269814 0.14300048 0.09309309 0.052026723 -0.13927935 0.09104613 0.056675553 -0.08704045 -0.038631387 -0.05529183 -0.046478204 -0.12985444 -0.044709764 -0.031978726 0.014800717 0.062090643 0.07073691 -0.050639298 -0.07466325 -0.12043041 0.0041078446 -0.017522309 -0.0006063416 0.103093065 -0.0741697 0.079627134 -0.11877797 0.13940552 -0.05441918 0.12469182 0.022749498 -0.11952128 0.114537716 0.10094842 0.0007093826 -0.019894222 0.11789748 -0.028601518 -0.13630973 0.11282658 0.033887025 -0.05437452 -0.015577639 -0.10010669 0.114761025 0.06962988 0.0679269 -0.117694624 -0.064882144 -0.047641758 0.056054216 0.08295132 -0.032660685 -0.01083696 -0.027934723 -0.15493481 -0.020151645 0.0010441855 -0.15788065 -0.011996108 0.10183865 0.09506722 -0.024702435 0.13075608 0.004151732 -0.0109169325 -0.017517215 0.0944847 0.11664924 -0.10879415 0.105705954 0.091447026 0.06753231 -0.066238984 -0.07247604 0.06420346 0.122594684 0.09840732 -0.042099603 -0.11712408 0.04907388 0.1329067 0.08545417 -0.06456289 -0.034363378 0.119807325 -0.061555505 0.09534929 0.042699154 -0.0048979707 -0.119277276 -0.10415987 -0.03458719 0.11640462 0.00011402343 0.010597366 -0.050260253 0.056321945 0.06182926 0.071849324 0.080241375 -0.102104284 -0.1077847 -0.1090666 0.12533753 0.11603793 -0.11401105 0.13751133 -0.05027915 0.054683883 -0.046965335 0.11130247 -0.080444455 0.07052559 -0.01208991 -0.1254071 0.018040294 0.0023745708 0.01715282 0.04454366
-0.07878886 -0.10569784 0.115843855 -0.112636834 -0.10687466 -0.13022414 0.1424383 -0.10049262 -0.035495166 -0.13230264 0.014614319 -0.0873169 0.13416989 -0.050220188 -0.024829736 -0.05775834 -0.03799995 0.037614387 0.087095045 -0.060576018 0.018477313 0.045546837 -0.027667362 0.0687262 0.12706944 -0.035153024 0.050169744 -0.12725355 -0.10555915 0.11293045 -0.0316726 0.022466792 0.03344207 -0.11619177 0.06419993 -0.05839116 -0.072554044 0.052569527 -0.006673734 0.10390466 -0.01452764 0.07436108 -0.054405678 -0.011318149 0.030097624 0.03936672 0.15915617 -0.12115369 -0.038506776 -0.09186648 -0.018248554 0.04834417 -0.1171698 -0.009768478 0.08069865 -0.0007411245 -0.019703494 0.12904553 0.030171195 -0.07186985 0.008028309 0.0076448894 -0.10514045 0.13527934 0.053934477 0.10579043 -0.065030724 0.088303864 -0.0069290446 0.13719183 -0.06044685 0.11996809 0.032919124 0.035048153 0.029927157 0.015217017 -0.1392113 -0.108960114 -0.013015586 0.105793424 -0.048767004 0.118660614 -0.08459001 -0.10152704 0.13531296 -0.027851894 -0.090540506 0.11233703 -0.08763733 -0.04171367 0.02202346 -0.015312107 -0.06215947 0.015693812 0.04013496 -0.141991 -0.049530156 -0.024954109 -0.046505406 -0.0013352443 -0.04783319 -0.030135563 -0.08806366 0.015467621 -0.13390283 0.06461455 -0.067032754 -0.021215413 -0.08059492 -0.036975063 -0.07809809 -0.052363005 -0.018159928 -0.08355871 0.0012921961 -0.019489922 -0.13619119 -0.083340704 -0.012585472 0.13674407 -0.078555964 0.08254006 -0.12458238 -0.068310976 0.122542925 -0.14472854 -0.13126235 -0.09204973 0.12368411 -0.10138127 0.034888912 0.05028944 0.02712413 0.036729306 -0.05653759 0.035349302 0.07744067 -0.16454689 0.031144679 0.007462682 -0.049029563 0.07788514 -0.12252765 0.0031837488 0.049046274 -0.10635509 -0.15106152 0.04500278 0.11340463 0.09722304 0.01311344 -0.021611344 0.12736003 -0.0076966607 0.013563745 -0.10217216 -0.022187809 0.028658379 -0.07509453 0.00888025 -0.06579531 0.028732097 -0.119424954 0.018558934 -0.08835419 0.01424391 0.015073372 -0.035199236
0.03526441 0.046079345 0.038933016 -0.11122247 0.07943762 0.07701713 -0.06785911 -0.14340317 -0.05672722 -0.023548508 0.08909213 -0.038091358 0.15551509 0.12212685 -0.1261937 0.07658392 0.08345831 0.11869995 -0.094166264 -0.1281235 0.0074941805 0.04595773 -0.13303667 0.0019437923 -0.0012793539 0.032116864 -0.0006840752 0.060032774 0.07922877 -0.08249897 0.12505801 -0.015831558 -0.11494458 0.082748845 -0.09650145 0.059449773 0.12807195 0.016966589 0.13261102 -0.011775004 0.0061962917 0.025608959 -0.075369015 -0.08983127 0.046923175 0.03280847 -0.05955385 -0.0616998 0.096538514 0.1368891 -0.033661053 0.059902478 0.10569228 0.14913902 0.11054155 0.07761552 0.059412517 0.03795856 -0.07880977 -0.12860064 -0.031263582 0.02066217 -0.030422151 0.09895599 0.0033093055 -0.060002275 -0.07178174 -0.09597735 -0.013585074 0.036607027 -0.068303905 -0.027450545 0.030715687 0.1235156 0.083253495 0.079788946 -0.044244908 0.09585093 0.03805655 -0.0539282 0.13530807 -0.082148485 0.08454409 0.11651585 0.119576976 0.10028935 0.039995734 0.12475783 -0.08188359 -0.12691143 -0.07631762 -0.051081628 -0.075292096 -0.096194826 0.009431159 0.045903653 0.1373944 -0.11752826 -0.07654813 0.110702805 0.12942983 0.033874784 -0.03075053 -0.07975392 -0.042281106 -0.019897504 -0.061080296 -0.008842394 0.05911983 -0.1269586 0.06518116 -0.084628865 0.025739172 -0.1212564 0.05942858 0.04392636 0.02686072 0.0036295243 0.067065164 0.031194642 0.070551254 -0.08877404 0.019568916 0.10034731 -0.08937552 -0.13934119 -0.080582194 -0.13674882 0.045965128 0.07789031 -0.055321082 0.107639745 0.08945167 0.1105114 0.0679079 0.11815151 -0.117034696 -0.15115485 -0.1287146 0.04862722 0.09750729 -0.13106413 -0.12028592 0.12869252 -0.15620333 -0.06038894 -0.012926604 0.12364254 -0.06740607 -0.055777725 -0.0055223517 -0.059836406 0.10203491 -0.110875316 -0.047927212 0.089109436 -0.09965917 -0.074841246 -0.102730446 -0.010334497 0.093135014 -0.0036089865 0.011597284 -0.16077404 0.06879279 -0.0057608755 -0.060447197 0.028074691
-0.013340606 -0.0935096 -0.05855022 0.059393436 0.000409841 -0.098410934 0.049204554 0.09688769 0.077928275 0.056097195 -0.08452762 -0.0029402426 0.06830088 -0.019433007 0.04649237 -0.06710968 -0.13290653 -0.006474296 0.0387055 0.009209852 0.019669523 0.066806205 -0.1063032 0.07820511 -0.11837884 0.06601725 -0.10306426 -0.0760934 0.05551696 0.13527188 0.058518548 -0.117538534 -0.046321843 -0.019500015 0.030760128 0.12134431 0.030527722 -0.13450608 -0.045080584 0.075222805 0.018234923 0.08880901 0.08818872 -0.07246883 0.08509184 -0.08981604 0.043705817 -0.06846041 -0.035771508 -0.10863437 0.018519914 0.10253942 -0.028857687 0.12083005 -0.058058605 0.052019425 0.041904714 0.06699091 -0.055039853 0.07049331 -0.11703481 0.02027279 -0.07871796 -0.061021585 -0.054195292 -0.07986851 -0.03971867 0.0941678 0.057012867 -0.08855405 -0.14346364 0.043294832 -0.10348722 -0.004448677 0.07694091 0.062328584 -0.11226149 0.1159497 -0.013046762 0.12460981 -0.01834015 -0.08848829 0.14471242 0.01675735 -0.07754215 -0.017483065 0.01336228 0.03018045 -0.06286205 -0.12277128 0.048316143 -0.049753442 0.020350832 -0.07822421 0.022158828 -0.07835858 0.030558862 0.039487243 -0.024337754 -0.121455714 -0.02383616 -0.045206733 -0.10373369 0.062597856 -0.004422142 -0.093256935 0.015299147 0.099480964 0.05656134 0.032956883 0.088898905 -0.06999242 0.026939977 -0.013922155 0.1311282 0.12957563 0.06939918 -0.020231625 -0.101010405 0.042823855 -0.12071239 -0.042278975 -0.15509161 -0.0875265 0.08629791 -0.11494939 0.00070734724 0.12595575 0.092703484 -0.061930414 0.12520313 0.120582744 -0.12036259 -6.375885e-05 0.1406406 -0.098607644 -0.013655105 -0.15137215 0.047881227 0.015293116 0.115667954 -0.014611246 -0.019285206 -0.0709755 -0.14614081 0.089982495 -0.06908929 -0.08771656 0.04523077 -0.07710217 0.006268543 0.021442449 0.046013415 0.07491369 0.05017315 0.116707206 -0.015458388 0.10869298 -0.040548887 -0.121669844 -0.06921888 -0.12273149 0.082279384 -0.013275342 0.0874387 -0.0064548296 0.05602547 -0.08391921
0.07205778 0.13393566 0.021829724 -0.021510145 0.03606155 -0.027982356 0.08684064 -0.045518793 0.039638855 0.0087071415 -0.07495925 0.10157793 0.14289743 -0.12966172 -0.026167972 0.11400109 -0.11576957 0.12626417 -0.11473674 -0.017670887 -0.11246909 -0.06491136 0.1159684 0.032260876 -0.003975703 0.016287997 -0.11189919 0.09234526 -0.113110624 0.043520585 0.123476624 -0.05485677 0.07646645 0.11834347 0.0024303775 0.11841085 0.09750992 0.10679513 0.10010083 0.08515532 -0.093424685 0.123986505 -0.13822019 -0.025162641 0.08271521 -0.07737194 -0.077694096 0.08215064 0.074627675 0.059157282 -0.10355755 0.05173349 -0.004175064 -0.022453036 0.09824455 -0.10818935 -0.11300432 -0.12292548 -0.09778136 0.0112186475 0.103306346 -0.00803735 0.12786137 -0.104899 -0.020458989 0.07116749 0.025191177 -0.00088217086 0.104943044 -0.0866399 -0.033817753 0.10128749 0.12933412 -0.044406764 0.07203257 0.08292729 -0.055047672 -0.008900096 0.09719413 0.026831621 -0.040633097 -0.043344878 -0.09741517 0.07219693 -0.08296558 0.04833319 -0.13128197 0.11670581 0.10106543 0.035768084 0.013388958 -0.11741498 -0.032857694 0.025447806 0.05848147 -0.07212168 -0.08186858 0.13840304 0.091526106 -0.032889728 -0.12774457 -0.082185306 -0.11557432 -0.09399076 -0.020317227 -0.038784936 0.033283 0.027011996 0.06410382 0.02716399 0.115477666 -0.048031464 0.08314093 0.03146877 0.055260785 0.03391538 -0.044011604 -0.089333005 -0.11301578 -0.094105884 0.073792 0.00587364 -0.1115964 0.09231974 0.13427955 -0.038418736 0.10367893 -0.09982741 0.11364552 -0.014752208 0.091513574 0.047867615 0.11761531 0.02086692 -0.017974144 -0.033919178 0.06842314 -0.115704395 0.09380457 -0.05106355 -0.045852195 0.012741634 0.08982999 -0.111027785 -0.064002566 0.05756093 -0.07563191 0.11646923 0.1224033 0.049975432 -0.071138136 0.033075165 -0.08568113 -0.107187204 0.10958125 0.097013466 -0.12071972 -0.084120505 -0.03767076 -0.02829389 -0.12966055 0.08558882 0.044447973 -0.08042941 0.044546053 -0.11575107 0.045547042 0.10851835
-0.08599225 -0.024469215 -0.109756626 0.11253278 -0.104466505 -0.12604882 0.015004671 0.009416231 0.13134137 -0.13494383 0.14138585 0.040966637 0.012331891 0.084715 -0.044283155 -0.034760945 0.035395917 -0.021714449 -0.039575238 0.010727915 0.12561084 0.0819923 0.03795446 -0.078904 0.07535971 0.1028304 -0.004412307 0.0007722997 -0.041724466 0.01585347 -0.09600898 0.14891744 0.03794049 -0.06995129 -0.12443212 0.06297251 -0.10644939 -0.11179385 0.04310325 -0.014250006 0.041121524 -0.010108258 -0.061933476 0.09891251 0.04210011 -0.09573899 0.083083406 -0.12625773 0.0035490582 0.04658301 -0.11229279 -0.074539185 -0.00792247 0.046959788 0.039172396 0.062199052 -0.03765572 0.13950583 0.0093715405 -0.03631732 -0.12809497 0.00093711755 0.05700773 0.13420787 -0.04367171 0.09838229 -0.014259962 0.03611232 0.09958917 -0.0075014206 0.12274632 -0.09714658 -0.106433064 -0.11128618 0.07708175 0.12042273 0.102086976 -0.055607166 -0.12770061 0.047717508 0.13392192 0.028835768 -0.0138254985 0.002722853 0.0818074 0.059740465 0.0956772 -0.08843031 0.12824582 -0.10623682 0.08772476 0.0021299294 -0.07456739 -0.06624751 0.021070743 0.09437344 -0.102284886 -0.05116978 -0.107333854 0.019271981 -0.13045368 0.13195628 -0.10134328 -0.034157 -0.0035898665 -0.09993946 0.08854707 0.029056551 0.1203696 0.07542688 0.077455185 -0.08194644 -0.11304257 0.06939368 0.06663609 0.033694103 -0.075371966 -0.09674236 -0.06227558 -0.071124956 -0.07423541 -0.019734789 -0.043181293 0.109333955 0.1109607 0.00085500954 -0.043900207 0.055078965 -0.09093522 -0.060002588 -0.1355538 0.0015082511 -0.015710538 0.17274871 -0.121111326 0.056993768 0.080020264 0.009810436 0.035999607 -0.13577901 -0.00065978104 -0.050913393 -0.07499243 -0.040931903 -0.1191233 0.025034744 0.010095692 0.09465616 -0.10924484 -0.02746252 0.051414814 -0.056657307 -0.061148033 -0.02493309 -0.023741247 0.047406394 -0.1273194 -0.037620157 0.071826145 0.06677738 0.10564025 -0.062803365 -0.040036608 -0.05216428 0.062997155 -0.025497641 0.06515675 0.086984344
0.07352687 -0.083602995 -0.02500487 -0.024933921 0.10812539 0.018390726 0.06759185 -0.08219781 -0.005315869 -0.12997217 -0.04763909 -0.10938987 0.030873826 -0.09108105 -0.085351795 0.050675746 -0.013365825 0.034298643 -0.09932923 0.096013 0.05950702 -0.12693639 0.045841724 0.017532963 -0.036403712 -0.061059237 0.026810057 0.01177635 -0.07988255 0.09129252 -0.09945307 -0.06893187 0.011033348 0.026782587 0.016757611 -0.047611937 0.115698054 0.07471613 0.019347668 -0.022322705 -0.039073363 0.12531938 -0.06500857 -0.04104093 0.060446654 0.009007741 0.011023092 -0.06456415 -0.10650802 -0.062290337 -0.111931846 -0.05859136 -0.08936531 0.13562131 0.11783153 -0.09449706 0.04911084 -0.11173366 0.12397201 0.087852955 0.06650308 -0.042942952 -0.0010335373 -0.08301581 -0.051456872 0.08864064 0.10188065 -0.014695217 0.00354215 0.058496803 -0.07907017 -0.019633781 0.09623533 0.05633503 0.11439776 -0.08183817 0.09377732 -0.09087636 -0.019120414 -0.088572495 0.005375817 -0.119353905 -0.008911445 -0.028481608 -0.0062251915 -0.123704664 0.029883126 -0.022701278 -0.077285506 0.05263215 -0.050145682 0.00041533393 0.017843865 -0.14731137 -0.12745616 -0.118032455 -0.048134424 0.012337566 0.09347142 0.031008726 0.046108466 -0.033214312 0.0865736 0.043406863 0.107861646 0.03693637 -0.019497555 0.095398106 -0.13768238 0.08325747 -0.038602833 -0.092120245 0.08549597 -0.13342904 0.03725924 -0.08958403 0.0038790787 0.040977597 -0.04449316 -0.0073579685 -0.06965635 -0.13220622 -0.070222355 -0.03828618 0.071196444 -0.018783063 -0.13324559 -0.014393673 -0.03695009 0.08694418 0.044969253 -0.06509546 -0.08429867 0.13402896 0.1315671 -0.0040715975 0.12666702 -0.14121227 -0.06736633 0.005627969 0.0184401 -0.02866538 -0.0025741118 -0.06759785 -0.029603073 0.056850955 0.030282091 -0.032735795 -0.0795302 0.05586193 0.014926565 0.083102144 0.024717433 0.12111003 0.10535844 0.10304072 -0.10563668 -0.085634016 0.06987959 0.039593864 -0.0065207845 0.07742273 0.049749684 0.077599235 -0.025303112 0.13500078 0.114424944 0.0028639352
-0.086536035 0.008237665 0.07482897 0.13830101 -0.10813012 0.12213557 0.039949257 -0.074034564 -0.08060969 -0.018072575 -0.07277972 0.05725204 0.07803386 0.0015866669 0.020315439 0.028926995 0.020150786 -0.06567816 -0.012940523 -0.14603448 0.05143741 -0.044469215 0.07676082 -0.026561426 0.12838396 -0.08298708 -0.05601171 0.07865487 -0.10042965 0.023808375 0.023393465 0.006148642 -0.117436096 0.10229134 0.07204938 0.0184774 -0.09745142 0.113006115 0.021980485 -0.036082286 0.0099558355 0.0015652182 0.08504972 -0.10105148 -0.0056732013 0.051138066 -0.09358641 -0.030467434 0.10686413 -0.13376711 0.0023860757 0.0026435542 -0.016251221 0.0649159 -0.043935444 -0.052649695 0.121990845 -0.010864919 -0.020763395 -0.032090966 -0.104251616 -0.08576221 -0.02217796 -0.044234827 -0.08327675 0.04139228 -0.082867384 0.042394422 -0.055416252 -0.02585165 -0.046541516 -0.08382717 -0.021188503 -0.03505503 0.09227493 -0.11691379 0.014666123 -0.006621886 0.053085614 -0.06314314 -0.07631389 -0.13396974 0.10706997 -0.029691653 0.04369267 -0.028652899 0.07206079 -0.06744724 0.012466492 0.012962956 -0.018324655 0.096469715 0.09652636 0.044110928 0.05581404 -0.103892334 -0.07146115 0.070356496 0.017141989 0.113351546 -0.05789341 0.12547296 0.09915636 -0.017674722 -0.016547289 -0.1346609 0.04843338 0.13134961 -0.0011593619 0.044068474 0.025180187 0.027652513 -0.023674306 0.100413896 0.12708764 -0.11343361 -0.11018421 0.04506201 -0.082546465 -0.028677545 -0.1263703 0.045729425 -0.09554195 0.060592677 -0.018296052 -0.09259992 -0.07156405 0.06641124 -0.049817376 0.037001673 -0.030062653 0.0007742994 -0.04476092 0.14944321 -0.04808204 0.0016720562 -0.013214502 -0.12060176 0.110260315 0.05909422 -0.06640505 0.07071346 -0.1248729 0.09500973 0.017005105 0.077169076 0.10211732 0.085368365 0.1054011 0.009288176 -0.0062005986 0.08729895 -0.012709265 0.09695363 0.035323877 -0.051566012 -0.12752728 0.00785852 -0.11267335 0.07501515 0.13686104 -0.09923945 0.122234836 -0.029083332 -0.014817315 -0.06360047 -0.0992246 -0.0028478755
-0.1282797 -0.062218394 -0.032790795 -0.094771035 -0.08788636 0.0071182754 0.04393152 0.13000455 -0.119367585 -0.12015109 -0.09852183 0.015746774 -0.06906016 0.00059826707 0.021642681 0.13149054 -0.008941861 0.038859244 0.111315385 -0.060156167 -0.02416229 0.008687289 -0.12679999 -0.10664199 0.058029957 -0.018455101 0.033621795 -0.010172198 0.10282459 0.0035584762 0.00024248158 0.10110203 -0.12401518 0.025956534 -0.11871029 -0.048212063 0.09751893 0.0043881075 -0.05063004 -0.05781344 -0.03742792 -0.10622548 0.12771647 0.064709604 0.053663712 0.060842 0.013676869 -0.11752616 -0.09525356 0.03215126 0.07779663 0.110226944 -0.098291054 0.08714284 0.054277763 0.011854769 -0.08918142 0.030761208 -0.037608776 -0.119011655 -0.08094979 0.041925676 -0.10088711 -0.04750436 0.035720192 -0.012464367 -0.095554285 0.09285787 -0.109043114 0.1227085 -0.109076254 0.09883074 -0.03166939 0.08406031 -0.03116824 0.07886583 -0.11124581 -0.09266493 0.03230919 -0.032942843 -0.07082435 -0.13875747 -0.107628256 0.11677626 -0.118879154 0.038751133 0.07013396 -0.0054509053 0.13113901 -0.12731406 0.018854031 -0.06520525 -0.02967743 0.032964762 -0.11132871 0.07011117 -0.022842476 0.11948192 0.13065873 -0.052696854 0.12857981 -0.09424931 -0.13795808 -0.07149149 0.00550117 0.123764515 -0.11246041 0.063504055 -0.06293453 -0.09072993 -0.067136474 0.125762 0.05814648 -0.053149536 -0.13273737 -0.07755356 0.048187256 -0.033531196 0.0016148484 0.012631945 -0.1021812 -0.029047834 -0.10356302 0.121861026 -0.051269352 0.06409849 0.06272058 -0.12667957 0.06565056 -0.0373928 -0.08323057 0.11938419 -0.10441514 -0.03324134 0.076598786 0.03285965 0.023788508 0.05055293 0.03790352 0.0421284 0.09627282 0.034254696 -0.03270309 -0.06363538 0.0043313475 0.100418136 -0.10665702 -0.045236975 0.0920474 0.07017637 0.06369336 0.1200952 0.106118776 0.036315683 -0.008763983 0.00021113094 0.026697738 0.013716216 0.08946963 0.071923435 -0.011967529 0.032170974 -0.071394585 -0.07081278 -0.087755 -0.078011006 0.047077905 -0.007561008
-0.0057529924 -0.11394995 -0.09671175 0.120600775 0.083981864 0.055350747 -0.019650761 -0.006130662 0.11780579 0.11493733 -0.012706482 -0.084262215 -0.041702088 0.08429306 0.106957495 -0.008022359 -0.010588337 -0.10221857 0.09081012 -0.020044966 -0.043036625 -0.102727555 -0.074680395 -0.016374107 0.038980126 0.13260782 -0.015367312 0.044819694 -0.059042312 -0.0008514848 -0.007578182 -0.06600733 -0.052064907 -0.06544878 0.075818315 0.0846412 0.078515895 0.11050835 0.04311561 0.02412906 0.08779609 -0.107707776 0.03925594 -0.049775485 -0.059912816 -0.05206612 -0.07372934 -0.04708042 0.13377209 0.104794085 -0.114779435 -0.11200883 0.10708529 -0.026989944 -0.053817913 0.10438235 -0.10047943 -5.8260794e-05 0.09527127 0.10480895 -0.1199181 0.0031481816 -0.011694486 0.077955954 0.12969697 -0.05964605 0.11985866 -0.032353852 -0.022041334 0.03230577 -0.11203476 0.029093126 -0.02405645 -0.032855347 -0.11555196 0.0039438065 -0.009661077 0.07838646 -0.031544473 -0.0035646507 0.026876824 -0.07748276 -0.10729988 0.025071612 0.042154785 0.11035484 0.0970601 -0.03305695 -0.07160361 -0.10311668 0.09285306 0.07013949 0.056716233 -0.08909583 -0.04010609 -0.115093365 0.11524916 0.0005735941 -0.052516982 -0.04012666 -0.041895118 -0.06687905 0.058779124 0.057772897 0.044884615 0.0067537325 -0.1128124 -0.09905291 0.102884136 0.10113945 0.0182354 -0.07681764 0.12738393 -0.024104374 -0.083084755 0.10540329 0.10973672 -0.081083946 -0.03822875 0.07126414 0.057389747 0.10815616 -0.10555569 0.03081324 0.061218463 0.11692464 -0.09143857 0.015360922 0.014730353 0.06912681 0.040505067 0.0176223 -0.085255 0.054395888 0.02236512 -0.017461937 0.118589066 -0.13136855 0.123865075 -0.1052833 -0.056529656 -0.060050398 -0.05441743 0.05893985 -0.10148212 -0.0017738992 0.07791062 0.084184885 0.13078463 0.09091028 0.016145516 -0.12896542 0.068123795 0.0726089 -0.07315941 -0.041987836 0.043294534 0.022503758 -0.06167928 0.10320346 -0.019397594 -0.08358023 0.11978677 -0.006553834 0.11415843 0.03358447 -0.06261178 -0.09284981
-0.061624683 -0.0662618 0.12768954 0.10893613 0.067232326 -0.09482166 -0.12766942 -0.068702 -0.08579973 0.11048962 -0.05286862 0.087178044 0.034352753 0.055324793 -0.11738394 0.018649165 0.067366116 -0.12164963 0.106853426 0.009810237 -0.10759526 -0.064019196 0.02257811 -0.101694435 0.060975302 0.008545153 -0.046317086 -0.03872012 0.10530811 0.12310282 0.114184685 0.09242738 -0.08710152 0.07699391 0.09352324 0.017813476 0.103928074 -0.016988544 0.01587435 0.060604993 0.110209525 0.10290127 -0.085232444 -0.11796477 -0.09777216 0.12793098 -0.09014145 -0.12489819 0.10647272 -0.060688894 0.10912461 -0.07128937 -0.0403997 0.12157206 0.010561257 0.09079215 0.059936803 -0.112224 0.11738999 -0.10449635 0.086378954 -0.01684658 -0.09260068 -0.076631464 -0.08077583 0.026987674 0.06157044 -0.107435144 0.10903085 -0.023689063 0.009860509 -0.045742728 0.008054161 -0.007558816 -0.05017882 0.04126414 0.09315153 0.10371259 0.10853792 0.036754217 -0.06116767 -0.0047712675 0.08640867 0.01427875 -0.00809253 0.056148835 0.06324705 -0.07906298 -0.028429259 0.0060974457 -0.10418474 -0.054178037 -0.08291274 -0.034775592 -0.10754287 -0.002954596 0.13476208 -0.039230343 -0.05214097 0.09993327 0.02370363 -0.03274491 -0.026881354 0.06864524 -0.09012421 0.012959824 -0.0414843 -0.10946823 -0.03281146 -0.07307324 0.07896463 0.0824325 -0.13017456 0.11547414 -0.032065757 0.13771921 -0.052851662 0.015528609 -0.12784453 -0.105998926 -0.1295716 -0.13931759 0.014814476 0.052810505 -0.008341334 0.09044507 0.014039581 -0.011363495 0.12030909 -0.11128929 -0.0048644613 0.008568487 -0.12068939 0.06566789 0.110096134 -0.027708206 0.033272915 0.081351876 -0.06428385 -0.12759872 0.036970604 -0.07270086 0.037237447 -0.052821502 0.050553095 -0.074255824 0.035659865 -0.030443283 0.007155764 -0.09856105 -0.03705259 -0.044647753 0.11741587 -0.055826318 -0.08064526 -0.06585011 0.029312065 0.13849172 -0.04779722 0.023688635 0.08078964 -0.0854014 -0.0670495 0.019621199 0.06384197 -0.03738523 -0.09258894 0.046187334
0.1357011 -0.04091206 0.079884425 -0.04754164 0.015131048 -0.10340436 0.040076297 0.023691759 -0.13246517 -0.07952547 -0.1320792 0.070697166 -0.05104305 0.09945483 0.017005375 0.0856751 -0.11713412 -0.029116498 0.07786842 0.03603574 0.07392751 -0.024499984 0.12185897 -0.100771874 -0.025713608 -0.10502045 0.058928657 0.12766878 0.008808238 -0.014409068 0.094601 -0.028534507 0.083090074 0.0074886945 -0.092617124 0.09418207 0.06905392 0.07963474 -0.11531741 -0.1116389 -0.08274293 -0.093269065 -0.019758731 0.058668964 -0.030284125 -0.03924692 -0.09009203 -0.052961394 -0.045841694 0.025709437 -0.099249154 -0.0033682622 -0.08345116 0.0689287 0.04032055 0.07819751 0.013237071 -0.081309214 -0.11898731 -0.10799628 0.031988483 0.119552985 -0.014581537 0.028444134 0.012478931 -0.012746134 -0.009149606 -0.09377823 -0.10256069 0.04159537 -0.113602236 -0.021321675 0.09248705 0.02676438 -0.0029496688 0.13733219 0.12159784 0.09031198 -0.109101556 0.004231674 -0.059252847 -0.014785428 -0.04772967 -0.007121686 -0.08976424 -0.05550878 -0.012601617 0.08013011 -0.04583477 0.052898303 0.027938452 -0.054696687 -0.009159654 0.039197393 0.041657057 0.123126864 -0.030167071 -0.0057572154 0.0372111 0.03196892 -0.07485317 -0.1213606 -0.06991694 -0.013117887 0.079625726 0.13262512 0.036817316 -0.067278855 -0.13090892 -0.0107995765 -0.10171983 0.10163365 -0.12948763 -0.012268153 -0.06519919 0.08943127 0.0061847814 -0.024267878 0.0350662 0.04201779 0.06430132 0.113447145 -0.11264017 0.022901958 -0.04537422 -0.010054945 0.023780508 -0.06519238 -0.12541474 0.05289176 -0.09279747 0.0567571 0.060802903 0.15145205 0.067630395 0.036894128 0.018722527 0.0114544565 0.12447937 -0.060440004 0.089460425 0.017646048 0.110573635 0.043594625 -0.019144753 0.09310914 0.11230195 0.015081575 0.040748507 0.08942563 0.09237595 -0.06722988 0.024948474 -0.0776765 0.08432499 0.061171126 -0.06651861 0.00799585 -0.10527445 0.12979741 -0.023334691 0.11130198 0.034006298 0.007938205 -0.120400324 -0.0036764916 -0.07159949 -0.03718743
-0.048867904 -0.011899901 -0.022611441 0.062908165 -0.022089243 0.013896162 -0.068587296 0.12902413 0.093070425 -0.03514381 0.0816688 -0.0852459 -0.0068751834 -0.110747375 0.018199923 -0.10153766 0.010434277 -0.039414838 0.04758905 -0.10289488 0.08607671 -0.08735295 -0.028225321 0.001431293 0.026753722 0.02286238 0.123629525 0.11545613 0.068588875 -0.029357003 -0.052476194 0.15561676 0.076992095 0.09948677 -0.06006917 -0.005399083 0.016863555 0.07077401 0.029195257 -0.09890136 -0.10010547 -0.018207759 -0.08871042 0.11226544 0.054321494 -0.052495364 -0.010041171 0.12869717 -0.12703815 -0.0968307 0.086846635 0.021467874 -0.114498794 -0.122390404 0.10346941 0.06868158 -0.037436392 0.11026101 -0.06230983 -0.08674759 -0.09165179 0.060198143 -0.065856434 -0.021116361 -0.099633336 0.042086292 -0.0062180297 -0.0766148 0.13524531 -0.015227467 0.054959774 0.00021685354 -0.090340346 0.0068740007 0.053692486 -0.10026561 0.028362164 0.062069807 0.09067444 0.009735969 -0.0784481 -0.014113451 0.055968903 0.0098387515 -0.031192482 -0.03522226 -0.031616814 0.05377253 -0.017077431 0.018291516 0.09985522 0.13062175 -0.06484308 0.12111886 0.03467049 0.11202854 -0.11286586 0.091805406 0.06738608 0.056103542 0.0057326416 -0.13220026 -0.09973789 0.018539246 -0.10462118 -0.12933338 -0.019007156 0.10877502 -0.10709328 0.06536897 0.09206392 -0.110468976 0.061825246 0.11917147 0.038064543 -0.0018688918 0.12875353 0.009108183 -0.008147325 0.106461436 0.089970276 0.12640232 -0.087667465 0.010047869 -0.0076629175 -0.08171254 -0.0187878 0.0408256 -0.015720993 0.024433408 0.017835788 -0.04704725 -0.0513297 0.034308355 -0.026940022 0.13506898 -0.04834057 -0.13490084 -0.008473332 -0.054406 0.02629595 -0.06193924 0.030684015 0.09083075 -0.13581531 0.14363785 -0.08121718 0.06450126 0.09448834 0.048482306 0.016486816 -0.038319163 -3.7028988e-06 -0.089000426 0.06766721 -0.0711885 0.0939303 0.04116009 0.12733041 0.0051782853 -0.02794006 0.11020608 -0.039512467 -0.054566603 0.056338537 -0.044270597 0.07593879 0.11525206
-0.12219194 -0.14005393 0.101099566 -0.11011633 0.0015234333 0.048438914 -0.07474623 0.036251545 -0.060297765 -0.021908894 -0.055989757 -0.11761635 0.13395984 -0.120434344 -0.06839305 -0.0136485435 0.103787564 0.12273257 0.119299516 0.059107304 -0.017430425 0.1352937 0.033812188 0.13857257 0.0050438126 0.05816921 0.01030112 0.12066275 -0.01960087 -0.054997586 0.038150907 -0.028590873 -0.057741195 0.00831108 -0.0066906605 -0.05304551 -0.05736803 0.11000344 -0.09115536 0.12871344 -0.09375558 -0.014588962 0.123306595 -0.08594983 0.091245346 -0.01764241 0.15403488 0.08658459 -0.114472955 0.0865029 -0.12501547 -0.08084708 -0.123026274 -0.024790954 0.055716746 -0.03976873 -0.06275393 -0.03970302 -0.041901104 -0.12591441 -0.09632406 0.1142372 0.055197254 0.08858277 0.023926541 -0.014530924 0.11822347 -0.1028935 0.04195712 -0.017401572 -0.13662425 0.054696687 0.089739725 0.13895212 0.073663235 -0.049867164 0.049556468 -0.062274087 0.020258518 -0.07399886 0.05867192 -0.11584811 0.04677584 -0.005611323 0.05533869 0.009942347 0.041009117 0.040323433 -0.09399306 0.095189944 0.036885843 0.13410915 -0.071242616 0.057149157 -0.08469916 -0.13041379 0.02227478 -0.03812901 -0.025282621 0.102459244 0.07427931 0.06882665 -0.10978625 -0.08360468 0.09896212 0.07488533 -0.1429423 -0.076865174 -0.073836036 -0.040343553 0.13332516 -0.033288494 -0.13250853 0.054382488 -0.029314734 0.11948394 -0.075661965 -0.06008426 -0.049232785 -0.043049045 0.04300308 0.031152217 0.09838657 0.005336653 -0.007127369 0.07216931 0.043728247 0.10125452 -0.12069081 -0.053654708 -0.056796774 0.023825986 0.024845507 0.14055099 0.13215272 -0.026657853 0.002395739 -0.03571359 -0.0830909 -0.11915372 -0.026568796 0.08229514 0.09488415 -0.09125853 0.09076121 -0.0002116297 -0.13013846 0.10459557 0.040490948 0.07604766 0.08119217 -0.015425454 -0.04382274 -0.057703722 0.073273614 -0.033167236 0.07811821 0.077317536 0.029153444 -0.043611936 -0.031774413 -0.04455826 0.06757785 0.001909053 -0.04889713 0.05423487 0.11606454 0.012881137
