0.2066208 0.11545655 0.22215311 0.20887078 0.2072306 0.17901932 0.114266194 0.121920004 0.1835932 0.024274932 0.054468658 0.06153066 0.064169094 0.013207142 0.14423534 0.13408223 0.12447551 0.1507673 0.28671408 0.27252784 0.21939768 0.23936777 0.20693886 0.17244525 0.15195027 0.11010654 0.02198872 -0.10165799 -0.101636015 -0.09568793 0.01105658 -0.056419488 -0.12618022 -0.14002934 -0.14108534 -0.09276127 -0.15163575 -0.13788119 -0.13177207 -0.14658232 -0.11128791 -0.11561798 -0.10070393 -0.1148298 -0.020645108 0.031630978 -0.07918854 -0.058888953 -0.06387851 -0.13911198 -0.06982772 -0.1077025 -0.07534755 -0.046008326 -0.06992126 -0.0131161325 -0.10903341 -0.03250425 -0.085950345 -0.072227255 -0.0931453 -0.087612696 -0.09228967 -0.10728897 -0.10072279 -0.16434611 -0.03624009 -0.016606769 -0.138013 -0.038004864 -0.117470615 -0.15951914 0.03909315 -0.15113363 -0.113276616 -0.15547901 -0.08721346 -0.039740052 -0.11298666 -0.08552204 -0.07010278 -0.10473192 -0.14356087 -0.04613337 -0.10114324 -0.093339436 -0.11046676 -0.07593747 -0.038282104 -0.09250314 -0.076323025 -0.05504003 -0.14629078 -0.08110038 -0.07860516 -0.089802355 -0.109417245 -0.053254914 -0.08252806 -0.14493315 -0.055230863 -0.1259047 -0.109289564 -0.026177986 -0.10560096 -0.09668531 -0.07712607 -0.08278184 -0.091649786 -0.16620696 -0.06800589 -0.18678093 -0.14553419 -0.08742297 -0.05238011 -0.070660256 -0.0806908 -0.081276536 -0.12645267 -0.059258875 -0.030134704 -0.060596608 -0.06956529 -0.10213934 -0.07646604 -0.04296568 -0.08323016 -0.07524185 -0.024031863 0.015728286 -0.13079278 -0.11354029 -0.024627363 -0.02832172 0.012199905 -0.06874832 -0.08533091 -0.03047603 -0.12076693 -0.03703767 0.016858337 -0.056560855 -0.04734618 0.0030348706 -0.024851054 -0.069215804 0.004789397 -0.08320554 -0.07958147 -0.010259476 0.028342918 -0.09733109 0.011937837 0.049841814 -0.002917308 0.02145053 -0.09285194 0.042692203 0.011774457 0.0012457274 0.007265148 -0.05506248 -0.030694934 -0.010547117 -0.013307874 0.038672965 0.031074835 0.019986939
-0.03153439 -0.028506294 0.085516825 -0.0059680156 -0.11683621 -0.071005456 -0.047944207 -0.07513837 -0.13432823 -0.111084215 -0.037379302 -0.09036694 0.082399346 -0.051638037 0.05898611 0.0016490747 0.04669922 -0.09739474 -0.029227927 0.0554749 0.013797294 -0.038007487 0.0025563664 -0.12631002 0.086247645 0.026377292 -0.07566136 -0.12810434 0.059418313 -0.020180285 0.04656764 -0.1231618 -0.13830954 0.02931403 -0.019810306 -0.08165116 0.0651878 0.07967044 -0.12865758 -0.08948532 0.06435796 -0.021234907 -0.120972276 0.03513177 0.034679484 -0.08847373 -0.014443502 -0.09697724 -0.041549843 -0.14269567 -0.12173233 -0.12630264 -0.07730041 -0.04474245 -0.122760884 -0.11257009 0.060228877 -0.030612702 0.008866105 -0.12886107 -0.07603367 -0.104083315 -0.07072829 -0.071119115 0.016391188 -0.041636273 -0.07386964 -0.110977195 0.036233377 -0.027008004 -0.14769386 0.0038328075 -0.115342624 0.05405604 -0.09032532 -0.05956906 -0.09647843 -0.019335633 -0.112959936 0.029386736 -0.07391232 -0.0019290753 0.044822916 0.09670556 -0.078827195 -0.08802396 0.08759047 -0.10942795 -0.014381128 0.09318951 -0.106836624 -0.07892712 -0.017149305 0.0068660057 -0.05950942 0.002741317 -0.047515605 0.02334407 -0.13580437 0.107648805 0.08477114 -0.017791 -0.071200825 0.060679022 -0.10686623 0.026755031 0.09297011 -0.1129411 0.022199923 0.02426715 -0.0014081709 -0.04876904 -0.10388902 -0.13256946 -0.04694723 -0.14308167 0.050266754 -0.06012497 0.043119274 0.032139484 -0.12200346 -0.0928309 -0.08556052 0.059602533 0.03677429 -0.07813916 0.06025848 0.07581741 -0.033529244 0.011143862 0.0583317 -0.02639717 0.061424326 0.009546777 -0.0060897623 0.09050173 0.030796286 -0.07982654 -0.044146176 -0.08245864 0.030116716 0.014306956 -0.017475348 -0.091017455 -0.08655144 0.05897393 0.01903137 -0.011516081 -0.038625646 -0.091698356 -0.09613844 0.032142833 0.091120854 0.11035919 -0.021303633 0.012315298 -0.14816205 0.070697665 -0.07834646 -0.033905398 -0.12437078 0.061856806 -0.025682919 -0.10494851 -0.070164874 0.08782241 -0.023180256 -0.049946856
-0.07299963 -0.10243973 -0.023830013 -0.12548944 -0.0939194 -0.08869772 -0.068207845 -0.007650188 -0.010429837 -0.0034600557 0.05549594 0.06504412 -0.03887419 0.10821591 0.0366932 0.033301666 0.017886156 0.08780409 0.11416188 0.026910814 0.044165984 0.0073201256 0.011283258 0.048931796 0.120531976 0.01245745 0.0017851332 -0.0017918656 0.07637973 0.0620724 -0.010069221 0.15218629 0.12357585 0.12955196 0.12369732 0.04089503 0.03046668 0.009573459 -0.03612126 -0.020830154 0.02527826 0.04556896 -0.013608438 0.06788121 0.09418777 0.012016797 0.04881899 0.051013786 0.03520278 0.00033991237 -0.00086957595 -0.107100606 0.0068603302 -0.092303835 -0.02134979 -0.101190954 -0.088974416 -0.0053169825 0.0015199652 -0.14218688 0.022789495 -0.093057774 -0.05862064 0.113200255 0.009914846 0.0049772696 -0.059076197 -0.011073908 -0.069522284 -0.0017993135 0.03068629 0.0076415967 -0.07703892 -0.024151504 -0.016647553 0.037493415 -0.019045986 0.0102843335 -0.049965434 0.009182544 -0.03216775 -0.018636683 -0.11043655 -0.01882189 0.026985632 -0.034073092 0.014701941 -0.090019226 -0.052814472 -0.016810276 -0.0058209784 -0.010189391 0.048601557 0.0593908 0.041459847 -0.027876329 0.08219436 -0.019121787 -0.00049546594 -0.08180994 -0.0453846 -0.11404594 -0.043769978 9.7058524e-05 0.05032039 -0.04864344 -0.06882179 -0.08280483 -0.08718292 -0.053576924 -0.08975259 -0.108660966 -0.08891749 -0.14556326 -0.08265485 0.011660463 -0.091167115 -0.071478896 -0.10611671 -0.10924434 -0.037207868 -0.1447658 -0.089535125 -0.048812553 -0.0046645985 -0.09077818 0.017223917 0.04008159 -0.11990062 -0.10507916 -0.13247414 -0.096327744 0.038266886 -0.08937954 -0.1544873 -0.1090298 -0.05789014 0.018255357 -0.002388382 -0.1415343 0.051703464 -0.11905593 -0.109931946 -0.11461123 0.008184894 0.015796851 -0.12846841 0.0142102325 -0.11686322 -0.19935659 -0.0994086 -0.19633901 0.002488743 -0.014759587 -0.113801494 0.0063714837 -0.083632015 0.046468124 -0.038477875 -0.015708342 -0.17474675 -0.019124722 -0.13833311 -0.070833825 -0.09085093 -0.007097296 -0.03387962 -0.12063736
-0.12039921 -0.13901697 -0.046560697 -0.043192144 0.0065495674 0.037345544 -0.022698365 0.05614612 0.009035386 0.007623668 0.08312226 -0.04011546 -0.04609263 0.049030792 -0.0762489 -0.108971894 -0.11955151 -0.15188424 -0.11938728 -0.06263158 -0.044137396 0.013221912 -0.0236534 0.026380582 0.010740902 -0.0012475499 0.01256203 -0.06360405 -0.030271312 -0.044301298 -0.033084296 -0.11615877 -0.15514003 -0.106722884 -0.0381132 -0.06028503 -0.070561334 0.019975157 -0.066365056 -0.009667788 -0.083268404 -0.029515758 0.008149998 -0.0016880068 0.016994352 0.036937654 -0.011387267 0.05025104 0.0691093 -0.034822844 0.051518183 0.022835407 0.05872192 0.033476267 0.050720055 0.06023505 0.028473245 0.078605376 0.051277664 0.033608887 0.063638255 0.022064464 0.048025984 0.017440788 -0.0027977207 0.07939596 0.041089572 0.113042176 0.040622097 0.04994752 -0.044607647 0.08135435 0.070638694 0.033607397 0.06647795 0.026826885 0.024310442 0.10555304 0.0055325213 0.025725158 -0.015049807 0.018872414 0.031560414 0.0068205814 0.0019309777 0.030830892 0.015874652 0.015156404 -0.039729137 0.025794912 -0.08090971 -0.013949778 0.0003142156 0.04834994 -0.048560392 -0.017406212 0.02961234 -0.08802696 0.018298484 -0.07420385 -0.044884842 -0.019716712 -0.08873492 -0.03426378 -0.10199351 -0.006290397 -0.0820631 -0.06651793 -0.12163033 -0.03133469 -0.08274511 -0.029689165 -0.047741253 0.0130039025 -0.08889968 -0.15281402 -0.147002 -0.046771884 -0.09603667 -0.04348071 -0.050682276 -0.021192273 -0.044190295 -0.07256757 -0.1215927 -0.1139152 -0.08048742 -0.11407596 -0.15118313 -0.114006534 -0.05366758 -0.17477831 -0.10547077 -0.122508034 -0.16210087 -0.13814206 -0.17748035 -0.1025586 -0.08872983 -0.10735403 -0.15349358 -0.08954851 -0.1438322 -0.18123546 -0.13032222 -0.18299714 -0.23366237 -0.15539795 -0.2235907 -0.24269214 -0.12664656 -0.27665204 -0.21574214 -0.19669837 -0.1372178 -0.28837177 -0.14538865 -0.2570799 -0.18820111 -0.18665898 -0.3100584 -0.29375467 -0.3015499 -0.3356814 -0.32071173 -0.28685114 -0.34000838 -0.29065183
0.16282201 0.16168925 0.08924886 0.107851505 0.1256931 0.005599798 0.008846138 0.054155678 0.041070584 0.050438326 0.05340394 -0.042480938 -0.06207904 -0.0018665688 -0.012429259 -0.07660435 -0.14539187 -0.07947278 0.030465482 0.1883611 0.23581657 0.29792127 0.21400627 0.29461414 0.27044064 0.20638025 0.22941029 0.0907177 0.036750466 -0.01834791 -0.069101594 -0.11470818 -0.054917444 0.0029897525 -0.12101972 0.014589239 -0.05716517 0.020814179 -0.052598685 -0.0097211255 -0.038258817 -0.05035586 -0.050673258 0.03346678 0.044929378 -0.016221285 0.060993414 -0.007149154 0.07656284 0.03153311 0.13173293 0.11789505 -0.014253508 0.033409014 -0.011768784 0.011311084 -0.008715972 -0.055024274 -0.05070854 -0.031886213 -0.0048714597 -0.014664781 0.072874516 0.03992221 0.038694017 0.14543287 -0.00379928 -0.02280033 0.04459509 -0.015405387 -0.06485974 -0.06763695 -0.07495086 -0.015530933 -0.06985682 -0.010348127 -0.056563303 -0.061315235 -0.021425268 -0.026358163 -0.09137299 0.027864609 -0.11536266 -0.0039893854 -0.08691962 -0.06154234 -0.06429927 0.009818085 0.061018843 -0.005008886 -0.13818912 -0.043143887 -0.07276553 -0.04206158 -0.029698294 0.01997227 -0.0033754967 -0.05034226 -0.09722231 -0.08782092 -0.06967307 -0.12182546 -0.0025904079 -0.12623268 -0.12990141 -0.07713827 -0.1631569 -0.13449305 -0.0072462666 -0.027017582 -0.15752555 0.05009388 -0.12680118 -0.0965128 -0.030886933 -0.05684839 0.019266114 -0.14106366 -0.117361166 -0.12373816 -0.046322584 -0.0836724 -0.002585204 0.018213179 -0.0580215 -0.18470643 -0.004119898 -0.003153834 -0.11328976 -0.07455246 -0.025258135 -0.0039669992 -0.124704406 -0.020039149 -0.07856382 -0.08386182 0.024207314 0.063130304 0.009776316 0.01890961 0.0010366999 0.0026576451 -0.0020434507 0.0453768 -0.041243695 0.016300745 0.021192307 -0.031685114 -0.00966004 0.025677748 0.026343737 -0.034736563 -0.02291015 0.015161906 0.032015063 0.024805265 -0.025278213 0.076728255 0.07342501 -0.034113742 -0.119102634 -0.021252364 0.02778889 -0.13210921 -0.13670859 -0.2122325 -0.11130036 -0.21307266
0.11942741 0.01967405 0.13285153 -0.014045124 0.18117641 -0.097728476 0.053305376 0.045614816 0.028854808 0.1282395 0.021577472 0.18462542 0.03241251 0.022273296 0.11068159 0.0845996 0.09615181 0.037074443 0.032541707 0.006064761 -0.071071126 -0.09474859 0.0054266374 -0.0564733 -0.14074299 -0.051198944 0.011914829 -0.009422998 0.06922022 -0.12801927 0.0071717687 0.021272218 -0.07092551 0.024357406 -0.110564284 -0.05342224 0.12465657 0.055889882 0.14089072 0.013373704 0.026414407 0.10166054 0.040963247 -0.0024222452 0.17080231 0.012222583 0.1529066 -0.0266658 0.11588321 -0.024621775 0.11424349 0.1259921 0.057491064 0.1328598 0.06842586 0.12874067 0.06341828 0.0035536652 -0.04818763 -0.05538966 -0.008289746 0.08440885 0.073681705 0.052667364 0.116027534 0.13547155 0.08879427 0.05518038 0.06208365 -0.027637407 0.15815678 0.060175072 0.032829247 -0.056081306 0.07282102 -0.057691794 0.09895648 -0.0071711848 -0.0012322146 -0.031675383 -0.015576514 0.069366746 0.061137605 0.05622271 0.0070727617 0.07690307 0.14587994 0.03644974 0.08179815 0.09753882 -0.0015874117 -0.055565994 -0.044866614 0.06112435 0.1747438 -0.024217665 -0.006700323 0.12033722 -0.06473392 0.07328057 -0.019137066 0.04242706 0.04163973 -0.04265579 0.09019246 -0.046742313 -0.02687913 -0.014229684 0.094191186 0.0035098311 0.11004864 0.08202069 -0.09815994 -0.08654701 0.007488872 0.13663645 0.117111735 -0.026284695 -0.08649479 0.102500595 0.0030399982 -0.0884551 -0.1308829 -0.017141506 -0.0022101726 0.05742089 -0.011191788 0.07781304 -0.080426745 -0.03767484 0.111215666 0.034372885 -0.051905636 0.032620266 -0.10721802 -0.07658378 0.069278665 0.06497632 0.081961066 0.025881056 -0.10111195 0.015680516 -0.017275352 -0.05252142 0.026043694 -0.053134166 0.024439247 -0.0907218 0.0460161 0.008651968 -0.063967705 -0.0032726533 -0.056004457 0.070462555 -0.047903676 -0.047479182 -0.033878386 0.06300807 -0.053188074 -0.010793845 0.06220863 -0.045832537 0.09252844 0.034804646 -0.049034238 -0.06183541 0.05725323 0.037743084
0.008902907 0.030752232 0.018935174 0.059352867 0.004148265 -0.025184907 0.09069143 0.1384373 0.05049986 0.122914635 0.04932392 0.09788385 0.0967957 0.1194712 0.11075199 -0.036609802 -0.06046971 0.07478834 -0.01649087 -0.023506342 0.0053419815 0.05988335 -0.057198346 0.025167232 0.12323576 0.03871077 -0.05471795 0.052002568 0.15041652 0.097079426 0.08216404 -0.02477012 0.16229892 0.06421139 0.14320607 0.046259426 -0.042112976 0.10785835 0.09649236 0.1593386 0.09421657 0.11661298 0.10301914 0.11510654 -0.006570341 0.02135748 -0.02182273 0.039745785 0.10334264 0.05539153 0.036282953 0.027712481 -0.03609678 -0.025253171 0.050296005 0.00018634558 -0.0020298806 0.087299414 0.14348002 0.018848864 0.034019552 -0.008067697 0.0051087155 0.14221908 0.084780484 0.103701025 -0.015195638 0.10224295 -0.040201653 0.0012869163 -0.06033712 0.058695845 0.10774843 0.030280648 0.010624518 0.1286152 -0.07567859 0.12412746 0.06812418 -0.025653409 0.110352874 -0.03921842 0.041083597 0.045693573 0.041470915 0.0981757 0.1082971 -0.031801376 0.05711318 0.09857034 0.049340125 0.017515117 -0.0269571 0.0670869 -0.0044346903 0.08901226 0.12994483 -0.035396915 0.007817024 0.10335253 0.06037404 0.08567535 -0.05247856 0.055690695 0.063787624 -0.054353863 0.005571173 -0.009251529 -0.054991856 0.07220675 -0.028218254 0.006427313 0.006151551 0.059998 -0.07509678 -0.066395186 0.036081094 -0.08021982 0.06543563 0.06036599 0.13887292 -0.059278157 0.0521331 0.041940916 -0.040868223 0.09536194 0.006765629 0.1026077 -0.029272769 -0.050888248 0.09777939 0.06163509 0.05133581 0.02093643 0.017087968 -0.045215465 0.14067079 0.09305427 0.072486795 -0.042176697 0.12174362 0.038106065 0.04531777 0.010228095 -0.0064378176 0.0724209 -0.012968368 0.0043066423 -0.00855253 -0.040353965 0.049408514 -0.00077641336 0.09955899 0.020837765 0.00024280434 0.03346162 0.18325508 -0.085977346 0.106267355 0.11721172 0.014120788 0.102130696 0.10759502 0.048764344 0.069348186 0.15297446 0.21498893 0.100156
-0.094595835 -0.04402578 0.03805865 -0.0050226217 -0.091754764 0.04058038 0.05318294 -0.019410428 0.04281322 -0.041028522 0.054350816 -0.05800219 0.006913734 0.058271248 0.10368992 0.12925519 0.002094487 0.076168194 0.07082024 0.030870503 0.06603751 -0.07354033 0.026256563 0.056046788 0.06971296 -0.0471513 0.06442408 -0.07158982 -0.061963532 -0.010507197 0.14053252 0.110591315 0.05833322 0.04050618 0.078423776 0.051357258 0.021962093 0.087794326 0.105816916 -0.0058801793 -0.0018793258 -0.0014892874 0.036742486 -0.018988542 0.061002683 0.018794496 -0.00477717 -0.023751674 0.03388331 0.098235786 0.017563105 -0.018600337 0.049988758 -0.012358537 -0.053362418 0.055774067 -0.015917223 -0.024288472 0.053872224 0.09015124 -0.07705214 -0.008264511 0.037794854 0.037860207 -0.06241923 -0.096299894 0.031215489 0.013733778 0.0637021 0.126211 0.11160291 0.110305704 0.12359448 0.012145053 0.032998987 0.15163127 0.021655057 0.13017538 0.13603225 -0.0411943 0.0018278061 0.104255274 -0.022784293 0.09462393 -0.011769144 0.08519512 0.09104309 0.03646335 0.0020953561 0.10859899 0.07549995 0.14352076 -0.037168566 0.06781557 0.1178321 0.11657131 0.043361455 0.03040359 0.14628954 -0.022324922 0.09804093 0.18014082 0.11604166 0.13700578 -0.018250626 0.051693607 0.113662794 0.13908437 0.04503668 0.1087756 0.076936476 0.046492297 0.11573907 0.054093666 0.16044734 0.024179831 0.124682054 0.12978284 0.1280411 0.07754204 0.115240976 0.15697175 0.04148919 0.09464971 -0.04372834 0.09216782 0.075982645 -0.05373568 0.057429038 -0.032210927 0.16252594 -0.013946245 0.08626514 0.02286203 0.16158986 -0.022836264 -0.010138378 -0.10634218 -0.06655475 0.0052809655 0.03465568 0.0930787 0.1299595 0.01043937 0.09383375 0.11697926 0.06820161 -0.07780349 0.10464932 0.11255783 0.026259277 0.022547645 0.008790678 0.029902136 0.0322595 -0.006209941 -0.04732069 -0.042805042 -0.062372446 0.037543476 0.05478401 -0.08508308 -0.0067675076 0.107724376 0.11365738 0.05094181 0.023646805 -0.0589343
0.038183853 -0.11315224 -0.14060433 -0.00082457194 -0.062498417 -0.1262769 -0.19199987 -0.13908727 -0.18643759 -0.23322707 -0.19417532 -0.19752854 -0.13676865 -0.08788005 -0.069243245 0.0051146913 -0.011069471 0.008704584 -0.026681792 -0.13334255 -0.042586483 -0.0089443 0.08258764 0.031768184 -0.0016846104 0.01652789 -0.05287408 0.07749902 0.055373117 0.10997511 -0.055149447 0.039705798 0.088212706 -0.077997245 -0.018248511 -0.016869258 0.037815474 -0.010368723 -0.09205966 0.08482952 -0.11748614 -0.12047065 -0.14886206 0.047596153 -0.08610173 -0.12060995 -0.01772387 -0.035970014 -0.12797165 -0.120790064 -0.020548873 0.045120634 -0.13534015 0.04772952 0.008241715 -0.08766348 -0.15667857 -0.09379661 -0.021535622 -0.09375222 -0.060353566 -0.0822447 0.01771516 -0.0024789516 -0.08864489 -0.09515369 0.020853378 -0.039345838 -0.13154016 -0.14580937 -0.11671358 -0.005791369 -0.010157977 -0.055931117 -0.01856613 -0.16009158 -0.12630402 -0.0654278 -0.09345346 -0.050663404 -0.12535158 0.033188555 -0.12412534 0.06548403 0.015508349 -0.08189236 -0.11404 0.057959635 -0.12305664 -0.07954867 0.027379729 0.05296718 -0.09693281 0.06590997 0.07809062 0.005836385 -0.120973215 -0.08548667 -0.00076708914 0.074359536 0.020336347 -0.016004035 -0.004340541 -0.022392187 0.045131557 -0.031198706 -0.04270284 0.08044065 -0.009562764 -0.0005672468 -0.066595204 0.09197375 0.025309796 -0.056838304 0.07976239 -0.10294181 0.005618975 -0.037671275 0.08275737 0.06777977 0.055712957 0.0009220741 0.051209856 -0.12300445 -0.010899548 -0.0062242025 0.07172984 -0.031262454 -0.05666915 0.026105471 0.07057626 -0.08017574 -0.09046117 0.026101049 0.03250867 0.047324244 -0.038841844 0.056362398 0.091384865 -0.038916163 -0.13125317 -0.046278328 -0.00021164678 -0.0014787208 0.05394156 0.09800655 -0.05182021 -0.069627576 0.016879402 0.060274072 -0.0410206 0.046277016 -0.10228685 -0.056074884 -0.06463121 -0.014586893 0.019283405 -0.02837368 -0.05079457 0.031025043 -0.0044828784 -0.03136084 -0.027109982 -0.119498916 0.06436899 0.09035914 0.024527606 0.064860985
-0.01775501 -0.015919892 -0.0020641969 0.0010001435 0.00459899 0.039221633 -0.013744339 0.0005182001 -0.097299404 -0.043849096 -0.118374005 0.056627683 -0.13163477 -0.091562405 -0.12861636 -0.08778634 -0.09280355 0.050121903 0.021926135 -0.014275214 0.13203807 -0.032156397 0.044404972 0.0803183 0.148936 0.07368094 0.08534226 0.03892697 0.07751515 0.03238544 0.12576494 0.046640955 -0.07839596 -0.01959906 -0.04297323 -0.015843926 0.12491851 -0.030631237 0.05538252 0.018697318 0.041232206 -0.07417695 0.08360822 -0.06478541 0.06196532 0.09732205 -0.06606419 0.02379619 -0.018096888 0.07329396 0.05933492 0.07012487 0.15539935 0.11865313 0.058999136 -0.1158475 -0.015315407 0.109404966 0.0862719 0.054180607 -0.03687484 0.029666545 0.11253155 0.033493746 -0.06780568 0.12178304 -0.061449166 0.020433959 0.10550698 -0.08520654 0.020636668 -0.0036162217 -0.059951007 -0.024166735 0.02309299 0.06433728 -0.019140702 0.046674598 0.022689397 0.06437789 -0.023105223 -0.103588976 -0.06788096 0.06355448 -0.009048765 0.010928904 -0.056922365 0.019936148 -0.015837032 -0.048428006 0.12496602 0.10659356 0.11312035 -0.060069364 0.047002565 0.008502261 -0.027866406 -0.013253925 0.07550578 -0.029243829 0.1198262 -0.064263195 -0.015785443 0.06759796 0.023525545 0.041249044 -0.056339595 0.051313378 0.095351584 0.008730262 0.07438335 -0.020161709 0.0035826885 -0.016609266 0.004403433 -0.008838888 -0.08953953 -0.031138053 0.13791427 0.12532757 0.043502435 -0.0014889784 0.10730196 -0.08594987 0.044367246 -0.07075422 0.03778574 0.07994558 0.09627763 -0.06764706 0.062132 0.026834894 -0.0098851025 -0.020406727 -0.03918901 0.13030481 0.12003044 0.1051439 0.071035825 -0.06993575 -0.07363577 0.0181464 0.03477558 0.08953184 0.124907985 0.07950478 0.0030724485 0.16626015 0.0695347 0.07793972 0.13126406 -0.033140156 0.100668974 0.011655849 0.047079757 0.023209669 0.021423355 0.064652935 0.11436675 0.08239782 -0.05263131 0.055442646 0.078808375 -0.04837604 -0.1021622 -0.079947494 -0.089092344 -0.12689437
0.11596082 0.20754093 0.15974279 0.09550802 0.029479403 0.2185022 0.06278708 -0.054249167 0.078339525 -1.7644215e-05 -0.0005740296 0.10921647 0.016664227 0.075462714 0.09640244 0.057142977 0.050864037 -0.008681842 -0.0032948486 0.05458465 0.0009469341 0.12040843 0.059276126 -0.012599882 0.13732424 0.11445866 0.04961672 0.121638864 0.07073635 0.054716703 0.17494687 0.023635702 0.10929982 -0.025528613 0.1320887 0.1672454 0.08865323 0.10708178 0.023559222 0.033871848 0.13217905 0.008490404 0.06447293 -0.045890074 -0.039602473 0.04422602 0.17990212 0.11021207 0.12081027 0.0045071114 0.032432072 -0.06456283 0.070793435 0.03879347 -0.07313731 0.06513844 0.13943852 0.06188315 0.079920545 0.050771777 0.0091917245 0.12890601 -0.03980549 -0.027340496 0.06629115 0.016673855 0.041018095 -0.0354444 0.019014256 0.05929915 0.04048808 -0.012929144 0.14950973 0.1455153 0.07033813 -0.02630086 0.0068076574 0.04843374 0.08723696 -0.046807468 -0.040597375 0.06966816 0.10965374 0.12382582 -0.0013726234 0.014922433 0.11089956 0.13161881 -0.008928932 0.10104288 0.050508052 -0.05453244 0.12380355 0.015510867 -0.068922594 0.052336052 0.025714874 0.0038824254 0.07016578 -0.0007189917 0.057145618 0.025398582 0.09667295 -0.014133715 -0.034243207 0.02102766 0.11345918 0.058470316 -0.05025645 0.10553392 0.031858236 0.0859416 0.04803245 -0.0039524753 -0.022382777 0.06277647 0.018315418 0.05520349 0.115964636 -0.055930793 0.023322934 0.04992214 0.030150095 0.024627464 0.11284382 -0.0007620143 0.008877859 -0.060003694 0.057669222 -0.07279388 -0.09304945 0.068481594 0.0145925395 -0.02510757 0.049470305 -0.07508437 -0.046861388 -0.07502814 0.056337196 0.09182202 0.07644704 0.09952472 -0.07364363 -0.065139346 0.070217036 0.07137769 0.028249402 -0.09357985 0.12271837 -0.10872099 0.017094174 -0.033980325 -0.084295616 0.027076881 -0.057697162 0.03822245 -0.056473237 -0.043341096 0.063934185 0.019583346 -0.088629864 0.04243103 -0.034061123 -0.030491266 0.0072837654 -0.053577475 0.01290558 0.14529572
0.10736718 0.08753888 -0.0075484593 -0.026861975 -0.02524904 0.0066141966 0.011788421 -0.08419036 0.00073677656 -0.042507634 -0.15636908 -0.117750235 -0.1944635 -0.09441535 -0.064515516 -0.02091689 0.09315682 -0.077382036 0.09162803 -0.077769995 -0.03683563 0.08236156 0.032035433 0.06703203 0.02364728 0.030590156 0.00063624966 -0.02196599 0.15195791 0.1249834 0.16026475 0.11627772 0.019892363 -0.029121898 0.007986481 0.08002959 -0.06597459 0.11251817 0.11398662 -0.083299525 0.13318852 -0.0239788 0.043434165 0.06295901 0.060029 0.13306655 -0.009650183 0.060217135 0.032532934 0.017525373 -0.0479614 0.06543073 -0.00011889034 0.10925068 0.06040185 0.027672458 0.077657744 0.09754686 0.11255158 0.064727545 0.077535205 0.09273328 0.055782024 0.13191855 -0.02787725 0.098439395 0.006352688 -0.011789699 0.09853586 0.017043276 0.08211746 0.03522374 -0.06211915 0.03228389 0.080625765 -0.024449777 0.13561305 0.13972732 0.06036024 0.047744162 0.1346539 0.12625125 -0.015527198 0.082850985 0.14708199 0.099558145 0.04362747 0.04194778 0.019787984 -0.054137267 0.1338597 0.04564787 0.09678918 -0.06332897 0.0860315 0.017768873 0.027499264 0.03082967 0.107989185 0.08833088 -0.019134967 0.085095234 0.1385238 -0.063002 -0.0563838 0.12564933 0.062426932 0.09584756 0.14636645 0.047935136 0.1336253 0.014238893 -0.022443283 0.030809158 -0.041681737 -0.029669011 0.07178003 -0.06854454 -0.06152148 0.14606328 0.060599882 0.08020378 0.062159404 -0.009427291 -0.039852157 0.08431767 0.05630485 -0.030818017 -0.0025751835 0.09088065 0.11443494 0.06848944 0.11580987 0.016462231 0.03267615 0.12851791 -0.06424363 -0.09664279 -0.013752715 -0.011373671 -0.057416964 -0.120119154 -0.028791528 0.11204383 -0.019320104 -0.0882936 -0.04990061 0.080028914 -0.025070885 0.14386241 -0.04452078 0.12295501 0.10075678 0.04054397 0.06363704 -0.09600601 -0.063171685 0.14389174 -0.041588314 0.12757353 -0.034783684 0.05158761 -0.027690513 0.14368391 0.115908764 0.14585888 0.17562406 0.09745435
0.004093044 -0.11358964 -0.15976635 -0.086177 -0.08493945 0.050021578 -0.011152777 0.12215104 0.024294231 0.01838986 0.055970903 0.15847658 0.21093364 0.07449234 0.22600396 0.14402446 0.23740317 0.10457546 0.22450292 0.15176824 0.17080212 0.09130881 0.04724716 0.054423053 0.15767388 0.10560885 0.13650107 0.107866615 0.046597466 0.12498624 0.004234927 -0.02716383 0.058068246 0.039252516 -0.015218381 -0.09785227 0.05518062 0.14903587 0.105999686 -0.046179544 -0.01816144 0.090360425 -0.007906632 0.036173776 -0.05076885 -0.07812208 -0.0107231345 0.048735198 -0.06102223 0.0058815503 0.0012115034 0.09021441 0.15654282 0.12108921 -0.06252812 -0.053557836 0.13918449 -0.0001338503 -0.081930526 0.15660201 0.0077128876 0.12709871 0.09133323 0.094505176 -0.02295252 -0.027039638 -0.101033956 0.10124729 0.043492313 0.07235729 0.04970999 0.08052853 -0.08383761 0.046434425 0.00048122046 0.09284868 0.09980033 0.03987965 0.087613635 0.10379978 0.036891464 0.034321345 0.058971785 -0.051342648 0.0012795234 0.08173717 -0.0067200954 -0.032763787 -0.06676675 0.0102517735 0.045828626 -0.020971367 -0.067104466 -0.13538347 0.07744362 0.09283543 0.045485236 0.026441418 -0.0045502167 -0.0019076449 0.08558081 -0.06251744 -0.07129561 0.15095396 0.066811934 -0.005300827 0.056303974 0.046650436 -0.05527699 0.12363018 0.0395636 -0.0056983475 0.1098962 -0.062023804 0.07366969 0.059477333 0.00916576 0.093590625 -0.10156573 0.0075634234 -0.021079998 0.08127549 -0.03281218 0.10588532 0.0014485961 -0.05255878 0.10951192 -0.016921315 -0.068051115 0.011105117 0.104493596 0.016688477 -0.07723099 -0.07783991 0.105796196 -0.0041923067 0.08464344 0.02182956 -0.011345846 0.111362 -0.0045790337 -0.049153235 0.00012377759 0.033865392 -0.061853692 0.029948099 0.080725096 0.042221308 0.008849277 0.09510965 -0.0144599425 0.07667794 -0.08994323 -0.07224341 -0.026491355 -0.066968456 0.021291919 -0.055664737 -0.0049830433 0.085575745 0.019956386 -0.056383666 0.089630455 -0.023096802 0.14068212 0.06402279 -0.038339753 0.1510589
0.19550689 0.08388756 -0.020269204 0.11379189 0.033904444 -0.0031674695 -0.16075198 -0.14855495 -0.078012355 0.002055321 -0.16208473 -0.17538504 -0.14797555 -0.030019686 -0.17827153 -0.16199188 -0.03890559 -0.13008581 0.046434604 0.03491254 -0.08106242 0.07807905 -0.037785728 0.056979973 -0.051854257 0.0962069 0.14257099 0.031032203 -0.0072977627 0.14304513 -0.09376094 -0.06676891 0.017483465 -0.026863884 -0.07132776 0.04566372 -0.14226674 -0.12221747 -0.08651985 -0.1721274 -0.12182839 0.014047007 -0.039343324 -0.073020905 -0.16639192 -0.13655949 -0.15773924 0.0230131 -0.1423312 -0.08591029 -0.072867006 -0.03735346 -0.043351203 -0.11193307 -0.016614055 0.027789172 -0.13872315 -0.11721567 -0.041346736 -0.064221725 -0.109805755 -0.06136502 -0.07932787 -0.053993635 0.06472658 -0.013237869 0.019404469 -0.09653329 -0.13118619 -0.06399342 -0.07051578 -0.029871518 0.013976444 -0.13294408 -0.019148666 -0.0935518 -0.082659245 0.04894325 0.048377216 0.039859954 -0.09165199 -0.06372691 0.00945393 -0.10503568 -0.11889802 0.0435192 0.06744998 -0.1067321 -0.09769486 0.06703579 0.0046512117 0.042260457 0.03095887 -0.013909312 0.08733065 0.09134305 0.07793512 -0.01112014 0.009265171 -0.03467997 0.027937533 -0.032000754 -0.027123297 -0.10055048 0.06529141 -0.06824789 -0.03780473 0.047779385 -0.013945469 -0.0036711467 0.058001086 0.07566742 -0.03256766 0.062190827 0.04551574 0.03558121 0.09110059 -0.033838887 0.029794538 -0.016567599 0.03685932 -0.028543701 -0.06375498 0.0062241917 0.006110217 0.052557535 -0.01856328 0.0011840707 -0.07836809 0.07467678 0.0028985525 -0.092167355 -0.0805034 0.013829485 -0.029179852 -0.07558461 -0.041917913 -0.0113316085 -0.05702767 0.0370237 -0.066516295 -0.06931098 0.050133746 -0.009305222 -0.13595165 0.083340555 -0.049475547 -0.004832097 -0.057577036 0.003448834 0.013995341 0.020544546 -0.10649457 0.056198508 -0.052966874 -0.04649739 -0.09218526 -0.072830655 0.010971951 -0.09433262 0.056611035 0.08305916 -0.086012445 0.043062318 0.030227393 -0.07310018 -0.0067768963 -0.07557683
-0.037855208 0.016800877 -0.016944816 -0.06276157 0.028049786 0.06501298 0.08307095 -0.07695716 -0.050728343 0.08072549 0.013367655 0.15348502 0.07432248 0.10072015 0.12204618 -0.018116003 -0.10322618 0.023874016 -0.08517577 0.027818736 -0.03881407 -0.09623351 -0.06589171 -0.03506736 0.013087095 0.008619342 -0.08426058 0.039184425 0.12086837 0.095368184 0.010715085 -0.00068941363 0.099049404 0.027103893 -0.025139835 -0.041345354 0.08695555 0.06288552 0.09505741 0.15031612 0.076695666 0.039461773 0.06472028 0.021316802 0.08645967 0.121331245 0.16121477 0.13985848 -0.046130363 0.15977187 0.027832652 0.051719964 0.118372865 0.029600117 0.043696497 0.057987306 0.024090812 0.116059154 -0.029360436 -0.034782268 0.051962983 0.112822555 0.030385997 -0.048608243 0.08153736 -0.06309302 0.024869416 0.033223253 0.16742884 0.06843577 -0.03426749 -0.015540439 0.02331871 -0.05123627 -0.045005634 -0.0043190937 0.06787022 0.07351321 0.0119764265 0.06662704 0.1405715 0.022893379 0.10632419 -0.0542232 0.10737066 -0.02442582 -0.0069835978 0.06615031 0.072490394 0.0358907 -0.07910386 0.07992921 0.034628425 -0.017715476 -0.059420798 -0.001365177 -0.03807467 0.012668744 0.10416278 -0.08944042 -0.013803746 -0.08675791 -0.05354509 0.11254985 -0.057335816 -0.068007804 -0.018991658 -0.05169335 -0.023731181 -0.092605375 0.048778538 -0.07188276 0.09825283 -0.047999438 -0.102416344 -0.0717769 -0.009271849 0.09596271 0.086494535 0.01086867 0.07094762 0.13843761 0.033331547 0.030706964 -0.026109584 0.15153931 -0.07983798 0.10416612 -0.0072346427 0.11083472 0.025479112 -0.04190536 0.022648422 0.11899248 0.14955577 0.010984338 0.026059972 0.08089718 0.09056873 0.09648597 0.027306883 0.023517266 0.025357995 0.022865815 -0.036035553 0.1355882 0.15622741 -0.07352644 0.13720214 0.07060943 0.016084548 0.06873998 0.16599253 0.03541603 0.10746068 0.107406825 -0.019436667 0.047419503 0.06241778 -0.02382173 0.12189757 0.056614257 0.025621545 -0.0062930724 0.091230154 0.10654866 0.061968748 -0.095521785
0.12923238 0.049270675 0.032377984 0.15800104 0.14702621 0.07782164 -0.02730928 -0.021204898 0.05361111 0.04459453 0.009085286 -0.03877605 0.13816413 0.08161165 0.103298016 0.0613365 0.021522122 0.039168853 -0.019423533 -0.00071945717 0.105753355 0.017845713 -0.08716281 0.15477908 0.057649225 -0.009916723 0.14844444 0.10568256 0.0307828 -0.009754388 -0.055175524 0.13971117 -0.016997544 0.04597029 0.07285518 0.10697924 0.120623596 0.1595578 0.11918247 0.052918028 0.155161 0.05846658 0.05449632 0.13199167 -0.070654705 0.0071510915 0.15290697 0.19433352 0.005823706 0.0014196705 -0.064935766 -0.04635978 -0.047619283 0.09406723 0.019580504 0.0054228064 0.014143123 0.0148116145 0.11977885 0.01663518 0.036885615 0.119792245 -0.064302914 0.100497946 0.02579386 -0.019794246 -0.013277831 0.14959513 0.0701904 -0.05956438 0.13911828 0.08341925 -0.061090842 -0.01867477 0.0675828 0.07971293 0.06545002 0.09553156 0.057000805 0.033814557 -0.07339643 0.12996064 0.062336817 0.051490422 0.071396686 0.10461505 -0.0056387037 -0.042141825 0.15453377 -0.016951079 -0.017973298 -0.0051116557 0.05493539 0.024444668 0.06989164 0.13832495 0.13865374 0.0898576 0.07382017 0.12412021 0.008560958 0.08011734 0.12688631 0.10150681 0.08877184 0.1700255 -0.0069449544 0.10194634 0.07342295 0.077263534 -0.0056883963 -0.04322423 0.027005702 -0.017278396 -0.023252532 -0.024688 -0.02736939 0.07381979 0.16419178 0.121848084 0.0797149 0.06900478 -0.016888201 0.01981331 0.042223275 0.037215136 -0.0020034616 0.10211939 0.106929384 0.11892561 0.13651522 0.00030042455 0.14736463 0.14356306 0.032568023 -0.013216054 0.12111718 0.049393307 0.022356685 -0.0077642812 0.079566985 0.08563956 0.026382871 0.13115105 0.06583287 0.06379542 0.048547585 -0.01058699 -0.056759395 0.10261701 0.034415893 0.08477416 0.13133688 0.12176859 0.18711221 0.15150715 0.091912106 -0.014013783 -0.019651359 0.13560604 0.08628979 0.17418638 0.02336218 0.20489001 0.109388515 0.07498067 0.1636029 -0.02551727
0.078924194 0.0027865875 -0.023051614 0.01699484 0.07828047 0.06654554 0.096643075 0.091481596 -0.016860012 0.052590705 0.060540047 0.0701892 0.108666755 0.012060773 -0.049627144 -0.035539113 0.12025609 0.07148596 -0.11356486 0.0055591757 -0.0445919 0.06437201 0.05220863 0.044469703 0.09221633 -0.019888403 -0.046827205 0.10315797 -0.07588355 0.105908416 0.046925575 -0.023185562 0.07023125 0.08013498 0.12676764 0.10552043 0.01703418 0.07797948 0.15485068 0.14695866 -0.009291463 0.0855598 -0.03741533 -0.043676853 0.011072739 -0.052730903 0.023873666 0.008903055 0.018552832 -0.033999596 0.07808004 0.0970662 -0.053105492 0.12607445 0.13843288 -0.1051738 0.10338811 -0.0146823125 0.025064738 0.07243692 -0.022655848 0.066084884 -0.048996598 0.013328115 -0.094370455 0.10577909 0.07810447 0.0036079537 0.014792556 -0.022031076 -0.020744085 0.15405506 0.07623541 0.080761425 0.053329423 -0.039117746 0.13760847 0.005344887 -0.045948163 0.07771086 -0.05023252 -0.0017233685 0.08227827 0.0867967 0.041239284 0.03215147 0.02836356 0.09464492 0.016997095 0.08017329 0.08623407 -0.028955605 -0.030921526 0.028986428 0.015398979 -0.066867895 0.095090695 0.0048526297 0.012728457 0.09146937 0.112398535 0.061539836 0.061072707 0.061362147 0.033147413 0.07960714 -0.018832712 0.0074063214 0.108156 0.14764445 0.10792013 0.103855714 0.10329953 0.025482817 0.08985166 -0.0026682068 0.07690961 -0.0735453 0.074654385 -0.08584994 0.05781635 0.105734535 0.012768664 -0.07653941 0.09308557 0.09321954 0.043526955 0.019273315 0.07075081 0.024818273 -0.03922897 -0.034599815 -0.049022097 0.0579947 0.00685979 -0.015236026 0.07778985 0.10210198 0.060756244 0.073166855 0.04140785 0.032720007 0.14147787 0.101644106 0.062613845 0.061002646 0.016661758 0.09658111 0.024081895 0.10320314 0.021492317 0.17781773 -0.01585774 0.102970704 0.097174615 0.110478446 -0.04756697 0.094982564 0.04738378 -0.042685788 0.06459897 0.16615435 0.0873411 0.008332212 0.027906246 0.06093257 0.024360454 0.17176645
-0.18681453 -0.11361187 -0.08940861 -0.12413056 -0.12618779 -0.0992619 0.0062897746 -0.18447147 -0.07061137 0.0031925398 -0.016072381 -0.00704636 -0.040932108 -0.05348791 -0.08561021 -0.0147726135 -0.09688492 -0.100981496 -0.07148861 -0.07954451 0.024086658 -0.1803591 -0.066265054 -0.120978706 -0.06771373 -0.11747461 -0.08683563 -0.053475827 -9.269145e-05 0.047358517 0.015984796 -0.11524201 0.020839302 0.005918511 0.0009936644 0.115139164 -0.008759428 -0.022310905 0.114837825 0.08199601 0.052101746 0.13718809 0.12402346 0.05399853 0.05098062 0.105650894 0.0853256 0.09044441 0.090178736 0.024018016 0.050275814 0.028389381 0.024909679 0.051165733 0.041606687 0.01313016 -0.05914049 -0.017836725 0.003701171 0.065073356 -0.019312315 -0.009565036 -0.07880278 -0.067409545 -0.051412277 -0.085187584 -0.05035257 -0.05320314 -0.022159172 -0.04249706 0.0996586 -0.11543268 -0.078067705 -0.018106507 -0.06613839 -0.08354699 0.021218304 -0.029474381 -0.102199465 -0.14300017 -0.08014948 -0.012293297 -0.038348302 -0.09263453 -0.079965204 -0.046313252 -0.04123992 -0.11930956 -0.12520225 -0.15459928 0.020362336 -0.119617075 -0.058532745 0.029084032 -0.18705447 -0.12521037 -0.11449124 -0.035570152 -0.0042853313 -0.039636075 -0.102842115 -0.11075346 -0.024960775 -0.17031951 -0.08043054 -0.07815753 -0.083014764 -0.15359114 -0.10241511 -0.057038356 -0.036291715 -0.09762895 -0.0723489 -0.119928844 -0.10270679 -0.09343004 -0.03949294 0.048083358 -0.22320685 -0.0854547 -0.015584524 -0.037907794 -0.115818664 0.018994896 -0.08126064 -0.018717315 0.037562374 0.005234662 -0.049517363 0.00021659335 -0.034271985 -0.0702234 0.01648236 0.01815889 -0.054576866 -0.027327063 -0.00202351 0.074984826 -0.00957584 0.045674093 0.1354846 0.05100763 -0.09029602 0.08271186 0.00251204 0.03657467 0.09398309 -0.0013529037 -0.0025862744 -0.01337482 0.067371614 0.08423837 0.118141614 0.10709195 -0.020444022 0.0541331 -0.020640375 0.0437005 -0.032373548 0.08737882 0.09570595 0.06843164 0.070002705 0.11872559 0.08845404 0.12366298 0.049189378 0.051806755
-0.09139313 -0.011528793 -0.03758122 0.053840388 -0.074552625 -0.12380817 0.05087709 -0.073181905 -0.022177607 -0.14582105 -0.07273318 0.0068231598 0.022713698 -0.017952248 -0.066858426 0.054998934 -0.09760923 -0.09339047 -0.15150787 -0.029774133 -0.007982493 -0.101232104 0.042343527 -0.14140382 0.031034032 -0.04878622 -0.15207763 -0.087068364 -0.1277598 0.009939907 -0.1809486 -0.08820443 -0.09693473 -0.1748986 -0.10790714 0.038228832 -0.07001259 -0.09835596 -0.091068305 0.0048245015 -0.1330851 -0.07977145 0.018298404 -0.050336115 -0.056323335 0.041431386 -0.17401822 -0.037385643 0.019063234 -0.050191116 -0.15458275 -0.0009081941 -0.1198177 -0.14176199 0.065540805 -0.1661466 0.064419836 -0.06555605 0.009657519 0.04355846 0.103951335 -0.11001186 -0.05530488 0.031282067 0.10011524 -0.10792625 0.052060634 0.0039730007 0.036273204 -0.11970196 -0.17425008 -0.01251771 -0.022755764 -0.043631166 -0.047582224 -0.15189424 -0.06280642 0.03881369 -0.07836051 -0.06784914 -0.06390015 -0.12815028 -0.15011469 -0.12425285 0.054626137 0.02014361 -0.11153941 -0.026610488 -0.03800683 -0.08414006 0.025267828 0.09609923 0.0192596 0.023953076 -0.007222117 -0.11091775 -0.053270344 -0.15490095 0.051755738 -0.17130663 -0.058473993 -0.01043314 -0.13577214 -0.06685896 0.03493811 -0.13578 -0.15502256 0.031971384 0.046591986 0.07644705 -0.091619305 0.09044498 0.07546788 -0.0036487298 -0.13902922 -0.11284152 -0.06387042 0.090252645 -0.0019705875 0.044667855 0.083672635 0.024817316 -0.0335126 0.069381915 -0.03713205 -0.08979437 -0.060057014 0.023992704 -0.0586831 0.04622578 -0.06096266 0.06352016 -0.1514216 0.06558654 -0.0074620564 0.015278068 -0.15232778 0.056239296 0.007959208 0.03997552 -0.13587528 0.081629686 -0.09604718 -0.0028569913 -0.08575424 0.045039397 0.05405802 -0.076515555 0.05165473 -0.0035342409 0.058849495 -0.094969794 -0.13083816 0.05435138 -0.13776818 0.037835795 0.07627743 -0.09400183 -0.012423564 -0.015727479 -0.16591409 -0.032197334 0.04483487 -0.01873835 0.03547875 -0.16817442 0.025603482 -0.07307629
0.15146656 0.009949757 0.116995774 0.016218873 0.0341623 -0.012564547 0.045367967 0.086383134 0.18813404 0.16920355 0.09164338 0.15854508 0.24793757 0.23674396 0.18862864 0.27485842 0.2410142 0.16866164 0.097645976 0.043397192 0.11606794 0.011060967 0.108810395 0.16483632 0.14668974 0.20005381 0.048771746 0.085202105 0.116339795 0.07327482 0.06603529 0.13225713 0.0046948823 0.17384347 0.1365342 0.17312434 -0.000508152 0.06953937 -0.0060650506 0.14996077 0.08308036 0.16842744 0.028870327 0.10508838 0.05905555 0.16106278 0.11128573 0.09950629 0.1420862 0.17220809 -0.005323965 0.007266739 0.059367355 0.058662143 0.053457778 0.14806399 0.08188096 0.065853946 0.08945723 -0.023211394 0.016764855 -0.02664248 0.0066333828 -0.07445321 0.0384836 -0.027115688 0.04386844 -0.09726477 -0.035307843 0.0032127143 0.043073833 -0.06484387 0.10065765 0.0920849 0.036683038 0.010398503 -0.011980195 -0.007824884 -0.060524058 0.0953157 0.0978169 0.015880845 0.036326963 0.016371297 0.018405324 -0.010990591 -0.038301848 -0.023954555 0.023911119 0.118065916 0.020824755 -0.058659405 0.036971282 -0.013407625 -0.043857142 -0.0025778364 0.0027825842 -0.04979629 0.043814916 -0.059050906 -0.03452333 0.10239375 -0.0022148301 -0.046189994 -0.07878111 -0.014243901 0.026311152 0.060632594 0.011475764 0.007801223 0.014692289 -0.0045603965 -0.014807772 0.016986975 0.06847488 0.0069947504 0.058464166 0.012128393 0.0778224 -0.017909475 0.050902285 -0.026465438 0.007592039 0.013932876 0.024368046 0.0045765163 -0.051203605 0.0037493766 0.04823666 0.0126459375 -0.0145711 -0.10003846 0.09057996 -0.06774092 0.006929891 0.07178511 0.0018237616 -0.079091005 0.033383675 0.014411653 -0.037605584 0.011741297 0.062062856 0.02374309 0.05596607 0.015550396 0.04033151 0.044990852 0.024070598 0.11054778 0.03057871 0.034567337 0.072487734 0.027050873 0.09046718 0.06831835 0.06322102 0.017241644 0.03254284 0.05377647 0.04795689 0.13735332 0.13734776 0.040261522 0.09370743 0.05260276 0.08634324 0.06993857
0.011884679 -0.06971051 -0.031194936 0.035697054 -0.016203463 -0.0011194707 -0.043337397 0.12248498 -0.019478852 -0.062702656 -0.0058379727 0.10379275 -0.06524034 0.079252794 -0.11828131 0.033383757 0.09894895 -0.14283861 -0.06891007 -0.09058101 -0.10097623 -0.10426351 -0.0026468285 0.012518955 -0.11321803 0.067876875 -0.030264392 -0.078656904 0.010890758 0.068183154 -0.054585606 0.08414868 0.033411276 0.037657004 -0.06219701 -0.028404856 -0.007868621 0.06540973 -0.07762368 0.10485126 -0.007398938 0.04260581 -0.021747867 0.0374846 -0.036860596 0.03548744 0.07097987 0.08417822 -0.034336384 -0.055865385 -0.043735735 0.09283894 0.0077316095 0.019426223 0.014207091 0.10352062 -0.055325676 0.036891013 0.04328356 0.046733666 -0.065354094 0.09010504 -0.045885056 0.0684693 -0.006642722 0.06953529 0.02983665 -0.044227164 0.09048144 -0.03544734 -0.030814841 -0.0077512036 -0.009213518 0.010368341 0.018225046 -0.04242186 -0.043531 0.048498042 -0.024778655 0.04817229 0.15128833 0.014284205 -0.034205317 0.16337138 0.008116513 0.09169626 0.136052 0.025509804 0.08099252 0.083441325 0.1326315 -0.08805438 0.030543393 0.15608096 0.07829965 0.08809521 0.12756026 -0.0984428 0.1342666 -0.0777882 0.11062215 -0.053588357 0.08754419 -0.09833641 0.09851702 0.066718966 0.10547857 -0.05028891 -0.01440472 0.1276479 0.14534444 0.08004096 0.117166 -0.04937566 0.010251125 0.071383424 -0.036724508 -0.03527736 0.11469514 0.06218964 0.043924984 -0.06743085 0.117720544 0.03747234 0.12800147 0.021398842 -0.04302252 0.11611823 0.069525905 0.07481283 -0.011638465 0.020358045 0.119102426 0.14970063 0.04264206 -0.00052227115 -0.077164695 -0.05087524 0.15266775 -0.020118412 0.10275338 -0.06074498 -0.04940324 -0.0023010876 0.033287726 -0.061874654 0.09742371 0.049076162 0.03660498 0.057687785 0.076887876 0.076717176 -0.01773712 0.088247605 0.11561088 0.017622937 0.09180608 0.0742974 0.10610437 0.015662318 0.011233708 -0.047942847 0.06146202 0.16801947 0.15716985 0.043426115 0.15920378 0.11763356
-0.093646795 0.100640126 0.0035037063 -0.11254829 -0.09152406 0.08275669 0.081103384 -0.11013512 0.09605279 0.0036970677 0.00902284 0.01238471 -0.088637926 0.120876886 -0.024062494 0.09813462 0.022816971 -0.067894876 0.051204 0.08608712 0.05360499 -0.03773244 -0.046519794 -0.05631275 0.02437438 -0.12834018 -0.021350149 -0.09134248 -0.077991314 -0.13751553 0.07698616 -0.06941531 -0.08797771 0.048903324 0.0828233 0.10302714 0.051474158 0.0720225 0.031531848 0.094693914 0.094188504 0.15443338 -0.020114936 -0.061726548 0.0764669 0.06889378 0.041434634 0.11044603 0.088345155 0.102308534 -0.0019155759 0.077951394 -0.0749273 0.074424915 -0.046810612 0.018544354 0.030454356 0.089099035 0.14924803 0.10891526 -0.054406215 0.03826961 0.039778143 0.052917708 0.008579619 0.11551394 0.010409234 -0.061012752 0.092855185 0.029697122 0.091658786 0.016029716 -0.051663674 0.055089045 -0.035072673 -0.027308369 -0.041253164 -0.043969713 -0.060267538 0.021720735 -0.027501127 -0.0014232635 0.06736437 0.025148453 -0.05477412 -0.03341458 0.018261602 0.03696381 0.057284437 -0.049923655 0.0695499 0.051939588 0.09787079 0.10964667 -0.038621794 0.052065123 -0.06976336 0.10137363 0.07344521 -0.0002361013 -0.069833115 -0.014672618 0.0466835 -0.0059001553 -0.055608295 0.0698907 0.12554765 0.055899475 -0.061472405 0.11051845 0.053694822 0.11822825 0.0016906088 0.00885873 -0.04112703 0.021064285 -0.010276184 0.09914028 0.11524307 -0.009488788 0.0649512 0.021107784 -0.014963125 0.1227879 -0.09468567 -0.08003038 0.02981939 0.10971655 0.06798421 0.013399609 0.11632794 0.117353134 0.12848364 0.00612707 0.001045911 0.03774401 0.107904024 -0.049221724 0.13558115 -0.0494128 0.121049255 0.13265777 0.028457288 0.07498375 0.07674707 -0.01151648 0.1510544 0.053637106 0.08253355 0.019472081 -0.029718004 0.035798363 0.11283783 0.07733224 0.013603787 -0.037343886 0.070789866 0.14975543 -0.024618894 0.11935243 0.0075979694 0.14420372 0.16355284 -0.065654784 0.102728955 0.016534816 0.18094647 0.18435575
0.18145217 0.25624555 0.055571456 -0.039509434 0.0003623743 -0.1519061 -0.017282512 0.0046942527 -0.06388406 -0.0703498 -0.09806301 0.05450075 -0.048672017 -0.016808841 -0.055359114 -0.0019406343 -0.08548626 -0.042279307 -0.040594827 0.009016251 -0.09194181 -0.0486465 0.059546806 0.0015153708 -0.021183541 0.03955555 -0.030465458 -0.045148466 0.018812122 0.017328748 -0.16035223 -0.04313927 -0.099268794 -0.0052389344 -0.085296035 -0.057867453 0.05478486 -0.029366514 -0.05730246 -0.10782903 -0.0051723938 -0.038694862 0.005323208 0.008747401 -0.034188535 0.021700393 -0.09420638 -0.09773302 -0.00348584 -0.073240526 0.07678231 0.026229078 -0.07575829 0.060042936 -0.014719441 -0.010928912 0.0019618566 -0.14844474 -0.04356225 -0.105351344 0.009928412 0.009369443 -0.007868172 -0.01851518 -0.09935642 -0.007851753 -0.1521562 0.012944376 0.038028806 -0.05652613 -0.08343672 -0.04860148 -0.15653177 -0.01573558 -0.09881448 -0.14013635 -0.006592764 -0.08004673 -0.172801 -0.014741312 -0.057820205 -0.106367014 -0.008764766 -0.06927321 -0.05387858 0.03820121 -0.14196692 0.02931032 -0.09297854 -0.09099411 -0.038812228 -0.0036070247 -0.14360642 -0.03920752 -0.019816844 0.04356022 -0.08185981 0.034532074 -0.098901644 -0.063182734 -0.19236277 -0.12790474 0.03444476 -0.11133316 -0.0046254047 0.042497914 0.05490223 0.03901484 -0.12162227 0.0069752173 -0.028000437 -0.06150468 0.037469637 -0.031479314 -0.12625435 -0.10193361 -0.14245452 -0.05647038 -0.15447754 -0.004017639 -0.06890089 -0.16327588 0.0066746436 -0.00076983427 0.038972776 0.057117987 -0.08842476 -0.023333576 -0.05150947 -0.032606754 -0.103405684 -0.12779604 -0.11985484 -0.017838953 -0.011427622 -0.05374018 0.096613675 -0.06691792 -0.089600466 -0.04107741 -0.005984171 -0.026105404 0.03514184 -0.15008754 -0.15789132 0.02009458 -0.13727783 -0.056016415 -0.1381592 -0.14949317 -0.18465725 -0.0031657023 -0.15165569 -0.1455762 0.020381609 0.050119545 0.052385498 -0.11802203 -0.064110175 -0.07650724 0.00054992567 -0.05325506 -0.013864626 -0.11520713 0.0012327329 -0.19614123 -0.12350438 -0.07335517
0.014285002 -0.028062554 0.09062489 0.05993029 -0.050386023 -0.116991006 -0.017043812 -0.00041428854 -0.027077975 -0.1008607 0.029646862 -0.058498494 7.042927e-05 0.09174563 0.04298953 0.08218892 -0.088488996 0.08777068 0.03371765 0.020114498 -0.028396225 0.043777723 -0.11883508 0.012460573 -0.028949426 -0.051584415 -0.15198945 -0.077827714 -0.12819122 0.016588232 -0.1577656 -0.09475617 -0.015067984 -0.11523302 0.045242686 -0.061155315 -0.09652752 -0.026503269 0.08462506 0.05155306 -0.106607184 -0.08386918 0.023849595 -0.10639144 -0.033773996 0.025304975 -0.061280135 0.028141528 -0.099410065 -0.15001534 -0.02523831 -0.15479602 0.012907632 0.04995834 0.0023510815 0.09494432 -0.012606848 -0.06780481 0.09524357 -0.075949214 -0.054880142 -0.039524134 -0.06772044 -0.05480338 -0.10249317 -0.12521644 -0.12903512 0.073509544 0.08668548 -0.063874304 0.07945843 -0.12768252 -0.0011909604 -0.019689212 0.10914288 -0.019721827 -0.005634307 -0.1312742 -0.016592983 0.11740606 0.08999223 -0.06631793 -0.10081012 -0.04916516 0.01777239 -0.09697993 0.030036837 -0.03319088 -0.052447554 -0.10894097 0.07991174 -0.034961525 0.058705598 -0.05447647 -0.07847351 -0.09294335 -0.08951145 -0.048323553 -0.113658674 0.016966973 0.0019196132 -0.13817713 -0.14739168 0.020678775 -0.1011799 0.022672886 0.040073834 0.10784891 -0.13725035 -0.010713673 0.0839219 -0.028224535 -0.022823744 -0.01650897 -0.07286564 0.010926244 -0.11670503 -0.09318888 0.081413105 -0.055750873 -0.0113522345 -0.08880609 -0.11291098 -0.040523577 -0.11235084 -0.07756662 -0.109090365 -0.0075967307 0.091246344 -0.094298154 -0.017767595 -0.02916476 -0.06406873 -0.062059283 -0.07362701 -0.06535086 0.008476175 0.028910946 -0.08636454 -0.09281178 -0.05500188 -0.12414366 -0.003662731 -0.052733794 -0.035000518 -0.08851879 -0.12486853 -0.13145423 -0.14470153 0.013556307 -0.12224393 -0.053535294 0.08224 -0.04739063 0.027307332 -0.1102986 -0.0761657 -0.16416174 -0.085382745 0.014808494 -0.06852189 -0.083165206 -0.028723273 -0.07123908 -0.043502267 -0.11340326 -0.03340031 0.012085647
0.08013995 0.10652326 0.10319107 0.0504418 -0.10524117 0.086026065 0.033099823 0.02749639 -0.11476646 -0.004033771 0.0735899 -0.07719959 -0.13690433 -0.02342182 -0.14975983 0.027869694 0.054066107 -0.081828326 0.06645801 -0.07550228 -0.09432694 0.07873456 0.055059582 0.09252658 -0.06331651 -0.006060126 -0.04370817 -0.038964774 -0.12946968 -0.09810706 -0.14374027 -0.13410428 -0.040818118 0.006938687 -0.032541495 -0.04025607 -0.19990554 -0.09667619 -0.13371174 -0.12890925 -0.13850023 -0.08572485 -0.15006465 -0.124538414 -0.11257932 -0.1617989 -0.14692391 -0.136893 -0.016764246 -0.029187907 -0.01535474 0.033072695 -0.077931404 -0.011208581 -0.05353328 0.04580199 0.020281103 -0.050499704 -0.038817614 0.055369038 -0.015143029 -0.045607507 -0.059952836 -0.07762747 0.06133265 0.016305085 0.0031162882 0.01350823 0.014439635 0.06434725 0.112072304 -0.04189656 0.0141599635 0.0050828657 -0.040800292 0.055958852 0.0033654813 0.035037406 -0.120464735 0.04094444 0.03982864 -0.011094769 0.001517882 -0.062245715 -0.025102323 0.029577821 -0.0145986155 0.06345994 0.02907679 -0.01379975 -0.011960848 0.020750863 0.057265252 -0.021209024 -0.022483299 0.05365695 0.10658169 -0.06254732 -0.10792254 0.029733272 -0.0077977814 -0.0651725 -0.08480284 0.023236902 0.00908322 0.095566794 0.031701904 -0.076038495 0.02664128 -0.055058196 -0.07182657 -0.10583885 -0.10938549 -0.037361436 0.031439956 0.08086053 0.012758157 0.056561276 -0.11758172 -0.0772797 -0.017863566 -0.005952567 0.05582481 0.048349377 0.02424967 -0.06483227 -0.007213369 -0.0906289 -0.053568717 0.017054677 0.027687546 -0.0850395 0.07353486 -0.007251814 -0.12520048 0.052021205 -0.05908855 -0.046290085 -0.041593973 0.011460848 0.08270844 0.023922889 -0.020196825 -0.06362683 0.002602899 -0.030333016 0.039314855 0.03298281 -0.10383747 0.1354164 0.028695995 0.0138928415 -0.07418797 0.0012779102 -0.057974793 0.095537044 0.039320126 0.0699856 0.033110254 0.044685274 0.04665203 0.080777645 -0.049107306 0.13107985 0.07274269 -0.0724583 -0.037053388 0.100762546
0.15521574 0.1370785 0.069385074 0.09577746 0.11468339 0.14626908 0.024784664 0.14534931 0.052947175 0.16568854 0.18977012 -0.02357773 0.028923405 0.054547917 0.09321284 0.11052733 -0.05549459 -0.10893231 -0.055384193 -0.049882717 -0.15669273 0.023859631 -0.06863969 -0.046542097 0.06379493 -0.05554906 -0.021238836 0.10298351 0.070570886 -0.066507064 0.09345948 0.016800757 -0.06480241 0.09349999 -0.050290547 0.08716169 0.15039739 0.124114625 -0.012652186 -0.01424904 0.1748664 0.0674659 0.114830956 0.04566616 0.058096282 0.040979113 0.1022238 -0.011401581 -0.039536428 -0.01907059 0.049598992 -0.093755096 0.1601043 -0.011604545 -0.06289998 -0.071169056 0.09011076 -0.045156807 0.13219824 0.019766796 -0.03131255 -0.0656497 -0.077248394 -0.014772294 0.07296448 0.1465759 0.12863447 -0.048664525 -0.100985676 -0.0024896862 0.032665864 -0.07094987 0.117208704 0.10110481 -0.034400962 0.10354205 0.08616331 -0.056921862 0.15964381 -0.019174444 -0.016757935 -0.042482376 0.08819069 -0.044707343 -0.014662183 0.08334857 -0.02232611 -0.11063554 -0.088345416 0.123827465 0.006635175 -0.045132387 0.12837744 0.017127013 -0.022248078 0.1267098 -0.034922674 -0.08724623 0.1450998 0.018387463 0.061036203 0.036394246 0.11052309 0.044020407 0.13545114 -0.0037142097 0.05803013 -0.011088501 0.15521167 0.020868257 0.05832537 0.048870843 0.026125668 0.04328629 -0.028927738 0.13924466 -0.06286736 -0.04743314 0.06678932 0.13223818 0.07959567 0.07858868 0.05061345 0.10574435 0.18036056 0.106189586 0.14135365 0.081173964 0.049853574 -0.03148209 0.13745365 0.03858564 0.037650257 -0.020050839 0.084651686 -0.01182704 0.1321189 -0.050186872 -0.05682449 0.07533481 -0.014584391 0.07448242 0.055921484 -0.09541527 0.038152605 0.041712012 -0.01525623 0.15112866 -0.055685896 0.0843698 -0.07730104 -0.021460136 0.16840911 0.11372406 -0.083324194 0.09942762 0.07285246 -0.08746576 -0.013755834 0.15777358 0.057873208 0.044225905 0.101717085 0.0066549596 0.09547081 -0.101382636 0.019533103 0.11668149
0.24494657 0.255448 0.1690902 0.14240496 0.19185147 0.029765232 0.05863137 0.059261326 0.07582032 0.06770659 0.03104628 -0.12194623 -0.022053717 -0.04959189 0.03398038 -0.10074347 -0.111619204 -0.24526241 -0.21842122 -0.15903306 -0.06001627 -0.099163346 -0.16990638 -0.17623904 -0.07561212 -0.15892006 -0.107627824 -0.07507902 -0.090701655 -0.07713294 0.043259192 -0.079613075 0.016057728 -0.045449678 -0.053614795 -0.1065346 -0.032841288 -0.07464982 -0.12961094 -0.051531244 -0.08020916 -0.04458257 -0.12893888 -0.046425026 -0.032070525 -0.054259762 -0.08944183 -0.081491336 -0.08348407 -0.09011206 -0.04123538 -0.15484373 -0.18740876 -0.18959236 -0.16566992 -0.1194011 -0.0686801 -0.07370236 -0.051443826 -0.23718332 -0.14977406 -0.18054323 -0.18747872 -0.15959549 -0.20112357 -0.1594579 -0.16760197 -0.07916898 -0.09885323 -0.16579391 -0.1486172 -0.07965139 -0.16379687 -0.085515924 -0.10099722 -0.074437454 -0.08313547 -0.090711564 -0.037784416 -0.09226923 -0.0980656 -0.17705776 -0.053485084 -0.09945942 -0.04021448 -0.11528782 -0.08152024 -0.015430832 -0.056814633 -0.009219848 -0.07214735 -0.14356498 -0.08656038 -0.13039117 0.03397183 -0.022006994 -0.04651097 -0.07217443 -0.04107278 -0.09179321 -0.045162596 -0.02139435 -0.07571717 -0.053110562 -0.04345242 -0.09352821 -0.042305265 0.07024774 -0.044822223 -0.033883702 -0.061426062 0.06662712 -0.07452617 0.038835615 -0.016124325 -0.029224645 0.027072942 0.097505584 -0.0012434345 0.08517509 -0.02036212 -0.024669984 0.03748716 -0.0028938036 -0.01294818 -0.06925637 0.05528705 0.008605962 -0.049016215 0.019731812 0.08615934 0.14070672 0.08777244 -0.02645538 0.10602872 0.038438745 0.13287416 0.06446495 0.16085938 0.14036265 0.16363703 0.09567624 0.058616124 0.13893533 0.13545588 0.09061855 0.15408373 0.1690751 0.079166636 0.20769638 0.101584665 0.1387853 0.18905744 0.18850558 0.225965 0.13391435 0.13687219 0.12957858 0.06598871 0.023603216 0.0656034 0.1681918 0.16349556 0.0096048815 0.12459168 0.13434814 0.07904185 0.2344462
0.4277291 0.23469545 0.29281777 0.2600433 0.22686629 0.05568197 0.06684988 -0.054120295 0.02062972 0.017658995 -0.02982551 -0.00422429 0.06325565 -0.002794714 0.031545747 0.01977118 0.14847043 0.049225327 0.046948712 0.12583652 0.0911605 0.00016897405 0.0020762687 -0.13913561 -0.0024474375 -0.007918005 0.043615416 -0.11106834 -0.12722607 -0.016329862 0.031602092 0.02258226 -0.058486473 0.053997666 -0.01712366 0.091473356 0.116714336 -0.023958117 0.08851841 -0.025509594 -0.05464798 -0.017058901 -0.03326779 -0.0017361211 0.14387505 0.03423216 0.1723031 0.030433608 0.04532104 0.04747396 0.02426967 -0.035111014 -0.03321772 -0.027621849 0.086354874 0.03104054 0.027332893 0.052097544 0.024799654 -0.0730755 -0.015861157 -0.042720236 -0.08096476 -0.029518118 0.00064135104 -0.08951838 -0.061212733 -0.07117417 -0.07077751 -0.08699811 -0.0073150066 0.05226864 0.032530747 -0.024253778 -0.0055452683 -0.009192465 -0.07894276 0.068552464 -0.08089146 0.023687638 -0.15044372 -0.11299794 -0.17036796 -0.19455872 -0.1278941 -0.11303796 -0.105187014 -0.068345584 -0.176753 0.040010817 -0.093147874 -0.06037496 -0.13044858 -0.1974357 -0.21368533 -0.106059305 -0.09312903 -0.026757125 -0.18728055 -0.037966438 -0.06246948 -0.09530995 -0.23816207 -0.07577922 -0.03967789 -0.10886236 -0.14205135 -0.10026017 -0.15809844 0.0056564305 -0.23958926 -0.19408351 -0.13833457 -0.25362188 -0.18579878 -0.25434384 -0.18415289 -0.2326625 -0.12652558 -0.03221567 -0.12282579 -0.20157897 -0.2864215 -0.118089296 -0.21827988 -0.14102502 -0.15074979 -0.14573902 -0.15165304 -0.23145697 -0.16472441 -0.3189529 -0.15140931 -0.12200276 -0.3099316 -0.24803379 -0.17007315 -0.16021806 -0.20346516 -0.19490471 -0.18867087 -0.2022099 -0.07565366 -0.24933073 -0.16118002 -0.15285265 -0.08174877 -0.06578755 -0.06010113 -0.14374368 -0.07303226 0.060615342 -0.1287571 0.0415828 -0.027944455 -0.046201322 -0.07045696 0.0052722422 0.015018555 -0.031878825 -0.031373434 0.06038646 0.051908843 0.032452635 0.114887096 0.016830942 0.08369 -0.045069493
-0.08784257 -0.02177022 -0.0024070921 -0.08562702 0.027702214 0.08617623 0.13480745 -0.008066827 -0.13114107 0.013823581 -0.11607709 0.007883205 -0.07134515 -0.06315258 -0.053753458 -0.0829742 -0.06160254 0.06011321 -0.009107014 -0.04894084 0.018524874 -0.044272646 -0.071051635 -0.0039882134 -0.032345753 0.031993292 -0.085099034 0.04951629 0.003964049 -0.08999232 -0.14268734 -0.1188286 -0.14592408 -0.049432255 -0.12482514 0.026061853 0.073746584 -0.015016514 -0.061726842 0.057847727 -0.084314615 -0.080688 -0.13697046 0.0039902716 -0.08040394 -0.10716644 -0.15988624 0.0014270637 -0.09533283 0.04434536 -0.1309334 -0.10449195 0.039435357 -0.04808569 -0.008060356 -0.111326516 -0.11826318 -0.0036710803 -0.09757311 -0.0039211153 0.08983396 0.025261097 -0.038552888 -0.101140425 0.018197725 0.094216526 0.06196446 -0.08129067 -0.08706194 -0.020113138 -0.047388438 0.03169005 -0.05730474 -0.13827156 -0.06344058 -0.085396744 -0.078496 -0.12098344 -0.1185263 -0.08216707 -0.046158567 0.069747545 0.042469077 -0.09764732 0.01606012 0.019445982 -0.05399035 -0.14451244 0.07917812 0.009926233 0.02211968 0.09377818 0.027427187 -0.06971312 -0.1486106 -0.13620056 0.001490481 0.000635959 -0.0411102 -0.098941274 -0.04086762 0.07041289 -0.063388176 -0.13731213 0.059631657 0.051927913 -0.14293666 0.017239384 0.02315902 -0.047094293 -0.12062376 -0.16013378 -0.101707175 -0.040132932 0.022692833 0.026274562 -0.10470485 0.07270734 -0.07202812 -0.14017296 0.0035701715 0.04796605 0.05630095 0.036379192 -0.032601397 0.03935509 -0.08325124 0.05653521 -0.061198387 -0.15440479 -0.11122154 0.048693314 0.027135558 -0.013015857 -0.042639356 -0.04181028 -0.09378111 -9.945813e-05 -0.09403171 0.05063709 -0.023787783 0.021027137 0.075775616 -0.11463092 -0.16344735 -0.07782333 -0.074509956 0.002663444 -0.0077263103 -0.08848455 -0.121115945 -0.09536208 -0.052995432 -0.15359643 -0.10268408 0.09576359 -0.16776553 0.037407435 -0.15053272 -0.00892338 -0.10288777 -0.11864676 -0.16467921 -0.1211027 -0.093040355 0.06354297 -0.16817348 -0.16259599
0.0126634 -0.1258843 -0.02027963 -0.075579904 -0.0103124315 -0.1736765 -0.13366987 -0.18542887 -0.14579047 -0.15010251 -0.13998756 -0.1708656 -0.13308573 0.06582235 -0.11280978 -0.064804 -0.07458474 -0.07397883 -0.16261454 -0.038612116 -0.02442389 -0.05028325 -0.18587434 -0.104300454 0.077506125 -0.09216116 -0.0693791 0.027773509 -0.048418213 -0.031718418 -0.0901627 -0.15096611 0.0014658091 0.010639106 -0.021515686 -0.0248893 -0.104068555 -0.008720406 -0.021434812 -0.11999465 0.01224486 0.0024752554 -0.110329725 -0.047533244 0.040076286 0.09103624 0.06813677 0.0425354 0.09475943 0.04750843 -0.0020185437 -0.02054962 0.050147947 0.076323725 -0.06716015 0.08139786 0.05510889 -0.08674224 0.06376691 -0.112281285 0.098344535 0.067930534 -0.060957585 0.08431542 -0.108927965 -0.047900476 -0.12455955 -0.03727897 -0.06566054 -0.11904994 -0.0042386516 0.09363065 -0.12734103 0.03303342 0.03896713 0.051014412 0.069557734 -0.080548756 -0.06873391 0.056400307 -0.007869242 0.022929 0.0008725726 -0.022847394 0.028107936 -0.011924779 0.026880186 -0.070287235 -0.033801418 0.04815478 0.04847561 -0.024237761 0.07447843 0.02282095 0.049780678 0.013649274 -0.005442932 0.067567706 0.0013589264 -0.034044705 -0.053126562 -0.055156615 -0.10006022 0.05938916 0.07226663 0.04719557 0.0523199 -0.037347544 -0.038867902 -0.012803938 0.03851502 0.06898166 0.08173646 -0.013272924 0.06341012 -0.12048856 0.04444702 -0.105696656 0.0308559 0.008503773 0.05850408 0.06632941 0.0050726607 0.078504905 0.08379405 0.053557333 0.09858936 0.039882682 -0.0059516686 0.01663885 0.11434356 -0.1427153 0.03278806 0.10648021 -0.049211144 -0.09209564 0.009209982 -0.04683584 0.08996735 0.021027466 0.03448859 -0.041211072 -0.0375236 -0.065254815 -0.009064466 0.016703354 0.04551279 -0.012699286 -0.06345553 -0.049168844 -0.12691261 -0.056277376 0.0015973641 -0.0075389845 -0.10216122 -0.13358572 -0.13907279 -0.14743869 -0.029807087 -0.08525246 -0.12701699 -0.19175172 -0.057045348 -0.2004122 -0.04419725 -0.19716775 -0.164394 -0.11057896
-0.03777831 0.032912865 -0.09374717 -0.072106965 0.07294942 -0.043130152 -0.00057434884 -0.05198142 -0.09521308 0.015700025 -0.03602813 -0.00777197 -0.016244946 -0.046983384 -0.07885057 -0.032563634 0.056348283 -0.030396068 0.07479627 0.033557348 -0.05143367 -0.09295703 0.03082811 -0.084065795 0.01638083 -0.04492991 -0.074815445 -0.069352694 -0.01100031 -0.13467872 0.045915727 -0.075570896 -0.052260883 -0.11421399 0.10572503 0.011480835 0.07197834 0.08792905 0.05020178 -0.012312301 -0.053249 -0.08237197 -0.10882865 -0.03752131 0.039561834 -0.081108876 0.02570282 -0.09782699 -0.07353125 -0.049762033 0.016979782 -0.1191352 0.057987668 -0.119049296 -0.14444701 0.04609673 0.03681876 -0.16024163 -0.007511071 -0.05085235 -0.11110213 -0.07321643 -0.12355936 -0.1017179 -0.08741015 -0.031602286 -0.1773814 -0.11836153 -0.124408945 -0.16608067 -0.07048874 0.02464192 -0.18883838 -0.12600958 -0.17737149 -0.13696994 0.012191877 -0.13136008 0.020073045 0.005943406 -0.14167424 -0.11279433 -0.14646994 -0.051038496 -0.15034544 -0.186893 -0.057793215 -0.041504595 -0.03790081 -0.005743188 -0.08216717 -0.11798559 -0.020972937 0.003827455 -0.12808228 -0.11091572 -0.113264345 -0.120840624 -0.045191865 -0.052985407 0.017990367 0.0044435905 0.036620032 -0.027562639 -0.058802743 0.029615365 -0.075507216 -0.07335901 -0.059509642 -0.044618234 0.005488758 -0.14075382 -0.0971566 0.06597305 -0.019674355 -0.042449407 -0.13810767 -0.03266894 0.048932783 -0.0144830495 -0.13680257 0.0122026745 0.032859292 -0.122659415 -0.1415733 0.03277054 -0.17547117 0.003350407 -0.116918445 -0.110221885 0.019164072 -0.06009587 0.046159513 -0.009975127 0.048388246 -0.13893802 -0.08430536 -0.08386455 0.004325751 -0.053806845 -0.15371066 -0.09731656 0.028283387 -0.11371345 0.046985213 -0.024241315 0.050215412 -0.03378089 0.08811219 -0.12368016 -0.15840012 0.034267917 -0.08514861 -0.15173498 0.03438156 -0.11393736 0.008859258 -0.081173666 -0.005437998 0.067991056 -0.084427565 -0.030711258 0.043582816 -0.0393639 -0.02503794 0.059654083 -0.094620176 -0.0054738433
-0.0018592818 0.17505954 0.124255136 0.07336581 -0.037956156 0.06873549 0.1965784 -0.07295364 0.11150692 0.091704555 0.15440683 0.15179859 0.06413526 0.12518749 0.16902313 0.0074239783 0.043371323 0.05802953 0.08994556 -0.043430675 0.057490446 0.0046500596 0.027543124 -0.15506151 0.017701808 -0.13328128 -0.24595588 -0.11553371 -0.07170562 0.004464452 -0.05368962 -0.062287237 -0.030300342 -0.08840897 0.108953096 -0.020031398 -0.09835817 -0.0534383 -0.07430818 -0.03512297 -0.066410765 0.017247165 0.018668715 -0.045844287 -0.041577365 0.017789422 0.025542952 0.029534074 0.02244839 -0.12896356 -0.017200513 -0.14207001 0.11903258 0.09243357 0.004240639 0.09053693 0.021273658 0.10790856 0.13017562 0.082508616 0.012926014 0.048569947 0.05865923 0.07500064 -0.06875035 -0.03042595 0.06341484 0.13390838 -0.017970879 0.099058434 0.0764285 0.062112194 0.13310862 0.025220867 0.11421996 0.059559803 0.070464425 0.041347865 -0.006835035 0.13042675 0.05703406 -0.014588381 0.07664797 0.12260738 -0.046923403 0.1268366 0.028508624 0.00400292 -0.055872954 0.004934708 -0.018966183 0.07201855 -0.110407375 0.04123624 0.10214213 -0.06777552 0.025288945 0.04259088 0.07494152 -0.0960201 0.086406775 0.08146125 0.08337827 -0.03928338 -0.13033418 -0.03659314 0.16462722 -0.080105335 0.02254192 0.0060729096 0.007514151 0.10035648 -0.02444856 0.05752829 -0.019334521 0.010768233 -0.027814334 0.056499097 0.036706954 0.14336197 -0.07135901 -0.012947359 -0.0024981801 0.03640083 0.043587185 0.032151397 0.07317806 0.026081989 0.055936314 0.0672464 0.095316395 0.07109686 0.10273258 0.1266832 0.033813067 0.11337559 0.03135689 0.117117934 0.14009294 0.09477149 0.055714656 0.02307737 0.008923372 -0.024515606 0.08968794 0.157198 -0.0058513633 -0.06711147 0.11134766 0.065524265 0.03780776 0.1108263 0.054643653 0.07690941 0.037267685 0.17433725 0.087996714 0.07473049 0.038232464 0.14402689 0.06588206 -0.024161126 0.03343073 0.044539083 -0.023596374 0.018890422 -0.041441083 0.13325292
0.28273618 0.06878456 0.03509601 0.010309286 0.07674561 -0.13236122 -0.022995042 -0.16823158 -0.14905016 -0.05484301 -0.1782678 -0.099881575 -0.12526388 0.047624845 -0.038828198 -0.005434636 0.06722236 0.12831819 0.21083143 0.14211887 0.25166813 0.15006728 0.13403356 0.029068748 -0.03944415 -0.13289547 -0.14246891 -0.23991024 -0.21519555 -0.18012877 -0.21800773 -0.15572968 -0.038105458 -0.09243765 -0.021139268 -0.08403935 -0.12073776 -0.036962584 0.031647727 0.031297643 0.057191204 0.024602134 -0.035574175 0.07445548 0.013686925 -0.052204467 0.16268045 0.102248 0.12529024 0.07490944 0.07816178 0.02719 0.18651323 0.08441158 0.15921873 0.24589244 0.09684043 0.18673767 0.18301107 0.071867704 0.06845163 0.18912989 0.13311483 0.15093186 0.14865074 0.057186708 0.118601836 0.15450011 0.036159497 0.1157672 0.13620257 0.13091819 0.15218703 0.16654634 0.21547996 0.11556385 0.11498573 0.19441693 0.0737158 0.1382623 0.07684009 0.084138475 0.053842414 -0.041131385 0.10740086 0.0656519 0.07523929 0.049643274 0.0048815385 0.009058202 0.028541118 0.011823378 -0.011004161 0.011771452 0.075187944 0.00014173405 0.09650723 0.04660084 -0.014853507 0.011266786 -0.03484406 0.09177442 -0.019500094 0.08113551 -0.0014579322 0.09693989 0.09433447 -0.027541066 -0.05751747 -0.003440201 -0.0044799694 -0.0018200203 0.103738494 -0.07799497 -0.07925017 -0.14682224 -0.017921159 -0.052384127 0.06575413 0.092229374 -0.100661136 0.056637667 0.05357865 -0.08425191 -0.06145011 0.038599618 0.021212643 0.015596001 -0.019900095 0.04351794 -0.007236831 -0.11529224 0.06267173 0.106039405 0.017603364 -0.037963208 0.080871336 0.001327077 0.12022605 0.04350149 0.099672854 -0.026346289 -0.017905138 -0.015022386 0.085439384 -0.00549578 0.019875905 0.023940999 0.06620292 0.060098164 0.12488271 0.21954304 0.08292799 0.1694049 0.03886914 0.055900965 0.11255891 0.22912475 0.3240337 0.18233183 0.17508835 0.06346725 0.2456209 0.32862976 0.24755268 0.30117473 0.22092922 0.29505292
-0.41031736 -0.16819197 -0.31711456 -0.16274635 -0.15622856 -0.006405654 -0.15553042 -0.06990485 0.047993843 0.0439186 0.04918544 -0.101425886 -0.08871053 0.010052327 -0.034754574 -0.1334986 -0.10299733 -0.18690924 -0.17970198 -0.15461643 -0.17631634 -0.09167571 -0.2273633 -0.11238703 -0.13007003 -0.04627928 -0.08033283 -0.07392692 -0.06445596 -0.055141088 -0.02160576 0.034382083 -0.05702737 -0.036327966 0.008662889 0.07448914 -0.05769105 -0.0026016445 0.0061751977 -0.1231292 0.06853755 -0.06365871 -0.03380375 -0.114062466 -0.018707762 -0.006261337 -0.02048256 -0.09566557 -0.022974076 -0.0672315 0.029795496 -0.10423147 0.016770694 -0.05241815 -0.036921054 -0.015146071 -0.1128961 -0.08499437 -0.042337164 -0.0017355902 -0.032735005 -0.05652407 0.035900686 -0.057199456 0.036951438 0.053536206 0.012647824 -0.02573348 0.018626977 0.03020938 0.04908196 0.014453206 0.014744026 -0.015225273 -0.020589737 0.16573407 0.020358568 0.023785233 -0.0066218167 -0.01596759 0.06382074 0.12431299 0.01108262 0.030945225 0.01826768 0.05395733 -0.022439223 0.12283529 0.04818134 -0.07125991 0.0723093 0.11744253 0.09052111 0.032329194 0.035365816 0.14834437 0.026379175 0.1606525 -0.035946533 0.1346939 0.014227265 0.018184125 0.1784614 0.07973847 0.113776185 -0.020404154 0.09073604 0.013567685 0.14462161 0.041885562 0.03012839 0.12721518 0.1360267 0.13219838 0.034382295 0.15202047 0.04120823 -0.014423129 0.09802236 0.0119914925 0.09615843 0.16970679 0.114391565 0.0041907686 0.084067054 -0.026659098 0.113085024 0.09335973 0.086855546 0.13059488 -0.01335362 0.113627896 -0.039194897 0.09677807 -0.03348513 0.008777645 -0.07193097 0.052520476 -0.065351285 0.1404584 -0.030640606 0.090608805 0.09115872 0.043894395 -0.040648676 0.03352935 0.037495956 0.1001291 0.1479261 0.1186275 0.06326317 0.057576112 0.024344467 0.09891679 0.07593165 0.12068388 0.18040697 0.18099494 0.15430215 0.064677246 0.13067037 0.11776769 0.06428073 0.080756806 0.1914895 0.10592547 0.23055848 0.08270664
-0.04754953 -0.021984186 -0.047927134 0.011925192 -0.060271423 -0.010052071 -0.07124625 -0.115116574 -0.12168502 0.07242018 -0.03902673 0.043422505 -0.08506986 0.064913064 -0.080592014 0.014920638 -0.010702267 -0.054399047 0.057951182 -0.021786362 -0.09114203 0.057870746 -0.008455324 -0.004375393 0.07570202 -0.050840367 0.0905373 -0.028864406 0.062620096 0.030104343 0.05735833 0.049744032 0.1516564 -0.014988209 -0.06885329 -0.099662766 -0.015390468 -0.07986059 0.077558145 0.070239596 0.00023060634 -0.095213 0.10369947 0.038983516 -0.060692105 -0.031045148 -0.013869922 -0.12209331 -0.0038908916 0.02974515 -0.012877807 -0.024733556 -0.002649507 -0.113785475 -0.077221766 -0.067620404 -0.03769957 -0.030993069 -0.077363424 -0.06648646 -0.040019076 -0.03951878 0.035097286 -0.11789193 -0.047551908 0.08448666 -0.08637616 -0.031650513 -0.0069593005 -0.00931676 -0.12260779 -0.13111259 0.040360607 0.030836428 0.013834635 -0.14036056 -0.1105666 0.052528065 -0.040912073 -0.042608194 -0.006955679 -0.048329882 -0.009017091 -0.13906978 -0.055930696 -0.11286379 0.044272505 0.01455722 -0.031954627 -0.08113559 -0.12259294 -0.062157154 0.048320167 -0.093661055 -0.13329226 0.024257358 -0.04099221 0.039957337 0.0024451176 0.045178186 0.019060438 0.01630831 -0.050365873 0.08704669 0.017525258 0.055599157 0.05576419 -0.06190239 0.030491363 -0.0506386 0.092272624 -0.01717933 0.02464658 -0.10110167 -0.087235525 -0.08165117 0.07295661 -0.09898075 0.09175626 -0.042331822 0.046181217 0.012042285 0.069025934 0.049155198 -0.014210313 -0.09706399 -0.003259342 -0.05402242 -0.09833828 -0.053073075 -0.027043756 -0.031689707 0.061043244 -0.10813904 -0.002444627 -0.07952854 -0.11971758 0.090214275 -0.03223 -0.14243619 -0.13477734 -0.058202285 -0.13663751 -0.04971861 0.034795277 -0.07036473 -0.11127519 -0.004511358 -0.1239934 -0.052398846 -0.15099452 -0.09265895 -0.07573919 -0.07606917 -0.13540184 -0.011985319 -0.07761333 0.0117299445 0.030484103 0.04724117 -0.065203875 -0.11288325 -0.078769244 0.06969065 -0.102039985 -0.09653729 -0.009883734 -0.11694165
-0.23596235 -0.06305493 -0.18496315 -0.124148056 -0.2194485 0.046181247 -0.08773732 0.09892749 0.022095969 0.063868046 0.1104759 0.07792382 0.087947816 -0.026573937 0.09296458 0.0072252117 0.17377909 0.059990223 0.17792538 0.04878377 -0.021868944 0.15709631 0.09384576 0.10417195 -0.015147526 0.10288933 0.16013686 0.06384465 0.15635179 0.15073174 0.14883012 0.21555202 0.116333865 0.157122 0.20893478 0.17844158 0.12606952 0.2754987 0.21483237 0.09596669 0.17019834 0.21480846 0.1634747 0.18244386 0.073967725 0.026298493 0.05178826 0.0524393 0.078770034 0.0112849185 0.07172006 0.10555073 -0.029716227 0.0001925117 0.06599953 0.0037006394 0.07428799 0.08989349 0.0061330977 0.0015780643 0.025990047 0.036488518 0.011407899 0.034714278 0.024426289 0.08524926 -0.07237512 0.0064641624 -0.065723345 0.05004088 0.0036986815 -0.005093782 -0.055805847 -0.12214403 0.040354766 0.016484175 0.06776425 0.07016073 0.09333433 0.09972615 0.04089317 0.034695163 -0.0126362685 -0.014834064 0.08664875 0.086149395 0.09750574 0.049739514 -0.07002194 -0.09563872 0.047415316 -0.09642486 -0.071799986 -0.0041203736 0.020927835 -0.052283023 0.0003954579 0.034850676 -0.09965122 -0.02278264 -0.033131093 -0.011611098 0.0019514696 -0.053560488 0.092527635 0.03182551 0.0006344635 -0.016674485 0.052916005 -0.00899482 -0.0018389391 0.038419265 -0.09870393 -0.08021902 -0.028587379 0.027029693 0.10670781 0.003318859 -0.0026211243 0.013425241 0.053923797 0.052579805 -0.022880612 0.03993788 0.13311133 0.08634917 -0.03448452 -0.027252436 0.083548 -0.021708077 -0.084194124 0.12833948 -0.036940698 0.08789074 -0.012298871 0.121525936 -0.0772577 0.10312523 0.022905705 0.09291379 0.11179723 -0.079761185 0.026007459 -0.053829078 0.0010992618 -0.10903424 0.013242846 0.096873775 0.07859839 0.049517184 -0.029725112 0.10311848 0.01207656 -0.045273304 0.03573387 0.03007622 0.06338401 0.046218336 -0.022804797 0.07141961 -0.048984703 -0.008342176 -0.042497322 0.01378908 -0.07046713 0.03208692 0.003443148 -0.11515401
-0.002575249 0.018591693 0.063484125 0.02299585 -0.046675798 0.106689945 0.048400857 0.20150602 0.15941891 0.17065522 0.12896454 0.18296006 0.12192321 0.19034322 0.07610123 0.17926732 0.27599162 0.053100932 0.26583543 0.07484266 0.1575164 0.038102582 0.06559706 0.050289873 -0.010161801 -0.051281203 -0.045351103 0.023845764 -0.06630616 -0.10489869 0.107834935 -0.13483207 -0.01636813 -0.022981495 -0.047715344 -0.11028297 0.034817986 0.0017650995 -0.065023966 -0.03634067 0.10466744 -0.105037086 0.14258552 0.11095533 0.03544867 0.04026681 -0.044494614 -0.029884152 0.007417669 0.0610019 -0.057303656 0.10085238 0.06953036 0.08117762 0.091622874 0.10687205 0.06117961 0.07348493 0.00054344226 0.119824566 0.13316377 0.096097596 0.08449328 0.09974267 0.009882743 0.045353595 0.037361477 0.09183074 0.1172322 0.07182426 0.0070795026 0.104778945 -0.0056322 0.011881288 0.1451067 -0.0442798 0.08233077 -0.0041076173 0.036103792 -0.079266325 -0.057094205 0.042547792 0.030990496 0.1323417 0.103925735 0.079280816 0.024598846 -0.037582397 -0.007814847 0.041768547 0.101119384 0.004842325 0.04619737 -0.0003641916 0.005210057 0.17403102 0.07199111 0.0780602 0.13214153 0.05878183 0.0857701 -0.08835556 0.14768986 -0.0192464 0.09886503 -0.024463285 0.11507075 -0.023285996 -0.06715303 0.071058296 0.015257258 0.0652152 -0.067697704 -0.029635988 0.10485184 0.1139501 0.06305868 0.101973444 0.16732882 0.028393107 0.12669995 0.12550515 0.16298732 0.08328532 0.15185727 -0.0559107 0.14835048 0.15457799 0.08478124 0.07999963 0.14855589 0.1602064 0.18595734 0.15244494 0.03760999 0.08226493 -0.06441287 0.038410414 0.05476103 -0.034098763 0.084111765 0.048999444 0.1823139 0.07122724 0.035842355 0.1460847 -0.09706032 0.07397214 0.17801811 0.097064994 0.022909855 -0.074595325 0.015655328 -0.027602447 0.008846063 0.038599767 0.021753034 0.055658817 -7.6146396e-05 -0.064357266 -0.027441856 -0.00883626 0.04590276 -0.021315817 -0.013049512 0.0045410944 0.11060241 0.002134058
0.07243073 -0.073225096 -0.049634114 0.06813342 0.04392228 0.026874986 -0.03261416 0.040257428 0.056305442 -0.02552301 -0.00037138825 0.073688954 -0.10326131 -0.018635338 -0.03228141 -0.11101172 -0.014992291 -0.14984143 -0.1874211 -0.18904231 -0.14374794 -0.041736893 -0.07381675 -0.05629548 0.039234348 0.084182605 -0.04874716 -0.079133675 0.09168779 0.09729449 -0.022251362 0.053089276 -0.12827879 -0.012855304 0.03384453 -0.11072899 -0.10966646 0.036620084 0.019230831 -0.04985937 -0.043784812 -0.09341861 -0.14366944 -0.08099629 0.011148753 -0.17847204 -0.112083234 -0.06725263 -0.11867648 -0.1456552 -0.16587394 0.026830593 0.0124296155 -0.09658438 0.09196799 0.050577648 -0.01956976 -0.10212741 -0.12950632 -0.11066304 -0.04215142 -0.083424695 -0.07017634 -0.015964938 -0.11559087 -0.040292308 -0.04157674 -0.012206757 0.016225236 0.0061420384 -0.08809018 0.02706765 -0.012652025 -0.029652439 -0.11157413 0.06305483 0.042619184 -0.08600507 0.056625284 -0.019303475 0.010069261 -0.07103401 -0.074868254 0.050404064 -0.017119743 0.065518655 -0.018328756 -0.00887308 -0.12914264 0.030292476 -0.114514984 -0.107489176 0.043161348 -0.0781276 -0.04324917 -0.1025407 -0.13929136 0.013149252 -0.03423246 0.013424106 -0.057366423 -0.014351229 0.07559194 -0.13089116 -0.011910546 -0.11868047 0.07678363 0.010359095 0.003114077 0.07817984 -0.117743894 -0.00012801129 0.03217877 -0.12810686 -0.07941638 -0.121229656 -0.015197057 0.014071728 -0.053205073 0.02361304 -0.1170825 0.034378793 -0.038692687 -0.10751147 -0.09711768 -0.13907808 0.09291088 -0.049096566 -0.037970547 -0.12571466 0.031464033 0.092155434 -0.046431758 -0.09819757 -0.059729535 0.07408581 -0.02919425 0.07843283 0.0450798 -0.05052721 -0.095037825 -0.081615455 0.06693916 -0.027889054 -0.12562679 -0.13515714 -0.118266776 -0.018959178 0.013891734 -0.089992434 -0.03861043 -0.04837907 -0.05389908 0.026400978 0.0037940117 -0.11564527 0.01043154 0.034362253 -0.07249466 0.015534302 -0.15777019 0.008242698 0.06999019 -0.004858208 -0.108557895 -0.016826663 -0.052347653 0.008342291
-0.03220649 -0.0066383597 0.05839631 -0.08731209 -0.04807744 -0.06829653 -0.11119186 -0.08049943 -0.023556022 -0.13075952 -0.13513488 -0.15943344 -0.109791964 -0.048513815 -0.039090674 -0.05009583 0.0041829925 0.08048837 -0.037309643 0.032094076 0.011962883 0.0065354523 0.003564142 -0.07926311 -0.07060483 -0.07452705 -0.094825074 -0.06485225 0.012309246 -0.04343497 0.005437569 -0.11548439 -0.12935466 0.007836361 -0.010266408 -0.09248245 0.027472652 0.04617482 -0.07235869 -0.078497775 0.031037709 0.027338298 -0.04592361 -0.06152475 -0.028668497 0.036572315 -0.023907403 0.03227489 0.019436685 0.026646586 0.11905669 -0.095318474 0.14974202 0.02426598 -0.042060986 -0.04412269 -0.07718356 0.0094191125 0.052304063 -0.046803 0.08443393 -0.0035900804 0.07630346 -0.010881862 0.040936876 0.054462392 -0.08059167 0.057383135 0.028188998 -0.051778145 -0.08845686 0.08532243 -0.06080799 -0.051835135 -0.060802855 0.06352076 -0.03325946 0.039637323 -0.062229693 0.02006491 0.029212376 0.022350706 -0.0038581663 0.11326911 0.021392807 0.009043471 -0.06062774 0.09431774 -0.046379413 -0.0014493322 -0.09248155 -0.05331771 0.0578803 -0.0015366545 0.0019684052 0.08638227 0.052712 0.02705094 0.033319883 -0.026503492 0.06316118 -0.010393179 0.057561647 -0.0062081898 -0.08180602 -0.04092238 -0.006229527 -0.028549772 0.053026132 -0.07809669 -0.108937085 -0.019908285 -0.08772456 -0.0026181017 0.02085538 -0.009512969 -0.047247134 -0.024115618 -0.045998435 0.044374086 -0.00053672004 -0.07604729 -0.056325078 -0.052245572 0.03008524 -0.08485888 -0.07818952 -0.058569945 -0.06709161 -0.046864152 -0.088128544 -0.028424729 0.022993412 -0.081500456 -0.14700346 -0.026069624 -0.03884777 -0.09630129 -0.10015387 -0.099572316 -0.07638661 -0.14893685 -0.06268414 -0.12528609 -0.12740885 -0.03352337 -0.07163984 -0.09705533 0.0050477358 -0.0034786519 -0.08201885 -0.14365418 -0.06517478 -0.13691244 -0.05603892 -0.05173032 0.015144666 -0.11509123 0.049030133 -0.059057306 -0.112233326 -0.1158895 -0.10450422 -0.11217829 0.046863444 -0.09220959 -0.013748608 -0.1102554
0.044913102 0.027688222 -0.056098215 0.1157976 -0.06563544 0.09252513 -0.01777782 0.1108052 -0.023279652 -0.06608377 -0.03935204 -0.04811918 0.08777896 -0.074969016 -0.14581573 -0.09078447 -0.04548021 -0.0715792 -0.185663 -0.106328696 -0.22657661 -0.1776363 -0.14849189 -0.050487842 -0.133689 -0.15811414 -0.111625284 -0.16491397 -0.19074233 -0.11459911 -0.074119665 0.006873978 -0.023616232 0.06368047 -0.09160475 0.024293905 0.057207603 -0.10766901 -0.04364757 -0.064950004 -0.068640016 -0.119903065 -0.116163775 -0.054438986 -0.17386572 -0.15282366 -0.1268218 -0.14384171 -0.076105274 -0.14473073 -0.16646281 -0.06738458 -0.077681266 0.00035836862 -0.1616008 -0.075830586 -0.021208225 0.034129806 -0.075317405 -0.033131506 0.033314202 0.05588978 -0.13813205 -0.1325369 -0.10293373 -0.030561266 -0.03384919 -0.048833374 0.042663023 -0.14840063 -0.16440295 -0.11255578 -0.07419358 -0.16427945 0.03181526 0.024559887 -0.11683038 0.009204686 -0.13464515 -0.12273347 -0.07285913 -0.09233347 -0.16980465 -0.13510703 -0.0775076 -0.04428075 0.018017951 -0.030372826 -0.045193132 -0.18482244 -0.101329885 0.03277617 0.022996318 -0.17065461 -0.071414076 -0.0196621 -0.08649599 -0.048090197 -0.16262811 -0.029293507 -0.014518767 -0.14197268 -0.15283142 -0.01876539 0.027594682 -0.0636501 0.002912529 0.03998209 -0.018187972 0.028322186 0.002531629 -0.06722766 0.044964746 -0.1128141 -0.03153232 0.05860571 0.026297735 -0.060257245 0.02219914 -0.15503307 0.05093085 -0.06396194 0.015530264 -0.03238436 -0.004700709 -0.022766348 0.08941985 -0.0040601487 -0.07976883 -0.09271477 -0.100241974 0.119208016 -0.050665207 0.09454959 -0.07395234 -0.014554102 0.01609421 -0.1545524 0.024587382 0.044108473 0.07253944 0.014457808 0.0195661 0.010784958 -0.032245282 -0.0455165 -0.061173856 0.077561125 0.009239495 -0.102212384 -0.092778265 0.062855236 0.105408296 0.02470845 0.08191148 0.08176563 -0.08869255 0.094898745 0.04648386 -0.061911397 0.010295469 0.067590766 -0.06008487 0.07251112 0.054934934 -0.08912659 0.12502499 0.035279162
-0.05312392 -0.16022389 -0.11008398 0.062717974 -0.013642374 0.050466105 -0.0043501332 0.078456394 0.082010955 0.1739262 0.107418306 0.13452868 0.088610485 0.08811275 0.026633266 0.17118847 0.20526962 0.13109039 0.11095776 0.14514248 0.07312089 0.17551081 0.09323604 0.08084506 0.057645835 0.007196841 -0.005463048 0.031287964 -0.08349173 0.023949139 0.13570607 -0.08030565 0.030591736 -0.060394082 -0.025988625 0.031142129 0.08903999 0.05385728 0.059810963 0.06339965 0.11804793 0.05811278 0.025367841 0.010842722 0.032387313 0.057822723 0.019630421 -0.007047101 0.02976848 0.14999072 0.030387023 0.006775564 -0.011844694 0.04828202 -0.059017353 0.09737168 0.14098886 0.047831073 0.09555482 0.097597994 0.02979934 0.11331005 0.1328999 0.05527934 0.015244465 0.12015942 0.109073006 0.07396329 0.017318489 0.14553356 0.060417403 -0.019689925 0.07969431 0.08860591 -0.0072441916 0.10603433 -0.0670152 -0.028742008 0.11272548 -0.042583264 0.0339147 -0.08684938 0.012040261 0.07435969 -0.013838176 0.0333961 0.092180975 -0.07542698 0.025019206 0.035849698 0.073576905 -0.08058012 0.10383519 -0.014856034 -0.024443066 0.05234198 -0.05652211 0.01800428 0.04553059 0.064336464 0.07055794 -0.069497176 -0.050498545 0.002971537 0.040831994 -0.104544215 -0.06838074 -0.009271487 -0.0833234 -0.0058416156 -0.058032185 -0.073048845 -0.055213332 -0.11411276 0.0012964815 -0.08243291 -0.025668548 -0.14793375 0.008353967 -0.071238525 -0.012629648 -0.005384205 0.03168519 -0.054604813 -0.1140728 0.10026983 0.04305639 -0.019267635 0.034430433 -0.028950693 0.045644555 -0.06689813 -0.00432157 0.037072666 0.033856265 -0.03877614 0.09088238 -0.08715205 0.053958274 0.033316858 -0.026144778 -0.019976301 0.07068583 0.045176793 -0.0018843999 0.10244715 -0.0094478 0.037471324 0.041217983 -0.054792266 0.03499274 -0.03566111 0.054335024 -0.014879798 0.037556134 -0.023703173 0.061586555 0.062861435 0.046517145 0.10299869 0.014563402 0.1443727 -0.042164646 -0.064921774 0.15024634 -0.09550681 0.048230626 0.01283239
0.1818721 0.17493972 0.23063245 0.1590212 0.09287837 0.22821301 0.05145081 0.1649878 0.16046722 0.077937335 0.026028097 -0.08132034 0.07865217 0.065542296 -0.07976345 0.026215348 -0.047156766 -0.057326596 0.027169064 -0.10810905 -0.13629508 -0.13537253 -0.19645967 -0.20793666 -0.112601094 -0.2563028 -0.1981143 -0.08216642 -0.16058859 -0.1043125 -0.043187134 -0.0010773384 0.01770275 0.0062197093 0.025154876 -0.07795899 0.041557018 -0.10480717 0.030479288 0.013454811 0.061620787 0.100564085 -0.05622063 0.024336666 -0.0013839033 -0.0018942744 -0.032698974 -0.021940479 0.10212088 0.013658258 -0.06318815 0.12127772 0.0861123 0.052511245 -0.010390886 0.07825765 -0.09821326 -0.0021295417 0.11937359 0.013431285 0.08408363 0.087497145 -0.057904355 0.023297315 -0.10419591 -0.091919735 -0.06824559 -0.06564387 3.1521336e-05 -0.05083778 -0.052684803 -0.10483363 0.079216816 0.010397219 -0.010376649 -0.08027739 0.0115277255 -0.14442062 -0.0810778 -0.0049074907 -0.02009167 0.05003665 0.0045586843 -0.07706082 -0.075034186 0.016544348 -0.013839279 -0.117087565 -0.07720575 -0.050404742 0.032892432 -0.09943199 0.010518639 -0.12013381 -0.01268698 0.003790008 -0.022133566 -0.13366777 0.021812031 -0.14137252 -0.052549522 -0.020417247 -0.067870386 -0.15948534 -0.037407886 -0.04302123 -0.0014148849 -0.020778593 -0.10765337 -0.07162095 0.03596114 -0.062981956 -0.09781504 -0.03364995 0.07619643 0.0034719538 0.063286744 -0.050125632 0.066868946 -0.015319231 0.071066655 -0.022194836 -0.09612505 -0.05978938 -0.019980185 0.055760592 -0.061194412 -0.08222411 -0.058047008 0.00815289 -0.011030575 0.044761494 -0.06334972 -0.07071738 -0.0014413863 0.14133406 0.014089214 0.014704029 -0.030100357 0.010475893 0.020715017 0.10529073 -0.024460655 0.022679498 0.09936931 0.058690056 0.006005599 -0.008781924 -0.11718387 0.07407393 -0.060854387 0.052734863 -0.014742246 0.045641746 -0.15470897 -0.038180415 -0.16252816 -0.14402978 -0.065014414 -0.018246505 -0.00883283 -0.035523772 -0.11364968 -0.2084521 -0.08850136 0.013433869 -0.1722068 -0.06420057
0.020036964 0.039506264 0.1351521 0.23408751 0.1757466 0.1587754 0.09637279 0.19332245 0.0944936 0.07476745 0.020781549 0.018113215 0.15610896 0.15431519 -0.0045035114 0.06273965 -0.092018105 -0.04084863 0.085156314 0.046032384 0.0825573 0.12247068 0.14393272 0.08298751 0.02716454 0.104917265 0.04586261 0.09579085 0.08587746 0.039806504 -0.10004758 0.025545841 0.017290048 0.07826988 0.08503666 0.04097652 0.07198487 0.032567147 -0.011479444 0.008378529 0.012820979 -0.071557425 0.11489341 0.030506799 0.12751485 -0.062132612 0.07786424 -0.053996958 0.14779581 0.030038951 0.08569306 0.05995229 0.109528534 -0.0013970583 0.14462572 0.0793945 -0.04503739 0.04648975 0.043768946 0.09988025 0.06893385 0.081312336 0.011409416 -0.005090704 0.06297122 0.09719923 -0.037427153 -0.016329914 -0.006825141 -0.08859424 0.042222127 0.018800816 0.032820497 -0.046591964 0.097333446 0.0025026575 -0.051227808 -0.022221865 0.08484405 -0.012011593 -0.0030349114 0.06219272 -0.011682186 0.040717952 0.07646473 0.031557653 0.06414389 0.048755545 -0.047223758 -0.10942647 -0.014735785 0.017174793 -0.09285675 0.010942954 0.040681597 -0.023901545 -0.034648202 -0.083834104 0.04080912 -0.0431977 0.014925258 -0.0763095 -0.05512583 -0.08032628 -0.012858232 -0.014132828 -0.07446676 -0.12594453 -0.13091119 -0.17355606 -0.008224551 0.0036168415 -0.07201811 -0.08089692 -0.034811024 -0.08688282 0.021655587 -0.061591662 0.05597612 0.056276523 0.0477538 -0.022937817 0.05210472 -0.023841519 -0.019602675 0.051717766 -0.007450458 0.020371042 0.01810644 0.061787408 0.07016628 -0.0047080196 -0.018448325 0.068528436 0.045928035 0.052124374 -0.052312277 0.048604865 0.040216804 0.035211667 0.08902457 0.15060027 0.14321591 0.019627739 0.118556686 0.16061157 -0.0029261697 0.024476463 0.027074486 0.08277192 0.17730308 0.061312865 0.048365094 0.06089805 0.17840591 0.13512294 0.18099812 0.14098541 0.14818291 0.12854876 0.1387815 0.23926917 0.123631366 0.24335884 0.05736225 0.23344807 0.15880767 0.23347814
-0.203823 -0.12503847 -0.20785278 -0.16284446 -0.24915412 -0.120019995 -0.13743192 -0.13512413 -0.12626207 0.047391098 -0.061559714 -0.10145843 0.025662119 -0.05657376 0.07570399 -0.07802594 0.0828451 0.00874663 0.024928337 0.068569794 -0.01036621 -0.02906031 0.016402375 -0.09065811 0.072560765 -0.05864437 0.012776358 -0.08740526 -0.050714392 -0.12812534 0.02861829 -0.11017754 -0.11590069 -0.17213355 -0.06682871 -0.16505727 -0.041237015 -0.0991809 -0.016292566 -0.08787116 -0.13629116 -0.058784943 -0.034851145 -0.029879155 -0.079698965 -0.066130675 0.005049872 0.028480206 -0.05456849 -0.0057594534 -0.021940349 -0.110234044 -0.10613282 -0.081168056 -0.12598215 -0.0199993 -0.033070877 0.026542518 -0.08557746 0.054178555 -0.08928409 -0.121122755 0.028589912 -0.05840238 -0.13435894 -0.07628914 0.05627442 -0.10216193 0.014501321 -0.065029316 -0.05759951 0.0271552 -0.09375996 -0.009301842 -0.074613355 0.05542365 -0.06858404 0.041825876 -0.039212093 0.007445528 0.019498346 -0.022114895 0.027846802 -0.0553602 0.0018931075 -0.060713697 -0.041011307 0.025247522 0.038752757 -0.02763267 0.0689251 0.06434467 -0.038548734 -0.042271137 -0.08288425 0.018055659 0.057844292 0.05251638 -0.04917998 -0.035272755 0.012586909 -0.06728843 -0.04053173 -0.09924004 0.057167266 -0.12571564 -0.11314974 -0.058102887 -0.15060246 0.007341495 -0.04637161 -0.09041914 0.010558423 -0.033528104 -0.060672432 -0.14151104 -0.023221912 0.019283095 -0.033362783 0.052058876 0.0046299184 -0.13460149 -0.06772479 -0.055374663 -0.09691987 -0.06997592 -0.04800196 -0.05588434 -0.005749106 -0.101371154 -0.028206082 -0.112588 0.0011033778 -0.100580536 -0.024474492 -0.15358084 -0.059225895 -0.07898122 -0.02416523 0.0099160075 0.03138426 -0.10402849 -0.019273095 -0.15503384 -0.006087888 -0.009671609 -0.003525166 0.0581808 -0.15944257 -0.12473255 -0.11557275 -0.019743605 -0.018025625 -0.01070725 -0.023884835 -0.06568866 -0.0017378452 -0.14339213 -0.089904495 -0.111644424 -0.07564508 -0.10392889 -0.13070318 -0.0030182125 -0.010601313 0.028329792 0.05025155 -0.059511054
0.23004776 0.18202338 0.14584439 0.10264074 0.12749742 0.06784144 -0.013382346 -0.019047067 0.05974094 0.05689698 0.08865577 -0.03131651 0.1373398 0.1326936 0.14555752 0.09602534 0.10345786 0.11697352 0.06177128 0.18839853 0.049107153 0.09971547 0.11883697 -0.018774278 0.087091796 -0.06972157 -0.09934757 0.07381577 -0.1070644 -0.075504564 -0.110287815 -0.06138728 -0.01620928 0.0067056194 -0.052953657 -0.011991415 0.08562629 -0.009852587 0.026041456 -0.0097140465 -0.01802292 0.0809952 -0.0060422854 0.13967407 0.017303204 0.027515886 0.05781748 0.072734036 0.012685572 -0.044490505 -0.0675911 0.12835799 0.13641007 0.13715367 0.059209697 0.06424743 0.06252212 -0.029313505 0.1289433 0.01663723 0.12030521 0.14678533 0.08350813 0.14108649 0.07784446 -0.00045950737 0.06107634 0.07038628 0.09832676 0.02873502 0.025755955 0.14775124 -0.056753524 -0.018338105 0.17410359 0.08527819 0.078682944 0.14659338 0.047528535 0.124041796 0.056681283 0.07642954 -0.004657326 0.085920945 0.03124765 0.12567912 0.03496522 0.07190402 -0.06413596 0.107518755 0.042563375 0.12927607 0.0015815381 0.08086472 -0.0054693883 0.15357617 -0.06803765 0.029517943 0.13356467 0.0053729373 0.06769996 0.10320704 0.0023800281 -0.029673334 0.0778058 -0.027982611 0.034321483 0.07208006 -0.050222285 0.06147313 0.038874466 0.060922384 0.009980614 0.024766378 0.10890253 -0.047867022 0.058296774 0.13333435 0.012235406 0.07307124 -0.06413473 0.0078120506 -0.0034959014 0.006180374 0.07867988 -0.04540194 -0.08225483 -0.0065005776 0.054036688 -0.096055865 0.11500146 0.062329873 -0.020288402 0.011328761 0.116374634 0.040934354 -0.06718502 0.010906883 0.07681299 0.12598965 -0.07932707 -0.07187197 0.05683057 0.029149558 -0.03942294 0.13693494 0.0065050526 0.08196194 0.102960005 -0.0051731924 -0.084189504 -0.059124887 0.06003352 -0.10134388 0.0045484696 -0.059245255 0.055638816 -0.0560629 -0.0123464 0.053673062 0.05966703 -0.06055075 0.11869873 0.06718146 0.028646355 0.06922737 0.07583483 -0.059271704
0.27246374 0.28501683 0.31312525 0.19861211 0.21636043 0.23006347 0.18204366 0.16408099 0.042873487 0.06641303 -0.0039401227 0.09065885 -0.06574855 0.008985531 -0.0055347313 0.01826242 0.02570904 0.12755589 0.16711496 -0.028775552 0.14742619 0.023998672 0.1506295 0.09351782 0.11096766 -0.0045270347 0.033867653 -0.011291831 -0.06976998 -0.14038292 -0.034861203 -0.03904078 -0.18599443 -0.070937626 -0.083547466 -0.14772756 -0.06439764 -0.07047328 -0.18156283 -0.06298624 -0.016727768 -0.064765126 -0.010730015 -0.13868617 -0.11484812 -0.052327074 0.00550888 -0.018413367 -0.03406502 -0.023033693 -0.035931192 -0.10003389 -0.05559528 -0.12047373 0.066987924 -0.060347438 0.056940585 -0.052591994 0.028469093 -0.09704255 -0.08667797 0.0884606 -0.047402155 -0.05098202 -0.025701202 -0.024503933 0.03323097 -0.064530864 -0.007932999 -0.04054459 0.002127609 0.075850144 0.0022189668 0.041444257 -0.03604475 -0.027453922 -0.0051959786 -0.0038489548 -0.01787646 -0.0872083 0.077225536 0.038116954 0.011597839 -0.030585917 0.11979305 0.019141423 0.06747216 -0.09494235 -0.03322674 -0.025729999 0.09508 -0.035817675 0.07324474 -0.008512251 0.070193954 0.041871347 0.08259112 0.004134589 -0.052778043 0.058318 -0.04746005 0.09456288 -0.06780562 -0.014169473 0.080366194 0.031350847 0.042960934 -0.031601336 -0.006735459 0.04720959 0.056608025 -0.042234775 0.018615127 0.034579773 -0.082785964 -0.023447538 -0.05883888 0.030789409 -0.018956989 -0.04218367 0.028694978 0.09214497 -0.015364091 -0.06539384 0.14271118 -0.018700482 0.08393482 -0.020075722 -0.032568283 0.040693756 0.0076561943 -0.036189854 0.044602722 0.012529598 0.009649088 -0.034907684 0.073923886 -0.015310921 0.049632393 -0.0454862 -0.059377026 0.10073311 -0.033986807 -0.045996998 0.040361155 -0.054559004 -0.05523035 -0.015806112 0.047139872 -0.06705628 0.086964905 -0.055020213 0.10335661 0.030892145 -0.047481094 0.029325375 0.023081886 -0.06522161 -0.0646961 0.01190404 -0.07448842 -0.07326595 -0.096425705 -0.040590037 -0.022662587 -0.057907667 -0.13602687 0.07276221
-0.0926854 0.057476908 -0.16339394 -0.08252108 -0.07014608 0.16400202 -0.036914855 0.15389004 0.12842055 -0.011817364 0.20178223 -0.03670688 0.1760375 0.101946786 0.07189955 0.003513341 0.097745776 -0.08389664 -0.0143208625 -0.096679404 -0.14318535 0.10456547 -0.069042 -0.15463175 -0.11953812 -0.15651606 -0.16458681 -0.09687602 -0.13682573 -0.05416606 0.059692916 0.042562257 -0.11766573 -0.0011527785 -0.02321343 0.0062439516 0.1568854 0.068118885 -0.029111816 0.13422479 -0.050198067 0.05170127 -0.07974187 -0.054581214 -0.07234859 -0.04207357 0.08678727 -0.06425963 0.049764328 -0.018840566 0.012505914 0.059548058 -0.090934075 -0.047422353 0.01988596 -0.053240128 0.09160868 0.15331769 -0.11659753 -0.08256936 -0.051817276 0.12771599 0.038346633 0.026184047 0.10798667 -0.09397958 -0.083109766 -0.005861524 0.029413452 -0.030736279 0.031152355 0.08442941 0.10698278 -0.049322244 -0.04914205 -0.070393726 0.076396115 0.0041462616 -0.10123631 -0.09831639 0.11622269 -0.09867442 -0.081617564 -0.027279459 -0.032022446 0.021700665 -0.09346764 0.053675536 -0.05072062 -0.10207997 -0.038302828 -0.10468429 -0.047884017 0.046533126 -0.013449476 -0.04157242 0.07359866 -0.09638438 -0.13109672 -0.050900247 -0.06284217 -0.113812074 -0.06687194 -0.015804913 -0.12540041 0.017550536 0.03135553 -0.024609752 -0.06855436 -0.11289427 -0.10767209 0.05263297 0.07276688 -0.02929696 -0.005000544 0.032574087 -0.14752294 -0.15633664 -0.11005002 -0.10399752 -0.13886368 0.052781817 -0.0023511823 -0.108541965 0.039730914 0.07743794 0.08513589 -0.056915816 0.060588624 0.05601385 -0.08902576 0.043629177 -0.08047253 -0.10710145 0.008907914 -0.043513563 -0.021697126 -0.07152842 -0.0019277075 0.03483925 -0.13346177 0.024304261 -0.02165099 0.0616056 -0.12093831 -0.15437157 -0.024999974 -0.07672263 0.09796519 0.07287161 -0.055102564 0.07996772 0.070591934 -0.122244276 -0.087894104 0.026174428 -0.061588902 0.036322694 -0.15658413 0.037683878 0.03711938 0.053706266 -0.012068298 0.033054348 0.096256614 -0.14685453 0.084883206 -0.061660577
0.1847599 0.17111856 0.005331038 -0.027031027 0.028264925 0.012500519 0.12219547 0.07700568 -0.054999363 0.09756364 0.16453704 0.058497835 0.17535447 0.123940095 -0.058325876 0.08579549 0.019170104 0.070045486 0.17958862 -0.04005484 -0.026137516 0.024594089 0.049054302 -0.06514562 0.08471979 -0.02515745 -0.010719508 0.08431607 0.084321 0.009473313 0.056377273 -0.03590937 -0.036342785 -0.08350674 0.128923 -0.029361492 -0.019101499 0.015803749 -0.032898948 0.0047528353 0.12962158 0.031248998 -0.043858793 0.119620815 0.01433115 0.082402326 -0.020394744 0.07897455 0.053667374 0.01721331 -0.019980637 0.14585397 0.11357013 0.09950415 0.0071217413 -0.046699755 0.08033921 0.06261115 0.10087045 0.14538155 -0.019108394 0.00016843465 0.09135326 -0.036043502 0.10111499 0.025658462 -0.01848006 0.026346901 -0.00984143 0.074064285 0.084579214 0.0063435887 -0.081146665 -0.0020651212 -0.032992855 0.0986352 -0.024403254 -0.002195588 0.10197987 -0.089710705 0.06754798 -0.0073553794 0.11996409 -0.031453244 0.12883185 -0.078367256 0.08353742 -0.034995314 0.117093734 -0.040508613 -0.09931409 0.12785031 0.027093071 0.080376595 0.007205387 0.13414975 0.14035447 -0.090569295 0.121588595 0.104704455 0.032503273 -0.058610864 0.12434025 0.118081495 0.032750208 0.084729545 0.025995623 0.042141963 0.07618871 -0.092015214 -0.037306696 0.010533485 -0.009269647 0.07966379 -0.08456173 -0.026611961 -0.06589545 0.011667242 0.14181235 -0.08575238 0.13352853 0.048158336 0.1333299 0.13002288 0.05439843 0.086219735 0.06342967 0.025287908 -0.060568802 -0.045667306 -0.04596423 -0.021955473 -0.013890945 0.08490252 -0.009506283 0.019016119 -0.11226574 -0.07333407 0.0081592025 0.04233247 -0.0015129263 0.051438585 -0.060440615 0.04351656 -0.1104517 0.056095283 0.0131974835 -0.07739461 0.11504916 0.0002505854 -0.035888705 -0.0043012598 -0.09239412 -0.036828276 -0.11918419 -0.06873385 0.11862058 -0.09551435 -0.032899547 0.104091555 0.0016357431 0.033705372 0.0724567 -0.045486692 -0.047889855 0.05814622 -0.021400258 -0.039099474
0.026051981 -0.02027747 -0.1404913 0.09901806 0.007863337 -0.08716649 -0.036293656 -0.076374345 -0.08198459 0.06279486 0.043096803 -0.075410664 0.062580846 0.12690392 -0.044837035 -0.04090425 -0.100142255 0.0014942698 -0.14116536 0.029392714 -0.038080085 -0.10822126 -0.07435838 0.021838397 -0.17668355 -0.12583351 -0.11610722 -0.04103015 -0.13737673 -0.08943075 -0.0524223 -0.014053692 -0.06254836 0.07531887 0.08303024 -0.0016246972 -0.0056390255 0.071159214 -0.034558102 0.078554206 -0.08640274 -0.11394255 0.08363708 0.021674082 -0.047247164 -0.117280506 -0.116070755 -0.06200143 -0.12824488 0.09656749 0.08832608 -0.104332075 -0.032802254 -0.1281273 -0.06313298 -0.053189706 0.0420309 -0.038712293 0.048819408 -0.0483199 -0.109343335 -0.02832041 -0.043911327 -0.0668845 0.07210861 -0.10445982 -0.14955966 -0.16815326 0.049112197 0.03317983 -0.11818354 -0.04745186 -0.14695467 -0.09019793 0.07128838 -0.03305146 0.012522562 0.0039036802 0.014618667 -0.11590172 0.04066372 -0.018070577 -0.1680896 -0.07227197 0.012221513 -0.09395318 0.073440775 -0.03826375 -0.10284266 -0.008828557 -0.09708565 -0.05045596 0.04981886 0.032925777 -0.10409413 -0.108536825 0.07202019 0.045611586 -0.1455041 -0.09149575 -0.030210592 -0.003370374 -0.06971036 -0.12908423 -0.09317817 -0.012147816 -0.0047536073 -0.028538939 -0.14674704 -0.008047017 -0.013003051 -0.102374546 -0.1019227 0.08260581 -0.0869807 -0.07288515 -0.06515148 0.03625869 0.061970357 0.012551846 -0.11818026 -0.06388335 0.09043577 -0.16605134 -0.0026546884 0.023041217 -0.15687631 -0.06916528 -0.11880978 -0.13367243 -0.10075844 -0.16459888 0.04500482 -0.06309693 -0.04064813 -0.0907517 0.03197765 -0.035106264 0.019726431 0.015187885 0.027968345 -0.13484584 -0.092744306 -0.13317148 -0.057292 -0.06684272 -0.09743434 -0.09288666 -0.1285777 -0.088387735 -0.09508389 -0.08532463 -0.045629412 -0.10107855 0.03835445 -0.089131854 -0.13364027 -0.020494252 -0.118676275 0.03138946 0.04262887 0.06831027 -0.044953126 0.023860993 -0.02599192 0.10704018 -0.073985 -0.03622845
