0.019137321 0.027760044 -0.102475576 -0.0880643 0.036151607 -0.01588806 0.02942535 0.050528776 -0.0022936163 -0.06986099 -0.09993871 0.051574297 -0.11226135 -0.08980706 -0.030393036 0.16128789 -0.06699716 -0.07203186 -0.07929482 -0.0049495487 0.031440537 0.120478384 -0.10877081 -0.04303047 0.02595431 0.07334903 -0.046468984 -0.05605092 -0.019656232 -0.011275596 -0.008679676 -0.062664025 0.10589405 0.084267646 -0.14749885 0.049961913 0.0042181606 0.027112687 -0.09580535 0.015161074 0.04706608 -0.12057387 0.100864395 0.004652391 -0.031490065 -0.010235217 -0.06447597 0.02903206 -0.010556965 0.08780872 0.10588387 0.03198108 -0.02730266 -0.03481111 0.054859255 0.06163169 0.10036938 -0.004116644 -0.020128276 0.12594102 -0.03904477 -0.017266689 -0.12532358 -0.08568943 0.035019375 0.10022556 -0.068346456 -0.088353045 -0.041730482 0.132781 0.011075689 -0.055255998 -0.07084161 -0.005172017 -0.0070686755 0.09183444 0.0482371 0.058695473 -0.09326905 -0.0755556 0.039170258 0.122030675 -0.039670404 0.121667475 0.057761822 -0.124523595 -0.038541842 0.07796144 -0.012774674 0.15564872 0.00047716446 0.025464194 -0.032775395 -0.14598624 -0.04813163 -0.012701486 -0.05368265 0.12031073 -0.045573853 0.006650502 -0.03737949 0.004410726 0.097183116 -0.03758992 -0.0381476 -0.0063843234 0.064862005 0.036663506 -0.069998845 0.104967274 0.014921269 -0.09995993 -0.054293048 0.079387695 -0.060582455 0.06936047 -0.008023913 -0.116826855 0.029177736 -0.099278 -0.03696812 -0.06204665 -0.08329292 0.064576976 0.13802058 -0.0105185555 -0.09415523 -0.03192843 0.0032202417 0.1042008 -0.07575331 0.041173734 -0.048793502 -0.0089066895 0.003849364 0.022261888 0.09421301 -0.11940109 -0.061286543 0.08499998 0.004045639 -0.11914263 -0.13087209 -0.01043985 0.074043065 -0.021772197 -0.051112887 -0.015647471 -0.050673917 -0.014021183 -0.086330935 0.07356759 -0.0710634 -0.12797397 -0.08550969 0.057894345 0.061301377 0.06623254 0.010466413 -0.05620101 0.0063250274 -0.076147966 0.013192617 -0.0686942 0.0026990818 0.11686577 0.036405135 0.064374365
9.773528e-06 0.019211426 -0.046182957 -0.00095794717 0.073116474 0.102351755 0.02035329 0.099685356 0.057061855 -0.08519004 -0.13732727 -0.037726957 0.078430936 -0.04482712 0.021820262 -0.0122839585 -0.07812579 -0.03535765 0.07529672 -0.037874833 -0.01597592 -0.11605332 -0.009354699 -0.00904208 0.108182095 0.047817465 0.21122883 -0.0956569 0.023011526 0.028608097 0.118661895 -0.089686476 0.06840164 0.012943227 -0.07971578 -0.0155372815 -0.13811341 0.05394454 0.0985435 -0.036745865 -0.014927207 -0.062187944 -0.1090186 -0.048088614 -0.112547584 0.08678 -0.074062474 0.04219201 0.0834126 -0.056553796 0.092172064 0.024418017 0.08706907 0.08489799 -0.024392467 -0.0815338 0.03131678 0.05783796 0.05863415 -0.07907269 0.12057868 0.07256828 -0.08506809 -0.10479939 -0.12463282 -0.0046346383 0.054329928 -0.12667836 0.05600205 -0.067649685 -0.09687321 0.10061685 -0.09873595 -0.12677547 -0.04628655 -0.08102224 -0.105282 0.05208249 -0.067639925 -0.01876768 0.006695384 -0.05647981 -0.020323245 -0.07299359 -0.0032679106 -0.10290297 -0.046473794 0.06620144 -0.024937226 0.08789907 0.0730177 0.14857514 0.1505315 -0.122335926 0.005417796 0.025648523 -0.0149199935 0.04200092 0.048226476 -0.0061648977 0.06686169 0.06466337 -0.1347378 -0.017531758 0.16727017 0.05567959 -0.0762868 0.103089534 -0.09704113 -0.044431623 0.044652 0.06885792 -0.043876637 0.123886466 -0.077493645 -0.092541285 0.11027341 -0.13524067 -0.0855365 -0.009245048 0.050947465 0.05928241 -0.060030147 0.13569185 0.087016426 0.066795714 -0.023796247 -0.037281968 0.087888435 0.1251031 -0.08762744 0.05707457 0.09533128 0.026767254 -0.04385564 0.063230164 -0.02881703 0.099071264 -0.03200577 -0.06832138 -0.058318138 -0.15023617 -0.02465053 0.09454578 0.1602376 -0.0019472812 0.010182457 0.108669065 -0.008677801 -0.13902457 -0.0816174 0.13118657 0.048742324 0.17193632 -0.023855656 -0.08504464 0.10930532 -0.15092453 -0.065924235 0.053402416 -0.049344946 -0.21522343 -0.003276284 0.100100115 -0.12569903 0.037062883 0.05162399 -0.17076291
0.06364199 -0.02340485 0.084587336 -0.15138637 -0.060234163 0.12793683 -0.068396874 0.0819696 -0.10414877 0.044912152 0.053501908 -0.09872529 0.047631066 -0.1404476 0.018325998 -0.0069812858 0.009884613 0.06471835 0.098371886 0.02194853 -0.017995654 0.10405491 -0.13698901 0.014146094 0.011881771 -0.057710666 0.06904898 0.07866926 -0.022683097 -0.12451948 0.018654319 -0.00359955 -0.062021907 0.02243812 0.030861108 -0.022678023 -0.07225386 0.05363929 0.027281448 -0.034953736 -0.045273617 0.035962235 0.028927024 -0.0742684 0.02258314 0.108469985 0.020865928 0.03918307 0.0191836 -0.09822385 -0.10496385 0.08542634 -0.0789356 0.11190401 0.0579103 -0.056578927 -0.007099536 0.085209414 -0.04594874 0.08125244 -0.07598687 -0.066499434 0.08979896 -0.027043225 -0.08215462 -0.03413379 0.08337773 -0.08334926 -0.03177987 -0.013280075 0.0003299262 0.010673546 -0.07094004 -0.08943519 0.09660472 -0.029550545 -0.07098259 0.07906939 -0.060114652 0.031104427 0.09716929 -0.016674096 0.10582983 0.11076182 0.08925431 0.07175134 0.08873112 -0.03298209 -0.012563802 0.011983383 0.11790574 0.04855102 0.05306802 -0.086845025 -0.04728314 -0.018561019 0.114887685 0.12464309 -0.016297529 -0.019494358 0.05222302 0.07596208 -0.07580222 -0.09111275 0.03685574 -0.04036465 -0.10956797 0.029812071 -0.08465449 0.021223787 0.041659128 -0.11403028 -0.052352283 -0.005352553 0.001568936 0.09071874 -0.009157251 0.050195783 0.07104139 -0.020482799 0.010623745 -0.08431099 -0.08782756 0.1352216 0.05616658 -0.010837587 -0.09890998 0.14686441 0.025255347 -0.13430645 0.060818702 -0.105710074 -0.12190261 0.0030511995 -0.0066014235 0.19641571 -0.054965675 0.0043125153 -0.06352601 0.09719059 0.0064562303 -0.030553885 0.10267271 -0.06818695 0.05780902 0.08001574 -0.063369915 -0.0045873844 -0.026778257 -0.14010341 -0.11377125 -0.10213669 -0.10667377 0.061014127 -0.009470964 0.007262113 0.06422841 -0.18429376 0.017181065 0.05161015 -0.042716026 -0.25655553 0.046529107 0.0033221534 0.10437808 -0.056763746 -0.13631503 -0.06291579
0.045321044 -0.013673741 0.035503387 -0.090421416 0.054173935 0.016278856 0.14625123 -0.03652996 0.034414586 0.0013499523 0.106107585 -0.066536635 0.1179202 0.026607431 0.08248828 0.06846571 0.034835115 0.046188913 -0.034156535 -0.09989413 0.12092075 0.016429864 -0.045885473 -0.053159248 -0.090082645 0.044919863 0.07627053 -0.006566992 -0.11622085 -0.21957575 0.13263164 -0.09178248 -0.025817141 0.014772038 -0.13187465 -0.045887906 0.04388419 0.0003610948 0.011411264 0.10560418 -0.037048724 -0.08105942 -0.0034893877 0.013533735 -0.017438356 -0.047584414 -0.06349348 -0.16851522 -0.082298264 0.04892413 -0.11911977 -0.04458022 -0.03372559 -0.09602831 -0.023752062 -0.06483465 -0.073935464 -0.09079531 0.14669944 -0.1273024 -0.00242451 0.10317042 0.09302633 0.110075496 -0.07884102 -0.14979824 0.20668194 0.123139456 -0.025820564 -0.110712886 0.10911525 0.0034783701 -0.035677016 -0.08112867 -0.10482134 0.12768461 0.044073753 -0.017137272 0.032988444 0.1481454 0.054252885 0.1170248 -0.11355355 -0.074961 -0.07356921 0.04721674 0.040266287 -0.04936744 0.117494434 0.0643219 -0.113843046 0.054563507 0.008169147 0.13572745 0.024727033 0.2009059 0.009366703 0.030708637 -0.1541943 0.010701868 -0.07255063 0.07603543 8.219368e-05 0.023446277 -0.09277993 -0.11773538 0.013646811 -0.09447529 0.10424008 -0.14860013 -0.08869618 0.056039758 0.10329502 -0.084564015 0.07419452 0.08265455 -0.046434045 -0.4051653 -0.09446172 -0.002863374 -0.025734084 0.056704774 -0.107829995 -0.097450614 0.0342806 -0.07625421 0.04472854 0.12265372 -0.0046945997 0.012320249 0.064870074 -0.12223115 -0.033494037 -0.1280301 0.06322775 0.08785588 -0.09818752 -0.030058088 0.078249544 0.034207586 -0.056507684 -0.0051970114 -0.020654248 -0.05899807 -0.017257564 -0.13866791 -0.093985185 -0.09890908 -0.03626945 -0.019205702 0.04787722 0.16331744 -0.023990065 0.014324988 0.0697467 0.06800852 -0.07003798 -0.05101145 -0.10420483 -0.10334016 -0.016938087 -0.0027599433 0.035692487 0.028297517 -0.030466266 -0.13693047 -0.04877693 -0.07263039
-0.10168308 -0.06546824 0.09185985 0.072777644 0.14073469 0.07148337 -0.11273186 -0.0010907522 -0.17078282 0.07284129 0.030911053 -0.07837299 0.02864172 0.061812304 -0.06454674 -0.07219568 -0.1340868 0.06106642 0.11475758 0.036455225 -0.012182174 0.063443996 -0.12507647 0.09197355 -0.051106386 -0.008956493 -0.021344585 0.09163152 0.10194911 -0.084613934 0.024956888 0.08456532 0.1078971 -0.1539649 0.061384197 -0.099534795 0.14378312 0.116400115 -0.035572104 -0.10050241 0.0940136 -0.0021670768 -0.04466943 -0.117505915 0.072138 -0.0192059 -0.078585476 -0.020631352 0.11211913 -0.1099516 0.09215138 -0.13808191 0.023278419 0.052708317 0.103500016 -0.14934114 0.11867092 0.014887158 -0.0021970912 -0.0068772854 -0.006842283 0.09474375 0.10531005 -0.14776848 -0.101259455 -0.119681 0.037360147 -0.06897096 0.03137419 0.0032987646 0.047832515 0.024249366 -0.12856968 0.10236833 -0.06934414 -0.15942316 0.058409937 0.09762345 -0.09185003 -0.085403405 -0.120857686 -0.09882322 -0.040582493 0.051353637 0.030705262 -0.019378336 0.104443565 0.018602328 -0.106362715 0.030497944 0.04366611 0.059280645 0.07691561 0.101130486 0.0292091 -0.17029782 -0.11736632 0.048114777 -0.0006968545 -0.034030452 -0.14266124 0.087994225 -0.055164944 -0.022852462 0.09593066 0.007792161 0.09966497 -0.07210771 0.08745441 -0.11086671 0.122529425 -0.050591223 -0.08975438 0.011566087 -0.0617277 0.060359515 -0.035705134 -0.042642165 -0.11076344 -0.096109666 -0.09161912 -0.10212077 -0.12987594 -0.005320653 0.13732003 0.09441348 0.1088507 0.015971527 -0.06795295 -0.10469181 -0.048167296 0.07004252 0.040905513 0.014348007 -0.097460784 -0.08899857 -0.001084724 0.007906984 0.103636295 -0.09974285 -0.08488356 -0.09356645 -0.06948438 -0.105023146 -0.028355451 0.08939035 -0.040518597 0.15793486 0.07801785 0.11633882 0.006689871 0.0952901 0.046150547 0.06981775 0.13629404 -0.05906463 -0.06144212 0.08516369 0.0026321954 0.016345087 0.0111041125 -0.026689863 -0.05205 0.07787009 -0.12150117 0.0645036 0.035588767 0.08969816
0.03607564 0.022995472 0.08502217 0.01958623 -0.057443757 -0.041475296 -0.07139282 0.13392523 0.08010605 0.057492804 0.08983742 0.018675499 -0.08814787 -0.023607647 -0.026992436 0.093740545 0.101254694 0.0029629415 -0.078975596 -0.07105591 0.11711797 0.05619575 0.097106494 -0.11421593 0.06897028 0.056919746 -0.0069916346 0.068259425 -0.052783847 0.06372725 -0.08029494 0.049541306 0.055881053 0.070905946 0.013301454 -0.023219941 -0.016389195 0.044736363 0.012253508 -0.11639055 0.019923931 0.0002992182 -0.12526059 0.12146726 -0.02716047 -0.10122283 -0.11611565 0.013950441 0.12068955 0.11367543 -0.062544666 -0.11081441 -0.06052925 -0.0431315 -0.0064113275 0.103053056 0.09368832 -0.15033467 -0.10611205 -0.042198155 0.011279075 0.024282327 -0.05510541 -0.11803972 0.05046776 0.080303185 -0.00849155 0.032772873 -0.08437535 0.07970801 -0.035825823 -0.058181632 -0.030101338 0.020418081 -0.0008008352 0.0069297934 0.07406443 0.027453171 0.033969123 0.034428347 -0.020042935 -0.1259099 -0.06558144 -0.0927258 -0.008327734 0.1009582 -0.09429418 0.01483972 0.11141963 0.033248838 0.020725694 0.016167767 -0.0531255 -0.10935834 0.0141165955 -0.0466152 0.042472754 -0.03131916 -0.08823301 -0.0256873 0.18578249 -0.054436307 -0.09349801 -0.120486416 0.026351085 0.022516048 -0.059270553 -0.03548452 -0.074804254 -0.047368255 0.06874684 0.06123682 0.12043034 0.08231436 -0.01659291 -0.103427045 0.10237892 -0.08494822 0.10865724 0.037194233 -0.0189605 -0.011057797 0.09767916 -0.033604704 -0.010577136 0.07899345 0.06217127 -0.08991008 0.14157307 0.03389652 0.023301678 0.09549208 0.042888295 -0.1249159 -0.13209356 -0.012632579 -0.017852683 0.030016286 -0.08420511 0.015780414 -0.082890615 -0.06827018 -0.05073069 -0.08341139 0.083635114 -0.095663704 -0.10776073 -0.13072003 -0.06497623 -0.053486567 0.007930372 0.07013194 -0.101609245 -0.090286694 0.05924474 0.07114581 -0.09460153 -0.013510927 -0.06265282 -0.09583797 -0.043630287 -0.17485625 0.039970223 0.016229272 0.011079976 -0.07983705 0.10748714 -0.052189678
0.062192317 -0.08577785 -0.068312615 0.0596107 -0.09696641 0.113889016 -0.024951478 -0.064924195 0.010910522 -0.064358875 -0.039354056 -0.047699057 0.13144957 -0.08053772 -0.057121553 0.07346128 0.08626975 0.017254572 0.09640298 -0.058014054 0.008931737 0.051716894 0.051795032 0.0012443712 0.08576013 0.102658026 -0.08817153 -0.090536416 -0.05965234 0.05576809 0.0027263109 0.10140144 0.10777637 0.050079677 -0.0017526571 -0.0932249 -0.005490874 0.076760516 -0.043973133 -0.09361377 -0.026369505 -0.09116486 -0.028333459 0.06779434 0.009187545 -0.13720769 0.03691258 0.10883055 0.011881317 0.040253267 -0.09290449 -0.029614681 -0.11962317 0.14107323 0.054028243 -0.05528944 0.07983618 0.032694634 0.06670319 0.013553103 -0.07391359 0.0883945 -0.12688242 0.03703468 -0.080478355 -0.048265804 -0.082051426 -0.015920198 -0.07301606 -0.011117319 -0.005620251 0.09938042 -0.04403151 -0.1335055 -0.065586574 0.08032238 0.091197975 -0.040046375 -0.016277337 -0.14115734 0.024416754 -0.0073843426 0.05027385 0.0069513787 -0.030121926 -0.020924155 -0.0055205724 0.005680132 0.09983477 0.013464762 -0.014928776 -0.08334487 0.019719707 -0.08618129 0.032956947 0.075707495 -0.08108353 0.10185392 -0.07125474 -0.088808134 -0.03902561 -0.055251032 -0.01985309 0.08050275 0.06760918 0.03652847 -0.04360935 -0.028607797 -0.0005047205 0.09027569 -0.031161742 0.011233189 -0.009368383 -0.060167063 0.07076159 -0.08652812 0.08386371 0.109488845 0.1421636 0.064971834 0.04671133 -0.033985272 -0.11355335 -0.112070285 0.025344238 0.090528116 0.10256742 -0.007629314 -0.018237976 0.06462576 -0.051788364 0.10454344 -0.14453664 0.016877586 0.14540926 -0.13388993 -0.1142457 -0.02839758 0.09323677 0.06754945 0.056188613 0.019530743 0.017667286 0.09080495 0.031684656 0.080004856 -0.09566026 0.080491506 -0.13050532 0.028149161 0.0013108002 -0.13948423 0.07287576 -0.104124345 -0.10758992 0.1289711 -0.09372454 0.06907039 -0.0131106 -0.06578994 0.11107312 0.033597242 -0.08250185 0.028547565 0.1133459 0.09061967 0.03490865 0.115637265
-0.15249972 -0.09360082 0.092299715 0.13463879 0.071977295 -0.08431075 -0.021617943 0.0017776451 -0.070541255 0.016198158 -0.10256788 0.100224815 0.14027384 0.07729659 -0.07017868 0.014057114 -0.07782556 -0.12821266 0.02795796 0.10342521 -0.091040306 -0.08172808 -0.032821152 -0.06323707 -0.10336994 0.045277108 -0.12022111 0.016985001 -0.036739446 0.033127796 -0.11865747 0.098795325 0.09013064 -0.114163436 -0.11229028 -0.03865771 -0.08815299 -0.11993218 0.11974468 -0.03666542 -0.005041062 -0.14853075 -0.04645056 -0.11723197 -0.0058377087 -0.03998608 -0.0068231043 -0.09423692 0.08730572 0.084972955 -0.040006142 0.08523275 -0.07171047 -0.001612887 0.10708293 0.12875022 0.032382436 0.05467684 -0.0109496685 0.096856914 -0.12614982 0.09923414 0.0096134255 -0.0031969284 -0.07947713 0.11205065 -0.024147956 0.025127696 0.041327223 -0.10892222 0.1417849 0.11737583 0.06142835 0.024540288 -0.051080856 -0.04498521 -0.04349427 -0.08572758 -0.06377811 -0.077556916 -0.026284084 0.027296914 -0.02591313 -0.00472712 0.012260777 0.09881728 -0.038078412 0.099100485 -0.014026115 0.08104903 -0.03420502 -0.016696682 0.064779066 0.0070153307 0.064979866 0.0898255 -0.069753185 -0.033920743 0.087410934 0.09157332 -0.026020054 -0.019968579 0.008954088 0.033687547 -0.12456991 0.06248173 0.081548326 -0.07347922 -0.046451733 0.044153783 -0.05494065 -0.11919067 0.02154707 0.08250013 0.05610719 0.08068175 -0.09016916 0.121637255 -0.011287123 -0.016631681 0.08756942 -0.01943522 -0.10540492 -0.0060423017 -0.13862538 -0.10509979 -0.1302169 -0.09889062 -0.12778972 -0.075274214 -0.025046887 -0.1210866 0.11355033 -0.059303008 0.022830915 0.0142097315 0.027345857 -0.01815867 -0.081860304 -0.086446404 0.07548503 0.0014882046 -0.11079645 -0.016942086 0.06379605 -0.08120748 0.08807276 -0.026926804 -0.07163718 0.034766123 -0.0059157657 0.0037816637 0.097130165 0.0640193 -0.08038034 0.15212406 -0.060593043 -0.03362145 -0.13906135 0.088228025 0.06954881 0.09594581 -0.03264265 -0.020575022 0.0120401345 -0.056371 -0.012465808 0.104531266
-0.09762925 0.037481926 0.030945113 -0.012133142 -0.05896807 0.08662924 0.10839757 -0.06930601 -0.11741779 -0.10172676 -0.092108004 0.04872521 0.040638417 -0.09945094 0.09828465 0.034576472 0.054003738 0.06085069 0.11766516 0.017629374 0.0132886255 0.07238595 0.0059973984 -0.004431552 0.047908194 -0.014843459 -0.096067235 0.025319064 -0.05659885 -0.07326808 0.0024977454 -0.11294675 0.080001146 -0.10349796 0.09967051 0.04025917 0.0693382 0.015281881 0.049689826 0.03745962 0.095850885 0.10197909 -0.14485438 -0.07957048 -0.08410923 -0.09075597 0.12925722 0.097116515 0.059774224 -0.078538865 0.074265674 -0.008416772 -0.08853704 -0.082426846 0.11183139 0.08867265 -0.06335326 -0.11780586 -0.04218628 -0.051892076 0.085504316 -0.079611465 -0.027341878 -0.101142965 -0.053761493 0.11780472 -0.072363414 -0.10067717 -0.11561647 -0.09620815 -0.058874622 0.07362853 0.050519455 0.12710375 0.09551233 0.076043084 0.00351879 0.07249651 -0.011311856 -0.12260175 -0.12455438 0.02008732 0.112422094 0.025071638 -0.022484327 -0.13980249 -0.10236892 -0.021994177 0.07014421 -0.105177544 0.09650379 -0.07086157 -0.12864216 0.08456082 -0.044364613 -0.04545409 -0.019852728 0.046023615 0.05175237 0.027745562 -0.13417394 -0.06688868 0.09857092 -0.11266691 0.0016434166 -0.10835401 0.067550264 -0.08575696 0.0025324363 -0.03961875 0.09754403 0.014611519 0.05998521 0.09857839 0.097480886 0.026510239 -0.061718006 0.07883755 -0.045415983 0.059796706 -0.050762158 -0.07520097 0.12437446 0.021829056 0.008221914 0.0696622 0.059916038 -0.045665935 0.028415749 -0.0720426 -0.067122616 -0.041889973 0.07944853 0.00359686 -0.072180085 0.04146879 0.029454766 0.042941477 0.030078841 -0.007127602 -0.03879741 -0.0016313933 -0.028168557 -0.091423854 -0.07600325 0.02373812 0.033550452 -0.023706308 -0.10019832 0.123430364 -0.0047104727 0.086835414 -0.095111884 -0.04561081 0.018809652 0.08024354 -0.071855776 0.08236198 0.077385806 -0.032760262 0.018634323 -0.08379218 -0.030061753 0.0652845 -0.02035275 0.11872889 0.036865782 -0.094470024
-0.11964882 -0.1290305 0.027771713 -0.15075578 0.06620203 0.1038463 -0.04913715 -0.11808743 0.042632975 0.099804305 -0.13362549 0.039339695 -0.046597164 -0.047968615 -0.021278813 9.7491175e-05 0.06533178 0.14261751 0.15353431 0.042998552 -0.03354408 0.08823158 -0.048843574 -0.0076613473 0.061670944 0.023066426 -0.069854595 0.036529865 0.006784683 -0.01215073 0.055385105 -0.09172851 0.18547907 0.020825325 -0.028876632 -0.050468393 0.047939017 -0.03832514 0.09000216 -0.17814128 0.0010352276 0.16231121 0.07995228 0.07737139 0.043945447 0.07281043 -0.14276458 0.019698573 -0.15632494 -0.101784214 -0.06106316 0.0032167868 0.08173334 0.01584341 0.032913785 0.095256366 0.14694305 0.096826024 -0.022694986 0.021049323 -0.10613326 -0.003462736 -0.1514271 -0.057409164 -0.070918605 0.054948263 0.052159023 0.03821585 -0.019953612 0.08031654 0.121856086 0.0056053814 0.06825825 -0.008014484 -0.0936677 -0.044625282 0.015093258 -0.0719105 -0.025372734 0.06700271 -0.0411653 0.098676145 0.13873781 -0.0158932 0.08068483 -0.0019675288 -0.05423348 -0.04831667 0.0844607 0.1641599 -0.071618415 -0.053189896 -0.13465679 0.071927495 -0.09058687 -0.013190601 -0.141237 -0.10898597 0.15167467 -0.12223153 -0.090455085 -0.07566072 -0.06171404 0.013170176 -0.015735695 -0.12600835 0.03095043 0.013896372 -0.17134857 -0.055846993 -0.06285711 0.043621726 0.011945926 -0.11627819 -0.0029370529 -0.10690072 -0.0076820273 -0.107542336 -0.00023205814 0.012136293 -0.16207734 0.015710521 -0.052496273 -0.042200174 0.012381379 0.05148096 -0.033158537 0.0037054794 0.08838871 -0.15364882 0.14224611 -0.047094133 -0.015294963 -0.008370731 0.11105545 -0.108313486 -0.07895284 0.017877875 -0.12228813 -0.06666477 0.019963102 -0.14241317 0.051581837 0.12014912 0.101887286 -0.27031675 -0.004990787 0.021550983 -0.111212924 -0.05560573 0.06463967 0.037367415 -0.02081578 0.10804522 0.027815063 -0.1304336 -0.122885026 0.06660023 -0.20730275 0.0033421651 -0.02600472 0.17533088 0.054059148 0.0429453 0.03990527 -0.0021349709 -0.02081323 -0.13255969
0.12851314 -0.0069965175 -0.08809838 0.014774234 -0.11272176 0.036390625 0.04913705 -0.083602265 -0.076282546 0.1099731 0.068599105 0.10141986 0.0055489824 0.08217707 -0.09064517 0.12593944 0.10790408 0.11878407 -0.077071294 -0.1154389 -0.049853593 -0.034588553 0.10169484 0.06313402 -0.02768652 -0.10948591 -0.039777894 -0.1295742 -0.0009804837 0.13107315 -0.03908706 -0.06902136 0.11447807 -0.0840791 -0.10290128 0.014690553 0.12533036 -0.06466493 -0.06462474 0.03045042 -0.11067429 -0.07256295 0.02629679 0.055491056 -0.06304677 -0.06321459 -0.0905204 -0.1174883 -0.0715258 -0.07699501 -0.08750607 0.15383816 -0.08547975 -0.045475982 -0.08680215 0.07116713 -0.12889835 0.005868062 -0.096110046 0.07704963 -0.080744915 -0.04159936 -0.05421115 -0.08539746 -0.031531684 -0.037875537 -0.07782631 -0.0056040725 0.09497119 0.09147119 -0.087366335 -0.10827425 -0.08148038 -0.053674355 0.101025514 0.014912888 -0.1612185 -0.118744455 0.12734087 0.120111726 0.10144726 0.02044818 0.14092478 -0.07532264 0.097087406 -0.10219094 0.02193529 0.074350715 0.07978866 -0.058864757 0.07596074 -0.084706314 -0.05255085 0.05405476 -0.0453815 0.07917645 -0.08837438 0.057341993 0.020046938 -0.12921025 -0.024044758 0.06483137 0.018501217 -0.13858864 0.09453545 -0.03065781 0.07429593 -0.009750145 0.023138024 0.0871174 0.0002742978 -0.0026696913 -0.12086506 0.04350716 -0.0190728 0.08044333 0.116251275 -0.0034969202 -0.040779416 0.10790306 -0.015288394 -0.15273726 0.056739017 -0.08860749 0.06783334 0.006030905 -0.080820255 0.057368595 0.0030991149 -0.014560958 -0.092284635 0.079311825 0.039323103 -0.103488505 0.0675417 -0.02878009 -0.12631804 0.043026194 -0.13869835 -0.07330952 0.043636452 -0.06319546 0.09590555 -0.12022078 -0.003735845 -0.01831715 0.009929325 -0.12335488 -0.09211523 -0.09428315 -0.07241315 -0.066205256 -0.07433389 0.10041502 0.067259215 0.08411064 0.08398584 0.06684877 -0.1319018 -0.045917187 0.10898333 0.1405936 -0.046355885 0.03159888 -0.020407448 -0.017187085 -0.12137397 -0.06970277
0.11312288 -0.07493235 0.09501592 0.08977546 -0.06882939 0.013489248 -0.038281903 -0.13792107 0.028554501 -0.0990641 -0.07552009 0.10757856 -0.11770692 -0.11995523 0.102987856 -0.086969405 -0.02840286 0.13093051 0.06829201 0.10044236 -0.12293765 -0.054260656 -0.09786532 0.0480562 -0.043528285 -0.062402096 -0.05786235 0.038631324 -0.03169444 0.00078683405 -0.06383036 0.107373774 -0.0065560215 0.03625752 -0.006923351 0.025153035 0.09167752 -0.08911593 -0.036268737 -0.05116741 0.103462696 -0.114699595 -0.058434006 0.0067222603 -0.031482663 -0.0037118313 0.039147582 0.09368608 0.07995673 -0.01306257 0.12962595 -0.061487824 -0.06417638 -0.0019636257 8.8958026e-05 0.03511871 0.11322826 0.03863768 0.035346486 -0.110096365 0.107527636 0.11946293 0.09234775 -0.0489902 -0.11905677 -0.09029498 0.088164054 -0.122828834 -0.014146967 -0.07142791 0.054302666 -0.088079184 -0.11316446 -0.121057585 -0.08897238 0.026530406 0.10472488 0.14443944 0.11712011 0.06812063 -0.005418088 -0.004965718 0.086839505 0.057176016 0.0056796293 -0.10597589 0.04379861 0.0762704 0.011478918 0.12869886 0.0683344 -0.01635826 -0.0144938445 0.08246418 -0.08976517 -0.0771145 0.096816055 0.08281095 0.11209235 -0.077536985 0.059367634 0.082537904 0.09348857 -0.019820476 -0.064363636 -0.019628514 0.10416535 0.07599223 -0.096427165 -0.036640614 -0.016584544 0.03474677 0.0077145374 0.1138989 -0.010361793 0.07564159 0.049011964 0.043850876 -0.042890996 -0.019137017 0.040570356 0.103332184 -0.10628081 0.0015962293 -0.1055934 0.109169155 -0.05044108 -0.029885707 0.030643396 -0.024872232 -0.010745283 -0.0935788 -0.00563492 -0.0065942076 -0.11443472 -0.024518562 -0.08159192 -0.07627953 -0.09401856 0.09022791 -0.08068091 0.034797784 -0.10077286 0.03157012 -0.1448171 -0.022157853 -0.079244114 -0.08545483 -0.12686865 -0.018204361 0.034827385 0.106110305 -0.11546085 0.061515566 0.12853463 0.07920172 -0.12948544 0.024993358 -0.04953322 0.10239871 0.04165448 0.005847347 0.080776595 0.07626849 -0.05782174 -0.018722152 0.093624555 -0.15361433
0.04537355 0.045524903 -0.053160343 -0.08992469 0.060604736 -0.05759164 -0.0560381 -0.06744665 -0.06586521 -0.112566754 -0.008936906 0.07819183 0.12053337 -0.021036383 0.045159526 -0.021538096 0.0855462 0.06873195 0.051873203 -0.028140029 -0.058912445 -0.09444913 0.097202495 0.109750785 0.08804965 -0.009001583 0.0773983 0.00075413985 -0.07944265 0.007838129 -0.07378414 0.05014917 0.05001239 0.13695633 0.07284614 -0.072575405 -0.077183515 -0.085865505 0.04166686 -0.0849007 0.131595 -0.068227455 0.23576418 0.092935465 -0.024350217 -0.050339244 -0.008407271 0.020911535 -0.039646562 -0.06738824 0.053892978 0.10883159 0.029742679 0.04947849 -0.0033898423 -0.03134505 -0.09862689 0.068398975 -0.0023271362 0.14386514 -0.050476935 0.032010004 -0.11059603 -0.060023025 -0.11156313 0.025217071 0.028501406 -0.014105423 0.11958674 0.08150562 0.052965716 0.005978892 0.010580754 -0.012610212 -0.08714716 0.007070575 -0.11035596 -0.06505652 0.0002939018 0.05327726 0.17033991 -0.028953554 -0.13471265 -0.117707066 -0.023694783 0.00999869 -0.06610173 -0.08351083 0.07418249 -0.13606732 -0.043057952 -0.18724644 0.057796642 0.097274736 0.065129325 -0.06720671 0.09957741 -0.055166677 -0.118913524 -0.0014465076 0.19411105 0.06413529 0.11936801 0.069917776 0.09166361 0.037976466 0.06995601 -0.077853225 0.06440466 0.09950871 0.08879846 -0.046678606 0.12948349 -0.025986932 -0.06708024 -0.081789754 0.09011144 0.24166526 -0.037551947 -0.09591089 -0.00823087 -0.050747264 -0.020232692 -0.007268392 0.05934392 -0.1041316 0.08068126 -0.0514093 -0.08185173 -0.049014404 -0.0128264 -0.06987289 -0.07969376 0.09898746 -0.035212543 0.22145443 0.14188497 0.0061507286 0.016436484 0.044854995 0.0806085 -0.09001132 0.13983738 -0.13420823 -0.0476915 0.21062091 0.09211572 -0.031482764 -0.036869224 -0.0007218364 -0.017924879 -0.11597831 0.06826394 -0.006663995 -0.0077975295 -0.10441647 -0.065673776 -0.06289767 0.08328619 -0.068924874 0.1415158 0.052801456 -0.0010140467 -0.08017926 -0.020213924 0.12314083 -0.04215738 0.20981716
0.0729138 -0.108482905 -0.0968002 -0.075156175 -0.07060057 -0.14020602 -0.08105711 -0.101274505 -0.105387196 0.054739404 -0.09308575 -0.050314654 -0.10322611 0.10066916 -0.1374059 0.09415592 0.109773405 -0.09404431 0.010369225 0.057349283 -0.054814246 -0.12474342 0.05245574 -0.058928628 0.0030610936 -0.059425514 0.115401804 -0.09087298 0.030866057 -0.039190616 0.120324634 0.09903073 0.078704454 -0.01859033 0.11920585 0.05954861 0.039200738 0.07553916 -0.10918678 0.04115804 0.011288067 -0.016244829 0.086327195 -0.003793978 -0.120559596 0.06657436 0.12926549 -0.079786524 0.08153161 0.004683557 -0.010013644 0.024596892 0.015506087 0.030628283 0.13940786 -0.039519873 -0.084420174 0.10511987 -0.13997081 0.101564944 0.066088796 0.04364272 -0.03710218 -0.06981973 -0.017308248 -0.12117309 0.09093352 0.04565631 0.07054255 0.006087367 0.091696285 0.041589905 0.058179952 -0.03915469 -0.0005130611 0.039093647 -0.05533735 0.084237166 0.024318727 0.0287879 0.011750901 0.06250094 0.07878379 -0.03524219 0.110458925 -0.049525242 -0.049043935 -0.10321906 -0.10104645 -0.042495344 0.04935533 -0.08497236 -0.04467367 0.08403949 0.08862516 0.025613736 -0.018307192 -0.107541665 0.06765012 -0.038123477 -0.056877628 0.12403295 0.123665534 -0.05485185 0.09230155 0.13264516 0.051780466 0.0740292 -0.03510285 -0.038777553 -0.0643354 0.08600776 0.11753246 -0.08490319 0.13339488 -0.08175557 -0.11831196 0.14601018 0.0026889257 -0.006232612 0.051675443 -0.06619151 -0.09947744 -0.11119999 0.061823335 -0.11415615 0.11378545 0.09812106 -0.036176603 0.014502999 0.056915164 0.08069874 0.13820498 0.093713224 -0.09567216 0.0037306494 0.04169922 -0.04225109 -0.012934829 0.049277622 -0.063280344 0.01053343 0.13532718 -0.053137526 -0.017387012 -0.11222277 0.07805245 0.0014756769 0.017427068 0.13240463 0.120046586 -0.15108487 0.13343945 -0.031715713 0.14173202 -0.09250349 0.02590465 -0.06478936 -0.007267254 0.03386059 -0.132452 0.07608552 0.093732804 0.13271892 0.08163753 -0.111201905 -0.0071484023 0.06014745
-0.07418513 0.045373414 -0.06533365 0.121254265 0.03571629 -0.124215275 0.031754225 0.049280815 0.010299051 0.10927123 0.024123115 0.06795118 0.055664107 0.095289074 0.11494681 -0.0046556657 -0.106834024 0.051651936 -0.025757572 0.1141616 0.06517651 -0.019630719 -0.05646352 0.020660702 -0.15206033 -0.06628872 0.039205372 0.065234885 0.101286255 0.12860075 -0.06307521 -0.0804901 0.11937079 0.07316441 -0.009530868 0.060321 0.092168435 -0.07840523 0.059752937 -0.05568541 -0.08567428 0.059593312 -0.0034297463 0.077175915 -0.12139686 0.08300373 0.08795866 -0.11480968 0.038175646 0.03457518 0.090083614 -0.07711619 -0.09588259 0.08032994 -0.019110108 0.12577732 0.004846024 0.08268909 0.099439494 0.089356475 -0.09494135 0.048322182 -0.015330542 0.065472685 0.049653046 -0.015484906 0.04984555 -0.03811575 0.088924915 0.031163031 -0.12214239 0.06384868 -0.07943366 0.11018884 0.053364065 -0.087590724 -0.11906705 0.02172175 0.06967432 0.048662696 0.069939286 -0.071407124 0.1252497 -0.00674368 0.09154772 0.09616791 0.07346958 0.12240252 -0.07727662 -0.093065955 -0.039999083 0.04747834 -0.12597917 0.11564489 0.027055807 0.12526049 0.090734586 -0.06820833 0.064399496 -0.034002155 0.003144933 -0.17580298 -0.06892847 -0.023792047 -0.10706629 0.09909702 -0.054090332 0.0645433 -0.0963716 -0.032886505 -0.12484222 -0.13310096 -0.0018875498 -0.00829709 -0.05300933 0.064563155 -0.0071582138 -0.13739547 0.12057757 0.09870394 0.018558858 -0.118914895 -0.07891993 0.039187234 0.09409051 0.061293874 0.09827183 0.11797437 0.027943725 0.064204104 -0.006461435 -0.05473092 0.058226917 -0.09181221 -0.06192067 0.061989263 -0.09370229 -0.01520459 0.021603927 -0.038166054 -0.09444071 -0.088196136 0.04817033 0.060524955 -0.031450447 -0.10194556 0.04126773 -0.10968284 -0.114079155 0.1287921 0.005364837 0.021129899 -0.104743704 0.018939098 -0.07880881 0.14078812 -0.012692703 0.11706963 -0.027959196 -0.04857849 0.038201254 -0.022895368 0.012353426 0.039929 0.024241382 0.09863907 0.031887338 0.14941405
0.12654841 0.044340722 0.050095912 -0.07370102 0.017117025 -0.07872588 0.15873085 -0.03169411 -0.04409501 0.055008516 0.06934888 -0.09587587 -0.01935908 -0.040514108 -0.017469615 0.06777721 0.020022834 -0.046200484 -0.11006725 0.103920996 0.075311534 -0.10190901 0.06236149 0.11891822 -0.11250372 -0.018980054 0.07714252 0.08136377 0.048997954 -0.09118234 -0.012371667 0.04716061 0.11439705 0.09029207 0.043762613 0.0637993 -0.08678811 0.05549736 0.03013263 0.07325526 -0.041584924 -0.061144214 0.08003291 -0.08596647 0.028563643 0.016809175 0.10979329 -0.022519981 0.09944676 -0.06534856 -0.08345159 -0.12269388 -0.03855931 -0.054778613 0.0081192 0.09630049 -0.113476284 0.02982418 -0.103352815 0.07904122 0.15116873 -0.10881896 -0.054624815 0.096465744 -0.034446537 -0.103391185 0.069577485 -0.11068642 -0.08826123 0.034436043 -0.116499 0.0376246 -0.013076699 -0.088317394 -0.15711054 0.120935775 0.09360992 -0.06422701 0.00069033477 -0.07641686 0.094365895 -0.033497512 0.10912278 -0.12998024 0.09396324 0.13248141 -0.094314784 0.07943806 0.04919177 -0.056554005 -0.07999205 0.04521853 -0.05256671 -0.08702565 0.057630677 0.027981376 0.10496239 0.102162845 -0.10227194 0.0711424 -0.0194156 -0.078933254 -0.11908126 -0.036330152 0.035891626 -0.020038733 0.12806062 0.078422524 -0.101499006 -0.124495395 -0.069307834 0.121213526 0.080007546 -0.09707448 0.10170775 -0.023591774 -0.031245194 0.13319445 -0.075015776 -0.005857752 0.054808564 0.14095366 0.1370191 0.04325736 -0.1417228 0.087759875 -0.037384525 -0.010947043 0.08843326 0.13198422 -0.08025271 -0.061746795 -0.10322525 -0.127673 0.049809184 0.06469928 -0.096497566 -0.034624837 -0.00026956032 -0.13598049 -0.005318539 0.04677191 -0.051151335 -0.072119206 -0.08419888 0.10106825 0.12283152 0.14464535 -0.06241955 0.06790914 -0.05335678 0.037010696 -0.08139581 -0.12365728 -0.07758173 -0.1320178 0.0872757 -0.036205236 0.022454077 0.036086757 -0.03561817 0.04573339 0.04635484 -0.12952687 0.09088992 0.07741562 0.1194267 0.019386666
0.04537107 -0.08420765 -0.1061046 -0.10731421 -0.024651347 0.01213442 0.07632889 0.023726022 0.024076547 0.09642366 -0.0786149 0.044948645 -0.07460255 0.07790637 -0.08045728 -0.01215544 0.093505435 -0.02764285 0.052634846 -0.030474957 0.10113701 -0.031524494 0.025690684 0.059191152 0.14111713 0.010716895 0.031263407 -0.06126539 0.092276566 -0.00910575 -0.049054135 0.04917796 -0.11633949 0.15695506 0.09535885 0.02974737 0.015518113 0.073617965 0.0424161 -0.1712575 -0.09175669 -0.1136051 -0.10534795 0.003715534 -0.13722622 -0.00441498 0.017208243 -0.054100752 -0.017364826 0.18998308 0.00020464233 0.03829637 -0.085817434 -0.057442367 -0.019484036 0.018315095 0.017568717 -0.0021365727 0.062207278 -0.005105379 0.13997516 0.0494408 -0.0710859 -0.07738485 -0.0051805987 -0.14806385 0.14768551 0.029554239 -0.11626797 -0.014076073 0.035681613 -0.023573048 0.048537303 -0.05719636 -0.00948286 -0.011995925 0.12930825 -0.012936513 0.06605317 -0.0068721026 -0.05139217 0.016478682 0.12414171 0.017315239 0.04402252 0.12862454 -0.0638434 -0.017981403 0.09514374 0.10522314 0.05809419 0.035331853 -0.07274634 0.011857029 0.032693513 0.09323006 0.0038110237 -0.037769146 0.0119429855 0.005635317 -0.0751838 0.0048354445 0.10316167 0.12929186 -0.02965615 0.07399228 0.10910548 -0.009633035 -0.046043187 -0.041883003 -0.0808057 0.07341535 -0.05323597 -0.016469495 0.10632894 -0.07675951 -0.008332542 0.0011616276 -0.04286055 0.0931778 0.14141825 -0.13366249 0.07439218 -0.050513554 0.01122624 0.046651367 -0.032687422 -0.13583222 -0.011644034 -0.09943929 0.01889511 0.16037558 0.07474153 -0.058155116 0.035848793 -0.05442078 0.01242743 0.0373757 0.054462366 -0.058205266 0.035005946 0.056070056 0.01055826 0.03365325 -0.03675668 -0.020689972 -0.02710321 0.08004676 -0.07994855 -0.11040441 0.028612068 -0.11652218 -0.10041262 0.03972357 0.003607541 -0.107378095 -0.13873345 -0.011469607 0.057857472 -0.056265336 0.01080248 -0.09247464 0.06108358 0.020730691 0.016384067 0.07171467 0.019847697 -0.011776694
-0.027093733 -0.094982855 0.051072814 -0.11387528 0.14353879 -0.06107089 -0.020518063 0.124385074 0.023928002 -0.106674284 0.10693105 -0.048337914 0.093412 -0.1041633 -0.110061646 0.023908213 0.13996677 -0.066215515 -0.09377576 0.036975294 0.098180816 0.0093335975 0.031247485 -0.08254466 -0.052538704 0.10104273 -0.055236198 0.09575529 0.108199224 -0.09848409 -0.01370068 0.13129309 0.15618989 -0.054558527 0.025669938 -0.060558703 0.0006316656 -0.11379822 0.09391995 -0.13681968 0.027878042 -0.10630585 0.12370115 -0.11937383 -0.035104528 0.035910375 -0.06426004 -0.07017702 0.08887053 0.04923406 -0.09121425 -0.121909745 -0.13394187 -0.120933026 -0.050670657 0.09545245 -0.09257754 -0.06305686 -0.037927136 -0.082122296 -0.0240905 -0.12073163 -0.06619692 -0.063727975 -0.10181716 -0.020718867 -0.028822815 -0.003378144 -0.090559706 -0.11617591 0.08911867 0.019785855 0.04194836 -0.08452777 0.00699062 -0.04132617 -0.060574144 -0.020318571 -0.029551726 -0.09446671 0.043342505 0.063878655 -0.009975126 -0.027530814 0.11003975 -0.11139168 -0.06472595 0.09663114 -0.04432347 0.11204876 -0.009474958 0.11980632 0.060011663 0.0066544926 -0.10893136 -0.008504626 -0.038041003 0.08332181 -0.06222141 -0.10304165 -0.11762714 0.10988179 0.052607648 0.039613884 0.014203152 -0.12536296 -0.09358109 -0.013179567 0.08346548 -0.011515936 0.11018828 -0.085823715 -0.0041665216 -0.092647865 0.0036260232 -0.033266157 -0.024109961 -0.009890605 -0.04061312 -0.02594086 -0.18750049 -0.06938978 -0.09010089 -0.12960717 0.15572166 0.010178694 0.09814961 -0.07635036 -0.0062661623 -0.040839553 0.07292943 -0.057333887 -0.02550638 -0.13556379 0.05331869 -0.04779068 -0.10187185 0.014624871 0.11869755 0.028173663 0.029613381 0.14427678 0.09330049 0.022291707 0.09071206 0.07128808 -0.081316136 0.0048783626 -0.10233586 0.027060712 0.05285004 0.0833264 0.017549535 0.107180156 -0.0028682153 0.040935222 0.043906458 -0.028795911 -0.075834505 -0.039101303 0.092078894 0.15454963 -0.06784889 0.06655164 -0.13614811 0.062201966 -0.1760331 -0.13867044
-0.011694791 -0.110164925 0.117116794 0.1518377 0.021827724 0.10328212 -0.023254553 0.08960045 -0.06945046 -0.018713973 -0.10847542 0.091856375 0.009389627 -0.09523696 -0.067635186 -0.06620044 -0.059710655 -0.048639644 0.025359273 -0.053049 -0.0005174557 -0.050734162 0.052631784 0.10719808 0.0411583 -0.055500507 -0.13654198 -0.02061775 0.107962824 0.06666747 -0.04488152 0.0456412 0.0036783614 0.072767876 -0.053490642 -0.0052847085 0.04427408 -0.037000407 0.16139293 -0.09953494 -0.019385789 0.025474206 -0.06331361 0.03053245 0.08269029 -0.097790994 0.07754687 0.16921397 -0.04939455 -0.059179083 -0.01253865 0.106126636 0.08009718 0.07913239 -0.06684476 -0.039879058 0.016944444 0.03933802 -0.06838148 -0.073651604 0.13502312 -0.031529345 -0.13629314 0.03618948 0.034891922 -0.01936016 -0.13073783 0.08042754 -0.024354879 -0.083280146 0.15017562 0.106253795 -0.011345193 -0.0002944857 0.10917918 0.036537394 0.18074504 0.15245132 -0.09028019 0.056199 0.028206328 0.05040348 0.038393617 0.01859671 0.11287113 -0.1502174 0.06300334 -0.043681424 0.120887704 -0.014267884 0.041238733 0.047652848 -0.11740798 -0.003240994 0.13055915 -0.11764309 -0.1273329 -0.09791619 0.029744672 -0.009188103 0.043812297 0.0866973 -0.13961312 0.013193485 0.08190726 -0.11437806 0.14251706 -0.056390263 -0.1105419 0.18963662 0.072909676 0.098311454 -0.026759326 -0.12065781 0.087071344 -0.02627209 0.13380858 -0.2833744 0.032530006 -0.025146257 -0.06798202 -0.114194706 0.089106254 0.015317421 0.06430497 0.1305691 0.023284473 -0.046564065 -0.09896439 -0.03805008 -0.116930254 -0.08935924 0.012165308 -0.08076022 -0.103967 -0.122980624 -0.017203111 -0.013338701 -0.048774812 -0.068601616 0.035344373 0.13159856 -0.061876655 -0.097237654 -0.06505592 -0.16429222 -0.07283187 -0.050214004 0.027854364 0.10093549 -0.028246088 0.044592712 0.011774791 0.02814539 -0.10944157 0.08764595 -0.016302157 0.13906989 -0.15572615 -0.028618712 -0.114427276 0.124227256 0.13275613 -0.054653488 0.03590507 -0.06305581 -0.069224045 0.07471194
-0.048389208 0.12969637 0.089301385 -0.08145453 0.15124482 -0.0013686519 -0.030734593 0.08371589 -0.009792185 0.17021199 0.022830095 -0.11005714 -0.09478344 0.00885268 0.04561358 -0.07859794 -0.013124127 0.084976785 0.009481343 0.0033703903 -0.13336702 -0.09637262 0.099779 -0.019012762 0.103014335 -0.06994788 0.03354762 -0.025734276 -0.092240326 0.06455153 0.009397611 0.017011808 -0.105857536 -0.037188247 0.16244869 0.023749467 0.09515826 0.07558649 0.10634722 -0.12294001 -0.11139526 -0.0712601 0.026830558 -0.08494843 0.100537926 -0.13864064 0.011033308 0.00939742 -0.08429088 0.13791887 -0.021743113 0.039896484 -0.04206331 0.08226619 -0.030656336 -0.03754065 -0.0332584 -0.07161221 -0.17260832 0.13748404 0.11209373 0.14868622 -0.053365517 -0.0088225175 -0.066853605 0.043504935 -0.044043705 0.036885057 0.05746118 -0.07735836 -0.060003288 -0.13044614 0.06795379 0.07467247 0.08183224 -0.08804039 0.059884317 0.036581565 0.106098264 0.07530915 -0.12745537 0.11309606 0.069159724 0.03524517 0.11751324 -3.921052e-05 -0.0735505 0.1459463 0.033306915 0.025343852 -0.017773192 -0.08166107 -0.13289906 0.08393658 -0.02312032 -0.051270407 0.079601474 0.09803841 0.022624696 -0.029781021 0.19675097 -0.06306362 0.099284075 -0.04097476 -0.08995928 -0.026470227 0.00259928 0.089294925 0.08061627 0.21443574 0.15581548 0.007590303 0.07070309 0.11477439 -0.00012476943 -0.07318473 -0.036876127 -0.2906217 0.048344575 -0.080647394 0.07408927 -0.15652785 0.013762009 0.111608915 0.16156043 0.06234666 -0.07314097 0.036508996 0.081426 -0.10231981 -0.01673504 0.0993666 0.020532303 -0.08549988 0.12202669 -0.029772952 -0.0030292803 -0.061615072 0.00981418 0.0746834 0.0199329 -0.20257029 -0.16172692 -0.0943871 0.1849396 -0.11985578 0.050446935 0.052559767 -0.1436348 0.114263535 -0.00832219 0.14022979 0.022299496 0.18120465 -0.03395081 -0.060022075 -0.14973284 0.05117225 -0.13390735 -0.09914925 0.0044093486 -0.12638445 -0.008162196 -0.03141575 0.05705759 0.09559866 -0.019035278 -0.1206326
-0.0045195674 -0.04005704 0.03287458 -0.037886772 -0.004565199 -0.0005534303 0.013819145 0.08498546 -0.0024669676 0.10940864 0.048208334 -0.09806399 -0.046586383 0.0024455506 -0.07406101 -0.07204723 0.011944574 0.05029399 -0.0524131 0.055746123 0.017222147 -0.10849596 -0.028274171 -0.0595584 -0.15213539 0.09414161 0.10898459 -0.07792382 -0.115729645 0.13869138 -0.12930655 -0.06086576 -0.14508441 -0.122961044 0.13946214 0.068561636 -0.039126426 0.075433575 -0.03668574 -0.0147235375 0.04025779 -0.024436895 -0.10755966 -0.00072584464 -0.017312577 0.03705242 0.09318975 -0.033407934 -0.0640213 0.0315326 0.09886132 0.11923498 -0.13108326 0.10901104 -0.028819744 0.12977733 -0.119263925 -0.12753367 -0.05313726 0.1555465 0.085891515 0.0726796 -0.058722656 -0.07700789 0.055846896 -0.033605978 -0.08227591 0.13269009 0.09462583 0.10706199 0.09836441 -0.0406228 0.1353461 -0.002565816 0.0041215536 -0.10791624 0.03851379 0.08014976 -0.015217647 -0.049529914 -0.12103333 0.1306571 0.088830985 0.007869663 -0.09840153 0.056811217 0.045648202 -0.0826183 0.0051499302 -0.036784295 0.02361674 0.05742306 -0.009106751 0.008990884 -0.042784426 0.09573609 0.090183586 0.050127894 -0.018701289 0.024014926 -0.03291094 0.05082478 -0.1149145 -0.11020889 0.07643144 0.040581666 -0.12293807 0.08074156 -0.0627289 0.050131075 0.031218491 -0.0745931 -0.13344754 -0.03124539 -0.06355846 -0.122919224 -0.08277851 -0.004292667 -0.11575346 -0.00185988 -0.13784815 0.0795677 0.05790522 -0.03233641 0.0056416886 -0.020582518 -0.092007734 -0.038811285 0.123554684 -0.027228648 -0.11735649 0.0993226 -0.11853318 -0.034911796 -0.08974093 -0.08881252 -0.12573184 -0.06864532 -0.04828743 -0.045292567 0.13611074 -0.04126317 -0.045945045 -0.10719479 -0.067633204 -0.0703321 -0.047016654 0.062487867 -0.0771503 0.07766866 -0.100174665 -0.02257721 0.09276373 -0.042009227 -0.057360787 -0.119421415 0.04815034 -0.026249856 -0.09666544 -0.015698021 0.030428126 0.017976683 0.002587141 0.05175524 0.047210243 -0.052093383 0.15150726 0.049856067
-0.09742206 0.08678618 -0.052785218 0.08471686 0.044003546 0.02225315 0.03783463 -0.019128945 0.076332636 0.022660587 -0.094379656 -0.022873381 0.056581512 0.052891213 0.031980887 0.071274675 -0.09054423 0.17282833 -0.020460278 -0.047094822 0.059458677 -0.06586373 0.09919566 -0.0079255365 -0.030292092 -0.14082006 0.07168971 -0.04537783 0.008276667 0.070008144 -0.060926687 -0.11038675 0.123732224 0.12942441 -0.020535279 0.04265389 -0.046176296 -0.016767146 -0.13422853 0.08446659 -0.071667686 -0.1651217 0.027757192 -0.066701174 -0.054475654 -0.17384444 0.043416403 -0.0009768349 0.11844122 -0.057919078 -0.01595705 0.12209819 -0.13742812 0.108273454 0.0448641 0.11916399 0.093638696 -0.09422007 -0.012999929 0.003609661 -0.13483717 0.024597518 0.057641923 -0.06526107 -0.01358797 -0.1175783 -0.09247369 0.08352321 0.0020962837 0.113781646 0.013015702 -0.077174634 -0.0013317635 0.10465907 -0.017465388 0.091603 -0.16250896 -0.052285608 0.01980072 0.08978767 0.13430923 0.014207892 -0.070483126 0.016794017 -0.11090502 -0.13004813 0.122868545 -0.03709633 0.0065598316 0.087911956 0.062245343 0.070498325 -0.16395102 0.0996719 -0.08626953 0.029593362 0.0519552 0.09135203 -0.02499299 -0.06025916 0.14464422 0.14400722 0.017941648 -0.076821305 -0.0807742 -0.0025652186 0.0023157657 0.008723634 0.03304032 -0.026112115 0.10532898 0.031682976 0.08040626 -0.09657182 0.07955459 0.03820309 -0.048045266 -0.115579575 0.016216904 0.031865753 0.083980344 -0.0028269466 -0.0927181 -0.04295059 -0.086985484 -0.0230833 -0.11268153 -0.10449412 -0.03554502 0.01666606 -0.06694461 -0.09604692 -0.01869578 -0.043407105 0.037424587 0.06927487 -0.008614305 -0.023093127 -0.05662119 -0.11795904 -0.121807136 0.015504335 -0.06913506 0.13094482 0.03013303 -0.13570967 0.09396895 -0.101171926 -0.0803429 -0.009318836 0.10901869 0.09748692 -0.103277646 -0.06502378 -0.08188631 0.1407019 0.112001605 -0.08901935 0.088128075 -0.12980506 0.0392978 -0.016792111 0.08602999 0.03685891 -0.037698403 -0.02864847 0.07156387 -0.0855379
0.04663991 0.050774287 -0.00666873 0.035595205 -0.08993788 0.075317375 -0.02166856 0.13517447 0.032242425 -0.011078153 -0.013000882 0.08575855 -0.022563308 -0.0916738 0.110627204 0.1767052 0.05797837 -0.0048368275 0.04144246 0.018621724 0.11773266 -0.15242672 -0.06756077 0.010093904 0.02580476 -0.07041546 0.037504278 0.09623592 -0.025117403 0.159331 -0.11700823 -0.10454251 0.023956614 0.072116405 -0.03350523 -0.034196824 0.104160435 -0.04976784 0.09697479 0.06358896 0.015507839 -0.08714377 0.054746155 0.06912915 -0.0978495 -0.048188236 -0.01710551 0.10578591 0.11347839 0.04822254 0.03201524 -0.12235808 -0.12371502 0.020827372 -0.08092573 -0.00095344376 -0.11930306 0.020963686 0.030473413 0.09069114 0.05987298 0.025007011 0.032609195 0.16127819 -0.050658733 -0.022286812 -0.070125245 -0.05702306 -0.031555407 -0.13285719 -0.099052995 0.08162422 -0.13058837 0.1005057 0.03814963 0.09507591 0.044604186 -0.0042674793 0.06619847 -0.09154527 0.023573564 0.01834922 0.032048933 0.12700327 -0.07005509 -0.0020077038 0.13274491 -0.055650502 -0.0583117 0.10574497 -0.0017621041 0.033334054 -0.07678623 0.14075115 0.10294972 -0.09694753 -0.00050900533 0.052481845 -0.11102628 -0.108093776 0.14136933 0.08296236 0.070792764 -0.1508459 0.004468499 -0.04690538 -0.1362345 0.037557397 0.03987666 0.009819638 -0.027661398 -0.031070383 -0.039450493 0.067999445 -0.06213639 0.049691092 0.124713175 0.14846037 -0.0323456 -0.10478826 -0.022932766 -0.07710645 0.05204446 0.03764836 0.041670643 0.018298343 -0.0025724564 -0.005022726 -0.0630909 0.09225809 -0.056570996 0.023320176 -0.06323431 -0.09447493 -0.022409508 0.09557413 -0.11850176 0.03692265 0.0024168724 0.09992793 -0.032270838 0.03679652 -0.028683718 -0.17550531 -0.08565805 0.010078996 -0.13258912 -0.0034011984 -0.05266453 0.0022985337 0.11114645 -0.14065832 0.008677728 0.07016439 -0.016121676 -0.022437127 -0.064326696 -0.012161075 0.076156855 -0.017439865 -0.05283984 0.140099 0.06164366 0.025226122 -0.050636202 0.1091208 -0.013813204 0.051038843
0.09499965 0.013509976 -0.03764187 -0.16379201 0.08813272 0.15309356 0.034565687 0.02346952 -0.13017465 -0.06198255 0.049625274 -0.11147427 0.14800425 0.023509853 -0.12332461 0.06508474 0.003732284 -0.14103013 0.100254536 0.115248464 0.10824272 0.059372384 0.09701328 -0.037353795 0.031360235 -0.07970055 -0.049512997 -0.041161813 -0.07396587 -0.057231896 0.05640628 -0.022589074 -0.015255935 -0.063475385 0.13162981 -0.007665729 -0.019073984 0.02695594 0.0042634867 0.004631604 0.083287016 -0.03442998 0.1092885 0.035756428 0.12697032 0.1515726 0.11492224 0.098642364 0.08656902 -0.13967495 -0.020805387 -0.025302434 -0.14709204 -0.017956568 -0.10996903 -0.059880428 0.015509049 0.029927205 0.008625067 0.008705482 -0.043326437 -0.036008593 -0.017073212 -0.07703437 0.03491583 0.117536314 -0.030677538 -0.06978398 -0.14383028 0.071313225 0.06754099 -0.03626208 -0.0376581 0.10000066 0.009227822 0.09941448 -0.034033164 -0.078359626 -0.11132792 0.016920066 -0.025496662 -0.04862791 -0.037439626 0.061950002 -0.044853576 -0.017384283 -0.009886252 0.09198147 -0.016553575 -0.007659089 0.1219646 0.027742581 0.12856603 -0.080849215 -0.09362507 0.028397093 -0.023969745 -0.057039432 -0.022089986 0.0012700781 -0.102777325 -0.056412365 -0.010459182 0.14023623 0.076589726 -0.03214428 0.0017246368 0.03210582 -0.08476561 0.049710855 -0.075230695 0.044164013 0.0027774507 -0.034068637 0.104684964 0.07877217 0.070761956 0.2619618 0.11571896 -0.029736165 -0.07425234 0.036717024 0.05359287 -0.0059837834 -0.12140592 0.01922691 -0.053688858 -0.033827823 0.07711854 0.015936937 -0.008656606 -0.05696729 -0.09680322 0.036966562 0.09464171 0.065416984 0.014615255 -0.09195935 -0.07523134 0.06598352 0.029592091 0.08628117 0.03944668 0.015404201 0.0044430764 0.08723111 0.0021862308 -0.06333755 0.075646475 -0.010337561 0.093033165 -0.14255889 -0.1295582 -0.015342896 -0.02222069 -0.031324808 -0.04511173 -0.07561072 -0.083408415 -0.04889661 0.014173371 -0.013585159 -0.10988165 0.09113463 0.14275634 -0.07379982 0.002794476 0.02083673
-0.11566947 0.0150687415 -0.09292501 -0.09579697 -0.08149833 0.039054416 0.12654316 0.008997877 0.03467504 -0.017845375 -0.050240554 0.046477698 0.022729393 0.03114041 -0.066116214 -0.10769496 0.12616295 -0.123950504 -0.06480135 0.06641821 -0.062644675 0.06168486 -0.02464754 0.041808926 0.038106155 0.12146548 0.033621922 0.016089346 0.1060643 0.02001503 -0.058138743 -0.106173135 0.103455804 0.10214382 0.12975977 0.080074616 -0.04534706 -0.08512414 -0.031845674 0.005882869 -0.09288759 -0.15284778 0.104627855 0.10932375 0.07480897 0.046041545 0.105682254 0.04166746 -0.025855154 -0.11073529 -0.09052983 -0.11050536 -0.07023979 -0.0019025512 0.035091553 0.105657786 0.034055755 -0.013066106 0.09167773 -0.11697814 -0.00094989344 -0.056252066 0.08092119 -0.0702389 -0.08082761 -0.054328445 0.082372196 0.10572452 -0.10465121 -0.016123204 -0.1051274 0.09483064 -0.10276896 -0.02999202 0.030630631 0.010936071 -0.04999623 -0.09499276 0.10404443 0.009040448 -0.12394077 -0.12592295 0.048615932 -0.10725455 -0.07862213 -0.030589342 -0.078085795 0.118949234 0.073708266 0.0422855 -0.002268495 0.08295128 -0.088267945 0.0067261 0.008380081 0.08598117 -0.089219004 -0.0027718113 -0.10915628 0.110693924 -0.11806419 -0.06852615 0.088746175 0.08580971 0.110772 0.07139158 0.06705441 -0.046304487 0.027768176 0.06758 -0.0925778 0.027579105 0.0048781475 -0.10564277 -0.0058397776 -0.065169945 -0.050446752 -0.041055627 0.045281768 0.04976785 -0.00033698825 -0.0014900091 0.0344646 -0.062697686 -0.11679654 -0.112790294 -0.051920827 -0.02701033 0.011169651 0.09881682 0.052393563 0.08639178 0.008096773 -0.10682118 0.028978946 -0.09836805 -0.014155335 -0.047459334 0.111031376 -0.09261122 -0.0891469 0.06287787 0.066285096 0.025243482 0.090734676 -0.14093013 0.02813472 0.09842176 0.077209406 0.069833614 0.11621673 0.0048898133 0.13253249 0.033321463 0.022474583 -0.05561526 0.056422625 0.10234127 0.18584597 -0.09465987 -0.09584226 0.009717617 0.048301533 -0.07187699 -0.19858499 0.08939355 -0.043149654 0.039355498
0.09468736 -0.09951838 -0.054341026 -0.04930625 -0.01416286 -0.04507838 -0.06486836 0.04847611 0.14409034 0.016622035 0.054557413 -0.058025822 0.091134414 0.078395374 0.040438756 0.12815094 0.052446682 -0.06807108 -0.12921688 0.092167936 0.007085904 -0.094945885 -0.03246341 0.1234327 -0.1057276 0.055947017 -0.10312199 -0.04060133 0.039409257 -0.025824517 -0.0025224749 0.08562666 0.02655194 -0.042377286 0.03861035 0.13812266 0.06575183 -0.040682487 0.0659003 0.07921613 0.016130324 0.027483271 0.10214177 0.06145746 0.012481717 -0.047861774 -0.03997774 0.017747816 -0.053828865 -0.07058574 0.10375115 0.029525848 -0.15845628 -0.1132869 -0.02935029 -0.10285615 0.057493266 0.011591812 0.09036356 -0.07353175 -0.057291932 -0.14022608 0.056916386 0.07339937 0.013436378 -0.06315633 0.027386757 -0.004781038 -0.102244146 -0.057147756 -0.09879546 -0.050258294 -0.017863851 0.14649247 -0.07402241 0.11671631 -0.10663532 -0.07869189 0.009524895 -0.11620802 -0.01707584 -0.025197137 0.028317722 0.039749905 -0.018955523 0.04537836 0.037178457 0.050055593 0.045753434 -0.123778194 0.049633842 0.1131912 -0.096821934 0.05819181 0.01918294 0.043215044 0.0945579 -0.09442164 -0.07615417 -0.046741582 0.02522843 -0.05504771 -0.068869516 0.0074886032 0.11615336 -0.017590553 0.077568986 0.010047862 0.014552154 -0.11408547 -0.13520402 -0.073320724 -0.045042433 0.116247 -0.107455805 0.037125178 0.086095616 0.03945593 -0.06293862 -0.018946787 -0.048356537 0.05556596 -0.0836473 -0.16570088 0.053928904 -0.04724344 -0.048211697 -0.079846166 -0.072813086 -0.032138634 0.08464218 0.06474136 -0.07589152 -0.00968852 -0.020791521 -0.09127561 0.08443559 0.029111516 -0.082064025 0.020902421 0.047907732 0.11817615 -0.094193526 -0.18076615 0.10540877 0.06190992 0.11377945 -0.08777868 0.08788266 -0.0036096433 0.12359812 -0.019535754 0.047875393 -0.096714824 -0.0825417 0.006427944 0.117851876 0.100359276 0.15165026 0.07049831 -0.021049006 0.057289254 0.003485622 0.117455445 0.08091898 -0.13083628 -0.064378135 0.00721618
-0.08075022 0.014538096 -0.04262266 0.043959837 0.015755836 -0.039975923 0.0028942171 -0.11708348 -0.06528228 -0.10746513 0.07372829 0.06398527 -0.02144723 -0.0471719 -0.09054298 0.04921202 0.10146889 -0.08268713 0.033101898 -0.1292725 -0.09412405 -0.07203172 0.038824327 0.06845488 -0.0825291 0.07952979 0.0549136 -0.002536384 0.0027308348 -0.016754448 -0.08550768 0.12788168 -0.07134549 -0.10070651 0.09133339 -0.06731478 0.12850884 0.10248447 0.113572985 0.08847316 -0.011882845 0.093338534 -0.11023856 0.05571284 -0.085350886 0.06357549 -0.015251558 0.07193628 -0.013924741 0.0982215 -0.044870757 0.035714343 0.043573845 0.083831996 -0.064967826 -0.08720036 -0.079689234 0.0145694325 -0.02908598 -0.0920831 0.03656678 -0.09806869 0.03407534 -0.06893266 0.09663395 -0.04983333 -0.13523576 0.056421496 -0.13359118 -0.04904786 -0.106794365 -0.01118921 0.10437127 0.09787541 0.034625005 -0.101717785 -0.1023929 0.106093645 -0.059657834 -0.027715452 -0.116753094 -0.11757973 0.03719414 0.09440527 -0.073068045 -0.04814249 -0.13052447 -0.012791941 0.07581748 0.11517025 -0.11022003 0.08323919 0.13779548 0.009271686 -0.08013894 -0.013891552 0.0016309263 -0.092595324 0.0856261 0.073282726 -0.039092176 -0.01519202 -0.009639189 -0.04291402 0.13460426 -0.01699677 -0.04104403 -0.11090382 0.008606091 -0.12510592 0.020970076 -0.042142995 -0.09306768 0.092986085 -0.027764458 -0.010030708 -0.13709547 -0.0041575776 -0.119673036 0.08070844 -0.014833322 0.08534859 0.012801298 0.13741933 -0.009891663 -0.118292205 -0.13035618 -0.007416134 -0.064648 0.05943954 -0.09461771 0.064312585 0.12554052 -0.0506008 -0.13688561 0.08810289 -0.12745783 0.114071146 0.050323635 -0.09345698 -0.09566497 0.023831008 0.0766032 0.07499835 0.013325677 0.13572492 0.063540444 -0.058389954 0.018072475 -0.019409135 -0.048180964 -0.059334032 0.09591189 0.08192914 0.096700005 -0.15196 0.029778559 -0.12062695 -0.09961076 -0.10535128 -0.118229836 -0.051967062 0.053259153 0.05030999 0.009322086 -0.15074627 -0.024186598 -0.031868372
-0.08658688 -0.10302905 0.019825652 -0.019278228 -0.04391536 -0.09307776 0.080605604 -0.0838198 0.033876304 -0.088203005 -0.12487159 0.05530067 0.022186972 0.039875694 0.12071817 0.037166283 0.15025944 -0.0029089295 0.07660011 -0.042203706 0.07727591 0.0076076514 -0.11548758 -0.121039756 0.06431243 -0.01960407 0.06922211 -0.061331984 -0.05573415 -0.038736932 -0.16517662 0.056893293 0.057910055 -0.024882806 0.068585105 -0.0086809555 0.11766405 -0.08444547 -0.033579767 -0.12748225 0.033438705 0.04771033 -0.12396711 -0.15883979 0.07158256 -0.015551173 0.0056527853 -0.12140171 -0.08169946 0.005259974 0.013611583 0.12694006 0.004215737 0.11435634 0.03581627 -0.021770976 0.0579544 0.0064136153 0.040206343 -0.1071053 0.095631875 0.06191759 -0.04416329 0.042009063 -0.012344671 0.08637809 -0.043351457 -0.061792802 -0.043858092 -0.1265085 -0.04598992 0.15314876 0.12642297 0.035105474 0.08827024 0.13843125 -0.06722661 0.036245126 0.060777366 0.027275054 0.057020236 -0.061367705 0.044222202 0.09896127 -0.043527067 -0.17512034 -0.11856332 0.05347898 -0.01198355 0.113849595 0.025323583 0.026013175 -0.03238727 -0.055864498 0.13711333 -0.0028447986 0.15067725 -0.004249723 0.09977665 0.04710509 -0.018430894 0.09251716 -0.056060463 -0.049817193 -0.13891865 0.09188005 -0.020454383 0.017915731 0.119879656 -0.0037730434 0.08622535 0.027233053 -0.030485976 0.07736842 -0.1305395 0.04721171 -0.091528274 -0.058080617 0.1461586 -0.05502029 -0.040197954 -0.07769933 -0.0538643 0.018299023 0.060506582 0.07004017 0.02334034 0.013747578 0.11201578 -0.15873331 0.15713087 -0.06250759 -0.013051069 0.0998994 -0.0860173 0.013211994 0.042519838 0.020636406 -0.089677006 -0.15357818 0.110271126 -0.05712245 -0.11387306 0.12705499 -0.066656925 -0.0791091 -0.006311561 0.015084157 0.054125108 0.05059391 -0.031632937 -0.09068739 -0.0873769 0.0022065649 0.03051536 -0.0065837856 0.06617582 0.14609307 -0.047666248 0.10071997 -0.0022974028 0.112327196 0.034153905 0.043378856 -0.16885658 0.029861528 -0.1229558 0.006952013
0.095599234 -0.053675946 -0.061277773 0.025066514 0.06699717 -0.004340423 -0.033621136 -0.06692991 0.02153051 -0.11619969 0.01405213 -0.022225525 -0.0525687 -0.046854123 -0.00624758 -0.061530538 -0.1314787 -0.0094770985 0.031726122 -0.02555446 -0.098189674 0.036308415 -0.061331194 -0.025710117 0.12818466 -0.032633636 0.023857748 -0.05789519 0.064506784 0.12262172 -0.07656173 0.11378675 0.035693873 0.026016688 -0.10469302 0.11262575 -0.00500349 -0.010725961 -0.11085888 -0.096558265 0.06592499 -0.07159441 -0.07977594 0.05407537 0.026237398 -0.042593922 -0.1050331 0.13286139 0.10082242 0.07886237 -0.10678121 -0.011065632 0.00427308 -0.01488522 -0.1153159 -0.039935213 -0.023458537 0.026191678 -0.001460177 -0.068751976 -0.029870113 -0.07298227 -0.09542391 -0.09507807 0.04259684 0.05541837 0.07240987 -0.120288245 0.07074742 -0.09539964 0.04977957 0.07261303 -0.0038468575 -0.070043296 -0.022857783 0.029199347 -0.09696352 0.13695036 0.07266728 0.09694685 0.11078957 0.025883215 -0.064079024 -0.004553621 -0.036922976 0.06311462 -0.01814524 -0.08274826 0.06364853 -0.0050889216 -0.13252935 0.06536384 -0.1049545 -0.033773527 -0.011851785 0.1139178 -0.025412848 -0.07362208 -0.12322005 -0.06394065 0.04334498 0.07923683 -0.018989338 -0.0029956358 0.1196104 0.00448273 0.008113059 0.1382042 -0.12244193 -0.048824172 -0.035803784 0.13582666 -0.040970914 0.037345022 0.11854784 0.09312595 0.09331879 0.050130755 -0.051493745 -0.11367948 -0.109330006 -0.11396595 0.03704835 0.11281089 -0.04595733 0.0046821143 0.06706927 0.04400487 -0.13857234 0.12539148 0.0062132175 0.10477307 0.034910135 -0.1186847 0.031061312 0.124600105 -0.040106848 -0.14399451 -0.04916613 0.04137849 -0.0056127673 0.039609816 -0.009984641 0.10566655 0.111964114 0.042430412 0.045164894 0.0061542154 0.098082885 0.07024369 -0.0014736743 0.05550397 0.10872421 0.11177023 0.07623427 -0.07027427 -0.11653639 -0.08293578 0.055791277 -0.07533147 -0.020304205 0.043242216 -0.111539304 -0.018185737 -0.0830661 0.10561197 -0.011842913 0.07213454
-0.123861864 0.070112884 -0.1281418 0.07902006 -0.12745185 -0.07931583 0.09312994 0.079949446 0.044004507 0.003028753 -0.12999052 0.050472528 -0.10710902 -0.09895567 -0.07591191 0.0380909 0.08173654 0.104333855 -0.03524169 -0.0037137421 -0.07874757 -0.087997556 0.060861498 -0.09694191 0.076243505 -0.067238465 0.14017269 -0.041347582 0.010730914 0.04199175 0.11830949 -0.04503606 0.1087219 0.062664896 0.11639 0.005010099 0.0916483 0.13815214 0.043481406 0.098289326 -0.11118099 -0.045579195 -0.094114035 -0.09697999 0.076688774 -0.092421435 0.007992157 0.09047642 0.02281093 -0.047029685 -0.09213287 -0.013518869 -0.025937317 0.004041894 -0.09900229 -0.072577536 0.14260054 -0.030356148 0.033053357 0.0047607752 -0.06313561 0.04854674 0.08600812 0.08124466 0.09664424 -0.05794718 0.077477545 -0.0018521615 -0.0032666926 -0.06812257 -0.013108418 0.0016099471 -0.026940942 0.07335774 0.17029119 0.028783366 0.04843331 -0.02588375 -0.090138584 0.027621577 -0.070147164 0.117341615 0.051732495 -0.05837189 0.16024648 -0.12008598 -0.10632802 0.057690434 0.10758789 -0.07033169 0.004989104 0.034073472 0.12553005 -0.0953241 0.054482117 0.055149093 -0.031777766 0.054916766 0.15250239 0.068984956 -0.01984976 -0.072739184 -0.019181805 -0.031483598 -0.0053032152 0.020207735 0.09677963 0.11718678 -0.0137024205 0.073535405 0.06865834 -0.10459527 -0.061303716 0.13143145 0.06733341 -0.14113586 0.077601336 0.010109462 -0.059532247 0.063282534 0.058769714 -0.096341886 -0.042165346 0.049988806 0.0853392 0.016021412 0.031473193 -0.058613308 -0.08154316 -0.15102822 0.020607121 -0.0821742 -0.044285398 0.010323123 0.039169874 0.00024619926 0.1011028 -0.13835204 0.104289815 -0.039892923 0.077119686 -0.13147715 0.083554246 -0.019298237 0.03648275 -0.07346295 -0.0981265 -0.07682751 -0.1408732 -0.05294887 0.072726645 0.17843929 -0.08379419 0.099610835 0.04936521 -0.005966766 0.087948464 -0.11552037 0.065511875 0.07912294 -0.12247029 -0.0637363 0.062169466 0.015555039 -0.09987926 0.023884026 0.02036522 -0.10498958
-0.09744948 0.01265539 -0.031383514 -0.04836203 -0.019302676 0.05562522 -0.14030235 -0.10358726 -0.048105385 -0.07777725 0.033095382 -0.052926935 0.05839815 0.054532886 0.06608204 0.09315925 0.07339878 -0.06655018 -0.038143657 -0.103551924 -0.15501839 -0.14863867 -0.13839328 0.015566079 -0.022419339 0.044150293 -0.049157508 0.0059599574 -0.107955344 0.010995059 0.055239175 -0.039269343 -0.07074935 -0.09359518 0.08804767 0.073123224 -0.050971314 0.07694807 -0.12737204 -0.007827067 0.046907734 -0.10308368 0.19964795 0.03129963 -0.0247648 -0.0009588078 0.18986163 0.007874617 -0.04618575 -0.05911487 -0.059138075 -0.01914951 -0.116898365 0.044795506 0.0777973 -0.013919275 -0.007115187 0.0031015526 -0.045466047 0.05973074 -0.06749196 0.0075059324 -0.037593324 -0.0105453 0.009605673 0.066773616 0.06867104 0.14551681 -0.14993387 -0.0810693 -0.055460136 0.056054603 -0.02549631 -0.12186018 -0.15118445 -0.017000034 -0.15136348 0.020934371 -0.07482096 0.08000725 0.0007299136 -0.042307533 -0.1119265 0.045755193 0.076455615 0.06781802 0.07022577 0.08663944 0.05002789 -0.16263829 0.057312805 0.0020641428 -0.004615578 0.11074152 0.02286424 0.107770644 -0.017498333 0.0029679523 -0.08659985 0.018399976 -0.026222281 -0.13493957 0.08285311 -0.096530385 -0.070746064 -0.08102024 -0.03348465 0.004917863 0.0016026733 -0.054424293 0.07253467 0.091344215 0.010077947 -0.08267932 0.055306073 -0.081099994 -0.11100148 -0.062399916 -0.10444502 -0.076749414 -0.002038918 -0.04838335 -0.09480308 -0.006846181 -0.09516345 -0.031647243 0.11605554 -0.06789505 0.10024878 -0.029513938 -0.03856643 -0.015463757 0.055376776 -0.022193896 -0.12757309 -0.048817657 0.0059489706 0.004429295 0.06883309 0.017769689 -0.023107676 0.077949606 0.018702477 -0.08345951 0.010899837 0.03304871 -0.10847453 0.0018251298 -0.008025821 -0.044225384 0.04052965 0.11733178 0.06900846 0.006227458 0.08508339 0.045187492 0.009048538 0.00076208287 -0.03801751 0.013115775 -0.024290701 -0.13741209 0.11238337 0.012572354 0.1777156 0.12879671 0.02258861 -0.009930024
0.10669575 0.099662475 0.122059025 -0.10473112 0.04516597 -0.06040509 0.08294462 0.0099017 -0.04261894 -0.029664034 -0.08750658 -0.0631061 -0.043255743 -0.048902333 0.05077916 -0.03973629 -0.061196387 0.040755033 -0.02479293 0.050814655 -0.082146004 0.13412979 -0.08457969 -0.06299301 0.06503303 -0.091806866 -0.032135073 0.056574207 0.021219453 -0.14304525 0.096304886 -0.095598735 0.05427283 -0.054026186 -0.095276795 0.10140419 0.11168314 -0.11980727 0.13109563 -0.10494533 -0.04496665 -0.0802904 -0.09627304 0.095904455 0.030667966 -0.09592199 -0.056215163 0.00593003 0.026163833 -0.012313092 0.07178014 -0.0801142 0.0051478357 -0.11592401 -0.07591899 -0.032422263 -0.047904957 0.009925178 0.071906954 0.04307543 -0.09845761 -0.03683664 0.021625435 0.03335039 -0.021927442 -0.06808119 0.06791135 -0.005014903 0.14887895 -0.05738621 -0.039054748 -0.015917404 0.03687231 -0.11937534 -0.05203759 0.03378501 0.048531815 -0.032183558 -0.13081267 -0.10674611 -0.071871996 0.029751334 -0.08078714 -0.08177155 -0.10016738 0.066964716 -0.0069640344 0.043498367 0.018364182 0.095461346 -0.0027189862 -0.13676745 0.05583919 0.012529564 -0.03716182 0.013751399 0.018171852 0.039802417 -0.08985966 -0.1158606 -0.04367335 -0.04704443 -0.06821296 0.014716293 -0.13322769 -0.0061562974 0.09469507 -0.11889111 -0.057303753 0.11632203 0.056334816 0.057472486 0.08804435 -0.0699942 0.038138863 -0.015679784 0.07111502 -0.052843962 0.14196615 -0.015122876 -0.17278528 -0.112832926 0.059337217 0.13122866 -0.0016530333 0.05126763 0.0129018035 -0.085861936 0.084327295 -0.058974173 0.018980544 -0.09165644 -0.09802759 0.12343922 0.0555302 0.022234906 -0.062266402 0.07391634 -0.1047004 0.041816656 0.022302864 -0.019116297 -0.102549344 -0.08162226 0.11495053 0.04063498 -0.06095327 0.045427088 0.021579245 0.04081332 0.10997308 0.10351128 0.088222854 -0.050778784 -0.07273556 0.052438196 -0.057669073 -0.09456727 -0.08787387 0.0028450545 -0.018070122 0.14964524 0.08583735 -0.14811182 0.052375097 -0.096388094 -0.038330797 -0.10208384
0.18159217 0.06849086 0.0011879732 -0.17483096 0.05033955 -0.055745378 0.10554963 0.05157794 -0.015212832 -0.09199131 -0.0920245 0.05829329 0.010574162 0.036580775 0.04016648 -0.05220261 0.049279 0.07456572 0.08908211 0.15093748 -0.15250787 0.0431818 -0.19656216 -0.11706381 0.04229588 0.16934466 0.16916016 0.044122733 -0.11655676 -0.01529743 0.08117159 0.0404926 0.065792285 0.102543145 -0.09326126 -0.066374466 0.09053071 -0.014031985 -0.0036849899 0.055759955 0.053667866 0.033586316 0.024353612 -0.081887156 0.06921882 -0.061671484 0.0051980475 -0.110582925 0.11465572 -0.29024523 0.049010627 0.06431974 -0.16449836 -0.13686186 0.11960296 -0.1938135 0.10617678 0.019538105 0.138491 0.037905082 -0.045736287 -0.088912874 -0.12533337 0.105047956 -0.032041665 -0.030940846 -0.009777252 -0.02129483 0.11806837 -0.026002558 0.01419608 0.04853007 0.056510534 0.015583232 0.043735813 0.026177596 0.008175342 0.074606195 0.078332275 -0.0028964984 0.17984854 0.05818269 0.042560052 0.026708394 0.101199195 0.01233617 -0.12974925 0.06881381 0.12131385 0.046322126 -0.09300297 -0.052381985 -0.03441941 0.012593912 -0.091270156 0.12304666 -0.124769755 0.0020301302 -0.075587265 -0.025530642 -0.0013672921 0.20109856 0.042973403 0.0055530616 0.044754244 -0.075533785 0.092716075 0.057277307 -0.10353273 -0.16848469 0.0862929 -0.047946066 0.07402781 0.06522598 0.040599257 -0.032207225 -0.06921479 0.40311998 0.09332658 -0.11457535 -0.03047581 -0.13876924 0.053867444 -0.030464577 0.13765368 0.089209154 -0.07406759 -0.020811692 -0.024737725 -0.09275657 -0.08065001 0.07638873 -0.03640247 -0.032889828 -0.05965326 0.008241947 -0.03531647 -0.022001356 0.09618134 0.06867354 0.03935427 -0.031420514 0.03736907 0.08632064 -0.076818086 0.014071496 -0.067107946 0.04708134 0.048279278 -0.0955835 -0.10629375 0.045953207 -0.05799052 -0.20069943 0.04387863 -0.07114925 0.06697816 -0.10096769 -0.011102993 0.07899059 -0.03482681 -0.24308625 -0.04183728 -0.0032780156 0.008163706 0.15431711 -0.11161502 0.07460762
0.06815349 -0.06644783 0.080534115 -0.075686835 0.024522891 0.0902267 0.12134994 -0.12906474 -0.02264387 -0.106723085 0.06360219 -0.05184495 -0.0019251204 -0.1173407 -0.08428492 0.009430386 -0.06347317 0.16445944 0.02716245 -0.039007757 -0.013574995 0.067184485 -0.07919065 0.0010942577 0.02463567 -0.03861891 0.07566872 -0.037473958 0.01818653 -0.120394915 -0.07848496 0.012164599 -0.0017585456 0.039840154 0.049270652 0.0569704 0.0034292734 0.070966385 -0.06686569 0.050387602 0.15702043 -0.05032975 -0.009548369 0.06532045 -0.039977048 -0.03468435 -0.044924732 0.004951231 0.02389058 0.013406494 0.03697341 0.12833564 0.09832203 0.0024096195 0.023916174 0.057504855 0.088689774 -0.05691351 0.027372343 -0.16125911 0.010395629 -0.1498342 0.032492336 0.038783893 -0.005075395 0.052554835 -0.020437794 0.101231284 -0.07495025 0.038801182 -0.12132988 -0.078143544 -0.105185844 0.01471195 -0.09167004 0.09308712 0.14042158 0.06919626 0.08113932 -0.09463997 0.06374211 -0.025815122 -0.07811583 -0.100049004 -0.0043449304 0.024363382 0.105949916 -0.13319643 0.038922697 0.0731105 -0.099790595 0.1333133 -0.083418265 0.0656145 0.11654104 0.019053932 0.116075955 0.11227169 0.11882463 -0.054599423 0.019165797 -0.087334044 0.039237745 -0.08074307 0.07522737 0.025211815 0.09557866 -0.098876566 0.04024506 -0.13546817 0.0838169 0.057300616 -0.05805003 -0.054704938 -0.12809919 0.021610549 0.070592724 0.12308365 -0.1292582 -0.088984475 -0.14998206 -0.033531502 -0.05444528 0.05690033 -0.04781935 0.0010123391 0.10015395 -0.01268283 -0.034263223 0.018505616 -0.007022738 0.0792938 -0.091943465 -0.08744582 -0.119599134 0.06410765 0.031941723 -0.054297708 0.10538672 -0.0662452 0.049522888 0.09745849 0.06953053 0.047643833 -0.060400356 -0.021797694 -0.08640535 0.06326297 -0.029514832 0.022272978 -0.052393988 0.122548014 -0.108435474 0.029350583 0.052929226 -0.124496035 0.087971516 -0.032615136 -0.098163284 -0.07097205 -0.03763564 -0.052412264 -0.011959523 -0.037361406 -0.1179992 0.07316797 0.0010030217 0.04409099
0.13663884 0.04963214 0.0014841062 0.03372025 -0.09182074 0.057816397 -0.10389329 -0.12853679 0.10991657 0.118348785 0.040137783 0.06452713 -0.06889586 0.13899422 -0.047232866 -0.11087397 -0.02055633 0.08791322 0.024892703 0.07775745 -0.047889493 0.060012396 -0.048078716 -0.08332758 -0.00020659858 -0.11268948 -0.0011732458 -0.0039630523 0.051267657 0.06343959 -0.097722314 -0.090838075 0.0060326527 0.017095847 0.11078379 0.06411582 -0.056665927 -0.067266114 0.08443424 0.023576265 0.09088459 -0.13857716 0.10867618 -0.14215802 0.047442764 -0.049912166 0.01869114 -0.092920154 0.06933382 -0.005218879 0.10536649 -0.05303438 0.0023141054 0.11396081 -0.000574329 0.00060894707 -0.016126398 -0.08249763 -0.15255669 -0.07960191 0.011490621 0.12530082 0.05876827 0.08506654 0.029099425 0.07672428 0.09533751 -0.0052953563 -0.07553707 -0.07707928 -0.02679803 -0.1019799 -0.029866874 -0.10245833 -0.09192023 -0.01831548 -0.07441166 -0.0009707737 -0.0019935574 0.027060729 -0.09101758 0.07017207 -0.11059422 -0.09981689 0.06974545 0.07574946 -0.10877135 0.06455826 -0.022898456 -0.10175255 0.016852584 0.10386663 -0.08681417 -0.030887902 -0.05133554 -0.032137904 -0.01954384 -0.008338555 0.13113458 0.0044696806 -0.1272886 -0.11129482 -0.15131436 0.0013853434 0.10955862 -0.07785412 -0.009958714 -0.09433334 0.08695667 -0.03022384 -0.00075056724 0.02184474 0.058476847 -0.09337662 -0.08335064 0.10216926 -0.007950325 -0.3000731 0.086238846 0.050036673 -0.095264524 -0.063681446 0.09268288 0.0988172 -0.11045782 -0.100494854 -0.1292852 0.03007514 0.052929565 -0.032478325 -0.06209387 -0.016926447 -0.043703284 -0.09421445 0.104442574 0.011827216 -0.118480474 0.112086624 -0.09608902 0.044978075 0.09027038 0.08600289 0.13979034 0.009589515 0.04648043 -0.052409966 0.057475217 0.024018908 0.048611257 -0.019598732 -0.08890398 0.15927714 0.05566133 0.19286177 -0.038491916 -0.11138881 -0.098014176 -0.023769017 0.0031798168 -0.012764557 -0.016431816 -0.030703826 0.022016507 0.01540117 -0.0478816 -0.11330633 -0.15078057 -0.037223756
0.19488402 0.09550406 0.13542292 -0.15838557 0.009017087 0.024116797 0.08787689 0.1152225 -0.0807072 0.04274621 -0.07372428 -0.07956059 0.031680807 -0.011359059 -0.07295049 0.08505957 -0.0999063 -0.016832616 0.05505587 -0.012156694 -0.07778386 0.095535725 -0.055413622 -0.019147567 0.028774528 -0.041136675 -0.018210774 -0.004821046 -0.07918256 -0.0476175 0.00694009 -0.026204692 0.14410336 0.1320133 -0.07577545 0.051738128 -0.03133458 -0.076096274 0.16499873 -0.05173693 -0.08552129 0.053128917 0.043222066 0.12677275 -0.079677396 0.07174157 -0.034014802 -0.058063775 -0.06437603 0.08033886 -0.11064634 -0.0101576615 0.100291066 0.12961538 0.018774424 0.10389625 0.1387887 0.018128017 -0.06416671 -0.064193904 -0.10619884 0.11283935 0.20007497 0.09526847 0.0036730147 0.051578946 0.027361492 0.078256354 0.0036765437 -0.19006419 0.014745107 -0.09741838 0.1549232 0.12198576 0.067709915 -0.0037257976 0.034719866 0.019039927 0.013815327 -0.031836893 -0.111842364 -0.11702021 0.0005161669 -0.10868548 0.13221034 0.068035185 -0.03443214 0.043723267 0.118129 -0.048873372 -0.008746182 -0.14090864 0.068632334 -0.064186566 -0.07119567 -0.052208025 0.08269118 0.14398612 -0.054766115 -0.16302313 0.07292431 0.0035137085 -0.014914427 0.03908861 -0.048187926 0.016456122 -0.08227367 -0.13450412 0.13083322 -0.06940391 0.12854676 -0.041164458 -0.03068053 -0.084708095 -0.044129733 -0.022869335 0.02856128 -0.14871559 0.019452842 0.052023415 0.031465393 -0.17241354 0.17140615 0.13127153 -0.016306695 -0.18501478 -0.12723386 0.04296931 0.065625034 -0.19342305 0.073765226 0.07801681 -0.0997146 -0.11058181 0.0013074056 0.11218921 -0.005181613 0.058501907 0.05512437 -0.036537584 0.011183732 0.15796098 0.016766049 -0.0020004981 0.011550381 0.07148571 0.06318252 0.07448817 0.12033082 0.080159545 -0.107266285 0.0053176954 0.011403622 0.0723273 -0.16433084 0.13346119 -0.066704534 0.05416226 0.010239525 -0.049281456 0.016985465 -0.10873978 0.13246605 0.035003327 0.028200317 -0.105844565 -0.07369099 -0.11215928
-0.031462718 0.010624208 0.03985836 0.08138223 -0.06781662 0.114434786 -0.038329605 -0.11796037 0.001426677 -0.08104057 -0.070475355 0.006586012 0.14928785 0.04705895 -0.09358 0.14040692 -0.029993784 -0.08773398 0.02493811 0.14153214 0.06343393 -0.041653406 -0.14531018 -0.012481262 -0.08067283 0.076606125 -0.09720336 -0.09380587 -0.072661944 0.0964063 -0.074127965 0.048708715 0.0914928 -0.0601866 -0.06983576 -0.07200884 -0.0134961195 -0.10815523 -0.049246952 -0.04952989 -0.028470583 -0.06300785 0.056226417 -0.06300353 0.054412752 0.049086045 -0.06973644 -0.0757249 0.0018957483 -0.09435181 0.043985505 -0.028204547 -0.10495141 0.1412644 0.008314246 0.16495635 0.0154271545 -0.14023395 0.06547863 0.06901274 -0.02994285 -0.09354709 -0.10935542 0.07812769 0.13655087 0.057376858 0.067767195 -0.09452202 -0.10689461 -0.119994 -0.13289191 0.11943629 0.045122165 0.08548737 -0.0136478925 0.13721235 -0.034613352 0.021155372 0.06544478 0.11231319 0.059408978 -0.034526635 -0.10638902 0.13327579 0.024480605 0.016386237 0.1288543 -0.04793501 -0.1327685 0.057692233 -0.034591883 0.08873598 -0.04975986 -0.05383453 -0.034480006 -0.04210662 -0.014318356 -0.09406964 -0.11218488 -0.042378277 -0.02150386 -0.09681375 -0.09605494 0.09797546 -0.08229975 -0.113344386 -0.05710027 -0.13063554 0.099056855 -0.018938107 -0.071003914 0.1005755 0.10661242 0.06745367 -0.07169329 0.055802364 -0.08154571 -0.13911158 -0.06505787 0.05285624 0.14680603 -0.05844946 -0.074390166 -0.08524472 0.041038644 0.04844989 -0.013273392 0.033378914 0.10344258 -0.04106654 0.02895085 0.014567443 0.092254914 -0.08041105 0.13850568 -0.075769484 -0.0425016 0.005152734 -0.11832136 0.12493497 0.05596451 -0.0628266 0.023804642 0.098894924 0.051612545 -0.039458778 0.037766736 0.093952835 -0.009266369 0.12052567 -0.033861328 0.04284615 -0.05093904 -0.07678066 -0.11039552 0.0179232 0.024835804 -0.045848504 -0.09434788 -0.0195823 0.040668778 -0.14100698 -0.083827704 0.080482535 0.049368545 0.055095665 0.007798306 0.10744082
-0.037496563 -0.053044647 0.056915082 -0.021221139 0.06723228 0.009122759 -0.012714068 -0.01735188 0.13502389 -0.020229893 0.016984088 0.0604393 -0.057224087 -0.10282738 0.075787455 -0.12039082 0.008540184 0.21429464 -0.077520944 -0.11327483 -0.03280986 0.0984775 0.08604247 0.05081687 0.18042174 -0.19068246 -0.18189156 0.12952533 0.1482276 -0.05500071 -0.11670491 0.10715043 0.062391598 -0.056091875 -0.039530355 0.007703053 -0.127327 -0.020234952 0.08784345 0.044405043 0.1847991 0.037873883 0.12144481 0.1559625 -0.045009263 0.11405176 0.009186044 0.00037737115 0.030417955 0.06418428 0.04142043 -0.060188007 -0.014264313 0.13829403 0.054978017 0.1476944 -0.09926403 0.023286372 -0.1798937 -0.064565614 0.032513227 -0.05478006 0.0076639894 0.027408976 0.050368674 -0.029321056 0.105835065 0.17547232 -0.099235535 0.08182602 0.07206419 -0.055551235 0.05152483 0.17849767 -0.002979573 0.0031086795 0.15044211 0.07342055 0.12888813 0.12178019 -0.034392998 -0.052590992 -0.11689827 0.027490882 -0.06900601 -0.0832059 0.04847931 -0.01567166 -0.006797164 -0.09866293 0.0056458954 -0.030546455 -0.041572064 0.021024123 -0.13761982 -0.074645706 -0.06266964 -0.011196318 -0.002202409 0.018774206 -0.10072695 -0.019438505 -0.005196501 -0.022103235 -0.03630698 -0.08861228 0.04494457 0.015304585 -0.09695136 0.002110813 0.103855535 0.015452187 -0.0042970353 -0.04188469 -0.059039537 -0.044482157 -0.05656984 -0.15835905 -0.087391905 -0.020043703 0.12697831 0.080876194 0.05724954 0.023724759 -0.086656176 -0.107848056 0.0770675 -0.11398334 0.004783501 -0.08423532 0.027823457 -0.120989524 -0.03700066 0.10286768 -0.11088619 0.1909327 -0.0361807 0.07300914 -0.1351794 0.049342923 -0.15656434 0.0909455 0.108604826 -0.014117243 -0.055026866 -0.12795302 0.06915105 -0.03923369 0.059635215 -0.0014943836 -0.025341729 0.05841885 -0.04985408 0.032055438 0.067897834 -0.15687172 -0.10558221 -0.010251803 -0.15697092 0.05429105 0.068853445 0.013321702 0.14809182 0.05767969 0.06433928 -0.12310539 0.024618551 -0.12617561
-0.09292026 0.046410102 0.016544506 0.05387403 0.08489618 0.067505956 -0.10284817 0.04781423 -0.04515779 0.1232946 0.080099314 -0.071740784 -0.00036245212 0.11955834 -0.06845187 -0.10699462 -0.1009757 0.05229241 -0.03703283 -0.060652666 0.04205757 0.028564515 -0.093031615 0.086741656 0.052067745 -0.01831732 0.0711043 0.024696171 -0.05437894 -0.051231336 0.0961478 -0.03770715 0.02551926 -0.05448295 -0.07993173 0.12749544 -0.10472806 0.03656453 0.048744265 0.054338418 0.048902236 0.09071213 0.037249107 -0.07505643 -0.1235968 -0.07463366 -0.11838725 -0.08009524 -0.025897847 -0.047862273 0.015327852 0.004250614 0.029872222 -0.0041661006 0.032047115 -0.08972141 0.08876239 0.12878756 0.05635207 0.062389005 -0.028566392 -0.06898147 0.028066501 0.08551753 0.10554778 -0.008720709 0.052366063 -0.10694157 0.0459896 -0.026740694 0.048486616 0.043267217 -0.10401888 -0.09746616 0.035968456 0.06551695 0.052294493 -0.04667892 -0.098122045 0.018886479 -0.12588146 -0.06772056 0.05306057 0.054624278 0.097844854 -0.11395006 -0.0157524 0.12267831 -0.01622287 -0.10644582 -0.037728775 0.1700695 -0.06660713 0.004180319 -0.099487565 -0.028778868 -0.09284023 -0.096521705 -0.017668037 0.08578622 -0.12091991 0.0377345 0.0958701 0.038807463 0.09802755 0.05276429 0.1264776 0.031096665 0.05982988 0.10830544 -0.04326539 -0.127073 -0.012907443 0.07398909 0.060029224 -0.12951368 0.01768324 -0.050604865 0.060497526 -0.035065107 -0.08233125 0.06740591 0.03058268 0.07996021 -0.026335135 -0.072202936 0.030401634 -0.008989934 0.05822167 0.050323457 -0.027025767 0.14903338 0.0012280102 -0.048308697 0.024769757 0.090620466 -0.12700996 0.0041077933 0.05496165 0.10551349 -0.052890074 0.06440947 0.10534102 -0.044814758 -0.11319218 0.08636379 0.07331858 -0.06251501 0.12139103 -0.0010611365 -0.08952151 -0.06598691 0.033396848 -0.119668104 -0.09429732 0.0028165868 -0.048491374 0.0065907743 0.044204522 0.12222805 0.071222425 -0.18564512 -0.064622425 -0.0568108 0.01909203 -0.07335396 0.10351656 -0.013914498
0.14415486 -0.045768883 0.11800099 0.0532537 0.1842205 -0.03023939 0.0069674156 0.06676397 -0.07254488 -0.019814841 0.02309318 -0.104751185 -0.078466535 -0.053202774 0.07422428 -0.17535752 0.037926253 0.04154071 -0.07033578 -0.1384904 -0.0789874 0.04370596 -0.011435652 0.08261596 -0.078629054 0.16269653 0.091230616 0.037612975 0.023902828 -0.04244697 -0.086934336 -0.03077433 -0.14106181 -0.1337431 0.13906845 -0.056465153 -0.014961328 0.033243287 -0.11117001 -0.098506026 0.026112664 0.17559513 -0.18920197 0.0858229 -0.07427417 0.10359866 -0.031118128 -0.05727072 0.062901735 -0.062443826 0.004558788 0.08484012 0.20225278 0.041716967 0.14986293 -0.080449216 -0.014330831 -0.07985087 -0.049203724 -0.23707108 0.026314385 -0.0389637 -0.034949854 -0.010301623 0.10941564 0.069848634 -0.025588673 0.042693034 -0.009700066 -0.01308246 -0.0011757802 0.06258555 0.064755574 -0.04432333 -0.05854428 0.08073103 0.09100016 -0.02473228 -0.022749329 0.09943034 -0.13047555 -0.096112505 -0.13610621 0.0687969 -0.049736936 -0.077140234 -0.08275383 -0.024642095 0.11528576 0.033245407 -0.04175589 0.1593183 -0.013030757 -0.024095172 0.0007732747 -0.14908646 -0.026537953 -0.10962774 0.14008476 -0.045917053 -0.11520446 -0.19194622 -0.06828547 0.12942941 -0.094551 -0.020628504 -0.04059303 0.07569009 0.0028160526 -0.0030397726 0.12667464 0.09563235 -0.016034968 0.053232715 0.042411838 0.09983196 0.09411568 -0.19248955 -0.1054798 0.0108005 0.019356653 0.017590435 0.12672989 -0.045794073 0.10962961 -0.11723217 0.14960822 0.07748335 0.15108359 0.042732973 0.029741166 0.073984206 -0.018821439 -0.08869455 -0.00809424 -0.011079866 -0.07458236 0.094668634 -0.096865006 -0.07257466 0.009150102 -0.03754284 0.09665381 0.13409618 -0.059235383 0.08891964 0.082816444 -0.028201649 0.017507166 -0.11241696 0.12917346 0.12962337 0.05521644 0.09466739 0.049423095 -0.15685026 -0.11200361 0.059413258 -0.06272895 -0.10431052 0.04046864 -0.26303104 0.03683632 -0.07339371 0.0020106183 0.061125007 -0.061295416 -0.12777923
-0.082189895 -0.031726126 -0.0031525323 0.15518095 -0.110238925 -0.06961842 0.098493636 -0.011794704 -0.08685509 -0.074872814 -0.073166125 0.108580604 0.04298387 0.09377202 -0.0069368435 0.17563304 0.103471994 -0.09309291 -0.0008933102 0.040541213 -0.115475655 -0.06546688 0.049026467 0.06805107 -0.14709373 -0.044430546 -0.09472266 -0.057434946 -0.08453499 -0.06968017 -0.010395524 -0.046238903 -0.013031094 -0.01346161 0.099944554 0.09028986 -0.14162868 0.072164774 0.105074696 -0.09993956 0.12032224 0.02266505 0.07205403 0.019216849 -0.1114108 -0.071165375 0.0013076862 0.06541394 -0.035014037 -0.085844114 -0.07294806 -0.10903438 -0.12969528 -0.026785837 0.10667432 0.069548845 -0.010932078 0.08443751 0.03673841 -0.043751046 0.027574772 -0.134418 0.11438736 -0.07847236 0.036234856 -0.031291056 -0.067975126 0.07266654 0.031142265 -0.051565852 -0.064356096 -0.03423702 0.072415754 0.123549744 -0.0038220428 0.05652078 -0.06730519 0.09065875 0.05819202 0.07143519 -0.051497903 0.06776884 0.10877159 -0.10035262 -0.097684 -0.123749405 0.034727875 -0.077499434 0.051490113 -0.055313203 -0.094967976 0.00913527 -0.11291213 0.04941141 -0.062207494 -0.027540741 0.04316287 -0.042260997 0.08278929 -0.02050708 0.03166164 -0.06854663 -0.087573655 0.047739808 -0.11634072 -0.12903914 -0.04431995 0.10251187 0.061164584 -0.13639309 -0.08837055 -0.036755055 -0.09420858 0.052984 -0.11187477 -0.058825828 -0.08081889 -0.014691198 0.13221703 0.034943927 0.00069375796 0.051854502 0.1476405 -0.0615314 -0.13789283 0.09794269 0.0018455413 0.057264574 -0.10695132 0.02226029 -0.092915416 0.0042695827 0.10938181 0.096194826 0.0013263599 -0.015318613 0.034097698 -0.056014393 0.07360756 -0.09459324 -0.06794479 0.0349387 0.13024795 -0.1016558 -0.031074677 -0.032790836 0.017148113 0.02584411 -0.028164113 -0.064726494 -0.06428092 -0.13012427 0.03770281 0.03829106 0.12428115 0.06123384 0.04865062 -0.087024204 0.102949224 -0.059401147 0.023665689 0.11954325 0.050664235 -0.073939316 -0.090270266 -0.08184291 0.11649462 0.11956829
0.09971409 -0.08276054 -0.08788866 0.0778531 -0.06418378 0.07872228 -0.065348774 -0.12983733 -0.035297602 0.07755196 -0.07365229 -0.058569063 -0.05172572 0.032691617 -0.0705838 0.106350176 -0.044066068 0.037071865 -0.1138309 -0.12244251 0.1280581 0.12529962 -0.014614809 -0.017054338 0.089498 0.042406388 0.06888906 0.021800801 -0.088812985 0.016169341 0.054878637 -0.0115317805 0.06584023 -0.12758082 0.09431832 -0.03883938 -0.120723076 -0.07266907 -0.056783233 0.086293206 -0.1367794 0.016905436 0.046807703 -0.1284789 -0.12641542 0.0907631 0.04883612 -0.01286013 -0.07475752 -0.05742074 0.09376509 0.100834355 0.046316825 -0.033876024 -0.06646084 0.020337757 0.00294252 -0.11441791 -0.08358898 0.08683513 -0.13808762 -0.093507975 -0.17023389 0.028120462 -0.024441333 0.083200425 -0.01769022 0.012740857 0.02854733 0.09768255 0.13954173 -0.03256703 0.039544657 -0.051085114 0.0808252 0.007172266 0.049305957 -0.03202837 0.09919912 -0.11167306 -0.06673798 0.014769813 0.06767633 -0.08021358 0.071341604 -0.030216655 -0.11692069 -0.019730827 -0.048272677 0.0993392 0.06983954 0.099065885 -0.0074040424 -0.0454718 0.07402389 0.06629828 0.04301546 0.013648535 -0.035878032 0.0013585277 0.04800816 -0.026002463 0.07376595 0.030581597 0.10985388 0.1169244 -0.0061522336 -0.020124374 0.12464244 0.10115944 0.04578315 -0.010400511 0.0019986152 -0.023818418 0.009347052 -0.16170263 -0.08690543 0.04634035 -0.10308269 0.10056167 -0.081788965 0.06625185 0.022001244 0.007246933 0.018717818 -0.085714035 -0.033664014 -0.023119032 -0.10767878 0.0058900644 -0.06826814 -0.10299837 0.046349347 -0.031540588 -0.0030715233 0.18579118 0.12807828 -0.06759017 -0.12676607 0.07845688 -0.0048850575 -0.12509921 0.11100872 -0.10026487 0.06880974 0.124832705 0.13606465 -0.059378315 0.11578424 -0.03958772 -0.079338826 -0.030442392 0.051361777 -0.049599558 0.05857401 0.10331174 -0.026808107 -0.058562554 0.017793845 -0.00229257 0.115861624 0.051200688 -0.12315237 0.05563705 0.10753118 -0.017544704 0.05215469 0.08617867
0.105054446 -0.08666094 0.096538045 -0.0905683 0.036060184 0.12720725 0.17313536 -0.10536607 -0.02601635 0.022877252 0.11326912 -0.13954999 0.10034464 0.019112404 0.13654149 -0.047624163 -0.012025929 0.06525706 0.061725546 0.004537431 0.0614682 -0.10728218 -0.12399899 0.020067945 0.11180534 -0.086914755 -0.065104276 -0.037395075 -0.014209323 -0.13238297 0.080385976 -0.0179066 -0.061331972 0.08291771 0.015275848 0.12012184 -0.06464239 -0.061123762 -0.1781975 -0.1507051 0.07846866 -0.0965657 -0.01625811 -0.07953278 -0.05548506 0.08007983 0.036438752 -0.113713115 -0.09674446 -0.03076907 -0.09737185 0.0006578256 -0.10920324 0.07398976 0.07639292 0.05000636 0.040025983 -0.10179685 -0.08412054 -0.010765081 0.04694936 -0.022711324 -0.11996444 0.03860185 0.12196602 -0.016609712 0.12363967 0.084987015 -0.06715203 -0.09198898 0.07467818 0.0804961 0.07735419 -0.013435517 -0.05600497 0.0483714 -0.15576708 -0.06053751 -0.073283136 -0.09113678 0.0018095867 0.10483593 -0.054063622 0.06804895 -0.0064031743 0.02422719 -0.13247763 -0.07266419 0.024781339 0.021370156 0.050898954 -0.124459624 -0.003398186 0.040781807 -0.08187037 0.096958734 0.14473978 0.014854816 -0.0033578977 0.099518545 -0.032514084 -0.0004941495 0.028303921 0.010139564 0.015848504 0.073055625 -0.004047853 0.043465093 -0.042493682 -0.09185082 -0.13356209 0.025089612 0.08300779 -0.05121075 0.02536791 0.061367724 -0.0043129344 0.02247668 0.08559039 -0.1363231 -0.21276008 0.12745766 -0.00479357 0.060040265 0.04241716 -0.07498088 -0.031013293 0.086671874 0.060582314 0.10253975 -0.04273538 -0.095666364 -0.055036914 0.05216125 -0.07451439 -0.017921945 -0.022758184 -0.088873915 0.09607928 -0.021534422 0.0058189803 0.14297225 -0.06051611 -0.06544684 -0.04400047 -0.053563245 -0.089483805 0.024358427 0.010625483 0.06959052 0.13186501 0.021658089 0.12833779 -0.07128993 -0.021781977 -0.0928881 -0.08112583 0.09478744 -0.13431019 0.006680194 0.022469524 -0.07249845 -0.027774615 -0.033812642 -0.12404543 -0.089347295 -0.10737396 0.043477207
-0.06467415 0.048029978 -0.121112585 0.15047874 0.13296431 0.116720445 -0.0020976877 0.12062191 -0.09579208 -0.004562595 0.03363064 0.041490305 0.0689529 -0.012062528 -0.025652325 -0.032692503 0.06778825 -0.12436657 0.063171186 -0.07901479 0.10275734 0.10821816 -0.128271 0.009105033 0.12169983 0.036365025 -0.014509693 -0.011667929 -0.057885613 0.034125526 0.009518235 -0.0855935 -0.07604409 -0.054222092 0.1146932 -0.075079106 0.06838425 -0.09428638 -0.13231106 -0.14127026 -0.01751736 -0.05739645 -0.059234265 0.064037964 0.0879883 0.0717763 0.058988318 0.041572183 -0.019078283 0.0003389863 0.019266976 -0.13467704 -0.0717595 0.14388084 -0.12798685 0.054559547 -0.04853182 -0.07322967 -0.06927032 0.055286065 0.16598246 0.08076651 -0.047435474 0.036950093 -0.0831144 0.08850203 0.02388563 0.089269154 0.013196114 -0.05138014 -0.047672216 0.008925113 0.07373261 0.023861993 0.124506496 0.0122197 -0.068664886 0.106652856 0.03477811 0.06575254 -0.004603259 -0.17359757 -0.0027094097 -0.060835995 -0.04985256 0.05166423 -0.072180726 0.044831175 -0.11348253 0.06756138 0.03229779 0.06371376 -0.022236168 -0.08873723 0.11528547 -0.083764344 -0.053295985 -0.094075024 -0.10595365 0.09554733 -0.031217506 -0.050599914 -0.10451391 -0.09037372 -0.054596495 -0.12263106 -0.036211137 0.104994744 -0.12475535 0.023616858 -0.02243309 -0.031610005 -0.03531685 -0.086258635 -0.08452961 -0.005384627 -0.014802195 -0.70958686 0.04254301 -0.034693517 -0.12301101 0.014501457 -0.046155564 -0.10788758 -0.0075557726 0.035681747 -0.0140134785 0.18786684 0.004284754 0.023074104 -0.083694786 -0.0572808 -0.18725798 -0.16620916 0.08110715 -0.20895728 -0.027505325 0.1412791 -0.057925057 0.041542307 0.028335974 -0.12083415 0.120173074 0.11813743 0.0040086885 0.068105236 -0.12365379 -0.005403784 -0.03874195 -0.050508816 -0.1227526 -0.047087856 -0.110246606 -0.06170865 0.11203698 -0.059822842 -0.039110932 -0.07537527 0.07391046 0.026620742 0.068125986 0.0047654477 0.108985975 -0.09326494 -0.062152125 0.018940557 -0.016775358 -0.12014307
-0.08118415 -0.024049144 -0.087977886 -0.16685149 0.030699188 -0.003560687 0.089477934 0.0182042 0.0611318 -0.030616688 0.006749106 0.038957197 0.12958954 -0.0853972 0.11614365 0.030413778 0.08373702 0.12541834 0.06230875 0.11157275 0.021349471 -0.051457554 -0.08127681 0.113670334 0.10931369 -0.090109706 0.14507477 -0.03415278 0.11920025 -0.12843943 0.13509458 -0.0003674817 0.09782909 0.08721718 0.038297746 -0.14396992 0.057150185 0.033940274 -0.08733714 0.1221377 -0.09097725 -0.0052246084 0.09892386 0.06060836 -0.03181349 -0.1322811 0.039681938 -0.15108852 0.037745904 -0.06484545 0.10320461 0.04522797 -0.16780818 0.071536675 0.0020569882 0.04521746 -0.10700123 -0.12682374 -0.07465592 0.108796395 0.025455728 -0.022963945 -0.024276726 -0.07480782 -0.08231589 -0.06011995 0.047417708 -0.018784722 0.086705424 -0.022583904 -0.058794327 0.054460738 0.1020729 0.07087197 -0.10712807 0.069672786 -0.11681379 -0.11868793 0.026534421 -0.03387373 0.1838477 -0.11521172 -0.059238184 0.00492197 -0.056797948 -0.094147354 0.010233882 -0.074369684 0.014119802 0.08225565 -0.015050385 -0.14872684 0.03503676 0.041415058 -0.05390627 -0.103625074 -0.037961148 0.08473028 -0.12312541 0.041086577 0.0536512 -0.05365858 0.0063239243 0.03471196 0.0676724 0.07246599 -0.096042685 -0.08016909 0.12802032 0.119581304 0.102590956 -0.020765617 0.093292825 0.08941008 0.010576436 0.09081856 -0.08118835 0.0230929 0.11605063 0.08886239 0.12535563 -0.093616314 -0.0939086 -0.13248125 0.10035828 0.013790109 0.038907886 0.094779156 -0.015493665 -0.066837326 -0.01674184 -0.10732375 -0.005767602 0.07546943 -0.04833781 0.04929724 0.11107289 -0.1190497 0.067754984 0.09470281 0.014864109 -0.10553389 -0.052142445 0.024309032 0.09913798 -0.13455506 0.12190346 0.008827977 0.07608228 -0.07386694 0.06696572 -0.07040177 -0.058262046 -0.10629819 -0.10157437 0.13240977 0.08474206 -0.115149245 -0.06040532 0.08420732 0.069963716 -0.07469751 -0.08280771 -0.050015427 0.038222957 -0.08041492 -0.14165214 0.11417543
-0.13399555 0.01678029 0.07367928 0.0043121744 0.08600079 -0.07899149 -0.026757393 0.09028113 0.016921641 0.09162344 -0.098565355 -0.1060455 -0.08270661 -0.06971427 0.09795576 0.0769021 -0.059594918 0.032400772 0.07214286 -0.004056242 0.12390923 -0.008905327 -0.021049822 0.121778816 0.072548404 0.007619489 -0.059648078 0.09203281 0.13992165 0.1433532 -0.0822811 -0.06849851 0.010021429 0.017468285 -0.04211732 0.07884147 -0.079929166 -0.09499379 -0.07237155 -0.06750803 -0.11891261 0.08261327 0.05810215 0.061976817 -0.095838636 0.02370963 0.054432627 -0.09883696 -0.05034769 0.09086046 -0.055055775 0.07644493 -0.022212267 -0.08380037 0.100935526 0.10101047 0.073450856 0.07116601 0.11125624 0.097507544 -0.07904709 -0.090997025 0.028623926 0.045123797 0.076233394 -0.079181805 0.08524106 0.028303951 -0.025096163 0.039471176 -0.0065625985 -0.061333627 -0.11916641 0.1084683 -0.006631084 -0.04055202 0.0014504972 -0.08079053 0.062135875 -0.016890723 -0.022979265 -0.034050137 0.0431626 0.10429342 0.060710244 0.07773442 0.11925007 -0.13643223 0.01112801 -0.005624843 0.079623654 -0.0621168 -0.023955358 0.030825594 -0.0026420546 -0.041270986 0.015554294 -0.036593206 0.10389472 0.113261595 0.06389775 -0.027269736 0.037052035 0.07555188 -0.11124147 0.037438285 0.019928547 -0.12526807 -0.021753026 0.027251337 -0.02011986 0.035332132 0.049516812 0.103084035 0.08027602 0.008108997 0.09281993 -0.015969543 -0.12324443 0.10048723 0.00953101 0.0850084 0.019845964 -0.025140408 -0.07364082 0.114858545 0.113166936 -0.026215916 -0.08543403 -0.04059915 0.02053921 -0.034953874 -0.10902557 -0.018675582 0.0056775706 -0.13665137 -0.120883755 -0.12027555 -0.09629117 0.069626845 0.11095531 -0.00864552 -0.021842206 0.08457707 -0.022836274 -0.09836529 0.0725147 0.024956994 -0.0074332138 -0.06448101 0.10312831 0.08461984 -0.025259687 -0.048146166 -0.11260065 -0.04044807 -0.11524489 0.04807495 -0.016070358 0.023085589 -0.034580942 0.091681674 -0.014936034 -0.09833404 0.013499338 -0.08300915 0.085650906 0.11321514
-0.08244341 -0.05584415 0.0732134 -0.024388207 0.13694853 0.10307664 -0.08433109 -0.10085121 0.021661814 0.10835564 0.11708359 -0.05017788 -0.03588132 -0.06186758 -0.017196981 0.0037467072 0.06272625 -0.021209635 0.07986261 0.05824971 0.06826692 0.009859995 -0.12834783 0.08887294 0.08992162 -0.116883814 0.057704113 0.0022080524 0.11404249 0.05490657 -0.07276747 -0.12792301 0.0509207 0.005354548 -0.038333457 0.0021489346 0.025737174 0.059610784 -0.0010996984 -0.08294676 0.0035282301 -0.077876635 0.06561045 0.059164137 0.10941635 -0.09746594 0.031783447 -0.04034448 0.0758686 0.09650949 1.622508e-05 -0.02759748 -0.09878578 0.039338384 0.031871043 -0.021669311 -0.071077175 0.02895932 -0.04768851 0.047619823 -0.11395162 0.103660844 -0.03519236 -0.059779283 0.11128032 -0.127586 0.045789402 0.03192821 -0.10670969 -0.0808009 0.05170057 0.09733157 -0.003969325 0.083570115 0.062473916 -0.021405403 -0.10891765 0.09873674 -0.110461004 0.036008205 -0.03751516 -0.07910173 0.09104826 -0.058125477 0.054832626 0.102998726 0.095657445 0.09407296 -0.05037113 -0.02929532 -0.10818429 0.10456527 0.040265467 0.04360899 0.014573986 -0.10962083 -0.034374908 -0.08500404 -0.058602978 -0.094931595 0.054627623 -0.07745021 -0.10076439 0.10402519 -0.08925822 -0.11662479 -0.054050818 0.081766695 0.07840241 0.110082686 -0.095564805 0.03555244 0.13569993 -0.112637945 -0.081928216 0.060092393 0.014835065 -0.009185124 0.07732238 0.08228031 -0.052528135 0.11376866 -0.1085202 0.13239598 0.013799172 0.10275203 -0.000309866 0.11949113 0.029786592 -0.013486316 0.04686228 0.07004589 0.013484769 0.0070977164 0.10420375 -0.010742806 0.010153698 0.08641784 -0.068071134 -0.10595928 -0.06429074 0.07402052 -0.101712875 -0.11257288 0.14278416 -0.030273613 -0.08961005 -0.06423889 -0.12070118 -0.036769364 0.10608179 -0.016100906 -0.12513985 -0.01113574 0.120349966 0.0039528287 -0.112791985 0.051755257 -0.0954746 -0.069569975 0.114856936 -0.047982384 0.07081853 -0.0059997686 0.05220595 -0.04565201 -0.12273355 0.12728481
0.05462739 -0.115057975 0.08432322 0.055098124 -0.08409101 0.026589615 -0.023095999 0.039698787 -0.14221177 0.045677193 -0.052697442 0.09419942 -0.02729597 -0.06533418 -0.1317447 -0.01707975 -0.006705899 -0.0660641 0.072016455 0.071974166 -0.019853676 0.022776607 0.0026341255 0.024439896 -0.08792854 0.017947154 -0.15645407 0.008343218 0.06006821 0.13615951 -0.066560894 -0.053677537 -0.083225675 -0.059964262 -0.06562765 0.02468798 -0.061826117 -0.047168616 -0.073315345 -0.14220816 0.16433509 0.059633672 0.10201274 0.08255438 0.09446333 -0.104047254 0.078484245 -0.012633906 -0.03775163 -0.14887847 0.03554562 0.044889975 -0.09853572 0.09279023 0.13665238 0.027907498 -0.03072728 0.07314051 -0.03052413 0.12264437 -0.05058995 -0.012142601 -0.000636189 0.06378618 0.027478874 -0.13887204 -0.04629228 -0.13537061 0.102624506 0.121897645 -0.004736302 -0.04586393 0.10264446 0.027973477 -0.122466594 0.04989146 0.025448434 -0.13248323 -0.0931134 -0.14179581 -0.1531894 0.0054269577 -0.108893216 0.028317401 -0.124490105 -0.08889844 0.06497505 -0.10052038 -0.031367682 -0.035340864 0.019297821 0.02684045 -0.080503434 -0.03309948 0.03492254 -0.15322034 -0.11570912 0.07397687 0.012489394 0.032605525 0.10710507 0.017550053 0.049636733 0.024651267 0.099598505 0.082090855 0.07284951 -0.02492445 0.052835662 -0.09874358 0.08616504 0.00057588716 -0.03242899 0.0479959 0.09098418 -0.037834536 0.10160311 -0.08207625 -0.05181334 0.1302867 -0.10437672 0.06920432 0.0029845398 0.036477707 -0.060067527 -0.08494006 -0.09826779 0.010270748 0.061769295 0.066978365 0.12987104 -0.035548165 0.017682493 0.07899303 0.13649566 0.034322355 0.06370312 -0.064394526 0.010585335 -0.023103056 0.081970885 0.051040024 -0.07418818 0.0017256729 -0.022865536 -0.098615676 0.11088297 0.13056765 0.06784806 0.08741687 0.07441131 -0.18052588 0.10327684 0.101608746 -0.024439946 0.08791185 0.0341563 0.012655364 0.046848834 0.09221352 0.017463757 0.007467562 -0.0014707875 -0.021486785 -0.031966623 0.087602496 0.1209595 -0.12413988
0.029822016 -0.10362904 0.03024636 0.05458381 -0.022543278 -0.1820381 0.12586524 0.06173478 0.0017858981 0.023420844 -0.07273624 0.025163572 -0.09958858 -0.009656135 0.075876184 -0.0720417 0.06448527 -0.06802134 -0.115420885 0.06964808 -0.105527595 -0.13020748 -0.09661544 -0.037809763 -0.0810254 0.01334911 0.111514404 -0.030970154 -0.13050202 0.02675974 0.14519481 0.04674483 -0.09783626 -0.024374507 -0.054866243 0.03545312 0.104978666 0.024502032 -0.10114483 -0.12740947 -0.057771403 0.059391018 -0.076715365 -0.049450707 0.1563962 0.017150482 -0.11612685 -0.0019701954 -0.10493258 -0.11271699 -0.028704088 0.08723526 0.0744035 -0.09729758 0.07506677 -0.066028416 -0.09249749 -0.016120113 0.0024641273 -0.045758177 -0.09810567 0.031715654 0.049236715 0.019269254 -0.115737446 -0.10384065 0.19731475 -0.013748611 3.741628e-05 -0.010566615 -0.15060544 -0.031193966 0.03157874 -0.058147255 -0.09345929 -0.085873485 0.09762578 0.0008878083 -0.08224279 -0.007324923 0.13711229 0.14152986 0.10537026 -0.06600601 0.007984754 -0.0009715056 -0.04796424 -0.01347872 -0.0006380518 -0.07457206 -0.07335244 0.11111758 0.08504327 0.066623256 -0.010451291 0.073012754 -0.09187601 0.09642608 -0.00054003706 0.039313253 -0.08096926 -0.08785688 0.010994153 0.04617582 -0.04367965 0.12197754 0.005826542 0.15831679 -0.03472502 0.066259414 0.053582046 -0.010706495 -0.037089378 -0.047813732 0.00086584955 0.14879428 0.11756538 -0.024600377 -0.10964336 -0.16032305 0.08417719 -0.005029782 -0.10163526 -0.10674046 0.111414924 0.054032296 -0.027217915 0.019344475 -0.07242175 0.087243415 -0.037579674 -0.036000866 0.018225342 -0.06712256 -0.08180678 -0.07923363 -0.10641213 -0.073246546 0.17293099 -0.09676223 0.005089286 -0.06416966 -0.06714769 0.039360173 0.08878063 -0.004900643 -0.038386844 0.07785996 -0.027714534 -0.14242752 0.015533205 0.08603225 0.101818085 0.007888599 0.0709965 -0.21367174 -0.0024095727 -0.066674486 0.11863111 0.08408386 0.050997667 -0.10265256 -0.05559214 -0.12453117 -0.0020396858 0.082889915 -0.075375326 -0.092397176
