-0.23955204
0.1421434
0.034190375
0.12111545
0.015873821
0.48405728
-0.12164006
-0.0070097423
0.21048512
-0.20732598
0.43126413
0.1558781
-0.09270878
0.13538738
-0.092501655
0.12764592
0.10536666
0.065930635
-0.14401263
0.028659623
0.29283783
0.15914315
0.2825726
0.14092433
-0.043111045
-0.045570794
0.16532034
0.22699036
-0.0029089074
-0.0024376777
0.09750396
-0.1407288
-0.16432409
0.047781084
0.036340475
0.1088101
0.16093062
-0.098097995
0.15781611
0.5847196
0.21106713
-0.1225828
0.13284455
-0.1591359
-0.11073572
-0.09649972
0.10830767
0.123881534
0.16112413
-0.27985469
-0.11006917
-0.23233657
-0.2782074
0.009018956
-0.093862474
-0.17218502
-0.042469256
0.22471264
0.1847156
0.43262717
0.057325445
0.27974898
-0.06053869
-0.16831207
0.15689647
0.12811111
-0.20997609
0.32202265
0.17403063
0.50770235
-0.25049874
-0.08700642
-0.24335188
-0.09666261
0.011150417
0.09857535
0.12869228
0.02349234
0.18299092
0.1857719
0.13749978
1.0554196
-0.18417819
-0.11777523
-0.098573335
0.10965098
-0.034290448
0.10467142
0.1428852
-0.20957884
0.18802263
-0.3376113
-0.2511769
0.11426894
0.049037144
-0.40847182
-0.08872874
0.07532582
0.27809185
0.07690729
0.0575482
0.02180562
-0.20204604
-0.24221979
0.062729076
0.13159706
-0.1390684
-0.06342519
0.13602312
0.14575715
0.06759722
-0.12922527
0.07867067
0.10419615
-0.10717094
0.11526613
0.1838123
-0.12367228
-0.16112013
-0.09225636
0.105229385
-0.04269618
0.012255703
0.075823724
0.0743794
-0.24340706
-0.099973366
-0.6812258
0.16440694
-0.09057208
0.19244945
0.1557147
0.0946014
0.0711634
0.014535393
0.12799074
0.06621942
-0.15711196
-0.3898552
0.09006152
0.10191862
0.028184282
0.13411087
-0.07234932
-0.23734824
0.09187629
-0.10315143
-0.13244408
0.38769644
-0.2519268
-0.03713277
-0.23356728
0.11919157
0.019926442
0.06766651
0.03486276
0.17680335
-0.0046378956
-0.061307896
0.1230674
0.18242642
0.16644439
-0.17182034
0.14614147
0.25839028
-0.14352627
-0.1216137
0.19088088
