0.107147716 0.09947099 -0.030832607 -0.13357207 -0.15224743 -0.10588624 0.07959334 0.103283904 0.05418561 0.051481158 0.113007665 -0.020909302 -0.034438007 0.045717448 -0.13814649 0.079819545 0.00585824 0.11004915 -0.10474131 0.1357694 0.16006368 0.043136142 0.005984081 0.07732161 0.09596606 -0.17457943 0.09646835 0.08087443 -0.059870407 -0.11729106 -0.04341437 -0.064598426 0.01736742 -0.022408336 -0.11237515 -0.057496585 -0.08805599 0.04701315 0.025512366 0.12561382 -0.091961525 0.008637979 0.0028430796 0.030080408 0.13084629 0.041053582 0.035993267 -0.074548215 -0.023716005 0.29452103 0.08337431 -0.11585219 0.100479364 0.10992439 0.0048353937 0.1666683 0.07750436 0.07852974 -0.14021686 -0.057284422 -0.08887412 0.050691877 0.0125913955 -0.18227263 -0.08685919 0.11047609 -0.111268826 0.019967979 -0.016685035 0.15203418 0.05495631 0.021533534 0.1714648 0.102787115 0.035428584 0.05115794 -0.11383754 0.0763036 -0.043310698 -0.06992824 -0.08842488 0.07845067 -0.07496255 -0.056949805 0.11135518 0.1271517 -0.027526142 -0.11383686 -0.054680515 0.05234202 -0.084156334 0.07794515 -0.23045178 -0.028894477 -0.03677778 0.016089033 0.004288658 -0.0396569 0.07087089 -0.0047065583 0.074224755 -0.025229627 -0.08078172 -0.0055442885 -0.014278658 0.031669367 0.052305467 -0.08815047 -0.029098528 0.040753495 0.03895092 0.14454037 0.101993226 -0.07930154 -0.08413335 -0.086255446 -0.16542627 -0.11538084 -0.052141305 0.032940675 0.10874366 0.01804847 -0.12270528 -0.19448026 0.05190555 -0.035144262 0.12997474 -0.112075694 0.1145039 0.074936755 -0.057025608 -0.04787348 0.11360888 0.20147239 0.05437901 0.12775652 -0.080276445 -0.07324723 0.08078104 -0.111161634 -0.12961884 -0.13645472 -0.1245498 0.10391551 -0.06355297 -0.11131547 0.05528486 0.06947931 0.049063638 -0.09020583 -0.10446957 -0.1781227 -0.015475194 -0.06648738 0.044792872 0.121559404 0.123208486 -0.1322167 0.046267267 0.13443798 -0.026783096 0.053996492 -0.066880606 0.08498376 -0.028678833 -0.13571021 0.12557803 -0.021253917
-0.0561742 -0.004844438 -0.17857288 0.035535876 0.014834378 -0.09638177 0.051726177 -0.028807627 0.005261845 -0.023313455 0.050588172 0.08491376 -0.052836 0.11971351 -0.14413431 0.09268896 -0.0632942 0.079561464 -0.1690522 0.048261683 0.11223107 -0.06527579 0.02701722 0.0021959997 0.0185029 0.028170314 -0.15826035 0.026010912 -0.110782854 0.06274103 -0.06582754 0.0408714 0.062899165 0.0076103383 0.026343344 0.082066655 0.085232355 0.06559362 -0.003078136 0.091087855 0.08079329 -0.07161551 0.0026253022 -0.059067436 -0.06941306 0.09939159 0.10483417 0.0703639 0.09982091 0.23567554 0.024592493 -0.03396702 0.093990214 0.12514898 0.07227962 -0.018677864 0.2154032 0.030828718 0.02725181 -0.16593657 0.03422102 -0.089696065 -0.08263642 -0.14482082 -0.10763462 0.10178094 -0.07043712 0.10498993 0.008807748 0.026130421 -0.052410956 -0.01859242 -0.010134214 -0.073433585 0.05506127 -0.07991635 0.10331902 -0.037346117 0.04666246 -0.0007199112 -0.11470422 0.08097026 -0.0021785584 0.049762078 0.14332612 -0.075589314 0.1335973 0.0006882298 -0.12403953 -0.059455335 -0.07192167 0.20026669 -0.057223853 0.06287509 0.065110646 0.0894148 0.008489398 0.00311087 0.029689863 0.05479651 0.11948951 0.03740442 0.09869568 -0.0013509375 -0.04291712 -0.006866722 -0.082605235 0.07316084 -0.022243477 -0.12503847 0.120464504 0.12480714 0.10186777 -0.12736514 0.09634707 0.019225512 -0.056825776 -0.09424123 -0.041116673 -0.013934518 -0.10704565 0.12974566 -0.104620315 -0.09857264 0.026325082 0.016455825 0.24308415 -0.0845355 0.046992198 -0.055760287 -0.083420694 0.07678227 0.05692163 -0.09114721 -0.0155080585 0.0062917927 -0.04354996 0.13711286 0.021950163 -0.08903335 -0.074266285 0.10744638 0.0122747375 0.10297611 -0.039846428 -0.03403735 -0.05371934 0.030473595 -0.064737126 0.030165365 0.113385424 -0.047086578 0.06335234 -0.14304143 0.06596901 0.09812503 0.040462513 -0.012883058 0.0055290842 -0.007853958 0.018885735 -0.1796323 0.04574415 -0.03812547 0.097349465 -0.036190588 0.03894546 -0.079945184
0.038555495 0.113674134 -0.12587538 0.090669855 -0.05154623 -0.045745295 0.010210974 0.0043228194 -0.06704039 -0.10533898 0.048911728 0.016838286 -0.10715112 0.11076207 -0.13387449 -0.01014233 -0.011905137 -0.06772741 -0.033880267 0.058768615 0.072088555 -0.04050742 0.067223385 0.037258793 -0.09315531 -0.08213719 -0.06977267 -0.0061067566 0.034993093 0.07819573 -0.016441314 -0.12589306 0.026755849 0.094348654 0.13434967 -0.08159484 -0.10862574 0.077347845 -0.046564452 0.17863876 -0.020338438 0.11046712 0.02280538 0.0121280225 -0.078676805 0.1129993 -0.080525875 -0.029194877 0.029046765 0.17682146 -0.07520318 0.10051728 0.11946439 0.0007319193 -0.112436146 0.13724619 0.03623704 -0.08330549 -0.11887108 -0.12411688 0.09928791 -0.016044294 0.11621437 -0.07114701 -0.07269694 0.09019895 -0.002714859 0.02497671 0.03980912 -0.04341053 -0.059278857 0.029801562 0.045834545 0.13409573 0.048110265 -0.061967216 0.031819604 -0.115657315 0.03387618 0.08418091 0.030456409 0.14372551 -0.12342651 0.13718571 0.06568473 -0.07814621 0.08667988 0.10279666 0.08901717 0.04746752 -0.09764001 0.17903893 -0.057381645 0.15384671 -0.092777714 -0.031635895 -0.13378786 -0.11905988 -0.14041755 0.012858678 0.03242045 0.06364506 -0.051389243 0.11774772 -0.056932606 -0.0693804 0.016397191 0.09295712 -0.032531604 0.010959198 -0.08296475 -0.04680571 -0.07714581 0.040725335 -0.12783341 -0.04358446 -0.05576107 -0.044527557 0.034621045 -0.11779046 -0.12145291 0.12010903 0.13347399 0.00025752318 -0.08935168 0.023627529 0.15979387 -0.13502933 0.019822106 0.023899298 0.10002112 0.1234467 -0.04887446 -0.11083018 0.037870586 -0.028997505 0.0017004173 0.074431546 -0.0977601 -0.11724638 0.058886215 0.062882796 0.003512872 -0.078498416 0.07327714 -0.08419804 -0.08739978 -0.034097757 0.019419713 -0.10370346 -0.12167451 0.0029505112 -0.01563013 -0.07396991 0.08288867 -0.027895372 -0.046625376 -0.034347188 -0.0066652866 -0.0915349 -0.06044529 -0.051420894 -0.009736364 0.047981802 0.06957287 0.049576174 0.045971896 0.045705643
0.015949512 -0.016606348 -0.075636126 0.0672063 0.07199817 -0.07657537 0.075343765 0.078662306 -0.05347868 0.009591227 0.15638472 -0.01571868 -0.09108849 0.08724542 0.026253624 -0.00816218 -0.018671744 -0.0026387672 -0.12313984 -0.06535945 -0.038447574 0.046788495 0.033423893 -0.08657471 -0.08334896 0.013089171 -0.059713457 0.13417916 0.07165896 -0.032657478 0.06151739 0.040579256 0.104809746 0.11554074 0.12073231 0.04117294 -0.07124473 0.03185456 0.11509084 0.17755705 -0.05189086 -0.08824245 -0.08242304 0.026137993 0.016849896 0.10727385 0.10238133 -0.1323872 -0.11980693 0.022686066 0.009423174 0.12647508 0.046180055 0.045054004 -0.08786774 0.073245235 0.19002964 0.0038894205 -0.0861026 -0.032409776 0.084172376 0.05294973 0.060376592 -0.1315648 -0.11953081 -0.0903813 0.055832118 -0.028646158 -0.086797446 0.11984352 -0.118065245 -0.009562306 -0.0010949229 -0.06293625 -0.018063936 -0.074255586 0.057304204 -0.106345676 0.07344593 -0.10198808 -0.10158544 0.079323985 0.0038269453 -0.002396249 0.109769955 -0.062164117 0.033992186 0.060073975 0.033267982 -0.077171706 0.029610168 -0.054572206 -0.027097095 0.120012164 -0.050644096 0.04737613 -0.045913838 0.0666776 0.07163915 0.035923608 0.10475726 0.095751256 -0.15052263 0.06621673 0.13656144 -0.16444486 -0.02391582 0.088653885 0.024350135 -0.11695078 -0.07495001 -0.07011477 -0.041000728 0.0910708 0.026978333 -0.093593426 -0.032534767 -0.08095981 0.091285534 -0.0965612 -0.035280947 0.04544616 -0.034145795 -0.133591 0.052911755 0.010928391 0.15144953 -0.041029625 -0.1103781 -0.054023772 0.025659418 -0.11615353 0.026883576 -0.005115959 -0.0045471154 0.033856016 -0.0831862 -0.08503529 0.09312782 0.011969437 -0.0672625 -0.14561652 0.12403355 -0.06975405 0.00487332 -0.11747719 -0.007493426 -0.038956236 0.11648438 0.0064696018 0.08238628 -0.12768608 -0.17420964 -0.02550882 0.0974528 -0.08200332 0.10229342 0.0067228153 -0.0058853365 -0.008072625 -0.08617941 -0.07439897 0.112415895 0.12297161 -0.028832685 -0.11418219 -0.055118814 0.08792675
-0.100865096 -0.051080696 -0.14206241 -0.10944097 -0.15047698 0.06253248 -0.043834157 -0.09494791 0.07471948 -0.00507761 0.06496061 -0.015754111 -0.12897915 0.034056358 -0.13467744 -0.08628325 0.02248545 -0.1131635 -0.0362864 -0.01021764 0.016944641 0.080353886 0.044323985 0.09749654 0.04785716 0.022828525 -0.16707885 -0.0476643 -0.00042903607 0.085523084 -0.07654653 -0.12732387 -0.012502941 -0.06665472 0.053624127 0.07762923 0.026192669 0.11051501 0.020216074 0.09555152 0.09801429 -0.09939047 -0.0907764 0.060205095 0.14706054 -0.123126514 -0.09996216 -0.016461521 0.07364848 0.066107005 0.13005121 0.13130188 0.038025025 -0.010519431 -0.094209656 0.09156428 0.05223371 0.13536467 0.01818153 0.0038557618 0.08031627 0.02225157 0.08939676 -0.053754017 0.087708764 -0.07999469 0.10115229 -0.028761318 0.0006915202 -0.035145074 -0.08814927 0.08870559 0.05354208 0.117455035 0.017960275 -0.009235828 0.09462887 -0.054137494 0.08330414 -0.059807878 0.01829831 -0.068299934 0.083362825 -0.06584353 0.056749385 -0.10581281 0.005289298 0.030225046 0.123315565 0.04550714 -0.041019678 0.1753068 -0.04747565 0.096097946 0.12830323 -0.062510386 0.0341312 0.049286313 0.057629935 0.08690687 -0.02642382 0.063928545 0.08871269 0.06170965 -0.066903 0.004150345 0.116643175 -0.10088515 0.044116158 0.04431259 0.008449583 -0.06845931 -0.08134163 0.04499808 0.013558946 -0.030420898 -0.10660108 -0.11186914 0.116882466 -0.13501552 0.05931883 -0.04062548 -0.03865648 0.009743809 0.119773254 0.059375167 -0.08589477 -0.10913093 0.12597957 -0.021006597 -0.08092072 -0.12260379 -0.10135459 -0.021539463 0.09545667 0.094606176 0.0049110665 0.05816848 0.097039215 -0.021098167 0.012557861 0.0011182738 0.09091524 0.023904478 0.1296881 0.0438459 0.016206598 -0.028350735 -0.0033838865 0.124514386 0.10031508 0.06920916 -0.031156318 -0.08822595 -0.08275164 0.044912174 0.15442185 -0.07664793 -0.039156646 0.037083656 -0.08628373 0.065082915 0.123752855 0.002760932 -0.10143577 0.043983173 0.12729809 -0.10205024
-0.04420494 -0.0024361233 -0.101399235 0.087348446 0.0487496 -0.10437039 -0.06350099 0.026665203 -0.1562197 -0.0015871113 0.097685814 -0.115677185 0.0112902615 0.07087708 -0.13834019 -0.035358973 -0.04258861 0.06383129 0.059449084 0.12074306 -0.06381945 0.106998965 -0.017110208 0.09577152 0.006896858 0.03324984 0.01899867 0.030886468 -0.08065105 -0.04110436 -0.075784445 -0.004579234 -0.04292824 -0.11005017 -0.030877529 -0.03296654 0.059792403 0.1101973 -0.11696941 0.036361214 -0.04365485 0.029030237 -0.07846375 -0.040195566 -0.048641868 -0.010325029 -0.059242778 0.115408756 0.110958084 0.011869539 -0.049380615 -0.016930468 0.015726298 0.06516733 0.06391183 -0.10208504 0.003095594 -0.067763895 0.0657441 -0.09174658 0.13738404 -0.0060215727 -0.05929579 -0.16691856 0.14352551 0.061489478 -0.010694469 -0.09966025 -0.095323846 -0.016100725 -0.10401014 -0.08428309 0.09541886 -0.012285355 0.081599794 -0.08546156 0.012733219 -0.01234396 -0.055951077 -0.087420195 -0.0013974964 0.15419407 -0.10647774 -0.044288635 0.0023591414 -0.004332029 -0.10158994 -0.08684686 -0.008752392 -0.08433572 -0.05667206 -0.061199374 -0.14516473 -0.033802785 0.017153408 -0.014251838 0.046233967 0.0048447307 0.11128235 -0.02304814 -0.035216298 0.0178016 0.041862987 0.10130903 -0.05441665 -0.026558481 -0.010188474 0.07404391 0.03545289 0.07754295 -0.12720653 0.017433863 0.024188416 0.0057944884 -0.061065614 -0.008086109 -0.0738317 0.10758835 0.03214732 0.027017595 -0.018389419 -0.07641902 -0.06103595 0.074165754 0.013966922 0.11008606 0.17575766 -0.03704895 0.08907191 -0.049840257 -0.03974998 0.06560804 0.13639195 0.043857835 0.19019288 -0.056830987 0.095529 -0.016344137 0.06027527 0.067732945 0.097960114 -0.086445525 -0.07822272 -0.05609829 0.0018300669 0.0015178493 0.092938974 -0.087125465 0.1014191 0.09209688 -0.04049672 -0.033334177 0.06221571 -0.15057072 0.09411038 -0.114816815 0.059093654 0.037753034 -0.12878051 -0.04939812 0.011254244 -0.036237676 0.09719315 0.002715826 0.08802928 -0.0509177 0.038609818 -0.042337466
-0.052842043 -0.051853705 0.092527255 -0.11414687 0.09429704 0.014749134 -0.074073896 0.024278298 -0.1153469 -0.014624714 0.09761228 -0.06334268 0.018103234 -0.093128726 -0.059585296 0.08868329 0.023953853 -0.026518576 0.012677044 -0.052572425 -0.08108795 0.05539622 -0.04489053 -0.0021768552 0.08389376 0.0016807006 -0.04764087 0.02834999 0.10060254 0.06595404 -0.089211315 -0.09469476 -0.055541962 -0.0032578907 -0.02129492 0.12505941 0.017191056 -0.022286674 -0.035603933 0.18499666 0.11432873 -0.07419255 -0.07014731 0.021734223 -0.016430896 -0.14122583 0.04451888 -0.105404206 0.016471794 -0.012842688 0.01762122 -0.08173257 -0.05948424 -0.027771348 0.06855653 0.09728374 0.023072481 0.11480243 0.13442415 0.004903803 -0.050069146 -0.120295554 0.08689292 0.10583731 0.021238176 0.04172209 0.034412786 -0.11233106 -0.11525509 0.03660764 0.079826266 0.06923795 0.10228844 0.0032000658 0.0775001 -0.05771614 0.07121724 -0.12481179 0.12823182 0.012771528 0.0047663157 -0.051612318 0.026863186 -0.09379771 -0.11113693 -0.0933163 -0.106032655 -0.16123918 -0.106884725 0.107311755 0.0972088 0.060355227 0.002254075 -0.009692194 0.044926725 -0.029837951 0.09160619 0.06753224 0.009806496 0.06474987 0.097904496 0.05112507 0.052413832 0.027221192 0.08440349 0.071142346 0.005947118 -0.03929976 0.0627262 0.0051390026 -0.025615316 0.07688126 -0.0759674 0.039818145 0.061216366 -0.15327908 0.038382247 -0.07303083 -0.031460676 0.044155058 0.037046775 0.0069002956 0.07190774 0.009088542 -0.047134623 0.03999512 -0.107847475 0.030501526 -0.121249035 0.0069801714 0.07854878 0.03315672 0.043245908 -0.09254906 -0.021350442 0.016931485 0.12125949 0.10589117 -0.07561948 0.081577234 0.058687672 0.031224368 -0.022219053 -0.041753724 -0.06169085 0.11801166 -0.033213947 0.13870266 0.0034904552 -0.026104936 0.11750961 -0.15096363 -0.13664527 -0.04740747 0.06354243 0.05770559 0.0040860255 -0.109606296 0.08779185 -0.13544537 0.069679335 0.059331123 -0.020293778 -0.12053085 0.078036405 0.10057963 -0.1236884 -0.07004781
0.13429959 -0.12538753 -0.1300125 -0.041237276 0.0009556501 -0.061327077 0.032219566 -0.1325629 0.09793699 -0.0035416964 0.03519393 -0.004957194 -0.13118052 0.14394498 -0.117361195 -0.08141531 0.12793405 -0.036083158 -0.07739267 -0.10365415 0.0949962 -0.06373185 -0.050006967 0.04594793 0.09073654 -0.015002812 0.13546543 0.12278846 0.041521247 0.09170842 0.025196359 -0.09878264 0.013350045 0.060192693 -0.033228233 -0.02356172 0.00016959383 -0.10656124 -0.054742694 0.19771752 -0.09524133 -0.054582898 -0.07762772 -0.041302733 -0.109571666 -0.093693845 0.11351693 0.039038867 0.06398487 0.032559462 0.014240404 -0.041329727 -0.12086107 0.11182556 -0.10588921 0.14829646 0.09074936 0.0586358 0.052465916 0.0574488 -0.0018184253 0.0358634 -0.014381533 -0.068634264 0.007130054 0.099388845 -0.04351029 -0.11730791 0.08109823 -0.060081862 0.02374375 0.1180132 0.14797924 0.11830706 -0.10597882 -0.10790283 0.05696493 -0.08576868 -0.03854578 -0.063492574 -0.068671495 0.0024695932 -0.020751247 0.07433931 -0.14549503 0.0026358285 -0.106766105 -0.0111914845 -0.1117504 -0.032691896 -0.0360705 0.029841665 -0.13563839 0.13044302 -0.10190707 0.08648156 0.033127256 0.14238593 0.10440574 0.0071353256 0.08308236 0.07936089 -0.017971983 0.108292945 -0.09677368 0.046444993 -0.00062495295 0.09559961 0.026785366 0.057451118 0.07499348 -0.013365767 0.0057724263 -0.036317263 0.09947435 -0.09105659 -0.06267881 0.026667519 0.016948914 -0.10447286 -0.08539124 -0.13025145 -0.076887704 0.01538233 -0.041494537 -0.090832315 -0.022633454 0.084199436 -0.059841134 0.13993095 -0.019419573 0.06475905 -0.1353956 0.060301572 0.08377039 0.1101163 0.09075465 -0.0083592655 -0.093050845 0.1021332 0.063318595 0.12695147 0.0392529 0.05575266 0.106198795 0.061401524 0.07387711 -0.0149363065 0.07064846 0.00048188897 -0.03656126 0.051906276 -0.06342038 -0.08361356 -0.03474743 -0.10109252 0.08155466 0.0051417057 -0.11816518 0.014302512 0.022579268 -0.029595863 0.0483043 0.11613806 0.106015146 -0.10398259 0.018386189 0.0315582
0.031625625 0.08260985 -0.17584181 0.0033604898 0.043502085 -0.04917723 -0.004448242 -0.012419814 -0.02965658 -0.006830001 0.041752618 -0.07142909 -0.01500404 0.046021696 -0.049713716 0.13576402 -0.08182637 -0.13099699 0.047560252 0.018617693 -0.12988713 -0.08497646 0.06269989 0.00799059 0.017408907 0.05224252 -0.08756275 0.04854327 -0.08430307 0.08684285 -0.017712912 0.031702716 -0.054056615 0.0028819353 -0.11079942 0.108446635 0.04165299 -0.024627343 0.057391323 0.10650207 0.13390379 -0.06449816 0.018768046 0.0597198 0.0873055 -0.015030114 0.0027399457 0.01871457 0.06115067 -0.0051962235 0.03543282 0.06331746 0.028823104 -0.06650168 -0.11252283 0.06233411 -0.063434824 0.06150114 0.10356295 -0.16296813 0.08390119 -0.12087563 -0.13371414 -0.00027619657 -0.074045286 0.074042276 -0.0030887073 0.007242268 0.05910591 0.0069957557 0.0029414734 -0.07558835 0.053049304 0.079532675 0.038073376 -0.044382557 -0.14083138 -0.13622332 0.09705923 0.07520292 0.1171581 0.11974205 0.042690523 0.056571703 -0.03490678 -0.12583889 -0.03145743 0.09015146 0.10938999 -0.0067177997 0.08741548 -0.09674769 -0.028734433 0.12755822 0.12500824 0.060388107 0.08203203 0.07076867 0.049423497 -0.14365484 -0.12120095 -0.13706684 0.073729545 -0.109008566 0.09329856 -0.091115884 -0.0226125 -0.0912172 0.042178366 0.041215997 -0.03426725 -0.08532173 -0.008044262 -0.13425685 0.07362632 0.15834157 -0.008092249 -0.049822304 -0.13448875 -0.10807101 -0.04692047 -0.060302533 0.0058842506 0.011768812 -0.10517073 0.034062646 0.119674526 -0.012861003 0.08149194 0.015079982 -0.027923364 0.08641057 -0.11305955 -0.13203602 0.04736569 -0.138869 -0.0421958 0.08661905 -0.023157515 -0.06403756 -0.0720001 0.027833432 -0.11479698 0.039239354 -0.019598385 0.031883877 0.06275403 0.009386888 0.0061165653 -0.13585086 -0.028387869 0.01980374 -0.106911734 -0.092864096 0.10501876 -0.09799467 0.13419217 0.07498548 0.029274004 0.083554834 0.11670134 -0.0089825 -0.069261715 -0.080256015 -0.10909649 -0.13257895 -0.0060944143 -0.14345084
0.089057565 0.05962719 0.07499464 -0.07270365 0.021172404 0.08177677 -0.11547734 0.115436964 -0.09911981 -0.09995504 0.13348636 -0.08703435 -0.031231876 0.088251494 0.046867922 -0.057949606 0.1452216 0.0808911 -0.032751456 -0.059058163 0.059020646 -0.044826858 0.09375109 0.11188615 0.0061205067 -0.116255425 0.09745748 -0.027968975 -0.10045011 0.10919277 -0.0077674068 -0.042920392 0.098634146 -0.15348132 -0.11684578 0.07194076 0.054201115 0.10943589 -0.07099619 0.19591892 -0.04279606 0.062488746 -0.052148905 -0.0043679015 -0.07441777 0.09882521 -0.08879629 -0.08902112 0.06151197 -0.06470049 0.13588314 -0.12761551 -0.110636935 0.11847421 0.0021827647 -0.052147318 0.10601075 0.025449311 0.020367559 0.090476595 -0.104647666 -0.082357734 0.12926285 0.06579307 -0.017217457 -0.0705094 0.08021074 0.012458416 0.08508949 0.044027183 0.04416119 0.01639267 -0.10815277 -0.048386253 -0.017965972 -0.13132197 0.038560126 0.053961717 0.12505744 0.093820944 0.026762927 -0.03098317 0.10110092 -0.050660893 0.014165899 0.09863002 -0.08021233 0.03639811 0.06254349 0.041417193 0.036045052 -0.016079973 -0.1469609 -0.10666888 -0.13040297 0.13654567 -0.077763386 0.031881295 -0.017480675 0.011644187 0.10536223 0.0466539 -0.07740511 0.06735615 -0.055587586 -0.014929373 -0.05241465 -0.07289137 0.09358425 0.12874052 0.06523172 0.032758657 -0.036971275 -0.03727218 -0.030170195 -0.11351602 -0.031346913 -0.09681561 0.046629906 -0.07855997 -0.105925076 0.07585748 0.14815703 0.09384732 0.048562344 0.12313067 -0.07074913 -0.044664904 -0.041234776 -0.07722593 -0.13066879 0.10184408 -0.10860495 -0.07892474 0.12796555 -0.13718696 0.093232095 -0.048147015 0.022948101 0.08033983 0.0787333 -0.10353889 -0.047434296 -0.020182151 -0.044291764 0.09544094 -0.072179325 0.025915932 0.116406284 0.036359195 -0.035444535 -0.105416335 -0.131767 0.15028894 0.13157554 0.003766685 -0.07932631 -0.014978681 0.0655818 0.12028727 0.09046554 -0.06991631 -0.09165294 -0.016524611 -0.08652416 -0.06438214 -0.07159885 0.014527427
-0.07501378 -0.043775126 -0.08939472 0.012473306 0.12512015 0.122634776 -0.07277255 -0.017725997 -0.036637627 0.07565248 0.023864843 -0.080998905 -0.10091938 -0.07505491 0.107524395 0.097087026 -0.029442808 0.014764362 -0.039146416 0.014161308 0.017712807 -0.09091959 -0.0047911 0.0082908785 0.062021993 -0.11793638 0.09588004 0.0046594567 0.040302612 0.10744119 -0.098557256 -0.0009682433 0.004122405 -0.10589453 -0.08572358 0.025040684 -0.10936709 -0.046341985 -0.08707807 -0.07905503 0.17992659 0.020020116 -0.07074012 -0.0060542743 0.038449906 0.085809976 -0.11954289 0.11590359 -0.14873977 -0.03119609 -0.07816628 0.14268172 -0.01743662 0.07002231 0.009206488 0.05115445 0.015741864 0.09846675 0.12316539 -0.088082865 0.10983898 -0.04610916 0.054260757 0.099707216 -0.038666695 -0.096271984 0.04702365 -0.060523883 -0.13126376 0.12180766 -0.056237027 -0.0075136526 0.13057984 -0.07931145 0.06987977 0.04913715 0.015285979 0.10102258 -0.065254875 0.028181734 -0.117241025 0.107756235 0.016608361 -0.016648078 0.11070238 0.04222219 0.11988664 -0.003432715 0.075380184 -0.10280445 0.09824188 -0.037681423 -0.13004647 0.10539307 0.044717703 0.092642896 -0.07295235 -0.11107884 0.04227811 0.060399357 -0.049892757 -0.037621982 -0.09886532 0.11140057 0.13363689 0.024449877 0.08062436 0.039885916 -0.047444962 -0.059049323 0.11280078 -0.10748022 0.11189657 0.0074484227 -0.07743248 -0.059539877 -0.04373687 -0.02793613 -0.11571306 -0.0388738 0.10593069 0.05570494 0.0030584964 0.06762385 0.053517357 0.10061249 -0.0010311882 -0.02390796 -0.0009782356 0.07826989 0.084342234 -0.09284626 0.11032246 -0.11466815 0.18046947 -4.6162448e-05 -0.0926326 -0.046704806 0.031316653 0.005606509 0.10536702 -0.049190808 -0.11196101 -0.027798872 0.12958439 -0.002439254 0.14942387 -0.07547249 -0.11910932 0.132104 0.13300385 -0.0352651 0.047735892 0.0027137026 -0.10265763 -0.052393388 0.12603268 -0.093182124 0.08347373 -0.01280898 0.12505831 -0.08724731 0.0373361 -0.011614283 -0.07544749 -0.109849855 -0.11121443 0.020782083
-0.13960655 0.11672796 -0.14444314 -0.03965092 0.10230996 0.012207343 0.058471467 0.012426577 0.0010865703 0.0040726755 0.07153337 0.094597414 0.042930346 -0.0680768 0.0017534259 -0.066073775 0.048088428 0.06654702 0.076371185 -0.10686259 -0.056133524 0.013652883 0.037016537 0.036467884 0.08555282 -0.04836593 0.12126954 0.11875112 -0.11266664 -0.017056474 0.032693993 -0.002900113 0.0439933 -0.117504664 -0.06258222 0.08354547 -0.10405904 -0.13267815 -0.011088105 -0.021585817 -0.092442825 0.13035472 -0.10795723 -0.050661333 -0.07159588 -0.09535628 -0.030792905 0.05465726 -0.0073538674 -0.06692288 -0.07137575 -0.05689214 0.026926924 0.06926729 -0.060209475 -0.04794264 0.09485314 -0.06191464 0.102163926 0.064027525 0.048742052 0.10785398 -0.011202602 -0.05184199 0.033375375 -0.07329461 -0.037186466 0.020856733 0.078013524 0.09739428 0.08196304 0.06298668 -0.0035383427 0.051527333 -0.08153443 0.04114504 -0.06414866 0.050368525 -0.123247184 -0.09732985 0.020883664 0.12764005 -0.10651432 0.06089852 0.07396093 0.08652375 0.0442247 -0.0036844907 -0.09949361 -0.024255319 -0.013595337 -0.054494128 0.0905529 -0.023114981 0.12355057 0.051302105 0.08533839 0.118418045 0.09543869 -0.06659898 -0.039438233 0.0431225 0.04312168 0.035080686 0.062687896 -0.009172361 0.0217275 -0.012076655 -0.1283903 0.058591846 -0.024857048 0.101874985 -0.03597288 0.101206586 0.03126117 0.038427897 0.012006603 -0.010916963 -0.07810113 0.035412215 0.12547222 -0.081363626 0.12505753 -0.014100422 0.1153912 -0.009783683 0.041878626 0.098931156 0.06921553 0.11568566 -0.029776614 0.030606948 -0.07075821 -0.15012671 -0.0777274 -0.08126034 0.017305328 0.09716888 -0.00950524 -0.113245554 0.11354728 -0.071697526 0.13187048 -0.061332326 -0.012364066 0.1293186 0.100680225 0.06005414 -0.022071185 0.12074503 0.107303455 -0.013483695 0.04649146 0.07715077 -0.112005554 0.04589538 -0.0038637249 -0.119623505 0.08669755 -0.05498531 -0.0070978617 0.035450105 -0.12320412 -0.067382835 0.10459963 0.09316878 -0.041222963 0.07995304
-0.017784154 0.07781986 0.054235075 0.11304054 0.13488878 -0.0751378 0.053491063 0.08828041 0.061735183 0.11005416 0.015744736 0.06865255 0.023101864 -0.09339679 0.096219726 0.026313156 0.15884031 0.07475617 -0.023940016 0.10863721 0.07719064 0.06779199 0.030258976 0.023865877 0.026848067 -0.12312285 0.13152368 0.0062688356 -0.12557358 -0.10729138 0.023929358 0.07706488 -0.1159559 -0.055285722 -0.11878248 0.09358781 -0.06325825 -0.13290797 0.08245091 0.038163744 -0.072323374 -0.025033334 -0.10282814 -0.112820126 0.030422783 0.11162662 0.027076764 0.107382916 0.056027304 0.040195864 -0.091995545 0.09590075 -0.09906036 -0.11739163 -0.084678516 -0.102876894 -0.04159252 -0.05376644 -0.10376346 -0.12434653 -0.052214183 -0.14705497 -0.045970272 -0.0786111 -0.02729768 0.078862496 -0.09583269 -0.06087179 -0.072259665 -0.03317182 -0.10413891 -0.061618555 -0.040477704 0.045836516 -0.014530588 0.05068626 0.05913402 -0.12782405 -0.09635421 0.06676522 0.10625313 -0.09740001 0.04925184 0.07469743 0.064966716 0.10771078 0.014987039 -0.08876079 -0.01615108 -0.06495936 0.06411443 0.05548664 0.049961515 0.108254045 0.096688986 0.10258427 0.11802641 0.013789779 0.048974305 0.06541933 -0.12759613 -0.04395867 -0.15267403 0.029012349 -0.011225122 -0.13433118 0.10757568 -0.058999144 0.03972975 -0.05368977 -0.0008811822 0.008593793 -0.13387644 0.046837654 -0.09956137 0.05915528 -0.06175594 0.02661164 -0.08409672 -0.0913498 -0.016312439 -0.045234963 -0.022220282 -0.09549091 0.04878596 -0.008689178 0.0038354343 0.08571143 -0.08321232 0.06908655 -0.03578486 -0.03233942 -0.056367975 0.07025936 -0.057923056 -0.09434014 0.016482156 0.06336597 -0.010795709 -0.1504694 -0.025610443 -0.087727964 0.1307782 -0.0361905 0.0017884796 -0.052407455 -0.013898066 -0.022161495 -0.02946119 0.12627749 -0.13176961 0.09534471 -0.02380206 -0.03426915 0.052836984 -0.06990461 0.11587645 0.06414812 0.042825192 0.097105615 -0.027617227 0.005183999 -0.066578105 -0.041450623 0.024200484 -0.111356296 0.052898377 0.024599768
-0.06761286 0.0059306594 0.14951466 0.10025225 -0.06518822 -0.006403732 0.030433003 -0.12644443 -0.13272971 0.030787596 0.0016472735 0.10185906 -0.04040847 -0.033450484 0.026067922 -0.08346034 -0.089154795 0.051850174 0.066041365 0.038665902 0.079585336 -0.004567343 0.0043469467 0.07651154 -0.12714246 0.12301809 -0.008561211 -0.032736257 -0.072279334 -0.025950128 0.053198658 -0.07537911 -0.10531358 -0.0023362923 0.09286117 -0.027113194 0.08699546 0.028257389 0.0815179 0.0079976 0.09819612 0.019060742 -0.14430356 0.069067255 0.036885485 -0.12894015 -0.122104004 -0.017342584 -0.020809855 -0.024687706 -0.07159024 0.00919372 0.15806834 -0.037962593 0.047703654 -0.12661122 0.008319254 -0.09608043 0.041924726 0.039976373 0.016500399 0.043222312 -0.0561783 0.20933914 0.0044332584 -0.03328494 -0.10278657 0.047271598 0.030029628 0.1332853 -0.048193168 -0.09205492 -0.073375046 -0.024754185 0.026053362 0.09905585 0.051431317 -0.10645438 0.10362338 -0.14258614 0.01796311 -0.08027577 0.08032416 0.09531152 -0.002015299 0.062729605 0.07144562 0.0005434509 -0.108776785 0.1574949 0.101955146 0.007152178 0.0053714686 -0.065837964 0.08497444 -0.02248591 0.09492739 0.010196611 -0.067874976 -0.049333297 0.026846468 -0.022161875 -0.02979182 0.07998037 0.10836592 0.015351769 -0.05795394 0.086879656 -0.04461184 -0.0766948 -0.11191623 0.0703724 -0.076109625 0.0073646624 -0.006438647 0.10212273 -0.14042756 -0.05192696 0.09081222 -0.11103693 -0.029058361 -0.051122006 0.104760624 -0.026911413 -0.030391226 0.013107785 -0.11009461 0.057291176 0.14442368 0.12104963 -0.10356918 -0.12091116 0.021842549 0.049828336 0.064334415 0.013796349 -0.05904285 0.0030523264 -0.017760374 -0.03569535 -0.079010114 0.12516864 -0.10049649 -0.018603608 0.040815115 0.040164478 -0.013334013 0.07835917 0.008522132 -0.029819423 0.06322072 0.04097868 -0.10629305 -0.11232679 0.12818708 0.031538967 0.07886578 -0.050289974 -0.0116217295 -0.056754034 -0.04703063 0.08913513 -0.06663214 -0.029973485 0.124683164 -0.0020454242 0.036124524 0.07060646
0.041708313 0.03663692 0.13865173 -0.09890741 -0.12262898 -0.08881912 0.043609552 -0.031370893 0.08703424 -0.038917698 -0.12521099 0.0045050634 0.12769817 0.04714563 -0.08510213 0.12597054 -0.06872071 -0.06735621 0.037781186 -0.04588429 0.09575817 0.068907745 0.109247044 0.06899079 -0.021305846 -0.089872755 0.111540385 0.053561747 -0.13377598 0.048653334 -0.10774682 0.097717196 0.028421968 0.047278237 -0.10000765 -0.03482432 0.12131052 0.00454313 0.060468078 -0.034648914 -0.0989315 0.10624684 -0.12760061 -0.005702051 0.07164118 0.07289016 0.002164132 0.05424983 -0.14203478 -0.14355712 0.093254775 0.12854344 -0.08042975 0.0666232 0.025235085 0.03315336 -0.084253125 -0.035625037 -0.010249528 0.0086579975 0.11474939 0.085922934 -0.046294134 0.04221554 -0.0074160867 -0.10802497 0.07781585 0.025209725 -0.069960125 0.027931442 0.009015245 -0.071901605 0.035884343 -0.13805896 -0.10736942 -0.0018043572 -0.054241225 -0.030496424 0.09413632 0.07692412 0.012463248 -0.08160464 0.07414096 -0.059723403 0.11160599 -0.076092675 -0.08861641 0.08540067 -0.0069538164 0.12920956 0.12279359 0.019846335 -0.005896658 0.067232996 0.054217238 -0.086676106 -0.12133153 -0.06299364 -0.077110015 -0.04425003 0.024826089 0.06919411 -0.08994971 0.13625158 -0.021994187 0.072994456 -0.03762979 -0.12668952 -0.1330091 0.12521623 -0.04959563 -0.12619816 -0.13680592 0.021533115 0.14120996 -0.033991475 -0.062874146 -0.090075366 0.038885757 -0.12548205 0.08031208 -0.15587059 0.014515609 -0.021455161 0.03480969 -0.09128968 0.032986805 -0.048298214 -0.031691857 -0.08172681 0.13260925 0.033488795 0.08199271 -0.056257885 0.0053653787 -0.017117172 -0.07518477 0.08516634 0.077762224 0.044743888 0.046687063 -0.11834105 0.07780636 -0.09432277 0.07557753 -0.042094335 0.039900314 0.09514097 0.106313966 -0.03669419 0.06311325 -0.03638741 -0.10358241 0.048043925 -0.10659606 -0.056328557 -0.09934897 0.039888322 0.07901577 -0.1320409 0.015332691 0.017547775 -0.08894487 0.0631551 0.13255729 -0.028960096 0.116328426 0.059541617
-0.026951458 -0.092873104 -0.0697012 -0.088209234 0.027754491 -0.09515389 -0.07252786 0.077749856 -0.004178313 -0.014592206 -0.03355125 -0.0452071 -0.03399815 -0.022659235 0.08422745 -0.046359736 -0.10401574 -0.010549054 0.042570867 0.07667067 0.14237906 0.026483571 -0.011847517 0.08865223 0.027472312 0.12669353 -0.036441322 0.10852604 -0.14779924 0.012095613 0.04689905 0.09325094 -0.07056711 -0.070545465 -0.08715746 0.07677565 0.13830689 0.009757666 -0.042083576 0.08666308 -0.10291178 0.13487202 -0.04716526 -0.061543588 0.11935832 0.019512821 -0.040061373 0.093359835 0.092745595 0.02127996 0.117068924 0.021002477 -0.015888887 -0.09098687 0.07893693 -0.011213975 -0.1307478 0.03929457 -0.12535714 0.09084613 -0.13485663 0.11153847 0.0682999 0.111635156 0.051330253 0.082946345 -0.124481134 -0.08483996 -0.0575579 -0.037679054 -0.015635015 0.041540783 0.13878387 -0.092822276 -0.12010447 0.08777989 0.0102897445 0.044504568 -0.057337157 0.05118266 0.14342338 0.07335675 0.07032281 0.107265756 0.076859914 0.102323875 0.011908078 0.07400481 0.07958255 0.14964607 0.064877056 -0.029677724 -0.11492742 -0.02252827 0.10311547 0.073652655 0.0012513371 -0.008981552 -0.09682582 0.06638341 -0.13674061 -0.057436924 -0.13659032 0.11269182 0.072564185 -0.028534194 -0.039053723 -0.11575012 -0.054057095 0.12286941 -0.0037188742 -0.11144283 -0.057780974 0.0924167 -0.077668615 -0.062511556 0.037780065 0.019997776 -0.07232769 -0.024861744 0.049909484 0.008405501 0.10424128 0.07520128 -0.09806281 0.04121585 -0.11016191 -0.02390107 0.12443714 0.11210872 0.072505064 0.07181006 0.0196818 0.05296205 0.096894905 -0.13609366 0.054355983 -0.028075162 0.07242235 -0.036386352 0.04279608 0.071602196 0.051787637 0.09250833 -0.12185151 -0.08650948 -0.065774515 -0.14696486 -0.07288708 0.005863544 -0.027012654 -0.049273953 0.020314354 -0.098772235 -0.120434724 0.11824408 0.02330428 -0.09536723 -0.14860508 0.093852445 0.09170574 0.12390728 0.11120047 -0.04536912 0.11665694 -0.084172815 -0.031965587 -0.072137795
-0.024297362 -0.017908664 0.053106535 -0.057065483 0.0059618847 0.016571308 0.020703867 0.04007498 0.026438301 0.019752342 0.052311245 0.11275633 -0.044151843 -0.070165195 0.107299626 0.090344116 -0.006973641 -0.07962008 -0.07804709 -0.13007893 0.04589883 -0.07752176 0.061530154 -0.14099512 -0.061098292 0.12374828 0.082196765 -0.029238945 -0.10016096 -0.033148095 0.040785804 -0.043160357 -0.12343101 0.12591924 -0.036574624 0.06873207 0.10727535 -0.034072492 -0.09736379 0.1256715 0.01594198 -0.016654901 -0.097153045 -0.018088333 -0.12975319 0.083033726 0.06628584 -0.139305 -0.08325174 -0.019050818 -0.056229968 0.10705316 0.036543023 -0.12145813 0.11004481 -0.042284776 -0.078888625 0.040250823 -0.05549657 -0.03689986 0.02402019 -0.03395199 -0.0100586 0.07239836 0.13204177 -0.081879325 0.016658638 0.10543762 0.034485873 0.11774207 0.032401763 -0.1002026 0.014391404 0.11067543 0.015518415 -0.098766014 0.00045454537 -0.08597787 -0.12678234 -0.027128998 0.026389908 0.02250277 0.05900169 0.14550224 0.01610538 0.039713316 -0.085198484 0.039394304 -0.09558422 -0.07977182 -0.06560103 0.0136346435 -0.051942613 -0.030045684 0.056077663 -0.0504743 -0.008001524 0.07988703 0.060710184 -0.11918526 -0.1459895 -0.031168116 0.020291165 -0.021723699 0.0435729 -0.07769824 -0.068991266 0.01282814 0.12083077 -0.026403902 -0.05685934 -0.089064784 -0.09691669 -0.09397209 0.06627378 0.05102861 0.046544783 0.09571683 0.10230669 -0.062142603 -0.114625745 -0.14663221 0.05566692 0.025284475 -0.02061256 0.13976818 -0.2031084 -0.013410058 0.13303053 -0.05064199 0.036010586 -0.023858573 0.124921165 -0.06345459 0.059358276 0.023578385 -0.00016945426 -0.018688962 -0.047857214 0.027757267 0.01764867 -0.059571624 -0.12644118 -0.07338336 0.08471576 0.0808499 -0.059294507 0.03567302 -0.12584633 -0.055107933 -0.12500519 0.15001138 0.11779924 0.10721849 0.058382485 0.12037571 -0.05439814 0.07707045 -0.07637406 0.01773579 -0.13240944 0.12316535 0.09463164 0.034123186 0.029688535 -0.077201694 0.08917402 -0.027255857
0.021523837 0.044327863 -0.109570056 4.2512023e-05 -0.055734795 0.10410509 -0.12341899 -0.09650616 -0.11734946 0.021157894 -0.047349293 0.050141852 0.14106946 -0.06706862 -0.053899013 -0.108567856 0.075807855 0.028738186 -0.031930305 0.12834027 0.0677257 -0.12114969 -0.027077282 -0.060063224 -0.1088637 0.05176755 -0.0004899375 0.09859315 -0.16960171 -0.03777326 0.028011633 -0.10329509 -0.032212306 0.14622597 -0.061070405 0.16952491 -0.04334348 0.024601836 0.015907532 -0.037096392 0.08597727 0.13159984 0.012965742 0.023232562 -0.10455313 0.05411886 -0.01737123 0.06787475 0.089331575 -0.053829066 -0.035639785 0.04436503 -0.071236916 0.106857136 -0.09616292 -0.11420815 -0.10645333 0.08374965 0.048368562 0.10464492 0.079129264 0.10865272 -0.08084573 -0.09996559 0.14559145 0.1241893 0.08950327 -0.06033316 -0.007847046 0.02655544 -0.06417108 -0.12021108 0.09280257 -0.01889295 -0.066774964 0.09704186 0.07669979 -0.05122858 -0.105165794 0.10876932 0.15426211 0.03867546 0.10658042 -0.01483623 -0.1840178 -0.07790289 -0.0907598 0.019945122 -0.13125472 -0.06191061 0.12819962 -0.00835794 -0.011590385 -0.019356301 0.08181066 -0.02797568 -0.08385542 -0.11838095 -0.047933206 -0.063429244 0.02850624 -0.10545288 -0.07757289 0.006814429 -0.040835284 0.08013278 -0.09766112 0.03898775 0.103198245 0.09728718 0.0436574 -0.09096746 -0.0024319892 -0.036051806 0.013390646 -0.06209957 -0.104785554 0.13856226 -0.046462886 -0.068596564 0.02041179 0.041707616 -0.040471308 0.0064244196 -0.13021995 0.018766668 0.07189081 0.018594103 -0.0033273345 -0.09406814 0.108437024 -0.09633623 -0.09791235 0.11272393 0.041036237 0.05446495 0.069900125 -0.050156053 -0.032426037 0.08295346 -0.079778254 0.05337825 0.02561542 0.10975358 0.007265048 0.02510741 -0.0665469 0.08892113 0.061245214 -0.07522415 -0.040997345 0.081662714 0.059417296 0.044127066 -0.049954984 0.136162 0.07329051 0.16132723 -0.017355207 0.03259726 0.10752902 -0.072683655 0.053652886 -0.08032577 -0.021325434 0.1352304 -0.038109064 0.09287781
0.100395694 0.04756212 0.047699045 0.055391375 0.06497855 0.114015855 0.093034685 -0.13518682 -0.10603792 -0.015005481 -0.13238633 0.06335066 -0.068937495 0.10811716 0.05603002 0.13357922 -0.028559033 0.115221985 -0.05752746 -0.0454524 0.031152809 0.077183306 0.10035552 0.0985174 0.0455946 -0.031592973 -0.1246841 -0.07677452 -0.06965724 -0.029821433 -0.057605356 0.10459506 0.053793035 0.03308607 -0.04896536 0.12502766 0.009419095 -0.10740887 -0.049703255 0.11993353 -0.07928596 -0.008042002 -0.037186693 -0.04109375 -0.05380308 0.040057216 -0.07905262 0.030022535 -0.028852593 -0.12441552 0.08692486 0.078905895 0.16796672 0.04746655 0.0073314537 -0.044629972 -0.12995481 0.087407604 0.006643735 0.07549207 0.03383198 0.11163227 0.011406521 -0.024836456 -0.10526141 -0.08097309 -0.11954981 0.10361468 0.12954614 -0.09772525 -0.043332335 -0.1698771 -0.05646898 0.10861629 0.11793008 -0.014392059 0.054151457 -0.10227934 0.120020024 -0.060922112 -0.07668708 -0.0020603333 0.09313711 0.08970776 -0.01550201 0.12715878 0.024146428 -0.06654843 -0.049738213 0.099278785 0.021879343 0.09373618 -0.07862057 -0.04059958 0.09229057 0.0016612852 0.083841644 0.034680057 -0.13224435 -0.08170269 0.0043205135 -0.045528393 -0.031845976 0.12415064 0.12167946 0.008888292 -0.12807485 0.10765147 -0.0683651 -0.12199715 -0.06743492 -0.031303745 0.05948134 -0.0014280602 0.05189475 -0.12035684 -0.019865915 0.08556026 0.099782124 0.01800181 0.06317874 -0.11016429 -0.08663359 0.081018664 -0.08375191 0.06299325 -0.046741262 -0.08962574 0.021374106 -0.09430006 0.035125237 0.0547658 0.0845434 -0.06039519 0.07932944 -0.04121869 -0.01343507 -0.13304347 -0.032724697 0.0355121 0.042248905 0.0137106655 -0.008906418 0.029176079 0.075095326 0.024704266 0.0704461 0.10012488 -0.12884864 0.01410326 -0.13584147 0.10490864 0.15291342 -0.06213821 0.06949571 0.039054662 -0.08459165 0.045453448 0.07261349 -0.04589938 0.10323782 -0.005941209 -0.094199754 -0.11900128 -0.100786865 0.12757345 0.020927144 -0.011018489
0.13119172 -0.06344693 -0.012648282 0.070124194 -0.079840176 0.04536739 -0.04742477 0.06371582 0.018701807 0.098920986 -0.026765747 0.09607716 -0.022297796 0.04828679 -0.102871224 0.002350057 0.041149765 0.04574567 -0.056905303 -0.08895689 0.03722361 0.10461735 0.09688435 0.062478404 -0.014507544 0.062343437 -0.07149966 -0.08536407 0.07871132 -0.043433 -0.06590184 0.110944845 0.085302114 -0.0624932 0.12837885 0.047909435 -0.10515884 0.030849373 -0.021637056 0.04661499 -0.052145753 0.014921011 0.13921408 0.035393603 -0.006573646 -0.11274782 0.11792817 -0.03468359 0.046818346 -0.06291789 0.079729885 0.049519368 -0.005746118 0.043927062 0.11743229 -0.10512201 -0.034257006 -0.14781432 0.074211664 0.122978784 -0.14644696 -0.10468395 -0.010080162 -0.011154271 0.014523162 -0.12392975 0.005335827 0.0225963 -0.012582274 0.12724002 0.032958806 -0.012639642 -0.08041213 -0.093904585 0.07319546 0.013121622 -0.036029946 0.06540358 -0.016473232 0.113368 -0.022454526 0.049132343 0.086895846 0.10429396 0.096209824 0.01079235 -0.0677108 0.0678918 0.06921514 0.022492547 0.03001466 0.10636076 -0.08089083 -0.06022531 -0.10325699 -0.098641664 0.046036758 -0.035986967 -0.108070076 0.022755839 -0.06043078 -0.018943427 -0.000638997 -0.051614486 0.012647088 0.06303412 -0.020756416 0.019143011 0.023247726 -0.009715934 0.116600655 -0.1046696 0.14482647 -0.10074778 -0.058009844 -0.08160938 0.047011368 0.13585798 -0.01089396 0.05556523 -0.0077934028 -0.0029142885 -0.12119871 0.02152999 0.051578313 0.12473795 -0.020390444 -0.05481198 0.0017730312 -0.030739665 -0.11619302 -0.02399693 0.033177853 0.1439172 -0.015679827 -0.11177187 0.12939602 0.060703777 -0.06374493 0.03755344 -0.07550662 0.11201207 -0.10454255 0.109609514 0.025662728 0.02548718 0.087452285 -0.070636936 -0.08497978 -0.10736225 0.039062638 0.14323609 0.12321306 -0.082414895 -0.12134497 -0.12009513 -0.024910238 0.039706554 -0.08707634 0.21236053 0.1493769 0.1238038 0.13532875 -0.0322346 -0.06177334 0.07596141 0.0836517 0.03522375
0.053911872 -0.13012983 -0.019348968 0.13270783 -0.011194994 -0.084554784 -0.0062918137 0.106795065 0.1431123 0.0660815 0.0022015595 0.0273208 0.07481136 -0.05710009 -0.038255073 -0.028792594 0.06950642 0.052114423 -0.014999833 -0.13578816 -0.07842085 -0.03300719 0.12760761 -0.11089788 -0.060646176 0.12419843 -0.1460328 0.13770594 0.108581156 -0.071974315 -0.09110764 -0.032712415 -0.12653175 0.014025851 0.032914378 -0.12601867 -0.12562281 -0.055783413 0.023186423 -0.048557255 -0.06525071 -0.021513598 -0.11642987 -0.05677665 0.10820414 -0.12368545 -0.0670552 -0.028279021 0.062412146 -0.093269065 0.17622988 0.08749164 0.028401064 -0.07516575 -0.0010569793 0.054469414 -0.06602163 0.019523013 0.10995338 0.01710301 -0.050143804 0.1220071 -0.1294487 0.05987907 -0.106665574 0.12208494 -0.111155316 -0.024142442 0.0012420363 0.033846915 0.005059119 -0.047647595 0.116938636 0.112882756 0.10004379 0.07469422 0.055331174 0.14366104 -0.049698092 0.09274295 -0.018834965 -0.02492619 0.032210875 -0.099340826 -0.01936842 -0.07501076 -0.12024016 -0.024234377 -0.018165816 0.11677685 -0.08108753 -0.09197431 0.051242102 0.07177856 0.03883791 0.1355347 0.0072712386 -0.10896338 -0.08059375 0.031925853 -0.018113075 -0.028224733 0.021484017 0.00024895702 0.020803096 0.08643557 0.12692608 0.061362945 0.11084422 0.12955403 -0.050070617 -0.11660269 -0.07796698 -0.006076746 -0.09627169 -0.014067357 0.013582375 -0.05804412 -0.13534315 -0.06108682 0.12011433 0.001878267 -0.1082295 0.088735454 0.11027411 0.1534901 0.06962758 -0.03322521 -0.003655598 0.12658426 0.12040966 0.08810476 0.0198985 -0.07461149 0.08281019 -0.031071004 -0.057800725 -0.00059011555 -0.03488746 0.040093973 0.0045473156 -0.041317444 -0.121386886 0.110275954 0.1357573 -0.04211467 0.086143106 -0.099226244 0.092649564 -0.0912045 0.016698757 0.07483433 0.1032681 0.123273 0.07771603 0.043696098 -0.0332677 0.10830108 0.007259298 0.033509377 -0.06028971 0.10946806 0.04586855 -0.091832004 -0.00048268115 0.1247195 -0.11733489 0.07271195
-0.025794238 0.04535324 -0.092269585 0.044492558 0.016796168 -0.07123019 0.06063706 -0.023163427 0.026742077 0.08456646 -0.06357108 -0.13187346 -0.0847935 -0.0060709007 0.110147 -0.090835884 -0.01286867 0.049389955 -0.04876038 0.039890543 0.057648983 -0.0798731 0.035498403 -0.11497303 0.098175414 -0.10838075 -0.12520374 0.045809418 0.10789737 -0.100775115 0.0781328 0.024184942 0.10031718 0.078779735 0.105397105 0.004921045 -0.023738705 0.014601836 -0.052901905 -0.11819032 -0.006934377 -0.123821706 -0.049166355 0.14474379 -0.040145326 -0.080203265 0.061646055 -0.05833601 -0.120152496 0.011381388 0.07270204 -0.117972694 0.04072595 -0.013631521 -0.017008675 -0.123765744 -0.0873847 0.112243205 0.055077404 0.04096211 -0.12390182 0.079296894 -0.050698385 0.007972275 -0.09133439 0.07906904 0.11252326 -0.013492089 0.099652484 -0.004079668 -0.012333611 -0.08575682 -0.023235748 -0.11090539 0.057274688 0.10384062 -0.03803797 0.07115073 0.11104 0.020845337 0.08789837 -0.07910333 -0.11585014 0.057380244 -0.07672203 -0.009321363 0.065994866 -0.08993838 -0.033622626 0.12569687 0.046745777 0.026630722 -0.07046063 -0.08001831 0.010307589 0.08468489 -0.08347795 0.04059535 0.08120403 -0.11773349 -0.02120981 -0.008201356 -0.047574613 -0.06336987 -0.06317597 0.021548284 0.12428801 0.08203372 -0.047189366 -0.1061978 0.10001687 0.020930381 0.0003667634 -0.079258904 -0.0720937 0.052118775 -0.07725631 0.110588 -0.06630345 0.1630199 0.03833505 0.0038763897 -0.121247776 -0.0013780361 -0.13249469 0.111668505 0.0845792 -0.13870086 0.033218194 -0.09672011 0.028247492 0.05530513 0.056154713 0.10386566 0.06672404 0.066827506 0.057105638 0.090286896 0.0069438587 0.078520976 0.0027997142 -0.09734595 -0.07519227 -0.11873249 -0.08666225 0.06764592 -0.055961225 0.014299122 -0.11736702 -0.07933804 0.037358675 -0.021910131 0.048964024 0.08824886 -0.059128184 -0.09318381 0.11263409 0.117562555 0.047541637 0.03246231 0.0060812817 0.0071010343 -0.05201009 0.06550513 -0.10570806 0.032760452 -0.12131077 0.11714114
-0.09110622 0.0070571643 -0.032175194 -0.0940833 -0.037203573 0.07689842 0.07698926 -0.05051884 0.09051391 -0.0013385385 0.044802073 0.017117346 0.08557221 -0.036332697 0.15404242 0.061968826 0.10152369 0.06938043 0.03125841 -0.06942304 0.08352125 0.08907126 -0.0031459362 0.1513571 0.06473462 -0.036345724 -0.03340431 0.07809175 -0.08971478 -0.018810125 -0.13037294 0.102794684 -0.054094844 0.13457371 0.08051135 -0.12830794 0.027686516 0.04371533 0.09728954 0.04745492 -0.10598503 -0.0882989 -0.033385806 -0.06152472 0.018164672 -0.0285399 0.1272468 -0.072944246 0.06651299 0.08670965 -0.022157261 -0.12479328 -0.030818144 -0.10734112 0.015507242 0.054656353 -0.07829887 -0.07312121 -0.014614022 0.063409016 -0.0069619017 -0.08669808 0.003582932 -0.06583138 0.08283671 -0.12388196 0.03648519 0.061331805 0.12809509 0.091917396 -0.0691938 -0.059495058 0.08880015 -0.07186171 -0.11968714 -0.018680094 -0.115845494 0.15663151 0.13223046 0.06516025 0.013173443 0.0036321543 -0.04198536 -0.035140548 0.06974271 -0.068760656 0.08637889 -0.11221747 0.09810957 0.098203786 0.080768965 0.11051992 0.0021998738 0.089846745 -0.052728143 0.0632011 0.06582591 0.03569743 -0.090432376 0.03365931 -0.050854336 0.115332 0.040343877 0.031089455 -0.08974327 0.08996733 0.0430021 0.048470538 -0.13673168 0.04197739 0.12148621 -0.015546061 0.061844356 0.05707394 0.0044421405 -0.04000424 -0.05044879 0.12912284 0.055747837 0.16779974 0.08031995 -0.058050547 -0.083203726 0.050029688 -0.10724225 0.18928728 -0.101535015 0.02484329 0.043374065 0.0008590939 -0.044954043 0.07243399 -0.11483523 0.068936825 -0.13464874 0.1009881 0.06511144 0.08188068 0.011641588 -0.02175703 -0.08294922 -0.090553574 0.016741509 0.053415906 -0.10855959 0.062796295 -0.090027064 -0.011835246 0.080739394 -0.060755458 0.12977582 0.082634084 -0.0001142089 -0.0067778532 -0.0802486 -0.05383307 -0.073052295 -0.030224506 0.11504021 -0.0037665945 0.10007752 0.13084874 -0.06816938 0.12613198 -0.08704149 -0.10602436 0.05427058 -0.08340507
-0.06800397 -0.015305448 0.0676011 -0.015864821 -0.057445943 0.037196726 0.01960677 0.1123954 0.004297135 0.07120953 0.021814981 0.04192358 -0.013401109 -0.007513835 -0.04950709 0.046893302 -0.07723205 -0.068979934 -0.012138183 0.08157518 -0.11548415 0.051911566 0.06324425 -0.116177104 -0.07332538 -0.11710207 -0.12663484 0.12578419 0.046295665 -0.027753202 0.047804974 0.057169873 0.045152433 0.14156751 -0.01922969 -0.022903197 0.022205122 -0.08655237 -0.085299715 -0.14400825 0.06678107 0.0049521434 -0.09327186 -0.08221256 -0.00051820104 0.031279318 -0.11076281 -0.09518412 0.07186387 -0.0065222867 -0.015629513 -0.13387223 0.14001529 -0.09372536 0.043270726 0.04516589 -0.14075696 0.06671617 0.0120777385 0.0463501 -0.014607181 -0.13692905 -0.033080447 -0.050221194 -0.11226068 0.08492464 -0.100335 -0.07859179 -0.081427984 -0.020799777 -0.05257252 0.09640499 -0.03474038 0.13845462 -0.05823678 0.12670213 -0.04167497 -0.044169094 -0.09223993 -0.087788455 -0.026378188 -0.0024894278 -0.00039122414 -0.06655494 0.068361446 0.12801418 0.05738379 -0.04657562 0.053237297 0.022305219 -0.08315267 -0.031714346 0.123886116 -0.03487565 0.04419074 0.10466529 0.12605627 0.11666005 -0.14773776 -0.09535569 0.14442475 -0.08652838 -0.11828126 -0.04031186 -0.023344738 0.095707156 -0.09324006 0.0003619167 -0.11747168 -0.02803707 -0.06979508 -0.09589714 0.11291001 -0.0074785226 -0.09264337 -0.06979677 -0.019989286 0.054479428 -0.072495304 -0.057840448 -0.08921979 0.06168052 0.022148749 0.053644534 0.10768839 0.15981026 -0.05131004 -0.14065182 -0.05913973 -0.008049991 -0.01943071 -0.11962536 -0.096767604 -0.10965701 0.12573153 -0.08243478 0.0360156 -0.08147736 -0.15385276 -0.0019379313 -0.06178963 -0.02551829 0.077671364 -0.08157689 0.060853895 0.028761491 0.08059988 0.09512962 0.029218435 -0.14340633 0.12002057 -0.014021757 0.00045266052 -0.03142775 0.092575245 -0.08977772 0.03563079 -0.06485244 -0.12212619 -0.09621757 -0.0502233 0.04260439 -0.08343395 0.057050258 -0.12799814 -0.076852016 0.05667208 0.05246128
0.08871921 -0.05444789 -0.051505115 0.13015813 0.03141309 -0.034981932 -0.06765729 0.014423942 -0.051078055 -0.022912623 -0.13785473 0.011692499 0.107445516 0.14638178 -0.028997542 -0.055046067 -0.1422884 -0.0046187025 0.053218603 -0.023551514 0.017146554 0.042444017 0.09416813 0.07103499 -0.005640404 -0.023018736 -0.07432567 0.0039444407 0.005692947 -0.0018444166 -0.0014611526 -0.0041284123 0.017935527 -0.00886597 0.021093924 -0.053301085 0.10341281 -0.097265646 0.11392636 0.022511944 -0.12819856 -0.13117887 -0.07770958 0.002814703 0.07986714 0.087355606 -0.0802647 -0.06545011 0.0447818 -0.07968502 -0.0045172176 -0.117666624 0.05207101 0.09203991 -0.091092706 0.066942506 -0.005209326 0.09708311 -0.0021508664 -0.044660944 -0.06047873 -0.0055407747 -0.0365713 -0.03477771 -0.06881146 0.000117159296 0.14803652 0.025869543 0.073159255 0.12245218 -0.04154802 0.0043574404 0.068227746 -0.079951 -0.11605257 0.11137925 0.030592984 -0.00602945 0.1338026 0.12562284 -0.032597896 -0.11229604 -0.039525654 -0.12417925 -0.08214264 0.11620873 0.104407035 0.04315713 -0.08003305 0.13710949 -0.14565003 -0.07084857 0.01553653 0.10644022 0.08515461 -0.057973653 -0.059634738 0.04175346 -0.063926235 0.09398597 0.03249443 0.12627064 -0.0025708992 0.11449244 0.11579789 -0.027132947 0.005401438 -0.09643128 -0.068108864 -0.10320307 -0.04754017 0.0026112618 0.121880755 0.012095758 -0.06149683 0.12504525 -0.09868109 -0.07082671 0.08949736 0.15045781 0.07305854 0.0004945069 -0.024841035 0.064860694 0.07755883 -0.055101 0.063528724 -0.1716036 0.041810833 -0.11236545 0.09165824 0.0083741285 0.11209214 0.052408896 -0.09927391 0.12989035 0.11257404 0.052214805 -0.028886294 -0.11362128 -0.1340641 0.085674256 0.03403843 -0.09677115 -0.114280574 0.0068090283 -0.09498288 -0.094730854 0.030959314 0.046152756 -0.12630817 -0.0656485 -0.00408055 0.108739406 0.09954303 0.07530078 -0.015241288 -0.064126655 0.08674067 0.06747557 0.12742439 -0.13472606 0.05989883 -0.0042884867 0.08726539 -0.05493617 -0.13316731 -0.016189689
0.123263404 0.027891802 0.010435 0.04300429 -0.12618189 -0.100688495 0.052264903 -0.00947964 -0.029608676 0.008478787 -0.082048126 -0.029327745 0.00729348 0.122291245 -0.09946062 0.071585655 -0.09949902 0.02118129 0.06324239 0.037743744 -0.009035075 0.03750488 0.010017431 -0.10644737 0.052759856 -0.12341606 -0.1814362 -0.12585932 -0.06916581 -0.015286549 0.028432194 0.005089124 0.052403823 0.155789 0.08068572 -0.034739677 0.085130684 0.041318152 0.03227139 -0.13885412 -0.02133622 -0.0778277 0.12742649 -0.012475043 0.119007364 0.071036145 0.067359 -0.14084893 0.08316982 -0.04345083 0.119007565 -0.04830628 -0.05391623 -0.1395442 0.040571418 -0.04516834 -0.13537377 -0.0065227184 0.022470055 -0.094106756 -0.05786514 -0.043627467 0.027471421 0.11019194 0.100860044 0.06329244 0.08716922 -0.086542785 0.0006137094 0.0661806 -0.010135701 0.14394271 -0.14381936 -0.12000738 -0.05929987 -0.09253461 -0.05086019 -0.08444593 0.08957124 0.08399139 0.07103712 0.124555536 0.10535061 -0.05223125 0.02951074 0.047488328 0.08461287 0.0007404505 0.082660556 0.076909415 -0.08106746 -0.010556947 0.11549889 0.07536669 -0.10781757 0.03335077 -0.035125233 -0.10804744 0.082362756 0.028390592 0.039468575 -0.07354858 -0.12860237 -0.10414126 -0.029724583 0.12597416 -0.10943294 -0.12428614 0.058330677 0.030718358 0.037730455 0.11818293 0.07042913 0.014814614 0.104399174 0.01770135 -0.0398549 0.03170571 -0.09974159 0.06362316 -0.054087944 -0.08203 -0.054574043 0.0573728 0.12323784 0.110647745 -0.007983019 -0.10407903 0.02384785 -0.04216407 0.057635523 -0.05167081 0.07844904 0.01182274 -0.035248324 0.13181332 -0.008884448 0.10045646 0.021407118 0.07351292 -0.017109945 -0.03643413 0.09290751 0.09442947 0.019842133 0.13095899 0.12595668 -0.06992552 0.03584789 -0.14129584 -0.034530226 0.13554603 0.11693112 -0.013891432 0.072726905 -0.12053889 -0.10637188 0.06014838 0.058338415 0.042855795 -0.040738393 -0.1053444 -0.025829319 0.082265265 0.012908004 0.050969675 -0.0732282 0.038993847
-0.12853178 -0.11917278 0.03195516 0.06486476 0.07021057 0.12672909 0.06782175 -0.021789545 -0.09680236 -0.101096764 -0.044952806 -0.039339256 0.0025979602 -0.0940586 0.07925327 0.117871284 -0.14652555 -0.092406906 0.122559614 -0.060767002 0.09801694 -0.11138877 0.03503155 -0.030647596 0.06918655 0.008011574 -0.013291183 -0.004067771 0.060406506 0.039951243 -0.05523071 0.071975894 -0.119179726 0.028674379 -0.037823677 -0.09348927 0.042511743 0.12031751 0.09446631 -0.04709872 -0.07781748 -0.0331113 0.0008060427 -0.12645744 -0.097560756 0.067483366 -0.060576875 0.00035169892 -0.031841904 0.06128464 0.018016933 -0.15109247 0.08782351 0.064818636 -0.14547868 -0.00012179139 -0.02066127 0.13078746 0.009532385 -0.09054475 -0.0018322048 -0.0933775 0.14793436 0.029485157 -0.07440999 0.10878084 -0.051580973 -0.07988916 0.0923733 0.029690273 -0.107449755 -0.07202436 -0.110411525 -0.02677621 -0.1274565 0.099919304 0.08583364 -0.012061771 0.045434035 -0.013216961 0.09958165 -0.104029305 -0.006966874 0.030672997 -0.022111721 0.043880295 0.0428573 -0.14668116 0.13282356 0.10224433 -0.06813539 0.12632391 0.08477314 0.097991444 0.0025183265 0.122234195 0.08098644 0.054993343 -0.12519856 -0.07564512 -0.12891403 0.12004378 -0.08650407 0.046112314 0.047609843 0.022716817 0.023746818 -0.047510814 0.06533431 -0.07617961 -0.07445424 0.017228622 -0.008531306 -0.026102314 -0.065640025 -0.059535973 0.08969276 -0.070269026 0.05662607 0.019055443 0.12486624 0.0006670931 -0.027236236 0.0032947434 -0.050599184 0.03764623 0.016895344 -0.09091583 0.038921807 -0.08515819 0.030801725 0.10725635 -0.02672271 0.051839296 0.14820805 0.09718896 0.09684043 0.07033336 0.0944554 -0.025309986 0.11022389 0.02979445 -0.12503523 -0.048011318 -0.00841193 0.0039095683 -0.0462531 -0.035196915 -0.09623308 -0.026511056 0.062372785 -0.12007054 -0.1129142 -0.005692128 0.028327435 -0.07704381 0.09212812 -0.03230592 0.0434878 -0.04376542 0.051308982 -0.12278211 0.073833324 -0.019641101 0.11182682 0.0720579 0.0070360727 -0.021647677
0.019722242 -0.09168666 -0.030379115 0.07492652 -0.020352393 -0.0626198 0.14080904 0.045905568 -0.016109955 0.09474266 -0.07655925 -0.022556327 0.009508623 0.10639091 -0.06169813 -0.13263631 -0.08471238 -0.032255687 0.117165536 0.010048361 -0.13829534 -0.09617942 0.016043203 -0.11820308 0.123034075 -0.015583321 0.07467129 -0.028721442 -0.031231802 0.051911376 -0.10860252 -0.06266477 0.06129389 -0.020560423 -0.08969892 0.031256318 0.039411847 0.009412961 0.027385898 -0.045996293 -0.025091222 0.07611973 0.10997535 -0.064145036 -0.035222623 0.1216097 0.102227226 0.05230037 -0.07292227 -0.04909372 0.12647979 0.010026365 0.081581555 -0.080688566 -0.02484171 -0.08740104 -0.06111666 -0.012057728 0.12003169 0.0043523763 0.03449974 -0.092114255 -0.079893574 0.031519163 -0.121945225 0.04789289 0.06272914 0.11013654 0.11498648 0.03813941 -0.0062033283 -0.08397603 0.06901093 -0.03033072 0.015625777 0.07443406 0.0902681 0.12781893 0.028336598 0.07511343 0.1259565 0.09140024 -0.050409544 -0.011767819 -0.059576962 -0.107364655 -0.02523248 0.06070493 0.06879857 0.04950412 -0.15008967 -0.078784876 0.08441285 -0.044547245 0.09651817 -0.11428063 0.07952463 0.003362138 0.007317884 -0.13032083 0.01975202 0.08211816 -0.08153222 -0.12247615 -0.05150737 0.010896415 -0.111537494 0.13112274 -0.07624993 0.06042956 -0.11624569 0.05275507 -0.03664313 0.061706778 0.025859822 0.10931907 -0.016459031 0.13504629 -0.0007377858 0.13260849 0.11541391 -0.072107054 -0.077047884 -0.006992364 0.07407486 0.06981553 -0.025694685 0.06565187 0.0008069024 -0.10202016 0.005383625 -0.0049310243 0.08981336 0.08365356 0.093546726 -0.02356086 -0.09323881 -0.011166084 -0.10111549 -0.08772746 0.11504186 0.043154657 0.07217238 -0.044458624 0.06256756 0.08067748 -0.1062431 -0.085105374 -0.042225383 0.08987366 0.02773237 -0.09774291 0.059466932 0.12179446 0.009738453 -0.09644003 -0.0795076 0.007206815 0.055685833 0.015193027 0.12961215 0.061566133 0.06858422 -0.09244957 0.06278974 0.05073908 -0.05796568 0.11190501
0.07420034 -0.0042905402 0.03057627 -0.06692047 -0.11572775 -0.11678885 -0.023517758 0.12712324 0.10211107 -0.030205548 0.0940645 -0.06565708 -0.034498967 -0.12511341 -0.03937172 0.03310498 -0.13688791 -0.09423079 0.060666956 0.08601504 -0.07556462 -0.027699638 0.1255401 -0.1201769 -0.11784054 -0.04621528 -0.06737197 0.16112734 -0.1303952 0.10747935 -0.00066831545 -0.09892027 -0.06132955 -0.10272602 -0.07057748 0.07382471 0.09433072 -0.029541962 -0.050488893 -0.15366012 0.04302233 -0.052614678 0.07359902 -0.11817045 0.09854391 0.04125662 -0.13153209 0.09561057 0.11752268 0.024021037 0.0098841665 0.018152239 -0.07703956 0.03161384 -0.055641543 -0.12321255 -0.1156779 0.067456566 0.13397293 0.065596364 0.074083135 -0.01651147 0.0008468059 0.020113217 -0.092764616 0.05536293 0.023768602 -0.02561787 -0.11331435 -0.15976201 0.04355248 -0.029226871 0.020226032 0.15076114 0.002653489 -0.0070676534 0.10388852 -0.11889909 0.12804182 -0.027242372 -0.12409949 0.114248626 0.09956288 0.018986737 -0.013352739 -0.10635243 0.11374222 0.020236917 -0.10187173 -0.11187333 -0.1465144 0.07007971 -0.06476975 0.023908053 0.05200394 0.0319929 0.04674326 0.030229753 -0.050475597 0.04232396 -0.1265828 -0.08765013 -0.09513193 0.10086099 0.11517688 0.022152571 -0.049859777 -0.06371903 0.0006166514 -0.021895329 0.072285526 0.102763936 0.012785514 0.051077884 -0.059840966 0.061542146 0.00084058003 0.12207196 -0.12985128 0.14408764 -0.06136948 -0.11789544 0.005019736 -0.026856612 -0.051862977 0.1311278 0.078962035 0.113855235 0.062717244 0.0999252 0.08064757 0.09545781 0.16470027 -0.04383643 0.0686962 -0.016660389 0.064727046 -0.003357228 -0.057498477 -0.14407358 -0.11951752 -0.06271813 0.026078675 -0.097542055 -0.049924057 0.11064199 0.13882768 -0.08414098 0.022365801 0.114411384 0.07223625 -0.110514745 0.02780842 0.028097684 -0.09157493 -0.0057639815 0.1355328 -0.10516956 0.08049242 0.011061175 0.09663627 -0.121717885 0.12892178 0.08148437 -0.07589815 -0.058583394 -0.0066028438 0.036060054
0.01273696 -0.022250043 0.06324255 -0.13088155 0.0032042442 0.04211998 -0.00904881 0.046320498 -0.036084812 -0.020441152 -0.066293135 -0.09517783 -0.017972257 -0.09788774 -0.0114551345 0.07849901 -0.08060734 0.07712216 -0.058659393 -0.01786899 0.035407294 -0.057991136 0.06364157 -0.12291068 0.12670298 -0.041608606 0.010141053 0.055870324 0.049953975 -0.07079485 0.054767217 0.11422164 0.09709796 -0.014771752 0.10687894 0.13591346 0.14513904 0.12487489 0.079625 -0.031836636 0.11582494 0.044250194 -0.07158437 -0.13314635 0.07600627 -0.069226645 -0.043195184 -0.09062815 -0.0857236 -0.07452124 0.047125515 -0.037063953 0.1664065 0.008742177 0.031761907 -0.021251969 0.11550154 -0.13289993 0.059906065 -0.12513806 0.00746671 -0.0050716046 0.16548209 -0.11743809 -0.022231445 0.12950431 -0.12636733 0.003697739 0.0019996527 -0.026514472 0.09523072 0.09908488 0.0051098047 0.0512109 0.004998052 -0.02253791 0.039928462 -0.036422588 0.04033787 -0.15658048 0.09077693 -0.064234555 0.114968896 -0.09231902 0.061628066 -0.13037214 0.054117158 0.057442404 -0.11280853 0.095741056 -0.011023681 0.029135117 -0.013689447 -0.0076778894 -0.019266656 0.082386956 0.12435656 -0.12917764 0.046879247 0.018566756 0.109089255 0.032981534 -0.10171898 0.044339664 0.017650135 -0.03238502 -0.13449268 -0.0822177 0.08307133 0.095433526 0.08566852 0.10754649 0.06260833 0.053000934 -0.064578645 0.07482757 0.03998704 -0.055405587 0.108134866 0.010397799 -0.10684169 -0.10420906 -0.04523598 0.061141957 -0.02285509 0.09452377 0.011580169 0.07905376 0.1424794 0.0062657925 0.053849198 -0.008888638 0.13020271 0.17967208 -0.101513445 0.1666781 0.13268249 -0.113402575 0.016824523 -0.04709045 0.06827026 -0.08247317 -0.098856285 0.073971555 -0.002163187 -0.020326734 -0.002644689 0.14389281 -0.036982697 -0.07030204 0.010942483 0.012814324 0.024195341 0.07192284 -0.056039043 -0.056976303 -0.08045231 0.090069376 -0.10966851 0.06416085 0.0049848678 -0.1616549 0.13674283 -0.11119545 0.020318784 -0.020197742 -0.02081593 -0.06321184
-0.064112425 0.04834317 0.16047296 -0.055203013 -0.031433374 0.056482386 0.07146988 0.004545663 0.04982086 -0.12551975 -0.124259025 -0.08058615 0.040529057 0.09727373 -0.05287909 0.06656467 0.05185634 0.16417131 -0.012375826 0.100232616 -0.15157856 -0.0034908478 0.043653797 -0.081683554 -0.09923872 -0.02865206 0.024856372 0.17206714 0.06923376 0.17934489 0.049881164 -0.037242018 -0.102277845 -0.08918775 -0.08137169 0.13243599 0.058179587 0.022527492 -0.03086374 -0.12634268 0.13842201 0.021448163 0.01133754 0.015894921 0.021802416 0.05348759 -0.023390638 -0.08950681 0.034164064 -0.0100302715 -0.047717195 0.08401987 0.07388954 -0.17423064 0.018718414 0.00066486513 -0.02216665 0.08211501 0.126749 -0.023785591 -0.08203743 0.028910417 0.14490429 -0.13330875 -0.07031781 0.02810406 -0.05240532 -0.06443296 -0.13779035 -0.09676436 0.147252 0.0905327 0.008017526 0.16205001 -0.13612454 -0.062214177 -0.08875788 0.06944118 -0.04966348 -0.08398604 -0.05441195 -0.14434426 -0.065128 -0.042335 0.12775832 -0.1450264 0.055887565 -0.06497999 -0.046336837 0.12834784 0.02048909 0.021307724 0.013631706 0.07053272 0.03173564 0.024036996 0.039431453 0.04609532 -0.14944392 -0.010160306 0.050944567 -0.08915663 -0.019481713 0.13680296 0.022373224 0.09835494 -0.031696226 0.16355994 0.02424399 0.039822657 -0.02017744 0.016578618 0.116726436 0.0074218623 -0.031790987 0.009241457 0.106379494 -0.12519877 -0.0032504522 -0.085152395 -0.0151646435 -0.08783033 -0.06440424 0.0123821655 0.0005658696 0.018713705 0.08324856 0.087249994 0.16480668 0.08092921 -0.14503421 -0.0034294324 0.11642183 0.03555937 0.1258806 -0.009056006 0.009104544 -0.045083746 -0.034822065 -0.15469253 -0.05022842 0.03274589 -0.07441421 -0.105740786 0.0917299 -0.053617764 0.078292355 -0.04652799 0.11285738 -0.055360254 -0.11727306 -0.00055521226 -0.06285169 0.075968236 -0.06758941 -0.16970208 -0.07242406 -0.039242715 0.064853385 0.06436254 -0.025148375 0.03914874 -0.08446078 0.06805217 0.07140928 -0.119019486 0.03606485 0.06151085
-0.12708984 -0.068097696 -0.0019149147 -0.027099546 -0.020024281 -0.1464767 -0.07791291 0.19348222 0.08926967 -0.25121894 0.022957709 -0.020719513 0.05169125 -0.13044542 0.09046743 -0.12323863 -0.18055765 0.07763311 0.1059644 -0.024022834 0.01772679 -0.015845306 -0.0036106987 -0.030823529 -0.089934304 0.0887095 -0.022698693 -0.054658737 -0.013031835 0.1327802 0.05850517 0.05659711 0.017924279 -0.1340708 0.0247034 0.06830098 -0.060753047 -0.007932108 -0.013575763 0.044703986 0.22184063 0.06714432 0.08387112 -0.12982582 -0.096099265 -0.060673755 -0.002700937 -0.025597021 -0.010942287 -0.021451404 -0.1125647 0.1403957 0.11577124 -0.05739748 -0.015351285 -0.061306167 0.14600185 0.08975055 0.11280922 -0.03805851 -0.093068756 0.054314665 0.10102417 -0.15021375 -0.12577564 -0.014453494 0.008710629 -0.09310917 0.093681075 -0.08152136 0.094635695 0.003607543 0.031096019 -0.030974433 -0.049903568 0.056938607 -0.09474942 -0.020362133 0.017748946 -0.094298616 0.07409674 -0.03719677 0.025902336 0.10337183 0.073343 -0.044859853 0.13952345 -0.057205025 0.088231094 0.07885575 0.04844434 0.13407013 0.15262377 -0.047518924 0.041131943 -0.070634134 0.06254543 -0.10752437 0.11560996 -0.0021268616 0.14342618 -0.113452934 0.023351522 -0.04556161 -0.05791764 -0.11750291 -0.14316435 0.115270846 -0.102969855 0.14714436 -0.1377706 -0.020657945 0.054252606 -0.024128908 -0.104993045 -0.040931866 -0.07870933 -0.119527765 -0.13191362 0.07925203 -0.055294197 -0.024742007 0.045113202 -0.11936704 0.047167864 0.058297794 0.13664041 0.19641332 -0.076132506 0.095970996 -0.20280187 -0.11469628 0.06445856 0.07010046 -0.081114344 0.13391264 0.038991313 0.03424959 -0.04011765 -0.23124745 -0.09625805 0.08630083 0.04666174 -0.16726229 -0.042647786 0.08122187 -0.008868895 -0.062809594 0.11366745 -0.08574055 0.10427798 0.14867811 0.011295036 0.025720483 0.014367763 -0.16935684 -0.16104195 -0.08983854 -0.17230181 0.086287834 0.081808284 0.027964357 -0.10974201 0.027917415 0.112309106 0.08003895 0.05847944 0.111953855
-0.06888457 0.019922221 0.07665383 0.12551752 -0.05605281 0.071368165 0.0040187547 0.058372777 -0.10530433 0.053602673 -0.110079825 -0.101347044 -0.05230582 0.054281197 -0.009413234 -0.0027206184 0.15598676 -0.081469506 0.07017238 -0.01602933 -0.12934503 -0.0105313305 0.082244776 -0.056477718 -0.11319967 -0.011470641 -0.07685732 -0.09917593 -0.057993174 -0.1362869 0.026644493 -0.05493004 0.009982808 -0.08955711 -0.0029426822 -0.099438846 -0.12798022 -0.0011597318 -0.11594623 0.04866021 -0.070851244 -0.15580809 0.08507889 0.08924827 0.069245055 -0.13424039 -0.070029154 0.10850723 0.06983329 -0.061980482 -0.111835666 -0.10602794 -0.17409404 0.051137477 0.01307915 0.0050730067 -0.15029578 0.0655921 -0.062332496 0.07170543 0.022160484 -0.030075237 -0.16186093 -0.0037739482 -0.06126726 0.0934857 0.15531017 0.07749776 -0.036906112 -0.039030157 -0.116621666 0.013267195 0.015004037 -0.10741171 0.015048149 -0.058204938 0.121891595 -0.024503704 -0.07752186 -0.023019971 0.05137406 -0.09514734 -0.038660526 -0.054305524 0.07297272 -0.11117864 -0.06587678 0.15415591 -0.009456592 -0.0755249 0.14093362 0.08984988 0.13580604 -0.037003227 0.105797336 0.0045307497 -0.0926888 0.07753669 -0.10143522 0.05421016 -0.040500425 0.08463148 0.1141989 0.044745985 -0.13580544 -0.02041594 -0.052153353 0.004753529 0.12356923 0.06027717 0.111879684 -0.12975977 0.0029048289 -0.012266064 -0.014005851 -0.0769379 0.06829895 -0.05827496 0.047808923 -0.018636344 0.13984352 0.059964936 -0.031371556 -0.045587678 0.072211094 -0.0016093565 -0.037358172 -0.10299201 0.09378051 -0.015864642 -0.06263616 0.0046782154 -0.12507503 -0.18297835 0.06252388 -0.011446206 -0.16613317 -0.099432126 0.04709006 -0.0848429 -0.060669623 0.009737074 -0.0721024 0.007828107 0.03124968 -0.080323674 -0.1556187 0.09704822 0.11377197 0.0083603645 -0.07310846 -0.029694853 -0.047681283 -0.024481174 -0.12522501 0.17738385 -0.017804528 0.10048168 -0.014562381 -0.013871795 -0.10810572 0.13379306 -0.057799336 0.04648999 0.03286282 -0.090312384 0.010148463 -0.07607368
0.14660235 -0.12049232 0.062131483 -0.034092277 0.012059094 0.031855132 -0.14753841 0.10639278 -0.12101483 0.18358815 0.056975737 -0.048119944 7.95507e-05 0.0108889965 0.06443617 0.055286083 0.1335234 -0.08543968 -0.07822687 -0.11768413 0.015751066 0.12380341 -0.017491255 0.1095848 -0.05244844 0.14790012 -0.11386993 -0.12473288 -0.110803634 0.062469363 -0.018607588 -0.063079275 0.024056694 0.1314581 0.024592096 -0.014155585 -0.022610718 0.016632902 -0.09858769 -0.06978766 -0.12866749 -0.09929986 0.03795278 -0.065219834 0.07896642 -0.041468862 0.15846664 0.1469545 0.061587565 -0.006001836 -0.063250214 0.09419012 -0.013678593 0.08855978 0.122893766 -0.02938162 0.06631527 -0.10752957 -0.08333891 -3.722788e-05 0.08788501 0.07611337 -0.09944885 0.10924775 0.15126044 0.12396493 -0.02722061 -0.08090415 0.03335315 -0.043755524 -0.00037575184 0.07498558 -0.037486903 0.08904659 0.06980934 0.066349275 0.11831365 0.13761264 0.069202885 0.09879696 -0.04703855 0.11635965 -0.03164381 -0.1599399 0.13664013 0.042344052 -0.15445288 0.022086877 0.049133804 -0.12544362 -0.075071044 0.1250807 -0.09207815 -0.041713327 0.0209104 0.0895341 0.028319862 0.12318554 0.064202 0.062044613 -0.0078026624 -0.01644442 0.009140424 0.09484319 -0.12207768 0.036867198 0.03937965 -0.016650295 -0.05178413 -0.033461172 0.06903661 -0.07807215 -0.06428375 -0.12161121 0.03966363 0.03771631 -0.040380746 -0.0958522 0.11229382 0.060442556 0.05803854 -0.05645271 -0.025655104 -0.046018604 -0.09703116 0.013407369 0.07388894 -0.021021292 -0.043325722 -0.12159953 0.03122951 -0.020960458 0.032515198 -0.10114094 -0.010528606 0.005898815 -0.19808088 0.05023518 -0.068105124 0.09937232 0.14414144 -0.05537803 0.07508579 -0.013579209 0.082201704 -0.095226385 -0.082791075 0.0051814453 0.030640077 -0.033163633 -0.09059374 -0.04904395 0.06322391 0.027125068 -0.026856862 -0.024620835 -0.135072 -0.07674652 0.08819198 0.043498278 -0.06319355 -0.0026336429 -0.099262565 -0.068604425 -0.08691711 0.0785112 0.0922807 -0.14465949
0.12193572 -0.08550828 0.11668663 -0.025421994 -0.054326527 0.120981805 -0.15713714 -0.1474718 -0.040343873 -0.05156596 -0.1321231 0.14183018 0.12823728 0.12980343 -0.022237154 0.11660821 0.08076792 -0.008612329 0.11461361 -0.11738709 0.05480566 0.05552355 0.025494475 0.112962075 0.096977845 -0.066065185 -0.1366006 0.034306865 -0.12214639 -0.14092617 -0.0753097 0.07309514 -0.054494243 0.080743045 0.024267083 0.052117083 0.10127131 -0.122368276 0.08406528 -0.036543146 -0.036293227 -0.111744665 -0.07243776 0.015635174 -0.03440649 -0.10976005 0.12942518 0.14881259 -0.059971757 0.049065176 -0.07990877 0.059329942 -0.0912309 0.11143176 -0.006431568 0.029802367 -0.056541152 -0.04261141 0.006256659 -0.10705267 -0.06277058 0.09273747 0.041504335 -0.023453116 -0.052893367 0.03697492 -0.05695493 -0.045356244 0.11770589 -0.10405936 0.04534645 0.1367181 -0.11563097 -0.01802988 0.11696015 0.14312641 -0.0315183 0.12650044 0.033721622 0.014556777 -0.034851734 0.13135134 -0.09729844 -0.12007381 0.12772685 -0.024593439 0.054039262 0.10155414 0.05748841 0.029176401 0.05488804 0.122407466 0.007740316 0.08096805 0.12504265 -0.005655193 0.017622605 0.09511999 -0.021472618 0.13504742 0.06981642 0.10988222 0.022996457 0.0021849815 -0.0019226525 -0.07870035 -0.08710667 0.08139263 0.12757295 -0.04323216 0.123221815 0.0786751 0.033214793 0.11375875 0.1334337 0.02611854 -0.12544715 0.00080940686 -0.09275145 -0.02187412 0.09656939 0.060039066 -0.11187248 0.09811625 0.11339714 0.15569353 -0.014542126 -0.086517625 -0.123474464 0.097651646 0.011164623 -0.0199593 0.029389929 -0.076603554 -0.037182968 -0.13923304 -0.09797392 0.11049013 -0.11440897 0.13521902 0.00809406 -0.08956361 0.010367215 0.028961055 -0.08876708 -0.062528916 -0.08882435 -0.08545873 -0.021626981 -0.07018279 0.06142484 0.044451684 0.0017325309 -0.018509462 -0.06997497 0.1148516 0.13166247 0.033188745 -0.011913441 0.03515689 0.09147029 0.046919 0.054240692 -0.13143751 0.03426026 0.07435902 -0.08779651 0.0061691296
0.05497618 -0.019750068 -0.049632493 0.11028604 0.078921236 -0.103229225 0.06252481 -0.016577655 -0.080063656 0.04283337 0.012328548 0.039200474 -0.088844016 0.0847174 0.019336512 -0.08128594 0.029831108 -0.07431525 -0.12102735 -0.12493645 -0.1261738 -0.00014159792 -0.07994619 0.08420564 -0.018572304 -0.11717297 0.05727631 0.025017565 0.11253992 0.04105464 0.0107881185 0.09386088 -0.031621117 -0.09113712 0.1284776 0.028090492 -0.15715973 -0.124866545 0.050278004 -0.14110741 0.0015617944 0.060509846 -0.009389379 0.12500045 -0.10630765 -0.12401425 -0.03839171 -0.08911018 -0.010257028 -0.039027743 0.11884849 -0.039400805 0.024717309 -0.0051829685 0.12247375 0.022237072 0.10458952 0.056465425 0.026143163 -0.107767925 -0.07613021 -0.090703815 -0.10949274 0.045115553 0.010458357 -0.07446754 0.016440216 -0.023375772 0.05843707 -0.10799789 0.1263977 0.060051 -0.056503512 0.07227072 0.07665458 -0.042266704 0.14337265 0.14536516 0.06336453 0.024852054 -0.02204701 -0.13725154 0.05175706 -0.08860293 0.009242137 0.05315728 0.00057681627 0.061313316 -0.08397778 0.04194301 0.10448042 0.092848316 0.09661096 -0.031155236 -0.0367391 -0.12506223 -0.049776968 0.08604784 0.039553143 -0.08098527 -0.13258481 0.09708526 0.051621508 -0.123626284 0.04815851 0.07006866 -0.082450055 0.0586331 0.060290318 -0.114230044 -0.11140801 -0.15323994 -0.07113675 0.051016107 -0.10709015 0.03135292 0.0860785 0.05403165 0.03361328 -0.029521259 -0.083516285 0.024494018 0.14573704 0.108863726 0.035022594 0.019272262 -0.07163779 -0.03302015 -0.028469473 -0.054036055 0.0935742 0.097903684 -0.046457246 -0.22509255 0.10915899 -0.111638196 -0.17134969 -0.029057134 -0.005170542 0.1230743 -0.048240606 0.13991725 0.08205754 -0.07741194 -0.09832685 -0.08010672 0.06760482 -0.11352553 -0.085659996 0.02417683 0.025716264 -0.008321177 -0.12081642 0.076381095 0.07531991 -0.06047959 -0.024960276 -0.017739698 -0.014355691 -0.101836346 0.12438615 -0.044849966 0.0120193595 0.060649898 0.12729639 0.16020629 -0.06498086 0.09516839
-0.0006496304 0.0018792995 0.025895124 -0.011971322 -0.1104389 0.11332059 0.09268506 -0.017348107 -0.093431726 0.13659495 -0.06513187 -0.0857347 -0.02209148 0.08644486 0.04336523 0.05015317 0.1581214 -0.09383911 -0.08899897 0.11928624 -0.017030964 -0.095135674 -0.034900393 0.104495004 -0.053190686 0.03211658 -0.07153496 0.06868626 -0.07839911 -0.06782338 0.08044182 -0.00609222 -0.01871225 -0.0902244 0.14346533 -0.011106674 0.018319014 0.019797806 -0.020943632 -0.093503855 -0.09118593 -0.059735626 0.07855486 0.1212633 -0.09831243 -0.1137727 0.07223775 -0.009128591 -0.1295932 0.03962739 0.09432626 -0.04670497 0.059322797 0.08271894 -0.041155335 0.024450982 -0.065145895 -0.113643296 -0.1249261 0.11716628 -0.119917735 0.12625441 -0.025858952 0.040150892 0.16802265 0.0977542 -0.012608189 0.005926738 0.06331785 0.017221982 0.07776847 -0.026687056 0.06910374 0.10604925 -0.09865959 0.12734288 -0.06659405 0.08365112 0.09633959 -0.016636176 0.08493488 0.114662595 0.10528591 -0.0034936836 0.012183078 -0.009969373 -0.034005333 0.062349398 0.008293318 -0.08818623 -0.101680204 0.085886955 -0.053176496 0.00508698 -0.030418301 -0.07531651 0.08253792 -0.11807408 0.06803893 -0.05868972 -0.011609333 0.09551936 0.040954247 -0.11794464 0.033617593 -0.04369663 -0.011865345 0.09393357 0.09465765 -0.14311062 0.10963648 -0.031332925 0.106934264 0.088247634 0.09536569 0.03790933 -0.078426495 0.06595885 -0.020814676 0.081327535 -0.063502975 -0.03629461 -0.08570361 0.037468214 -0.088703446 0.066756815 -0.036086675 -0.08482099 0.026953354 0.006726266 -0.08229556 0.10325012 0.09005756 -0.1179218 -0.008662827 -0.10757429 -0.0062328908 0.01592086 0.06608024 0.12777416 0.04746701 0.08791265 -0.105141565 0.059339944 -0.106642425 -0.04406125 -0.05507492 0.106704235 0.058105856 0.0938995 0.119377665 -0.07759349 -0.013528314 -0.0800186 -0.061579637 -0.10231639 0.018879512 0.09326783 0.093164526 0.13336615 0.13299048 -0.059199844 -0.10783083 -0.00094613736 0.08056935 -0.06703766 0.012299966 -0.03063332
-0.092193365 0.10587014 -0.097163334 0.06366533 -0.06572167 0.13066079 0.092029795 0.10429305 0.09184034 0.06393467 -0.040173244 0.013671374 0.11861531 -0.01049869 -0.025207594 0.135035 0.06636241 0.113394246 -0.055332456 0.007878628 0.060268912 0.034886405 0.07391947 -0.008591344 0.034603402 -0.09989009 -0.07038404 -0.0314486 -0.01872694 0.0027244377 0.13682283 0.005850584 0.103713654 -0.07613024 -0.044981856 0.04118526 0.06591781 0.110285155 -0.06834935 0.0563459 -0.0187381 0.03192574 0.12510778 0.04509531 0.01853318 -0.13625816 0.108648896 0.030340556 -0.071506694 -0.07665603 -0.037570495 0.034462076 0.04609563 0.11560758 -0.11860794 -0.053786706 -0.03556763 -0.12542516 -0.045711886 0.14794755 -0.057636924 -0.0013100298 -0.14345203 -0.056915145 -0.08256623 -0.036454964 0.012654533 0.08443967 0.12385851 0.086592935 0.13397215 0.136833 0.11930875 -0.051860414 -0.04176108 0.034508098 0.100110516 0.039946984 -0.11305974 -0.0044648615 0.12490823 0.13053851 0.0060697882 -0.17787719 0.02854517 0.116833515 0.028044622 -0.085439585 0.05228626 0.03893247 0.08403463 -0.0889194 0.13772222 -0.03777892 -0.042943597 -0.08933485 0.027724432 -0.016827222 -0.004529327 0.06010366 -0.022709023 0.026650347 -0.07720225 -0.12331365 0.08009017 0.07750989 -0.04422717 -0.08102641 0.11921185 0.11166818 -0.018941088 -0.025732253 -0.054526173 0.11360609 0.0009842245 0.11571396 -0.12775578 0.14060393 0.062122505 -0.035124823 0.01216086 -0.05968178 0.02978887 0.06669021 0.13472785 -0.118412234 0.0048593627 0.12798566 -0.119025275 0.059195608 0.1505705 0.103271835 0.076892406 -0.10590388 -0.12142211 0.13816391 -0.05750601 -0.11316912 0.026296724 0.075441696 0.040002376 0.049154308 0.06494546 -0.06332681 0.11758053 -0.035167687 -0.12612589 0.091259666 -0.008083103 0.10347144 -0.024092259 -0.011210406 0.10450434 0.12685822 -0.112662405 0.06914909 -0.07147435 -0.09114855 0.12501052 0.058256138 0.06445546 0.045471516 -0.07164248 -0.1231412 0.11695171 -0.01967463 0.069009304 -0.0067463163
0.084614165 -0.11866856 -0.006282316 0.06567145 -0.066311516 -0.08392624 0.071282156 -0.03367093 -0.10715643 0.10737481 0.08322657 -0.09543559 0.056525275 -0.06399725 0.14394347 0.05372349 0.07291535 -0.07960417 0.1190807 0.042401176 -0.048787173 0.020587794 -0.0048549166 0.024879942 0.005806594 0.05508227 -0.08098752 -0.078255 -0.0036542204 -0.027109953 -0.05865214 -0.100341305 -0.06275727 0.07111233 0.1160924 -0.0637604 -0.09049361 -0.11568815 -0.12302986 -0.15487386 -0.074672215 0.052253965 0.17557612 -0.030973168 -0.10635717 -0.12800172 0.047513176 -0.008061044 -0.04341871 -0.10669109 -0.1071888 -0.022898061 0.040862225 0.0048220046 0.09101422 0.055544797 -0.04364662 -0.09305824 -0.118799224 0.14441599 0.07674452 0.034643862 0.057295598 -0.10204717 -0.07506611 -0.08978306 0.10035004 0.07146034 -0.07199296 -0.04531272 -0.081884734 0.15132082 0.064898275 0.12134128 -0.107725665 0.106602445 -0.030857205 0.105353475 0.039868083 -0.100742 -0.09524181 -0.0016933399 0.10311573 0.039424073 -0.038600124 0.008722563 -0.13568611 0.13940753 0.060377195 0.053813543 0.09401719 0.059969258 0.03694819 0.04672825 -0.12874955 0.11584929 -0.020872176 0.090381354 -0.057264704 -0.052244402 -0.058368925 -0.020963771 0.11671724 -0.033174753 -0.07453899 0.053329997 0.03897303 -0.13937181 0.10424878 0.104570135 0.0029238337 -0.022708181 0.017519126 0.066911906 0.008745805 0.0023163673 0.06073955 0.11597073 0.10473543 -0.04973048 -0.05190477 0.07273797 0.11054726 0.062500134 0.033826854 0.08741122 -0.11029182 -0.12113458 -0.073365144 -0.014780709 0.13269827 -0.026994819 0.05945615 0.053461727 0.04343066 -0.036144122 -0.14815362 0.10525956 -0.012630134 0.075574294 -0.038575687 0.12337701 -0.055786643 0.08708082 0.06789143 0.03003975 0.11923573 -0.031331558 0.05440525 -0.06921691 -0.028187817 -0.045942172 0.062147424 0.075100474 0.096831225 0.028958505 -0.08546133 -0.06644539 -0.013871436 -0.07259466 0.028811507 0.079885155 0.124816105 -0.007877878 0.0074338876 0.11925782 -0.033696473 -0.038556013
0.012363187 0.08514198 -0.10962475 -0.09165536 0.05160633 0.018979901 -0.057060294 -0.11965829 -0.034146458 0.057396144 -0.10917893 0.056980446 0.07555455 0.0016572291 -0.034094363 -0.0627585 -0.035780054 -0.008827215 -0.0072153877 0.04642864 -0.11052725 0.00663318 0.1179179 -0.020650297 0.11227632 -0.069584295 0.08968844 -0.001241324 -0.06353428 -0.052987203 0.054548115 0.06789313 -0.052188665 -0.099446036 0.03740877 -0.10877521 0.038451992 0.07227817 -0.13560534 -0.1297564 0.046599325 0.11653772 0.079837754 0.11320784 0.0690354 -0.02631186 -0.08163004 0.011256829 -0.07511408 -0.13425463 -0.045811865 0.017860616 -0.08114212 -0.06121372 0.049252056 -0.0239808 -0.06674672 -0.12537763 -0.041415095 -0.0886429 -0.076273486 0.111102074 0.015989086 -0.08514036 0.0065518394 -0.0034182162 0.1417326 -0.05755497 -0.065584436 0.027088558 -0.0047227805 -0.01066069 -0.006115099 0.090005755 -0.062423613 0.050035223 -0.07209984 -0.079430684 -0.10890292 -0.0237117 0.08000636 0.006511229 -0.12991695 -0.03515197 -0.089564286 0.0065930546 0.05008953 -0.03402683 0.004716419 -0.043362353 0.034656458 -0.09782686 0.11385788 -0.101201855 0.09595946 -0.09931864 0.09523313 0.08126758 -0.13154393 0.05065997 -0.031286266 0.10103903 -0.079570465 -0.029442715 -0.110174194 0.12997937 0.014382577 -0.09904851 0.065040976 -0.023755556 -0.10983034 0.044437863 0.11633526 0.09830688 -0.12261409 -0.123627655 -0.11520309 0.053269185 -0.042629562 -0.0644457 -0.09527132 0.07693465 0.0471371 0.067294315 0.009061898 0.0702018 -0.14109246 0.09852296 0.12613507 -0.12844647 0.07486064 0.032892693 0.10128512 -0.068877764 0.05257308 0.12983714 -0.04762642 -0.12836854 -0.03277377 0.10998509 -0.01704573 -0.03011217 -0.05686652 -0.109174475 -0.084595405 -0.066922806 0.053044673 -0.01988492 -0.068331204 0.017055241 0.04222822 0.12206521 0.10202369 0.1258343 -0.11162092 0.12561125 -0.11587168 0.10370968 0.16201118 -0.053121753 -0.07766074 0.06394968 -0.066161 0.104665816 0.030562794 0.14576909 -0.040780284 0.11811329
0.019312475 0.088545285 0.08467339 0.029465105 0.09446944 0.012843889 -0.1269613 -0.107157506 0.01260208 0.1273532 -0.13978013 0.07245045 0.11882284 0.056915745 0.045091 0.12533107 -0.05795634 -0.11985315 0.11626299 -0.0625312 0.05776007 0.1217852 0.11625694 -0.058424793 -0.09420208 0.11211866 -0.03739833 -0.06092698 -0.057155572 0.020358006 -0.10122536 0.037792813 -0.11863263 0.016707238 0.050131816 -0.0019110417 -0.10525892 0.03141713 0.012726756 -0.15314418 -0.13517118 -0.0705566 0.064219266 0.1251438 0.07846522 0.039485577 -0.072658665 -0.038010042 0.047692128 -0.058296055 0.013726998 0.008966689 -0.016749507 -0.0017273199 -0.05166283 0.0052025416 0.09429104 -0.089313954 0.03357249 0.09811144 0.12245412 0.121483184 -0.021095075 -0.12008166 -0.017003411 -0.022320958 -0.07090348 -0.0033881417 0.058665145 -0.15293944 0.10989082 0.07237121 -0.07718704 0.016146675 -0.028008206 -0.031913556 0.09054179 -0.110806786 -0.13369618 -0.106513634 -0.04356219 -0.01373139 -0.036923613 0.09029564 -0.08142462 0.048128847 0.053459793 0.14642884 -0.0126742935 0.016559932 0.05938196 -0.10366799 -0.04800148 0.09778377 0.05071044 0.103301734 0.05983413 -0.093439564 -0.14271389 0.034088045 0.11967974 0.12869693 0.06458793 -0.12985659 0.10224462 0.0997129 0.005250313 -0.11783028 0.07670086 -0.11284374 0.077085584 -0.120260105 0.0065051764 -0.04399458 0.00091475307 0.10216681 0.0860129 -0.07660256 0.087922044 0.12128889 -0.09510965 0.07544377 0.011156263 0.077509135 -0.097524896 -0.042686686 0.025035933 0.0045961877 -0.013173328 -0.07995562 -0.05189651 -0.043761957 -0.11183342 -0.13002752 0.048692957 -0.014508115 -0.057232596 -0.055152796 -0.13753426 0.086562306 0.09747305 -0.058780424 -0.11067392 0.109489106 0.13512981 0.09691129 -0.1304163 -0.015382144 -0.03792386 0.13325153 -0.07772647 0.010004516 -0.12633857 -0.07850814 0.09955677 -0.10606749 -0.00928187 0.04925858 0.0046451595 0.08512166 -0.09413968 -0.021658245 0.075785466 -0.029836172 0.07867501 -0.06896886 0.0805872 0.07173224
0.07398868 0.08088761 0.06341038 0.06287309 0.032576635 -0.0720029 -0.121177085 0.015322053 -0.03379134 0.15952992 0.07897805 0.13435303 0.13226467 0.122280344 0.009418255 -0.041507747 -0.033174105 0.04607317 0.04893091 0.005164164 -0.022909218 -0.02715676 0.115922265 -0.09603298 0.10360825 0.020980887 -0.03392332 -6.8840455e-07 -0.09152074 -0.022613542 -0.032674145 -0.087712094 -0.12181936 -0.10133491 -0.06724341 -0.082581624 -0.003237712 -0.09514956 0.036847558 -0.02419728 -0.08379372 0.041740336 0.021615041 0.046416767 -0.100569725 -0.018511942 -0.05056354 -0.121128224 -0.095365435 -0.01266256 0.07469939 0.045977015 0.097965665 -0.017896503 0.06516079 0.100984275 0.065212384 0.09735362 0.1286579 0.14453846 0.04211598 0.12958068 0.014507766 -0.07286567 0.035221476 -0.09754333 -0.054959662 0.019750778 0.10781403 -0.11865818 0.07926919 0.08588781 0.013737323 -0.037137784 0.0721814 -0.036130752 0.028665815 0.13196841 0.08397604 0.044117432 0.005213552 -0.110007145 0.069976665 -0.03915593 0.072406806 0.13463347 -0.09434484 -0.0026755284 -0.0700537 0.11380155 -0.05478395 -0.12111751 -0.08239034 0.025992775 0.015427596 0.11188072 0.07116844 0.038346887 -0.040698823 0.13130283 0.058388203 0.02625999 0.059482016 0.00612939 -0.025843462 -0.083167806 0.050673597 0.06774076 -0.044551633 -0.07195359 -0.066640526 0.05969066 0.113572024 -0.048231985 -0.05706443 0.11384071 0.06434495 0.058233485 -0.11512271 -0.01714154 -0.08115654 -0.09543615 -0.0020301098 0.05212197 0.022540122 -0.023383003 0.096180975 0.0017531071 -0.017730754 -0.05168886 0.111220874 -0.07003797 0.1584055 -0.08759665 0.020625304 -0.10056956 0.019331183 0.0683439 7.174828e-06 -0.022022588 -0.08351844 0.11116371 0.0060677687 -0.023610437 0.06618501 -0.092463896 -0.13590692 -0.0060899006 0.0903839 0.0029105262 -0.02853992 -0.11371302 -0.01238789 0.032612603 0.06581823 0.054015283 0.14045596 0.109144956 0.13103549 0.0018494038 -0.062840156 -0.024247166 -0.13076149 -0.027724717 0.11727988 -0.102951646 2.3313603e-05 0.05528188
-0.06441468 0.07919689 0.115812756 0.011149845 -0.09975442 -0.042064674 -0.063545085 0.018085469 0.011795478 0.071793236 -0.06077991 0.026055051 0.0689564 0.035532076 -0.0050673923 -0.10109888 -0.111922234 0.0066099926 -0.11373794 0.029746214 0.04366562 -0.08571385 0.12645036 -0.021868913 -0.13527197 0.098750375 0.031038387 0.015510875 0.08729473 0.009011451 0.06254707 0.11401917 0.044564225 -0.09254468 -0.12737705 0.04513757 0.016902165 -0.060598273 -0.0931389 0.08900137 0.038074296 0.03664233 0.03472329 -0.11774425 -0.10503063 -0.07340866 -0.07852944 -0.10321177 0.050705705 -0.02823119 -0.0810219 0.0036314123 0.01949473 -0.10841087 0.05820945 -0.026461277 0.06265405 -0.09669611 0.07384554 0.0056490167 0.07006923 -0.037916023 0.038804296 0.07133497 -0.08234493 -0.11974756 0.027165305 -0.06523215 0.121815674 -0.09788114 0.089058965 -0.03879034 -0.08403865 -0.015557115 -0.11424589 0.00300675 0.008604357 -0.04973768 0.120842 0.04020324 -0.011067634 0.07280399 -0.05435302 0.07011476 0.13389088 0.12506603 0.04418741 -0.041285817 0.08534963 0.048895013 0.098170556 -0.10040355 0.13273482 -0.045952123 -0.018135844 0.026709944 0.0124760475 -0.0044217296 -0.079131745 -0.00300203 -0.012812282 0.03469936 0.012037368 0.04994672 -0.10114514 0.03274448 -0.03624585 -0.059368484 -0.08944306 0.06553447 0.046308167 0.008149612 -0.12131458 0.10133559 -0.040665485 0.07387749 -0.045182914 -0.04946999 -0.028556265 0.05163786 -0.02252819 -0.028433774 -0.11613252 -0.10546081 0.08234325 -0.0015831577 0.0859612 0.05419719 0.010654137 -0.11594393 0.07093245 -0.050813578 0.010686647 -0.08407401 -0.0009406784 0.01150452 -0.13131744 -0.03819991 -0.117163025 0.062596105 0.094436035 -0.13259742 -0.088143416 0.03807958 0.120602824 0.117748894 4.147519e-05 0.090004995 0.038260896 -0.1519692 0.042873766 0.1306409 0.007163657 -0.013222568 -0.0750846 0.03226859 -0.009856366 0.0075054104 -0.079554565 -0.032214142 -0.1120692 0.03946921 -0.03836373 0.13549581 -0.10322492 0.129172 0.0135481 0.13885161
-0.043980494 0.07364814 0.027455576 0.043781742 0.13827264 -0.027132988 -0.056712624 -0.06237253 -0.009505227 0.13013983 0.041659024 0.08430701 -0.10637174 -0.001458728 -0.11589749 -0.115601175 0.018850526 -0.094957866 -0.07891385 -0.0670174 -0.050601073 0.114353135 -0.01638944 -0.048427787 -0.12064613 -0.067877784 0.124311015 -0.109830126 0.010364063 0.13963462 0.024544924 -0.07598333 0.033412457 0.05046362 -0.10364518 -0.07246949 0.034293853 0.06403574 -0.05445172 -0.060895193 -0.09700861 -0.036253564 0.14322312 0.08028152 -0.016208598 0.082654186 -0.10506594 -0.028080108 0.06643735 0.017921515 0.0053162314 0.03395282 -0.05414303 -0.039780885 -0.0033499165 0.1303054 -0.06697371 -0.12405908 -0.12738666 0.092531435 -0.06373266 -0.01187101 -0.023964344 0.04442548 0.013416731 -0.10662792 0.11518127 0.0052854437 0.11336388 -0.08231775 -0.047430363 -0.083752066 -0.13492697 0.006654881 0.07566997 0.0102650765 0.08144391 -0.02494202 -0.07768082 -0.1378372 -0.049538195 -0.062344015 -0.10306066 -0.073960535 0.009103499 -0.08069443 0.110594474 -0.05898787 -0.093485124 -0.036505237 -0.04659326 -0.10130085 0.13149169 -0.002610963 0.06752606 -0.13546664 0.008320596 -0.03823204 0.0152219925 0.05457216 0.14082484 0.023598578 0.047627743 -0.12796502 0.0994128 0.11761974 0.060916368 0.07256085 0.11649274 0.09880641 -0.11293646 0.07417043 0.1095093 0.03040688 -0.07225564 0.033805214 -0.12044142 -0.04354509 0.11052475 0.090337284 0.07388336 0.011917231 0.055869844 -0.107150294 0.049778476 0.10378267 -0.099120684 0.16705774 -0.12912731 0.004901462 -0.08906614 -0.004631566 -0.12284982 -0.06681706 0.024810681 0.022542665 0.014064384 -0.111074015 -0.105353124 0.04340634 -0.076560386 0.045188446 0.0028319918 -0.04047181 0.06980765 0.09052179 0.021610849 -0.09255279 -0.038646694 -0.16384026 0.10564772 -0.026705373 0.13281234 0.103850074 -0.015244184 -0.033872295 -0.07887763 -0.05078405 0.05991 0.05699232 0.06651966 -0.023350196 0.11163145 0.083998434 -0.08638766 0.09165211 -0.011403078 0.00024754592
-0.053974003 0.10124548 0.01503061 -0.059149753 -0.05408705 -0.08646529 0.08075806 -0.051055465 -0.15144217 0.05201982 -0.057841405 0.12461096 0.110565886 0.0042324243 -0.088576965 -0.118720844 0.063536204 0.07603922 0.11127829 -0.039485335 -0.07262331 0.058859564 0.010707623 -0.032606225 0.045062765 -0.0662172 0.040903572 -0.0773532 0.09398509 -0.02746559 -0.039223865 0.010917037 0.08847968 -0.06464266 -0.0791647 -0.09811243 0.040589526 0.12249956 -0.0761505 -0.07017463 0.088964894 -0.12524167 0.012385494 -0.08355753 0.12744823 -0.09715674 0.03855513 -0.057666205 0.09770213 0.025734818 0.04767207 0.13217492 0.005462645 -0.068999484 -0.11523638 0.049303394 0.065928265 0.080106825 -0.06842269 0.024096305 0.026538486 -0.12641573 0.12503837 0.065297246 -0.013045851 -0.0015865555 -0.12958221 0.069328025 0.100845516 0.0491561 0.03504249 0.010941043 0.07439461 0.073393576 0.01739374 -0.01216687 -0.10511625 -0.017765261 0.0867895 0.07356536 0.028905809 -0.018707123 -0.12434006 0.09516593 0.032913744 0.08539241 -0.08882785 0.057507493 0.009084192 -0.10643272 0.10559868 -0.09179125 -0.04871921 -0.07278083 -0.04026531 0.027328981 0.017509779 -0.19178313 0.038829945 -0.115765736 0.09177818 0.13079996 -0.031683914 -0.13209844 -0.12718937 -0.0016566019 0.09888287 -0.10076203 -0.04137656 0.11025866 0.05543531 -0.066131175 -0.029431801 -0.12081297 0.13900387 -0.064176574 0.12288551 -0.0689235 0.10442682 -0.090473354 -0.08096052 -0.09601022 -0.11173465 -0.12157976 -0.08791877 -0.028281258 -0.10236602 0.0020596236 0.104588136 0.10214728 -0.059945416 0.11249119 -0.069269985 -0.018028248 -0.06935833 -0.0863768 0.015025351 -0.117208056 0.043681934 0.030320358 -0.018739276 -0.065911904 0.050499905 0.12742713 0.05097665 -0.0651647 0.0026070967 0.072031446 -0.047299843 -0.05941687 -0.05905501 -0.0686838 -0.024675097 0.16053195 0.12310042 0.10010064 -0.0712297 -0.032382417 -0.08672219 -0.0354066 0.1250803 -0.065323785 -0.082269676 -0.12832193 0.094386406 -0.06490447 0.073910385 0.051133715
-0.089563824 -0.0017637991 -0.06114284 0.017501928 0.04987559 0.09405473 -0.037325922 0.10048163 0.03344849 -0.033356912 -0.10613064 -0.106288776 0.005033665 0.083497845 0.114140846 -0.12699647 0.07657139 0.060317125 -0.053966563 0.007924353 0.065666586 0.0073213307 0.084929585 0.027950518 -0.022061592 0.041614432 0.016403813 -0.12721764 0.0708172 -0.036245108 0.104744755 -0.07657834 0.07304735 0.040920433 0.08490729 -0.06066385 -0.05347882 0.016621634 0.012761157 -0.006721802 -0.04600634 -0.09531768 0.08291864 0.02066304 -0.100296155 0.0014441829 0.12880327 0.111532494 -0.11898728 -0.10304079 -0.12305961 -0.032677438 0.11249382 -0.09798498 -0.030395292 0.12196699 0.0014079268 -0.14130034 -0.119267195 -0.005747267 0.14244746 0.014505555 0.1263381 0.07551463 0.13537627 -0.1199936 -0.06349638 -0.023286458 -0.041793957 -0.15060046 -0.12280038 0.0726984 -0.07823864 0.08583618 -0.06037809 0.09862098 0.12120783 -0.14212975 -0.02647922 -0.121782675 0.0966998 -0.042861585 0.1006509 -0.06599174 -0.15843612 0.030647779 -0.119629614 -0.015751261 0.03062335 -0.02818048 -0.12274493 0.038338535 0.052566264 0.104917064 0.11054254 0.0711857 0.012136757 -0.13179028 0.0734571 -0.074527524 0.07781651 0.120335884 0.09646987 0.0059973462 -0.10032727 -0.051385093 0.12765507 0.12476921 0.08554226 0.103101775 -0.0039976193 -0.03769334 0.04069003 -0.02605692 -0.088000156 0.13514097 -0.05124855 0.043722533 -0.015296329 -0.0029088513 -0.07399195 -0.10540896 -0.06636603 0.12519711 0.04669009 -0.0035398689 -0.11034415 -0.016812628 -0.12103554 -0.07036933 0.12023652 0.0675237 0.091657855 -0.013367205 -0.12909754 0.020851692 0.07983418 -0.01121948 0.08784658 0.13111144 -0.018745327 -0.06532121 -0.128501 0.05605385 0.13004051 0.064266406 -0.09359525 0.0811572 -0.077290125 0.06308203 -0.07320606 0.107454106 -0.12486905 0.069282524 -0.13096777 0.06960037 -0.07395334 0.0033756476 -0.006157807 0.060673513 0.12226523 -0.001308669 0.08179445 0.04092628 -0.052842148 0.13808103 0.0048676394 0.141621
-0.13939579 -0.014390093 -0.055398423 -0.009249444 0.024421792 0.08321036 0.036445178 -0.019568045 0.0071330518 -0.098328404 -0.14815827 0.049175046 0.01641942 -0.102272406 0.12744519 0.0742333 0.04694791 -0.123750925 0.14933665 -0.053719994 0.009981471 0.07085336 0.095353305 0.13336907 -0.056497157 -0.11075099 -0.12331699 0.095537536 -0.042519085 0.1255686 0.13171528 0.13846537 -0.111327626 0.013467044 0.09745595 -0.0010827767 0.045725025 -0.042436525 -0.018038018 0.05579101 -0.054333035 0.06980632 0.13889451 0.07099427 -0.12959959 -0.012642515 -0.013506913 0.0030648813 -0.034332357 -0.049805462 -0.13463804 0.01715848 -0.09578482 -0.06274965 0.031809397 -0.06881179 -0.05219187 -0.008792636 -0.07438474 -0.114234194 0.13561295 0.06058801 -0.0638029 -0.06429566 0.12482308 0.12166801 -0.035247896 -0.09567343 -0.036330692 -0.080029756 0.0195384 -0.013651838 -0.07033962 -0.08729297 -0.055157445 -0.07741884 -0.062547944 0.007743288 -0.0380969 -0.07462942 0.026447117 -0.017321039 -0.108419344 0.00567353 -0.0075874683 -0.0950616 -0.031617727 0.044736505 0.13728407 -0.059379887 -0.13661695 -0.05206478 -0.0723407 0.11481569 0.07834488 0.069651976 0.09265735 -0.13664046 -0.06029617 0.01125757 -0.0060793115 -0.046656843 0.109692305 -0.13228564 0.051082473 0.13199383 0.06790254 0.107626244 -0.089076765 -0.0007709326 -0.06710628 0.06255501 0.14055385 0.032847863 0.121122934 0.09635481 -0.066952765 0.07874706 -0.13237391 -0.030326104 0.10327811 -0.066936545 -0.12235235 0.10370349 -0.010075183 0.06270064 -0.015886331 0.11337009 -0.047060058 -0.11749296 0.056264706 0.059115063 -0.12679209 -0.01725879 0.11009031 -0.115099065 -0.1226281 0.06713147 -0.07684919 -0.04570008 -0.01473909 0.012376598 0.1214025 -0.086323984 0.12902349 -0.125982 -0.08123742 -0.0707736 -0.0878825 -0.11083082 0.06344234 -0.0636224 0.08385931 -0.07391698 -0.02975182 -0.05217828 0.12063829 0.072344445 0.07090892 -0.06020997 0.01919654 0.11128171 0.013188257 0.020568376 0.12220495 0.05511432 0.10747631 0.0017528943
-0.06755651 -0.046847764 -0.073509395 0.023116736 -0.063340664 0.12243193 0.023443861 -0.09622916 -0.06259191 -0.06436883 0.0065083127 0.066472925 0.06729474 -0.03654168 0.07708697 -0.10214041 -0.014523076 -0.032498967 0.12908515 -0.04919145 0.09985708 0.011763151 -0.07091158 -0.089595765 0.12021424 -0.022602702 -0.110958636 -0.11364915 -0.13154143 0.12584472 -0.05353237 0.10635455 -0.030907778 0.11543422 0.09455069 0.052791346 0.09535586 -0.01538322 -0.124992445 -0.10756798 0.09493871 0.017450683 -0.06748317 0.04479885 -0.024025029 0.055815518 0.11605644 0.06748577 0.07626472 -0.074814275 0.012441888 -0.07835384 0.099267475 0.0071870564 -0.07559646 0.086294256 0.013544726 0.048335116 0.017196622 -0.07339728 0.0486593 0.075807095 -0.099012576 -0.021315457 0.08549068 -0.12122977 -0.08808815 0.057085693 -0.11472601 -0.033485003 -0.08568862 -0.051040806 -0.10166427 -0.015285538 -0.07400927 -0.13155909 -0.059543423 -0.11740886 -0.12403608 -0.06256742 0.05052307 -0.0014851487 -0.00077448034 -0.039856236 -0.122427806 0.09886426 -0.06968102 -0.038896725 0.06850878 0.09233428 -0.010440511 -0.06989071 -0.022029014 0.07239013 -0.100256406 0.027919808 0.07205716 -0.070937544 0.11414887 0.031547457 -0.031979896 -0.016583791 0.029788045 0.025214355 0.022383695 0.050132275 0.09851794 -0.028766776 -0.08533326 -0.055551574 -0.04863893 -0.0472082 0.017346848 -0.09713436 0.12884131 0.13180058 0.08811158 -0.12953147 -0.0010685833 -0.13058496 0.005383444 -0.08763619 0.0884891 -0.029160501 0.08855929 -0.14829929 0.011135108 0.066318065 -0.10216713 0.059956968 -0.005434721 0.0885428 0.026736222 0.09410159 -0.032794666 0.109021276 -0.13738719 -0.027849335 0.08160632 -0.11049871 0.056146193 -0.04770885 0.079451114 0.1199298 0.120115004 0.037620757 -0.098361365 0.015570453 0.03381406 -0.06733845 -0.021084327 0.14644308 0.09919088 -0.054362018 0.06937191 0.053164035 0.109760284 0.022626614 0.11083331 -0.049097277 -0.05479397 0.04809218 -0.044401396 0.13666841 0.09105452 0.11349707 0.109657735 -0.096822545
-0.09224064 -0.04705827 -0.013389945 0.09734568 -0.11781251 -0.047650136 -0.11403055 -0.07791058 -0.089884445 -0.07068185 0.008728934 0.071390696 -0.07440552 0.04667625 0.042542025 0.11489537 0.090691894 -0.06125896 -0.013222463 -0.10362943 0.052746605 0.08613812 -0.11745086 0.029562706 0.056656502 0.13133743 0.029017705 -0.053824116 -0.0085859215 0.11022841 -0.09144647 0.013986191 -0.00974167 0.06824154 0.115758866 -0.055593066 0.037668906 -0.084552824 -0.10142945 -0.037546165 0.09069335 0.11877294 -0.011588654 -0.06392877 -0.08468226 0.11490264 0.0018739518 0.06958611 0.0013569484 -0.05158406 -0.08779392 0.14018257 0.10528215 -0.109565325 0.09514219 0.07772523 0.046534136 0.08112451 0.026735308 0.0977663 -0.06283615 -0.03767878 -0.11314457 0.115154155 0.102637485 -0.055501528 -0.06729833 -0.11301045 -0.06619377 -0.044778362 -0.04842195 -0.050276536 -1.0910221e-05 0.08590417 0.011116789 0.05963952 0.006399187 -0.11636951 0.11406211 0.112424575 0.03790566 -0.11320044 -0.116827935 0.022566814 0.15231179 -0.086422995 -0.10156544 -0.05575264 0.059122182 0.026624952 0.05125316 -0.14596446 0.08728437 0.10696541 -0.10719427 -0.08092937 0.01300691 0.010138352 -0.025124999 0.110423535 -0.008946162 -0.033764616 0.13602628 0.00078451855 0.09299177 -0.026981685 -0.009515819 -0.04548854 -0.09065225 0.084287226 -0.07256711 -0.035848603 0.14044482 0.019524582 -0.023402806 -0.09728047 0.06865122 0.026005276 0.071051635 -0.0058144797 0.07506228 0.008221548 -0.028681248 -0.12592515 0.056919914 -0.12674612 0.08669649 0.026686832 -0.14071168 -0.013847627 0.019271053 0.07665142 0.030218866 -0.001949103 0.11334283 0.022465892 0.023006178 0.07478863 -0.101758964 0.09009943 0.10496734 -0.063458644 0.101970054 -0.058570802 -0.08617625 0.040116463 0.015733989 -0.032692846 0.014629654 -0.08083361 0.14021924 0.07598119 0.06488845 -0.0013574722 0.07577388 0.0086301435 0.09722165 -0.06397974 0.09717993 -0.16129006 0.09199576 0.06519508 0.11892522 0.01975512 0.12667346 -0.102264695 0.039903812 0.051050786
