-0.07088593 0.039805174 0.10385639 0.05737754 0.11313918 -0.038676217 -0.003860089 0.019915296 0.14040045 0.09853021 -0.0055592894 -0.040502086 -0.13788998 -0.07516468 -0.046686035 0.056481678 -0.11337981 -0.077874325 0.07119678 -0.0024124142 -0.05478312 -0.06992449 0.034486942 0.13101333 0.03721996 0.054080676 -0.017428711 -0.112213664 -0.1423806 -0.0008263964 0.008429667 0.025642626 0.046294652 0.10495694 -0.060411 0.089324914 -0.13206315 0.00094008114 0.005010863 -0.11915678 -0.043080762 -0.03066888 -0.113644615 -0.0033755552 -0.081487045 -0.036125965 -0.06674764 0.09890711 0.07003678 -0.10704247 0.03118752 0.066729546 0.10262745 -0.0930684 -0.013311066 0.04385285 0.15554751 -0.1705673 0.09704539 -0.04706546 -0.06251694 -0.041418016 -0.1509208 -0.16129592 -0.059785683 0.05798002 -0.15755802 0.07337212 0.096179396 -0.062534764 0.12246257 -0.026911803 0.07471735 -0.03894018 0.0026210968 -0.08487966 0.13171889 -0.06663766 0.022444414 -0.095399275 -0.01671876 0.08487598 0.083746344 -0.087464996 0.09400286 0.06705655 0.000451041 -0.04066427 -0.1274816 0.15453854 -0.15148436 -0.011470743 0.012669353 0.042704154 -0.057083786 0.07308024 0.0772365 0.011449291 -0.059542503 -0.078499034 -0.08983761 0.036390822 -0.014776579 0.030974913 0.017706348 0.0038521104 -0.08444139 0.11619933 0.11150089 -0.16968189 0.022391507 0.06774608 -0.092213005 0.017662544 0.0111903595 -0.093033165 -0.10792845 -0.15625532 0.12944207 0.0999542 0.075417906 -0.022572352 -0.10293459 0.02549655 -0.06661901 -0.02689269 0.14262174 -0.120211326 0.05638522 0.03561724 -0.034181524 0.10371259 0.004893005 0.13732083 -0.13790673 -0.075677164 0.059959356 0.014162383 -0.021488577 -0.11172062 -0.1259288 -0.005955693 0.019353036 0.07633953 -0.08115276 -0.16125894 0.102356225 -0.065355174 0.123769104 -0.08294581 -0.08025851 -0.08650065 0.01596709 -0.00052761525 0.060378417 -0.14913431 0.006357034 0.0355137 -0.15669888 0.11787079 -0.010644295 0.026031427 0.13138762 0.047227323 -0.055087794 0.030646585 0.02479383 -0.030000892
0.00086370634 0.11352572 0.11276854 0.11274281 0.08252994 0.06338879 -0.12728745 -0.020796923 -0.08377804 -0.02038038 -0.03487935 -0.08207867 0.0049669878 -0.042031698 0.03351066 0.10341533 0.029398374 0.09674769 -0.060167648 0.12921914 0.010306163 -0.08268051 0.119986676 0.12580734 0.0021211756 0.054221492 0.06798182 -0.13858703 -0.084527425 -0.07741913 0.051607527 -0.0098129595 -0.02411127 -0.05057723 -0.0452006 -0.012486764 -0.14443256 -0.08752295 -0.008208795 0.13648176 -0.09489064 0.084404275 -0.013839171 -0.01896562 -0.0325583 -0.06045263 0.046759546 -0.06960598 -0.0198154 -0.035148073 0.11967016 -0.08481241 -0.08049636 -0.049694512 0.019562 -0.02008011 -0.016212458 -0.1899813 0.039097544 0.106933594 -0.078143805 -0.048445243 0.035140574 0.08831643 -0.0101933805 -0.055299383 -0.11421011 -0.024392081 0.023141904 0.023525137 0.11124001 -0.04688773 -0.10350529 0.06386413 0.006571978 -0.17581145 0.057559244 -0.08436794 -0.0008202082 -0.0720126 0.04406109 -0.17187658 -0.0020015638 0.009594124 0.037594415 -0.038742635 -0.027277444 -0.046455905 -0.042247463 0.0252519 -0.13406447 0.15561643 0.032690853 -0.051516872 -0.040494744 0.045405596 -0.069629714 0.044955205 0.10191426 -0.07878318 -0.038743936 -0.08411336 0.017946752 0.09134001 -0.013757018 -0.0072935834 0.05708408 0.067722864 0.035554107 0.08329987 -0.06351717 -0.06581883 0.0917922 0.15328884 -0.028694538 0.035218354 0.106605195 -0.05744888 0.04858462 -0.0073944335 -0.07561803 0.026407149 0.15067358 0.10185747 -0.122152835 -0.010099867 -0.06269479 0.020469312 -0.16908717 0.069291756 -0.07202029 0.057445537 -0.10673326 -0.0010561862 0.020059833 0.0035588376 -0.091455124 -0.02379366 0.012956541 0.03704198 -0.10797982 -0.055249583 0.040237565 0.0039837356 -0.07241597 0.05841574 0.079529576 -0.13880914 -0.0024285903 0.03420173 0.033633925 -0.11044329 -0.015261068 0.15289384 -0.052196484 0.017169554 0.047949936 0.111651815 0.14721295 -0.08761194 0.099865854 0.10336359 0.011594218 -0.008113547 -0.042857755 0.0881486 -0.08030126 0.02541469
0.052250445 0.05798829 -0.08801887 -0.053435832 -0.12886918 0.076752774 0.08854923 0.15167274 0.10554798 0.053285733 0.0026169606 -0.07162677 0.040367812 -0.08014876 -0.0063383975 -0.12914944 0.06490923 0.091888554 -0.091633454 -0.07344447 -0.06609363 -0.0514108 0.074969254 -0.006058126 -0.026506307 -0.083329394 0.12091561 0.101740405 -0.06002323 -0.08325171 0.0073888884 0.03584246 -0.016837874 0.08144647 -0.048601884 8.088104e-05 -0.12683131 -0.013107378 0.09126192 -0.07420794 0.120133236 0.0065768575 -5.2114796e-05 -0.022174703 -0.01168614 0.024431193 0.054838378 -0.0005454977 -0.006083378 0.065606214 0.04584987 0.124455795 -0.121441185 -0.042197358 -0.0048935004 -0.05736634 0.011607075 -0.11646171 0.038205337 0.08745978 0.07290318 0.023178553 0.1145813 -0.0929404 0.018196827 0.08420992 -0.07830666 -0.061785754 0.05852177 0.06208384 -0.011962875 -0.032250095 0.009484549 -0.055535365 -0.004706657 -0.024719495 0.12505654 -0.066955954 -0.07273465 0.0068562143 0.05119064 0.033810843 -0.02460525 -0.005386566 0.014767508 0.113863684 0.10633474 -0.005594542 -0.059390556 0.026342668 -0.04927092 0.12011173 -0.02231811 0.08304043 -0.0663745 -0.07833832 -0.012888894 -0.014294234 -0.0947661 0.033397906 0.08043736 0.030226741 -0.09060938 0.08249179 -0.094526574 -0.034408294 -0.021379434 0.09751413 0.06901724 0.07486681 -0.017227186 -0.066724315 -0.04790245 0.010527926 -0.13125531 -0.0026875108 -0.13987662 0.004914859 -0.07831736 -0.05477674 -0.029545061 -0.033869494 -0.16069733 -0.06280396 0.005316691 -0.03875215 0.12560126 0.088518165 0.12289761 -0.1782179 0.066114746 0.01736025 0.06182353 -0.12819332 0.02631383 -0.0057723774 -0.008409255 -0.10370932 -0.12053568 -0.057734326 -0.071238786 0.059415884 0.05407183 -0.017143229 0.040173717 -0.13805135 -0.022071553 -0.1526077 0.029331947 -0.007201458 -0.017731735 0.029052112 0.00094870524 -0.057946846 0.09888535 0.08788303 0.067123026 0.077530205 -0.1430869 -0.053408783 0.08554878 0.02843128 0.032773744 -0.115345985 -0.12377943 0.06893094 0.015156316 -0.012011306
-0.06843495 0.012494518 -0.026211182 -0.004184836 0.042926397 0.021158727 -0.08161801 0.044452045 0.10520846 -0.15388894 0.03071485 -0.056141768 -0.025790205 0.06044592 0.09467997 0.077069335 -0.20806618 -0.07189977 0.017581576 0.08602362 -0.033961583 -0.08574761 -0.022267757 0.071207516 0.11338747 -0.24276528 -0.122786686 -0.0179547 0.043819543 0.03197536 0.05889395 0.037857063 -0.11824046 0.050607257 -0.11503876 0.0728481 -0.07797583 -0.05700833 0.10778792 -0.10525829 0.060410958 0.053714864 -0.01545632 -0.0740253 0.014827674 0.04090261 -0.10225814 0.03393111 -0.12241815 0.1504863 -0.04817668 0.0124601405 -0.08855691 0.11868213 -0.024034677 0.02698354 0.02848763 -0.12925564 -0.01161725 -0.068721496 0.05238182 0.02168851 -0.12696108 -0.12973318 -0.050181407 0.0031375433 0.02875188 -0.016187951 -0.0112271635 0.13974611 0.0012811152 -0.14684626 -0.10702641 -0.10135931 0.021231316 -0.08682237 -0.11493264 -0.07095157 -0.041693576 -0.049999796 0.0957786 -0.026126541 -0.026425894 -0.03096643 0.10040345 -0.114179775 -0.10408941 -0.026082195 -0.1269457 -0.034871653 0.04119836 0.008374113 -0.025729796 -0.10576397 0.080450945 0.07975331 0.070888154 -0.025400037 0.042125184 -0.15794246 0.090619765 -0.13212542 -0.09209847 0.12730502 -0.06484031 -0.064783916 0.034379505 0.11361144 0.069440454 -0.042698473 -0.10450515 -0.034415144 -0.006127276 -0.07598153 -0.09541368 0.0018924791 0.04885302 -0.10078509 0.009986633 0.03699983 -0.14771274 0.030495666 0.09830399 -0.05065187 -0.047768 -0.18405917 -0.09910286 -0.020407466 -0.19099726 0.05442089 0.09103383 -0.009583953 0.10039966 0.02689068 -0.04917832 -0.10949053 -0.070753105 -0.16875586 -0.12410038 -0.12541096 -0.14802177 -0.06361131 -0.08919468 0.065043114 0.08789266 -0.12509143 -0.0014053428 0.07881107 0.04488055 0.045303434 -0.099065185 -0.00604472 0.00438902 -0.08967872 -0.046973888 -0.15434751 0.0010901386 -0.023667157 -0.05038008 -0.002590763 -0.07119594 -0.057252083 -0.119284496 -0.056877874 0.054743964 0.052617732 0.10451116 -0.055009846
-0.051013544 -0.12797977 0.13275313 -0.089876555 -0.12759495 0.04529816 0.017775321 0.1307393 -0.0014255217 0.25515586 -0.045971084 0.066908546 -0.010620035 0.01018714 0.086034045 -0.041414782 -0.01946005 0.10776677 -0.0852099 -0.05653151 0.069902994 0.110181995 -0.09703035 0.048851814 0.090263024 0.11002421 -0.07847532 -0.29295725 -0.12508732 0.041829232 0.046343833 0.07544905 -0.026461143 -0.02652545 -0.011878036 0.25868443 -0.105060875 -0.072470784 0.08720508 -0.05726943 0.021805936 0.03950262 -0.047255903 -0.079377875 -0.048582368 0.101550356 0.0203903 -0.0069645583 -0.11132262 0.24104801 -0.08256005 0.11629335 0.06428875 -0.021861399 -0.09030516 0.009003925 -0.080916524 0.22068663 0.035949744 -0.11299877 -0.09315702 0.033425286 -0.11131088 -0.079836756 -0.075544156 -0.1655728 0.07482289 -0.12481761 -0.09391638 0.092327036 -0.055831153 -0.19931242 -0.0019369517 0.00045609492 0.037824646 -0.022596944 -0.10101483 0.043222297 0.19027 0.049930137 0.08591504 0.108142145 -0.08334828 -0.27697006 -0.00063207495 -0.12055045 0.088522345 -0.028321428 -0.11573429 -0.09014516 0.046960678 0.09778952 0.052773964 0.04231871 0.1025073 -0.033963684 -0.12092853 -0.09164436 -0.14961088 -0.14395459 -0.030868059 -0.107687935 -0.039694764 -0.051391907 -0.03610692 0.049767956 -0.1438246 0.013984993 0.10704868 0.031007621 -0.060885243 0.026460264 -0.066586934 0.14531738 -0.10516002 0.040178634 0.03999809 -0.0784515 -0.17094137 -0.045003157 0.0059596254 -0.017866263 0.10445932 0.10948358 0.06637603 -0.022678453 -0.15704827 -0.0926171 -0.32424843 -0.007411499 -0.05590768 0.105306886 -0.044220116 0.01556672 -0.0020232785 0.094976895 -0.04973702 -0.11063121 -0.020110425 -0.10476921 -0.021077557 0.17584687 0.17273383 0.062192496 -0.16749083 -0.2508287 -0.007102445 -0.0012030383 -0.06933481 -0.0056002024 0.019578181 0.057270784 -0.10205136 -0.31896737 0.006700475 -0.15775539 -0.09067088 -0.05015374 0.2900655 -0.07603325 -0.10522953 -0.081701145 0.0052152155 -0.13771734 -0.04916972 0.066092424 -0.036375377 -0.0060835676
0.11568968 -0.11915149 0.09137758 0.08496177 0.0467396 0.008175243 0.18068106 -0.040162317 -0.0369194 -0.16138995 0.0677217 -0.060691386 0.023009837 0.020258527 -0.0873142 -0.0059068827 0.12609418 -0.14849213 0.039942417 -0.07586909 0.09026127 0.0876972 0.17674014 0.04883114 -0.02092731 0.16972604 -0.14202319 0.13168421 -0.0011536769 0.11011496 -0.17393449 0.11471328 0.00900931 -0.008560648 0.14764598 -0.24301745 0.04141242 0.06638926 -0.05833857 0.020995216 -0.13442807 0.009934742 -0.007815743 -0.083146535 0.03300651 0.015855812 -0.06304663 0.0088642845 -0.024908213 0.06886054 -0.08600806 0.0072120437 0.1216028 -0.093568854 -0.09372456 0.054501366 0.19713095 0.024975372 0.095997274 -0.0020653622 0.06868054 0.10584437 -0.10384045 0.035028007 0.08660375 0.026045345 -0.035186067 -0.02209719 0.031382386 -0.033376627 0.19601795 -0.01947859 -0.046749435 -0.093145594 -0.056770895 -0.12577826 -0.100091055 0.1272521 -0.12187757 -0.049289674 0.084182434 0.10040305 0.074190475 -0.15419482 -0.042114753 0.02157169 -0.04596845 0.10909573 -0.0014919096 -0.015638512 0.09084343 -0.0943254 0.12594743 0.039670635 -0.064089864 -0.09750891 -0.22655436 -0.029015359 -0.19619425 0.19585498 0.081666626 -0.0132188685 0.19120651 0.054508284 -0.12866308 -0.0046356046 0.118961245 0.07872284 0.010828358 -0.070366904 0.16554153 -0.0033840388 0.109467015 0.09748995 -0.04270299 0.03842058 -0.06698426 0.16270137 0.29946944 0.12464501 0.11106276 0.111500315 0.034507416 -0.07356327 -0.0060192 0.069404416 0.08345531 -0.0065990337 0.17172985 -0.08236555 0.15145566 -0.005711754 -0.04284793 0.15800753 0.14418545 -0.009379805 -0.033109266 0.14768611 -0.04479406 0.09647969 -0.09578117 -0.13258332 -0.1813219 -0.044607412 -0.06435021 -0.065232344 0.074167 0.10052252 -0.044123832 -0.05485492 0.0953411 -0.13286513 -0.08438113 -0.06528038 -0.047040895 -0.021055697 -0.06863756 -0.15207987 0.03192652 0.085286915 -0.05883313 0.21706699 -0.015167908 -0.086828336 0.001343092 0.04056453 -0.068524405 0.012975844
0.08099108 -0.06072115 0.114023894 0.07057413 0.060899 -0.04595851 -0.1281008 -0.031868238 0.067973986 0.07037064 -0.008681905 -0.12518041 -0.07979695 -0.03232182 -0.1297448 0.10836873 0.089589626 -0.08409588 0.0011321565 0.050391603 0.0514409 0.08737926 -0.08861048 0.04572107 -0.05139932 -0.08192458 0.007891671 -0.0048900624 -0.031432737 -0.030941704 0.0827908 -0.030154383 0.1173147 0.07686752 -0.025986006 -0.06886169 0.07529388 -0.06945271 0.08876116 -0.07560786 0.0875847 0.07491821 0.02008437 0.049848244 0.14418058 0.10605724 -0.03555299 0.05876183 0.12094769 -0.102837354 -0.01180118 -0.05294741 0.11262193 -0.117672734 -0.032314904 0.13926877 0.12059601 -0.01775519 -0.040365968 0.108760335 0.095874764 0.016785242 0.063041635 -0.019848017 0.016842667 -0.070692606 0.024260066 -0.0864077 0.09046751 -0.011739145 0.04256309 -0.058406256 0.0072999513 0.09152356 0.08338876 -0.020214818 -0.05474432 -0.06921684 0.11678701 0.099309474 0.0089781415 0.04126051 -0.12637927 0.10125607 -0.09290193 0.117878936 0.029073965 -0.037073553 0.027689777 0.01815669 -0.039122585 -0.10942345 -0.11921807 0.110092126 0.0704253 -0.008645211 0.04157249 0.08929786 0.00578683 0.06513452 0.07719074 0.118781105 -0.007121476 0.0399584 -0.10850102 -0.085779436 -0.041718073 -0.13548127 -0.055656206 -0.055278707 0.13259782 -0.092546426 0.08111272 -0.059535593 -0.026424477 0.042125225 0.056645587 -0.018531805 0.06501088 -0.03037899 -0.06689351 -0.096969314 -0.06025818 -0.10618705 -0.06781791 -0.08991843 -0.040315766 0.10028695 0.15922563 -0.037198663 0.10121969 -0.12328295 -0.10949778 -0.056491505 0.012978926 0.013466367 0.062449254 0.04971902 0.07812404 -0.1003779 -0.014121263 -0.05074747 -0.050634142 -0.124976754 0.12494669 0.11611543 -0.10323851 -0.06285895 0.09419312 0.066388175 0.11324615 0.06674574 0.14139484 0.09756556 0.011380096 0.0377014 -0.053827368 0.06500962 0.0779821 -0.01595062 0.037284814 0.048153233 0.080363 -0.028333906 0.0626096 -0.033848573 0.015278494 -0.10430837
0.00970163 -0.04082818 -0.07719266 -0.14278054 -0.16074674 -0.09376673 -0.015192167 0.11575708 -0.00015866122 0.13324328 0.13262375 0.1695898 -0.15931651 0.030678349 0.13682652 0.11458533 -0.13543005 0.10679034 -0.040886723 -0.08141257 0.021264477 0.081464805 -0.05875997 -0.06701205 0.13422373 0.019774316 -0.017851101 0.02303674 -0.05664016 -0.058160324 -0.08926237 -0.08786342 0.12063047 -0.035293054 0.08333505 0.13288781 0.14634535 0.0067786397 -0.010709949 -0.023503402 -0.09203 -0.08950429 -0.05634679 -0.06867929 0.02788649 -0.038802933 -0.026655978 0.015478538 0.06369087 0.07497837 0.13466927 -0.1013812 -0.09268378 -0.024081297 0.07918795 -0.11398833 0.08941236 -0.1585328 0.10119618 0.028485846 0.07564748 -0.11557888 -0.1688782 -0.035620872 -0.16035937 -0.022297412 0.13938649 -0.09511933 -0.056362387 0.010544032 0.117086515 0.055652767 0.11933807 0.13191171 -0.02195969 -0.014462554 0.0625936 -0.098555066 -0.14143585 0.059239168 -0.11098108 0.13768613 0.117984205 -0.1427492 -0.025140047 0.14317624 -0.061228868 0.11231447 -0.08056867 -0.07311395 -0.108366445 0.097144194 0.11821392 -0.0317715 0.030304 -0.057101637 0.026110403 -0.08762347 0.07518342 -0.04187793 -0.077722155 0.085842706 -0.18671876 -0.051904224 0.13004042 -0.086951725 -0.02837651 0.13120168 -0.030787755 -0.029730594 -0.0038628485 0.08816915 -0.09023024 -0.020678854 -0.049527097 0.054452587 -0.027429072 0.11500524 0.012636417 -0.068616636 0.016896712 -0.112576 -0.056955487 0.009189299 0.048314564 -0.16243166 -0.07679121 0.046728175 0.07656216 -0.014151706 0.052269053 0.060646985 0.0039091213 0.10090445 0.07264042 -0.10106427 -0.08317859 -0.12398026 0.007976327 0.054008387 -0.14992225 -0.027117107 -0.08690881 -0.03822504 0.067902885 -0.23036948 0.028900277 0.05961545 -0.0108746365 -0.016813004 -0.027289277 0.09833767 0.06057525 0.06063558 0.034627687 -0.070076324 -0.056440722 -0.04947594 -0.029551169 -0.0629442 0.006520393 -0.07005385 0.03325055 0.034196373 -0.15657313 0.007687918 0.052314937 0.075446896
0.00019063496 -0.0037359425 -0.059521083 -0.05633343 0.079429865 -0.087685205 -0.015719743 -0.014311984 0.040571682 -0.17227957 -0.05017219 0.10551245 0.0864498 0.11742231 0.05969116 0.09374836 -0.17879139 -0.027782906 -0.0732662 -0.02113584 -0.035342496 -0.11156925 0.047116578 -0.14068843 0.02033424 0.04486295 -0.13482244 -0.086659126 -0.05868268 -0.05180182 -0.08572228 -0.09377057 -0.0061140885 0.04492597 0.1564298 -0.06637953 0.09733798 0.009668531 -0.08670487 0.14206453 0.1203536 -0.036643334 -0.07470077 -0.07562288 -0.008651448 0.00042069837 0.15436903 0.112645194 -0.059298646 0.027486099 0.10942327 0.044405833 -0.18800883 0.09450036 -0.017307999 0.074611254 -0.13298336 0.113257326 0.10586841 0.10843409 -0.030041669 0.07961481 -0.08109472 0.01718753 -0.10476332 -0.019133946 0.13375749 0.10392253 -0.08017516 -0.005179971 -0.05670191 0.033647858 0.004776429 0.031403992 0.05796672 0.06837882 -0.03083577 -0.010902251 0.09349941 -0.08147338 -0.13074434 0.0044759773 0.08011323 0.037341073 0.12736636 0.2962995 -0.07485761 0.033141002 -0.004000831 -0.16071284 -0.17405467 0.042009063 -0.020353079 0.12693606 0.11739379 0.002908498 0.109556474 0.09454458 -0.06755413 0.09107071 -0.08186595 0.06712624 -0.007376064 0.058751967 0.0617387 0.0053622006 0.05706543 0.09107415 0.07202292 -0.008541799 -0.02611501 0.08920781 -0.0012360394 -0.110824235 -0.020955607 -0.049684502 0.033804342 -0.14013655 -0.037670184 0.011255595 0.0638176 -0.12369636 -0.09212851 -0.017405469 -0.09696316 -0.1260132 -0.037752718 -0.13774815 -0.2123678 -0.06309293 -0.012214955 -0.09927298 -0.058094483 -0.008269387 0.06717276 0.025279257 0.09730013 -0.13404702 0.056402527 -0.022269618 0.10122981 -0.043666873 -0.03914083 -0.0061926614 -0.06013773 -0.0737532 -0.026607554 0.08126313 -0.057128083 -0.0053798864 -0.11392669 0.07584118 -0.13364148 0.07145126 -0.08056322 -0.084176086 -0.08455894 0.13461517 0.046222623 -0.078929625 -0.1212954 -0.044766426 0.08950984 0.06645709 0.013837728 -0.054734383 0.009424779 0.050203227
0.016464893 -0.0009992664 0.08149926 -0.09911961 0.08554928 0.088997215 -0.1171769 0.041566495 0.0072200084 0.057719342 0.022703618 0.02441224 -0.044013485 -0.007883624 0.030929983 0.037245583 0.039313875 0.11408559 -0.06026111 0.036248736 -0.10425069 -0.054803018 -0.020989096 -0.058969986 -0.09097631 0.138844 -0.009787934 0.020671777 0.083907686 0.08131062 -0.07722786 -0.10039073 -0.06251691 0.098138414 -0.002679996 0.009108936 0.088555776 0.06795877 -0.01274457 0.108505026 -0.16257398 0.12425539 -0.014963573 -0.11391374 -0.071494035 -0.031887423 0.110141 0.037480444 -0.10406578 -0.045928217 0.09807935 -0.067019746 -0.034101203 0.018464426 0.09061639 0.076363645 -0.14707893 -0.0011454986 0.08266191 -0.0067805797 0.00470447 -0.062994406 -0.064031504 0.0775068 0.03508189 0.08778075 -0.07193563 -0.18099071 -0.036853753 0.14429867 -0.056727916 -0.06516831 0.07620488 0.092982 -0.06315171 -0.066806965 0.100513615 0.045155384 -0.09128933 0.06486856 0.009191683 -0.1144913 0.02405845 0.004938601 0.0038165883 0.07262978 0.0883243 -0.008596555 0.08200455 -0.12514988 0.012823836 -0.09043246 0.08319342 -0.0141150355 -0.06374637 -0.020920258 0.088412516 0.008430842 0.083252065 0.035233315 -0.06269434 0.121352844 0.08621313 -0.02085759 0.025798649 -0.036568977 -0.07010125 -0.029858988 0.073524185 -0.03868793 0.030722378 -0.09259732 0.007338035 0.058716502 -0.011383107 0.10814885 0.08454986 -0.068588674 -0.02087091 0.05667042 -0.022893175 -0.084174246 -0.14063819 -0.116125494 -0.084971406 -0.03929549 0.05948364 0.068539016 0.05656777 0.069628805 -0.09840156 -0.15832627 -0.100046165 -0.06328807 -0.0057952 -0.06218193 0.047301713 -0.10286071 0.09517564 -0.09431643 -0.059503615 -0.10781447 0.044986542 0.04380837 0.08672917 0.086035684 0.07600611 -0.049573652 -0.007957757 0.015158648 -0.05767266 -0.04834448 -0.046532575 -0.0049261833 0.08507495 -0.028333757 -0.09466097 0.02416507 -0.14010185 0.10819549 -0.09621444 -0.031349186 0.02766375 0.043425582 -0.04688719 -0.054021686 0.11213373 0.09873157
-0.08492408 -0.064270966 0.027041852 0.11688976 0.06003859 0.11152732 -0.011130833 -0.07927319 0.019038195 -0.1305824 -0.019925302 0.045816667 -0.15908265 -0.08649782 -0.05858833 0.092576325 0.056370135 0.01763144 0.12031123 -0.08124335 -0.014932084 0.11292273 0.1591235 -0.030514255 -0.009891686 -0.33172247 -0.016354194 0.15564112 -0.042848043 -0.23504214 -0.019545106 -0.014514407 0.0116447145 -0.028219271 -0.15738857 0.021286406 -0.116339035 0.21453306 0.12189905 -0.029485628 0.0250794 -0.08893688 -0.06338756 0.02590318 -0.017386384 -0.08612682 0.055484135 0.059695546 0.07754677 -0.10469392 0.044683814 -0.18564408 0.08237391 0.05395318 0.053586584 -0.13166116 0.04307268 -0.08302287 0.03506056 -0.1237011 0.09079923 0.022020854 -0.053405944 0.10090387 0.09221951 -0.0973568 0.17523511 0.06890926 0.16318265 0.05565716 -0.15698045 -0.07005356 -0.11940886 -0.040347125 -0.017059026 -0.018940458 -0.19295266 0.049577754 -0.17287366 -0.038285375 0.042608675 -0.13829407 0.06663069 0.05030893 0.015566019 -0.20475626 0.1327923 0.02964747 -0.033205908 0.023484306 0.08089658 -0.10438187 0.07240364 -0.15208475 -0.09389171 -0.07027475 -0.050730396 -0.08367735 0.18164317 -0.011588299 0.04608165 -0.09269201 -0.0120378295 0.07501213 -0.042251743 -0.079458214 -0.057244215 -0.059509262 0.060978193 -0.0034417703 0.045273587 -0.027096355 0.0152083915 -0.051722363 -0.083263636 -0.022361042 -0.02838692 0.15731305 -0.22568086 0.116533145 -0.06853241 -0.05434366 0.030198036 0.055627313 0.09769025 -0.038750913 0.097798266 0.07981896 0.009472049 0.005356279 -0.0651128 -0.054466784 0.015590376 -0.09899571 -0.019985607 -0.026042333 -0.1318723 0.12411587 0.012726867 0.0638453 -0.14780469 -0.17064922 0.06267062 -0.10849301 -0.0043417993 0.10854896 -0.10834675 -0.19146545 0.15955247 0.0946345 0.165107 -0.043326933 -0.10627087 0.04420487 -0.011940895 0.025850698 -0.077609725 0.0781163 0.44104806 -0.030347642 0.08950806 -0.035218894 -0.042650968 0.15723318 0.13578822 0.02863189 0.056753546 0.05374966
0.015864613 0.11162765 -0.073655434 0.003045097 -0.104906276 0.026342887 -0.09156874 -0.013027217 -0.0013025186 -0.100923285 -0.11108689 0.018604625 0.13394973 -0.008502452 -0.07881766 -0.004615352 -0.18682161 0.0615534 -0.030385777 0.12624581 0.09519722 0.085126385 0.012120771 -0.0018291528 -0.010119216 -0.059863668 -0.017265223 0.15346111 -0.11738851 0.028249469 0.052044958 -0.044056084 0.002727291 -0.06260916 -0.013612589 -0.03438458 0.09754365 0.026412798 0.09044254 0.050732017 -0.053696554 -0.20236598 0.07114401 -0.009840233 0.012189312 -0.14843912 0.018835673 -0.06108483 -0.012019905 0.0073642684 0.0066810185 -0.06775023 -0.2502107 -0.09454156 -0.10107876 0.007976321 0.013636011 0.047938038 -0.072188206 0.05750592 -0.18120486 -0.05535816 -0.03725308 -0.017102107 -0.059310384 0.057816148 0.06141676 -0.0048992466 0.027718864 0.08927294 -0.03646719 0.020470206 0.014508148 0.101836696 -0.08821252 0.09543376 -0.017670365 -0.024452813 0.01176685 0.023370415 -0.10546785 0.03715345 0.024921658 0.034206998 -0.103532135 -0.2047038 0.01857506 0.02006774 0.006118701 -0.046391122 -0.1482035 -0.011009881 -0.09051655 0.09487798 0.048600487 -0.0122831 0.02462018 0.1277383 -0.061075803 0.0736469 0.04274598 0.051993147 -0.05387794 -0.0053232214 -0.0096365325 0.014165646 0.13531756 0.037382033 0.032974422 0.04251122 -0.44929546 -0.05481933 0.007737615 -0.075771734 -0.01420113 -0.038463045 -0.067924574 -0.0031659578 -0.00872797 -0.029372636 0.11168048 -0.09089377 -0.0024159583 -0.037358634 0.029030953 -0.015027709 -0.1584399 0.044246294 -0.5722934 -0.040199924 -0.063170284 0.06881536 0.046121024 -0.053861152 -0.10429674 -0.059714917 0.061007965 -0.08598512 -0.118111685 0.061485145 -0.0117965415 0.1086117 -0.1484072 0.0027705864 -0.063662656 -0.104668714 0.1443999 -0.024397664 0.07443515 0.04013211 0.0018706464 -0.27918902 0.068909094 0.028571418 0.09252035 0.06879947 -0.0048735514 -0.14893919 -0.12724167 0.00018400338 0.10287376 0.060099095 -0.0667201 -0.06096029 0.08558503 0.052128572 -0.091371246 0.10653778
0.07502427 0.12506905 -0.13821647 0.05334381 -0.12740391 -0.050854478 -0.03630945 0.12983511 -0.008108609 0.073944315 -0.03563822 0.15281826 -0.0109495 0.033529866 0.12713616 0.08443393 0.06506797 0.124383055 0.009286829 0.16038926 -0.13913016 -0.09052625 -0.13263915 0.1090163 -0.041144773 -0.09800645 -0.09283724 -0.23541486 -0.017688448 -0.022669064 -0.086993836 0.103028804 -0.01802243 0.06934244 -0.0909274 -0.045811895 -0.108695515 -0.011551974 -0.06623623 -0.12528321 -0.11077961 0.019105013 0.016000038 -0.12740485 -0.09637499 -0.12229142 -0.039669618 -0.07863876 0.058471724 0.0025858812 0.057124298 0.051953353 -0.130599 0.037963104 -0.102115735 0.006501294 0.024369208 -0.027892401 -0.055007853 -0.02455163 -0.035720363 0.025524065 0.10387601 -0.012633144 0.076315865 -0.012416785 0.11764993 -0.16016573 -0.002923377 0.015884396 0.14472373 0.09524683 -0.0024725152 -0.027888145 -0.013968749 -0.09742388 -0.008614425 -0.069003984 -0.08455564 0.07252489 0.105891 -0.09679332 0.055723194 -0.04539048 -0.06897719 0.06973179 -0.05278535 0.008898767 -0.08796302 0.11762358 -0.014325329 -0.11143059 -0.033251453 0.07960775 0.09704704 0.014437973 0.14535226 -0.08027771 0.18038775 -0.0064282794 0.06973319 -0.011315836 -0.055854492 -0.10964627 -0.0054642186 0.0075579393 -0.070257224 -0.048305195 0.049139462 -0.044406734 -0.056143764 0.10874773 0.091779724 0.050339 -0.045576666 -0.04115955 0.09114433 -0.06946543 0.090288736 -0.062595665 -0.07128637 0.070480965 0.010870332 -0.0022075463 0.0071869544 -0.15433042 0.12487693 -0.07650021 -0.12403453 0.0631758 -0.04987136 0.123091735 -0.11250787 -0.04710027 -0.044821445 -0.026080597 0.10633872 0.00729798 -0.03559624 -0.007788185 0.008084688 0.15186955 -0.019043472 0.035402495 -0.09766399 -0.18678641 -0.058903158 -0.090588465 0.0101874545 0.010222039 -0.18834254 0.03678773 -0.0029633548 0.029131515 -0.015362074 0.024298416 -0.06701478 0.20503213 0.19825421 -0.05183278 -0.04874763 -0.14709912 0.09083791 -0.040734135 0.06199094 0.10106924 0.10814977 0.07333165
-0.07519016 -0.005362255 0.110748075 0.028742284 0.019993152 -0.064618915 0.07908806 -0.069403216 0.07346753 -0.083576195 0.015651295 0.010036348 0.023240363 0.069279805 0.079330295 0.06706586 0.054708056 -0.021164916 0.097782895 -0.09559994 0.09671134 -0.016185952 0.08031239 -0.115857236 -0.010344497 -0.1009709 0.049429387 -0.026276927 0.09223081 0.02832803 -0.06554049 -0.12784192 0.0949557 0.076562434 -0.024746727 0.066972286 -0.051079385 -0.022443209 -0.12875 0.099064 -0.017905796 0.113648795 0.0522215 -0.082511775 0.100926735 -0.12201026 0.06850247 -0.051542364 -0.026315372 0.08166588 -0.07088775 -0.12502526 0.074594654 0.027584424 -0.103642054 0.08997609 -0.012025285 0.07231239 0.07437693 0.047647476 -0.042043425 0.10383328 0.102424845 -0.08618435 0.018675238 -0.058514588 0.03295158 -0.06900145 -0.0720112 0.05305538 0.023445006 -0.060153767 -0.06903795 0.124682516 0.1251292 0.021347791 0.034382362 0.001732768 -0.081096426 0.12526669 -0.120549105 -0.035880085 -0.03428127 -0.05510119 0.029380208 -0.07230609 -0.114528336 -0.08436514 -0.0109473355 -0.07171655 0.049820248 0.028179487 -0.072607994 -0.013901832 -0.060898237 -0.10298609 -0.049184106 0.057512246 0.043542065 -0.02569654 0.055010006 0.116288394 0.050902113 0.11775058 0.097457625 0.10821175 0.094822906 0.09837618 -0.03837867 -0.12700129 -0.10099599 0.008533815 -0.022600459 -0.045734785 -0.067311876 0.13207293 0.07074085 0.09408776 0.006834502 0.04328304 -0.07654869 -0.039079204 -0.073551565 -0.009775118 0.021003328 0.1328516 0.079602145 0.13179952 0.08828599 0.06423877 -0.10502754 0.04160172 0.002484931 -0.02162181 -0.10393528 -0.077001624 -0.038387775 0.031177616 0.076800175 0.05282448 -0.09055477 -0.00469915 0.030330624 -0.029977748 0.0121791875 0.13056746 -0.011892609 0.04287671 -0.13041842 0.10345992 0.012603531 -0.0254654 -0.046699606 0.029444398 0.0661748 0.09953578 -0.12920588 -0.0061390223 -0.0073506655 -0.08350453 0.0068309545 -0.034862246 -0.018312637 0.12543881 0.061217945 -0.1255656 0.06303502 0.09079403
-0.07810714 0.040140916 -0.1236161 -0.02727089 0.08133825 0.035147194 -0.15287977 -0.051606778 0.05129492 0.04029791 0.04074835 0.00662252 0.03681783 0.15310833 -0.031400703 -0.030552026 0.029329965 -0.043022465 0.02902159 -0.13226871 0.11485149 -0.067990065 -0.084941015 0.086088315 -0.048952054 0.13062382 -0.022890456 0.0022566966 0.079226695 0.07076367 0.028876178 -0.03791455 0.01562992 -0.10673439 0.06644651 -0.0044345106 0.0783316 -0.11400676 0.091357455 -0.0685445 -0.02620022 -0.07201287 0.09327475 0.06924918 0.057970274 0.089418344 0.05963911 -0.050861504 -0.07667019 -0.0053598117 0.030775374 0.04069257 0.00061075774 -0.10953785 -0.092947885 -0.086860165 -0.016879078 0.008762925 0.07067646 0.033083312 0.069437444 -0.048497565 -0.038883813 -0.050628178 -0.13453071 -0.13526763 0.025626164 -0.14076205 0.10905414 0.016936671 0.14503542 0.08442636 0.08637915 -0.08474307 0.089052945 -0.05019214 -0.019913308 -0.040723782 0.092251085 0.010696384 -0.042233896 -0.15450738 -0.030581243 -0.06128399 -0.03891097 0.024722345 0.0114633255 -0.040201556 0.024682881 -0.041185167 -0.085988455 0.018070249 0.08147902 -0.028171973 -0.018446298 0.115069084 -0.030004704 0.010936897 -0.03227695 0.07532991 -0.06494177 0.0067525757 -0.019707674 -0.06157766 -0.06289249 0.024117306 -0.08638367 0.004468008 0.049268365 0.08192493 0.04275458 0.066615626 -0.11574041 -0.033837836 0.054409765 -0.044847798 -0.055742428 0.055239715 0.019927554 -0.11728188 -0.07903266 -0.013203256 0.10119862 0.02802558 0.04377719 0.08485094 -0.07402836 0.0049717366 0.15687893 -0.055264562 0.13021275 -0.05507977 -0.049724188 -0.04410327 0.0063038985 0.07638322 -0.02271995 -0.07605944 0.0779222 0.029165002 -0.07130074 0.05975726 0.072870985 -0.020913405 -0.026149051 -0.08319271 -0.06692956 0.052505996 0.0195946 0.00092533155 0.06703997 -0.067555726 0.020232717 0.038075306 -0.01391448 0.044368017 0.061055217 0.01672487 -0.055616412 -0.14543958 -0.08774814 0.104863025 -0.014351427 0.12745842 -0.090096794 0.06830532 -0.16032973 0.007816268
-0.09151025 0.090584144 0.0028345871 0.054549873 0.012052425 0.02854876 -0.0971858 0.088246815 0.109358534 0.08509875 -0.031772982 -0.047984987 0.0145438 0.05270406 0.016754843 0.030700987 -0.1500998 0.15097408 0.05223604 -0.014732392 0.017569399 -0.042135466 0.015315068 0.0300838 -0.1343955 0.15065663 -0.15229157 -0.0965139 -0.20596614 -0.08982175 -0.102981895 -0.1112507 0.014744475 -0.010731219 -0.04674429 0.034475874 0.016535256 -0.070087075 -0.03673466 -0.070734784 -0.00022129575 0.07697033 -0.058641497 -0.06329096 0.0052282372 0.141259 -0.18293968 -0.025204955 -0.09414635 0.0023765774 0.052526027 0.09298165 0.07829762 -0.07751761 -0.107870266 -0.07468154 -0.18212216 0.14098912 -0.026831111 0.008708095 -0.10021257 0.07174509 0.12812759 0.027529579 0.08902916 -0.08909665 0.03965537 -0.22256286 -0.20760964 -0.13911247 0.21198857 0.034315646 0.020985965 -0.14035618 0.06834673 -0.055230934 0.040972587 -0.01161936 -0.008567526 -0.09197587 0.04658916 0.041659653 -0.013043491 -0.16479397 0.08592544 -0.083673395 0.11607961 -0.044546664 -0.0009492992 -0.03129445 -0.09204175 -0.060316283 -0.24639136 0.06627391 -0.06749466 0.04330948 -0.023745414 -0.013906648 -0.12397002 0.0034781303 0.0006233703 0.05056927 -0.19177036 0.043164134 -0.0025918018 -0.051420923 0.013725845 -0.06543416 -0.06390833 -0.04812463 0.15875135 -0.001580919 -0.060128935 0.080113575 0.08099329 0.057592954 0.093605146 0.037442725 0.027869942 0.12984669 0.09229142 0.011799681 -0.07285805 0.033822704 0.07882117 0.0871438 0.098153114 -0.026627753 0.16904193 0.053312402 0.16407324 0.13594082 0.09442328 -0.12329881 0.041342754 -0.10868441 0.06245434 -0.020135438 0.025438042 0.0011783465 0.033734184 -0.08903683 -0.04061274 -0.008893033 -0.018585412 0.19069822 0.01653733 -0.11579312 -0.04818676 -0.03958265 -0.038753282 -0.0681045 -0.07451651 0.07902412 -0.04002249 -0.10733388 0.020282596 -0.024313742 0.1636263 0.0020775688 0.00518403 -0.101674356 -0.021361735 0.018731283 -0.022061218 -0.029486088 -0.1734587 -0.06547569
0.11511454 -0.07572645 -0.054214656 0.071886554 0.12249635 0.0909967 -0.3635492 -0.0028761725 0.02472812 -0.03615554 0.13853191 0.035247114 -0.038066354 0.17496225 0.06917143 0.08788964 -0.009054789 0.05937041 -0.08079724 0.14124571 0.04742866 0.10817933 0.15697813 0.017469471 -0.06368603 -0.22275446 -0.15867892 -0.29950082 -0.04792754 -0.0726873 -0.039124288 -0.021957567 -0.16172667 0.11245855 -0.13381733 -0.30202264 -0.107065246 0.10489154 0.06180646 0.0017217054 -0.105880305 -0.014599936 -0.016016768 0.016245961 -0.027527392 -0.08066215 0.014993134 0.019771835 -0.03348837 0.085966066 -0.08283561 0.2163222 -0.055286027 -0.096933424 0.067380615 -0.16327542 -0.30674827 0.29274407 0.10274433 -0.052573994 -0.15350395 -0.05108488 -0.039027583 0.12269427 0.037190612 -0.121723466 0.168613 -0.06892221 -0.05354684 -0.003572782 0.08308805 0.0029906014 0.055133387 -0.15454912 0.0036666645 -0.13487649 0.018469363 -0.089744225 -0.18176676 -0.05000909 0.18799354 -0.1223317 0.085067265 -0.14719371 -0.059990264 -0.40311268 0.043482084 -0.1608058 -0.050220925 0.09520744 0.03867507 -0.07559458 0.18863817 -0.17184953 0.03672764 0.046693206 0.014797796 0.06459592 0.13020653 -0.035892487 0.10199555 -0.20174533 0.078243606 0.13318336 0.12588531 0.027927766 0.009614255 -0.08442783 -0.013384378 0.1094406 -0.41510043 -0.040531673 0.10581913 -0.05736591 -0.124906644 0.100042835 0.05033335 0.20377062 0.25783163 -0.07256124 -0.017046573 0.09512268 -0.22616455 0.06857222 0.018346544 0.08805898 -0.3786497 -0.037883714 -0.02440203 0.06563051 -0.08897052 0.025736675 0.09628145 0.027792687 -0.16978694 -0.0411752 0.15686888 0.041183297 -0.10515914 -0.08614986 -0.16408993 -0.13625963 -0.2081436 0.09505869 -0.017228542 -0.106348015 -0.13768923 0.16309159 -0.15162842 -0.17269532 0.008514426 0.13151042 -0.018362882 -0.05799285 -0.02695392 -0.0032071054 -0.119082846 0.10290074 -0.01289031 0.015923714 0.08918512 -0.18187833 -0.016458387 -0.06802276 0.03349291 0.014601365 -0.32365823 -0.0950641
-0.024198355 0.08161966 -0.036850274 -0.021921983 -0.059034884 -0.037328675 -0.023093365 -0.034932736 0.07623806 -0.03961205 0.047730647 0.07133495 0.1382019 -0.03288208 0.04214816 0.12908457 0.13220851 0.12321306 0.0046283915 0.07756516 -0.050329663 -0.04561093 0.054307576 0.05812214 0.11439803 -0.06200856 0.111910015 -0.10208587 -0.05882485 0.06291544 0.041374303 0.123481676 0.033729654 0.00055515947 0.20136435 0.15925337 -0.15955883 0.0185647 0.05648206 0.060280528 0.046437036 0.12431324 -0.007339056 0.13501948 -0.011860485 -0.040775314 0.066016465 -0.060481083 0.07735435 -0.09536305 -0.053231075 0.09574594 -0.017702045 -0.085008614 -0.030636672 0.116695665 -0.11778401 0.036402967 -0.0016731598 0.009892346 0.10558246 -0.050498236 0.011077302 0.06510777 0.05881919 0.06890754 0.21292782 0.025456248 -0.1113944 0.052456032 -0.1406222 -0.022633117 0.09607072 0.023047864 -0.038550887 -0.06306889 0.05893179 -0.0124241505 0.04326503 0.087393716 0.109565906 -0.076035924 -0.08620088 -0.010828925 -0.07430759 0.001813405 0.016349208 -0.04039948 -0.061512668 -0.07464553 -0.0005031733 -0.049013592 -0.09122859 0.023955576 -0.034376595 -0.0070092194 0.1379608 0.06854596 -0.02221443 -0.088541 0.036964435 0.03517492 0.08801995 -0.097779736 0.049192633 -0.01173849 0.054264512 0.034843776 0.025169844 -0.056590624 -0.05506925 0.0030041847 -0.060001876 -0.09701039 0.09864085 -0.023531256 -0.027877802 0.02140752 0.20722105 0.029008357 0.030634923 -0.16948971 0.03464805 0.018695291 -0.05069635 -0.11959277 -0.23116297 0.031495877 -0.047481064 0.22689052 -0.012820692 0.011918557 -0.10269438 -0.03185478 -0.05217185 -0.042792667 -0.15007518 -0.06835207 0.03182592 0.0856799 0.060302716 0.09154181 0.10267567 0.048031542 -0.019059943 -0.011877344 -0.029664282 -0.037097193 0.0029102955 0.021670792 0.020699222 -0.02239838 -0.09909779 -0.08260445 -0.062952064 -0.07270642 -0.03414134 0.014249918 -0.010566036 0.151573 0.0004444189 -0.085506745 -0.15477467 0.059071053 0.024515199 0.06121007 0.022868007 0.025761504
0.07779395 0.06738476 0.10683492 -0.16489452 -0.02590885 -0.10121422 0.05216441 0.14514612 0.09057352 0.10285625 0.07867672 0.072329335 -0.024240557 0.0748299 0.057232283 -0.049477544 -0.09018286 -0.011432791 -0.045633823 0.034546267 -0.053296752 -0.11207049 -0.08250304 -0.015508303 0.014186102 -0.47422156 -0.025674315 0.07912092 -0.04177762 -0.23364508 0.06596376 0.057279292 0.09195988 -0.013217547 -0.0003680049 0.0065599796 0.072566435 -0.115775034 0.039924953 -0.007675879 0.075919926 0.004635278 0.05668497 0.062198725 -0.013645635 0.03483868 0.0034981049 -0.010010984 -0.066240974 -0.017551824 0.032636266 0.13050197 -0.058338426 -0.23522197 0.10728609 0.042751823 -0.21188365 -0.119571 0.10195648 0.006534409 0.040457856 -0.08864677 -0.11189039 -0.11224202 -0.18576619 0.05412431 0.045344878 0.20197953 -0.0456412 0.06386411 0.0063881525 -0.001781649 0.118150935 0.0058257505 -0.016250072 0.0024250587 0.12268121 -0.11023393 -0.23039702 0.02962615 -0.08689859 0.030947076 -0.054166596 0.12222029 -0.019824436 0.26779592 0.041486938 0.07604877 -0.049007222 -0.11213689 -0.057827827 -0.12579814 -0.13750997 -0.099498354 0.029013105 0.044972003 -0.058702122 -0.010208094 0.042390306 0.16432899 0.054386873 0.018730024 -0.22468977 -0.08138849 -0.05173234 0.051786236 -0.044494983 -0.009819283 0.04518363 0.0063093295 0.16075794 0.025123809 -0.110117 -0.034391437 0.0012585211 -0.16325577 -0.054825798 -0.132405 0.0109428875 -0.027203731 -0.07231405 -0.03353631 0.039727412 0.07178613 0.012485951 -0.13102281 0.15984878 -0.0048651835 -0.39149708 -0.023527727 -0.086208254 -0.1542014 -0.033807524 -0.055430416 -0.057959132 0.005213032 0.10934656 -0.08335128 -0.08136427 -0.108809374 -0.07361387 -0.032577932 0.08468586 0.0033714185 -0.06719638 0.05351823 0.05249271 -0.14345463 -0.049449425 -0.022269571 -0.16181815 -0.11249099 0.028097915 0.079242036 0.041465543 -0.039114706 0.012322798 0.025670482 0.2866504 0.09778622 0.091136515 -0.1097665 0.09252747 0.14354739 -0.021422492 0.034256488 -0.026312144 -0.023661273
0.07393145 0.08070079 0.06225294 0.08698185 -0.06856251 -0.024943871 0.07619631 0.1984074 0.010150444 0.01807493 0.13732778 -0.017560827 -0.038106803 0.09752134 -0.09622937 0.003490235 -0.368342 0.06276362 0.0536781 -0.047008418 -0.036284953 -0.08835109 0.13752432 0.04008073 0.088082165 -0.5412938 0.07410046 -0.017946837 0.023791863 -0.29580382 0.113107294 -0.06301358 -0.0414346 -0.02909837 -0.21153812 0.0011113021 0.06966007 -0.07253485 -0.14194527 -0.049421757 0.13990574 0.005515861 0.03631493 0.11898419 -0.066903 0.12077097 0.0003253911 0.02322117 -0.010805395 0.04908628 0.15225363 -0.015437674 -0.1613045 0.2241526 0.06860147 -0.032425933 0.001993909 -0.069379166 0.022180201 -0.11406264 0.18613644 0.07345458 -0.018164884 0.12267246 -0.040428065 -0.019603785 -0.053088408 0.17530863 0.13344826 -0.0258331 -0.21194984 -0.12081079 -0.07024128 -0.10833268 0.08195839 -0.12502189 0.0033231003 -0.101002224 0.03914714 0.04586802 0.038727604 -0.11668045 -0.11662574 0.055089314 0.030507956 0.27113965 0.07353773 -0.071581975 0.06557058 0.09538805 0.015209875 0.013483824 -0.040748037 -0.0618163 0.12347496 0.04009406 0.18378007 -0.075336225 0.33340088 -0.007912199 -0.08492962 0.051066034 -0.10917047 -0.12654021 -0.020306643 0.12631202 0.008523049 0.08484541 -0.011044371 -0.07073269 0.029918453 -0.017824152 -0.013097536 0.053294174 0.083587624 -0.060250305 -0.061591152 0.018627405 0.29056296 -0.14530276 0.022296276 0.09582652 0.109901026 -0.026087185 -0.06224685 0.053165648 -0.0070556407 0.10348728 -0.51132196 0.0615015 0.020825071 -0.061372224 -0.102548674 0.04518953 0.039509784 0.06221188 0.044915166 0.050902992 0.065430574 -0.0085427575 -0.0035904266 -0.082224354 0.07945845 0.03345887 -0.020260584 0.13634923 0.011582214 -0.03039159 -0.1270036 -0.08733291 -0.007839101 -0.047277007 0.02590667 -0.010071333 0.039212618 0.12549062 0.03201003 0.18408561 0.33675522 0.046037186 0.027444195 -0.030245945 -0.1513021 0.09684999 0.017627075 -0.0077447486 0.016067155 0.008604311
0.0075381934 -0.09399104 0.04825716 -0.06285447 0.10116024 -0.0019707682 -0.035546977 -0.15885656 -0.020025896 -0.06477232 -0.1187571 0.046384867 0.08513797 0.11726532 -0.0541366 -0.021775328 0.16311857 0.011787559 -0.04796778 0.05021064 -0.0018805285 -0.043975372 -0.09040679 0.010338229 0.028819907 0.13756919 -0.13197888 -0.054131318 0.049014844 0.079240136 0.023861282 -0.09250423 0.03539017 -0.109888665 -0.04502993 -0.09901061 0.074244 0.11756202 0.050197124 -0.08055269 0.0066944533 0.06613477 0.10773973 0.004973957 0.06432532 0.07503085 -0.02259473 0.03895621 -0.04853553 0.084907725 0.034212396 -0.08652638 -0.06828625 0.032931093 0.024553606 0.05549115 0.10775576 0.23530771 -0.009500616 0.079523556 -0.14196126 0.021353409 0.113104135 0.1603778 -0.04222697 0.043668587 0.05728246 -0.05359994 -0.15098575 -0.062214136 0.0095690945 -0.10395643 0.016157566 -0.03246657 0.05435481 -0.08750479 0.16758972 0.02385101 -0.14164244 0.0635432 -0.0622648 0.04958512 0.033672415 -0.058974434 0.097590216 -0.055441663 -0.08608467 0.13841979 0.03149645 -0.0038664795 -0.012540951 0.018816508 0.06777519 -0.06517704 -0.008344371 0.0017225223 -0.057361804 -0.03365376 -0.00875351 0.06294063 0.031956535 -0.048687015 0.024825953 -0.07316584 -0.037960373 -0.103355214 0.025320444 0.0070649204 0.0628147 0.043340202 -0.120196104 -0.076414995 0.11530932 0.05776136 -0.0007652991 0.100532696 0.10560439 0.014587281 0.037657905 -0.1230706 -0.015189695 -0.08172062 -0.102781594 0.067657575 -0.04642441 0.079129726 -0.05009433 -0.06289148 0.46418953 0.09489344 0.031048741 -0.060438775 0.070970744 0.03701025 0.06469209 -0.06541155 0.06773493 0.186869 0.112859376 0.11302759 0.13239434 0.01870083 0.13222599 -0.109606534 -0.09888685 -0.048182636 0.06293105 -0.008788667 0.09546847 -0.023042347 -0.018172367 0.10144484 0.050120525 0.006110249 -0.10704403 0.07512158 0.025945527 -0.0075920518 -0.14989008 -0.027914297 -0.10207466 0.07761298 0.10541931 0.10366033 0.15435241 0.042524 -0.114432506 -0.16027276
-0.07338604 0.04435657 0.022367053 0.058833797 -0.059883945 0.038616754 0.20760803 0.17514 0.101505145 0.03784404 0.051270094 -0.042793386 -0.09606831 0.04382841 0.21946663 0.03513482 0.0029503298 -0.027570503 -0.017464424 0.069972925 -0.10706035 -0.16309457 -0.11088193 -0.008541084 0.13970998 0.05820485 -0.06902106 0.17224325 0.100546524 -0.13674118 -0.027995111 -0.02544982 -0.03375327 -0.043193385 0.07133468 0.14571188 0.019900627 -0.059384536 -0.05094372 0.047431275 -0.099250525 0.036049392 -0.07221444 0.15188076 0.055287626 0.03212672 0.12164614 -0.119829684 -0.008189454 0.11144572 -0.026623042 0.044817474 -0.14113317 0.104941115 0.05458394 -0.09209293 0.039642278 -0.061678212 0.002166735 0.1504518 0.02124686 0.030094877 -0.047454074 -0.15513825 -0.106878065 0.016364934 0.0031668986 0.07620685 0.13502505 -0.046546537 0.027166886 -0.0066388175 -0.052397013 0.012674369 0.06287314 -0.00477191 0.069262035 -0.1372081 -0.19784042 0.09519002 -0.0024692859 -0.036860283 -0.054627255 0.029695608 -0.023935365 0.004198022 0.15486315 -0.061593153 0.042710748 0.12898359 -0.07677529 0.014941584 -0.12623136 -0.076658204 0.06251377 -0.034631334 -0.06046113 -0.043133877 0.055658087 -0.055160966 -0.02177975 0.06915889 -0.12589689 -0.12205856 -0.07769291 -0.1081087 0.056463797 0.09290776 0.014964666 -0.15963854 -0.16557083 -0.04572358 0.061682094 0.039429836 0.11254441 0.06848472 -0.093530536 -0.0706402 0.05968942 -0.09992716 -0.04801084 -0.029745027 0.11555346 -0.01932439 -0.0089370245 -0.15000601 0.0057692053 -0.058184627 -0.13025403 0.03554165 -0.041027725 0.0174198 0.0015672651 0.042417772 -0.024160912 -0.026206277 -0.03901376 -0.020296339 0.068400286 -0.07045545 0.094655044 0.14998014 -0.07331791 -0.02594184 -0.058965046 -0.12210199 0.1311746 0.008812549 0.033752594 -0.07110265 0.08516808 0.043827765 0.011798578 -0.06740268 0.17640959 -0.10831074 0.059027586 0.0624006 -0.012446437 0.08872544 0.075085506 -0.088567 -0.08584301 -0.0989749 -0.11481576 0.030293554 -0.038251873 0.041144263
0.008574224 0.047714867 -0.06226976 -0.13946411 -0.042825673 0.13312776 -0.16638121 0.17863303 -0.029022377 0.09082328 -0.08232393 -0.12622476 0.016704887 -0.07794942 0.056400124 -0.07419962 -0.09270238 0.1070093 0.034395143 0.14587742 -0.05238333 0.12161009 0.018729582 0.100619696 -0.019377531 0.12647782 -0.08578153 -0.13414909 0.067305736 -0.16211273 0.023814274 0.008629699 -0.0067812745 0.061353803 -0.029756736 0.0731943 0.07514452 -0.17261411 0.014218166 -0.088406995 0.14570875 0.04217127 -0.012506426 -0.015018222 0.061426625 0.112824 0.057267305 0.007307008 0.046515457 0.10042548 0.059427585 0.07629341 -0.0900617 0.08382749 -0.050918892 0.03418044 0.0065732813 0.07247841 -0.094661444 -0.039229713 -0.12616642 -0.03357923 -0.02660518 -0.08233168 0.09769732 0.16093758 -0.088365816 -0.04645346 0.12741709 -0.1215074 -0.013258302 -0.056025404 0.14274785 0.0711285 0.08016457 0.029673912 -0.0107002165 -0.14108647 0.03989287 -0.121202365 -0.10655436 -0.044407524 -0.07561961 -0.024715839 -0.12503019 0.14125183 0.07411911 0.06896425 -0.008677975 -0.05681929 0.010998042 0.06667477 -0.03313381 0.11251288 -0.0051420624 -0.07905178 0.023790944 0.00041170287 -0.05654459 0.03801874 -0.07130979 0.1067844 -0.08785494 -0.08005509 -0.08865946 -0.09111605 -0.16864197 -0.073763624 -0.10561737 -0.04780236 -0.020229997 0.016234778 -0.07341841 0.018202541 0.07786849 -0.09952573 0.054133795 0.0056670485 -0.13038665 0.016675413 0.08748269 0.074191734 0.0011723969 -0.101112805 -0.12607656 -0.061224993 0.1038592 0.07341348 -0.108965725 -0.15395927 -0.06525807 0.12502949 -0.08536496 0.04796522 -0.026496401 0.17938864 -0.079066366 -0.034303304 0.07315148 0.0037670925 -0.004794131 0.10870417 0.19221722 0.05220729 -0.104173385 -0.10852898 0.085252136 -0.12970392 -0.13158871 0.046625804 0.06756309 -0.06676582 -0.10168642 -0.06598032 -0.09624726 0.09986529 -0.0889117 0.106891945 -0.2902601 0.034534056 0.061471038 0.08723589 -0.024843141 0.038597476 -0.09800674 0.09415699 0.0010227074 0.12906952
0.020547235 0.087507874 -0.057429887 -0.09637579 0.15461014 0.14765337 -0.012815101 0.006027647 0.056686044 0.07323851 -0.03919363 0.046484534 -0.051600795 -0.08479596 -0.034130827 0.08950649 0.0051885583 -0.0038942136 0.047200345 -0.022839556 -0.035977293 0.08058896 0.118841715 -0.03842277 0.037652433 0.24247125 -0.06874395 0.04230183 0.040638354 -0.03736289 -0.07137813 0.073687404 -0.14378536 0.11035459 -0.0754817 -0.15868647 0.11934328 0.088728234 -0.11502509 -0.01530047 0.0642149 -0.10926904 -0.15590715 -0.038576934 -0.089433625 -0.07373412 0.024913795 0.03741518 0.025378998 -0.01504876 -0.09089155 -0.06209777 0.100365035 -0.22334953 0.08155754 0.0560614 -0.08298909 0.16720772 0.13058862 0.09289151 0.16808 0.10997144 0.014518719 -0.10225358 0.0047896313 -0.16072321 -0.025222167 -0.0044163405 -0.052238714 0.11907794 0.18181776 0.06781694 -0.032959696 -0.09012382 -0.09436093 0.028802352 0.09373069 -0.052599955 0.012411383 -0.009925962 0.091511056 0.048333302 -0.11400631 -0.004853983 -0.042956065 -0.13377202 0.14047545 -0.098858826 -0.13673197 0.20074344 0.05850442 0.061976727 0.08216941 -0.009576997 -0.06544435 0.0011520962 -0.010278573 -0.0057613254 0.08831277 0.060358 0.014137894 -0.057916395 -0.03824932 -0.010971073 0.14236824 -0.10337805 -0.048916265 0.09916425 0.08336738 0.06478213 -0.0777714 -0.03247494 0.10935897 0.027933458 -0.13214318 0.061253566 0.0998574 0.12068718 0.09454422 -0.04134677 0.0022736113 0.17795432 -0.16352096 0.10665832 0.02508981 0.0394731 0.10192504 0.04585249 0.37242904 0.0640246 0.122922644 0.13599163 0.05261291 0.038750455 0.006889887 0.0751526 -0.054898687 0.037526213 -0.14104939 0.083447956 0.044493623 -0.04303063 -0.19026981 0.012138523 -0.1394568 0.047336392 -0.047772057 0.077488795 0.006096508 -0.10711443 -0.08296355 0.00070804113 -0.0010695821 -0.03435106 -0.025077263 -0.017307196 -0.019141687 0.009934403 -0.19085832 0.011651015 0.07825657 -0.07275458 -0.007786562 0.11560914 0.13460402 0.003328162 -0.09022739 -0.0044422317
-0.04950007 -0.14158578 -0.06884232 0.12464112 -0.10063235 0.03437373 0.08725214 -0.11873603 0.05076768 0.18302655 -0.11522004 0.026606437 -0.048898093 -0.08725525 -0.12754768 -0.10243826 0.25359643 0.0013421498 -0.021450026 -0.1331406 0.15174744 0.060506467 -0.1874302 0.094885 -0.13099203 -0.1324471 -0.04957397 0.19235235 -0.016192906 0.064781204 0.059146293 -0.098506495 -0.121340655 -0.047643024 0.065677755 0.06737422 -0.059155747 0.016102772 0.0611544 -0.065634266 0.10607778 -0.09621803 -0.08606239 -0.03175394 0.016371591 -0.060517553 0.010213029 -0.05758229 0.11511615 0.11681714 -0.03939782 -0.11148579 0.02403924 0.14345548 -0.007315115 0.09015623 0.12163572 -0.108473085 0.092075296 0.102785766 0.18636821 0.100217484 0.046552833 -0.048951555 -0.036997195 -0.023211176 -0.0861489 -0.029909113 0.039770413 0.00011789527 -0.110023424 -0.006123862 -0.0072840927 0.02770987 -0.08014267 -0.098087735 -0.108753935 -0.05852024 -0.117970556 0.0058626793 -0.052412204 0.02030515 0.108751096 0.0006559682 0.037780073 0.10415881 -0.027534546 0.04567785 0.009920139 -0.050739516 0.17749439 0.056293663 0.029805709 -0.07169098 -0.06983473 -0.023369905 -0.004558749 0.06649643 0.09266834 -0.14559834 -0.03630607 0.1194346 -0.032252323 -0.108927004 0.004797842 0.0858792 -0.1468111 -0.045813426 -0.043003704 -0.08800934 -0.00080547895 -0.049249716 -0.13311668 -0.15256602 -0.09263476 -0.04281532 -0.04479014 -0.060594928 -0.015443816 -0.0585493 0.10631031 -0.045021556 -0.09984135 -0.022470996 0.023607777 -0.09664403 0.042601645 -0.059161853 0.048842274 0.009101454 0.16468947 -0.033577725 0.052035935 -0.040752083 -0.006764511 -0.09022658 -0.12750356 0.090328485 -0.105245784 -0.006963182 0.04838619 0.073533274 0.13478863 0.007889349 -0.04432199 0.02165857 -0.14037377 0.023073127 0.07528785 -0.037224215 0.19377387 -0.013905827 0.01043649 -0.0019137386 0.03733266 -0.038939685 0.01986312 -0.023021867 -0.030208318 -0.12521158 0.1275255 0.031056495 0.072282724 -0.11789303 0.040574238 -0.0025100454 0.024445454 0.09907418
-0.05923633 0.09411221 0.06129838 -0.08285362 -0.10696646 0.020347869 0.18139501 -0.052490883 -0.12537803 0.03734931 0.053601433 0.04668768 -0.09993454 0.010876036 0.029668076 0.16693377 -0.113733634 0.058411468 0.094954066 -0.07557648 -0.09694201 0.0026197128 -0.021519952 -0.04407155 -0.016583005 -0.109031506 0.06897885 -0.014110572 0.14915447 -0.063711904 0.08178678 -0.010645671 0.05195528 0.13738832 0.025074914 0.12617604 0.11754767 0.029250558 -0.15709396 -0.05541611 0.058786586 0.09509911 0.07129486 0.028262397 -0.04633277 0.04481283 0.098058626 0.010584212 0.0041119433 -0.10234157 0.026844433 -0.09780017 -0.114363685 -0.1485359 -0.023698745 0.08417961 -0.19159639 0.055430137 0.082731225 0.15788691 -0.07142394 -0.092227064 -0.008634166 -0.13220973 0.01292035 -0.015796833 -0.06276882 0.09581697 0.03726136 0.053763755 0.14079624 -0.06886248 -0.07584288 -0.04048666 0.054256216 0.021470653 0.0062133125 0.024278468 -0.047798894 -0.07887212 -0.0402523 -0.14655797 -0.029998617 0.103320874 0.032503743 0.08002933 0.10157248 -0.0067426143 0.041598976 -0.043146793 -0.116290934 0.014215985 -0.023200639 0.03793082 0.087213375 0.0075410623 0.12881187 -0.017523736 -0.031442855 -0.03724382 -0.04006484 0.060004577 -0.07052432 -0.012756302 0.102277964 0.047990628 0.1246065 0.084829 -0.024600957 0.119610064 -0.11233859 0.075759746 -0.106312595 0.050748643 0.081949025 -0.067530945 -0.07222289 0.109730326 0.06331594 0.020057913 -0.066876076 -0.06241077 0.1651816 -0.015927592 -0.015548618 -0.11667333 0.004079957 -0.009879595 -0.0029969632 0.008957088 -0.1018698 -0.0016506785 -0.116819836 0.07891642 -0.05012007 0.106614016 -0.17294155 -0.10743899 0.13417053 -0.026856713 -0.08209432 0.07940791 -0.030061219 0.03728469 0.08568154 -0.04275303 0.10087667 0.056369197 -0.06849567 -0.06435537 -0.04211343 -0.00873663 -0.017493343 0.09023012 -0.07434394 -0.04791153 -0.09567194 0.011893495 -0.021764535 0.13427186 0.101241715 0.037481416 0.04066602 0.014698241 -0.06387485 -0.052218366 0.017673828 -0.04780182
-0.083403274 -0.079997055 -0.10348362 0.06710804 0.050839487 -0.07654151 -0.0873698 -0.0071283765 -0.09565813 -0.035163715 0.08002628 0.018669035 0.040851146 -0.12288348 0.1253618 -0.04715371 0.016596373 -0.04931978 -0.08571324 -0.048861153 -0.18677856 -0.09515059 -0.039532475 0.014451791 -0.013566073 -0.071812496 0.027217325 -0.10899213 0.023433993 0.21244729 0.026407123 0.032638527 -0.09456084 -0.00013709221 -0.0010017594 0.059150033 -0.07083122 -0.035596136 0.09091671 0.0062073036 0.12445882 0.13144016 -0.034113485 0.03853098 0.09843953 0.07159834 -0.012522979 0.055455524 -0.1134215 0.10667092 0.011102745 0.005303233 0.09451348 0.238028 -0.06884869 0.023141945 0.27783543 -0.20263442 0.014653931 0.007747452 0.068277955 0.017962813 -0.048019603 0.039574508 -0.030516611 0.049078897 -0.060180467 0.13116291 0.038655218 -0.035245243 -0.2578606 0.10447769 0.0721163 0.10146478 0.05693608 0.029100014 -0.1097225 0.04073759 0.0042652707 -0.10709107 -0.07132829 -0.02603059 -0.14200936 -0.12857081 0.08703226 0.34657887 -0.13886277 0.13161963 0.096806034 0.11124575 0.036722198 -0.10854651 -0.20898132 -0.009880298 -0.08840993 0.06261563 -0.12296083 0.05110669 0.0155873895 0.013161696 0.015988678 0.11094979 0.012279424 -0.10325229 0.08454244 0.1051003 0.11163169 0.01708991 0.00070840126 0.067685276 0.08205208 0.09297199 -0.12737375 -0.1720647 -0.074600995 -0.11417353 0.006075732 -0.21105404 0.11293873 0.07223577 -0.03896281 -0.13379498 0.06614503 -0.057897888 -0.07305963 0.13065782 0.090875044 -0.109178476 -0.2236774 -0.032032948 0.11846617 -0.085284404 -0.080823995 0.022149839 0.11005664 0.02473177 -0.10337564 -0.0075780777 0.021455612 0.06277516 0.12263094 0.042160716 -0.105811715 0.15735853 -0.00814536 -0.12488727 -0.1010821 0.06522011 -0.05419196 -0.12534267 -0.03791604 0.081361055 -0.03752891 0.08225517 -0.08206619 0.0802659 -0.06579668 -0.047562383 -0.1660398 0.080826044 0.100886345 -0.123471774 -0.10099243 -0.02308559 -0.10885638 0.08979413 -0.047396954 0.098136954
-0.055965398 -0.041141424 -0.08441374 -0.1293081 -0.13875027 -0.05747218 0.08693164 0.08950219 -0.022970095 -0.13619338 -0.12605919 -0.050270054 -0.0835687 -0.12505618 0.04535757 -0.022715997 -0.03295778 0.06552334 0.074350916 -0.042874023 -0.04774377 -0.030476987 -0.07274595 -0.049914386 0.070278145 -0.036037553 -0.085404694 -0.032976143 -0.061513875 0.016745802 -0.086473316 0.1404123 -0.036791418 -0.046057075 0.09880566 0.06352157 -0.014692272 -0.025594972 -0.0560689 0.013744105 -0.09775712 0.068618365 0.01098482 -0.10196713 0.034454253 0.05570504 0.01576108 -0.067493334 0.10350773 -0.06561574 -0.12141999 -0.022584165 0.10869658 -0.021132588 0.030664884 -0.058883324 0.09131255 -0.16049637 -0.042568166 -0.15575543 0.05528737 0.078118935 -0.098541595 0.11153399 -0.085939 -0.10790733 -0.17782019 -0.124018356 0.09573426 -0.0075538396 0.024589418 0.021227809 0.10016306 0.019363258 0.028218843 0.119364455 -0.006877284 -0.008578998 0.06446489 -0.044722836 -0.03927764 0.08478789 -0.022988759 0.07041295 -0.091091655 0.1555016 0.024485646 0.011846599 0.03446852 0.01162358 0.036056872 0.098541275 -0.028773434 0.06530834 -0.0056705065 -0.006489705 0.099067375 -0.025114195 -0.029586704 0.045924377 0.11954002 0.008776191 0.07009785 -0.09337026 0.12446825 0.076625906 0.0540848 -0.033151932 -0.017058333 -0.029254986 0.0083191525 0.0090213 0.048434038 -0.071750246 0.014787692 -0.14900845 0.030780913 -0.11662603 -0.118471585 0.10243511 0.06606165 0.025848055 0.0057138926 -0.0009920301 -0.07731785 -0.027018445 0.09321464 0.10281144 0.10827085 -0.008016394 0.11208943 0.082805745 0.0322596 0.10895204 0.07479319 0.05572335 0.07168398 0.037766997 -0.04639002 0.06690077 -0.046446975 -0.06550432 -0.07863456 -0.10059479 -0.07908875 -0.05768903 0.027334977 0.15317874 0.020739194 0.116581924 0.09373046 -0.10941617 -0.028947553 -0.05230496 0.006226336 0.079247534 0.044305578 0.09798356 -0.050150692 -0.08855916 -0.007970063 -0.061807938 0.013230561 -0.11090298 -0.0815876 0.015435273 0.104995325 0.06853429
0.085173324 -0.014138808 0.029599447 -0.0653176 -0.016043965 -0.007894515 -0.11520745 -0.0028113401 -0.12718135 0.13803153 0.050265312 0.13775223 -0.056272645 -0.059182603 0.010616742 -0.044129986 -0.03743849 0.16880289 0.033193823 -0.09446673 0.026981706 -0.033663712 -0.12236069 0.17816736 0.13977627 0.14456685 -0.041967075 0.15657689 0.100002095 -0.05338729 -0.03636972 -0.08199853 -0.013763011 0.03946528 0.09575451 0.13927235 -0.14370406 0.0013550889 0.09660216 0.028893871 -0.18311502 0.10854843 -0.079318084 -0.16882728 -0.024146728 -0.11767939 0.10529494 0.03848682 -0.103448085 0.029318552 0.2219975 -0.05455671 -0.00033834123 -0.09618535 -0.08313724 0.10565677 0.15055507 0.16642547 0.0684759 0.027378822 -0.0062098615 0.008220141 -0.12128525 -0.015300059 -0.16274956 -0.25282243 0.15708324 -0.04129176 0.036703706 0.016642518 -0.052900847 -0.055075634 0.028764095 0.027150001 -0.07464573 0.11585483 0.11055115 -0.0041397028 -0.00033824734 -0.017688911 0.090029724 -0.09501294 0.042918295 -0.15771802 -0.022074828 0.08304104 -0.010476994 0.13260432 -0.07147229 0.037371114 -0.111806475 -0.0018907875 0.052056953 0.070393056 0.08601398 0.07997188 0.17514253 0.07509167 0.12420377 -0.1332512 -0.121628195 0.081171945 0.079371996 -0.031357903 0.07412063 -0.010307894 0.026228627 0.024224397 0.050218727 -0.08082773 -0.19206125 0.07390891 -0.06616142 0.08784979 -0.033572577 -0.18958047 0.062495172 -0.09294341 -0.20939487 -0.061353426 -0.05037458 -0.03792304 -0.14141071 0.013988664 0.08339379 -0.16737339 -0.06416218 -0.094279654 0.051174067 0.034629337 0.02537969 0.001795295 -0.06312765 -0.07922542 -0.011514099 -0.106497385 -0.35279664 -0.0003015026 -0.080654785 -0.033401635 -0.08813294 -0.023008049 0.14731638 0.053379107 0.053353466 -0.03758993 0.17300354 0.123447224 -0.014714406 0.051747493 -0.024343932 0.16202693 -0.0584202 -0.008056058 -0.0187887 -0.09715853 -0.030784164 0.05003823 -0.3017353 0.06252062 -0.04792606 -0.14554143 0.09181961 0.011226267 -0.0019938871 -0.07944492 0.037893333 -0.04375458
0.07015492 0.040497817 -0.01846106 0.03418135 0.024446893 -0.0676535 -0.0030551432 0.00020365519 0.039124362 0.1305071 -0.10323802 0.07379145 -9.789709e-05 0.057031956 -0.07766351 -0.101933554 0.21071911 0.07613628 0.06384777 0.026012855 0.0018136564 -0.14079787 -0.08419328 -0.010239737 -0.042357545 -0.0076944083 -0.02095981 0.102717094 -0.101536594 -0.020906026 0.023491032 0.116076626 0.06023917 -0.017134855 -0.018115055 -0.014868613 0.00554485 -0.059352644 -0.0019083115 -0.0032115958 -0.0011426671 0.019912822 0.041275762 -0.055599883 -0.08050091 0.086569875 -0.0819797 -0.05752151 -0.11935033 -0.09182916 0.15768816 -0.03673174 0.09278511 -0.23639216 -0.09971916 0.015379039 0.22561528 -0.13499402 0.08762038 0.08019136 0.0534945 0.12371973 0.025415251 -0.041220777 -0.038625497 0.14014229 -0.10148602 0.031046757 0.11094562 0.084091954 0.045328345 -0.06675058 -0.071424976 0.028983064 -0.004927332 -0.0857125 0.0044589196 0.037532613 0.012896247 0.11644517 -0.05173219 0.005583754 0.07057607 -0.1281442 0.10871673 0.30864552 -0.049522128 -0.030013576 0.06648703 -0.10433051 -0.010399687 0.15754026 -0.026987357 -0.05597389 0.15563118 0.04319184 0.07393907 -0.030666443 0.19394822 0.09418719 0.005448201 0.0052148015 -0.15039822 -0.05986281 0.07911452 -0.13333204 -0.12425692 0.0922556 0.00088539347 0.066431485 0.05365915 -0.03302958 0.06376498 0.0915909 0.03494725 -0.08349065 -0.08490657 0.014141704 0.15510336 0.069791585 -0.028196376 -0.011694322 0.064955935 0.02630189 0.078545526 -0.056132093 0.18915902 0.030946257 0.18899699 -0.14632158 -0.08110123 -0.0004093637 -0.09592468 0.096345566 -0.029377155 -0.033353902 -0.11377432 0.019300874 0.10991411 -0.016841387 -0.06662458 0.15281777 -0.20021637 0.06146489 -0.060671117 -0.08052327 0.16931947 -0.10275824 0.094083525 0.11697515 0.045774627 -0.12868942 0.072965264 0.057096966 -0.048398707 -0.008450701 -0.060519617 0.10895017 -0.1608213 0.070015065 0.027320322 -0.06439548 -0.05854285 0.120826766 0.12586075 -0.061868563 -0.021867417 -0.10326956
0.067871965 -0.10752165 -0.08682647 -0.10564481 -0.060656343 -0.017034061 0.058533598 -0.07720327 -0.09871117 -0.0012920498 0.07698227 0.0899395 -0.07433238 -0.0887084 -0.058820482 -0.1506989 0.018697992 -0.0804577 -0.08149936 0.08310684 -0.05250498 0.09651413 0.063718565 -0.0755706 0.004801121 0.22213286 -0.054869242 -0.12646876 0.016413726 -0.05537701 0.09961574 0.06611025 -0.0853358 0.12899204 0.0018083961 0.101348236 0.0897974 0.04177331 0.13486743 -0.09651425 0.042276394 0.009940035 0.0831614 -0.040345825 0.041597698 0.028941145 0.023516549 -0.06485927 0.029926475 -0.079301156 0.053805556 0.13561812 0.09439161 -0.036375385 0.06410231 -0.029446477 0.008587662 0.047573064 -0.034400992 -0.09640809 -0.018970503 -0.005169887 0.08996086 0.06077634 -0.090188816 -0.13749345 -0.0210913 0.13454415 0.05380258 0.073257625 0.074104525 -0.06243829 0.071964815 -0.089994095 -0.09794127 0.02798423 -0.031610236 -0.0037436623 0.021830386 -0.08803077 -0.036660437 -0.0016233918 0.12253013 -0.16382693 0.00086486293 -0.0709416 0.11508011 -0.10485364 -0.12528 -0.06522495 0.0017001086 0.10121568 -0.034574553 0.10030515 -0.1245001 -0.06906457 0.06402447 -0.1185579 -0.067681625 -0.025837062 -0.115928605 -0.0062829675 -0.051745307 0.09542763 -0.05725099 -0.03183652 -0.06495331 -0.090736285 -0.012796878 -0.067716464 -0.095575675 0.100931674 -0.053888522 0.13282968 0.011236836 -0.04341924 0.08626497 -0.013600718 -0.07295441 -0.03556634 -0.15662396 0.095679365 -0.056306638 0.13186781 -0.11607258 0.0580454 -0.012456646 -0.07156469 0.1915998 0.032276154 0.04665531 0.1375879 -0.034991216 -0.05335119 -0.108231254 0.022656491 0.11084767 -0.07392428 0.058689408 -0.0586858 0.014015075 0.12405932 -0.04148319 0.076022804 0.027820637 -0.09132394 0.05138956 -0.03969402 0.08732344 -0.109044574 -0.060084123 -0.13748285 0.07188408 -0.14123388 -0.0694502 -0.084323965 0.08623022 0.008913145 -0.10582557 -0.0427969 0.08559346 0.058988903 0.15685214 0.008257038 -0.0126861585 -0.0040404815 -0.13202104 -0.111668676
-0.031187797 -0.09674511 -0.013338817 -0.06479028 -0.1713133 0.02603184 -0.06703449 0.04772006 -0.07333684 0.22627757 0.0064658853 -0.0596413 0.055913802 0.031438403 0.028106637 0.041427888 0.0048502865 0.03405103 -0.0580404 -0.012902615 0.029246561 0.14165974 -0.046123605 -0.007155538 0.01694469 0.29906774 0.017667754 0.09108645 0.07560119 -0.0014917395 -0.056707494 -0.11102295 0.06251238 0.07541877 0.15443009 0.07456129 -0.12744762 -0.12084871 -0.08567786 -0.019275038 0.08601243 -0.021238975 -0.104702786 -0.10936471 -0.12685984 0.024646511 -0.13286778 -0.1155844 -0.105959706 0.0745762 -0.002925334 -0.11246335 -0.05835815 -0.075551786 -0.025712606 0.09648166 0.061764937 0.017132204 0.05450486 -0.17832702 -0.13201502 -0.022357555 0.061121605 -0.06818164 -0.080234036 -0.040612303 -0.110814825 -0.16374752 0.026735872 -0.011294723 0.07164644 0.018373307 0.038013127 0.039744657 0.08187988 0.05846575 -0.09413601 -0.042928044 0.05272913 -0.08491186 -0.034533955 0.05005318 0.122450605 -0.06844746 0.06922233 0.114380695 -0.026741011 -0.028302176 0.016657718 -0.065580435 -0.026088517 -0.032245625 -0.049188714 0.031948213 -0.10800444 0.081112415 -0.058044206 0.12857014 -0.10606436 -0.07423156 0.07272506 0.09943966 0.11896879 -0.06662047 -0.022650972 0.09295248 0.065072164 0.07581205 0.06404213 -0.14541465 0.029040547 0.105975375 -0.060810186 0.11716607 -0.03837938 0.09114191 -0.04390584 -0.070141144 -0.16731776 0.077305116 -0.025622757 -0.111405715 -0.10711809 -0.05979707 0.0034828144 0.11999619 -0.054639667 -0.119432375 0.12753685 -0.01554249 -0.052800234 -0.053699043 0.0076352013 -0.06800843 -0.031617623 -0.04902929 0.10720648 0.061710626 0.05165637 0.0028549372 0.0076628886 0.12537165 -0.13187295 0.05414698 0.076874696 -0.12456086 0.102264866 -0.008569819 0.16489781 0.10101783 0.046913933 -0.11087607 0.101799466 0.08020133 0.067215666 -0.02262232 -0.022907967 0.0765176 -0.17413224 -0.072556585 -0.029857665 0.101746455 0.07278986 0.03850851 -0.086126894 -0.10374535 0.041640982 0.033683993
0.0054494753 0.08419321 -0.09944192 -0.04270513 -0.116071396 0.09860641 0.00313801 0.106359676 0.1037962 0.114506446 -0.09830555 0.011503939 0.12517193 -0.039016373 -0.079944804 0.0041915136 -0.037856925 0.121466465 -0.08781458 0.05246392 0.013819234 0.15201221 0.026419759 0.1244463 -0.058200784 0.1575171 0.11353025 -0.03728445 -0.090169 0.07662207 -0.019038847 -0.0021613883 -0.038576465 0.027225783 -0.0048962883 -0.08616872 -0.15036623 -0.09840745 -0.06469283 -0.0256279 0.09171265 0.14156291 -0.114591666 0.02024022 -0.097703636 -0.0801901 0.054803718 -0.0811329 0.0006768512 0.09593572 0.08031177 -0.010283692 -0.008671137 -0.08438159 0.047346182 -0.08063604 0.018930508 -0.043296132 -0.03131956 -0.05598727 -0.15135846 0.017384367 0.06763525 0.118636414 -0.07978162 0.0388393 0.030832369 -0.03298456 -0.0977885 0.06552831 0.03139606 -0.085174926 0.045044445 -0.07104847 -0.11718525 -0.09895266 0.05568275 -0.09768661 -0.006814202 -0.008972731 0.13470563 -0.08000259 -0.06937004 0.077489816 -0.12893684 -0.049723703 0.06135607 0.04614322 -0.115653336 -0.08910414 0.08160043 -0.08999977 -0.10219467 0.029189551 -0.116152056 -0.115521684 -0.0971437 -0.063153304 0.052780062 -0.08280103 -0.10201306 -0.015010248 -0.033904295 -0.10298509 0.035335764 -0.02130204 -0.080000274 0.10245133 0.14076969 0.022290356 -0.0014860235 -0.009265116 0.1152245 0.015953468 -0.08435012 -0.116088256 -0.009572132 0.061553556 0.12563515 0.00996696 0.060993467 -0.0642799 -0.11091012 0.09410678 -0.032084253 -0.101599626 0.07772729 -0.0884812 -0.089337535 0.016595406 -0.003478197 0.06310624 0.056722153 -0.017778255 -0.044121895 -0.0642591 0.06433415 0.067505516 -0.050178785 -0.006772715 0.024954893 0.0789694 0.09701158 -0.02357247 -0.07557538 0.06039832 0.07498407 -0.12465334 -0.066076 0.032480095 -0.13832149 -0.047328204 -0.052511904 0.056483887 0.035387777 -0.13140307 0.03814452 0.100264065 -0.07949834 0.073059864 -0.12156387 -0.009640138 -0.0031179048 -0.12694414 -0.024475925 0.09511195 -0.01626945 -0.018953761
-0.043530058 0.0020057496 0.14440416 0.15506744 0.14009295 -0.0058224653 -0.063177675 0.033824597 0.044813573 -0.005604513 -0.047338262 0.050496977 -0.12632957 -0.17353778 0.044296343 -0.04996017 -0.15371795 -0.013046994 -0.045231774 0.103552125 -0.047352448 0.00815966 0.1678155 -0.031191887 -0.027803754 -0.12883857 0.037645027 0.021625469 -0.07397003 -0.13277 -0.09889695 0.04012185 0.009320731 -0.07771395 -0.15850547 0.20713146 0.04374705 0.018968297 -0.06320366 0.0010376757 0.042984292 0.05356349 0.0638876 -0.16689637 0.075153634 0.06606918 0.12592867 -0.03285602 -0.08292662 -0.14763404 0.11108061 -0.23840843 0.09025464 0.10590064 -0.051744133 0.08143282 0.14193569 -0.1070798 -0.090400875 -0.09058977 -0.1891797 0.044431493 0.068915986 -0.21828637 -0.04575854 -0.048773363 -0.1479999 0.15342937 -0.097995035 0.07875517 -0.07931375 0.18788081 0.004235198 0.03717971 -0.08344475 -0.09451131 0.0899658 -0.006061813 -0.008955682 -0.06291283 0.08991041 0.18897818 0.12526827 0.16190422 0.060489066 0.051642727 -0.018900247 0.024029609 0.0037027737 0.12230003 -0.04833007 -0.03502583 0.10144145 0.047019575 -0.01575349 0.097403586 0.21764278 0.07082868 0.23957825 -0.121528156 -0.06371513 0.09264333 -0.21945778 -0.04310083 -0.0017033343 -0.019221753 -0.099382706 -0.056755643 0.092538804 -0.103641376 0.14321367 -0.022038013 0.09990637 0.07647381 -0.083977215 0.13594781 0.101876825 -0.033398774 0.19181575 -0.013125272 0.07375785 -0.044717863 0.14823535 0.10723524 0.001020784 -0.067210995 -0.031713136 -0.0061480175 -0.003637128 -0.019702125 0.08956926 -0.08460454 -0.02267811 -0.03731759 -0.012747175 -0.100512415 0.09262592 0.11997163 -0.06745988 0.02909485 -0.0006651073 -0.06594997 -0.096357554 -0.10686998 -0.010564904 0.054147232 -0.14882694 0.04937565 -0.041042604 -0.08584455 -0.09059245 -0.14445862 -0.060575545 0.13675444 0.01716136 0.0018056626 -0.13080136 0.07497178 0.35354623 -0.1685798 0.06886408 0.02221352 0.08305075 0.035923943 -0.004240175 -0.061490458 0.08560464 -0.040775146
0.13188073 0.08247424 -0.10589013 0.07553455 0.08400529 -0.06832699 -0.11157896 0.06362419 -0.02297944 -0.08638337 0.042483702 -0.01075286 -0.12692828 0.047604658 0.05810599 0.068416916 -0.019661276 0.044176858 0.029317256 -0.028483355 0.021938955 -0.021682227 0.20810439 0.002613414 0.061682176 0.0064517627 0.06972085 -0.17109233 -0.027403176 -0.02410957 -0.059593815 -0.037130695 0.11044566 -0.1022292 -0.13471569 -0.0794469 0.114359505 0.06004512 -0.011122722 0.0659089 -0.16252232 -0.01915869 -0.008681616 -0.113947615 0.06456019 0.002602406 0.034916688 0.017341819 0.091746524 -0.15320289 0.11683338 -0.11684305 -0.095056824 -0.022923885 -0.02724101 -0.11309644 -0.11714083 0.26058152 -0.06338686 0.15946513 0.07292041 0.020575292 -0.04105248 0.010534622 0.089803696 0.006740451 0.1582706 -0.24675882 -0.041903045 0.09940258 0.11341082 -0.06783122 -0.13766949 0.04765125 0.09529919 0.11867626 0.021695215 0.11305653 0.18586323 -0.08973172 -0.07197218 -0.106102645 -0.090974495 0.05295265 0.047400035 -0.13703749 -0.13439472 -0.09320069 -0.0015811266 -0.005572297 -0.03763303 0.03128154 0.0370239 0.033833124 0.14451224 0.033170857 0.16046974 -0.047358308 0.09762255 -0.03895315 0.13311745 -0.08501887 0.0045919367 0.09385601 0.085014395 -0.0790831 0.07228157 0.025424179 -0.015904915 0.104607634 -0.026602205 -0.0365263 0.05306148 0.17469993 -0.07003805 0.007614709 0.13357516 0.17729948 0.005087102 0.11165814 0.06476936 -0.06988712 0.0013905971 0.0033875923 0.06412283 0.035748143 -0.09785805 -0.008607979 0.19063447 0.020387094 0.07207665 0.17500609 0.07451575 0.099448234 -0.019597 -0.030887337 -0.060078613 -0.054437593 0.08139931 0.0012747699 0.05735607 0.108898975 -0.083734535 0.043443725 0.13536553 0.15311198 0.072956845 0.12684827 -0.085908026 0.095806845 0.018893847 -0.009711864 0.0033830984 -0.0052793133 -0.003710629 0.028380118 0.03000016 -0.05713855 -0.022981696 -0.046538744 -0.014799925 0.094150096 -0.029761698 0.1472597 0.072318725 -0.11795028 -0.017199205 0.06264312
0.018242354 0.009062932 0.09239121 -0.14359128 0.11787265 -0.036188222 -0.031215604 0.23513947 0.051224973 0.068135865 -0.06757494 0.036401734 0.101658806 -0.028738955 -0.07242423 0.09367867 -0.29336798 -0.12350541 0.083744176 -0.061759554 -0.07168352 -0.020533701 -0.0009306855 -0.04923502 -0.07201026 -0.25393248 -0.026292505 -0.2897051 -0.033912715 0.04802961 0.12327017 -0.11177076 -0.061518867 -0.034152333 0.043976262 0.021769715 0.093438245 0.03984475 -0.09580893 0.008563666 0.055406377 0.10133573 -0.012094981 -0.14174323 -0.016028117 0.0053080227 0.16644262 0.11287376 -0.065578885 0.04635876 -0.13037816 0.053116515 -0.07853164 -0.078122 -0.0694732 0.026739564 -0.26665777 -0.07699917 -0.02487698 0.122325726 0.034453332 0.06730549 0.02044456 0.1244539 -0.109253995 -0.0741791 0.12497168 -0.0018171797 -0.03572753 0.016145295 -0.1642073 -0.06637131 -0.06533541 -0.05610063 0.36868086 -0.04205075 0.16467568 0.02348026 0.0013971594 0.032869864 -0.021511078 -0.108357914 0.03489023 0.090476766 0.10409433 0.02543977 0.031086635 -0.025393642 0.028369287 -0.07272915 0.035814147 0.20479041 -0.10334295 -0.15719678 -0.0066618295 0.016017271 -0.039793745 -0.02362211 -0.13226369 -0.050754115 -0.0134452805 -0.023062775 0.14901721 0.0815399 0.1868561 0.042125348 0.021355081 -0.057008587 0.04187495 0.006737411 0.118856594 -0.06944222 -0.01725334 0.22305912 0.14892101 0.17968479 -0.07126875 0.12508234 -0.21970765 -0.046643563 -0.1291258 0.046299044 -0.0497644 -0.01634484 0.059822354 0.10751865 0.106008075 -0.055057436 -0.4604444 0.020533718 0.06216052 -0.11114579 -0.0030837562 -0.19644408 -0.03922199 -0.16683666 0.14185722 0.1067681 -0.043626204 -0.04699183 0.0057252264 -0.056935437 0.16412824 -0.08898258 0.02199901 -0.17985705 -0.15098341 -0.029781725 0.05973836 0.035298064 -0.026272358 0.19201364 -0.038655024 -0.049318187 -0.12435523 -0.067696914 0.06345239 0.059243236 0.15417811 0.0016408726 0.13288575 -0.036105122 0.044217326 0.04573087 0.11017979 0.0068946625 0.1015734 0.024512308
-0.113898024 -0.030302139 -0.07117797 0.18496841 0.04750545 -0.0689584 -0.1114932 0.011876273 0.008729617 -0.023248587 -0.06348993 -0.054507412 0.00022264045 0.036854714 -0.011208468 0.011299941 0.10805608 -0.085128814 0.012968078 0.041876458 -0.016850686 0.115345635 0.066670775 -0.043600556 0.021220433 0.10259845 0.08186909 -0.08366268 -0.0036613394 0.19209333 -0.038621437 0.091269575 -0.010791675 0.10767704 0.027927967 -0.07280976 -0.18072684 -0.0625675 -0.033999745 0.060649253 0.036471058 0.11944496 -0.090483464 0.03085883 -0.11697837 0.1423128 -0.07220117 0.027813876 0.12504566 -0.012498742 0.040121872 0.023856323 0.16146554 0.20501465 0.079598114 0.087631784 -0.082965374 0.2326102 0.0081187915 -0.011803414 -0.0048011853 -0.06183061 0.060488857 -0.03123177 0.011763069 0.043166645 -0.005974021 0.18770568 -0.09839563 -0.069721654 0.012984231 -0.10737574 -0.03703701 -0.1684506 -0.038093235 0.024016982 -0.055134937 -0.06343059 0.20509772 -0.13410191 0.056738745 -0.10344062 0.11073637 -0.036636047 -0.018511131 -0.25365627 -0.0592179 0.07958546 -0.12376548 0.034614626 0.13618359 0.04494354 -0.035251193 -0.01003203 -0.029586783 0.07419936 0.029408067 -0.10091493 -0.06488743 0.11530345 0.09707289 -0.17641492 -0.07716779 -0.030944359 -0.00031888345 -0.11806936 -0.16811858 0.10760603 0.07124138 -0.066994555 0.0634302 -0.05849735 0.011422305 0.07044611 -0.054802395 0.03649124 0.029718408 -0.03238477 0.094516695 0.0015218079 -0.01982579 -0.017360209 0.11771132 -0.13575478 0.099616416 0.03275837 0.047991287 0.07800059 0.22690745 -0.10190619 -0.004695091 0.12489811 -0.03933189 -0.090269715 -0.10725567 0.072771646 0.11381726 0.04695442 0.047597658 -0.07161105 -0.016604727 0.048049517 0.103274345 0.14815143 -0.08662856 0.02809278 -0.094391674 -0.052006423 0.114196636 0.011228676 -0.019530417 -0.058712374 0.06849688 -0.03897384 -0.008362901 -0.043356065 -0.062116176 0.0436755 -0.09228105 -0.010736373 -0.123122685 0.018694593 -0.048087973 0.08466627 0.03199875 0.025851542 -0.016145766 -0.014519561
-0.113072865 -0.1289555 0.014263943 0.009600824 -0.12484289 -0.073803015 -0.07156151 0.10619632 -0.014845655 -0.108260274 0.039212633 0.0875774 0.09544592 -0.12281183 -0.012243313 -0.07755605 0.05813028 0.039845947 0.029971272 -0.0844121 -0.07095825 -0.06447536 0.057769064 -0.12113921 0.03008982 -0.039378915 0.027171997 0.003590526 0.07036068 -0.04959506 -0.07956823 0.086457044 0.022150788 -0.073596224 0.098319225 -0.007080653 -0.04914794 0.15552303 0.080138996 0.035781838 -0.039176326 0.14179844 -0.029244004 -0.06401527 -0.07202221 -0.008110038 -0.06259787 -0.042743225 0.14540483 0.10651633 -0.12979184 0.028868428 0.05445133 -0.011585584 -0.026076032 0.002150822 -0.050444845 -0.12306673 0.008820902 0.04726016 0.15670551 -0.094470724 0.05343937 -0.071558334 -0.07835276 -0.035740778 0.018462395 0.01724873 -0.07082601 0.02854349 -0.047314547 0.0031817884 0.10322854 0.009843458 0.035111647 -0.11910404 -0.097073175 0.037217468 -0.11186024 -0.086583965 0.0630085 -0.0100483745 -0.0859615 0.028142443 0.074910425 -0.16245921 -0.10875626 0.05669612 0.12098707 -0.0093654785 -0.07367002 0.04667396 0.036420822 -0.10772793 -0.040417343 0.045550145 -0.019587014 0.036885045 -0.00078683655 0.03180426 0.08409561 -0.04147943 -0.00913889 -0.060083248 0.08595436 -0.0071624964 -0.07363785 0.014832882 0.13199788 -0.03769869 0.12732883 0.01959674 0.024605578 -0.00012093569 0.08412786 -0.12243372 -0.058805156 0.13347544 0.13583031 0.12244835 0.06013108 -0.02471221 -0.04835709 -0.006497311 0.058667257 0.08474855 -0.0688903 -0.0910769 0.4520063 0.15924089 0.05530986 0.04320881 -0.05768417 -0.048358895 -0.033511806 -0.04929123 -0.0019249481 0.019935343 -0.0012951663 -0.06345677 0.06580181 -0.10577154 0.102299586 -0.02162464 0.01132485 0.04929868 0.031757645 0.023670083 0.029569183 0.05825223 -0.043865588 -0.05898496 0.049566917 0.012078806 0.00073431147 0.09958992 -0.03800953 0.0991625 0.06665774 0.02262517 -0.03671841 0.057435207 0.084882885 -0.07739015 0.044058193 0.0060754004 -0.08437511 -0.094644055
0.14960492 -0.09968679 -0.12473629 -0.10043457 -0.007426683 0.09393469 0.0044061104 -0.13279803 0.089641824 0.03423814 -0.16681682 0.06935634 -0.115825936 -0.093642786 0.006614774 -0.067073494 -0.1422131 -0.12502125 -0.012156829 0.01976918 0.07404923 -0.06898537 -0.07531804 0.038791493 -0.09945916 -0.14316706 -0.045361146 -0.019209944 0.01584628 0.0049454113 -0.109479904 0.08741552 0.064148314 -0.047146674 -0.050811626 -0.019607823 0.039455384 -0.006178291 0.034015033 -0.04818731 0.07425071 -0.031090802 0.13001193 0.057900906 0.0755479 0.14506535 0.13473357 -0.0669171 -0.024894891 -0.0369839 0.025781231 -0.0092975 -0.05894847 -0.062408205 -0.033746213 0.014848009 -0.104643226 0.12890314 0.07007759 -0.10586966 -0.14559256 0.08942057 0.029933525 -0.07033047 -0.037115563 0.038044963 0.061543338 0.0984421 0.07938022 0.07484093 0.017482914 0.013484382 0.027910154 0.0035937815 0.07024304 -0.033843946 -0.012905767 -0.007958557 -0.085160196 -0.038841687 0.079791315 0.07642482 0.08953147 0.041974332 0.03124157 0.067554705 0.03699397 -0.05264095 -0.06909538 -0.040299334 -0.014414001 -0.009616645 -0.16790749 -0.10411598 -0.15145057 0.041281216 0.059540797 -0.051582683 0.100575686 -0.09246217 0.07894428 -0.12026401 -0.01927826 0.0136528425 0.069271475 0.09861847 0.09769862 -0.03994071 0.13772267 -0.06893562 0.12041 -0.060805663 -0.07794622 -0.14167207 -0.1041685 -0.11467039 0.03624184 -0.16544108 0.03770787 0.08835717 -0.06657528 0.08471495 -0.015864367 -0.022812951 0.024753956 0.10101971 0.026778927 -0.076475315 0.03005431 0.008682136 -0.10339196 0.061475027 0.116419226 0.11379219 0.07944095 -0.018568538 0.08942756 0.06440052 -0.077734485 -0.027182758 -0.07401323 -0.11427283 0.12510392 -0.018178366 -0.044986565 0.12169096 0.000354335 0.07672834 -0.030576214 -0.10749366 0.048274755 -0.062263362 0.0583274 -0.039381523 -0.117778696 -0.014847029 0.088732116 0.008969148 0.09862197 0.020639764 0.013624691 -0.11725325 -0.07696322 0.015868392 -0.0870592 0.07106225 -0.011596044 0.052597813
-0.0863847 -0.007581992 -0.12307621 -0.0433156 -0.026274672 0.006862273 0.119070105 -0.056173906 0.079352155 0.027524453 0.21097931 0.1542262 0.044762615 -0.098593935 0.05985153 0.04927583 -0.2082717 0.02215527 0.029334683 -0.03331452 -0.15208223 -0.0241435 -0.0683035 0.009104759 0.036953118 -0.032161642 -0.0038123487 0.005519577 -0.016904935 -0.21126166 -0.06525034 -0.033204634 -0.02075578 -0.06832125 0.02388688 0.016177269 0.06720561 0.04209323 0.03538793 0.046484213 -0.25167435 -0.17194374 0.08017492 0.0955151 0.061394256 -0.084447704 -0.02653918 0.049215965 -0.0013394684 -0.09691541 0.059217222 -0.04103827 -0.002230551 -0.12603088 0.037551828 -0.14976843 0.09752921 0.19443645 0.02989593 -0.011975061 0.17051974 0.042317066 0.008539433 -0.1484117 0.07103859 -0.09456911 0.0028112582 -0.06906482 -0.17382842 -0.05377739 -0.06514263 0.03392808 -0.021530787 -0.08876993 0.0043076095 -0.12789032 -0.039777424 0.013032531 -0.13574868 0.023991901 0.1457276 0.008573834 -0.059173338 0.004373108 0.04364099 0.03978801 0.067801915 -0.10172788 -0.02818036 -0.029379264 -0.053482022 0.19146007 0.10092342 -0.00030159796 0.057466123 0.027037648 0.10204875 -0.09275331 0.1326247 0.03961998 0.1716549 -0.016257998 -0.09411126 -0.13936551 0.14492981 -0.036268007 -0.05463958 -0.09526898 -0.008783248 0.059240587 0.06734989 -0.00038164255 0.15117195 -0.2644609 0.12440964 0.04550389 0.13397092 0.063776314 -0.15897349 -0.056183882 0.013396492 -0.027465848 -0.055320673 0.012752579 0.090271 -0.09740979 0.2395633 0.049420938 -0.36616614 -0.030114861 0.19117253 -0.025612084 -0.030261979 -0.09003217 0.0010557466 -0.09295989 0.0612047 0.02643083 -0.009268372 0.030170752 0.043785684 0.07537486 -0.031431284 -0.12364544 -0.04609837 0.017608417 -0.019381965 -0.07355814 -0.18190742 0.039142065 -0.041214097 -0.11337167 -0.1323032 0.07158632 0.047901165 -0.16112822 0.03168204 0.13205688 0.04554714 -0.026323501 0.03546628 -0.011406123 -0.02887126 0.14854246 0.09113779 -0.0480756 -0.009030187 0.032299984
0.10725615 0.050988358 0.095295705 0.12062185 -0.10717662 0.06416607 0.081853576 -0.022277037 -0.05259606 -0.025262104 -0.09786382 0.10716694 0.07176124 -0.14049898 -0.014197559 0.074017584 0.014108205 -0.09374137 -0.07004062 -0.02379858 -0.030319521 -0.039294664 0.115748465 -0.17799526 0.0741037 0.069597244 -0.15603738 0.0565736 -0.13164361 -0.10035919 0.06421179 0.0326722 -0.03942514 -0.06266732 -0.14163437 0.11862419 -0.013546672 -0.025733598 -0.0829856 0.08335371 -0.0051435344 -0.104467735 -0.07145798 0.06965854 -0.07031821 -0.12528118 0.10818545 -0.038598552 0.02636798 0.11121033 -0.0052148583 0.04865172 -0.05116515 0.059979785 -0.004452184 0.12176516 -0.031477217 -0.04788889 -0.08081085 -0.09298532 0.1245998 0.08752094 0.10280516 -0.07822694 0.09820716 -0.10360564 0.075108215 -0.13014911 0.10046379 0.108669065 -0.14864895 0.03353332 0.108155705 -0.0053342087 -0.020038234 0.13099273 0.07787216 0.044302523 -0.005202967 -0.050536875 0.028165141 -0.02685212 0.038724907 0.07949066 -0.028147547 0.003673671 -0.024736578 0.10452742 -0.08439312 0.06368184 -0.036383893 -0.121167906 -0.049351115 -0.06710848 0.058585923 0.029730609 0.027689943 0.059258368 0.07829222 -0.017374925 0.1294612 0.007768941 -0.00076243427 -0.14162923 0.111453675 -0.04722102 -0.04839642 0.11601267 0.065737195 -0.0703 -0.071010776 -0.081067435 0.08965596 -0.06322656 -0.11869266 0.052325707 -0.04726484 0.023335176 -0.1115706 -0.06329727 -0.14977242 0.033982348 0.12050595 0.0180669 0.09245178 0.112426825 0.024844017 0.013790491 0.2031948 0.009517151 0.032021143 0.040161464 0.058993574 0.0062605017 -0.12634864 0.023044247 -0.08990595 0.0406445 -0.06767896 0.01510717 0.08982202 -0.05471892 -0.04072517 -0.020639833 -0.04378594 -0.1061427 0.089927256 -0.010256904 -0.07920284 -0.088171236 -0.04650199 -0.022021692 0.014351808 -0.10944745 -0.032842085 -0.13510227 -0.022234678 -0.0070596207 -0.000111185196 0.12981875 -0.12316032 -0.108718686 -0.07472411 -0.10062985 -0.13541742 0.10762073 0.06052691 0.0051348316
0.049094748 -0.03024487 0.017280735 0.0067092697 -0.03919272 -0.06370796 -0.068653315 -0.022413168 -0.06668752 0.009694056 0.1065312 0.017991057 0.041161265 0.030523885 0.12387855 -0.12556686 -0.058976635 0.04452097 -0.056814194 -0.15207075 -0.039017342 0.05423515 0.010275272 0.051952593 0.021030582 0.28345752 -0.084678195 0.19096307 0.0257486 0.08519202 0.031686522 0.14126888 0.024821324 0.08761751 0.19042195 -0.101069264 -0.011860128 -0.026041338 -0.009570243 0.0075059957 0.076530725 0.06281923 0.04611446 0.06746543 0.025511015 -0.0012833447 -0.124137506 0.061865717 0.062190536 -0.08897922 0.05827904 0.072918184 -0.061800253 -0.048807498 0.03577619 -0.092123665 0.1879999 -0.21633914 0.007651677 -0.06490066 -0.048639294 -0.09080858 0.016711494 -0.05930561 0.10302987 0.10645079 -0.15875466 0.09990625 -0.052556213 0.061361287 0.08583527 -0.10249296 -0.08512825 0.004960195 -0.08534744 0.06270219 0.08044396 0.057290405 -0.029918417 -0.10167299 -0.01972518 -0.114134036 0.053763542 -0.015416214 0.059957583 0.07769221 -0.073290914 0.0947369 -0.021493519 -0.09942672 0.14029391 0.15776275 0.13238953 -0.079460345 -0.0898113 -0.013126839 -0.09913393 0.04169192 0.021648817 -0.083446614 0.002064916 0.025146006 -0.075205065 0.058339156 -0.00013905767 -0.03526834 -0.016868636 0.07874337 0.07474912 0.06361785 0.14350052 0.038743567 -0.06690935 0.08797517 -0.0051642098 -0.033766545 -0.08648733 -0.015007487 0.12010727 -0.07563848 -0.0055285944 0.061681453 -0.108339146 -0.09916687 0.015529331 -0.018806364 0.1019396 0.050746314 0.05717469 -0.037379455 0.018219065 0.024895906 0.03899305 0.06620884 0.050223906 -0.038885992 -0.014073513 -0.07425468 -0.028035028 -0.011281004 -0.06703145 -0.05181999 0.113405295 -0.0385013 0.108718425 -0.06572624 0.01413199 0.08528747 -0.115311645 0.08914664 0.075214975 -0.024391703 0.028322903 -0.10926858 -0.0327556 0.020467298 -0.08323286 -0.091733724 -0.07257175 0.0711316 -0.044807255 0.0721961 0.09231008 -0.11878326 -0.021336373 -0.10063042 -0.055746626 -0.035047565
-0.032771032 -0.07931948 0.059655536 -0.06056455 -0.08331385 -0.08933295 0.08029122 0.017646482 -0.0022027553 -0.1950141 0.042859122 -0.0498566 -0.13071348 -0.13221598 -0.0033914084 -0.06581885 0.06828062 -0.08567731 0.01554839 -0.04192375 0.023483569 0.11574142 -0.019735692 -0.055934444 -0.11643255 -0.12915717 0.03768973 -0.051061206 0.07660496 -0.03406166 -0.17479269 0.05987952 -0.014516401 0.006556687 0.12694487 0.016951121 -0.07402464 -0.043505117 0.018356595 0.011046364 0.15124585 -0.09333592 0.056417253 0.024455676 -0.051460735 -0.08331213 0.024827162 -0.03744622 0.102863856 0.10554571 0.030803623 0.028584363 -0.0650923 0.20867978 -0.09321298 -0.15793133 0.011441478 -0.44876385 0.11642813 -0.060504485 0.17460866 -0.008708044 -0.09152229 0.11399759 -0.123546354 0.11490464 -0.21093541 0.04285483 0.062262077 -0.12876093 -0.1565253 0.029061599 0.09644343 0.08010745 -0.13471925 -0.0093088485 -0.12822558 0.0426549 -0.28219378 -0.0008826166 0.07676102 -0.049395755 0.078681774 -0.2357561 -0.12961428 0.027400907 0.02102421 -0.07584435 -0.025726456 0.065998256 0.004121306 0.035535626 -0.051275823 0.087682694 -0.0050571286 0.009965482 0.123471506 0.054196816 0.07364271 0.056055546 -0.13463387 -0.14127858 0.05684642 -0.19519763 -0.17136635 -0.033140585 -0.11001499 -0.01832651 0.1074864 0.040405583 -0.055471666 0.06280425 -0.037961215 -0.10066737 0.013031434 -0.026020056 -0.033080854 -0.00859035 0.024564795 0.07451234 0.04713359 0.08556119 -0.008495998 0.07846349 -0.007360091 0.062491592 0.17033403 0.12772675 -0.3196292 0.027866289 0.053494368 0.05885628 -0.045616757 -0.0026709812 0.052700233 0.031402986 0.0064059654 -0.007828302 -0.03512555 -0.0703426 0.096816294 -0.13928695 -0.19823867 -0.068465166 0.017068783 0.09226123 -0.071233995 -0.11456069 -0.15807278 -0.06371476 -0.008399975 -0.055786923 -0.11304539 0.07042629 0.021918487 -0.02939129 -0.115442485 0.065867655 0.1193551 0.054494202 0.040794306 -0.034944117 -0.030022215 -0.065582745 0.004362299 -0.028037107 -0.11221515 0.10418966
0.061094034 -0.18993504 -0.13684838 0.19389178 -0.038892414 0.030632015 -0.08021198 2.6069624e-06 -0.01701043 -0.14161845 0.11770408 0.01943863 -0.010893643 -0.09984021 0.040416192 0.008414465 0.14651863 -0.04280051 -0.0152311195 -0.18054162 0.11743696 -0.045190338 -0.03658857 -0.039323382 -0.060388166 0.06025071 -0.047808148 0.19007969 0.050389007 -0.1648211 0.006768856 0.006856764 -0.10900282 0.0052865087 0.0069779274 0.010484136 -0.070071235 0.16155091 0.046110936 0.026090506 0.16177957 -0.03105671 -0.010925045 -0.04148626 0.059622973 0.016408797 -0.008543171 0.1366921 0.037378117 -0.05507672 0.009951796 0.028434634 -0.06853793 0.26523256 -0.08348842 0.0760906 0.011406226 -0.20755817 0.05676207 -0.03140071 0.007537153 0.106927566 0.04806063 0.2228432 -0.016260449 0.15132181 0.1326946 0.13937636 0.100205824 -0.061309803 -0.104577355 -0.012273783 0.07662256 -0.018171968 0.013966016 -0.0011267771 -0.13801043 0.017913813 0.15027171 -0.03008867 0.038339477 0.06187452 -0.12159012 -0.20552388 -0.06347524 -0.11792582 0.12959987 0.05206824 0.093726896 -0.054052 -0.007493218 -0.055315707 -0.03520433 0.06508476 -0.03643729 -0.11772597 0.0138470065 -0.02700687 0.06960368 0.03458152 0.12830092 -0.066160575 -0.009893845 -0.0018502618 0.023977507 0.023748334 -0.03294888 0.055396203 0.050994854 0.018267265 0.022666994 0.006118362 0.022520406 -0.16203088 -0.03877502 -0.05988982 -0.030959504 0.19366904 -0.13018356 0.078253224 0.010753805 0.026917893 0.056199107 -0.039394014 -5.036644e-05 -0.038310185 0.048115894 0.016552005 0.27126598 0.06091722 -0.05107121 0.043475356 -0.11828251 -0.03183035 0.05312712 0.035740677 0.0940499 0.069136575 0.01503075 0.023583911 -0.050758746 -0.15294713 -0.016895445 0.058164652 0.08344734 0.2134779 -0.017018562 0.15254717 0.036506075 -0.0011650858 0.20573363 -0.07572569 -0.057915136 -0.08113295 -0.040435523 -0.02850008 -0.10135138 0.026060216 -0.06024472 0.025138665 0.0046709636 0.044921696 0.06333576 -0.0008133462 -0.012507532 0.028122837 -0.0019872037 0.01694933
0.06617536 -0.16213979 -0.09436105 -0.020421524 0.07663469 0.075766325 0.11571816 0.1483699 -0.13035575 -0.3530881 -0.028244857 -0.023808924 -0.093540914 -0.12454669 -0.058273055 0.095164716 0.17339958 -0.12102464 -0.067758106 0.0006529429 0.088942856 0.09402572 -0.17199272 -0.024153879 0.023886096 -0.13785915 0.0700614 -0.025614789 0.039450787 -0.027277555 -0.03020485 0.04822346 -0.06810014 -0.11790026 0.06353453 0.024046132 0.026435915 0.0749466 0.059814997 0.04229806 0.0674719 -0.06035744 0.14334907 -0.10707974 -0.051989254 0.039435912 -0.10979025 0.124290206 0.025628787 -0.01521014 -0.102424584 0.009899395 0.045221973 0.11139139 0.013290486 -0.06664523 -0.009995714 -0.1403846 0.18837997 -0.013072308 0.048385065 -0.13092388 0.029310571 0.008056999 0.11208907 0.08142335 -0.00446839 0.015375532 -0.07889337 -0.04274741 -0.104468025 -0.054057557 0.091391794 0.110253446 0.007249986 -0.06285703 -0.018331517 0.082951546 0.025931794 0.041886427 0.105009936 0.032458052 -0.09360993 -0.1233867 0.021728372 0.0024385594 -0.07345468 0.11057817 -0.076124996 -0.11123807 0.12927191 -0.0008820012 -0.009801883 -0.043755155 0.09245543 -0.11561255 -0.045516826 0.11036467 -0.08691324 0.037497744 0.099524766 0.033723883 -0.010144933 0.03683775 -0.1665339 0.12141254 -0.07642083 -0.014195703 0.07598351 -0.016023738 0.05010735 0.011841079 0.07190529 -0.012469979 -0.089582495 -0.09190006 -0.036179952 -0.04403672 0.0074119875 0.1129102 0.120285645 0.0311074 -0.041834306 0.08272428 0.050676867 0.086878106 0.08880161 0.056684636 0.44750264 0.053263027 -0.0014428209 -0.12574422 -0.07418402 -0.08235837 0.068466775 0.09923935 -0.028206086 0.097738676 0.029897328 0.10874606 0.050968114 -0.12361919 0.06844262 -0.13893618 0.05235867 0.1912297 0.058597192 -0.076983586 -0.19680397 0.0682126 0.13654101 -0.07087488 -0.08773285 -0.07163653 0.003987194 0.105292544 0.021001529 -0.04223393 0.0976764 0.07961222 0.055285703 0.0018021892 -0.029173635 0.038111456 -0.09091004 -0.021734579 0.013549498 -0.007173721
-0.117380194 -0.09678943 0.112888716 0.021507625 0.0101970155 0.0035851025 -0.039621484 -0.04236247 0.0073285634 0.13698213 0.07803756 -0.0824856 0.120011464 0.054463886 -0.06876143 0.020104973 -0.20461972 0.061930485 -0.042102978 0.050389927 -0.04489398 0.10298711 0.07911929 -0.045879785 0.08758719 -0.100141235 0.059570916 0.06375264 -0.11154965 -0.25425994 0.03068301 -0.11524102 -0.031523887 0.05083638 -0.09375651 0.066503875 -0.03512354 0.07835923 0.040818725 -0.096790045 -0.05986663 0.012186237 0.037467398 -0.039596368 0.13000335 -0.06767881 0.024019301 0.08807565 0.03879517 -0.10033943 0.1262663 -0.08327597 -0.04420753 0.024332553 0.06370019 -0.056116752 0.011622512 -0.16155738 0.08282774 0.057122465 0.035881978 -0.074233145 -0.012115972 -0.015471842 0.028859526 -0.04824997 0.05583037 -0.15236557 -0.07250846 0.048090726 0.14917172 -0.026820108 -0.112055615 0.00026650532 0.09306029 -0.026244484 0.008226865 -0.15120505 0.029409075 0.06306205 -0.09685615 -0.08602051 0.14664824 0.015420292 0.044002466 -0.21941295 -0.096574895 0.017671438 -0.041540418 -0.09981982 -0.15691096 0.026542546 0.15947212 0.042956322 0.111158565 -0.0372965 0.15124162 0.11239222 0.122183464 0.12552063 -0.105627105 0.08838119 -0.037391156 -0.04286807 0.08532203 -0.04232387 0.0012777026 -0.007281395 -0.008582303 0.13676888 0.13603783 -0.059712462 0.08579882 0.06639114 -0.0040307245 0.013596896 -0.08578443 0.053493477 0.05933361 -0.013309789 0.08549244 0.028389199 0.0628697 0.06782706 0.02365642 0.033204317 0.07155294 -0.006582837 -0.0848425 0.021911621 0.034551125 -0.09024947 -0.0769497 0.11344991 0.0035489849 -0.08612379 -0.10046194 -0.094306946 0.09933916 0.009662174 0.074928775 -0.12020027 -0.025877086 -0.05962745 -0.0033210076 -0.067925654 -0.037576113 -0.09272158 -0.06983297 -0.025751805 -0.08904178 -0.13873565 0.077077545 -0.0342436 0.07640698 0.040069453 -0.03923214 0.2276718 0.102626495 -0.044606168 0.07745484 0.06677552 -0.108921945 -0.09670039 0.0007551199 0.03224344 0.121509865 0.097259454
0.036910076 -0.01436851 -0.05936183 0.006103421 0.12544258 -0.05841721 0.057244 0.09912117 -0.028015023 0.17658351 -0.0015615539 -0.049877603 -0.06835664 0.1250315 -0.04017568 -0.08677343 -0.015976887 0.11771812 0.12091017 -0.007925364 -0.036399677 -0.04695576 -0.08940306 0.098645195 -0.09524081 0.016767219 0.09186298 -0.18966287 0.055690095 0.04924346 0.013418291 0.10575286 -0.015460123 -0.041139636 -0.10523293 -0.13729958 -0.053150177 -0.17688139 0.10358992 -0.056474984 0.028589467 0.006372196 0.054006606 -0.10980672 0.017356543 0.061556835 -0.07457749 0.06482803 -0.00187733 0.086157925 -0.08216916 0.022515224 0.01718437 -0.047806382 0.053751707 -0.069817804 -0.2451159 0.30205634 -0.08929943 -0.007838537 0.029601712 0.026521258 -0.09276683 -0.09126292 -0.05200638 -0.15085904 -0.047791846 -0.0038228761 -0.14076291 0.11526117 0.022115424 -0.015463744 0.061501306 0.027794652 0.06373945 0.021031404 0.0265462 -0.058603954 0.050549004 0.061164446 -0.087203115 -0.13995534 0.09201043 0.0132443635 0.12057721 0.038288496 -0.03742751 -0.14417578 0.061234154 -0.07832835 -0.10403452 0.20675458 -0.101600096 -0.006865494 0.022888323 0.054239534 0.0013610179 0.052550897 0.07465057 -0.045172982 0.05470869 0.08322503 -0.20605904 0.121911876 -0.022843065 0.14085215 0.0032302437 0.039886102 0.04988553 -0.079961635 -0.11808025 -0.1410127 -0.14293976 0.18437684 -0.017157502 0.10224663 -0.063227266 -0.069035545 -0.028015917 0.10958201 -0.04702268 -0.047380604 0.041423306 0.06405757 0.021388974 -0.07511397 -0.101919755 -0.1079602 0.043761607 -0.034975167 -0.031450767 -0.03465496 -0.00969498 0.074378476 -0.03432963 -0.05398531 0.0015330979 0.07933346 -0.020192347 0.08558764 -0.017003056 0.079021014 -0.022080828 -0.13808237 -0.08154667 -0.034217615 -0.0010565139 0.08016042 0.12656496 0.007829712 -0.020650653 0.13273393 -0.013752922 -0.021506695 -0.09836275 0.095512025 -0.09886964 -0.11936816 0.007434094 0.022989247 0.03231712 0.009387198 0.030822754 0.13405256 -0.07352422 -0.0003387571 0.057292495 0.02182975
-0.069602154 0.09462005 0.044928145 -0.0953344 0.09002255 0.011082622 -0.11967568 0.046904884 -0.08661689 0.18285294 0.1505709 -0.082619466 0.085385524 0.14620176 0.04447603 0.039214503 0.05870544 -0.082775034 0.029427383 0.09078209 0.094356805 0.07277668 0.013392262 0.053227488 0.005746068 -0.010661916 -0.018338474 0.11869013 0.06532423 -0.020945309 -0.076832294 0.037904274 0.05982341 0.027409036 -0.032178447 -0.107332215 0.09231776 0.0119051635 0.013294497 0.0951374 0.07443457 -0.054568462 0.004445417 -0.061974674 -0.079066634 0.004482505 0.06456705 0.122518435 -0.054379642 -0.03254029 -0.080375545 -0.002495867 -0.07135103 0.11910886 -0.025836049 -0.057605483 -0.02721931 -0.0714824 0.0032266923 0.059613667 -0.12084817 -0.00762046 0.05627391 0.030457525 -0.004202938 0.13187373 0.06918472 -0.038202625 -0.1472312 -0.11558675 -0.051148318 0.03688725 -0.15124552 -0.1177264 -0.1208933 0.051372014 0.08860852 0.06584093 0.09339472 -0.0144033665 -0.11968439 0.07658018 0.020150758 -0.05911162 0.1690957 0.10385315 -0.058581803 0.019403318 -0.05873238 -0.024107423 -0.12633218 -0.053378772 -0.06277266 -0.04145724 0.061729796 -0.07599007 -0.06527 0.03459547 -0.09909683 -0.041566957 0.057310835 -0.08501334 0.06821277 0.01775225 -0.09111563 -0.051848043 0.17097694 0.02942089 0.005571775 0.014429724 -0.05254339 -0.0037508474 0.09284809 0.10049779 -0.038545366 0.061577022 -0.03717211 0.08646608 -0.02802701 -0.17086612 0.09900745 0.03824657 0.05037765 0.006850593 0.0786902 -0.00026765384 0.09278232 0.0710101 -0.049939297 0.041603833 0.009632002 -0.009839158 -0.07884563 -0.025849786 0.0064507285 -0.07087669 0.062368084 0.04111883 -0.05825035 0.007421857 0.08666875 0.037450172 -0.041923836 -0.016404336 0.085066766 0.028565042 -0.03442261 -0.09511165 0.0059635164 -0.069986515 0.05021325 -0.10133167 -0.1070738 0.034452014 -0.092332564 0.07660625 0.092747435 -0.11043189 -0.0028450473 -0.044281676 0.058085065 0.029559625 0.099299 -0.0879049 0.06321879 -0.02220106 -0.046540134 -0.10280746
-0.049580272 0.01154774 0.056546554 0.08413728 -0.10373955 -0.09001328 0.13956244 0.048880827 -0.08661307 -0.16391689 0.00086078537 0.10587348 -0.034599014 0.17866799 -0.043618172 0.1340585 -0.067495026 -0.09958537 0.055601597 -0.0048902677 0.101179786 -0.17393032 0.123048075 -0.007929581 -0.033586636 -0.03332349 -0.059429433 -0.0064898445 0.05425649 -0.045166917 -0.06832549 0.0016010894 0.08137253 -0.009695394 -0.130911 -0.039233815 0.1573301 -0.015742807 -0.084129766 0.11600332 -0.14229675 0.044053305 0.10678265 0.024951681 0.0046577086 -0.12329836 0.079444334 -0.09420808 -0.08485852 0.06305878 -0.0042503406 -0.1251199 0.116177976 0.08899208 -0.13288595 0.09076337 -0.14493442 -0.092096664 0.052302033 0.1743042 -0.07599338 -0.0024213293 -0.0822416 0.046656538 -0.12430917 -0.116147235 -0.04664881 0.06885275 0.017310431 0.08093478 -0.11265399 0.113061115 0.009793 0.07454245 0.066397205 -0.03034729 0.06970703 -0.012799586 -0.06024946 0.046822954 0.017548764 -0.0284396 -0.08362021 0.07327561 0.012879191 -0.07554214 0.07194635 0.035773538 0.0664989 0.06192765 0.057096504 0.05638788 -0.1454809 0.060486086 -0.05788437 0.11482708 0.03566221 -0.011712299 0.003373122 -0.07375907 0.04657945 0.035443276 -0.040905103 0.106026314 0.0062765246 -0.080987625 0.15360852 -0.13429548 -0.059989564 -0.04357861 0.17198761 -0.099050544 -0.05573871 0.04869011 0.028849011 -0.06664726 0.09310025 0.11658091 -0.046966504 -0.023489745 -0.0021964014 0.10052053 0.13490205 -0.018392827 -0.08262975 0.0013611729 0.08256712 -0.11131467 0.2524286 -0.042546652 -0.04315056 0.07705458 -0.072071165 -0.064525224 -0.026001524 -0.0045921793 0.09247912 0.05155452 -0.039474245 0.03104418 0.045587204 0.041621603 0.09650996 0.0044738892 0.10269219 -0.021108367 0.052501615 0.119855374 0.023470635 -0.050762776 0.103204526 0.0763243 0.10802436 0.01676641 -0.11218769 -0.120915346 0.027534086 0.054904398 0.04962957 -0.10886813 0.0057396605 0.015059868 0.008558359 0.013827842 -0.061390944 -0.07928203 -0.028200788 0.11642144
